solver_type L2R_L2LOSS_SVC
nr_class 4
label 0 3 2 1
nr_feature 7389
bias -1
w
0.043833386778669728 -0.03892456903953926 -0.2411366955084227 -0.25649749808843975 
0.048938340284115291 -0.017668826437752021 -0.32912965782727654 -0.17246674907054421 
-0.18642923326217054 0.20596531444333463 -0.36576723906974368 -0.34165770508742632 
-0.246343343675893 0.15227696681999162 -0.1879683387297624 -0.17618393125899376 
-0.65016978291508043 0.82887645367091889 -0.38917477536649675 -0.36645166973662541 
0.13524997009614714 -0.13236770416096433 -0.26271238734222263 -0.24833715736511777 
0.21488381260324829 -0.16418560372502647 -0.17310619582739112 -0.24061737392537363 
-0.44015057017707904 0.45517414708587101 -0.18363951835342532 -0.48033100820998842 
-0.54737373331150563 0.62876283373591979 -0.50116722940382163 -0.30439293176562676 
-0.5202638525918073 0.48039861459925393 -0.27921813385719579 -0.25388604605219839 
0.0097280608469651544 -0.013130729295340435 -0.21793722383356617 -0.26261973972471631 
-1.5346905907386443 -1.5655439939702662 2.3273147366847229 -1.7742241068273144 
0.036612257743671842 -0.11948885040884212 -0.25888331458545732 -0.29007368553201379 
-0.081321548124793822 0.13805912106327622 -0.23636784464422037 -0.17237927409344894 
-1.5787982679870187 -1.5056584199413945 2.4115834664360536 -1.6820456583840921 
0.27086163738239266 -0.22429456371131334 -0.30889026719421431 -0.098299831936197374 
0.17764545747128083 -0.20226692403129243 -0.19292181792907753 -0.045025164064356228 
-0.17633332403985566 0.20698451949297794 -0.28762474214711803 -0.19431262936539523 
0.023511710426508535 -0.14967683492074174 -0.12953119975042568 -0.2652730902736965 
-0.84330147855438431 0.89705024632903574 -0.45310261696065768 -0.27206588424030331 
0.47978417509757942 -0.52543225823886797 -0.12186109066720537 -0.12263508170160003 
0.38793886391914917 -0.38403487326545588 -0.19955122201994563 -0.24643515970036017 
-1.8009693042903059 -1.7463536795901626 -0.4471081241528333 1.6815806519075682 
-0.29567248362516052 0.11099775465343521 -0.20998535874305843 -0.35440588190463612 
-1.6884025608773969 -1.8165574030347651 -0.22770045823574753 1.6619894825182788 
-0.11685175474875369 0.11839504966334839 -0.10991627602172643 -0.16575878634295035 
-0.85481446468662969 1.175641423355672 -0.21316379975194555 -0.011109992983493633 
-0.029490138967874717 0.040834867367307452 -0.17635941737283281 -0.1677575304143327 
0.10737501645287433 -0.18648587326712487 -0.21338364863139545 -0.14905391916164881 
-0.015294266784929064 0.0138202291625883 -0.12198214175946616 -0.102153883661464 
-0.091092840020940841 0.12119481859224947 -0.35480097628317109 -0.45075424740793812 
-0.34969480319266566 0.35917536830248581 -0.052522208727131474 0.19447251333736054 
0.2832297244187198 -0.31232900005045094 0.078972469489002287 -0.138875807759889 
-0.1525260337193545 0.19564464129632914 -0.2861571321002061 -0.1877688494412344 
-1.9168109252525374 -1.798553423312284 -0.38031839753052771 1.8507178543875238 
0.0062223566004964599 -0.027612034356986049 -0.17321311554390068 -0.16292309183715195 
-1.6229963355175667 -1.6667111330997 -0.1383305373483027 1.6934796792534064 
0.021211599568715288 0.001298679924280486 -0.19578816484765649 -0.15814772933570284 
0.34190593000453634 -0.22058941539274557 -0.29057831746247015 -0.20903552124550917 
-1.2433774074741111 1.02120755321387 -0.31801893632532757 -0.60880166537756963 
-1.4336891696939635 -1.3452841985615072 -0.38873958106588935 1.7329861662717669 
-1.2585249541566303 0.87140365937018116 -0.21540959069772317 0.084962690956647727 
-0.0038367895045093069 -0.012449889385399784 -0.06667902554786953 -0.081887356707647463 
-0.68112615502794271 -1.1314510439116618 -0.020359020724596721 0.033820365188814649 
0.13345626608232677 -0.14968280844061577 -0.11744078173117323 -0.50673136487342074 
0.15539455350569925 -0.054241222584588758 -0.24631972510509281 -0.27198568697649345 
0.0012165495377292456 0.041918975332079153 -0.2548104890586651 -0.16480843181184635 
0.025238630861393427 0.0087944558912341798 -0.29403037173620461 -0.23574251881502839 
0.067521748124210759 -0.076229847815205948 -0.25343470582556865 -0.27209798606178587 
0.094266099035492851 -0.082583069418012439 -0.3546683825856034 -0.39288446722882214 
-0.30732543339940133 0.26377611457608657 -0.26136004979706218 -0.11378601838247331 
-0.0055959363387473541 0.024699426719853788 -0.20347876200205955 -0.19187455974205636 
0.0028281396743103787 -0.0078432751324036265 -0.11265769877907506 -0.20775116724495782 
-0.076965123328149171 0.084880618998589563 -0.15263613539208615 -0.18711066720912423 
0.80107227447633333 -0.8519993553899885 0.037360627877204539 -0.21033764565504542 
0.038745186686798536 -0.01198429669673038 -0.063241653527723138 0.12000935998958849 
-1.2251291902447132 -1.5697532336166631 -0.28289577538349475 1.0902826710599551 
0.12853690848197102 -0.083175260503648624 -0.077218026131743389 -0.19317124426539922 
0.14459021974042766 -0.13437273731614291 -0.38670046716173312 -0.33401230478090044 
-0.30647005561625668 0.24558024240240525 -0.22548726251055892 -0.23921477705023575 
-0.2681215607242346 0.22859915582729798 -0.20023618155381734 -0.17503818967730581 
0.072423984149786388 -0.020205983383094536 -0.1020376670466447 -0.026356592143162813 
-0.19382838857543644 0.25902501216210105 -0.30524931840662795 -0.3274386990991035 
-0.061435338918889068 0.044021229412149539 -0.17579381716020714 -0.15690096323784644 
-0.090970042285503025 0.13101271448589666 -0.28383035361840669 -0.15904633631375342 
-0.046626641967589567 0.04945144928823228 -0.2670591952294824 0.1389221223428555 
-0.15824067662052374 0.14332273393546982 -0.17377931426510618 -0.22504377980296611 
-0.14755072405913011 0.15362705067648746 -0.16200492882088591 -0.19912651597559883 
0.080676778812960093 -0.099142514134770821 -0.062878396093872357 -0.12205274369307924 
-0.069860317067898553 0.15589080415448253 -0.12877447169540746 -0.16112831674106262 
-0.2700829598539321 0.23387756373788668 -0.317218182632865 -0.19486605873580032 
-1.7256460646089722 -1.5082239205430841 2.3362975303925753 -2.7307358631269389 
-0.18242657199042239 0.16985403233137039 -0.29015799290887145 -0.21905299569993497 
1.0986418770544835 -1.2037663153331009 -0.13718957262486803 -0.14190272439065177 
0.039783674741305203 -0.034693765639707615 -0.16016853660790489 -0.10747920143694231 
-0.081981415483754455 0.094809767427598848 -0.31292189055893799 -0.24583860331604918 
-1.5593193620610881 1.4678378771483398 -0.32458208907182395 -0.19358814770122029 
0.29314769936066354 -0.2851189553545696 -0.31916043638625352 -0.16330487532982343 
-0.10109609517056256 0.067068092797525791 -0.19040499623949242 -0.12206426748091112 
-0.22851089559806403 0.20754752573522017 -0.09430278413560092 -0.074262101470493252 
0.055438757743817221 0.0086924594234181057 0.12825216691476415 -0.16679257852957602 
0.0093677997786240468 -0.050254509392838889 -0.14400713842228097 -0.10589811691268701 
0.12474011628804663 -0.11296018215562804 -0.21919224793611239 -0.10655850696245012 
-1.9108601589666061 -1.9050313071233538 -0.28580575872252539 1.9776957322686128 
-0.50551119188643312 0.46301792709821588 -0.37603968066825938 -0.66392602572545434 
0.25927819004753705 -0.22208125127779321 -0.22857591370321001 -0.13765707970224256 
-0.025201556218095496 0.027222912916361752 -0.18156363609050388 -0.14599312851767701 
0.052557998273182645 -0.04871354846571789 -0.19357541332062644 -0.14612269994185281 
-0.024958564093719132 -0.25707617324446158 -0.053901679815107975 -0.12113494838818045 
-0.28797410182409727 0.18637448641833509 -0.3467581606998974 -0.2470537856488238 
-0.25116178715172865 0.21312161311684125 -0.066670022694556227 0.11088228851659973 
0.82169052202104287 -0.82439098619966766 -0.26717617916647163 0.039742633166666153 
0.95341163451353328 -0.96771274358742909 -0.50994279882622595 -0.6074594441442337 
0.1062521721048485 -0.068690453644559585 -0.13920647706304712 -0.10182795562173191 
0.025135783241260097 -0.05051406084236118 -0.30711561253225295 -0.33440509982793565 
-0.17177643667091383 0.13647621748656166 -0.18485804803529426 -0.43905559518820791 
-0.82341130502279924 0.98832921119870754 -0.021268908003250681 0.10655503372745036 
0.66348953111065834 -0.89674459764837477 -0.17951723023008045 -0.37329053350848501 
-0.09838932296015003 0.12769460516057615 -0.27872167959167687 -0.063248102308481463 
-0.14411104127855948 0.12381292232393641 -0.14193427561957911 -0.26084206113316877 
-0.37981141143319386 0.36575219385174218 -0.229507348150497 -0.32517751596051281 
0.079503209166130573 -0.085377405174785648 -0.36272923048508104 -0.29448759377135247 
-0.08221974483878168 0.23981006514833086 0.10325324245071814 -0.28259214803032573 
0.17837636049248176 -0.16114402853288945 -0.057123482191984869 -0.15930539476012806 
-1.7373160108585688 -1.2611739781825413 -0.16187806753794506 1.4262156915636011 
0.12408147408066734 -0.15584142945559992 -0.19004952409314263 -0.14005524470740954 
0.15437852914437383 -0.23515196814877143 0.027111093185447646 -0.11743379346804897 
0.17467848996962648 -0.28688879812823403 -0.15981870143513013 0.045197016504123409 
-2.0468599412886581 -1.794212367960446 -0.45393981023137098 1.8073281015571085 
-0.17273664635322153 0.10899131528241478 -0.30266682558450908 -0.40688221338557984 
0.50104976122231437 -0.54658936345681441 -0.35274699394755094 -0.16475783781019973 
0.63930928669361753 -1.0499905031390768 -0.050691085289961905 -0.012553752922438918 
0.11468779142364161 -0.12411963585816688 -0.23727073999527018 -0.13123577305450662 
0.37680581758232323 -0.39236328635839812 -0.31785671467361243 -0.3618263240153714 
0.066245025546322334 0.021569504328570063 -0.26310957244683691 -0.20357737208503449 
0.47168342398897667 -0.41690864885639067 -0.40640474706111884 -0.027519612927079475 
0.037090160153854246 -0.022997957425306366 -0.16582259810637823 -0.27124869282221886 
0.12979674895747867 -0.13828564596242096 -0.23276185915808473 -0.17179627133671044 
-1.2731502050086536 0.92850727397068944 0.20471244645307296 -0.25270159784022161 
0.31945749518044364 -0.20168806664086358 -0.84442762739155519 -0.42577213786588397 
0.014415620837289011 0.016158120290854186 -0.27373848743748996 -0.22217244840334732 
0.045276428621555807 -0.014732248299377871 -0.44569907139710835 -0.1725870118714182 
0.17367682622409386 -0.12320795682758887 -0.42186833718750111 -0.27244176673981146 
-0.089735006891221991 0.076575487689535413 -0.20136153090937453 -0.15399898536226933 
-0.099555381219456562 0.035793318653901382 0.05288732521967366 -0.11597499888128798 
1.0355485853751683 -1.0126029966677603 -0.14678093801087955 0.10323434217298125 
-0.20359590892388585 0.1848392270810518 -0.070048761020566008 -0.31113560650052541 
0.30729853099130339 -0.35695750983964147 0.082854488308218691 0.034582838486087099 
-0.22221057264079885 0.081637525909870556 0.011169333746075732 -0.59416598449069857 
0.15100809095208184 -0.1375518104125236 -0.30514352023220387 -0.16539070834085906 
-0.19804861994296716 0.49929977078870258 0.23280114518326384 0.3260733216805522 
-0.036026890819325016 0.039252073081542646 -0.096453666567835175 -0.13159389674002697 
-1.0183879757334622 0.56827392374457986 -0.20558574872470867 -0.40036653591364157 
0.64052873448380854 -1.2037723193897898 0.055281604408505804 0.036166343725089339 
-0.27698205985625568 0.24899035391317886 -0.068606935303899219 0.007019665336047233 
0.1883288227135245 -0.20571013856916232 -0.33232066148427386 -0.10940070522829523 
-0.25005831904091125 0.316432963237193 -0.1775148009615358 -0.28503213911392522 
-0.0052663184083292036 -9.391834633277335e-05 -0.33308702041019123 -0.13392473151594667 
-0.28207757748304219 0.14736147521812526 -0.094606006870819326 0.20977829347322852 
0.84542946145857178 -1.1493994253625437 -0.16003088776087332 0.22947236107885144 
-1.7503453521154495 -1.6454739333075934 -0.33860401767784976 1.7716247584640297 
0.60792431626416066 -1.1336598724928812 -0.35746854058762706 -0.55887688629734722 
-0.054792541197318023 0.057587984224209618 -0.39752846301679606 -0.34977847021441844 
-0.76097763630346493 0.90308520803498249 -0.39186750986252217 0.43640330726257076 
-1.4988058234654877 -1.8289036049479239 2.355613989792785 -1.5929152028458631 
0.242947044021883 -0.19365033744142596 -0.44166009205534396 -0.028311415837049103 
0.15373498677783487 -0.065718695432421259 -0.35080109681493965 -0.36705703190386774 
0.028350988110680396 0.17467168602693306 0.23076665458960091 0.081473078915510894 
0.2294724600520115 -0.10838106142447287 -0.028957240540414889 0.41935360245093017 
-0.38520076927392582 0.37614326476635812 -0.23118773367356102 -0.15936899352689399 
-1.4815093277705216 0.78990408376894528 -0.084312900470126712 0.060028094810463554 
0.16156056076166855 -0.12415529543416706 -0.38346579237166689 -0.15886387183117953 
-0.010368816603565471 -0.0039455377212380058 -0.20662836532916537 -0.14267620535167652 
0.33634707724021373 -0.44861210749733088 -0.17188583697154203 -0.026861506351242147 
0.26592432078882539 -0.39113624301605371 -0.29633945111983417 -0.01962749643092148 
0.066435943614688756 -0.067549387682690601 -0.55941369075109992 -0.5429533260154773 
-0.03119751465271503 0.089892844984074752 -0.28754410526305757 -0.21762736714052505 
-0.35508977973861844 0.28959140943355488 -0.29699584496087195 -0.14964212273097827 
-0.49977507269009736 0.42676518910241101 -0.27444879224723878 -0.18816625063056175 
-0.12713519463440937 0.25053517341936793 -0.12753457134324997 -0.3631922829032051 
-0.025206094141872842 0.051236776210455429 -0.20714138353785294 -0.11797750484714394 
-0.28148113443237432 0.24836576389425538 0.048822229536141251 0.284014867835922 
1.0060373803770832 -0.89490448362198782 0.034347087845100183 -0.17833146338277064 
-1.8483853489561264 -1.5881017505567077 -0.089515564377113124 1.8130704830373054 
0.088123172325918847 -0.055121728810277049 -0.18738147235953229 -0.14884252265118103 
-0.059429944783384175 -0.015492690957176734 -0.21167354095341087 -0.084537627918805147 
-0.0057297057168298887 0.0028240554251782088 -0.22589507908014342 -0.20533109637190272 
0.11709890637329637 -0.085651834411570482 -0.22254778447537826 -0.17652023916103374 
0.53278081567945235 -0.79220540846673726 0.059525518133253588 0.25540015296499763 
0.5555256380673359 -0.86670827040477982 -0.44358253861618047 -0.35360600897743832 
0.045771474072167834 -0.042664761106053176 -0.22589869020939601 -0.16704245834349465 
0.30508036759557577 -0.034730610078067159 -0.012794420055708387 1.363938654648565 
-0.037731417113185783 -0.019499671547699094 -0.31788298450598118 -0.29317228951920693 
0.030789426941605996 -0.037098149555485807 -0.19554657383234941 -0.1665227889870971 
0.42394943970296251 -0.46937690022296152 -0.14755608112120311 -0.25945236737266619 
0.053338277409933493 -0.07057039004141949 -0.14575701985952536 -0.11377688103190006 
0.90958690815484422 -0.90880819357171738 -0.15879631022342205 -0.22835127525085699 
-0.30483508618384797 0.31159537458915831 -0.16782982215068762 -0.4164044347237329 
-0.75341759168015243 0.7524227784749955 -0.15465331896309981 -0.10842247312450386 
-0.20801389758332617 0.030442860015316625 0.58295380685273079 0.012791028301202127 
0.4718924100703597 -0.51291732628956277 -0.14285399312435013 -0.1811223839688271 
0.15658018053366871 -0.13814880135281257 -0.44529802603221152 -0.31546132533344146 
0.076857711806918125 -0.10189709900712107 -0.22232105312140527 -0.35074482553190556 
-0.080050595641449479 0.084076734555697974 -0.21238722338648952 -0.22234202691224711 
-0.28690639945404989 0.24217667030260517 -0.33194190074676089 -0.51734619028276396 
-0.28297922203727771 0.19710065599984594 -0.13572565157706235 -0.082374974767634918 
0.51164387536297506 -0.50318912667533022 0.010729525637479712 -0.10619343330368647 
-0.3999359210871376 0.46240545536760524 -0.073285470248731055 0.10875115873017627 
0.11626977556744486 -0.098570252850393808 -0.027592409212218554 -0.19002402257169521 
-1.0497095651583503 0.95945020768800771 -0.21801868777979025 -0.17237819490582096 
-0.011613988603458053 0.0099959638415248256 -0.055968755581412455 -0.20893947637437749 
0.033064080814214136 -0.075501708537423079 -0.12463806131358041 -0.078222950159724053 
-0.57585061328349718 0.46614872252138018 -0.35109145467780156 -0.15697846384660508 
0.11235780560866751 -0.029058267989830029 0.027025071366718775 -0.0029183484693380418 
1.3173728407366667 -1.2708855598202926 -0.16367468696105042 -0.35441476329662858 
-0.13839412234456849 0.15865105714270059 -0.12372531539801597 -0.11941060640807509 
0.19460253052103499 -0.16423441087516369 -0.21355359016345687 -0.17612639137045666 
-0.45360679476405674 0.19217584189864617 -0.22768176008524313 0.18896712966686818 
0.21317623842014025 -0.041023386276894835 -0.15333456540015428 -0.24466715837096567 
0.5828662090351584 -0.60401223866851783 -0.22262491805045903 -0.15677588207586943 
-0.018691898954161457 0.22891531054802816 -0.23997281963772449 0.042020389042382748 
-0.25574047027675556 0.19757897004034702 -0.35109771753871832 -0.23625919761742442 
0.10417159311068297 0.055528182351513036 -0.33100953972838854 -0.38257715453748903 
-0.25726293712876586 0.30737241635184914 0.13852630382126829 -0.296417025546789 
0.27385720546187409 0.65820517114515065 -0.039067299081455162 0.2871233442813968 
0.48825455347733726 -0.45297885424496898 -0.37468524259121022 -0.28752840632946808 
0.10801470057701215 0.13446629601629992 -0.40676265959134783 0.17286839742917848 
-0.13450389208569893 0.052717085667595656 0.0024701120089388878 -0.20260854206965329 
0.21076153139768211 -0.18513616562121257 -0.010109401827974738 -0.30671236547924935 
0.072251782847282106 -0.11603184916406588 -0.23319120408611996 -0.20442251919651674 
-0.23266370665900354 0.2334527923961969 -0.37285081759110467 -0.17939662071768253 
-0.77529343341018198 0.88837739256565418 0.10469657112511502 -0.088823621342393147 
0.014889380307301411 -0.04025171242639769 -0.26735364888097762 -0.13886962747768697 
0.23479487703795288 -0.28018598585106846 0.092182337603541775 0.19052303310059154 
0.051906903559452169 0.023086943335761438 -0.30425928182661371 -0.2280596989815081 
0.49110837866991219 -0.88738243684185192 -0.27765607621557387 -0.65021289756132761 
0.052794644181221165 -0.033758318192329079 -0.12964956365995925 -0.35840174195003643 
0.17446001111816498 -0.18460119642431039 -0.33925930943684535 -0.45385069058831118 
0.70271852005460578 -1.1782960693506945 -0.18292695567380041 -0.45214531197045044 
-3.1130993220240386 -0.62490572757555607 -0.21949495293684773 1.4737045448855794 
1.6470368625711385 -1.604501168849054 -0.41322692827423835 0.1949654055708448 
-0.0068692578027228224 -0.036311749118022693 -0.26280435223550286 -0.2083742433795803 
-0.13303803658662108 0.11445472959244826 -0.10305525607541922 -0.38100554125332103 
0.042141495518691112 -0.03027828088985228 -0.10126776331107885 -0.13150302082130874 
1.4651219705578775 -1.715974178689504 -0.023174513158170353 -0.0023301906351110039 
0.12386896808239833 0.067944101431863677 -0.25277846103003121 -0.13684625396597044 
-0.71180047247498246 0.82386074476111848 0.092549800439811925 -0.41068794983971751 
0.1055946532465301 -0.063383119558301768 -0.25110069691321624 -0.21251342392289299 
-1.393767979565014 -1.9224549790616798 -0.38500927913177985 1.9577177471047333 
0.15665015714242497 -0.026109104615740231 -0.012659583828122656 -0.026011229737963389 
0.043963647977484303 -0.029585242808814936 -0.08899571186660292 -0.090691531133257952 
0.15003990379215595 -0.17235079052313879 -0.080125985890506443 -0.24271045138421801 
0.0016673156027357701 0.064691887372023971 -0.15817910711869576 -0.21049508153602223 
0.18894986788369145 -0.21326174611252968 -0.1288720862005969 -0.2742084758371115 
0.43800824342492989 -0.50393463880207967 -0.27334684893934008 -0.3102298792167672 
-0.13584799897420152 0.1826622140103403 -0.25246247755605783 -0.23628708665302542 
-0.20797155294262745 0.20652923410598176 -0.12870551094529717 -0.047557291184896933 
0.20060590663362129 -0.18445034802662119 -0.089974462457296706 -0.092861279791479151 
0.11500615711624547 -0.19283217810414513 -0.23410990389695446 -0.62932773693735022 
-0.92930839611019533 0.9559247677359447 -0.29546129193455378 -0.2550688952643535 
-0.068940881164483728 0.15684241467009002 -0.15567030118804548 -0.19337947226531155 
-0.061565364561413129 -0.006082517612236292 -0.11250234274185808 0.036037146197528569 
-0.03949250603518259 0.017572683972708919 -0.20827680225320844 -0.042338830939674332 
-0.16686373219680928 0.17471186740893327 -0.085459738705293345 0.33389781997938794 
-0.22484223008473186 0.23061179560774223 -0.033006394627911939 -0.3653947062176558 
0.8340731244305355 -1.24762186278439 -0.13922759724839343 -0.31656961361895247 
-0.13772974746218714 0.14999996339584307 -0.15951367861401752 -0.10789236582174455 
-0.33788052244918754 0.31014179184192636 -0.15327888251117078 -0.17518372925076503 
0.0103117846925962 -0.11541571208304316 -0.49313898820140523 -0.26029347036268308 
-0.14103710191904689 0.11721785034884008 -0.26853692015661773 -0.13635687114977768 
-0.21260709816260293 0.32335317383126427 -0.37451412782937382 -0.15018944810476215 
0.36219661632866207 -0.36330369266798346 -0.18208842543107642 -0.210929998229824 
0.49688902151483527 -0.38981609202312678 -0.09385223754960352 -0.1312366825081264 
0.13377019895729614 -0.26403037003688062 -0.33065705671126455 -0.36085220563449794 
-1.4568818086887991 -1.3920743066876429 2.4523472369159274 -2.5303108140700177 
0.5427063479533466 -0.52760666761591213 -0.50818210846598744 -0.25259046898611226 
-0.6597339233086934 -0.30457943905032292 1.2502972163012123 -1.3656521991378305 
-0.98388417638033043 0.70334802581610756 -0.73627369806794785 -0.65734050537659072 
0.15955221771341399 -0.15070617492781979 -0.23207106874158551 -0.21202062834567631 
-0.10388990162267894 0.04452665230605149 -0.076598390372899464 -0.2723758608857722 
-0.2782375227516346 0.38632818607281105 -0.3386397368394759 -0.093228734896916493 
0.053221162173339553 -0.029959266688620256 -0.13628296195712519 -0.092472028403610199 
-0.06117438303564688 0.12148520973003998 -0.21048525867012732 -0.22195890369856952 
0.11559063510669715 -0.22589347718905167 -0.16921630851060943 0.085524191839548361 
0.060546794872738868 -0.094330712074644996 -0.19875869549078218 -0.1777337575120701 
0.54955645858839619 -0.64491179895582307 -0.012902746672350585 -0.19370460976878506 
0.60109070252442187 -0.58066364413075178 -0.10949230371247595 -0.055748320790504874 
-1.7101496305026829 1.828246499956552 -0.0021522502289173986 -0.0093886134425162811 
-0.34256123273825967 0.36540100157421584 -0.20579313027735896 -0.27738614645495474 
0.43438415749796944 -0.27519881673809787 -0.00041244867033360388 0.20734397706196822 
-0.13331685661653081 0.12207358636616641 -0.058612552880747272 -0.19621024804529752 
-0.15379576895502037 0.012421924083893789 0.028045862495913808 -0.10896602071231522 
0.057945455733136225 -0.019483071888256986 -0.17150350879291348 -0.044411189541677998 
-0.032235646744956235 0.030825337546135395 -0.17194212047496155 -0.17826294207286886 
-0.012477677084764896 0.0074637984036481607 -0.17089700069925506 -0.17665157216316596 
-0.49929472293870475 0.62754489027693017 -0.04360931704061613 -0.20765835871150651 
0.037734145613327531 -0.054322706543866908 -0.19804180238302727 -0.083004200187127147 
0.5857413605388484 -0.58430742967702209 -0.2578022967458995 -0.16354141799102118 
0.073751168792437621 -0.034650079692098899 -0.37370118763200244 -0.20279410234254303 
-0.23658001528579975 -0.38249254189349718 0.29144572800956248 0.11481126034994976 
0.54972589245570813 -0.6147235676926992 -0.3827343155688081 -0.49302438059894682 
0.53503348018456454 -0.41710711276646062 -0.12476287122024074 -0.30134142638028283 
-0.1804634658226385 0.15670183454452952 -0.35543883828535461 -0.29144051260914666 
0.3315015720745122 -0.41291591444426556 -0.35536940971286901 -0.1663653938964719 
0.017691357976467013 -0.036836452202468284 -0.38120341797629514 -0.39352481465279643 
-0.047903997056956402 0.0076821041797636436 -0.12590550100306347 -0.2649293102916625 
0.18022075671520635 -0.13119188597279338 -0.3547573257446105 -0.13150084095056347 
-0.30317308591446079 0.24070018945882207 -0.20159285953809472 -0.099918767849588405 
0.73510071362087581 -0.64334743336571587 -0.0093246411590151637 -0.52553228347872583 
-0.60116954605255679 0.65076823847904064 -0.27270581780291292 -0.22288457051105437 
0.10037592574998247 0.032143950419159656 -0.17677033723468749 -0.11252090104894856 
-0.22103209042118077 0.25770555640774978 -0.23670493942544235 -0.36571114518059594 
0.05261947233442181 -0.075420583382252993 -0.14654453268122153 -0.30260309275294317 
-0.90113370920729419 0.7693947276818156 -0.20407123829224111 0.23689703061314213 
0.17261224302264405 -0.15185065781555485 -0.26679293789519093 -0.062223151629029888 
1.2235052212798607 -1.0016854685393739 -0.14406332170505237 -0.083435943210523444 
-0.20004189298114361 0.038254415344803033 -0.14384250644176377 -0.063163279634236569 
-0.21165593853856149 0.19846920831082124 -0.25344525272930374 -0.29409663063724967 
-0.73481507332914597 0.72801443788881182 -0.5255550026867416 0.041689567578717633 
0.54167797423509956 -0.36241069648742641 -0.33818840371624431 -0.49779578829228954 
-1.8720290592146074 -2.1290712817343005 -0.1860281303255818 1.891045837291133 
-0.033703618867563012 0.12596210185458892 -0.44213973434936171 -0.39519173548723852 
1.2689607895115227 -1.3463216824296449 -0.043742300475038048 0.66586633716437826 
-0.066455161748271832 0.043108322525546319 -0.43381350306199784 -0.28925888664228872 
0.55354205218666508 -0.49670848786920696 -0.0097168265220330605 0.10809545276367033 
0.31697860625857005 -0.28875472127689172 -0.05251989550743711 -0.22747505097108994 
0.068855575575423461 -0.14555159691211533 -0.24721443067437965 -0.1093739231692691 
0.19605256350673619 -0.096641906814932371 -0.054716676849429192 -0.089428836626496228 
0.45815405990374519 -0.66491689623371486 -0.19913705521346903 0.11329120508205084 
0.36959455655878604 -0.16470882548897894 -0.16124635755970085 -0.66045838235036891 
0.0066483440760310604 0.016483777722109558 -0.57385665483526149 -0.33648158372531384 
0.0045079989137597684 0.01680253803000422 -0.059343275910378829 -0.30694580797114057 
-0.08747807785622555 0.12452694288635074 -0.12627127481813849 -0.23831940957363723 
0.14688297294238012 -0.18046266445196404 -0.11637196031875618 0.061511857368937078 
0.072081009756304715 -0.020750978766340446 -0.17517869100561531 -0.15020102433015048 
-0.13808921686908221 0.10974625405044033 -0.33961774062259181 -0.20313485802815784 
0.075536150984617467 -0.17304269870509242 -0.36265338320955448 -0.11765376529860364 
0.13448920149220236 -0.10534181061058397 -0.16792498719996393 0.010221933073120901 
0.23676785014077867 -0.017386898864265719 -0.19683333211461476 0.23631044407504498 
0.17665594814087524 0.02939653136204054 -0.10480031687571928 -0.31673103262130853 
-0.18607013009843754 0.12715199689904694 0.017816710101622772 -0.12784236157640005 
0.56193882182158339 -0.84638550773178145 -0.34177315678393427 0.53406385650523713 
-0.2169118669757476 0.23952999082189805 0.11124372472424232 0.026968797901238739 
-0.92221683144763256 0.81653959444316415 0.017552401147003321 -0.088358959998528108 
0.22588019006812912 -0.20008458176108235 -0.36657439596768993 -0.29839020970222535 
-0.15402720353098232 0.22168202705804146 -0.21808881839094041 -0.23614144950304417 
0.44393038145171848 -0.3591965407075931 -0.15290725934877863 -0.3660897934828285 
-0.089039377164453967 -0.20233668485822057 -0.50012319317231702 0.13952469179270449 
-1.2835318560186526 -1.8399833683805817 2.0611324837554221 -0.35329422261607435 
-0.33680378899094332 0.39951737049834313 -0.27027324189924684 0.047048825546195799 
-0.86886699204697182 0.81359668609487956 -0.4100074589633963 -0.20260065314355907 
-0.1683646762599047 0.072079263909677754 -0.20217893416989399 -0.31320174572263859 
-0.0010970445613438795 0.025958904950036804 -0.43828354549092624 -0.27249564310540564 
-0.094861134845230982 0.090639480539756248 -0.29035754380710782 -0.4125236101627226 
0.093902725437556331 -0.063241156791751768 -0.22246774831090105 -0.012728996626293823 
0.18626260824454871 -0.18053217742087463 -0.20405098976041552 -0.14910347613880687 
-0.23515639859047904 0.20845943517420445 -0.27782537966506621 -0.15216628923294184 
-1.5292932019150092 -1.8247773613661289 -0.215190430540457 1.6529937649059092 
-0.47970216892097833 0.51355705386266981 -0.34940810290983509 -0.089969976190246881 
0.11601781208482151 -0.07413442416469368 -0.12809435634570407 0.052385163532029294 
0.16167498728573379 -0.17765366952556755 -0.1077640622696775 -0.089925880482634696 
0.08315306105309693 -0.077105969829359161 -0.11029866361208567 -0.067365485239485129 
-0.3099360691740134 0.41437508004550783 -0.2109999474230651 -0.10973155481196029 
0.15188655080275903 -0.11660552434488354 -0.072773675029547305 0.13308720974575611 
0.32997652126170185 -0.36097250307833278 -0.20772672051469238 -0.098473209602832623 
-0.30958696648459805 0.28374432307491765 0.021522769850099498 -0.44703405045692424 
0.0022111234273932221 -0.023652794546952089 -0.39369647301710431 -0.090601268304144431 
-0.21041669936778706 0.26971351779325725 -0.1887224633149073 -0.23625581963075126 
0.057174123111512404 -0.0041413496678045919 -0.26801547080326837 -0.0019815360807916953 
-0.1494211874282462 0.19828321443259764 -0.28482926467137742 -0.28979046851194618 
-0.33015983951632588 0.27574194592326229 -0.16408377914875028 -0.09217411743306192 
0.17668361548730441 -0.34551369419248185 -0.38924884645866353 -0.58361902335845262 
0.21064889209705029 -0.2117051488780699 -0.40418008714296016 -0.50896124083866212 
0.52586539461778148 -0.464453421679135 0.19176744261372777 0.068187417893949637 
-0.4411691711328336 0.53012493057060106 -0.28225889586313369 -0.27761843019801885 
0.23025715176590772 -0.24078780112891915 -0.30375289368737474 -0.15623335886582457 
-0.24374735652250917 0.010288095969005061 -0.080177935407639025 0.20043641813296076 
0.049769644156019519 0.0029991982600263978 -0.20678137111400119 0.029395780526177251 
-1.8453084052463065 1.3236906259426369 -0.54426431469863668 -0.54468611664756061 
-0.20262389467362418 0.10446978572536553 -0.053196097701525655 -0.010452495915666105 
-0.078112976485116351 0.25951741840590775 -0.025421072046877418 -0.009984535255685531 
-0.020444278268273285 -0.010457471078445232 -0.34884875855452496 -0.24544369217032969 
-0.18458086367696422 0.17188763565169887 0.0088951034336778069 -0.084319448636083053 
-0.46935625242687234 0.5115325001108646 -0.031986334466663116 0.18054174599694281 
0.063649555397814889 -0.029039670206693832 -0.39842019495636249 -0.0014876396754680381 
0.67832769172075358 -0.55220221506396028 0.15607926918162868 0.1038360669708492 
-0.32551046923020266 0.29394832956862676 -0.10866174053641565 -0.16312260852342741 
0.22730243194445413 -0.25359871404573664 -0.20134340234285017 -0.19474884450036981 
-0.059578453939594656 0.085344103217904199 -0.47447106838858649 -0.71474886799093207 
-0.95681208488099001 0.88209720325112106 -0.14918636483246867 -0.11869096861588907 
-0.40582064151120978 0.48192984726971516 -0.25290479610092292 -0.53717458544004426 
0.3479333279568762 -0.31366473120931793 -0.013978302278866591 -0.023087274421841393 
0.68787786761499992 -0.67371964865731937 -0.49078019337749701 0.18530168895508767 
0.082015355673667245 0.018801076409200937 -0.12359010043490196 -0.18959474569260948 
1.3698223741382645 -1.5731632312526727 -0.24879196796940684 -0.27524022958335237 
-0.016740508087542346 0.011348839445444819 -0.028579199479461637 0.30203799267818199 
-0.067317498357010855 0.082184639709365764 -0.25745681764942807 -0.39656363745353973 
0.057220681846422816 0.026936261252432384 -0.18584396524219909 -0.15192466040325417 
-0.024584248851576389 0.021742801563549942 -0.2123173872191664 -0.12881867851388304 
0.65598073928052425 -0.70010980653312094 0.27292321421767096 -0.10823562570649364 
0.034215322691712534 -0.017086358476612967 -0.17163864826916669 -0.020080882195470998 
-0.22024446798930375 0.2316637935166615 -0.34301978662432309 -0.36534583545314925 
0.017886022639148326 -0.0012385894532636801 -0.23043450264611093 -0.21479537484629471 
-0.32796819756708473 0.31313849860824283 -0.367709472752349 -0.2682317559855939 
-0.27152582003282066 0.32923054028069043 -0.0033150927887232035 -0.26938666025447644 
-0.037538762526397623 0.023870345553956972 -0.22861417017280966 -0.22509523098773757 
-0.35715677202589374 0.31491484897432664 -0.36303987236903407 -0.19697409356657247 
0.0094204950655658905 -0.16351497984715552 -0.048404538203415517 -0.090241601350524156 
-0.03004078231695053 0.021862999619789568 -0.087230599209324328 -0.14859995680948268 
-0.013139652404267402 0.010561112687767167 -0.33792567482663805 -0.25430979057325331 
-1.7959607745485102 -1.9186662887030286 -0.12809412273796314 1.9117417355856383 
0.36415224353916043 -0.31287059066025458 -0.10371238035213935 0.039819872312865594 
0.22505352330927139 -0.22682712645542163 -0.17847534049178723 -0.1105361654423857 
0.26708695025610879 -0.26663510171908422 -0.29317110215888081 -0.26323163305773811 
-0.30951804800861732 0.23250421280627775 -0.05531933621927225 -0.34131332213546711 
0.15885991867988952 -0.21816133207468549 -0.19443626246283291 -0.2117200407021845 
-0.055821478652646715 0.0060856809001479314 -0.26489097048674037 -0.051303614466593248 
-0.21309906160114547 0.079995978218873859 -0.14833066224633282 -0.234886781564344 
0.6237714767050162 -0.94557481572669022 0.12698419851272275 -0.01472747796650321 
0.40152877119629626 -0.28595145669808858 -0.265865768769665 -0.24147349667539991 
-0.28970824626160918 0.463431932414202 -0.45812638548672041 -0.33699179458160999 
0.46497448075418762 -0.24545814231916366 -0.20101637911374642 -0.25203477408849806 
0.14339658801492811 -0.043255678693408822 -0.29683713087976715 -0.031577752243364357 
0.071799415206903333 -0.05827531403064963 -0.27081880467538511 -0.33505317475524254 
-1.9018691328737019 -1.8425943549853629 -0.18206536883668312 1.7027768985226233 
-0.57719826893039372 0.49072441882332218 -0.30164966613943889 0.19793393531848169 
-0.28922785627703912 0.20320611560514479 -0.15006347810175602 -0.055919807568403576 
-0.061966462628733579 0.087346317993394929 -0.31746132290397799 0.027019756054984495 
-0.44518741616812701 -1.2223444029019481 0.14689702094238585 0.7638081636596411 
0.079852988003361297 -0.2233093959298505 -0.23419167368357308 0.91255043235819233 
-0.11242917319328084 0.18523134021648874 0.092282705901032366 0.10320686944031027 
0.15357401219030337 -0.23604007299309582 -0.17858066196272654 0.0087556194835252676 
0.25130145300364037 -0.21480875420731052 -0.1514499275703646 0.10682957824540937 
-0.45112451647661778 0.43874511020043527 -0.51873398345412225 -0.36391716150789216 
0.29550240940098393 -0.20614266383327967 -0.4720087512536123 -0.32853599041799525 
0.1492477117926192 -0.33393627369770579 -0.26087261446946908 -0.22662769656886197 
-0.98833687272294801 -1.1929807791970271 1.8087922632293103 -0.29694406457601408 
-0.5157584353653788 0.34000910380951366 0.1291844621243568 -0.29356212617756211 
-1.907678548784941 -1.3941126219283397 2.3370370867973347 -1.6394126996805429 
-0.12594033263698501 0.11852282879090008 -0.35041691400151936 -0.18831541213539515 
-1.0887943632796961 1.0689919613926568 -0.13050501096395944 -0.05735163411946767 
-0.028334546012750202 0.037751713388826963 -0.26277253811510737 -0.22321330102548406 
0.44699411135157507 -0.51088560817011475 -0.22530781219321949 -0.081070059069405301 
-0.10874584623390973 0.15552131293770638 -0.19084975674550037 -0.13964882258578792 
-1.4238593337125272 -1.4625967706762402 2.3155731272314246 -1.1533628495341928 
-2.3231545972162415 1.2721924255521908 -0.37352681752039779 -0.64199816391661191 
0.15646617917809258 -0.15358977464818932 -0.15896262519446983 -0.12965204076494999 
-0.1047546214369003 0.10443173761116419 0.030539093185562648 -0.020941299836966215 
-0.18423850437210193 0.11946413858345112 -0.10142796940937621 -0.23630430022550311 
1.1203773232649807 -1.4759229460376937 -0.2474094573944248 -0.35641961578748071 
-0.48942145172566148 0.51489399522522483 -0.14762669154717029 -0.12157624056391891 
0.55716442154942381 -0.344808688167203 -0.16491172971855123 0.00011819216861400778 
0.2811310837763944 -0.32596405978871645 -0.5486072029596164 -0.25249953758983879 
-0.90135329654348806 0.83728997102026648 -0.39829219315643161 -0.21623333267367933 
-0.21497739199873284 0.19143317650984021 -0.16745031468238197 -0.24180666027129938 
-0.40445894580362884 0.44808197589805554 -0.33833679059814015 0.0047700089398333388 
0.044100943013733816 0.0041922785518879388 0.0046559247287988603 -0.11851578700619048 
-0.29246208039812932 0.40165467984895731 -0.12245485890917522 0.18294749636543592 
-0.40978155862585436 0.28318528786717545 0.1822575179468951 -0.12420511674222745 
-0.34334247759502612 0.33986286963914236 -0.22157635223486905 -0.24896211563462436 
0.98763911965807649 -1.0453480676459403 -0.085903707810723831 -0.31483261184506939 
-1.658339753754515 -1.945090236080961 -0.22651138675481669 1.8383830860836077 
0.1005601405167873 -0.16187575752909336 -0.27593739362212544 -0.137903506747107 
-0.69158925059602394 0.66854411966273863 -0.36008100268036247 -0.50538331276599213 
0.094299241088830199 -0.09290062483910265 0.012971124181752194 -0.25106831915427191 
-0.47175940240577813 0.6202681446208923 0.35475977700950029 0.64351678487400965 
-0.9540069132777147 0.91742359473056367 -0.19590599509565471 -0.31460278055307811 
-0.038005347509103393 0.044301782345499474 -0.34595501581284721 -0.32780650060418604 
-0.04318373541434372 0.16030024641023019 -0.028533291655530583 -0.037448922309850044 
-0.25024690766582514 0.19857620387523836 -0.17837207215405146 -0.17172457922231729 
-1.3158637039075425 0.71341142839867 -0.40747951148909334 -0.55572318749159455 
0.58214323720849626 -0.65593412071724266 0.0092539048031758941 -0.1180823939289936 
-0.0065745856012214329 -0.0029241022930750968 -0.29463472607633123 -0.16804516134530401 
0.041567313274691389 -0.089426784689048411 -0.21757228111589144 -0.23339823343904686 
0.54705974140840863 -0.47954817092793028 -0.16067757619638401 -0.24919056889458471 
-0.11059405945431779 0.045798825433093771 -0.27875496850274317 -0.39891575654511391 
0.44460572112890734 -0.4396364778127711 0.17799266199092184 0.37060985080583692 
-0.21851903895809077 -0.029499091339663955 -0.03073274008404318 0.39016425133519034 
0.76611492767332023 -0.63000452501269655 -0.56934341386852783 -0.37748944652105276 
0.19061819857796033 0.5170630249904693 0.016695380624048815 0.48208419688740228 
-0.41896543039049167 0.38516887246225717 -0.18749027573007518 -0.3171491556927602 
-0.88822356319536955 0.87335945438755958 -0.0034509662704521604 -0.12464747169836486 
-0.45308524412958245 0.44854732602615122 -0.20699197896391502 -0.13558828312909005 
-0.21710581823374159 0.10721231668055696 -0.19327577081936659 -0.17145508252732922 
-0.03685990098849274 0.049803986490289054 -0.11374256061838807 -0.15908184434131323 
-0.18856818109614878 0.22160907585565076 -0.24984599630667664 -0.23478322394679141 
0.19245952251602047 -0.17479829523916862 -0.24935997068942256 -0.18285621260730711 
-0.40049060861398827 0.44999009556144798 -0.17773726559774577 -0.08846927487330207 
-0.31158846101172111 0.2037201113748697 -0.34085616801439061 -0.010040382932568807 
-0.35165564899386548 0.33698061324297063 -0.13218120928877425 -0.59782050439562284 
0.35877838981239984 -0.33333946540361531 0.21984061991850451 0.22383404018610331 
0.27307445001306518 -0.25842264484441263 -0.08930054729041477 -0.030492039648879581 
-0.10240597000978145 0.11668651141575827 -0.32122168388333955 0.019239720608125094 
-1.3812697937364076 -0.41565577808058574 -0.078463652606545864 1.1679690317104592 
-0.018062587360773409 -0.030727409910684754 -0.32270301947454982 -0.12857463581256801 
0.1230791993847894 -0.15734960747406809 -0.30327959991686976 -0.30879876863884642 
0.44579249479800931 -0.97727896442516471 0.015627548313807513 0.051587051499234676 
-2.2339258546272531 -1.513936215383308 -0.43039800309439846 1.4123106295033312 
0.66543953557412994 -0.92607323639669636 -0.24874814956796967 -0.072164837395409936 
0.092507826447534108 -0.43777493834129111 0.025455623839314032 0.11304620915441406 
-0.30592956590041437 0.22323265660868422 -0.21261803363772291 0.12250594136165993 
0.99786280448250331 -1.1557840408719957 -0.19234690501880158 -0.23559800100610129 
-0.28392280662921965 0.19138436976287571 -0.066514299123956205 0.1370861245970412 
0.10496433975921518 -0.27053044405051063 0.12138776146312547 -0.15590386053531272 
0.23567102774405735 -0.40745831304513186 -0.23285547380623839 0.21135240650490464 
0.0069111104317974292 -0.048644905442086439 -0.14710056571574814 -0.21051358256349556 
1.3161859721593936 -1.5653093204736905 0.359700266939397 0.59746380106017161 
-1.6074574904752337 -0.11884856802210714 1.2727784394074533 -0.031386179621191404 
-0.71224087239775802 0.88626845093510043 0.24891041019604343 0.12462173886275084 
-0.065029566612843967 0.13306048716814062 -0.31816028619763348 -0.58732394863031223 
-1.4396251992859306 -1.4538015019736226 -0.15838230828826605 1.4597485628650002 
-1.7572807248578639 -2.0127947521953597 -0.24127138650819385 1.8814970421459911 
-1.8471213368096162 -1.3815047801147664 -0.28593998270615334 1.6825874818297328 
0.85093648310479097 -0.63944270563448169 0.075538761835750229 -0.091922113072908013 
0.4611058336601227 -0.41047807220109267 0.13226607150437217 -0.11646009312338587 
-1.3373267518521117 -1.5459545442349725 2.0652714681087292 -0.46281229303393356 
-0.0017111115757046189 0.098001188832526953 0.43997529542749686 0.24402791963755588 
-0.77547350546599092 0.74403242519868584 -0.0066716408063228552 -1.3831208574763281 
-0.94575209609528454 0.37699885479482348 0.073336435646615128 0.072114737592278572 
0.40971713577825652 -0.34395702501013009 -0.29751571147019046 -0.48522188413315687 
-0.012234319058458482 0.20145839367263779 -0.34733885815204868 0.03929559079938541 
0.46721183819158679 -0.48214404939498173 -0.34645001654316943 -0.3401973734434402 
-0.044405787702781994 -0.033999227368799123 -0.18445398650497052 -0.18246830461958713 
-0.75961539961400293 0.71978337396253378 -0.18239755721603462 0.12242391085034487 
0.86771561415680898 -1.8613790799463517 -0.53110201030448367 0.02769235748487181 
0.45858584009094827 -0.38035290712442871 -0.15808720739935272 -0.077716042723752737 
0.19763457999886208 -0.14287630740829924 -0.27246488993901186 -0.19623269843040486 
1.3359291876406207 -1.5153658418949414 -0.03083003440764101 0.059952691919863715 
0.29211966166914682 -0.25670742288343396 -0.50150192044837971 -0.45432538073776596 
-0.68307808025368644 -0.012724823133715275 -0.0024964086894195573 0.29021267914808091 
1.2365291304531307 -1.375246484965865 -0.48467961004860494 -0.38156805299375762 
-0.8204317327351448 0.78487187551712267 -0.09873179211411065 -0.15256739419074244 
-1.1625254893644754 -1.5854607373430718 2.444219662503583 -1.4804499059595346 
0.58005333457409303 -1.1122106602363551 0.38583308762575957 -0.37381303000904698 
-0.1502312324359488 0.20159783670009596 -0.17405435299800337 -0.25299071850453164 
-0.12396267944725267 0.025837327672424668 -0.13129894943669587 -0.46654826048358056 
-0.34355602164129972 0.2493560608465071 -0.07285938714853421 -0.31332564853031819 
0.66960736600648396 -0.68765791986149649 -0.22531996748801347 -0.62813340384631045 
0.0090205621047141308 -0.021068599422101698 -0.10576415819833485 -0.017300895906414579 
0.0090205621047141308 -0.021068599422101698 -0.10576415819833485 -0.017300895906414579 
0.45930457413720061 0.44485635981690141 0.056828990167939283 -0.89679728325308472 
-1.6255392920502663 -1.070967335800951 2.0223852314388795 -1.1044606385288245 
-0.5280857725874033 0.61945816666157916 -0.40388965826924833 -0.28776131936762639 
-0.33948375119874558 0.54682256716908184 -0.1642612428811645 -0.4679045762134188 
-0.20068045270954643 0.088001110364862634 -0.13129306391687856 -0.11560494798998595 
-0.76013014987641969 0.90336793352909373 -0.37794864547250584 -0.17074815767719612 
0.57187251708282449 -0.603634511248761 -0.11611339781348752 -0.31292627214124752 
-0.12308448644399667 0.19379440803087811 -0.41380338218706836 -0.092911005609216252 
-0.26216644519692239 0.37260933647069328 -0.14987168208406881 -0.094373367287449772 
-0.022861015127354785 0.035005450363991775 -0.21470313745338318 -0.26793739947654749 
-0.95860489526707138 0.86014078960691631 -0.3300942612582704 -0.031124033081144135 
0.97282346651545371 -1.2253370770752163 -0.14443652859264908 -0.37328961938258032 
-0.61013461612342534 0.36489182123751068 -0.2941833158297007 -0.47845221642203434 
-0.029940772253116366 0.05714445449928425 -0.022189872097049257 0.10332845567378925 
0.9761049804770926 -0.98651433348782613 -0.27250347153932641 0.17923242777058851 
-1.5772159123979608 -1.4880558667777897 2.3716498025983359 -1.6054358723167477 
-0.075835418700031937 0.0034952736962716967 -0.41649117971056099 -0.12044007920687419 
-2.1902713272235323 1.4141917125652184 -0.22766383684719671 0.72802773160374745 
-0.17295309288143224 0.32948878329380776 -0.48631950197449253 -0.10288282361178722 
-1.0561805349370967 0.82901366098874485 -0.098638158885624799 -0.17389697251428421 
0.026429155403653856 -0.071527757327065788 -0.43196383078839695 -0.36458550218334607 
-0.27919827260216878 0.36940259145446852 -0.014463131131507306 0.1737411380631167 
-0.28374751378106844 0.1544896801555575 -0.11293899588500092 0.14845112830822818 
1.0168120101785616 -0.82897752307835726 -0.28024816306149486 -0.45222547499000698 
-1.4167020975617006 0.9333719492164011 -0.39451265254137474 -0.34953443045846266 
-2.2048820615809963 2.1282888772366748 0.12142882649543407 -0.4236365956995265 
0.42406616914577883 -0.40627705970955774 -0.0030019635541827447 0.028625782137826003 
-0.08483407066458086 0.12083921768734653 -0.53248035998174625 -0.2899765570900707 
-0.28708442779486454 0.23081243456995312 -0.07526243564773466 -0.032291455868199745 
-0.43253300767220948 0.50862195269120525 -0.38343908013389821 -0.3965451868864992 
0.94096556142164722 -1.188883880327835 -0.097333360829541568 0.21325736952709046 
-1.9222110844048304 -1.5958600141724373 -0.12710666590412145 1.9911358762921947 
-0.054255057016977852 0.052105941671927787 -0.14652036622937914 -0.21086715786284907 
-0.12016269972836884 0.094407948205343567 -0.10176849814642085 -0.25922156760200316 
-0.18484524768350252 0.18837037818524394 -0.33837978526117507 -0.17226809197401993 
-0.19832917585529597 0.18186382800703405 -0.28162830053313875 -0.29127908789761137 
0.17703179640450301 -0.18318620819347239 -0.18648492872530403 -0.25782307975643354 
-1.1195500731482253 1.1002778641070314 -0.47819039147734349 -0.70811593308517584 
0.36112678526424302 -0.42659591728338903 -0.27025304788461818 -0.14625656646427501 
0.12068718596558123 -0.0067148804987428312 -0.55328870284104203 -0.13202864986419327 
-0.12672006782682332 -0.33480819054851213 -0.027681138937948657 0.5215399015786758 
0.67438997587724558 -0.40704969854225392 -0.018421003439631375 -0.53402045482534621 
0.98529343392886637 -0.97036687298581881 0.18000247680264558 -0.10770976736255575 
0.48569688741842398 -0.54930238078284133 0.10552490837603271 0.36985890690792089 
-0.49570779919207647 0.84397658124115726 -0.19122751018962292 -0.18738371414759886 
-1.6222148682348987 -1.2126899961070803 2.0754712198761469 -1.9600976886581014 
0.45059181494780887 0.26915368721637006 -0.050093617773810939 0.050822582531509612 
0.2307709845123877 -0.21817049039454034 -0.1242792878019565 -0.11908064616649741 
-0.40656136134554144 0.3291050594377008 -0.2393426270327384 -0.36475538920108208 
-0.01534051847716935 -0.057068957668156325 -0.012028427822805297 0.32967582197645295 
-0.15167311040522011 0.24894672059958867 -0.40527070666459752 -0.22657055831837264 
-0.083416823368398965 0.12345216033435802 -0.43548891384957972 -0.20051249183274533 
0.37355014609626375 -0.45725011956387673 -0.043070506284627386 0.059488224629297828 
0.37355014609626375 -0.45725011956387673 -0.043070506284627386 0.059488224629297828 
-0.025040767733170231 -0.0040577400778749276 -0.048967758406032874 -0.071967239681626327 
0.80560462448768455 -0.91269057732924752 -0.10370852392910883 0.14694149612485127 
0.23400034476800782 -0.17574292768879771 -0.23321114865374104 -0.18770200299505341 
-0.025040767733170231 -0.0040577400778749276 -0.048967758406032874 -0.071967239681626327 
0.27158249144914348 -0.42632169836684647 -0.077378629494406992 0.11112517375144283 
0.096918096112189767 -0.1594214363029462 -0.12881553255905276 -0.33743973233076457 
0.067353871085975722 0.010944325816126789 -0.26031732774124361 -0.053402405588877863 
-0.75523741529999677 0.7204675803912608 -0.22189964003199206 -0.20540434456800971 
0.0093290934974790147 0.0010637902205904491 -0.14955578504569889 -0.57353185041320853 
0.016038785395532242 0.039621595450577099 0.024158392053709246 -0.21471646542937833 
-0.10840638857864024 0.10827768461537349 -0.17368967784023892 -0.40289652574263457 
0.51586971264674242 -0.58719190184491188 -0.56189137486352758 -0.38616676923321247 
-0.31957794024803843 0.32759048786015615 -0.19600707218247632 0.34000214817343638 
0.11849457607714425 0.012905028100078896 -0.2117992657929442 -0.2294844541203605 
-0.10478153264427614 0.054224183038336975 0.043789946063255356 -0.10267297522127036 
0.067966566994782041 -0.073144161697895727 -0.49600779585322119 -0.44115350437777257 
0.53365425826066515 -0.4494606220243263 0.29744455943209058 0.34099013012338603 
0.039800831728205074 -0.053960495061364244 -0.20106128217304026 -0.41609953137362987 
0.27962656231519528 -0.29298762343153445 -0.27525029514125954 -0.40678778154415296 
-0.057630555312690374 0.11729942644497815 -0.034648559248373227 -0.030860960922615067 
-0.56207511010955158 0.11096464605529319 0.21454013146658563 0.10974995393581208 
-0.15437502382431795 0.31005531659355368 -0.2096666706172286 -0.62908644104972722 
-0.52881271317973921 0.47326583668403621 -0.35763221376634546 -0.29181950052764577 
0.14363966486679464 -0.10438041716164802 -0.24484121972433021 -0.0070792603491960527 
-1.5715184028432936 -1.7389047321136257 -0.37037813170446077 1.8793851907112393 
0.046024803924859928 -0.21152542704964891 -0.18952181676837293 -0.84337694262316687 
0.040899863395055261 -0.060933019598845513 -0.39872241394038538 -0.44291266697081566 
-0.5476713670073563 0.36770813445273909 -0.040126797607635004 0.16666953505150273 
0.5658664921140184 -0.52374870732926238 -0.32803214575505935 0.050760074245347932 
0.74319127442755506 -0.18117555751459169 -0.3928746502706123 -0.85859067214695062 
-0.17928336678825835 0.18106224237429075 -0.18981421811536042 -0.15029601328257464 
0.17648646183706207 -0.26520678634595363 -0.024917351268377283 -0.33339165218240613 
0.39626851806833086 -0.3488680633397685 -0.10669775991768224 0.084824709220366445 
-0.7087307787776056 0.61305754936308876 -0.46427641376527712 -0.054282787623728068 
-0.6905270411532618 0.71174311180148719 0.098884951029883789 -0.092552422135918549 
-0.35938368397222226 0.49759688656203127 0.18578228501415245 0.079072825882822592 
0.73667392306198431 -0.78673353949102642 -0.26662631400740094 -0.18198434844941569 
-0.15633927279583804 0.089663326058915679 -0.02569648807151239 0.19660351860871761 
0.67965908826251153 -0.74480884486300125 -0.26663184017490971 0.010904705451494384 
0.37722276324997556 -0.5115612730055672 0.013604653288719876 -0.29059623668455198 
0.74537252524797926 -0.69529888006024332 -0.18719727662216887 -0.25485680199148941 
-1.0249054708874454 1.0390462601535531 -0.51368382934331269 -0.65092475975037867 
-0.081098365933194097 0.076476082718786143 -0.2033159775355674 -0.15511966131300065 
0.70457452227463235 -0.7465517675572062 -0.29697570891890229 -0.26935183157791065 
-0.26013338458082041 0.32486032223216083 -0.2789134419403097 -0.22469141638441176 
0.0026850078034930712 -0.15421072574461459 -0.27255805674566674 -0.20620040408707641 
0.67766299812415531 -0.6298855046503391 -0.28179043533803078 -0.34327124787701313 
0.11401182913043953 -0.38086644791258029 -0.21130385919119529 -0.10783749731443908 
-0.46614424805126931 0.53390997630300507 -0.080882075943232434 -0.15548169415192462 
0.12199534808884145 -0.36987844875350084 -0.26104945031431737 0.48475435949961609 
0.27599543803374377 0.015590645075224521 -0.60122746465390675 -0.18663167823767268 
-0.026234268661291863 0.017421994728001156 -0.24970724393876514 -0.023624286364641346 
0.2469646362058241 -0.37606600146347197 -0.2578790983142939 -0.12952405475515122 
-0.25049453582808484 0.23832228255894647 -0.27003296258245674 -0.14120329336392085 
-0.38121079283607501 0.2478154039006546 -0.460072184742289 -0.38201562297813041 
0.27291867923900937 0.55098594829928826 0.0055120553022732777 0.38456403979474646 
0.33847662526290295 -0.90216696895790105 -0.083748734501012695 -0.23230810623383838 
0.31736405233028675 -0.60146368196323796 -0.24207311645432616 -0.19491589491098021 
1.3815681826421393 -1.2914217182030012 0.016479011654427351 -0.061401150291108229 
-0.57254967526816192 0.47382124766633499 0.11376463622154409 0.091041487426146664 
-0.025952259828635804 0.033820119004006825 -0.21352054624326233 -0.097025523187712431 
-0.33197128904416356 0.30279353260616887 -0.13487167865862729 0.0015163658420826731 
-0.27687977267512148 0.2910802040121987 -0.21086573406300493 -0.12652828793874438 
0.54202433093766511 -0.45185167696071737 -0.20546295517274266 -0.30791626646178716 
-1.3840253701440992 -1.6252342288430537 2.0700672038116896 -0.49474975383237485 
0.21542502539936711 -0.41440393284223009 0.038234986995721934 -0.11397928307504619 
0.10240478696479766 0.15254011776538864 -0.12350247329705555 0.66721408109950175 
0.60012951711201079 -0.69231578374726188 -0.22994906683997696 -0.62445015394493475 
-0.067498341321319238 -0.059254800158092868 -0.39984812392782837 -0.27348854104074904 
-0.21863617402097754 0.30003162317947735 -0.35459975927079479 -0.26989275655662009 
-0.46217773143727814 -0.28946737405942824 0.49704267771240762 0.30514550421806058 
-0.013300792024835823 -0.01522734749640366 0.071353177517876329 0.53284549652514956 
-0.090758741317532407 0.19373601712997457 0.069491268227182823 0.53293533873236421 
0.42769395864838533 -0.33056196074194077 -0.14975881803132002 -0.20245851741968601 
-0.072283760224549132 -0.020883637420135381 0.61508039130115222 0.0067036144661495748 
-0.18736991076210618 0.2278934950503656 -0.37477350932551629 -0.20248021800694621 
0.53672895711772783 -0.63360823211343398 -0.021032994172422645 -0.018657237953661868 
-0.11673941550953973 0.072611239718010395 -0.10663101370968311 -0.18009979371144461 
0.27282651741707947 -0.085806975072200475 -0.16222791558341457 -0.45973290072839151 
-0.097156594277767627 0.12075783906959923 -0.25307985976587127 -0.3545583478447169 
-0.38213256262768958 0.39323914936575655 -0.41076429637073952 -0.050734018980070253 
-0.95835500840610499 0.46733554580287584 -0.87877623099051605 0.10814056142952548 
0.28967659797427903 -1.4074489117773585 0.22257931358541372 0.99815226456337314 
-0.64720770289545215 0.73876084642639206 -0.18952202096071485 -0.42269576208034132 
-0.25934462063047303 0.13608836332156576 0.43649196549909219 -0.0077666007222396694 
0.69714819611868939 -0.66374255960288464 -0.39945996719800719 -0.27618368531757953 
0.11711505484828098 -0.088007123454500222 -0.2557923434164654 -0.33755673287159266 
0.16056043656928887 -0.10580314029040426 -0.55157648367135037 -0.28557720470431214 
-0.53186463254839955 0.30849886890259409 -0.17175110110148745 0.14151953779420265 
-1.1223819297880566 -1.4554201205088864 2.1411339710321315 -2.3474411714569032 
0.51159301563792614 -0.31588349231069196 -0.18640980760391615 -0.30624891147223421 
0.39817497248654787 -0.79803714089501798 0.032208648210093435 0.071027911076399275 
-0.12132785822688395 0.14256758511089646 -0.25240765206503468 -0.052962004344710302 
-0.12777067978042131 0.078620288772602687 -0.45247666744056381 -0.32229149905758681 
0.041362666194887598 -0.033637010414418501 -0.016012377986780922 -0.021888597196852141 
0.041362666194887598 -0.033637010414418501 -0.016012377986780922 -0.021888597196852141 
-0.14393638302430795 0.022697273182664034 -0.16099275805993668 -0.16628319728271904 
1.0946926750244039 -1.111630325709859 -0.27843388072680608 -0.17540398963723816 
0.083640443618264448 0.21890621995850279 -0.28079301825768538 -0.045248827790427659 
-0.21619722274582021 0.15146389519030073 -0.1889396471532773 -0.17121876151869705 
-0.044341207255582021 0.062803915756430961 -0.13539075616362067 -0.18598542960268766 
1.2224775472422063 -1.5590556087935252 0.09186208514844077 -0.042677524705295691 
-0.19770211165376658 0.23780973124203703 -0.30016431825942352 -0.30467572210092769 
-1.5592973429668144 -1.1748177891635518 2.1293333090165625 -1.2058714127272649 
-0.78285319309907109 0.43503353791943017 -0.18946732971803784 -0.54612598580723271 
2.0510162107615728 -2.1404965649826928 -0.49667285721518989 -0.48718530682375299 
0.0071764575324412272 -0.20615870192404651 0.02837023693321182 0.065322198621956151 
-0.40958658055303615 -0.10624423979473567 0.33023411048887791 0.29846691483855248 
0.073643482859298309 -0.027047763987239758 0.23905200207942276 0.20706850662657567 
-0.17151915134786994 0.2288749447361951 -0.36773567105771759 -0.27544429747681637 
1.5593963350097413 -1.6231920907894954 -0.082797609909590245 -0.31093690273353675 
-0.3985797591186731 0.57273970132047669 -0.024912822212096574 0.11586976697502765 
-0.27363961468391534 0.34527939917689393 -0.20986615703110717 -0.047350423678117134 
0.18598091634734573 -0.27599261364383515 -0.17674861114880625 -0.37019382013000252 
0.22118689723828669 -0.075923091518772884 0.11919527447566619 -0.12582790404885313 
0.51251360329012707 -0.55092666793178835 0.32672420370167132 -0.36089423529810682 
-1.1843650481470929 1.2919822359753206 -0.45339473937773422 -0.20168538045461681 
0.22342059235530992 -0.52479230245268926 0.12210020614390858 -1.4646652829429703 
0.28387721162229018 -0.4022175725444429 -0.40492625827453754 -0.60007931619830879 
-0.2437360694728562 0.27687709202005756 -0.34581978734170821 -0.5388705731676573 
-0.23998727155171476 0.15330350883039459 -0.16269675664285871 -0.0092746603154715904 
-0.054048091176137403 0.13425671145503143 -0.24408734968438583 -0.2183484968908225 
0.42329034734905702 -0.45701831660130043 0.09930585716297316 -0.011075048778202534 
-0.40106576859733056 0.30965225678726704 -0.044942298330470309 -0.40642718943249201 
-0.39122289014631828 -1.3280435384651998 -0.20973292837333557 1.5488376337010237 
-0.31163009069526237 0.25357367188983793 -0.016024441121913813 -0.18509230921161268 
0.10708301615418915 0.015808940278802003 -0.12527980524220689 -0.23565802902948105 
-0.15932547389413568 0.052658902013493852 -0.40728372745063568 -0.24131748328925823 
0.23775924022100808 0.039990938919033707 0.23971951298636379 0.44958008172861047 
-0.68292765738243488 0.72447927351992747 -0.46629922520885325 0.020368780796279295 
0.38223319581235182 -0.44948334037800269 -0.012485079748760571 -0.42452700163911555 
-0.15694926888763155 0.243805644407393 -0.38066184662108526 -0.25785275470202007 
0.23263735098756336 -0.15198044398762212 -0.48886888002218321 0.094721115729882177 
-0.5156522891911578 0.45865963864039749 0.061987394615473743 -0.057395289337355548 
0.8764603829868598 -0.96143368997338796 -0.29363200741573176 -0.44621121498171856 
-0.049984607060671198 0.1962045329948626 -0.058766692349008033 -0.18349979217879792 
-0.27725378693679914 0.32646493417393274 0.27728280458415211 0.7137881290856718 
-0.0045531375068284738 0.033811410075653588 -0.03329749213552511 -0.031670824505847073 
-0.3437725079282577 -1.6263351212911368 -0.14718233965075206 1.8725111310779945 
-0.32386385547890789 -0.75037534258821004 -0.14422819722494984 0.34798132980455976 
0.12907052547964265 -0.27266688300045527 -0.38609124826207786 -0.71297566448062211 
0.83332258296301698 -0.51741468833209292 -0.22674055304356033 -0.17607512723882007 
0.041501302599705768 0.063173090394286147 -0.38872643394756867 -0.34185473721176585 
-0.033642018034697525 -0.01418322762457086 0.0058882038886017051 0.026108050899027929 
0.014709846614812911 0.088750985500058985 -0.12199053952792487 -0.094085376652055047 
-0.8190107437323787 0.84269396720991829 -0.5127037767143835 -0.66368722820377057 
0.60258009974406224 -0.46600207957774897 -0.1071424735455551 -0.23972799215708371 
1.0135327075968268 -0.52410221935114665 0.25561448939896347 0.42043882008323791 
0.49313396664559206 -0.74064977682426814 -0.12641042444748349 0.011753882475381915 
0.11875431328354188 0.71839489978364235 -0.28413854776805103 0.12794776322212439 
0.015800105772291094 -0.018911704347402664 -0.15598116214414037 0.0546776127209695 
-0.0060898810053810898 -0.015459776970197445 -0.2777810632816945 -0.5257064609550266 
-0.33245200446717088 0.33936828236744004 -0.14763272960624266 -0.10152504489035563 
-0.41692009727247015 0.63507266422678255 -0.028781412782707766 -0.22423783939490927 
-0.15412463633569229 -0.072116907334202715 -0.03787752865558297 -0.33797816067903513 
-0.40295101913954151 0.43402907512790873 -0.27839039931381976 -0.50934506098804455 
0.30320727213637 -0.260795033748976 -0.20913010967089551 -0.4406586645437226 
0.1956586606779957 -0.39336402244706759 -0.44673308292260994 -0.10626042379524372 
-0.10266997153102406 0.18858055317276853 -0.15069086645089974 -0.22811934615014481 
-0.0094091710626022645 -0.061311735975498931 -0.2347079539683487 -0.17198152697523214 
0.0013716770632047287 0.0071272511540190174 -0.026058186579899008 0.30978487227908302 
0.57904353693978705 -0.63355859114932955 -0.36800268168282618 -0.17247750153871266 
-0.056272107017551032 0.20421689258313758 -0.13505960860392935 0.11758020803639523 
0.1396972042016702 -0.17840923638472647 -0.25154524676962187 -0.12217739434233912 
0.33920702224490135 -0.34736919584345438 -0.53038275894190012 -0.19416755226198407 
0.10688698473142004 -0.14761592189644573 -0.20055935084799256 -0.15813757617807209 
-0.14189990047612772 0.40279974472922425 -0.24726344035417755 -0.044190156421989563 
-1.6691006452824948 1.2512927987028162 -0.18163620011908799 0.37783546965692139 
-0.029049491757387413 -0.65908748469900613 0.26571893856309881 -0.029549720259987873 
0.94450945037389689 -1.8657227777284873 -0.27656675512004736 -0.048180181074680306 
0.14649458022316236 -0.066089378116884701 -0.17396463765575992 -0.055167785232942246 
0.23048558503039074 -0.1248957314120064 -0.22407459685702652 -0.26043481071354374 
-0.12680253121799445 0.17589010396267779 -0.25819903550047607 -0.22866495102789058 
-0.010982720698160503 -0.22822368561787115 -0.070821922281517957 -0.19416105038489981 
0.27194249651025215 -0.27158988808886675 -0.16169270415641609 -0.086426029855670883 
-0.23464753269543054 0.29822380653003766 -0.057701760343859182 0.21738113523356919 
-0.55431654076927783 0.61535551368117802 -0.040719441905162357 0.16195447567254526 
-0.89823069615911055 -1.7280043254812516 0.011474904258664709 2.0733124987089671 
-0.20188310540222076 0.07367192514588794 -0.20076992416276518 -0.10864215236776829 
-0.51419294348135824 0.53818880917812084 -0.42676178203042442 -0.12130263891303046 
0.088150228457052379 0.023270488501231708 -0.11117720781386328 0.12229318498232289 
0.13353344240628801 -0.1793410941014516 -0.2217283780137681 0.093164792682114306 
-0.026561559954322016 0.081778373868068993 -0.32608119332965085 -0.19663780089827346 
-1.1263211146173873 -1.7872476364825185 -0.30970625619318531 1.6809736590021012 
0.29613935969983352 -0.32568219148491317 -0.25893278228426186 -0.088333043432247627 
0.46085240949425765 -0.96886550008592454 -0.22319634530931237 -0.015281322698750821 
-1.6830374238737085 2.4724383502124114 -0.69502571359973064 -0.94501683465754693 
-0.77619731526535241 0.67683752424338772 -0.45037859439550082 0.13335170871972665 
-0.12031555683776732 0.14811194678734627 -0.51498455128285614 0.07877377334432803 
0.87678594892898987 -0.84810365906110485 -0.24602312776364993 -0.21253651476176824 
-0.13118584121215676 0.10061848261463295 -0.32172169316884203 -0.2632523888301217 
1.1858394666445013 -1.1980152174167684 -0.18464554057085242 0.41139022073060805 
-1.1611852273558234 0.83612372326063911 -0.267889062427074 -0.078611649266179834 
0.15885187174322485 -0.042211921402116021 -0.036387275796946658 -0.10823821570102875 
0.61471514637856584 -0.65543208784692486 -0.27195859440753994 -0.3952288089539297 
0.6385763751532848 -0.6023764311187183 -0.49746222584370131 -0.25673660261471559 
-0.42013066073666366 0.36469488774541042 0.034384045299235652 -0.077306364108539125 
-0.43582237967360599 0.43643615548815057 -0.42117354967281517 -0.37411067580759916 
0.064523071575607743 -0.027239485033331075 -0.28149000359850856 -0.095688161981906897 
-0.0039617450465498959 -0.037810393403981235 -0.20993075056245772 -0.18370602619435294 
0.15344217958045092 -0.13884266931154082 -0.47950186376657727 -0.40618972428805733 
-0.52588589151295395 0.56094621684240753 -0.1349600019638563 -0.21169121551948203 
-0.17433719243641349 0.20665913393643337 -0.28202946740801127 -0.054425491005665197 
-0.55382997156718117 0.47334587513338439 0.62555991138688405 -0.05661814168340791 
0.23066865524281768 -0.096610802757440273 -0.44342217313561072 -0.31216089837752214 
0.19644767689460818 -0.29788883122827747 -0.40572295166366568 -0.17989115463886551 
-0.66830557447876449 0.75633366210076969 -0.118113530066356 -0.018143142555349823 
0.40059545910543393 -0.36970159054209761 -0.019677724279156018 -0.10458685805690149 
0.35772171770058248 -0.40502870397544294 -0.22981597575146676 -0.38736841477097089 
0.054823766595264882 -0.09360629608497123 -0.050564788254625716 -0.20570033836421286 
-0.39622758609394465 0.45625888598413422 -0.16194780977757078 -0.17485911991666775 
-0.37877550733499227 0.46672461373168161 -0.19039094485785363 -0.17167984231257569 
0.2486832849830595 -0.1530665879662195 0.38731026299897214 -0.72312736339612793 
-1.5748954355408049 -1.6070687523380167 2.4337692252677638 -1.6250963634138804 
-0.012623579264390044 -0.02880733241195154 -0.041023394386646803 -0.039347793935712347 
-0.15171403914116083 0.14886396528157989 -0.38980363232103299 -0.23033416362976666 
0.2819931228175851 -0.25961554374461016 0.049700858842749912 0.1477535928398846 
-0.28340974579769462 0.58781198189380446 0.048254536684693483 -0.24584275141849599 
-0.98280903381552709 0.80971205033395044 -0.57686775995391582 0.070977418715420154 
0.10626620136354908 -0.06369653866804674 -0.2259398297206478 -0.31355355791962874 
-0.45729993001449049 0.40072545770289658 -0.1246953674727323 -0.49801957279509856 
0.20435723915880402 -0.23432776992153792 -0.39773881769346225 -0.058322127354439673 
-0.45729993001449049 0.40072545770289658 -0.1246953674727323 -0.49801957279509856 
-0.20712189782222468 0.42993230520236209 -0.089518966957450111 0.54826532895069557 
0.1872150061553717 -0.20238268289894942 -0.23676042975015313 -0.30692877891606418 
0.1591331824502602 -0.16074004258875091 -0.11190157111672241 -0.19327425995090175 
0.30202458417547123 -0.2627427505641553 -0.2349754945109099 -0.077668024105227995 
0.19453638681992119 -0.15010958830705132 -0.27069116920905378 -0.31057572816910672 
0.21494925176799035 -0.2361674492139591 0.31924091844006969 0.51455477207453193 
-0.35215375921007952 0.29698634704040816 0.090004545760566559 -0.37575921738352275 
-1.1557441945077256 0.7633199127292456 -0.45379204634487941 -0.72316506965628913 
0.59942967172128714 -0.55368014794492171 -0.57055115787148991 -0.64622015212863482 
0.075542483386852641 -0.071464722146008991 -0.10949527103586654 -0.39340117133202918 
-0.10787077818336982 0.033789772653594528 -0.026631839545720584 0.43523783717116871 
0.40200530200962781 -0.4462689522777154 -0.27991676668615428 -0.29863172320549458 
-0.043152594863947027 0.005818332067313082 -0.47868535463403289 -0.32178566241949202 
0.3567472139532048 -0.26817750737864066 0.27326844863330718 -0.21668691488709968 
0.11808587010967697 -0.23582914193138177 -0.1072715399465787 -0.17260683860730108 
0.029771209608440881 -0.025866197273578251 -0.036062249120281928 -0.21501351537064445 
-0.72401531802390651 0.83278497683361219 -0.048892825788891509 0.040547104428513281 
-0.82027505270815915 0.70814918582659492 -0.32719287218863502 -0.35689589286422163 
-0.024033675466762459 -0.67218557364995379 -0.0060222406586159447 0.47798170252491617 
1.2821265212499393 -1.6505248811742597 -0.15392911876397514 0.045122311623801148 
-0.11319759850523674 -0.29188253892268462 -0.20999275825514688 -0.38220906828063517 
-0.16663315425143971 0.23391657108060426 0.20473158527919832 -0.33954836601430272 
-0.22472347132062531 0.10637031024152686 -0.21046441369481245 -0.15585138802597392 
-0.59568795219841508 0.59924025347133725 -0.47515032789033496 -0.10022002396965815 
-0.42745858861607766 -1.0773766822816502 1.0383006321906099 -0.14988848428414087 
-0.33936303731641404 0.18307671267941461 -0.21399902367260196 -0.2417049438585952 
-0.29275032980227211 0.2314366636909006 0.056202831531830519 -0.31851119363802027 
-0.18090715034286342 0.0098070562286270424 0.42206310286207294 0.18664495510192214 
0.29281052601568835 -0.33704423073072232 -0.14914179127507207 -0.035229064586481229 
-1.1251587002142607 1.1553381000727234 -0.25184313712807549 -0.05212920995916126 
0.40094310228773433 -0.26435371212209213 -0.47973169559572992 -0.56474477905485765 
-1.0742525438423232 -1.1438454438413299 1.652512312654483 -0.19306065065261593 
-1.7340174799144847 -2.0647510466331762 2.1335933782942269 -0.91584909504037548 
0.38175884396020876 -0.25567966132686559 -0.177633838275604 0.039885164198916016 
-0.010527557506733842 -0.98854411752175242 0.22335848212847287 0.3909917694375673 
-0.45253856692110128 0.37079376518269647 -0.15184291119576851 -0.3865172940073589 
-0.32182390289505397 0.22296870508138478 -0.1181127238267671 -0.18492662303953578 
-0.91224372086064387 -0.99185767967959948 -0.13736333113471244 2.1502493161764038 
-1.1092324008323773 0.96825223331343424 -0.3750479090911778 -0.22941452092176109 
0.67887931794094225 -0.78217792158363808 -0.50285483056346159 -0.31605558420309188 
0.76676538021435814 -0.74765427983127219 0.046206015194885541 0.093395183309652047 
-0.11030637421079775 0.3137962851891416 -0.16022657255922618 0.43573003560765916 
-0.07662295723377871 0.084394409861481917 -0.22975352431840504 0.030369781746714501 
-0.07662295723377871 0.084394409861481917 -0.22975352431840504 0.030369781746714501 
0.23393300566978581 -0.27638265644938687 -0.2667071920525555 0.14744611089810822 
-0.54072387036294023 0.56394285322243709 -0.00068198531041083199 -0.18969732787632582 
-0.17676571032486527 0.16090202348154387 -0.14390080438640213 0.010131228611802219 
1.0884554203394921 -1.2652166165746341 -0.34063493945470774 -0.99588505077689415 
0.16730395436725901 0.01193286630893179 -0.29030417218912713 0.18532734229465786 
-0.29078558845729763 0.23191831146937461 -0.37982191164236595 -0.18510396143104813 
-0.468821740161386 0.54613854016562424 -0.18931766051452814 -0.2114619257615572 
-0.26010629985289913 0.21023863973884904 -0.03594807567856835 -0.24093459592681338 
-1.1853302721752124 1.0178362528458438 -0.38245330078085288 0.1863166214794657 
-0.41835816027392592 0.42301020150788587 -0.32271783476061572 -0.40270233522124499 
-0.28236625820667521 0.31419396958507434 -0.22027376885468186 -0.80058142554782807 
-0.094050699720668041 0.01818000491533852 -0.41820834542725177 -0.068945114734619811 
-0.25072409312586463 0.25572704365099852 -0.28972884563958057 -0.38343287227699485 
-1.5980535380641201 -1.6250281092594865 -0.023225730926472565 1.5035327282867692 
0.080778974578500362 -0.53376448165261015 -0.45447265664112374 0.29856070642724386 
-0.041190130093816654 0.074018570881308643 -0.02315178715216664 0.047266732955737092 
-0.041190130093816654 0.074018570881308643 -0.02315178715216664 0.047266732955737092 
-0.041190130093816654 0.074018570881308643 -0.02315178715216664 0.047266732955737092 
-0.13358866758414062 0.10174728660521315 -0.21571821212829376 -0.20623402499119009 
0.15847720293645742 0.14523057046421839 -0.30710041689967021 -0.09015968050273096 
0.083315748104544798 0.010533701625096568 -0.49132625795667989 0.92506946626867581 
-1.1141670047371248 -2.2283364202719027 2.286764532948069 -0.66384352144790981 
-0.21874266317835483 0.16411785823306602 -0.12132212684281715 0.31700453034315257 
0.85444043107325751 -0.93601069503753409 -0.46395129112775985 -0.59661016982845394 
1.4525721826525715 -1.5319172002788006 0.023329139418223666 -0.025232583100048139 
0.3310897154439178 -0.38269811615045402 -0.18966643954536902 -0.27973859936197409 
-1.0453594215730133 1.0581046904030293 0.08385899072439934 -0.016752293079967312 
-0.067574032851958871 0.10424775136617563 -0.30338036025878806 -0.059005855186753962 
-0.24154723838941206 0.21228544900992768 -0.19966066159721085 -0.24874164526300241 
0.030516766464930033 -0.039908918829245299 0.067590038959322946 0.18809901006444912 
0.00020885227343452327 -0.01529042973087566 0.088196305214092857 0.30030742872174748 
-0.19870882153057579 0.11340589562329811 -0.082426530901546738 0.077563130349291132 
-0.46790499957938658 0.43231115651856394 -0.55918442215606767 -0.088351395158825924 
0.17006191392012596 -0.1810329930216571 -0.35789702878202162 -0.28191643310979186 
-0.073693292026277973 0.01277558989757413 -0.18937648349841429 -0.34588895949424331 
0.11046644984225179 -0.092166787533247724 -0.31997480318972654 -0.071505973329643951 
-1.1144228441768174 -1.3909458374358121 2.3046804889524033 -0.90394580984780448 
0.12852918882626369 -0.16183137844103029 -0.23322832091719006 -0.34707921037596179 
0.032128436048983702 -0.10295663022647285 -0.19348772394304287 -0.4962910294596462 
0.11666412232186232 0.12395037459614031 0.0033719959487113274 -0.02282368615390544 
-0.0053967814368659989 0.33355727806650581 -0.12127283719750381 0.14338516222134173 
0.57113129927355921 0.34732292683740656 -0.30337745578327513 -0.017520912691719265 
0.12632460149450195 -0.23060533364060859 -0.28271961591310607 -0.1387870297070275 
-0.19992779778387854 0.11963290938146687 -0.30869295508225603 0.091540381678912847 
-0.060894968010364231 -0.046712492589317936 -0.35605853537179155 -0.30806934356324384 
-0.81763584771918396 0.89468850323364457 -0.15317185086275206 -0.34812608613006929 
0.28104802917771099 -0.24690430089937132 -0.25766399131886003 -0.52206193294919268 
0.62391090670677929 -0.62038912115518763 -0.27468907102410145 0.11802130348168066 
0.17988835565518665 -0.12580247483257023 -0.26875211570589269 -0.22928818103620843 
-0.56814592983366441 0.49937719960607974 -0.052860788263900518 0.046446210146010747 
0.5870911396045948 -0.63441473077342048 -0.34412489695247828 -0.17845160946575797 
0.59860646858392585 -0.63762432447153439 -0.01663167617854238 0.087470040959178846 
-0.56072958023002883 0.20961845324130793 0.19355499669050583 0.059212640632755574 
-0.27220731055464809 0.21177984865839319 -0.04183332732787097 -0.11569367156130561 
-0.35367586265013318 0.39169203514668982 -0.32613854632528644 -0.60508534155889715 
-0.11474300535159725 0.062172543164216068 -0.081353166689864087 -0.2345018222842386 
0.66764703641754519 -0.86436602145293839 -0.6036069061755488 -0.032548216359405725 
0.23401584397123545 -0.45160261887307501 -0.00032316078066240914 -0.0032412666043379196 
0.16583199994832706 -0.14253972748015659 -0.07729258145690604 -0.27948787727670021 
0.34012990749001082 -0.2190171522094761 -0.097769246371493645 -0.11259430996138742 
0.32050505356574066 -0.26671171523767917 -0.28670851659387947 -0.35093415586680277 
-0.035042082744492956 0.023366755163841228 -0.28067434786740947 -0.28458401595454208 
-1.0346379162151473 1.4386448025307319 -0.61931458581781229 -0.24429283418789444 
0.41884270493470144 0.19774935886450259 0.04237456278818412 0.035941612576837478 
-0.036938713808512096 0.10804538503059727 -0.43534087844016867 -0.47270992272307721 
0.56046398121002328 -0.58084807858913035 -0.011092511618090915 0.058344904917563251 
0.53131092676722214 -0.52474554704705734 -0.10862993870078537 0.08982350308127654 
0.094899787168474803 0.07015004270352658 -0.10719541360111631 0.1992485604794042 
0.75423892121272473 -0.77402618761160635 -0.17357644079050377 -0.0017010500956899724 
0.21487174363757602 -0.18757182292039506 -0.47347213619299311 -0.67216440880373096 
-0.46941859896213117 0.50476072463182886 -0.38022875173470427 -0.45588334925205742 
-0.80999744791257722 -1.5170713274980403 2.1001226089726601 -1.962179701883398 
-0.17747873490233118 0.17387123976671698 -0.23740314183434919 -0.086631201962790408 
-0.95509802755391604 -1.4052914189064558 1.0582471671298335 -0.064518906846433285 
-2.1079867555395646 1.9053975379657051 -0.19236739643263129 0.051330341242386363 
0.7546981890786264 -0.41386962684361939 0.31905747529918288 -0.059221559670246296 
-0.63015763395527702 -0.045141418430791252 -0.13756604083681317 0.095828850763506182 
-1.567861754635252 1.7681270700669405 0.12662445552817 -0.32819009698287044 
-0.12993573111988749 0.46822117446116418 -0.03582742364883406 -0.21455130758801882 
0.33006597264008825 -0.23240048964324819 -0.21809140834649809 -0.20313873156770604 
-0.14139063779552616 -0.02365992091199498 -0.28251251402523514 -0.42967981512185283 
1.1179287021407438 -1.8618174938639123 -0.12348190022665516 0.79320149527133255 
-1.3744214166370567 -1.7445294156352791 -0.37190193655331627 1.6794366431490837 
-0.77484632943552978 -1.4052188853322072 2.3835856957743373 -0.1157000023685823 
-0.2967606643959495 0.36912691973415596 -0.31689663216802488 -0.22199814669176562 
-0.076020299365842203 0.0065675253211686536 -0.18277055838974099 -0.2524161815659236 
0.27803979888863989 -0.27127424615249784 -0.2699159802106742 -0.14688536824861198 
-0.30665232264605696 0.13625517051540237 -0.19297976633177807 -0.33212538603826935 
1.0038757942854224 -0.79179300136199704 -0.33769096295974022 -0.27679255503976052 
0.5824631260252785 -0.66204212107143889 -0.090080588865770084 -0.45591436850845479 
-0.018971831507691175 -0.006611210038347708 1.2022086705400898 -1.0159513658028243 
-0.11200622415677561 -0.018672406298532278 0.50245857169083274 -0.12873769870312751 
0.11241243257465608 -0.23935441386557738 0.13767489873992322 -0.36216060804233791 
0.15658773178178287 -0.43901189137766972 -0.30300682778949473 -0.3817322380576833 
-0.96240943518484756 0.57380776166888037 -0.37818334709257606 0.27802406099010074 
0.36848536866921222 -0.63730880370388387 0.073105529781945594 0.22494228042980799 
-0.62926039698060743 0.33702512597431195 -0.031502870680485601 -0.022278577970251914 
0.97528956247139864 -0.0013202664310035491 0.057917007728891426 -1.2849828046448994 
-0.048082283464766687 0.18374605976452013 -0.25564646979511185 0.15765044182676516 
-0.1592854717578987 0.27854817241221097 -0.16439712681980576 -0.018021694691112953 
-1.0391547235137111 -1.5280642299045144 -0.14914457760134975 0.7635981640733378 
-0.79919146020824283 0.78132852452138191 -0.55771686248715691 -0.21650172847853788 
0.73185415784907248 -0.73448065241412275 0.027355652276719565 -0.19029465953175706 
-0.5244815611277629 0.54504892401893534 0.052152237570269808 0.0049934914793079363 
0.64527282017482479 -1.0090537380259392 -0.32959238874637448 0.3181674656994507 
0.38649365888866483 -0.16843637617515603 0.19222520951844535 -0.43611766354046044 
-0.81696516202311964 0.76202009491675438 -0.34977849767763514 -0.40026153266361475 
0.33991730423683109 -0.41006200111773661 -0.28182558635653682 -0.069365529200808074 
-0.9009643053451869 0.37691013928949957 -0.32685738731275693 -0.27355152884211781 
0.004509746427104111 0.058540900578392716 0.046303265599602877 -0.11373351526545937 
-0.195526108389832 0.33672151600071309 -0.34173655467575548 -0.26656297269057194 
-0.4582617446705522 0.29798308758371467 -0.32572408050190671 -0.12605894350536634 
0.50101225733291721 -0.25060911495664157 0.0087898396256683511 -0.36015828883628387 
0.47521374409393941 -0.52085607701903192 -0.23259272021657429 -0.41800596416900332 
0.31639602430689401 -0.44105848114533375 -0.024804657044407211 -0.043669802186775616 
-1.3322657037445609 -1.6311715938641476 1.749699625461745 -0.26956141666700612 
-0.53748626148225875 0.41916148479766979 0.17207711935450956 -0.29574203366956181 
-0.093136952913029938 0.12054887912816586 -0.16398766020859612 -0.048703514725238393 
-1.114655173376434 0.69071164870823398 0.081833290150878285 -0.48521552750927421 
-0.0067971739367720663 0.046870657375861949 -0.015759247487621739 0.32586015868451551 
0.37499101585658123 -0.21205921049342699 0.09475332141555913 -0.37984388130661084 
0.56249720736077469 -0.58667202308507005 -0.21833725455582709 -0.37494928838231101 
-0.078520485942848453 -0.017826433146008385 -0.034209747090450174 -0.039939984127495484 
-0.052239569656698986 0.017102486957264976 0.24746135917095988 0.21037263765530045 
0.49710769452186376 -0.39656204029862779 -0.41735256225107675 -0.2913182304718262 
-0.052239569656698986 0.017102486957264976 0.24746135917095988 0.21037263765530045 
-0.38352947472685539 0.23470714415265959 -0.13442009101192609 -0.26025774283091141 
0.07811235954103922 -0.14849417144489097 -0.20150132335295717 -0.19486564718396804 
1.1589161221591433 -1.2615651575636651 -0.14372746046652257 -0.240498315268804 
0.1088265751081699 -0.40550946251975822 -0.094455242797143263 0.3735758160132277 
-0.39108523368547776 0.25136894795354858 -0.1393396899970433 -0.1611090693578997 
-1.3897063420685292 1.0551529755335636 -0.05643641761827202 -0.36580737511100342 
0.020531644297597948 0.028121350288246832 -0.0082893452303344876 -0.02104805943086116 
-0.38080665072685405 0.17417743792170887 -0.25422560257403731 -0.25294957189437201 
0.63647669265448259 -0.53986641016456716 -0.12090654894997073 -0.33389989455115221 
-0.069139157680806848 0.1358528332669737 -0.00027436316823839513 -0.12083910804989997 
0.27153253115644027 -0.37182955052777922 -0.30826881928503491 -0.032317217718105466 
0.27153253115644027 -0.37182955052777922 -0.30826881928503491 -0.032317217718105466 
-1.4334273724879416 -1.6007190108140852 -0.219595984707537 1.9416736398938781 
0.50166559333617045 -0.62925494887807776 -0.30250731833394034 -0.43816775864242219 
0.3959697588668174 -0.62046641656425872 -0.1004287573830317 -0.80046357071689322 
0.4708966509767859 -0.17925715721838664 -0.53956277503150984 -0.28703460096939581 
0.53398228223217425 -0.82805655593687 -0.11864268796954301 -0.46248132956376808 
-0.094760624687059786 0.016878059766873628 -0.34229046937853258 -0.068278823256260501 
-0.61700775835040256 0.41438595640639858 -0.21227536009038189 -0.0017906429326090892 
-0.011173623174975757 0.1519515742405774 0.029651581363286737 -0.007803949768543884 
-0.01567719230992197 0.010153335344975548 1.017055866793803 -1.3921305832853783 
-0.06217498383381144 0.041105178028135389 0.77785217167839804 -0.91870655282136848 
0.37058782438332261 -0.45180415747402097 -0.044394031215614221 -0.30570208219892619 
-0.28907685769120578 0.52179832750508859 -0.09171797528839741 -0.072155040627782316 
1.6365133722610026 -1.6815257244569404 0.038953043990575351 -0.093504958915630931 
0.35910802428100641 -0.49175276063458018 -0.33152819751062035 -0.11953891038257194 
-0.27638987446508023 0.17481917141554354 0.014328100280008797 -0.13464838569246357 
-0.11899655745172844 0.3685650096432575 -0.31057576771496048 -0.25944448996735459 
0.60143439464464299 0.22706568288017032 -0.19555844143402509 1.0465202913715026 
-1.0114804505234276 1.1150324424007407 -0.71462025090435022 -0.19205980877804235 
0.023598967291295181 0.055195957968440748 -0.26740598941480642 -0.27613376360311304 
0.33464524290385522 -0.30403512202356203 -0.081153761186207873 0.0070999504500072223 
-0.55098452620742044 0.52559883026028054 -0.25999053339888045 0.16060511651213583 
-0.015940426014859989 0.039829587705324118 -0.36866900976730449 -0.23470384935233599 
0.81073730755834628 -0.86033182778305939 -0.016053684513564023 0.095699935597942376 
-0.14600573190718646 0.21502529359479305 -0.27665988171249284 -0.13918392057133919 
-0.94692507508604884 0.79841900461457005 -0.16310856333860552 -0.51476137866209726 
-0.78425126517282795 0.46887202778505244 -0.35080413056629245 -0.43748785643799737 
-0.033144424090470637 0.35063926899148906 0.62250079675668224 -0.1225329466032973 
-0.6834872213823362 0.12342026338757633 -0.042571926616239542 -0.13369994615254674 
-0.62448877929453317 0.84689170951680059 -0.51620661715325156 0.018784553046132448 
0.28721051059877634 -0.28854220174838147 -0.32938851586093276 -0.24717746177731456 
-0.85297856386065052 -1.3206455361492833 1.2012203062154903 -0.43064998399583848 
-0.72948840904411349 0.25049943941407798 0.22934722220307391 -0.61600980480450773 
-0.21891516601745925 0.0807670986419948 0.15146680127932358 -0.15531155501324651 
-0.25284916179845884 0.30599187060917216 -0.28621190623076043 -0.075861053290187122 
0.040467480541230456 0.23296923313446821 0.093075377471392537 -0.017201221405412213 
-0.76111895994566181 -0.50629748575346545 -0.15406576890533569 0.29942862700686301 
-0.13424186573087538 0.67019715822651504 -0.050636101425048596 -0.23439394227820937 
-0.01653907625986625 -0.11469431387126018 -0.12526134527162727 -0.1214891770358852 
-0.42931939318665774 0.28697886780488047 0.20657715395982826 -0.18708278188337601 
0.97728369628002498 -1.0612414158779904 -0.040090106693408012 0.36336351074761458 
-0.066214648607074295 0.16337688950893572 -0.075182288309736361 -0.37670698550978565 
0.010833685515873461 -0.029046406576626466 -0.077692404525178893 0.27383601856543371 
0.7775622999952263 -1.0497066800743544 -0.30619659491254297 -0.35016733899468555 
0.16886636711506769 -0.14580177992786764 -0.23325048691085085 -0.085537627413540082 
-0.19936123135591552 0.35255954782286603 -0.20598861718319764 -0.28878623915438256 
-0.48563295861301847 0.41862788717674432 -0.23278987710889532 -0.3644768445440944 
-0.67690064914896386 0.60793121748101098 0.096602551345345317 -0.46191914468884876 
0.66959576078987526 -0.64647619990213046 -0.17963080958694094 -0.16228419159501345 
-0.77423095404755338 -1.2701700641603904 -0.35118378157039948 1.6594770778137495 
0.28575122033444011 -0.029693060042170719 -0.12141654009030978 -0.021038694874815973 
-2.1246759513691904 1.5780562353644561 -0.50863889866430234 0.11709000671001535 
-0.51116505817079061 0.33944002185722449 -0.39655823723353228 0.12032034461433995 
1.3818828560072354 -1.2402074236578398 -0.19911153446474369 -0.72301683715894571 
-0.47735569316583004 0.3710253815225999 -0.17553406343487943 -0.26517248683078709 
0.051873847365749834 0.0058080963135455858 0.03918716201861637 0.81304897173729918 
-0.20576613267433128 -0.55788582580624846 -0.15722534279088751 1.0914875090190026 
-0.084302926275293469 0.11514960979373523 -0.44072605714572238 -0.49014562831118141 
-0.29797422223145742 -0.05659007609083086 0.24450378382634363 -0.10115996215265338 
0.013232143374001522 0.045632348886449833 -0.0086601644615498935 -0.012291607991909679 
-1.0873864015202155 -0.33267248668155425 2.0275966772328631 -0.77913204235784705 
0.26381418159521453 -0.14717516142642803 -0.29194514728255289 0.030395985381546191 
0.11270226848352038 -0.12362642738043145 0.058725065503600904 -0.15179740966816538 
-1.1996745740095407 1.2083136392429781 0.078665163164605451 -0.033500095438877719 
-1.1253677330973515 -1.7289902233891841 2.2380732788823967 -2.1879651382984617 
0.8824734729397109 -1.1392292620744722 -0.37541244992880446 -0.28422297305574284 
1.3747314793382792 -2.6477890229654419 -0.3230049565967768 0.0017396157509061427 
-0.29879185591605195 0.23795814923179642 -0.1462862086545664 -0.16658205396844361 
1.2291202539516655 -1.1837391223346549 -0.31591846038434868 -0.27347898689801642 
-0.066794952328085397 0.13770935555964373 -0.10661944356351452 -0.17547762190050362 
-0.016657402150488464 -0.048645728487695702 -0.4647454025544957 0.040074262112308801 
0.27065142921331897 -0.22765038307813132 -0.35123778296735869 -0.43045739097060648 
-0.22502286557229209 0.22426883775864542 -0.26607362541654889 -0.38452394885635482 
0.44208537012254923 -0.39159949003013678 0.064349031434996345 -0.0042594170294804889 
0.05922061506714342 -0.075814821873263605 -0.24113224925776991 0.04349424920458593 
0.093674049639820872 0.050440978758643118 -0.024810956272561448 0.11367809039995042 
-0.74448368449004931 -0.91136723919095552 1.4568433693523772 -0.79563441572102056 
-0.12306767424857254 -0.012418408352566045 0.46234435377243144 -0.015226320191157133 
-0.27109670908662803 0.21509429174603675 -0.20590820850216809 -0.45257705108392809 
1.4472156945308248 -1.5052744364762709 -0.0012294871022722823 -0.091351616974869432 
0.69695515697466837 -1.0449377033116032 -0.25996556723905051 0.11566730996725272 
-1.2084891016420864 0.72156762099986871 -0.32944443436007703 -0.18977229204305707 
0.64027345573128347 -0.53066880193995425 -0.053179826138163647 -0.035707417332329704 
0.40066964936168803 -0.45698022055894555 -0.15210343817200217 -0.17282308823485643 
0.20523279287796181 -0.33196298714595368 -0.11794722682280202 -0.3034863927872935 
-0.83155943838243784 -1.0269457781635465 1.1564058221510587 -0.0049538417733192563 
0.38192370100891004 -0.43169567465931546 -0.27504179723210997 -0.57416893141873537 
-0.83583203724934474 0.84637324233785605 -0.23505680383997057 -0.19554138653464859 
-2.0557778793362664 1.7470030906399112 -0.36076884043454116 -0.24393633718426841 
-0.13671608417994138 0.20154902249183065 -0.22091812835925195 -0.34306504923157832 
-0.17020788596463046 0.076431422195520043 -0.39180896104231655 -0.22237750584568161 
-0.22242854407289259 0.268741204716126 0.0058819634204947541 -0.01652053179556736 
-1.4686339656215497 1.3554064471718017 -0.10884046635303603 -0.27926752743429661 
0.068779901022854251 -0.072026183260710419 -0.37700020560178588 -0.44219784584524074 
0.37871992060231069 -0.47834535654057431 -0.22006626986283484 -0.23183843004730537 
0.29071846025252968 -0.32956070412802163 -0.41071006442071645 -0.28852540535400772 
0.12799992647218178 -0.10165482710695063 -0.28904781457519291 -0.23843274291977604 
0.14850607358911982 -0.111776761286182 -0.28009089852945335 -0.21319798661543954 
-0.63497106473797782 0.70384687592999418 -0.46595483156698075 -0.52275614700521578 
-0.081971786170953853 0.15177533656222159 -0.14050260088428648 -0.22470238376647506 
0.25522690362518557 -0.23691132524961481 -0.21824211989260883 -0.025519633509357646 
0.21021642324801221 0.0075361672079892871 0.055229670094286559 0.027048950655086671 
0.2538483468832371 -0.16911435446669104 -0.058348901001579814 -0.96754191302088666 
0.99658706281872134 -1.2354504086171636 -0.24842547589292022 -0.14194955472101195 
0.22451915043405324 0.25889518542807921 0.19177873038244603 0.57622873714083067 
-0.25519777208315625 0.27125229143751767 -0.65154223926594312 0.35228652861277193 
-0.7054451635553135 0.56630044450732775 -0.11217250149461466 -0.23252867570388358 
0.57066733607876352 -0.66210693092012796 -0.46154174601308473 -0.056935907126888771 
0.37899918930177245 -0.43120467202369206 -0.34309825173489578 -0.46505981229093651 
-0.46270757433379939 0.53147173034258122 -0.46503437694982175 -0.50158230368462886 
-1.0308062052799503 0.92390641309314314 -0.52988537584836093 -0.43840163756760508 
-0.48653801189401719 0.32052133951803818 -0.07661001014615812 0.1701661245193864 
0.31612311463764714 0.61778532761089489 0.35062758016576179 0.12826071560437002 
0.71497630263123602 -0.5700394493642732 -0.14026993033830842 -0.50958458640856652 
-0.14627885410245195 -0.22099654726271192 0.32949580521812794 0.65985428815027536 
-0.29312259138796759 0.32914593592203317 -0.24626564092846534 -0.38542602505137458 
0.12856746995318241 0.12924973073158941 -0.089917991509627787 -0.63406412410614355 
0.99250435387540814 -0.91070857390875337 0.21839710889903971 0.13064975179458915 
-0.17265848728137922 0.22723987009084226 -0.54943688166341076 -0.35969906265278173 
-0.25925281992335103 0.21300363178925766 -0.12758243649195239 -0.16347402623212248 
-0.34286978619134795 0.28093837303024077 -0.31959782965583083 -0.29694950143004689 
0.24986638002808581 -0.25421178084469026 -0.3723224798277579 -0.51512574690277935 
-0.35125278909208268 -0.071871392954750146 -0.10569777582120488 0.3677732903203913 
-0.43523880598517245 0.36359617224410279 -0.32713223727461938 -0.50315606088471354 
-0.79785151217733052 -0.0064584100684721424 0.22395209171969155 -0.28454384722167936 
-1.1148971476780711 0.73974679575970226 0.16911140757619608 -0.48010549456648238 
0.97230043882042305 -0.96118592514376733 -0.17938425009271544 -0.30932656531376163 
0.32774346928311104 -0.28196120450438039 -0.080655327718579584 -0.082452744629666952 
0.92779669412173726 -1.0939809257731667 -0.03169310747867736 0.17339710284219972 
-1.2958250637978577 -1.796893832864775 -0.17407841850267838 1.903317178905003 
0.047050608899682572 -0.10498952404782637 -0.28241862806585749 -0.19033938052662519 
0.42744766361327369 -0.26926326426216063 -0.06853604177430582 0.0680257151626142 
-0.23520198016623717 0.36680531937895211 -0.0988169403662401 -0.18040894463188373 
-0.12539554415591275 -0.0034493538576887001 -0.26840596185169135 0.070166719335966909 
-0.51913287452632773 0.45489607120720166 -0.21538666900166878 -0.36795541399108422 
-0.42822683305589604 0.3342524255487247 -0.35267482130653893 0.054261870011296592 
-0.93485941991751298 0.82130450051291226 -0.26880453426290374 -0.41149621285219096 
-0.33047879335683927 0.44039247891393202 -0.068429899610118486 -0.076743185442665979 
-1.3296845846836685 1.4059881293409309 0.026890496437374754 -0.12400289971052542 
-0.26146170687477988 0.31843926585276144 -0.22915241304331607 -0.27101742908408194 
0.66435595784985568 -0.73583240007491246 -0.30386315646561901 -0.21958548355226476 
-0.46797639852364953 0.46909660992791491 -0.015840457914416198 -0.19905137768265174 
0.069812883365545267 -0.033970223703710611 -0.06342962096052035 -0.25586290131487932 
0.36951938777646853 -0.47941621652353733 -0.21692981291874669 -0.2376084552918982 
0.036498707889882333 -0.26459829858182493 0.29484526291023022 0.11166414498801447 
-1.1351505737548371 0.75330167429945361 -0.49703083310030954 -0.48004035405835399 
-0.96242105992254257 -1.059449554171799 1.8163642510226627 -0.82193572437603812 
-0.79482814256933254 1.0595602699093387 -0.032634236449791451 0.012710668903336393 
-0.79611551903585365 0.80691537814874714 -0.2771898813337712 0.0063463461619765122 
-1.0065936044636687 1.3473029860491847 -0.056496914509554561 0.016552355592151138 
0.76046368114833152 -1.1205674572013278 -0.047617491771065487 -0.020338915478864239 
0.64773402821399972 -0.93371530691782878 -0.19307397730904913 -0.38877419710920419 
0.14391602589097649 -0.05778959508346565 -0.69427654661368376 -0.27337453755517338 
0.47655600628769174 -0.81142800623263056 0.13669832265479417 -0.3187886318185677 
-0.26276652737631206 0.21664470942409719 -0.25100657607467214 0.030208838145285782 
0.12723334660692909 -0.14188426210838695 -0.32540852771875239 -0.031686459592568342 
-0.50680322659292987 1.0063131386586177 -0.00044573890111443415 -0.031889969083853636 
1.205456632851555 -2.0684104840480892 -0.10375838535692648 0.082282049380032224 
0.7534409693948918 -1.2878179258135067 -0.033243908539562078 -0.18918978366957889 
-0.026547612814342997 0.033356308597346986 -0.25269614062499146 0.005848087012538708 
0.044715922068595683 0.038509965852938498 -0.20357092699078674 -0.23644257266433269 
0.61936044690459047 -0.93899359005367111 0.45622510052640747 0.44584911570405661 
-0.24462420968300333 0.13386699896863621 -0.39642448519343582 -0.49367612352340118 
0.21272460394446352 -0.18229094143798902 -0.20712002307421146 -0.2632216217641325 
0.44051079647628977 -0.36893033380469425 -0.074674552001564656 -0.26358912850214433 
0.048053358677355454 0.02789590670832328 0.63267618114584612 -1.1607937497152836 
1.1603175317755869 -1.0786553382943753 -0.16106587956117649 -0.027558401878460426 
-0.70144271467273567 0.76052654463850111 -0.61684122281683185 -0.61557359086134955 
0.43296562043603726 -0.60346530195263781 -0.29826729964100929 0.00085810727043833523 
-0.47286914051245615 0.40109751627075979 -0.40782352330738109 0.058842461064075383 
0.15922254774019406 -0.34774618124493117 0.2698891232195052 -0.40012534366991465 
0.33612028251274995 -0.27754272208398889 -0.58700043940445612 0.097957802636545993 
0.038047282116459268 0.24022902850038838 0.0074144541661552016 -0.11971270680606153 
-0.61699929162967748 0.54919129476812034 -0.39668947824095152 -0.39687847146988708 
-0.9275572199887302 0.36096649663104563 0.13817732005208982 0.20755567964027299 
0.86769701774801344 -0.82370164590710615 -0.0098822006985690887 0.026688403935768195 
-0.17894742248410622 0.16375269299266987 -0.19463040104481233 -0.25263482962223172 
0.53826341217720119 -0.57550753334221272 -0.31137475591266911 -0.24699018219375329 
0.78252230831349334 -1.1307097203291472 0.0018250824645939096 -0.0012910597601075236 
-0.25399438500223065 0.34459873059009821 -0.17222985722103337 -0.4360715236095194 
-0.0091214924670800362 0.060265967020074696 -0.2372295386382314 -0.68557739184794309 
-0.42030191695205632 0.48996553893028721 -0.16075584925357228 -0.36585597293496497 
0.90419682607541996 -0.62419974662308841 -0.098301813036257485 -0.27070816457231051 
0.040834547185987669 0.026297893202901435 -0.19492091622460622 0.33013351945691771 
-1.4366804210432451 -1.7154203244684392 2.5033920661944338 -0.30680992823918624 
-0.75924414196305268 0.77116104425410659 -0.27570867278876293 -0.57141889246466582 
0.74346205083209893 -0.86616288626451776 -0.1941851711088895 -0.31157756429886418 
0.1853152284318372 -0.048641518351251481 -0.019535293613780189 -0.016989071003369948 
0.49587764103042337 -0.72169045524047615 -0.27159979988613187 -0.46196017734763767 
-1.3372936688821668 1.3193759067492814 0.044634481904748446 -0.36476762986434658 
0.61667400880112788 -0.8367365804927076 0.71992572745278449 0.17180450535439698 
-1.6005921555928113 1.5469246082534054 -0.22043825594281899 0.22375872160180357 
0.5295420484940343 -0.38814802257706349 -0.11034836327540992 -0.563347756891871 
-0.78092152260464009 0.6766003308848616 -0.32955905657509454 -0.20187893545633234 
-0.071504428790066507 0.084642161917059353 -0.22013538185034176 -0.1730658666563844 
-1.3014632844725287 1.269472411793825 -0.040365859478836766 -0.072767182090699503 
-1.4303162603442299 0.65687240343773501 0.22353365922468493 -0.40140839406189699 
-0.031781318306110154 -0.026234587787169007 0.12266902579439282 0.26836607993353978 
-0.72772639416212015 -0.56595178256087741 -0.4243818662506661 1.1275364820301106 
-0.031781318306110154 -0.026234587787169007 0.12266902579439282 0.26836607993353978 
0.4577501540432341 -0.34627009244797607 -0.15689018760412282 -0.2261394366279236 
-0.0011709320794781528 -0.20990314063421728 0.069377272420618571 -0.13605212470172467 
-0.031781318306110154 -0.026234587787169007 0.12266902579439282 0.26836607993353978 
-0.65118916567157781 -0.014743234159166424 -0.054898962501053611 -0.0021219663598699146 
-0.038187234777714775 0.17890092554259776 -0.18222761866739287 0.27243645473629852 
0.14072640473583989 -0.35506849275553565 -0.22204735090300878 -0.0052523209904557222 
-0.018768622568620767 -0.024751083186087229 0.55022798121330985 -0.58399338543390944 
0.18795636629503493 -0.12162245917840731 -0.30171432587993496 -0.016622603963511916 
-0.57017598890922117 0.28397977422162646 -0.33699618443324403 0.47002528047043163 
0.42077323221116442 -0.44434477915702242 -0.24839814561313686 -0.30836988250135172 
-1.7816590072161946 -0.36299917221626987 1.4318011216447852 0.084391207713793367 
-0.22454114807063086 0.18759903199001232 -0.35580061981736111 -0.13812834835497839 
-0.97770306796014206 0.89720219330042994 -0.20104804145005314 -0.4771762274027006 
