solver_type L2R_L2LOSS_SVC
nr_class 4
label 0 3 2 1
nr_feature 34913
bias -1
w
0.16840019225320685 0.015976295128875113 -0.67283836323739465 -0.061333071895361982 
1.6947598251803022 -0.66664904076642262 -0.8921942915532749 -0.32752799708205876 
-1.021245757757884 0.66239310468593826 0.15723929777408288 -0.026317179578389041 
0.7797598523441378 0.12772707399551456 -1.1442695755193035 -0.17442737818709217 
0.069586783801100865 0.025269310624155435 -0.08173241353263426 -0.0039071812771785328 
-0.9980894014666345 -0.51024597357773183 1.4347138737821745 -0.53088987385391484 
-0.0082840071742125848 -0.34343991713272243 0.18245391169669545 0.26676660320592516 
0.21781725313500305 0.98935569945535939 -0.54328687780434948 -0.35650840448833865 
-0.02270159154917066 0.061855926174812587 -0.014288238436656919 -0.0494271170727043 
0.049283341399788898 -0.81664247772079868 0.45523784457944799 0.011406616509584133 
-0.00064061978989120999 0.0525486658069549 -0.037460826619684195 -0.12244515030905155 
0.060518592182567291 -0.040657319182567861 -0.0579797118654077 -0.048271803412685922 
0.027378049455360862 -0.26777415177174335 0.1031974852198628 0.0064272242380242345 
0.027378049455360862 -0.26777415177174335 0.1031974852198628 0.0064272242380242345 
-1.312771433877679 0.04611692310988956 0.2949497154742966 0.64399463926719513 
0.30133510427575588 -0.098022257511436076 -0.39210907591248689 -0.022899463299695139 
-0.001895742257570793 -0.014824372031442934 0.04544136378007263 0.012203239140314981 
0.045546054797947044 -0.0039477465399741368 -0.021419277268397388 -0.0080674175806605321 
-0.3144450178628509 0.82093744645219902 -0.4117361946372437 0.13713723787353824 
0.14112513706762064 -0.088058455656707918 -0.19793753621717886 -0.21333250706846468 
0.050115728479339948 -0.024409055852664265 -0.012690177078853228 -0.11945845238464224 
0.015425494833381289 -0.046151886890272095 -0.05795913101523166 -0.088449665376948178 
0.19797783224592391 -0.82843830509383343 -0.03932448133944768 -0.10634784561127336 
0.026121479372503212 -0.97000604578196037 -0.44144370103849195 0.2186770066442261 
0.045546054797947044 -0.0039477465399741368 -0.021419277268397388 -0.0080674175806605321 
0.024445745357809311 -0.093383613577300878 -0.049188543276937821 -0.097680349867515504 
-1.6118046125470817 -0.06919082978180402 1.5656500149947687 -0.13779047228826866 
-0.028535958613297222 0.016923537159047347 0.011289556639325925 -0.0028427278459467764 
-0.071760182159253116 0.1131673860585406 -0.14122034956081703 -0.0065211296914965706 
1.3121693903221765 -0.35738705981410535 -1.004565536916828 -0.03817197649179721 
-0.068468316243273319 0.16632976312641778 0.040226800671962951 -0.070692978080414304 
0.47299731043231674 -0.26053132457054845 -0.14955380264066309 -0.082061950367690484 
0.037137271396219945 -0.37902614453415401 0.33078697667390133 0.0010075870694097877 
0.30984559872082201 1.1192212736201064 -0.3522211409499208 -0.46556158431389616 
0.065219494054242239 -1.4758119569805588 0.016644361874270042 0.24678539223925899 
-0.026359272083146451 0.011908140276988487 0.035542165530505286 -0.0649388191527632 
-0.28992483052193568 -1.3375538936655373 0.10949345074742609 0.2633117578357943 
0.30407063701724985 -0.41476024773162429 -0.15267279979865628 -0.25349785534003993 
0.10872561523813204 -0.0087861573879916 -0.51654005298463657 0.037735181975590337 
0.16708037637148684 -0.29188315329939168 -0.19937120351479756 -0.31992560650231727 
-0.047866568591402911 -0.11187285065654166 0.018406944321776871 -0.023765345749386126 
-0.13813250962396234 0.12809599384537149 0.032378106067630988 -0.012580023013360024 
0.30168126099318637 -0.027106255296868172 -0.031249135879191134 -0.058946918965680724 
0.25970793992750235 -0.11922887178763586 -0.093114514876575044 -0.26612066238368393 
-0.0098010538930533193 0.0201021256497045 -0.00019486893569928645 -0.011069227613695066 
0.011302868856748909 0.11094166812755508 -0.081519876328270485 -0.065724349852971362 
0.50075275184964019 -0.19394118993571147 -0.3331298105726101 -0.0092191549017662591 
-0.14251114595332021 -0.53097662223358888 0.21088454578978894 0.37922062852345695 
-0.26774989847584935 0.24473012882964956 -0.0085430525604995658 -0.7244015823785368 
0.50075275184964019 -0.19394118993571147 -0.3331298105726101 -0.0092191549017662591 
0.27322949336356767 0.17692309881373341 -0.40941933028347038 -0.4888444839735217 
-0.1165011891435746 0.52814767741285973 0.10382779328085953 -0.3362292000624183 
-0.036302686727591585 -0.17138727817992416 -0.029098543974919913 -0.19570020862624515 
-0.14947346927160648 -0.73591865010512558 -0.23699316388373204 -0.13831585747860828 
1.2206492334658077 -0.60359878949532708 -0.42359922717668419 0.049664580181464024 
-0.29861593643859519 0.52460458059286597 -0.015849699312958515 -0.38300665660806377 
0.11771287972249991 -0.64268802771513012 -0.036034101865813496 0.2834469548756553 
0.49382465897542904 -0.12983745784038697 -0.21102382530030753 -0.65337096953658969 
-0.5402083114972307 -0.88094195399474196 0.079394229467308175 0.46964942725369985 
-0.79008763695148376 0.23298115036288974 0.013783760254925226 -0.26848231962876967 
0.1409492937776966 -0.067758288172011669 -0.19139220191896184 -0.12599810668467792 
-0.00083196217979860168 0.054588779366001428 -0.014825075645042388 -0.092780750937320466 
0.74158905372228623 -0.002025212013905881 -0.33915346138558677 -0.0041718263879789875 
0.47299107925638223 -0.1062907025018013 -0.11549191429833255 0.071485470640743856 
0.09221396140480663 -0.27129625289312387 -0.10343171426416078 -0.11392372598510758 
-0.16054057457429244 0.014067189454796673 -0.035584403785567612 0.14768430123566192 
0.57232476216307637 -0.0030246264541645453 -0.31752593440609816 0.00050729159164788302 
0.035488778712450236 -0.083550786905206398 -0.013914851429746349 -0.041376429533727305 
0.24214970120600476 -0.63596373299048581 -0.16787538945560612 -0.34116357211146986 
0.13903392987429822 -0.63012462834287697 0.022816253839284331 0.31344080967147558 
-0.50921927045727355 1.1218164258271048 -1.5233653615290224 0.44577313055773515 
-0.13668742394204425 -0.16449346798848152 0.037802188474632931 0.036255895494700971 
-8.1070617870410144e-05 0.40769749651935894 -0.17335857697343507 -0.27115352695352135 
0.043439957280827141 -0.25702818361167673 0.0026273906705454389 -0.21518250148478257 
0.63288491625221543 -0.0647017435120356 0.47871224115550731 0.24884837354918282 
-0.15841970081038809 1.0613277947067514 -1.1162170684392994 0.4896552357508176 
1.1249759209512129 -0.61992537978010553 -0.37440033884902568 -0.32840939280366815 
0.33674985344872765 -0.22911103302046987 -0.32143126939782485 -0.58737534968556493 
0.13785447263084163 -0.50370717967882972 -0.4666063264765774 -0.036695538749464636 
0.10825257292930213 -0.88676942933621739 0.067461783532705794 -0.063065412070580376 
0.09682851837508713 -0.16030086430936566 -0.095664020954972173 -0.079334906104120154 
0.078526222382200708 0.045685201672522859 -0.06517212630473182 0.25170806563505244 
-0.015295076648652851 -0.13668749806367914 -0.13012986226493567 0.35000776121153732 
-0.039842321300647333 0.9095525148189918 -1.3183140817568901 0.37233977316534472 
0.38495445942562401 -0.46182247445633545 0.047495441569879809 -0.056830477712283001 
0.91827122820077922 0.74745674928510064 -0.48697748835344401 -0.32612456099622561 
-0.15352174478038136 -0.49879136335865293 0.58722303210564952 0.30574990431269977 
-0.62964477088847015 1.3757226574295169 -0.84962094588599368 -0.11482056888691061 
-0.21360982016844376 0.14900684819218943 -0.14616880760067014 0.4788346512974655 
0.38495445942562401 -0.46182247445633545 0.047495441569879809 -0.056830477712283001 
0.40378658943350576 -1.6117593219376134 -0.78894650419945711 0.43644960697605684 
-0.51575141016802184 0.10087035801797922 0.46104278971116397 -0.049391020921903062 
0.1158156061235108 -1.7150018998725725 -0.23891349063369161 0.024695629885527731 
-0.14425090191877132 0.40754961823714986 0.22013218488682013 -0.096237651861978218 
0.34294434242773492 -0.38842861019237407 0.14304823848480364 -0.10968143012676801 
0.061739888081040278 -0.87100064686621637 0.14833783926525229 -0.038588000097843439 
0.25146898737471807 -0.087360956603225931 -0.27577480047997316 -0.032009670700018894 
0.28547279715868823 -0.090410749526817491 -0.32130527973236078 -0.032796456810936653 
0.031565605349737437 -0.04441585032148361 -0.026094707024506347 0.11208728963210982 
0.15932282033927939 -0.0026806876140251113 -0.31358478104655246 -0.03499299374149524 
0.14025394144245124 0.13688970356977395 -0.077344684193731209 -0.061957602871319954 
0.061027892487170006 0.09437914920131707 -0.12759122838236367 0.0053190558036921055 
-0.12538740111054225 0.30737996465156847 -0.17311324427289154 0.021845762475919607 
-0.12538740111054225 0.30737996465156847 -0.17311324427289154 0.021845762475919607 
0.13492788033208153 -0.36089328330310977 0.18979451521461327 0.015853554083407467 
0.020722601830697188 0.00065728487849963085 -0.071728105952191951 -0.03732421173134251 
-0.12538740111054225 0.30737996465156847 -0.17311324427289154 0.021845762475919607 
-0.12538740111054225 0.30737996465156847 -0.17311324427289154 0.021845762475919607 
-0.12538740111054225 0.30737996465156847 -0.17311324427289154 0.021845762475919607 
-0.12538740111054225 0.30737996465156847 -0.17311324427289154 0.021845762475919607 
-0.27729056318758255 -0.19306661649961449 -0.11831153460731961 0.047375961402517118 
-0.16101441635962976 0.055810519529862559 0.088603870264483423 -0.023911816673738796 
-0.59812650399540568 -0.46109767705472132 0.93933789392314604 -0.53062831338603311 
-0.094678170681833651 0.16438497064058977 -0.035424318013910175 -0.029604485644630796 
0.26442409307962816 0.080777758340815728 -0.15951018293668087 -0.44268341083540363 
-0.23206768860345706 -0.12549865966062485 0.30320607384155635 -0.0030004080521576042 
-0.23206768860345706 -0.12549865966062485 0.30320607384155635 -0.0030004080521576042 
0.032846938560278739 0.25698238937519563 -0.15891461059291986 -0.045487146551503418 
-0.024717185190874465 -0.0016275578709647447 0.072640330413152321 -0.2418016432271155 
-0.23206768860345706 -0.12549865966062485 0.30320607384155635 -0.0030004080521576042 
-1.8639500882736202 -1.2328903403063423 1.361655655095142 0.25903459250583794 
-0.21015614633781105 -0.28769291039866218 0.23105461378542158 -0.61472833458564458 
0.35959462720854057 -1.3521517783658472 0.034164688465717213 0.32529798322833281 
0.01703727418709336 -0.43881506142184473 0.28461955491726876 -0.44660652254101013 
0.13056811423897713 -0.13118609911838586 -0.080777999750154927 0.049159193095334841 
0.29783733223088027 0.089532687449525195 0.036729044302084582 -0.032334091479042676 
-0.046508212111580238 0.045977312890132162 0.034378329709501762 -0.014973841400429157 
-0.0041843512435462814 -0.14117031909072272 -0.046537446662356305 0.12056071633246129 
-0.13345514795101096 -0.28758490404665971 0.22647022039969511 -0.0006307023427242972 
-0.4243534272199132 -0.0024181039121516047 0.54150133068358752 -0.0038182311990274239 
0.098734166963830514 -0.1776975327931665 0.018027688569744443 -0.03459379443014788 
0.075710470289994503 -0.32645063498864846 -0.021046693445027187 -0.085072910460545229 
-0.98149515120810782 0.00040699457375340605 0.52909027892958083 0.008755751616074935 
0.044226280061552159 -0.28202104606833683 0.27784024919940231 -0.37251331157130274 
-0.37057347540619334 -0.18466981693117102 -0.011868940214846246 0.42684883526794698 
0.054716947628290158 1.1018686596594176 -0.88298225405921205 0.18290487908041908 
-0.3267180463296333 -0.20461847517641255 -0.10565861987710368 0.00078134860932875527 
0.8330299274869718 -0.33925470596362811 -1.3235446061695679 0.29586063693136327 
-0.24810614293089675 0.0030523361593171802 0.29167892399565298 -0.13102961596143656 
0.32980834098878509 -0.031697578538650642 0.005867986990603008 -0.49781211614079701 
1.1783566923463833 0.19323153569070867 -0.55438975935606538 -0.079491907451929217 
-0.30630074955155684 -0.57687250451922045 0.086446402859201993 -0.084250244756920278 
-0.83049565394593039 -0.00051172814683076058 0.47884744114084843 0.067203352643379233 
-0.17172287125328536 -0.1306791198348681 0.18042049271041946 0.20126950644521921 
-0.15480914398149193 0.010281058932206183 -0.053033198737459944 -0.34914366307332678 
0.2118937942950978 -0.12393022568289846 -0.082479980953329285 0.078548922340810623 
-0.14365223171498964 -0.422890478337618 0.30643587685183704 -0.0659746211252005 
-0.048302079025143406 -0.1532184980319217 0.083151881238009956 0.0095253459056796885 
0.20860088395514809 -0.5947625283140372 -0.092274662515979419 0.19360537760575242 
-1.2618115249374151 0.46319140367895839 0.46345089156044711 0.059060898032124373 
0.025496996696221831 -0.068934154372503664 0.0041134211226096107 0.036340741194153689 
0.16302388948099444 0.075175183117576552 -0.17103400178215847 -0.064419188435156455 
0.37156120453177532 -0.090635354303905624 -0.33482550019758306 0.31138589851666232 
0.09271612684553554 0.16978342647848516 -0.24660974392560306 -0.18590133567662087 
0.21285893071528339 -0.44426920857546859 0.013272217496726774 0.26619755972935444 
-0.58297121067458268 -0.32206164265206644 0.1136807744766089 0.14007448006131989 
-0.031886676937078612 -0.023804724298674636 0.040793490366637625 -0.21144226102716715 
-0.030103529373659135 0.33214514074998047 -0.015797333666725144 -0.2474817165590712 
-0.11350966589915985 -0.11771229620242669 0.21545902253104723 -0.2443876390510569 
0.25699881988886741 0.40990399961875312 -0.47894081495972551 0.18765650269048545 
-0.97629992718593472 0.5921216578912627 -0.20219795666696574 0.512839129211071 
-0.5488776389042993 -0.17481405544956788 0.01176493523126329 0.43224652919788831 
-0.62712039900069372 -0.83043927046426236 -0.023228360807356824 0.84391415870501973 
0.0495663404303089 -0.12406873007283796 0.27163204139186614 -1.377139723957131 
-2.0621310709025948 -0.0070196514485027194 0.78165020327529833 0.11599233883823989 
-0.89104929719564785 -0.64725276255728925 0.33570509567860241 0.60752935602365588 
0.73199440412396655 -0.35514938248579114 -0.060444354827280791 -0.46565463298262566 
0.025784531043833145 -0.081781643416469776 -0.010302907021566369 -0.060556468619666008 
0.56602768208660614 -0.27331332408855263 0.050221750662738138 -0.49543683888581458 
2.3341296768796993 -1.0526566056862796 -0.80309269580530296 0.12726264772699947 
0.072092777132875513 -0.53091981810260447 -0.1869819040554267 -0.065875437393652342 
-1.3760525416105458 -0.8181618982523744 0.57699142520750013 0.67161247998574303 
0.0046021411659134207 -0.036637306165371468 0.001507904357310498 -0.049501713869388106 
0.039907100777832036 -0.08056971988507633 -0.017715515761668344 -0.038533309982697092 
-0.088053471114951043 0.24686066392064593 0.0043698312723788255 -0.26456900431011943 
-0.73305609354487888 -0.50590240049028967 -0.14111106173036436 1.1369385025881265 
0.14240687531289264 0.23704599555414152 0.010478744082551894 -0.44111884508731725 
-0.42684408390546252 0.94122865830259639 -0.27838193772761965 -0.17837314920551156 
-0.37365898772156209 1.4358496812773427 -0.40489611503591449 -0.32703077214904375 
0.1225585601775101 -0.12117939614217899 -0.064796456652842269 -0.012738118190968081 
0.013358291862261906 -0.03883033614547441 0.05904572813209976 0.03191435062392587 
0.39396599107225372 -0.2551465178971164 -0.1759798859935546 0.080497432032890892 
0.14346179498916573 -0.27102240727075533 -0.11161002418695551 -0.089572590176802316 
-0.47525558269135904 -0.016949284521154177 0.32494990268817986 -0.057252752027211029 
0.24426878148082282 -0.031002854083822619 0.56643163571848332 -0.13577175148373222 
0.24426878148082282 -0.031002854083822619 0.56643163571848332 -0.13577175148373222 
0.19799646112017075 -0.23739078895148455 -0.22400056264561002 -0.26226435025105205 
0.36111449457506495 -0.066555972324690141 0.50478277348190315 -0.082288231569169201 
-0.28658881483960325 0.9213869015460936 -1.0622009530722931 0.59682497696820513 
-0.21900626400480419 -0.18836812784111895 -1.0319784256171824 0.3924691711489573 
-0.34502986104549627 0.63198716475309769 -0.20299320830353657 0.002190322889266981 
0.17468231710183132 -0.13543915737780307 -0.088643785088901791 -0.18719989379583055 
0.18809143514329471 -0.10664733723110843 -0.029924958637529669 -0.016395842071137604 
0.066750932908085162 -0.011078132424380759 -0.090213678562886923 -0.13513506757074262 
0.16314234056367294 -0.25710495285692836 0.0096665704156913036 -0.15094922690049695 
-0.20698751531067061 0.45982692503826822 0.11375950941051001 -0.57223588552379234 
-0.40099453728145473 0.63934123606306725 -0.039658178475241987 -0.056881735163137034 
0.15411184408497802 -0.56699941099798146 -0.19622101203942699 0.077451116950577381 
-0.36537504210827954 0.82608125950419242 -0.94546986300329205 0.63111608223402427 
0.032942743401578323 -0.25413522841525626 0.012598234383362963 -0.12856310933536053 
-0.40099453728145473 0.63934123606306725 -0.039658178475241987 -0.056881735163137034 
0.1213826094388831 -0.072861021292304443 -0.096651344579041787 -0.039972204870167824 
-0.22934433028260082 -0.013811699852776131 0.57916608838124728 -0.089954883874037661 
-1.1689398997489848 1.3320909439562316 -0.17743965403631146 -0.26770129499787565 
0.095142843212298489 -0.1104159244762157 -0.02633203371390086 0.10296844874068695 
-0.040330361726063441 -0.00070515735711581639 -0.21012406879844403 0.059109835016730922 
0.1068216774251384 -0.19608863744186159 -0.19758570233699346 -0.14459028857342701 
0.12459274560131239 -1.2185276760254748 -0.040488239874251292 -0.29004857253970517 
0.21750771543560143 -0.28522764773450571 -0.16764911548607958 0.17952393891938162 
0.15846451431659117 -0.75026299096945992 -0.23731151108808693 0.35705146234181689 
-0.068491717732313967 0.46056493179070501 -0.087037790791644434 -0.055430825848136384 
0.088659952779244433 0.0013946596051995774 0.0036627015375640254 0.1656455800536184 
0.36923507412444767 0.012188385154574433 -0.29250695460009124 -0.16945863403630898 
0.019582890380179213 -0.00086555806782356859 0.067647888808194057 0.14040290252209101 
-0.018146431531633769 -0.35083862650618414 0.14459609865641967 -0.13316435349157241 
0.062073390924288874 0.12203878456319067 0.23169110700227724 0.022179878399551017 
0.019582890380179213 -0.00086555806782356859 0.067647888808194057 0.14040290252209101 
0.51464428622681624 -0.0081057445845242049 -0.098968519204796379 -0.14784206434259453 
0.51464428622681624 -0.0081057445845242049 -0.098968519204796379 -0.14784206434259453 
0.09873006770871158 -0.44698983034721307 0.097877507605854772 0.029328637543376543 
-0.00015084302147832726 0.0038232695747361899 0.053697200793392373 -0.089515144613077802 
-0.21547479493689881 -1.3038163075363878 0.20213741506984736 1.5295226000682587 
-0.092437628360004714 0.10092895376247189 0.1502233717868966 -0.20344509472441891 
0.51464428622681624 -0.0081057445845242049 -0.098968519204796379 -0.14784206434259453 
-0.14586963811172993 0.044864591694260075 0.082050863697789758 -0.3628126176260249 
-0.01533257642849287 -0.014639175989309239 -0.087784325474083338 -0.0084854646193139645 
-0.029820490750160446 -0.013677504630173948 -0.24708682243742794 -0.2350289358863287 
0.10018755884675098 0.95974516756810579 -0.49259999995786041 -0.84106093956213601 
-0.49869277238570175 -0.046058488281517249 0.43096225688741963 0.62842961590904434 
-0.78975792028205871 -0.60770063105457006 1.3471723025949465 -0.55333623331749016 
0.69238665451156822 -0.0013018935913095423 -0.65492926520303629 0.0014787917360335658 
0.58434504790173791 -0.9922662574822354 -0.38421242998696709 -0.26611633975077276 
-0.040111273021724861 -0.17471711060480383 0.30826808441177411 0.0039543404356686494 
0.69238665451156822 -0.0013018935913095423 -0.65492926520303629 0.0014787917360335658 
0.039822742807841829 0.16873202888282424 0.048800640067278689 -0.28582954941007355 
-0.17365433881781669 -0.0069280610833354871 0.75611222661649014 0.00019638120266206321 
0.0030070561180139954 -0.46335890515460332 0.061809878726772696 0.064311396606037241 
0.27788554234203056 0.78036205503603862 -0.36989715844975329 -0.24721027955577607 
0.1191431688103315 -0.024811341144812472 -0.12364985569240777 -0.14166063399482975 
-0.70660516646471438 -0.21907025540188135 -0.11891666665242916 0.87889650464397218 
-0.0090884715244624829 -0.063958723173513282 -0.024545387492896448 -0.076297972630705146 
-0.20203129545052101 -0.28045645402320513 0.046316505521249079 -0.49979812607369722 
0.068359863552049288 -0.57745905940949427 -0.056909562529575186 -0.069315098318291565 
0.05568395252901584 0.67551206812084108 -1.5146594823286714 -0.0028970656912772966 
-0.67851401861699423 -1.2691994702489029 1.0689680535225277 -0.44721889284551231 
-0.21662764411098553 0.71552163412578906 -0.88995979232913702 0.11825311071062627 
-0.35721279045455623 0.15049989791067067 0.22547152462072062 -0.1654483670765175 
-0.30855960450897496 -0.061710656833984696 0.0012715220463303811 -0.0070207215653925181 
-0.95732148906338033 -1.0347892275054726 1.6482580111152159 -0.42344974727699114 
-0.47538350426264847 1.9585491020683552 -1.3656948076248794 -0.2339061957700686 
0.49645973997656045 0.69516277929184778 -1.5526941931337752 -0.030810317720901932 
-0.57077853950554491 -0.0064289154693972922 0.68003481356968853 0.024904511587212366 
0.21063476042300233 0.1285071216364746 -0.22514844768003189 -0.52349598188979196 
-0.48512568454459526 -1.3035800521297429 0.30568869302629975 0.49463175333041531 
0.093483568664066791 -0.031596898398795065 -0.094990406112594294 -0.078556736769796229 
0.16017610922541015 0.84167197144829986 0.079933971625751887 -0.324666359337209 
0.17132417505806935 -0.37069961528886497 -0.042179974888065644 0.03014776261333757 
-0.57077853950554491 -0.0064289154693972922 0.68003481356968853 0.024904511587212366 
-0.052563623408297913 -0.26241107563650412 0.12419366137353477 -0.0012188182371497438 
0.023515133420925732 -0.16359493275738243 -0.039670278922168088 -0.007918940719221737 
0.18178486408811023 -0.10872730001307207 -0.17614972010388724 -0.12347681556401539 
-0.052563623408297913 -0.26241107563650412 0.12419366137353477 -0.0012188182371497438 
-0.34779504158599062 0.17699201851469801 -0.088687244890962358 0.013749581303355265 
-0.81306706269546014 0.83423241486695188 -0.19226113562000985 -0.45867431424861799 
-0.061669835628114525 -0.095001759490512039 -0.017159033839646794 0.094210549688428569 
0.027748941919208923 -0.11384556115628329 -0.15188292746798843 -0.22095339112823639 
-0.052563623408297913 -0.26241107563650412 0.12419366137353477 -0.0012188182371497438 
0.13598542674599118 0.24837834048202551 -0.47258881999656449 0.071939610681313076 
0.64485628495972702 -0.61028166970046738 -0.49353776268203708 -0.24897102772916496 
-0.41444986862147981 -0.0011705012483347885 -0.72657487893186445 1.0330023789408602 
-0.097666511358876607 -0.35057448715821971 0.25967068387999109 -0.012193297522831104 
-0.062508360808717717 -0.15484318951930062 0.057474087094655776 -0.2964424987534775 
-1.0516638874882369 -0.51863803294677735 1.4913778042982644 -0.51176401255576753 
-0.0077035072312733599 -0.24952561013578825 0.05676573553670558 0.028764743973932781 
-0.45427001710228648 -0.0039595815411074143 -0.57796609932189358 1.0554551262194998 
-0.41444986862147981 -0.0011705012483347885 -0.72657487893186445 1.0330023789408602 
-0.0016369286924381686 -0.6675410139045338 -0.14793127444788856 -0.028136842854255245 
0.95074473000453164 -0.91263662355705533 -0.056853488735577912 0.088011839111652182 
0.43416326670914379 -1.2076094513355351 1.2630394932945255 -0.079999435916886671 
-0.36161840017528191 0.39897003057602171 0.97659124632325556 -0.10542972187474145 
-0.12762549923415875 -0.25482318222170974 -0.024251960622414595 -0.037849851868508255 
-0.024900872691921601 0.24370982080767287 0.054497383360748823 -0.13381951538132347 
0.16034644900231002 -0.33295877796192125 -0.18047809669227621 -0.28775789329222695 
0.11746795569585429 -0.17132757286403813 -0.14231144120551284 -0.18386251753933769 
-0.39874908987404178 1.159606444158551 0.1402079768907844 -0.79978539206632693 
0.043754423820933738 1.2376662375389724 0.080059922392836852 -0.97219104632424314 
0.074717465854886478 -0.24886829831402066 -0.19203186091861058 -0.007984872817056763 
-0.047302940001300281 1.2513362116677567 0.14023718392601608 -1.0034023971656945 
0.43105445103799067 -0.27647297688983258 -0.076343074645652903 -0.44271879786059948 
-0.047367047399852889 0.098589235088148749 -0.14995226880361043 -0.12572437619615184 
0.18893205613171585 -0.53635058284941661 -0.15429828393597075 -0.06202100046794487 
0.02375280811684248 -0.15218928651144803 -0.050817905673930477 -0.051469634611149034 
-0.044315842145264739 -0.20204496743863973 -0.023357980056563341 0.1626041024137844 
-1.381949166865819 -0.55540852085268733 -3.4929883448553243 3.6604768615945549 
-0.086394020714853206 -0.22659707809999799 0.12970869875339969 0.0014883363609033418 
0.63468276380525879 -0.56067943384375207 -0.44438356931943984 -0.0026325421158582274 
-0.086394020714853206 -0.22659707809999799 0.12970869875339969 0.0014883363609033418 
-0.099364603436848026 0.092825960303912436 0.01443904698949652 -0.01486254378499386 
-1.2200883260830979 0.30976709016620851 -1.2245184508136968 1.6543947804161838 
-0.35154861028100709 0.11998171141547212 -0.4389856867696269 0.21893454907934573 
-0.086394020714853206 -0.22659707809999799 0.12970869875339969 0.0014883363609033418 
-0.35018117045408848 0.20059108094195027 -0.1700797364014463 -0.092618987544204251 
0.042640834878927107 -0.055775641178664168 -0.060976581794552578 -0.026744876667497183 
0.14982792769247164 -0.23765903852568912 0.062175346924537703 0.3037755446758495 
0.5322627102058034 -0.51824306361459549 -0.33221595160789774 -0.31009443328912156 
0.088839729471350659 0.079074166338508889 0.060190842010723083 -0.25826302863078404 
-0.33421645380149495 0.82201469316078946 -0.49129436798138915 -0.42716087742144521 
-0.31121793492198863 0.93450586133217983 -0.15021319936303787 -0.30098436027041708 
-0.53828625187753865 1.0459773787624882 -0.09997277757928813 0.0016429288473916535 
-0.19696445026149856 -0.049830125059838401 0.15812093862696369 -0.040061376465310133 
-0.24584311537795051 -0.24630844665202986 0.19844597879770873 -0.2842631772294919 
-0.30856513531777502 -0.0032417884923563334 0.47378866011093523 0.1138874088017908 
-0.30856513531777502 -0.0032417884923563334 0.47378866011093523 0.1138874088017908 
-0.30856513531777502 -0.0032417884923563334 0.47378866011093523 0.1138874088017908 
0.22753748920646649 -0.55826867643386902 -0.60441805962764206 0.35450999827890539 
-0.30856513531777502 -0.0032417884923563334 0.47378866011093523 0.1138874088017908 
0.29336984701486002 0.0045490041103970471 -0.28434283813047856 -0.15489353941723988 
-0.30856513531777502 -0.0032417884923563334 0.47378866011093523 0.1138874088017908 
0.087346983309119802 0.86121298362606147 -1.2616441012999071 0.51255814303605196 
-0.42084606004225816 -0.38569757493502138 0.40603735893871995 -0.047384943252332473 
0.83126293393454886 0.049328544407293472 -0.59069161529856995 0.083004513222025636 
0.24991851241173219 0.048496071218255582 -0.035236195781069499 0.015816463135840515 
0.75934387100034773 -0.16721654234987135 -0.42284622197029093 -0.18099096521294541 
-0.31864904015632284 0.45711422139036512 0.051430473001611687 -0.47149809898845585 
0.17239954422422032 -0.99096518288191404 -0.16619111637962286 0.081843293094972625 
0.073820156823433708 0.048969832016610031 -0.031679398886157409 0.017064720688844716 
0.058395422881296372 -0.36626859346667878 -0.035537767009898705 0.013109758659272077 
0.11984490276949256 0.061139915679176496 -0.041958548309102256 0.0091676680652278963 
-0.29491906811459684 -0.11472398347068101 0.085248392985381352 0.069049995925076157 
0.18082965274319718 -0.050923315359624091 -0.13554583256276326 -0.27284808802967958 
0.033231350161617171 -0.097830830350953552 -0.040609359020608506 -0.088459249527411396 
-1.4783820712873812 -0.476473652224496 1.0412337207789619 0.96450522062557575 
0.28261930743501473 0.089210164853204654 -0.47760000153744686 -0.1512891106324426 
1.3827017819120559 -0.51977050904843214 -0.40029802511761187 0.088354071409708787 
-0.93441736632812378 -0.18306480531084507 0.95135700149210378 0.18860533527718454 
0.0093177691983133727 0.10882835666960886 -0.060548454451444758 -0.77503696520104493 
-0.14992281995041637 0.22484207796630018 0.034319470649173234 -0.249271029991358 
-0.36335074514516352 -0.34324881841575849 0.3592352649359507 0.015754054885298158 
0.12227600281512077 -2.0493047876654273 0.30100285708014163 0.10787646010150889 
-1.0884758580415599 -0.41717872137521228 1.0183337434089812 0.086496597431429983 
0.17403671185596262 -0.67726100813366241 -0.82280003530758417 0.51303201470893744 
-0.45299844724594773 0.029204712852032882 0.95739795110284476 0.07097950051003811 
-0.057467936657442015 0.47203184141318905 -0.018540936829135757 -0.53010949938391816 
0.039521410843144616 -0.17203252292447621 -0.020573333634464844 0.089797715170468126 
0.082422006966653347 0.065626181091252928 -0.12194816823764235 -0.019000075147192791 
0.53675552684455474 0.4910646591482053 -0.34545720297951199 -0.97382875869793795 
0.15850071558546255 -0.041992620473011263 -0.043191701454951964 -0.47343288045324683 
0.035373294471527199 -0.36430756039713486 -0.14196330232326687 0.20230333428421543 
0.22422035257663159 -0.24730183242678805 -0.20239669268819913 -0.079258701256178732 
-0.090895724312031898 -0.016383631573281158 -0.11139460099478918 0.22118931469777658 
0.72472907087324145 -0.1516159374593416 -0.41478180102235102 -0.99574670573906376 
0.099448130998356241 0.72036928189053717 -1.1027836980476873 -0.029159325510648974 
1.0292228586896466 -0.17195228277100905 -1.0948530525390503 0.012329544377733152 
0.21417875456074015 -0.30501858913609814 0.3227462054226572 -0.0095336615299663266 
-1.0187161402929821 0.27834606266484674 0.95010226913323925 -0.38883980081626834 
-0.077836901838719386 0.63108010491150246 0.28213212439842644 -0.47981558093894827 
-0.59761846289408793 0.77097401509651808 0.190689763228376 -0.55240924044997008 
0.15951925143329271 0.088988354657583535 -0.1896075171736322 -0.48151396323315426 
0.57318397249799913 -1.3203440065777299 -0.079804539315256912 -0.14170821059948235 
0.10989334929525135 -0.0010940043023782817 -0.15378771373804112 -0.0050528455002537224 
0.10989334929525135 -0.0010940043023782817 -0.15378771373804112 -0.0050528455002537224 
0.85416169276037457 0.0023632578713950192 -0.41043906578357481 -0.15566651153522301 
-0.053639108351290765 -0.21921907077464289 0.096910151495657348 0.62768361545055207 
0.16455111153089599 -0.25786448885643343 -0.1003148370200274 0.11794767458562964 
0.24009481596828061 -0.027114723677288056 -0.066741011137758405 -0.01044067506498433 
0.11325785457942399 -0.38844722717931729 -0.16991034477780831 -0.23869499877348571 
0.088702288737861429 0.060382676141429149 -0.10000620152199464 -0.23888952338237737 
0.25987884441384246 -0.11815675863391625 -0.42778355481376207 -0.080493847557357376 
1.1643540217623745 -0.0050040423424853597 -1.2600174304386089 -0.031002745740457992 
-0.53316657422660152 0.47496655734491255 -0.092300034371273071 -0.4675453752234755 
0.14339000344324371 -0.22290313845698634 -0.031355140523385297 -0.071203945313291453 
-0.38156492509912487 1.2945063358346811 -0.24014090591142889 0.2195723979823741 
-0.078642586435293357 0.13079722741415853 0.098752987876728565 -0.071965046525429788 
-0.16326018299016423 -0.80221358910080187 0.22859046298703106 -0.1364301678045915 
-0.063526210613503165 -0.06680698182359332 0.058775548211074571 -0.060166092654226011 
-0.3521708490934895 0.48816616487276271 -0.11546732922229636 -0.75794177083946002 
0.97109609951031017 -0.44205201343923939 -0.60619567305846678 0.046873194296376194 
0.02296936727286698 -0.23225108629413083 -0.025737939530403507 0.0013702908484695218 
0.97109609951031017 -0.44205201343923939 -0.60619567305846678 0.046873194296376194 
-0.026149667512356155 0.063694266304784544 -0.0044661537214451376 -0.14772720980096546 
-0.015307116141301987 -0.17631946199212839 0.016267364633557227 0.070670664407052969 
-0.068879729628523331 0.74583631817055895 -1.460071989373344 -0.17560967270654534 
-0.13880899975686825 0.0058666763556593522 -0.027239521490442301 0.083330170554121036 
0.49814734443461717 -0.20332763818427163 -0.35158651727969931 0.24211811828943497 
-0.24219474493344662 -0.098551521971428246 0.48628221858500886 -0.013486567270339214 
-0.083978251339428114 -0.11997634493465414 -0.066425855590051971 0.10962288787695081 
-0.60978639905314413 0.030856033164419185 0.91284370094341638 -0.31290814515721382 
0.061656210813327159 0.28636528673209871 -0.92367022238370644 0.013237506655760168 
-0.22221455831340092 -0.2608524581204249 -0.080131703665807186 0.18773879881528235 
-0.26433971169441006 0.34887194854585329 -0.12677295738857669 0.20367594241126102 
-0.26433971169441006 0.34887194854585329 -0.12677295738857669 0.20367594241126102 
0.22456435346560905 -0.10609143234865787 -0.1492002615703571 -0.8349501422098965 
-1.8049382512684355 -0.090340388271823252 1.333296298927084 -0.32219883199701965 
-0.59161672630235129 0.40069604537742537 0.37377944784185002 -0.3614033334970318 
1.9237646103387558 0.13806268625382817 -0.62215862806874445 -1.3967286509694277 
-1.3907396430334515 -0.43116259051901384 1.4785276454372747 -0.67520280639519248 
-1.2043305096633263 -1.0758540069391067 1.9974935434473036 -0.99749451383475929 
-0.21235563581388939 -0.19439168314761698 -0.21136676032248733 0.14724270236714687 
0.058484651933110698 0.30274694196011948 -0.011287200661417918 -0.38065404566699251 
-0.0030543858706493822 0.10158742677970797 -0.07533989194944668 -0.13981788861656805 
-0.031018130727730013 0.026874798620903306 0.048425962475513111 -0.2998859949370406 
0.17189718912773361 0.033623646805171277 -0.44731417956397507 0.09688444641917221 
-0.1839078476068057 -0.018249933532715784 0.077841077412266535 -0.0022693028967634022 
-0.012117833259470589 0.16004139271251383 -0.28703156302197297 0.041229569186729202 
-0.1839078476068057 -0.018249933532715784 0.077841077412266535 -0.0022693028967634022 
-1.3640947889936881 -0.80718954467149362 1.6121085737005094 -0.4340441331724233 
-0.25757834505412774 0.27184886462841246 -0.20385096942981551 -0.54611153399923362 
-0.1839078476068057 -0.018249933532715784 0.077841077412266535 -0.0022693028967634022 
0.14403390034697652 0.1291560242600221 -0.16430616842298423 -0.37632309022534077 
0.044818307500023552 -0.22210875695397439 -0.042547638958671162 -0.12061323647334503 
0.2730240841456622 -0.21866712869100724 -0.24792643256284949 -0.033204996169656553 
0.31808153702689301 -1.3462577249078425 0.072133533963748553 0.26579884793569708 
-0.24813675544413058 0.78113459592547363 -0.034201316420859197 0.004619645503103717 
0.63315953219407828 -0.025290936309793698 -1.2016052679211009 -0.0056058441939749477 
0.081271355067881884 0.0055166171966579327 -0.059517129376349336 -0.25758548426073674 
0.76933170426784958 -1.0447257414960824 -0.15022490006467065 0.1399871806883233 
-0.11867358548665539 -0.017670004249665121 0.23749110077588753 -0.24069292986716651 
-0.065564378902324999 0.58522416701599111 -1.1193800046389919 -0.73442782296144205 
-0.12698834653186933 -0.35752889341124455 0.16702480373429462 -0.030959862880315474 
-0.66360498954032598 0.7835345094908942 0.082481457770580274 -0.32263679520630212 
-0.18969428697697721 -0.62979151185212734 0.17361226146665187 0.35509101508272956 
0.11988622186398987 -0.042369921414580673 0.024347770881013572 -0.39410989020873105 
-0.37039706702862052 -0.29594797324018907 0.63479712752188089 0.0011296916728762098 
-0.16422749869172476 -0.54680632051260281 0.0028238282708372767 0.30055637665534601 
-0.43425540076867175 0.29785812031137765 -0.060652489390411776 0.24720233721749063 
-0.14476953211877824 -0.096791062917451778 0.062727306097085905 0.15157666604022507 
-0.77942710139122684 -0.94360546845948334 1.0896596314864879 0.080595508181242004 
-0.16937193344444518 -0.012676260714785038 -0.066950559651796415 -0.11688827997981611 
0.33799878106476255 -0.23932130170776195 -0.21492459080506793 -0.26533007596745611 
-1.3328935313169794 -0.14166143552381086 1.5060041306865213 -0.89512478239041626 
-0.021456566518336818 -0.004692000437551809 0.01974320693760305 -0.059064409063700279 
-0.10461086205362277 0.58639039858037123 0.27537712039503864 -0.85767534886962404 
0.23148269044035147 0.0037800506384672375 -0.23834774014447635 0.10386409337564038 
-0.21683305828433064 0.75913114179886465 0.140373012749614 -0.13267087333606542 
-0.7515451974659908 -0.51704301036664213 1.1119387464422219 -0.34656037765067427 
0.32113588616036903 -0.33154152196418518 -0.21132980858307743 0.0070017937593059507 
-0.38180694889370687 0.065532237212985872 0.40564246576920615 0.18685992005833454 
0.15035246790631662 -1.1049346370315345 -0.076586533012383134 0.0062454485469696924 
-1.5606654968268636 -0.1005954988067658 1.4749725380998171 0.034363233265205989 
0.13416096235600011 0.22068793939139253 -0.10662753550239305 -0.46402100360275167 
0.11370620017727885 -0.0016455094970805979 -0.02693281261969753 0.024706621640585472 
0.81092421930280234 -0.0040988493813557333 -0.59279414053453561 -0.24471482461852651 
-0.014116114688848916 -0.69583410458926553 -0.45162190536194802 -0.00015833520273503265 
0.11370620017727885 -0.0016455094970805979 -0.02693281261969753 0.024706621640585472 
-0.30294669432415477 0.2154239104791392 0.11285628259828859 0.37994260422633974 
0.11370620017727885 -0.0016455094970805979 -0.02693281261969753 0.024706621640585472 
0.1018696036580259 -0.0042728392152839856 -0.47989248971921822 -0.080107807806610046 
0.59649880252902687 0.0009187037421764274 -0.57471447611117332 -0.23731191779185412 
-0.083174116546730265 -0.11918641160428492 0.067116988440612035 -0.052518196770428016 
-0.035525643603616514 -0.0050443669859341102 -0.047950112533321133 -0.030951004768753936 
-0.43940737466478857 -0.49789418703761401 0.34850057897846859 0.020909404739938374 
0.71681465312029047 -0.0028258447434939262 -0.5688587381258583 -0.27926975519543012 
0.71681465312029047 -0.0028258447434939262 -0.5688587381258583 -0.27926975519543012 
0.019121233319244105 -1.010338877333657 -0.22421165821526565 0.902473594752078 
0.091495641541454065 -0.70013409445644403 -0.099554973936658228 0.41018071480657003 
-1.6970297326578965 -1.052523632082045 1.7370321746586361 -0.43483474102291247 
-0.054743177587202208 0.24741937197329886 -0.13637176046076938 0.0044538587824570763 
0.44797878107066968 0.0048536842869173688 -0.057024429583310887 0.0034438500780788316 
0.44797878107066968 0.0048536842869173688 -0.057024429583310887 0.0034438500780788316 
-1.1860030364898744 -0.98380233542249751 1.9047561978626066 -1.0805254440729186 
0.033885721929559853 0.39810635761275776 -0.13234381099962811 -0.28708569597321681 
0.10487502774371862 -0.69988933644316742 0.01388873687434131 0.14512796297466873 
-0.19796944292594121 -0.0050612198691569327 -0.098739002951163016 0.52573357522544062 
-0.8718467336114194 -0.63520667355434668 1.3987641621395714 -0.83415620255278955 
-0.11705984818341339 0.029212622052885634 -0.76412779722292656 1.3998209981998677 
0.030078959099800233 -0.35518941276764471 -0.010161172074243385 0.03097688126178904 
-0.032545186803777611 -0.088348151615852674 -0.76737232466963567 1.8514331242942736 
-0.10000485245738641 1.5244291448604332 -0.79312854940832833 -1.256321140877138 
-0.087384065218124141 -0.62757788746117027 0.08477051528450856 0.36486534520324465 
0.037001628883449447 -0.10353989121881227 0.079761744725376005 0.22412527825692979 
0.2308850718549593 -0.35192632315693873 -0.088511533137444254 0.023903550252521999 
0.034107636210790639 -0.0043506060936206736 0.90063647120803381 -0.55026302846088326 
-0.045418864875828732 -1.0392193908551211 -0.2882209201078581 -0.26870993033965662 
-0.12149544115742969 0.15676179496376647 -0.046590714767249158 -0.121822269735477 
-0.13140899917802501 -0.013112975304813715 0.58286684962412028 -0.50233381458952431 
-0.0065395444826385502 -0.097558650441558675 -6.6582357294623501e-05 -0.058941175454455624 
0.034107636210790639 -0.0043506060936206736 0.90063647120803381 -0.55026302846088326 
0.40115357356274556 -0.52618316934432752 -0.41743236187401034 -0.56051316463933354 
-1.0235711758107744 0.55377763460938745 -1.4239109308038147 1.5718138290714097 
0.1614288402360933 -1.2795611650857794 0.26129368444687101 0.47126499298133773 
0.034107636210790639 -0.0043506060936206736 0.90063647120803381 -0.55026302846088326 
-0.27254896180950944 0.19760561983406183 -1.7749034459831903 1.4973064290451752 
0.034107636210790639 -0.0043506060936206736 0.90063647120803381 -0.55026302846088326 
-1.4614227945720444 -1.4142288408984245 1.824503645161351 -0.21438205341680544 
-0.16085827707718883 0.1461295787043681 0.070250548870790172 -0.25787148452635822 
-0.81847923784872345 -0.51168821883700977 1.3721212957803557 -0.56167496757910085 
0.040491885914863433 -0.0023197100217391079 -0.061130626184619452 -0.0042453620081576906 
-0.26240548036101857 -0.21430533690865811 0.021807141437356486 -0.031030010793884205 
0.069448205639362187 -0.8121175703356619 -0.0057031618863654515 0.1189041345766438 
-0.076068275690664405 -1.9033187623962329 0.6587741272740647 0.062032386266294953 
0.040491885914863433 -0.0023197100217391079 -0.061130626184619452 -0.0042453620081576906 
0.56320135326270881 0.11816129982825854 -0.43990509662432242 -0.11973341510708191 
1.1027337371356241 0.065710572486346638 -1.0004086580383094 -0.010260806420990004 
-1.3350041740321101 -0.057828696672136193 1.40981800008392 -0.34154304519375894 
0.09411088991926829 -0.43470273499116685 -0.09183830982263648 -0.19042791865634956 
-0.62761437393621511 -0.3414806366581728 0.71398369940896744 0.0069239703729855519 
0.80271726384157305 -0.38227925761862724 -0.56435971949560593 -0.23564910140482834 
-1.000243787090709 0.85708583738477484 -0.13791600580676144 0.50432775791195994 
0.076092513796801708 -0.0072203527575402035 -0.034283040088913655 -0.022216168089521926 
0.076092513796801708 -0.0072203527575402035 -0.034283040088913655 -0.022216168089521926 
-1.2991613505715658 -1.5193566010231569 -3.5349063869311874 3.5121471127065735 
0.092184725398139045 -0.47324315195061778 0.0055105782340225118 -0.020488735572379235 
-0.16538931892468245 -0.081805909787169728 0.12472824689031728 -0.57716386962473565 
0.28152805285347043 0.23993938358481848 -0.17433396693977232 -0.38886893341179279 
0.078647180104939651 -0.00062711664965917763 -0.067426183303139278 -0.063225767896234158 
1.4657759586125383 -0.12408220762812744 -0.71332471223864735 -0.81152998517314301 
0.28735329455571146 0.40442554790509594 0.04960642500554599 -1.2183272983325917 
-0.34053004589614433 -0.56131036333584083 0.34703533710178125 -0.45367449650060437 
0.71483601678182263 -0.54504880543014489 -0.6365798966278593 0.25901927733723273 
-0.057471769327612665 -0.25702424082716585 -0.020492263597333398 -0.058497447734352698 
0.29993624908514438 0.070021696079493517 -0.1417015463583898 0.23653522949956168 
-0.14505843127747658 -0.40151380100853418 -0.085528610230815399 0.054461406662505464 
0.7305660748700209 0.076577223409007245 -0.6218392169502801 0.71812669403106311 
0.098945202829660239 -0.045136142785729846 -1.1752403683098247 0.092868668658410231 
0.11373559538713741 0.12605651187742251 0.0010862696155415005 -0.21734099171859145 
-0.07626363593191951 -0.32899476192834565 0.12893506287818593 -0.10517719573511553 
0.094914696116577074 0.049178677626068742 0.002335499939469644 -0.1230594893851856 
0.065461984666928319 0.051970532253822282 -0.020632330209576263 -0.11853632998746837 
0.065461984666928319 0.051970532253822282 -0.020632330209576263 -0.11853632998746837 
-0.36567119070840448 -0.004903285497735355 0.47809170743166118 -0.0022758951109011368 
0.036331003152697598 -0.82525027578099752 -0.25902738525110675 -0.044448153758885285 
-0.36567119070840448 -0.004903285497735355 0.47809170743166118 -0.0022758951109011368 
-0.11123887069888849 0.17458681342612303 -0.033517187512677002 -0.65301497449664891 
-0.34853042687714431 -0.0055878965249912399 0.450825731304904 -0.00092405239240203694 
-0.060527607250120172 0.11772638558890343 0.016543809597880828 -0.24079889023398421 
0.17499073766802109 -0.61681626343349572 -0.18407677369160433 -0.025973483724995316 
0.13559431691634932 -0.72963575278276105 -0.234432954699615 -1.2980735640111782 
-0.92018276352770778 -0.45924202506817619 1.2322757789277956 -0.099429081397440389 
-0.043943987844069755 -0.59111883365011253 0.1040719002950584 -0.0061164290700502465 
0.38580358415251825 0.00030063835045120689 -0.33711552398573574 0.0021329355450517926 
0.93189002501770712 1.0998039085034996 -1.1116861975508461 -0.069206345098453734 
0.071631507404264605 -0.14464987540599972 -0.17860046821019984 -0.40624457403099007 
0.38580358415251825 0.00030063835045120689 -0.33711552398573574 0.0021329355450517926 
0.17423115613311546 -0.032638522650161934 0.19958250626830087 -0.33757411430500101 
-0.50258218169251112 0.34907489007200776 0.03383863889817057 0.023372973242682338 
0.52720676977053127 -0.15364682947046138 -0.38836409799886751 0.013326022504300081 
-0.54019487258341115 0.33890633371026263 0.42925001177873157 -0.24171248539657236 
-0.00092563220217003724 -0.048023046179810971 -0.030961384161141449 -0.078384974289735496 
-1.2024861180606996 1.6276180132851208 -1.6737833986809005 0.11123802662053558 
0.68409149875872255 -0.39056929272212398 -0.065592267718661029 0.013697686349893708 
-0.014723707924500146 -0.77422519165700987 0.17717879742305848 -0.093477634255380651 
0.72530697426831503 -0.32851936066780207 0.38878992446263611 -0.73872948820873274 
0.08432589272671831 -0.19908600535377394 -0.16355476246179521 -0.32171178084097735 
0.58616206412876348 -0.3857876224728316 -0.022778749122290984 0.026618597942482072 
0.45927804940446415 -0.12575988240156993 -0.40910447636209768 -0.10800803578129051 
0.27345589480473176 0.45849021203048479 -0.21780194766593935 -0.23490735178706781 
0.58616206412876348 -0.3857876224728316 -0.022778749122290984 0.026618597942482072 
-0.91515369710008665 -0.12674029822699823 0.70055952992079817 -0.031585391105874598 
-0.14738276529502092 -0.043151713178403592 -0.12931635653061382 0.087199323510541854 
-0.14040615746503937 -0.10863539119343739 0.34204675329952028 0.0067945411910111178 
0.062815475691958583 0.15787791862254011 -0.088020947342785316 -0.079518999863514545 
-0.039087710754183554 -0.10683857470464841 0.26508358855613523 0.013378933990655286 
-0.14040615746503937 -0.10863539119343739 0.34204675329952028 0.0067945411910111178 
0.49405494936027261 0.21056960085178114 -0.51278251359712101 -0.66805625168659122 
-0.14205144784218868 -0.12668972189190553 -0.079370400646604833 -0.043761107839519781 
1.6952437673960712 -1.5671473783348393 -0.68342620547237731 -0.92609625968276277 
-1.0607634630949461 0.24781174409146861 0.2558576865040062 -0.071374686781252555 
-0.048753948679200076 -0.0075557785925807839 0.090465293237327632 0.072560879696083852 
0.34214513600289981 -0.0095041868954641225 0.050355030110060581 -0.019476036107111128 
0.30852656919852772 0.70189495293668114 -0.82275374998307393 -0.32882368425935077 
-0.048753948679200076 -0.0075557785925807839 0.090465293237327632 0.072560879696083852 
-0.51498221354450768 0.40978639828091845 0.12920488111413839 -0.78555107522464129 
0.033054109884174107 -0.5240255416387285 -0.027606900663290863 -0.3168666340434928 
-0.048753948679200076 -0.0075557785925807839 0.090465293237327632 0.072560879696083852 
0.47113909407077342 -0.10736408180237343 -0.43261133405169794 -0.25480318742099289 
-1.7598946279859211 0.1634362459981504 1.3913117145853233 -0.3527576662648203 
0.25586135510266816 -0.44700292950254911 -0.033251777814329142 0.12671100110921529 
-1.6878760794852328 -0.071880909532946735 1.3897901725145496 -0.0065803834625887889 
-0.01741640102791938 0.25232450755342617 -0.071194764099260816 -0.21216469721364439 
-0.56576826235348454 0.2198904791675747 -0.88091432208216114 1.1191644658067321 
0.21927420720335092 -0.18600148787410137 -0.29277022058651214 -0.19055111173114656 
1.4911539279606145 -0.19909154370504289 0.63122298062962101 -0.059993027598526316 
0.070401572172262103 -0.13116286066633009 -0.03539181231722309 -0.0050300793368674712 
0.070401572172262103 -0.13116286066633009 -0.03539181231722309 -0.0050300793368674712 
0.031466199012242922 -0.057910876291490249 0.047074893610289339 -0.22988286555810589 
0.21669262619599081 -0.15124355866223269 -0.065311130473750201 0.037778479221263588 
0.070401572172262103 -0.13116286066633009 -0.03539181231722309 -0.0050300793368674712 
0.070401572172262103 -0.13116286066633009 -0.03539181231722309 -0.0050300793368674712 
-0.22464229540506547 0.67171583854360561 0.073066698628194093 -0.33334502851514181 
0.24943027168792209 0.33437376843010669 -0.66775276509202675 -0.23626605114308569 
-0.38586572406941622 0.58398806006541271 0.14380434730232194 -0.40564477356768569 
-0.22584648257124179 -0.23028512329045919 0.059292238703763545 0.18112227260360128 
-0.60525682946518966 0.62683093586107108 0.21652892457535358 -0.19070238748800739 
-0.64004795308618934 -0.17296420476754637 0.20153499601127217 0.18041253320939313 
0.89501771370422778 0.32726644546463951 -0.86784862106712368 -0.34985009005091511 
0.21495123816622189 -0.36032120515223548 -0.51007364050916415 0.20996196952500926 
0.62996346029654571 -0.31024555054006775 -0.035045542187221113 -0.90169486496737195 
-0.10159253673598384 -0.30445288152006073 -0.13432944540997643 0.34312095804955989 
0.12664985495981596 -0.54564466601158013 0.035287731971037808 -0.49488051420129869 
-0.039324698069584829 -0.1364306371743301 0.13009468759375403 -0.85301292093634618 
0.078981224088365554 -0.14559600389423663 -0.060185398583829486 -0.078999734358974352 
0.26027556608826719 0.006049279197432561 -0.1254993621887367 -0.29704958366391065 
0.00082557045432340992 0.097440828452922873 -0.15095929613310521 -0.23349235490370576 
0.66571796109581483 -0.72457947500918063 -0.13952894633990204 -0.17525810032632208 
-0.73785269946141319 0.60142249290196081 0.06262857577079832 0.10460162920448413 
0.024139963197219318 -0.4652472937058405 -0.071352977669829371 0.21131997945367764 
-0.76289329544172158 0.53229225926254709 0.086800109005994899 -0.22187097039064435 
-1.462384073802955 -0.65027857562584401 1.5971945346076297 -0.17542853581350171 
-0.0077327542804017987 -0.0030720541215034907 -0.005375433845018384 -0.0051132381596790556 
-1.476220837622082 -1.2114502136539373 2.0233728365405095 -0.85009141125010657 
-0.0077327542804017987 -0.0030720541215034907 -0.005375433845018384 -0.0051132381596790556 
-0.20601518135125124 0.4226794698122624 0.24639013502159779 0.097340917704059685 
-0.42906932511138535 -0.384082720280078 0.18157930082054324 -0.13997448295905282 
-1.1856928556070385 1.2162622934021938 -0.024653262077668131 -0.24425326697493652 
-0.29553091169280354 0.3546170722421228 -0.17305047955239017 -0.20179781982119033 
-0.14283221926216144 -0.34265632231239523 0.15345983169990668 0.23913064642147122 
0.1295950346219332 0.024102575364974604 -0.037122937315208257 -0.12201276789312816 
0.24520442502251263 0.45672051381580597 -1.078336693829145 0.5420932223032584 
-0.11990681566036539 0.18635314501983505 -0.053718657403030307 -0.75388989288913089 
-0.98190017215705405 -0.43905433724033527 1.3348715275457446 -0.32907685875461662 
0.44886518452729562 -0.067551509163001261 0.035442836035698061 0.051707041173628232 
-1.0297657932454882 -0.44128498381251552 1.2953486017334597 -0.32353442372911978 
0.99576562634788868 -0.9948761909621493 -0.96316070055799807 0.66394610616435834 
0.036252103601214884 0.024485019567851957 -0.047322742051748273 -0.0080852015390504468 
0.24860462907099662 -0.65750332895265962 0.06776609024017699 0.085496540690954914 
-0.13620565786142191 -0.19831001284131894 0.53500373544676749 -0.40875026492594468 
0.070797118898815459 -0.014401494564409173 -0.096875454652697521 -0.025727738076977646 
0.17771070263552349 -0.0023862668916202808 -0.18227992184538871 0.0036617265492839245 
-0.32947349374773816 -0.4258616556463673 -0.023205381260380381 0.31721979553889207 
0.20563471351360402 -0.0044355424761538045 -0.27123487418044812 0.013185915908612435 
0.24486845566899107 -0.81585534432708051 -0.12744778897897524 -0.28203832814081342 
0.17771070263552349 -0.0023862668916202808 -0.18227992184538871 0.0036617265492839245 
-0.36261472740763989 0.10949058839690158 0.36831377891180295 -0.056411065238469366 
-0.33132247680837956 -0.45851726388979802 0.50712405828451534 -0.02727896085237394 
-0.054840632163382669 0.065315225544756078 -0.014401914283462838 -0.1772633153539338 
-0.39984863298101686 0.00018740850108084827 0.35986779325860507 -0.023315054027967519 
-0.045825810762864322 0.38638183150650507 0.097411712188005289 0.13903933106395358 
0.70287818043739536 -0.41123523277392954 0.058061104878942116 -0.022750452002413588 
-0.91305236715334215 -0.26127023539612815 0.51703061766846203 0.56575123717069953 
-0.0022571082075152037 -0.5268508941761727 -0.016733567650926276 0.024707158595384311 
-0.089538335846748932 1.3018623797683824 -0.64281907838223873 -0.89629204221940839 
0.18797822989926258 -0.10963679457951403 -0.21280645132432141 -0.090639433520393983 
-0.062742108373336145 0.23362923054183121 0.023610684915186211 -0.0029733078939487845 
0.054800666640407919 -0.68990408489973731 -0.03133095096859087 -0.022822830931354 
0.23994142640182714 0.0044533168734765052 -0.020422212540661629 0.0019474559679289608 
-0.085388920367410137 -0.52306339090303378 1.2798664108309858 -2.4480315520377469 
-0.97191479209887632 -1.2786072437068854 1.6611247374545215 -0.91423933801916379 
-0.3714748714403594 -0.16791966956541191 0.32717315829378663 0.017153679034065526 
-0.092519220533296045 -0.51962153372743991 0.078048519504810884 -0.15636775520155305 
0.33002009970258939 0.31163432391703177 -0.1737521495986 -0.20171512440446998 
0.0084105368907070738 -0.15407981693598677 0.489489760489627 -0.095119456719086837 
-0.3714748714403594 -0.16791966956541191 0.32717315829378663 0.017153679034065526 
-0.3714748714403594 -0.16791966956541191 0.32717315829378663 0.017153679034065526 
-0.3714748714403594 -0.16791966956541191 0.32717315829378663 0.017153679034065526 
0.12377889234339437 -0.38524318751082909 0.42190441040890836 -0.17204627261777056 
-0.25305336319441735 -0.18015871089926977 0.075835547216890925 -0.064198759796671265 
-0.043396722816151992 -0.28569532763898442 0.42595617356031407 -0.040839549344957662 
-0.0096932521203240175 -0.16252688630662612 -0.011225787902531703 0.080296646768729316 
0.20401191567389257 -0.29061992142576804 -0.23601780632314118 -0.12569745078738315 
-0.0038621924159467323 -0.28800979345274624 0.26065309797970743 -0.04217625248960756 
-0.23096249812231789 0.49007618688424642 -0.091726328151596231 0.028880523241629725 
0.14004763577929707 -0.15295129819214759 -0.072831109534031463 -0.19758186116885945 
-0.32421765039367734 -0.21537960012446761 0.28426774694040152 1.1522269007675885 
0.043989492008206982 -0.0041463241602302213 -0.30920610841363094 -0.42357234002442429 
-0.29146058866763647 0.5520870679454819 0.25625903644458353 -0.24224731128463431 
0.050012026806229209 0.21437555377979245 -0.017083610094114157 -0.15654250303728934 
-0.10872464321949146 -0.041403097868325266 -0.021894295622004727 0.14547941077688833 
-0.09257325472517601 -0.32421131585495899 0.1437904850194108 -0.04266633020149159 
0.038954371083011891 -0.04088952903220025 -0.1036749497752127 0.10018123149258629 
1.4735540755973788 -0.43574861312987773 -1.1336492280772839 0.00028920360623410873 
0.55228646320018815 -0.33023081236003793 -0.49633668032904027 -0.30160465215253879 
0.079270454301458182 -0.0022639158338565593 -0.3309011465433252 -0.0016325617945475253 
0.24863812970016491 0.28783263798042824 -0.18154224640554117 -0.29373944606568292 
-0.29413861888608472 0.0089518350177617157 -0.042864346678621545 -0.0025890903863956599 
0.18940969519708981 -2.0427486510514723 0.75852826256079453 0.62330230280190246 
0.098095131121804166 0.69224801925541968 -0.075192206939455816 -0.39967008943237792 
0.099048949342832815 -0.036396999265312653 -0.079815809194448861 -0.35053188587836503 
0.1149088001759476 -0.35838586355455282 -0.20051329989985267 0.34509007121953444 
0.069019547329279299 -0.23425361638473038 -0.1235957255764135 0.13189881728662145 
-0.63642013955204835 -0.65142728714293918 0.33214495505131492 -0.35676499593298439 
0.08909341691717157 -0.068822428528913515 -0.18061609037069948 -0.24179708464069494 
-0.44077878607236914 -0.030329986202708582 0.26533441433754212 0.026095438738463927 
-0.18532874526558746 -0.008972437468333587 1.3738106684170894 -0.14717573924536015 
0.14545605995255623 -0.44103489976935156 -0.16786253257938502 0.15614290692718974 
-0.52134959828040983 0.2213507477293386 0.24162361952634184 0.047790109072278084 
-0.44409167534730287 0.65070564507027273 -0.92388490671051682 0.6615919034029053 
0.074025844601793941 -0.96983426360801417 -0.19805497729483629 0.10332391140196637 
0.34317762481524056 -0.29492131709209324 -0.23913150496634955 -0.81545197549953152 
-0.18532874526558746 -0.008972437468333587 1.3738106684170894 -0.14717573924536015 
0.023036461732002876 -0.26726871875293162 0.0080576728923180303 0.16801910884789928 
-0.28403854337401124 0.22684765928337253 0.080391500639319505 -0.51770702232093824 
0.16366840525717841 1.0717203834828515 -1.3983182513785009 -0.0050675078580400944 
-1.0810874298247948 0.54443859477338508 0.27165176464064161 0.51840499825860453 
-0.19283892409701811 -0.19502236317125562 0.020637446549825564 0.15757043065229695 
0.16366840525717841 1.0717203834828515 -1.3983182513785009 -0.0050675078580400944 
-0.66127945811900668 0.28028085972923134 0.46718284584977837 -0.22578558541695934 
0.51237935320517725 -0.014035062124209446 -0.56129399448469242 -0.049211476807483105 
-0.067589134994519032 -0.0027038200467729067 1.06066792520354 -0.73280109666586468 
-0.92666664706952995 -0.10829904847485862 0.81889810408074171 -0.71806289126522549 
0.039398300273019847 -0.48751118207778432 0.26685665309433565 -0.2229017994952523 
-0.87284960707594217 0.52671687794912625 -1.4180506273334643 1.5748042583375148 
0.40240741557921073 -1.3048985601560297 -0.46940533820750363 -0.16589196176257709 
-0.18392166271818 -0.48985804999927207 0.058904254737847175 0.4814361671875198 
-0.067589134994519032 -0.0027038200467729067 1.06066792520354 -0.73280109666586468 
-0.92298103281938992 -0.27776152480563021 1.6926638163931949 -0.29689741104887907 
0.13649068091475156 -2.5254792751548329 -0.041756720296779293 0.29152337701825048 
-0.2640876912292015 0.55382888679076248 -0.078585239375021695 2.3285096467387523e-05 
-0.46857468283715598 -0.029158101511935444 -0.69410211120310761 0.25485194165682334 
0.11149736131353655 -0.061958574282979413 -0.095943416970979772 0.15691856425982936 
-0.33984792182780188 -0.00012694479671770053 1.0770471494418401 -0.33700385284119661 
-0.090733875837538058 -0.11113148438767309 -0.15886132182363896 -0.50355385911005568 
0.21208466855751978 -1.0745826383004453 -0.076895371739114121 0.57323188031946248 
-0.33984792182780188 -0.00012694479671770053 1.0770471494418401 -0.33700385284119661 
-0.032754939839571312 -0.0040804224715428866 -0.0016380894937393919 -0.008804503649867795 
0.11182346633891806 -0.22655467255818054 -0.15401099831723297 -0.20151372843056939 
0.034257825722455927 0.17720646424573733 -0.1391642137696949 -0.43317920142463928 
-1.4333075728245224 -0.73201839820363424 1.9393476822174853 -1.1176496763949251 
-0.032754939839571312 -0.0040804224715428866 -0.0016380894937393919 -0.008804503649867795 
-0.032754939839571312 -0.0040804224715428866 -0.0016380894937393919 -0.008804503649867795 
-0.52942858662401482 0.16333206994849334 0.2345225319995515 -0.24720073515095897 
0.57167749576500992 -0.0071465880551812647 -0.036295800700259909 -0.30818674792715572 
0.07986596925992305 -0.5453128694219741 0.11646002511362086 -0.039637310220802718 
0.57167749576500992 -0.0071465880551812647 -0.036295800700259909 -0.30818674792715572 
0.57167749576500992 -0.0071465880551812647 -0.036295800700259909 -0.30818674792715572 
0.017910849397859738 0.081495912845660351 -0.069323097511039808 -0.041925850230048016 
-0.28605924024087004 -0.0089368398284503069 0.25374766278903588 -0.32471597998939267 
-0.021218332428491783 0.024203385692035798 -0.014670867061535767 -0.017227724004940874 
-0.13413800820019026 0.0055974349578073231 0.20527190476413804 0.042097388728105534 
0.23429392451019385 -0.17983297825004396 -0.18156857586129244 -0.51578546160747596 
-0.056893123565965292 0.13617413494501046 0.045816555882868704 -0.12365140472325591 
-0.03855627485794462 0.19742104673967542 -0.015844843800514874 -0.010845653978573622 
-0.18840338327064124 0.88363634595998186 -1.1709228449472373 0.59339553185009719 
-1.2871755418319508 -1.0467553607132676 0.98993788304368791 -0.13391878386133058 
-0.021218332428491783 0.024203385692035798 -0.014670867061535767 -0.017227724004940874 
-0.76613663124309517 0.10316577459296539 0.37379476311234228 0.1605321422823156 
-0.054931401743720409 0.0019228827378097056 0.033704715069459476 0.053807564603037109 
-0.049072907831841608 -0.00016218540478235636 0.048967106615556449 0.04739557903124765 
0.13926976889432008 0.050986907954986282 -0.33663762963475358 -0.031042134932382594 
-0.37503882966119029 -1.0479528773256979 0.24245064714334327 -0.61503562427121994 
0.17414557190033594 0.043410584095662105 -0.15213259547103947 0.073395755867024182 
-0.054931401743720409 0.0019228827378097056 0.033704715069459476 0.053807564603037109 
-0.22284230551013484 0.26547795000861574 0.056394758267057588 -0.12291632552591941 
0.2997509719424693 -0.20406530825224953 -0.091172136040719789 -0.24979682997982364 
-0.87307902208086374 0.96753967957807918 -0.35120794739723049 0.29782664383711216 
0.72622461542361205 0.041199098027918039 -0.76649728591509414 -0.11813596220833719 
1.6811473917945747 -1.008297985380509 -0.68224279261659126 -0.0039302540384163259 
0.4055226263276227 -0.42008940087776758 -0.26730772353269805 -0.074380600730541979 
-0.25131629871410122 -0.64266426049230874 0.25771022088488349 0.87502717588801171 
-0.18728024682025357 0.033520409245436367 0.13956731751870258 0.073441335518679762 
-0.18728024682025357 0.033520409245436367 0.13956731751870258 0.073441335518679762 
-0.29933986674711088 0.40761661214518585 0.34922547609619414 -0.33374142620321773 
-0.34187478495213286 0.24524540146176632 0.12436933103501749 -0.022912742328968505 
0.084691267357732192 -0.27756294507075263 -0.010335211683413156 -0.0097450961945802009 
0.49828016656217083 -0.41160625747173341 -0.29737707182573592 -0.069876314335300962 
-0.33329057773026677 0.40357339016024657 0.003232107278110647 -0.79843100983063664 
0.017709384442299442 0.066400101759931926 0.04850824264164607 -0.16863817155599028 
-0.12923709230625141 -0.041575102634627464 -0.031086868628076608 0.14813074033512627 
1.0226175389972174 0.056223423306226497 -0.13163469441854422 -0.24219630432220635 
-0.64341735940240352 0.096555126738563452 0.38609724819677821 0.26303012496825418 
0.034022009193656444 -0.088338807143035158 -0.14204340937172527 -0.073244939635950274 
0.86548883430379764 -0.37126409912053715 -0.28282011727138218 -0.043388309263715785 
0.060830765133060322 0.62847942205394125 0.23496174316628943 -1.2002277817619376 
0.043132983320911714 -0.28613357798061806 -0.096669461032554652 -0.17230837367402874 
-0.3088332903058944 -1.0529184612751645 0.29246644285317819 0.44272035149494848 
0.44127381190057258 -0.010369350208823281 -0.017246144552785343 -0.044288379905053271 
0.018038565385970932 -0.003107217861028088 -0.020807245531799703 -0.0063800195711403249 
0.99057749206784873 -0.88962888439731258 -0.3322225326325477 0.13458946064339733 
-0.41587668175987286 0.47436768483314684 -0.21629289606130647 -0.14321759949335139 
0.01500619891253259 -0.008791964379475669 -0.087310203371605305 -0.16430368688065755 
-0.23512073446009196 0.39467138297269605 -0.33580858847658501 -0.39888142955430755 
0.24292331739160797 -0.17074568977021226 -0.24734480809625647 -0.41924547178142535 
0.048646357421567102 -0.038959004948053405 -0.1245723682838776 -0.37409345856134951 
0.25571164401465829 -0.0030278930626303395 -0.027111263764806562 0.078011528195240848 
0.25571164401465829 -0.0030278930626303395 -0.027111263764806562 0.078011528195240848 
0.1698698042283715 -0.23493590747637733 -0.034417251636561813 0.098379682387576439 
0.726211080902743 -0.25638965117909945 -0.089700766073341875 -0.11135174782927502 
-0.30890095505232334 0.80404588557511036 0.32274482800613952 -0.082869035336988681 
-0.037258090531754995 -0.23914623719356215 0.12845172098621396 0.30769114193011138 
-1.1299952276526437 -0.77513735397727601 1.7391786036468675 -0.61793841742280964 
0.1698698042283715 -0.23493590747637733 -0.034417251636561813 0.098379682387576439 
-0.019783320247933358 0.013012356247478957 -0.017326270172238839 -0.41685470611590186 
-0.089778489010930163 -0.020753572157590584 0.10404946649329833 0.044221602453080391 
-1.8529529305883874 1.9056669938454101 -0.51196765733536487 0.044788632841832335 
-0.9927310940271965 -0.25723905157846072 1.3027720810773078 -0.038361219029248952 
-1.2721117350799347 1.0806285051862647 -0.040080298802528058 -0.37628055350320067 
-0.019783320247933358 0.013012356247478957 -0.017326270172238839 -0.41685470611590186 
-0.019783320247933358 0.013012356247478957 -0.017326270172238839 -0.41685470611590186 
-0.34082806319459696 0.72801120041254452 -0.37939219947838754 -0.33252859948513541 
0.095812203553498315 -0.27628622957001731 0.21729611778567576 0.11283012864367312 
-0.073901947113354571 -0.30544821244026232 0.27023109420148739 -0.25434839675236964 
0.027344752506724246 0.75927252233699505 -0.44847785588809458 -0.42014060733996911 
0.13233491451027152 0.26305929391263283 -0.20869259728382586 -0.13613331315028446 
0.19883495807357959 0.94042400062102494 -0.77191205934266738 0.001401033136436072 
0.23637788048769495 -0.52011222833188797 0.10021044260429127 0.14069381297268735 
0.057403487536739441 -0.32652170914968337 -0.052214335160300371 -0.20113110402894319 
-0.055184449378445327 0.64882016740164949 -0.31587862703896924 -1.24306904560447 
0.19994402521938059 -0.70189822744655417 -0.16094613966051385 -0.24420374989962751 
0.099605565067272986 0.1822418877570304 -0.05107464814610467 -0.027707950266899661 
-0.36468869456950453 0.71213268979879785 0.48790190170772624 -0.85165319752372914 
-0.43485329450822535 0.25741534685267364 -1.4752557390051755 1.1105856363470632 
0.15009725088385914 0.36580469168838081 0.15955101207251904 -0.30654369430896544 
1.002363067146308 -0.35124723714548589 -0.023701785776668725 -0.30730252322868873 
0.13185285622207854 -0.07752638880822349 -0.24907692993759062 -0.21507934106152443 
-0.14148744894595985 -0.080476653668264828 -0.097241920722704878 -0.11469864651140178 
-0.12951702992883013 -0.65703328667712557 0.18022406382007397 -0.24872273634900957 
1.0020551814800722 -0.49759901157769154 -0.54541531678389688 -0.1891693116686371 
0.38533448220751398 0.06487468947920795 -0.11605098305029043 -0.4607807353478513 
0.024573880798811815 0.75287436365388793 -1.8450961873382445 -0.20454153504272327 
0.021093158998328497 -0.014335869190651829 0.040171422850709154 -0.19396798824297959 
0.97167413275203185 -0.016864318773222191 -1.1447505078629903 -0.19862033446384464 
1.3149141276098024 -1.3795559154814416 0.017959902552723742 0.32075173984626987 
0.021093158998328497 -0.014335869190651829 0.040171422850709154 -0.19396798824297959 
-0.073103560356717612 0.47748352711576175 -0.13214190885907062 -0.38744339968965935 
-0.6544219620313978 -0.30991863339907899 -0.6827024011887366 1.9892713739493317 
0.36135353430522837 0.1840491936154168 -0.35033902735113887 -0.16423204916787057 
0.70888891889061756 -0.43498628271944939 0.13931063659345161 -0.96411599260103609 
0.56899360442157076 0.00069868938711432991 -0.8527509692606472 0.026475086147629501 
-0.36536973111128335 -0.67177657605776808 0.1693332535963723 0.52542246646954782 
0.039177209098529689 -0.35410131769569109 0.020457325501671744 0.35086429573670519 
0.44693540899884032 0.15283943198504915 -0.76775912998141571 0.038244160122198931 
0.41683657687044107 0.36509547359802541 0.022408006425671697 -0.56714623876153958 
0.71909235449218589 0.0076896566951852041 -0.082532714331491397 -0.14200349165902196 
0.56899360442157076 0.00069868938711432991 -0.8527509692606472 0.026475086147629501 
-0.26351488799307132 0.72825895846764854 -1.1452874127946511 0.37949283744691742 
0.50103016349619778 -0.066556640782717447 -0.08419567469724204 0.10097853847524554 
0.76863881894962294 -0.068672180282097511 -0.08412405341557927 -0.0042735181299707655 
-0.16124916820935831 -0.080622187764803899 0.072665269879519545 -0.10678723649978858 
0.033567647694212305 0.009855638976987352 0.13976810940532142 -0.24207639576791373 
-0.36636242246500822 -0.13433402503570424 0.062861049950243469 -0.44980970825206767 
0.060412289102573132 -0.042437928533157185 -0.060617434358335727 -0.028161108165673406 
0.31492996114605687 0.12168484257328796 -0.08023655638489309 -0.069248837659900836 
0.088873946518385288 0.17900979284328805 -0.13701282776082191 0.0060394744957538438 
-1.598826009196225 -1.5592014474039573 2.2170427228998331 -0.5666117455548767 
0.11264506940068567 -0.25795203187279059 -0.15478324614462238 -0.15050568575061871 
-0.51154438353041287 -0.94953477433255129 0.4903930427023212 0.059840922344958594 
0.02642823821954339 -0.53951545918390442 0.16495523414144317 -0.19350740158161686 
-0.25826321329823138 -0.60012187462967381 0.50342660430475328 -0.00049633559751587758 
-0.1482072966472448 -0.0011824660363215422 0.013340158257349174 0.0040691864242382129 
0.11197151312139442 0.24448343651043072 -0.13946618974326233 -0.6224422236649747 
0.0059205890487017618 -0.082151016567076934 -0.019950477224007272 -0.21249359959778302 
0.49852950888005415 -0.2161639888600205 -0.53288402564810278 -0.0012286693965340087 
-0.17478454341963096 -2.5579993122155331 0.1659549606031121 0.52109904569237153 
-0.2064163805732501 -0.0096371471693128263 1.4837625366756568 -0.43909201647944784 
0.26978826218216884 -0.67623095095895913 -2.2974167996596289 1.2746108358296355 
-0.2064163805732501 -0.0096371471693128263 1.4837625366756568 -0.43909201647944784 
1.0266714431532606 -0.31987344675625612 -0.41951552862977615 -0.46655724208097643 
-1.817442029828195 -0.9269225006932249 2.2023332324782641 -0.40888224579627824 
1.4385639008973419 -1.3337766784111635 -0.80579816370839041 -0.26269490388735772 
1.5100162218326532 0.046433104491452562 0.1016292482298094 -0.8541241284986637 
0.05032162190140569 -0.0037256902798214076 0.01627804363885843 -0.83587841826718223 
-0.47282718003685176 0.1751009416159699 0.086368869639743259 -0.023238453539215748 
-0.13418469238620237 -0.57625840024991237 -0.13705254855538782 0.7692665436313717 
-0.33281332694592314 -1.0953262328430671 0.5171489611615453 0.46776043640488774 
0.05032162190140569 -0.0037256902798214076 0.01627804363885843 -0.83587841826718223 
-0.71680107001052717 1.1183366326878403 -0.90319829865598011 0.40782591766284459 
0.19414918254937252 -0.57762354958335105 -0.18092177985740432 0.48846507303689957 
-0.84711377616108141 -0.020485266897747455 0.060251954473364039 1.2769061559622994 
-0.037047012525546236 0.46072968789370355 -0.40675855347343304 -0.80488904707545594 
-0.21265461151336493 0.030884405287825843 0.033772904207260229 -0.098981952371529403 
0.27139947450532309 -0.9236977467741132 0.17933944394474793 -0.46822022311099187 
-0.046166458664949887 0.19284412036066989 0.01369833912342785 0.016839735389255261 
-0.65378965738226025 -0.19064304029768531 -0.20968457642312274 -0.21765109809842581 
-1.2886655644607508 -0.60304354882872457 1.8108234862673498 -1.0318761936478371 
0.47027043120653805 -0.56323300751505356 -1.2703192922752233 -0.033562022088549429 
0.81319130546395946 0.76734137239997913 -0.28354642041985839 -0.17503763948698092 
0.33112287467637613 0.57309007557348457 -0.24408625544895271 -0.8612047566431168 
0.65501412298857742 0.9068276886683132 -0.89491666896514566 0.14461033283541672 
-0.12358709065880752 0.069497564638652032 -0.64721990313004008 0.2444788690517169 
-0.47244543592749821 0.20908146338561856 0.74923110163099271 0.38173866275784962 
-0.32286643506635226 -0.019027497221974179 0.035508501349128363 0.26350195534478005 
0.44642775857179084 0.29757008568545817 -0.62926387225263236 -0.22460241585629798 
0.0023931731581446243 -0.0044768647439407255 -0.039110525849638922 -0.073730671028228514 
-0.42352534799121916 1.0267813284927556 -0.13812819177013716 -0.50468157831330107 
-0.85999194622304409 -0.97652467155285128 1.4368023680912998 0.044613111889093449 
0.86621597250601068 -1.1895982544583452 -0.07986535357166788 -0.40338634736997958 
-0.85331643631321719 -0.0078347951431085479 0.14149067383932484 -0.20405240665952074 
0.20793315769213849 -0.37931426286018533 0.20764307567472706 -0.25649880681292081 
-0.85331643631321719 -0.0078347951431085479 0.14149067383932484 -0.20405240665952074 
0.44318983187345629 -0.59775017620212101 -0.58826339176970566 -0.20432137047688378 
-0.052149825857612797 -0.32592940065024473 0.46397378390859845 -0.2286361822810915 
-0.78024427126040674 -0.045219721147553876 0.58828438072464762 0.34571373607570716 
-0.36259665878786562 0.046470504652762257 0.12505184554414181 0.54052421486492142 
0.093294126658481594 0.22261738655166791 -0.40265501421253824 -0.27610862238922573 
-0.14749973622229573 0.33322332241195368 -0.2263580968130933 0.12789697090401991 
0.1003160278661317 0.44148466066054459 -0.23727970016582323 -0.38772037381814251 
-0.48532454627580468 -0.29992226368805619 -0.01168634847497238 0.5110592587457351 
-0.36259665878786562 0.046470504652762257 0.12505184554414181 0.54052421486492142 
0.012130282951321125 -0.052071834158538222 -0.34995309348674453 -0.13793259219397025 
-0.41859679246103565 -0.30451087586982201 0.86429754037807516 -0.73216401520932606 
-0.13287258549183967 0.020955762008059202 0.002971515129923108 -0.070498087841284765 
0.86292617969230567 -0.73020894138642012 -0.56491087712027499 -0.28528497305819778 
0.27100177336618214 -0.5030699456648221 0.11591697747634008 -0.15598106105416243 
0.104095210737603 -0.0027736739211226763 -0.41373053632007972 -0.011535549670011174 
0.104095210737603 -0.0027736739211226763 -0.41373053632007972 -0.011535549670011174 
0.11415930050405405 -0.45152173160577441 -0.17834000532379335 0.14055508166203906 
-0.60184941243461409 -0.0053499527639194484 0.55001307090588802 -0.086473518572587699 
-0.44147625881615116 -0.0021436792774676338 -0.17601205196128189 -0.10717511150164785 
0.23838194356970277 1.265479306513968 -0.18985569579643177 0.015002661876787032 
-0.018094312128629855 -0.032572290173699614 -0.035009674093334595 -0.13197461399886806 
-0.2255135791598451 -1.0352426673617292 0.25039482249146766 0.91370972227397573 
0.091746677460430928 -0.51480794084723835 0.20570170045738445 -0.084849054458889808 
-0.040718501961133663 0.0032674412257940114 0.035153825128568753 -0.25063307078002989 
0.031820576093777447 -0.21444005286386833 0.19003845306941908 0.085357083916740656 
0.30708015590494431 -0.062509207301848335 0.095443809625470957 -0.26832033677639644 
-0.51447157598340709 -0.60929612799682786 0.12848757760609836 0.64163038173407194 
0.18829183792993154 -0.26180860530898092 0.42869814620102958 -0.40362684353165679 
-0.2921665327057637 -0.009162032745312073 0.12798896958519873 -0.31878705330253854 
-0.29415081347697275 -0.16250427503436882 -0.092921495740865057 0.094751014129602046 
-0.2921665327057637 -0.009162032745312073 0.12798896958519873 -0.31878705330253854 
-0.24162559848529952 -0.59982295269176078 -0.0018519193300595982 0.97244644885463893 
0.50693513416257197 -0.72219025532821957 -0.015912856798206754 0.11592543589000047 
0.078158734438322705 0.13813335608518248 -0.15702866048537772 -0.43794887896516199 
0.15624668662773233 -0.13404569298111574 -0.20659293118852054 -0.25409384190363749 
-0.8933401966137674 0.14579222900529232 0.64475105162815272 0.53978017001790035 
-1.0316286482938259 -0.59164189355476748 1.6612260081913357 -0.55746627971598173 
-0.97779084502197255 0.68399099622073356 -0.08575878272515533 0.54169968893970022 
-0.36820545076889549 0.4319771356415516 -0.078087449467774461 -0.053600305478344136 
2.0606783581426398 -0.95346532369959569 -1.0305003963451183 0.25555875350164109 
0.055488259829403835 0.77773052125497344 -0.022905939997941605 -0.60787011317913486 
0.11353761425918782 -0.024152767636606925 -0.0029956106448112609 -0.62229704951076703 
0.22481358730126685 0.11979884193306507 0.03509049452841595 -0.39782753534841492 
-0.011790486808104218 0.28118337137168636 -0.092144190933272987 -0.26985622305028278 
1.1902511172031858 -0.77045236297795394 -0.010441198628985016 -0.19488928286580823 
0.33610073503319599 0.12351004336369106 -0.12058119862234563 -0.31589928483307583 
-0.15690052506280544 0.46368255254284763 0.4093401189963079 -0.48935290297584255 
0.14712340016734485 -0.74961887596479215 0.008761884551399382 0.016212229463195709 
-0.64768122466327727 -0.11778241420771822 -0.1689406311938613 -0.14071202248455184 
-0.23596377819942913 -0.77952713823757736 0.58316550613180251 0.037159906198621778 
-0.5292954872467136 1.0718701895422655 -1.3280670946420958 0.46060166476022057 
-0.86488771368177453 0.26404940199762317 -3.7697817045087652 3.2782938060871132 
-0.87520179120883934 0.89595327768288913 -0.25446929138378543 0.29028326004486493 
-1.5673661883086465 -0.91199225369472425 -3.013234427981772 3.5633688037072027 
-0.023127547605640314 -0.11019998019923448 0.58246527076510668 -0.52543043625391739 
0.46211962694524622 -0.14037011085712756 0.36286135762451927 -0.4573132542932753 
0.69720453390742265 -1.1374978522679151 -0.76141406854425275 0.41914806542211924 
-0.062164522501728298 -0.10342300166208609 1.6001495649016633 -0.90029628836397813 
-1.5427944773854758 -1.5688720074010412 -2.0062283202590496 3.3435598447743629 
0.022407535436305484 -0.010586097210733957 -0.0034264248692812728 0.054465034705347658 
0.13847237677558483 -0.37100919636274399 -0.044536812426259093 -0.35465180833249665 
0.055123120856348629 -0.25132414847394313 -0.10717292193384265 -0.43178776420956055 
0.14537384573000101 2.0065594885820888 -1.5240050738011923 -0.007820583484964401 
-0.2562619699219616 0.24695667038010025 -0.058858349993174491 0.13689017307617019 
-0.50186110545751605 0.091771685656252752 -0.070836769940579705 0.28206461384652959 
-0.17754768048150105 0.24178180381006859 -0.077321943375454102 0.096656918793920396 
-0.40060815666574684 0.15589638932662847 0.039798097331209953 -0.097225537989017813 
0.45663908601925063 -0.55258251343955844 -0.23097319792144433 0.094282839227787255 
-0.07304397389040021 0.06227534688199781 -0.016847223295996111 -0.15985196314080646 
-1.0104142641792955 0.60164797870810804 -0.83440253222053995 1.3893449776668674 
0.62243906317907649 -0.063300237460569342 -0.49205443457621983 0.073271359198735286 
-0.054871743356315006 0.0019188149140001321 -0.044010719509041132 0.003036774986436736 
-0.47559303809220366 0.13328627009568847 0.20330152623557596 -0.85056467668621294 
0.03951573278787493 0.10979820163120091 0.089099441762282891 -0.79133664199716414 
0.021149940292887345 -0.48246212173021591 -0.37041380063702156 0.14696382045729076 
0.16444140884830455 -0.27573059207723238 -0.19149070937365895 -0.72316786409620182 
0.42349456310222244 -2.0389392173706402 0.012222018994530057 -0.41446027919731004 
-0.39066609034591293 0.0016949968989074995 0.028018512387562977 -0.0021633961729769775 
0.84613077091120026 0.73966203039649581 -0.68298317963204269 -0.42912189273636503 
0.044328951689558846 -0.10457452613278899 -0.27262463635637313 -0.19100907288155564 
-1.479142846351309 0.026757015678004037 1.4107365709605939 -1.5274109363113331 
1.0982114625501931 0.19594626292397185 -1.1568127397758972 -0.30503416327011257 
-0.403516011702585 -1.0853755134637197 0.38754283857116795 0.25580233168836919 
0.18717040004547691 0.29849825581230677 -1.6632591479321359 0.18579707384042157 
-0.081361902774450254 0.020487494239626446 0.039656388558966277 0.024296100044455246 
-1.267158337392019 -1.6893761687574189 1.382788000340379 -0.34607663337258043 
-0.28760908187800682 0.12158236303372427 0.24092631628182307 -0.071907197242653209 
-0.12478201131414726 0.22357798083459407 -0.026584446896589731 -0.22572099070466528 
-0.03684622276218194 -0.0047840557396882054 -0.097613191622129517 -0.19477787644247416 
0.059391650983590449 0.32315706656880139 0.041377930928716014 -0.40568609005434236 
0.078881360208152909 -0.028933746428866439 0.2372110764645213 -0.091770227683440897 
-0.29028854354077183 0.079597307268291367 0.21637593263365193 0.020176657366986754 
-0.078105767288238828 -0.28250333793834664 0.13001436188576812 -0.0099427513524291203 
0.28829629976524673 -0.28259026100132356 0.0034378289854906235 0.00071978260166187524 
-0.11421719626538823 0.052459515099398127 -0.17776820151961656 -0.47393954689467699 
-0.078105767288238828 -0.28250333793834664 0.13001436188576812 -0.0099427513524291203 
0.19536375927365218 0.075236945046501594 -0.110577417260045 -0.5122100753566351 
0.10146244197090058 -0.04597759046222992 -0.63901139593558254 0.26750153924337006 
0.10146244197090058 -0.04597759046222992 -0.63901139593558254 0.26750153924337006 
0.079756308398307788 -0.1900447823411964 -0.022589117754794719 0.047277094492682262 
0.1087610615627822 -0.0035404184641934268 -0.080052266420863744 -0.030966764197525077 
1.3756722571646856 -0.79028434721526775 -0.14085072126939163 0.024597040860188615 
-0.061343374846824776 -0.37087992519760365 0.053314806407379151 0.080301016846707499 
0.11856138123644845 -0.020292905515535552 -0.058752105647681387 -0.060742626474508607 
0.5162561936276101 0.16520264813526941 0.021210655517498969 0.31659160323429936 
0.2452179283023711 -1.0966320807717429 -0.5477853047142649 -0.6120076403338599 
0.42733915023206615 -1.3627883962729161 -0.4218234937873826 0.70065121183681867 
-0.10898502858571479 0.72607265212300798 -0.18958598228219659 -0.18923629704214182 
-0.72184642040492075 -0.00379169278219086 1.1277974647959854 -0.016485408379790012 
0.21481425051514269 0.061873047713132304 -0.39626767971373855 0.088991684040737928 
-0.72184642040492075 -0.00379169278219086 1.1277974647959854 -0.016485408379790012 
0.68949458993831414 -0.20743252124287964 -0.39470315767931735 -0.6379669908796638 
0.068454868111291214 -0.64756647319012051 0.0011834724160338077 0.10280615762870839 
0.068454868111291214 -0.64756647319012051 0.0011834724160338077 0.10280615762870839 
0.15893154347671704 -0.058276943009187496 -0.12901069601179416 -0.21301748275357818 
-0.62840025368554298 0.13523648940977223 0.94265449822749936 -0.30543768396391485 
-1.7620709625762185 -0.56658467364861353 1.7114043304447157 0.52246393622585208 
-0.16619540808814659 1.4872603305622194 -0.95071186854633427 0.61732085293002203 
-1.6802786262197011 -0.015459958266272958 1.7412019240274443 -0.047331374787977026 
0.013719659109798714 0.25120822350958755 -0.12206120091094962 0.017472788030109571 
-0.45069770219520794 0.80974263612316699 -0.34074699328481955 0.10434383921775212 
0.68830760871949859 -1.2618500807649229 -0.6193597490252748 0.42010065867358076 
-0.09325304760951024 -1.677842546710234 0.17285045848922836 0.30013872621549287 
-0.1550860473101224 -0.0047491548487936224 0.17529050157693557 -0.021254014346229533 
-0.29189832676907884 -0.53405426320381555 0.37865477419078758 0.0068507744507602039 
-0.070256285506175062 -0.10238858403131246 0.15454366255939508 -0.11168062459531976 
-0.2071654949749365 0.042836987949886135 -0.12459462376823116 -0.032572444451194726 
0.29102156425876446 -0.47215732947910527 -0.046317994477250789 0.16908941954252468 
-0.3202378417227722 0.24183006585737851 0.12957314565608002 -0.9223273477519548 
-0.095566131826687301 -0.1786826275089666 0.16816062737889115 0.2645794933685458 
-0.0079369735630416376 -0.13085895689860066 -0.20105879825178041 -0.079238248310442683 
-0.98449011814508514 -0.46351217880959195 1.2880990345431584 -0.1093246794741056 
0.29243380431067784 -0.18937791329163947 -0.14847505712421166 -0.58350355938722331 
-0.11157700098867608 -0.42221605733711254 -0.28711635903161559 -0.18690307185784097 
-0.038341163097197963 -0.0020753136458463257 0.040856266202820374 -0.0024890197845815684 
0.30993688871916514 -0.28360586956359418 -0.13637621957348195 -0.037461720445174193 
0.30993688871916514 -0.28360586956359418 -0.13637621957348195 -0.037461720445174193 
-0.6135406414362341 0.094480401707190811 -0.35732386648240416 0.19412522092480933 
0.36275766786336044 -0.544681162502337 0.2516355438891163 0.47927593779154265 
0.11919735799668779 -0.37149814448087809 0.24432083386218503 0.19161420952163039 
0.015890611091160557 -0.090737358275177704 -0.023941141659396474 0.13246939845328337 
-0.13947807634461465 0.47160195225703411 0.13619987740555595 -0.93347745660346737 
-0.52487106647024051 -0.44284312745972143 0.44345099606525901 0.47356216579305688 
1.530471166662579 -0.031585847777726134 -1.0832181646094556 0.55640987803714559 
0.43713923501817242 -1.0639742076009413 -0.58745131174659604 -0.18302094267082064 
0.084061571970795446 -0.20530726150629891 -0.1518530775093152 0.0698521251544474 
0.12154982356467642 -0.0093042078847675007 0.59694875890719823 0.011301557088728143 
0.31273925741565184 -0.21428363919290697 0.010253393070306968 -0.21603402327140894 
-0.08793447084672204 0.52937016998395425 -0.19940610692662813 -0.23243596152493223 
0.53051273041273361 -0.027314239949893244 -0.85980931276268846 0.3219915349622432 
0.0052316345378452473 0.77305082377712808 -1.9005946830091842 -0.013755930817734026 
-0.69184812697063069 -0.31205641300621728 1.2102398332809088 -1.1654249113395663 
0.36234295659466331 0.86365172509561872 -0.51497828423243119 -0.1073399815349016 
-2.2699366371992293 -0.066781026378226443 2.0414340537292048 -0.073857406996452574 
-0.044304347599744859 -0.39839073387756452 -0.056721540408745365 0.14837096436490602 
0.31061684123007582 0.030933273654818266 -0.21381676827318305 -0.055764188324485812 
-0.066831338045373834 -0.016836036132817336 0.011179103374364383 0.071694917658790408 
-0.13832468177394133 0.040388282543916763 0.43471927315544556 -0.076378673209190645 
-0.22455730096759902 0.0055671698463112956 0.75470555079137491 0.023477669270005407 
-0.45320840607432328 0.37413534631546963 0.061857728504603832 -0.079544310214786473 
-0.13568162914453921 0.11120283804459523 -0.16857976404069014 0.17784253972045555 
0.06693842886233306 -0.26175995162934484 -0.093801944041692731 0.13081137532988379 
-0.17812398152488701 0.087156628593623581 0.097983303756303375 0.1205253986057009 
-0.22455730096759902 0.0055671698463112956 0.75470555079137491 0.023477669270005407 
0.13681393347052676 -0.058746208405251771 -0.46083242141566594 -0.22390145832048075 
0.8753413668052159 -0.51857056940242097 -0.2445589098887947 0.41227955822459134 
0.39261254078188457 0.8941249146756487 -0.46737091693150185 -0.049640148792963121 
-0.50108741160325965 0.45946068588005162 0.49664065445016126 0.21298455184737169 
-0.12847188541022253 0.68169878450998755 0.076093035238287698 -0.057110596822713883 
-0.56939484347915048 0.45987298658471037 -0.33886651159632086 -0.26922835410483648 
0.033202243749435298 -0.073310438833404795 -0.41187495349718795 -0.09502360897942741 
-0.010631435433194864 0.23265531334369854 0.32499075931592869 -0.2759164376140108 
-0.029859378052087271 -0.044354591115736128 -0.39366172988284143 -0.084451715082470291 
0.34723038427881558 -0.50036427631435154 -1.0189085573265211 -0.18504189178472885 
0.1245597776849782 0.1103216322676978 0.10055198856034336 0.17526639405773675 
-0.075454874640446867 0.0060725665602206456 0.11377525062109742 -0.041401521005605332 
-0.20291592371595565 -0.46136968619593094 0.37268095267348 0.18866134862111197 
-0.60815382004086527 -0.59519127845591224 0.20463776353850238 0.085895323087640363 
0.33248270565579113 1.0841418137187095 -0.15051424665971858 -0.64262296365881044 
-0.961074923500298 0.19168879817555259 0.050699534412685765 0.29189181605174686 
-0.36044574339055435 0.032439638631995366 0.14854681228995292 -0.24865433939687881 
0.13609128738242748 -0.29686358580906019 -0.13792351976881212 -0.14438078726058876 
-0.14112630680681618 -0.5314213604394491 0.13118863264745387 0.020260007031209892 
-0.026184439960318717 -0.0033223378893437582 0.0285424106863887 0.12565967151134691 
0.017132703652043224 0.38922616131559318 -0.021160217908043441 -0.28251756725471605 
-0.68820125482455052 -1.1285820621256057 -0.17932289042458527 0.41576806350918544 
-0.026184439960318717 -0.0033223378893437582 0.0285424106863887 0.12565967151134691 
-0.026184439960318717 -0.0033223378893437582 0.0285424106863887 0.12565967151134691 
0.64397725131453787 0.035308992990217287 0.16128192814122985 -0.41284344485725932 
-0.92584732701516925 -0.0047887570493959884 -0.89511270384945663 0.00032868287131401558 
-0.34387969991510747 -0.16768076050760439 0.11893050149384721 0.50983090712486667 
0.024760086730963443 -0.29677991935187586 -0.0013718124202826976 -0.39752578972864683 
0.88669894779434766 -0.12947390611563103 -1.1195892146092401 0.0092977006593224637 
0.35863605843563034 -0.35202951601844273 0.22243271674263546 0.76551998598298809 
0.8793886244792678 -0.74751081607351522 -0.33695075224637383 -0.11863173538789239 
0.96080146549890888 -0.0029288803136100286 -1.1966679769948136 -0.0050576525694073018 
-0.34214038842467159 0.41030515491382602 0.10929533037495792 0.23419810170945093 
0.27066130986854969 -0.67809091522845399 -0.11225861292439303 -0.031652690687291762 
-1.8139309611324796 1.1214940227573111 0.15106824136547248 -2.1330263527741558 
-0.24574306766634135 -0.2682922982467385 0.082799131401018092 -0.0006394530718044078 
0.29639086539703147 0.31299620290224084 -0.099772039802650508 -1.9187953465545891 
0.015850634604722351 0.49107982327409505 0.096963421938180916 -2.1334533103839624 
0.032138927617671433 1.0368111169763168 0.11341634618519586 -2.1304567713910116 
-0.23212150489105843 -1.6213387554951626 0.064938358606578928 0.52183786337623694 
-0.077094072398305125 -0.048266299647262652 -0.017347304676261659 0.12620057762804102 
-1.0311677871356677 -0.085107997527760146 -3.3661876916057114 2.8381302102059722 
0.20682620542080327 0.27890355975992803 0.1208933053065602 -1.0060198456282445 
-1.9211585540831715 -0.96549996573441077 -2.4050163447417496 2.835561380783155 
0.13311490291280978 0.05305628703441663 -0.023304506526493421 -0.61416018681635942 
-0.026647702066447933 -0.0044604518617878276 2.1019672234709761 -1.2243514687154045 
-1.6014409643667911 -0.96165900238350654 1.8851925747397846 -0.56158315656764946 
0.019231363877375219 0.17790850461640828 -0.18180936106069839 0.037724222246618533 
0.12832303728736866 -0.035799337314244409 -0.2261192033880487 0.14614081572905016 
0.41479531104657719 -0.91603503790637286 -0.10226489469212105 0.010626755729531642 
-0.6547761706578612 -0.38425175433889547 0.56088613493175166 0.012454902437386915 
-0.36763156491515847 -0.35099469067841038 0.062772802284972243 0.15800441559145562 
-0.19126309187485618 -0.18097715738201423 0.33399626089326651 -0.081030264990494261 
0.33887648387931218 0.084861628686209722 -0.38217717523579359 0.069196507819447736 
0.14268457089021455 -0.00044638550766461617 -0.012218293913050134 0.00031416427065542854 
0.07457776619013301 0.057713559060910719 -0.04844338890017949 -0.1057918851832319 
-0.18333886387885912 0.10523305273218694 -0.21597829799762203 -0.021509147895250665 
-0.39557852605540866 -0.081364106486949944 0.75299271071060436 -1.0959654859232351 
0.14268457089021455 -0.00044638550766461617 -0.012218293913050134 0.00031416427065542854 
-1.1346664885565578 -0.4506051167221401 1.7185531243485639 -0.64118759212479515 
0.14268457089021455 -0.00044638550766461617 -0.012218293913050134 0.00031416427065542854 
-0.16299765031846963 -0.25630960213160592 0.17109000021096754 0.013708848661406356 
-0.56408805723639988 0.78763285248869153 -0.5299234660247174 0.051801648505219941 
-0.32104675700661833 -0.17535188819289788 0.16554018364223208 0.030804921396447089 
0.089583681452146569 -0.14716123061460973 -0.02894992754290128 -0.006370711380636435 
0.089583681452146569 -0.14716123061460973 -0.02894992754290128 -0.006370711380636435 
0.15819511856847013 -1.2624623729314894 0.23632933817130602 0.096117087994615921 
-0.062691337917432949 -0.1837609052249782 0.026879587089231535 0.026458011045249974 
-0.072761973779952721 0.085051239939951881 0.072309677842073122 -0.17648407966041341 
0.077340029353797649 0.19044255166066959 0.14692035608091547 -0.15184096829331237 
-1.0199375213456061 -1.0214399553780058 -3.5554056492164787 3.1797190160485589 
-0.054644833436006561 0.15817609930895191 0.019619881805936348 -0.21732903614285759 
-0.077869554629708931 0.85283964091160891 -1.2312025688920656 0.88271014949846616 
0.74017218760970849 -0.44902801789873986 1.6883465407444238 -1.8410241349297047 
-0.22834937881899117 0.090944098437583276 0.056095626638743623 -0.22064878215061615 
-0.39264093505955033 -0.13194861814041706 0.35856463475966199 0.052395191301067845 
-0.39264093505955033 -0.13194861814041706 0.35856463475966199 0.052395191301067845 
-0.39264093505955033 -0.13194861814041706 0.35856463475966199 0.052395191301067845 
-0.24773833505295703 0.2456601184768282 -0.011472282403668148 -0.1909481528660659 
0.33485520726502682 -0.10209324842760931 -0.12507458090321327 -0.095010972900063453 
-0.34195979680667399 -0.14009319524965064 0.34883065822210368 0.37580179200021691 
0.2912184621787941 -1.0574931597691914 -0.15831885745640301 0.056103637048003821 
-0.30041014674233962 0.13037152675616231 0.26672871990228936 -0.018729673156821364 
0.083920498294184548 -0.13623728419542763 -0.069182193841255762 -0.28337584425192897 
0.25252683063327991 -0.12897595587537122 -0.022984094624011339 0.021283398858586849 
0.11073550148759612 -0.25634692732291547 -0.016035196334254501 0.045407295778229315 
0.058441134469886163 -0.25941576328934679 -0.15693705334441907 0.25302133227801205 
-0.18144562765271671 -0.42831399419391469 0.35887724896701745 -0.49516614578764384 
0.59974810392637512 0.88751511767638069 1.1341620882929417 -1.4933623297565013 
0.10176095953346281 0.01207180259957441 0.0041682108878970218 -0.035572786302847437 
0.66283089499209846 -0.7692733037668118 -0.0040733948651754323 0.45717244927060913 
-1.7722140206189612 -0.00531447332287701 -3.0563020712119098 3.1284152940986538 
-0.64031112854355332 -0.19815237680767617 1.1960349122576548 -0.47809055718277138 
-0.7960678205161108 1.7674756790438069 -0.87623066501360314 0.69520718207461329 
-0.45866725354712845 -0.66326445603480355 -0.13793925283716951 0.72578658067470481 
-1.3903877542053933 1.0211314869396149 -0.028879380542333632 0.22168263241713643 
-0.32887659438254019 -0.79608827104884727 0.25910745516488881 0.08061283800965896 
-0.022592123565366454 -0.2239335655329211 0.011255934870920567 -0.29893746016184819 
0.35566633068653342 -0.085342133086860922 -0.10519680242736401 -0.20821977052023161 
0.0044964846550372556 -0.0066139683454829491 -1.1448164702860852 1.0996324607806389 
0.023962109390893396 -0.0081128973025496216 -1.1283881537888316 0.82572984289746276 
-0.010228092710895892 -0.5351252558693308 -1.0620335708336368 0.93607153845650903 
-0.55034519853767128 -0.15181947716313415 0.92496369216826324 -0.098798620033905216 
0.63721636877139765 -0.15495485903607131 -0.25231712586018978 -0.014948136762942585 
0.18367289374157614 -0.14653798509050237 0.012809972426130724 -0.11041417589278507 
-1.0118508325648479 0.50152065839853788 0.75929976580229674 -0.18006550207818992 
-0.053716912094127267 -0.20372229651617774 1.0136910708784361 -0.15534385279404414 
0.25124450026573919 -0.023830938087280873 -0.26660681155721505 -0.15941747094926606 
-0.08578956502396877 -0.023318263341233533 -0.0010526224849020729 -0.15956739307804302 
-1.1801237884721496 0.7551236551492424 -0.64475556942956658 1.4173797441663292 
0.77082485958143365 -0.58608739080206507 -1.0704705994629067 -0.15552437939776981 
-0.32059137240322838 -0.86137447495261621 1.2827861955619762 -0.85853852628386118 
-0.86724935647787427 -1.3899855732340918 1.4835797860546274 -0.28123011283871158 
-0.06273847117311554 0.10638688244846184 0.27277642420542364 -0.21231608531757817 
0.43739396035379174 -0.43855682693304987 -0.020422949143222402 -0.033088266101091932 
-0.40959309705063446 -0.21274960112019298 -0.13390359659470805 0.17586628028748363 
0.069169074911667988 -0.1698896419322441 -0.1994572212683034 -0.21604836959096987 
0.069169074911667988 -0.1698896419322441 -0.1994572212683034 -0.21604836959096987 
0.069169074911667988 -0.1698896419322441 -0.1994572212683034 -0.21604836959096987 
0.069169074911667988 -0.1698896419322441 -0.1994572212683034 -0.21604836959096987 
0.51780368260183207 -0.17173080900322987 -0.23460378317145211 -0.21163885268654278 
-0.4483744459539612 -0.020491981395727443 0.49367371404570082 0.19408274294827119 
0.1777439598295405 0.36495750003943905 -0.39777187175849749 -0.64584434955533254 
-0.4483744459539612 -0.020491981395727443 0.49367371404570082 0.19408274294827119 
-0.4483744459539612 -0.020491981395727443 0.49367371404570082 0.19408274294827119 
-0.4483744459539612 -0.020491981395727443 0.49367371404570082 0.19408274294827119 
0.19484184139494565 -1.5128490092908673 -0.043514912652340157 0.51676579444255022 
-1.211712381092092 1.7101553539192973 -0.042913940663223557 0.056866598327227694 
-0.3005706848551129 -0.016015278145548144 -0.11372234696457809 0.0036647457951104467 
0.31104844588458636 -0.92612487837736124 0.012659528400992388 -0.012895439206692484 
0.31104844588458636 -0.92612487837736124 0.012659528400992388 -0.012895439206692484 
0.56396869782824521 0.052872279244724103 -0.00039388693586939194 -0.56281527075906668 
0.31104844588458636 -0.92612487837736124 0.012659528400992388 -0.012895439206692484 
0.45529132461790045 -0.0016246478831734093 0.013184445225012144 -0.046427118905460696 
0.45529132461790045 -0.0016246478831734093 0.013184445225012144 -0.046427118905460696 
0.12333780766329519 -0.36071614759604959 -0.018361300117348114 0.029701674246323292 
-1.3044296819553576 -1.0123906319635356 -2.6213615773359438 2.6273054163617449 
0.42272599142540318 -0.65634447607798341 -0.04013080123141527 -0.11496919269444643 
0.42674503640709599 -0.039181068368560751 0.10436911808690436 0.16015327427603193 
0.45529132461790045 -0.0016246478831734093 0.013184445225012144 -0.046427118905460696 
-0.061493096975188746 -0.001864475482962178 0.098175002517374765 -0.31054960015420452 
-1.5158259554004914 -2.3290081286559179 1.4841055030722758 0.70343570356993124 
1.1940437632147614 -0.50015376223729491 -0.38047338731727592 -1.1992947719969211 
0.4076675980697318 -0.3846720887877505 -0.37520878259977514 -0.12174953718773279 
0.20202976232484449 -0.14854679367882587 -0.080382538165729794 -0.13490093771957296 
-0.22211637953949179 0.24008109868725883 0.22472364959471297 -0.31900715401583896 
-0.19456851573987941 -0.28550817453621602 -0.10140841560746378 0.11409944554680437 
0.16227493323289494 0.2459815852760151 -0.3664227379124213 0.19468674340324432 
0.34745955062480383 -0.45704378848367666 -0.041075341597889919 -0.36678377871516099 
0.53934441528676502 0.16894794392088575 -0.44672425518685749 -0.11031597776476079 
-0.038598757608502628 0.014800567982944518 -0.0078919006509546447 -0.16556927557880524 
0.15916552031017595 0.20428470255241993 -0.13221088770251013 0.07289747142029282 
0.046844160911760274 0.080871332865772208 -0.35737455485460895 -0.079940153266132102 
-0.038598757608502628 0.014800567982944518 -0.0078919006509546447 -0.16556927557880524 
