solver_type L2R_L2LOSS_SVC
nr_class 4
label 0 3 1 2
nr_feature 33321
bias -1
w
0.25052359001140295 -0.51411022721893818 -0.32446300658961685 -0.24210888246915035 
0.070329573661271697 0.046033975028908762 -0.13024793849430027 -0.10245580966689072 
0.066242309597950716 -0.19364406957750743 -0.18744591727280649 0.083093200152289645 
-0.01684611829959912 -0.0022126207203565316 0.059360092638499486 -0.0014545176516480018 
0.13983701393128872 -0.38271333245187272 -0.47232199580184947 -0.058406029625288916 
0.098510731887685443 -0.058323113279354674 -0.12655824034313279 -0.083263366233417666 
0.071140971661197219 -0.5610353538200763 -0.095836652571060166 0.03629389585049439 
-0.21225790946222739 -0.17100756005208523 0.28255121873871131 -0.010838317648776415 
0.058860592359237955 -0.18729802842933124 -0.12317736130493304 0.0295018511739241 
0.13137303891102178 -0.032671317498492863 0.08643629180074372 -0.45764992928087039 
-1.8627504086479933 1.0725724835136585 2.0174333170098078 -2.86977431305329 
-0.73070150749122775 0.6773750992182116 -0.9540901491898568 0.8287132090992908 
0.82506675464080736 1.079609092607513 -0.97665354489599698 -0.094067165299415667 
0.26406811616372039 -0.56667145292216259 -0.3185839849769429 -0.24282602091749095 
0.38618864333087788 -0.84092474460473743 -0.44274074014631282 -0.3426067960155903 
-1.8241076290804883 1.1349793327139444 1.6799945661431233 -2.5947111441533659 
0.26171109916084584 -0.5889601850698265 -0.28635828037533911 -0.22149846172351406 
-1.8711052867349205 0.64784856553477699 -3.3170073886407474 1.4590120260664401 
-0.04795029390725547 0.092534697049005535 0.033407057276005174 0.045447716438581198 
0.096504658242933777 -0.44048310286905118 -0.50713419236635771 -0.059432646820600864 
0.057201679895136789 0.10542942732049151 0.081720219064940203 -0.19361281005809453 
2.3742150312464072e-05 0.51317730613132584 -0.1553434656129774 -0.012143769531512513 
0.044257130419549762 -0.026417651605398378 -0.080983546993634942 -0.030265947202774274 
0.061570570680578689 -0.060419589008612759 -0.23640593370790436 -0.14079323611561781 
0.062522966755023876 -0.04704711729909633 -0.081373449592836516 -0.062163556705339067 
-0.021484080982659842 -0.35941220586469563 0.06316108917285207 -0.077144898026009059 
0.051700213238842399 -0.018471858418293827 -0.1059605829327428 -0.048652470777927143 
-0.013940237032878958 -0.095940585846001264 -0.024918342071668646 -0.022873912812445767 
-0.00533997445834207 -0.00071898633285175095 0.13472209808727811 -0.023340992357730905 
-0.0084791472989425576 -0.073767169468990604 0.031537034372226394 0.11322670438979075 
-0.11932237461006459 -0.13572102728870128 0.40403860910412998 0.10424945898032567 
-0.028127281359088763 0.014318471967093838 0.059360121567612063 0.051977993574313264 
0.05858834782631353 -0.91974436991165054 0.33508976910054139 0.031731028269382996 
-1.6099336359423013 1.5999465604792729 1.8541394581710813 -3.3345700559296496 
0.09339928839462848 -0.55906364649831475 -0.37642509394653795 0.055728035145095188 
-0.029977555009510062 -0.16609134347901702 -0.017002640035459607 0.032298218442073583 
-1.9413522676312418 1.4456817272039144 2.08638545550899 -3.1608598069798832 
0.09486306369870165 -0.20008137970838352 -0.11579156557648879 -0.066974037994134691 
-0.027481812957490831 0.048777188799064244 -0.064790398020251022 0.0064089113953730561 
-0.13404312481105915 0.31200927526780059 0.47954303671552234 0.22037337741516205 
0.10120011223889441 -0.25405116115683651 0.043449511426883219 -0.12999921307661921 
0.070073048385211195 -0.23951545512107564 -0.13755037694921776 -0.02252317348143865 
0.11624781250090015 -0.13682489631251965 -0.31387856775912948 -0.061274332281961455 
0.087040602184319082 0.10022290520208169 -0.028508661938537412 0.013241111232627528 
-1.7854002012117023 0.17788395224773523 -1.8304695981472694 1.2660993679098584 
-0.1397532084307706 0.33252751498696242 0.63302245207808561 -0.26193853318518273 
0.11289114313477402 -0.30917651816384334 -0.16369908210943998 -0.10956998601427585 
0.1011482161099036 -0.17753149040004573 -0.11081167066244503 -0.093248590084741415 
0.036243200981401047 -0.10481845275865355 -0.081369225970324671 -0.025889723595783683 
-1.3131538704181467 1.0567277674702047 1.2244693857176514 -1.5212214442661987 
0.21383555945964755 -0.50425385922403776 -0.35371609885504823 -0.195908691826986 
0.067569768178476486 -0.064650319399236003 -0.049507021414880281 -0.083710742139245758 
0.13218553137158878 -0.26902899875384012 -0.091182150105586515 -0.16950572678579082 
0.098070844235024296 0.068499323779629251 -0.12421137315042491 -0.10318486041980984 
0.10236850652937669 -0.18095200536614314 -0.1748131516764044 -0.096870748288007652 
0.0079429217782586142 -0.21043391427702229 -0.17315745948528222 -0.013969712216588104 
0.16910389388082878 -0.39296528054733498 -0.24122830110199661 -0.13778506433040461 
0.055920767010805485 -0.055353907622189301 -0.063835500659833483 -0.038267789168053741 
0.084304908268260398 -0.099184122134930344 -0.12044012325438944 -0.060104321931173779 
0.025254082965387586 -0.21612534730827299 -0.0027409292479926347 0.012948733257206024 
0.085945938256648369 -0.21943590797872053 0.0086258770088364009 -0.10735087747274374 
0.071610012809122409 -0.025735399681796913 -0.0074417012014014738 -0.0096422237989897963 
0.056458698644823307 0.15346254463021811 -0.02801636487599183 -0.15489003760258038 
-1.7208777486531723 0.3193675129537239 -2.3532112964063017 1.387504617194272 
0.30785683928804208 -0.97446061426668806 0.44473776587765423 -0.17549320883322073 
0.21078450138971822 -0.66495238004405 -0.3053165257477688 -0.17539987680280236 
-1.6625455187913849 0.34163390078791811 -2.6957422029560263 1.5622618867004054 
0.10705413290737997 0.084031382991696074 -0.80151694288588204 -0.057151140712376453 
-0.096810820724424596 0.00092300235279469127 -0.35445457686402765 -0.26400749429044768 
0.003132960440291245 -0.084944457338445425 0.055144841956187345 0.033252722695236887 
-0.0060408517682584879 -0.09467083499353772 0.00046918083226586693 -0.00027298816994505634 
0.68475092789879088 -0.61682512935234324 -0.34512431905859786 -0.26023021321886008 
-0.039333717807668117 0.2249655731870128 -0.19745561996434702 -0.297629579281532 
-0.09325965699915513 -0.43006202902784607 0.41885484862350381 0.16813576646075931 
0.0054013963532169723 -0.005681961342568518 0.023437319256012761 0.054856671803923986 
0.079979153380415557 0.36853849109279957 -0.0798600740954791 0.060116426617840231 
0.27070396972674338 -0.80280487067886108 -0.18796126136924932 -0.09315396408112428 
0.032772935589983079 -0.37624129270465112 -0.77454676291487479 0.031280886968745231 
0.010665373723515835 0.01019301182820842 -0.046414070851542734 -0.01210546033064059 
0.054068472190299005 -0.17648726772381262 -0.054349692144618163 -0.078830842489920103 
0.10045260469794515 0.2840507559682795 -0.030243913031975482 -0.30850584001836967 
-0.043464597921834588 -0.53830821256172245 -0.0034434583127058707 0.054226134295067008 
-0.043464597921834588 -0.53830821256172245 -0.0034434583127058707 0.054226134295067008 
0.7463245471742932 -0.60149370633751342 -0.07332181921516337 -0.42024115891834879 
0.017108781016984334 -0.58504822301013504 -0.13225050636822955 -0.2150476394606195 
0.017108781016984334 -0.58504822301013504 -0.13225050636822955 -0.2150476394606195 
0.01300825995513091 -0.043703657776574097 -0.13623822478661016 0.0091981565740514408 
0.38692378971464414 0.89805843963365872 0.10493128652303191 0.082233358659360822 
0.026099411297187639 -0.0078172843019045368 0.040812847519017918 0.070391066560581389 
0.66798391329381879 2.1303045656008059 -0.33858619252349076 -0.11440540417005068 
0.1165321141689232 0.155186576108021 -0.16093892096148141 -0.21135331989451578 
0.34075395329995622 -0.020510733409482312 -0.51418902278196277 -0.28267340363984211 
-0.022125909748054874 -0.12055732726148279 -0.47433550090902371 0.2308989483585541 
-0.045710886469398831 -0.01229345111229878 0.063569261715791636 0.038378889310354533 
0.17035350576726227 -0.14288738199978401 -0.24531488414378771 -0.10691915603396959 
0.13174085137031366 0.25563643583348977 -0.0072410748128280151 0.036345769460674804 
0.047198387826441285 -0.028673267372758868 -0.12874318519900937 -0.046854606983229512 
0.096982885342653688 0.071729619351724505 -0.25695267095152907 0.0053424438753422593 
0.092081076926298244 -0.0042845938449342993 -0.0054213147872491322 -0.16851732164752248 
-0.010737960456897788 -0.47617661503870817 -0.14598802540373954 -0.040225663844610168 
0.092081076926298244 -0.0042845938449342993 -0.0054213147872491322 -0.16851732164752248 
0.092497463213341846 -0.081965219270092621 -0.12539961559541457 -0.076324843468897313 
-1.8403390228576948 1.3201616789613306 1.8571006766821565 -2.9329110739050099 
0.057100326367344689 -0.21962772904201283 0.080089435094519254 -0.1454789985248203 
0.34893371539839468 -0.75241382929692802 -0.15754131556081952 -0.21330696054172438 
-0.0005516567947993628 -0.036905522755861821 -0.0025588069564875856 -0.78873756072433976 
0.01392113434880704 -0.50614456867335567 0.13576410766328439 0.033980300444794581 
-0.078922091369649616 -0.2688299680541249 0.13870992771550983 0.31457044311328708 
0.0079930953970029396 -0.045211794281158096 -0.023501772245192773 -0.012951972076450161 
0.17018558788737473 -0.062030907814519302 -0.32176553509210237 -0.12721696666516374 
-0.042852514487360889 -0.024652704535052524 -0.20418093062126186 -0.051435596823961788 
0.03837956632583496 -0.15975997989626109 0.01434932156214801 -0.12518558915121614 
-0.029100395688334085 0.092622358135522553 -0.27994858426994618 -0.0066502415525155761 
0.044067571066745595 -0.20655422958849842 -0.34882816031045161 0.084857500475900419 
-1.7998099086233887 1.0881862449943609 2.0177427808630783 -2.9850592739653301 
0.22884816437727884 -0.44835549242277739 -0.13089330977007627 -0.23938493148738571 
0.057263770613642039 -0.22472610857725889 -0.066120350334355038 -0.062293570498784007 
0.054885453945597129 0.4513106454333769 0.0093977182716701683 -0.049584746182016692 
0.12361160972819302 0.075186054117985818 -0.27735319584368473 0.068350776433994676 
0.039208745630451014 -0.013497731340297033 -0.0087128470259054715 -0.027455721114389649 
0.10041674145242259 -0.27722205021869922 0.037163660539533773 -0.1250634366391388 
0.092260387749685022 0.0090591697440010055 -0.35807192893122475 -0.09295843670929882 
-1.9702526131588081 1.4035548690499833 2.2569505460490089 -2.900024556009078 
0.052056325482348328 -0.19576127307905478 -0.12433930453821693 -0.077491374728467829 
0.083601782187235602 -0.036021002636794863 -0.07762428878641095 -0.032206780786745333 
0.23826858113193902 -0.57798488540463833 -0.32467566650740887 -0.24089665009115169 
0.1143205379678916 0.29670920645928184 0.32968057007762491 -0.077166055185708085 
0.12286396568952873 0.11246533813039281 -0.11240240708141012 -0.041072990905654784 
-1.848462991739839 0.4692087355085986 -2.3024872747139122 1.4227742397893128 
-0.02117318039559013 -0.15652078221206214 0.17949736719636078 -0.029438962473079908 
-0.24641648719559933 -0.81549856528239162 0.59270917300820614 0.19380307318739198 
0.061018657931578055 0.061636292502934627 -0.10193492582558777 -0.089027916348016004 
0.02416635406060523 -0.093800107251710396 -0.12765643132513876 -0.016120456395128345 
0.083150128556764513 -0.0058013085173166459 0.0018248489766676261 -0.49768211619713637 
0.097367813221895985 -0.2613840104523773 -0.016969094340135937 -0.12185776476675816 
0.12626139052229354 -0.74777436972763012 -0.17743016577234028 -0.11698192261535807 
0.025241500488726559 0.15672661668839857 -0.015330716321423132 0.010083969511696489 
0.1519924592769161 -0.41718311895745286 -0.18620662755663672 -0.093911798266951452 
-1.6836462453380086 0.24256487038075147 -2.7347826906132848 1.4251412939805284 
-0.00084021334367770373 -0.65559805161998241 0.053394777611259735 -0.043131552807923038 
-0.0017546666250686238 0.50393791100368235 0.29961660621136404 0.13637883776974438 
0.16266115435149847 -0.1506587142414878 -0.13323309784514462 -0.08217088762746845 
-2.0196056812572296 0.58354721615803729 -3.2433626642568827 1.8137540826732712 
0.028958700366494481 0.043005410790292499 -0.1687451584737297 0.11276390941740533 
-1.8999889265937844 0.53554595760182755 -2.5731359305028283 1.6195052348145107 
0.22839978038625527 -0.83373734900749341 -0.10378228207188356 -0.42105830769595548 
-0.2327280959662294 -0.17346627243150461 0.13557477332470122 0.023621210041890495 
0.029203904169745543 0.03942705284420573 -0.021312714940336819 0.012703906754922639 
0.14960042507443461 0.057514928968817325 -0.55228405830631822 -0.14683845211884525 
0.072091816548855492 -0.33921127441566395 -0.14726884488231964 -0.065011228577662242 
-0.010854560609677339 0.067771019488811077 0.15752615682511517 -0.25162012590650062 
0.047288604993033778 0.068961296649734952 -0.30887693509143221 -0.0098842243911571592 
0.10837682995171201 0.3590142223826609 -0.77798742745803873 -0.09030943497963477 
0.061778218411049982 -0.0051072708972203836 0.092329418432080104 0.015834192053523703 
-0.040799704012891694 -0.42892765357812196 0.29231302980933205 -0.16934558901668828 
0.021826347951250748 -0.40879176850255172 -0.18028663228843317 0.028567555324631719 
-1.6293275175360877 0.30278559484435896 -2.2311914513343032 1.9866925001749731 
0.12868166156868258 -0.16758345410008668 -0.11181082432168923 -0.14044551477229622 
0.2845351203984483 0.13714370620862504 -0.35182985646907028 -0.3097033149567926 
0.072053595575127735 -0.42423995048844532 -0.18692913415274021 -0.064742134269167917 
0.030093359732898197 0.043612134589906988 -0.12367810053564587 0.056455141393949367 
0.055293253174325194 -0.42529260113156264 0.068884258158038239 0.17161172472358707 
0.15703915559123863 0.11066368610991048 0.15908161677056332 -0.38837634710858088 
0.14457165863804777 -0.14670109904433234 -0.16209715664658694 -0.16956708268736068 
0.052948950874090982 0.083963922650868272 -0.092338753952427813 0.063912454658369561 
-0.0061515134728654212 -0.11437916837651424 -0.018630253794975765 0.0064912012338667058 
0.0049885486380278152 -0.0076124161300283443 -0.034899110374899199 0.014116361859747607 
0.17282292839551194 -0.33806613960586168 -0.67496265970113389 -0.046874253538348482 
-0.030771577840910433 0.12917856889374191 0.4953359747016054 -0.097857135301461756 
-1.8018748856197964 -0.36152291507183643 -0.96795910103342842 1.1939945389660163 
0.0809033935762834 -0.18552731715787296 -0.15040112000050748 -0.039932791259837987 
-1.7422524561731985 1.3648901900358414 2.013952543533764 -3.7425909941061244 
-2.0178521687665096 0.21856806252948943 -0.57525055111719903 1.6670050211951459 
0.20177360600913249 0.18845305572731846 -1.0545798352683193 -0.27138532584150854 
0.21032510542031077 -0.24873559739531412 -0.25702579694531497 -0.096358926269633285 
0.19458370783616052 0.60253049818288595 0.27193885224956016 -0.42853483759899125 
0.15724938301058874 -0.2053066456820106 -0.12870670018499861 -0.22897049054931612 
-0.037275965571890848 0.092827560511543186 0.047690865616689344 -0.010744738660254674 
0.057181440399654275 -0.0726537293936243 -0.19935272043585614 -0.053904777771909183 
0.024909834358851149 -0.40979379733087956 0.018275371276249106 -0.052820585265292583 
-0.10119063655642489 -0.011312059035318393 0.096863302631844173 -0.035972703905415696 
-0.27492328702883906 0.98507587478365022 -0.0030619705293658747 0.63941202217215587 
0.064788891149668279 0.0018579680222212342 -0.15901206490077741 -0.035825597737939564 
0.072977445662690044 -0.13688101911663084 -0.06647061781161627 -0.055985879042273153 
0.17770806998837402 0.17077089419216174 -0.28489732814035273 -0.092484406439833633 
0.049876560587904968 -0.13094377473683394 -0.077018038520323351 -0.053085949245550851 
-1.639978470673904 0.10733090872510527 -1.8895243494021974 1.382366456283306 
0.15650693177186262 -0.32543137091302393 0.46805514156712358 0.055503030448316337 
-0.061111005572136959 0.15359043145319728 0.14646529391913465 0.057625395550684438 
0.033054255147681566 0.44633364503438083 -0.036463449985942559 0.35285477944052662 
0.042610161363930595 -0.22781956051229832 -0.02520020043129681 -0.016460235281827655 
0.076772903239045495 0.022584391120704497 0.058937914087021287 0.040486236594003522 
0.19136614390688067 -0.14997233676162047 0.19810187963271098 -0.75351710144412953 
-0.11866037301862251 -0.14324547393860271 0.32508630257078946 0.22136503425475626 
-1.7827368474830143 1.3590866917075344 2.1280695148011395 -3.3684529451694729 
0.064463372965497936 -0.30971895116137255 0.097367920931182586 0.22154946727340616 
0.085020981012575714 -0.087136996124570307 -0.075159934311021678 -0.13778729319895655 
0.036334520260746871 0.01079970258069405 -0.20756490411493167 -0.028754081488575885 
0.12013453215864303 -0.20344440224704219 -0.30078292636206633 -0.018536312087289675 
-0.16098204752655959 -0.0057537285721279341 0.043128307317827699 0.028123733289686204 
-0.10541390424331945 -0.50806601235923377 0.12736733576556886 0.37405726640640469 
0.079272418855021398 -0.067078195154640557 -0.095134400893344656 -0.099646933713843103 
-0.33317235802286532 -0.47003285689841051 -0.0012030807735728954 0.34449379392387125 
0.26099070478693698 0.0028699123626993034 -0.65792580664894817 -0.17699063136534343 
0.1461198097563276 0.0078966704379330125 0.012284962937854752 -0.11688609501077657 
-0.0042864220372554433 -0.17063798520054238 -0.089340533196029803 -0.034837265687190644 
0.23385401036961606 -0.73199411465007902 0.35737862334174569 -0.35074491565973337 
0.15840848364348925 -0.16436778370231578 -0.26579698866066909 -0.29100108485381693 
-1.7883792320155387 0.45633245125905408 -2.1921586698256661 1.3605378788385001 
0.080633644432453896 -0.22304603062402739 -0.076919990205002814 -0.067904796130135919 
0.166172706876208 -0.89412808993633974 -0.45217029026756306 -0.27250127666786678 
-0.10786610395604025 -0.01034569679130487 0.046662695198158327 0.090427183034526459 
-0.11783243501783155 -0.44308210796553238 -0.097400331017689051 0.16680082351745162 
0.11764876213905111 0.087622417671745931 -0.32966615836268054 -0.078069274081581902 
0.11912051607880236 1.5307436433321211 0.024077625284481263 -0.051094603943950517 
0.13478128974650863 0.32475303156270663 -0.14736401517677494 -0.061853936996963427 
-0.067467781901277751 0.0063077664304285637 0.091336675483336224 0.13140413499230491 
0.031958160444805317 -0.71740199887196776 0.017769018239039917 -0.032057814086339578 
0.10534170955503741 -0.4341227237734247 0.023403532145874928 -0.058766407924370961 
-0.028470962518196259 -0.11874488982925717 -0.010474765561867407 0.053392858503642816 
0.072789482083007659 -0.12667161675655186 -0.065050092549294808 -0.055900861036614881 
0.014650509544539635 -0.029291223974837473 -0.026140643830251914 0.049449570311195359 
-1.8218573178240254 0.62436595222465141 -2.1380871904028318 1.7646909053485469 
0.41326715633401478 0.15665041311041072 0.0066059877303007043 -0.59450792879388692 
0.48619416316643804 0.14556711668727085 0.013659929280277119 -0.61353373731550942 
-0.09576133454177875 -0.18195963918142738 0.017801067868316638 0.031244015379016409 
0.098660948720997871 -0.37054501844926224 0.0058824789731838946 -0.33776902877694215 
0.045699571048089568 -0.3373472256020843 -0.1500194482130448 -0.048827351631968732 
-1.6094834786929566 1.4605532728861452 1.6444338679563897 -3.1265635389738926 
0.41326715633401478 0.15665041311041072 0.0066059877303007043 -0.59450792879388692 
0.27089151292777286 -0.0061504325973756411 -0.23794443114226738 -0.33809396717280837 
-0.035929737282579706 -1.666878398086193 -0.056906266086687002 0.1071603303063241 
0.011912709526818277 -0.24322212759424758 -0.16372801311052373 -0.090899722322223223 
0.093376029891050955 -0.32742131467594138 -0.12697987651140602 -0.043757008320077277 
-0.079523054094758003 -0.03366582834787319 -0.0026682954565582003 -0.12714102787948703 
0.055225209616738685 0.38271218424289438 -0.26191147764063655 0.060684609340876716 
-1.4132926107827266 -0.18025859602769317 -0.032171558174767884 1.2683796293659113 
-2.1431413736778433 1.5091059633810286 2.0951891781770557 -2.7679567093610831 
0.017128442056301457 -0.9622553498622729 0.11495813741531806 0.1231691067795378 
0.021807255424658806 0.17032331620587651 -0.070360660622147006 -0.0014471453133668901 
-0.028586887948708201 -0.0047479017804213652 -0.082692254116661659 0.53455476505021748 
-0.0011099719432439842 -0.18775330856118316 0.22696872634300469 0.010462068652029727 
-0.097734453011212502 -0.16951914843266919 0.13220238874317505 0.089140435398698398 
0.10977602517696 -0.11522234732810102 -0.016204798974684263 -0.1364615677401175 
0.092188663520027664 -0.11029557298624337 -0.021585185528446238 -0.079593264256957397 
0.18857035907097969 0.016259703793831799 -0.053817675207293483 -0.08950539764574772 
-0.093920470608010093 0.048603325491125865 0.23717789932469255 0.49244896923231696 
0.14917373483329144 -0.074512183523444381 -0.030315119629409807 -0.29369098057633347 
-0.0023717001861221533 -0.21450242124514224 -0.034240044597493094 0.008799586427750054 
0.27168504483636402 -0.062655249574168348 -0.34339790931231234 0.10338807974841056 
0.054466704559783558 0.13155764519220509 -0.61062982975669511 0.16283730440881061 
0.10215561090935353 0.053509629509330303 -0.12807878480160151 -0.18531016803536776 
-0.15987907204099527 -0.30570529288888026 0.48842161443958687 0.25810613752413003 
0.017141977580829436 -0.046903801207821859 -0.098656835148156763 0.00072760053538326736 
0.55699410042019293 -0.039767409007659058 -0.59957003316160051 -0.62736535525669157 
0.11585322180016991 0.079890066619965491 -0.16653325837394906 -0.067200618172977428 
0.13184887601101861 0.32407788789438041 -0.30228281208551921 -0.15353437302927153 
0.0050918089083681894 -0.047361946961060455 -0.36073829270930469 0.11736109290833679 
0.040664062095245979 -0.86701811915907157 0.30263161036294306 0.28839883684410911 
-1.3879259215841597 1.1577531979465854 1.5667458548818856 -2.7079225231763338 
-0.019040201017696448 0.037948259785383714 -0.072881784482721076 0.058783755322451947 
-0.035357537697456198 -0.45758185082487729 0.049572280040289796 1.5617862317061668 
0.18232108126796034 -0.13754144997720744 -0.16749728363515157 -0.13999405341479793 
0.14757626316475864 -0.40553647057588804 -0.2637685231075747 -0.17746538160772035 
0.049825182130009714 -0.30762000698449066 0.0046028824080391051 -0.10212931503817954 
-1.7707341076966845 1.3822105778580196 1.6751000620866425 -1.8255532369472651 
0.013551133831151377 -0.3900298179970591 0.013893560221526671 0.06746236132752681 
-1.8666119723357881 0.31897796097595016 -2.2796072007797159 1.6334297356899872 
-0.043930247590293625 0.14695857379468896 0.084087752222716541 -0.038617822700811273 
0.1180861981928775 -0.13532765013501838 -0.34779842684453255 -0.031415184867851526 
0.067088472401639815 0.43481716224552941 -0.061722956866686982 -0.071541493558383726 
0.1720474968063305 0.062891221861575364 -0.080374504240733669 -0.12651654037278495 
-0.13284869492852985 -0.1305872011000852 -0.0038086351688055593 -0.14796357591797715 
0.097021724044002888 0.062817112279892312 -0.18609904956519452 0.047205705153704994 
0.10849774169590906 -0.10010396390875019 -0.061420442585167517 -0.058702968108031717 
0.11733907755415568 -0.42802762580162523 0.18382334598081637 -0.07819376074837385 
-0.037157119587259667 0.19117426538250137 -0.19584021340713847 0.03713022233205051 
0.092151827116284862 0.1167513178050277 -0.15957180579019944 0.017358464813892478 
0.02123559122643727 0.023658763012992079 -0.027260581275846137 0.0027282826283731576 
0.48844072875890771 0.58881916179124261 0.13221008010334509 -0.1486466399010678 
0.12940710228419697 0.03989591060275368 -0.0038992821232149769 -0.22821706163771172 
0.11008473972261307 1.4929173400985618 0.061372783876847359 0.081958608348049078 
0.066964696244879982 -0.33322652489346338 0.43298200310397245 -0.13561378052338915 
-1.7091113435431731 1.6708423151194864 1.43953284510135 -3.3329782541018909 
0.1837737875269993 -0.62486068434693376 -0.35637239707411772 -0.47899718140023095 
0.015064046262466485 -0.20465037083950832 -0.043345749626586313 0.0053803416458049619 
0.31876016793965406 0.32336218978348874 -0.013002388252080832 0.19802262117794592 
-0.037002624482200777 0.093626025668827842 -0.12011164331457019 0.024169733369286572 
0.16148732161310314 0.057899677483352369 -0.52228230390686969 -0.28746949736388683 
0.14895161625259357 -0.63932244975925512 0.086478025393050967 -0.26742611949407979 
-0.24901894212428621 0.016018625631485317 0.61974734046017788 -0.60788988123283572 
-0.015827790253078511 -0.77834230832709927 -0.42069017209425852 0.15777784614042034 
0.21734057803850482 -0.42702900356132267 -0.35853668400694216 -0.27537972365918645 
0.050568093019800246 -0.40040051078356587 -0.11703190936714232 -0.12796195396443649 
0.13094077465635739 -0.16010096310130462 -0.18798315180386974 -0.10106087124041511 
0.5557565450170221 -0.49663701360169699 -0.34103932469937925 -0.62778256410809896 
0.23062362242689427 -0.20134133029706497 -0.0054455967217918455 -0.22338055384192751 
-0.058323372634256743 -0.49866619537650769 -0.018837582997042614 -0.0037321190754909805 
-0.020028605990216254 0.095007265082464099 -0.052475734356224338 0.10842911679375108 
0.23113450088857573 0.10188174015968467 -0.21792997320146376 -0.27301485158920236 
0.23449781868414654 -0.073649619680864906 -0.0079589313860362713 -0.89867954104030345 
0.15237948620849695 -0.8165059232062154 -0.69745589480264181 -0.25246885929167018 
-0.050834122717516299 -0.3041263489747395 0.0091429470985824185 0.1585170584126489 
-1.6546608117585855 -0.10598349505872245 -0.75278758041838667 1.6157691780579215 
-0.091056238251324542 -0.18630730788066321 0.16665550803178214 -0.0081979010130381613 
-0.18884174086243488 -0.0029546686869774408 -0.0085325792963289425 0.07908154142723528 
-0.40691753921516388 0.00064338883952530165 -0.00080054416933053704 0.49130247404939825 
0.0077925387092037876 -0.52335533106635757 0.21049019253907528 0.068709738488906366 
0.047350275727619351 0.13625165684163601 -0.078392617837725873 -0.054424406295582095 
0.21819774658650737 -0.13371096094282248 -0.15862323282924173 -0.21718651373082407 
0.18303131463316669 -0.66383671087684526 -0.31016456441575635 0.13081703688866742 
-0.014570060728169784 0.10395377947630062 -0.05127385548510377 -0.098507630697047502 
0.0032952893179046538 -0.13222207979842263 -0.24178490895164712 -0.0447413713317108 
-0.044815242816622719 -0.31853491140592727 0.0089954782508970127 0.024998913339283294 
-0.044815242816622719 -0.31853491140592727 0.0089954782508970127 0.024998913339283294 
-0.044815242816622719 -0.31853491140592727 0.0089954782508970127 0.024998913339283294 
-0.017473929566563448 0.10799451496753967 0.11462841949481031 -0.023167981938606398 
0.15956799784664355 -0.35107530000821546 -0.26459801684028389 -0.1639123843567899 
-0.044815242816622719 -0.31853491140592727 0.0089954782508970127 0.024998913339283294 
0.086148535161778103 0.1424305760805176 -0.13527974915861554 -0.055811780356326141 
-0.33382838696550721 0.25444733159844224 0.84082307714664783 0.35664015989042436 
0.061090492174825817 -0.1184567933555466 -0.06550011097410241 -0.12724633334329818 
-0.040363339115564036 -0.27240419838081942 -0.043974313894797987 0.12217255157327152 
0.1282151179672244 -0.0036317440702799166 0.011347619195114456 -0.078897158002178447 
-0.049399081194623919 0.33118363086196967 -0.20777606948971686 0.059473063648632835 
0.13442424944117293 -0.42548888305912097 -0.10607744989723564 -0.032329059655003746 
0.13052433832586754 -0.12858269838814734 -0.09222739618014883 -0.24023891341649292 
0.027558531037618593 -0.58913972188471897 -0.18220766651383727 -0.046022324096708686 
0.15487335003680514 -0.47973141022519916 -0.33531610139771417 -0.14868861951242451 
0.41868900965502731 0.067843004847280355 -0.20739013799128161 -0.64166806819716105 
-0.069941406759233535 -0.0079655609211486417 -0.003633812352053868 -0.0033750629087889172 
-0.21325737012281418 0.023762229589321032 -0.005505114874742166 0.064723237847398002 
-0.1686323744633865 -0.29911196411725371 -0.3346761748187787 0.062805165974326657 
0.12149941032484649 -0.097139214822810419 -0.064995979489133576 -0.097378280992310606 
-1.8914200773290202 0.10646881910768648 -2.6319082195139649 1.940238381458536 
-0.086200682118290795 0.30239108003401211 -0.00050743102233780091 -0.10375367236687792 
0.023051726855766102 -0.18246493953308687 -0.19413700994121874 -0.04116069027859031 
0.62729905771531747 0.23337098770247783 0.42143057812013296 -0.066327106035958927 
-0.020209788786105486 0.47598898696705838 -0.29444172414350306 0.050878972439154013 
-0.19386771625644422 -0.52458722160877624 -0.29940342992990554 0.29114699133001476 
0.057320804895017563 -0.23755836162011662 -0.037168370493086356 -0.084956336019219633 
-1.7984184215294217 -0.098992033468101065 -0.27318035986359879 1.1067770937530268 
0.31393636375143991 -0.34706815090935633 -0.43988224629326639 -0.26273573607529016 
-0.027296364236872629 -0.020882698323371651 -0.071230936175673193 0.056923924667979284 
0.10630308155828655 -0.33842883331735163 -0.12895380683086322 -0.10278089643242005 
0.12190598587164285 -0.82735592164760552 -0.12053686728379205 -0.054948345244191232 
-0.15905076067675211 -0.34239933894030983 0.17400220761534829 0.37423310489722317 
-0.28097999214830327 0.69530497459777663 0.075351861224853572 0.54918366606354108 
0.07579290819343204 0.09277529844390231 0.034248869833515529 -0.13772403529527583 
-0.065870689462020765 -0.22316927569245298 -0.1865680687811509 -0.058449405655387907 
0.23537881141573694 -0.3643362496754714 -0.29203388952950843 -0.26088067319525887 
0.21662991653267816 -0.64564907208377653 0.14140141401511691 0.38043653147519907 
-0.23774695217116412 0.088729790478292617 -0.18805758164944861 0.49371831720399545 
-0.027212271837553106 -0.50346358033128946 0.081026991585601144 0.50831611868688642 
0.065189407415907216 -0.37492548078378468 0.1586831744562941 0.13220811874888269 
0.72535173715664847 0.044545504410890446 -0.055422826649815987 -0.36037861872428939 
0.57266878868463633 -0.41641887680883066 -0.0011065928020631945 -0.90743792337402862 
0.74500402709648395 0.054914709165445219 -0.0033992737899577177 0.013799383933210306 
-0.044570960522582151 -0.097652914170266045 0.19079030995505875 -0.021984093368743789 
-0.19576352962244375 -0.0045605210642393895 0.50108331528540906 1.1658833658783654 
-1.8854205365331276 1.269619471172057 1.9203764025715775 -3.1196935267229948 
0.078094802848137065 1.0247852384996059 -0.77810317791045969 -0.1060057562926196 
-0.43944182183808306 0.047849861877101413 -0.26555093662458529 -0.026561425280170109 
0.098598867120382849 -0.30807121882196942 -0.17470438809494007 -0.066242006123817518 
-0.15833356968045803 0.49537085900120392 0.24763130092709479 0.25339126878594792 
-0.097188711785891779 -0.13464356021336815 0.13729697061887408 0.16579165547944499 
0.039454909146368101 -0.35809720572525061 -0.024850404300546226 -0.024163398826907212 
0.082448138539540722 -0.036407369012089803 -0.044935330771462223 -0.16265966452100492 
0.010671120378064676 0.30550903485699415 0.031537182575524521 -0.0081225426110570487 
0.066618074223644755 -0.20514188241010556 0.026237235288060073 -0.062989893855309551 
0.017356873565716951 0.0099086573308854939 -0.040557101029155808 0.02194264279486494 
0.019234288126325886 -0.047316845048278003 0.011824455607329778 -0.038967853879721424 
-0.09209524540286311 0.39455711300699337 0.50678057847267499 0.28696990910170839 
0.1256549994000592 -0.2439207846969402 -0.11855354757722014 -0.30206470946382608 
0.50940635682140711 0.16106388676850525 -0.44506730795469707 -0.38251904513865059 
-0.17857626684529027 0.29499605389002725 0.057333463019337727 -0.030360297541052503 
-0.17857626684529027 0.29499605389002725 0.057333463019337727 -0.030360297541052503 
0.20114073585010239 0.15469788952009095 -0.28794864449437685 0.38861567844601486 
0.30970267304742566 -0.25209402752452847 -0.2526395146848972 -0.94437733770004717 
0.043490411219156089 -0.90491817718345191 -0.08096656127418278 -0.047271816107433182 
-0.2618037188524262 1.0270213273779727 -0.03072377734029054 0.69089857747176442 
-0.033946748608703947 -0.10640088667640618 0.0046393590204161159 0.00074136364162312018 
0.17424385368167727 0.02333553588697463 -0.15224076072257953 0.00042061528331228948 
-1.6634947036279457 -0.083075238359567288 -0.76039957249743051 1.5629371466846593 
-0.033946748608703947 -0.10640088667640618 0.0046393590204161159 0.00074136364162312018 
-0.021077959463992164 0.19666884080388286 -0.14890669173705107 0.11381905037622844 
0.20105578511931876 -0.10861868850162776 -0.18049904655003596 -0.60135179954790952 
0.41574279222450761 -0.60062391163103368 -1.1725592407312124 -0.23640643069859235 
0.12881040806513422 -0.1945645240728367 -0.20495912823801707 -0.046333944655432224 
-0.011084366857869697 1.0985995199945333 0.0040559877556812247 0.029704200429378672 
-0.011084366857869697 1.0985995199945333 0.0040559877556812247 0.029704200429378672 
-0.096833057334079278 0.32889982635449788 0.19005039314221234 -0.055373172405579582 
0.095828140939514694 0.06242576122590178 -0.27928941626967224 0.055984367483619402 
0.30595078443627066 -0.2794181243620612 0.008501394480335836 0.10368679222550434 
-1.8538537940189559 0.48566078853723776 -2.5906974030353132 1.5740455753742664 
0.28969184679731746 -0.84538568453743346 -0.19842033382029758 -0.3606834327143531 
0.083659667427459256 -0.39010446368343399 -0.35543092241041674 -0.016678789151774315 
0.092127236907244558 -0.54841279573803536 -0.10930062494029409 -0.012829410062499824 
0.023265988578322849 -0.75112797728567327 -0.2123523224369904 -0.21241639475205196 
0.012410023674922822 -0.35589048874652462 -0.070720779501525208 -0.0072416898136866241 
0.10560622124308267 0.013405418092920141 0.023718248839679254 0.17319794730562202 
-0.025406291048023388 -0.40878602418655074 -0.11234655820485889 -0.67722108160355865 
0.089988734118972277 -0.40443302673142295 -0.041088144692662233 -0.17324043083920707 
0.33914035388911978 -0.042073912897261687 -0.46484409523859754 -0.23828396656996606 
0.11874016288194184 -0.5835050986028707 -0.48097445324287824 -0.11316875518492306 
-1.9781040354832358 0.46265454259607086 -2.6026955927686219 2.0091890006964443 
0.0096969573476155674 -0.54852358136535018 -0.057027454653594954 0.108864875540051 
0.098837775388197671 -0.232481609218364 -0.18990819696240702 -0.13371416570677314 
0.11785629225881297 -1.4881788485203709 -0.93120045328875123 -0.012504063304382057 
-0.098280780248481553 -0.57973544606283456 0.18135987383761867 -0.11574939329591843 
-0.11166871228746642 -0.61556988717478689 -0.003780626316713975 -0.015577592592331935 
-1.8835293812830867 0.79282769828035982 -2.1319147871888018 1.8106138846204991 
0.10636971749539664 -0.10601627624672491 -0.13504820009871063 -0.14836767674583834 
0.038532122847571779 -0.018620896907712011 -0.44049700011360127 0.073100309636822375 
-0.016003151061301176 -0.11929120350282646 -0.13802869677308 0.061060737649264112 
0.2630974564211937 0.81223857071537675 -0.25508253586663665 -0.23324979807319884 
0.1184517940971048 -0.43731523216386681 0.30304628818892321 -0.14611447596803984 
0.21962885181434494 -0.39420784245992835 -0.075295924064299885 -0.25129527813713332 
-0.0024015308911291312 0.030309375728893095 0.017965439645993259 0.0023142993473284855 
0.086062522057475527 0.38276137347691541 -0.24543335899669477 -0.049158608471624343 
-0.014323446403423225 -0.20349330418237341 -0.060848722466509346 0.012085533400549724 
0.15358386621828415 -0.20880892590753347 0.093266287439064566 0.15578208060194923 
0.10794502185455519 -0.37607314781026996 0.31669819350809075 -0.36819274894394244 
0.051943672952555073 -0.17566575284815958 -0.27339322234765218 -0.30317494240366449 
0.15883062016750882 -0.28892408516589418 -0.17540461663630447 -0.11410432397353987 
-0.054150417919288124 -2.2834434514416935 0.023422595930915349 -0.14264891583432421 
-0.0016817457068980732 -0.23674156266442817 0.10435789018824349 -0.0056690447985869689 
0.21770606491188382 -0.38208262713511643 -0.28111288956428115 -0.12956068598774906 
0.02595141242873579 0.12685067811086009 0.19048090803918277 -0.17601228118531595 
0.22591678715379443 -0.73551375908916927 -0.15308639537431745 -0.27290970067952436 
0.30391940214972257 -0.13732116811525669 -0.76155094852069005 0.17842188466606643 
-0.22780522988157093 0.049830690426975625 -0.00027570005729960325 0.10956843966483126 
0.059591728425270746 0.76020856892010591 0.45186491917664079 0.4574606418290193 
-0.14151683431336903 0.31777052173127818 -0.54068210335890576 0.054662682574757843 
0.22432051986534485 -0.02800606097919494 -0.21958045229325096 -0.37681239415021328 
0.094460390449842085 -0.27868496621350725 -0.13898638064070504 -0.026297910511011283 
0.03329215832361862 -0.04229044520956763 0.046651914903372026 -0.074792229119605161 
0.067976112931769944 0.14401964459612313 0.090822454065866337 -0.011569368714480666 
0.11768626660040937 -0.27316247860904264 -0.09490497042738566 -0.094178169522354166 
0.10518244789036307 0.049113955976462814 0.27789344972373869 -0.056159490728790562 
0.10145989378457831 -0.041563020993041003 0.11711881308429437 0.25568900332963518 
-0.12018089751423902 -0.3356728173869068 0.31243392587450114 0.21481114466928564 
0.31331413192807356 0.40910889985720073 0.28189612775013717 -0.57939305839088973 
-1.6133970419622297 0.57144857239473124 1.4998331042714952 -0.79807796220595484 
-0.099201613260844923 0.21570990187457081 0.32494402625040675 -1.0934901050449355 
0.0046444319896870034 -0.22656113188500659 0.30297892048695402 0.22535558132193481 
0.01066867440008068 0.18500699754353278 -1.0825420032851722 0.15752805871099146 
-0.18131713385548387 0.039177786758078689 0.0091319913210652359 0.077089946832644057 
0.095420594563736805 0.015503764582328682 -0.022676708732476333 -0.089029556000240095 
0.051829486056327707 0.057382063381523893 -0.17996834289459399 -0.032380181690635335 
-0.0053244320715949006 -0.30492204147155322 -0.51972562948128886 0.13197846168605259 
-0.032526032660628118 0.83839031074079762 -0.016858429632289687 0.007710504579502734 
-0.035400233430426656 0.038090283688477167 -0.061027968543431385 0.042797977084827771 
0.026966447235168334 -0.31780079991484439 0.17741913133091186 -0.078223354504515674 
-0.03827733215142981 -0.28093543881292615 -0.01604652018596206 0.52023871733084193 
0.046331062582899624 -0.075520553027848755 -0.076724743625562697 -0.016225108511377144 
0.19131208125154014 -0.4991569287747023 -0.27251139782466949 -0.037751705974785249 
-0.2659375884593021 -0.010384066331448605 0.00090590470920997907 -0.002428743221898344 
-0.19502786479920553 -0.015079634833541779 0.0013066217297915709 0.24607791716268718 
0.33603308035030627 -0.38943937601498491 -0.02418062641520612 -0.31482266570460915 
-1.334893021353293 -0.47915960309921302 -0.84010127581938465 1.3778747420718422 
0.21696668180374523 0.30541885436420985 -0.28789673834881013 -0.23127055876734059 
-1.9158646266740864 0.59263269126539542 -4.0441012456536214 1.7452255674778048 
0.20184113728337516 -0.27939661980909247 0.0049438893795679256 -0.35476150395947065 
-0.049383610188782026 -0.056046961838850919 -0.10925856225903965 -0.0013045283775022926 
0.29335339774637031 -0.6966790586339624 0.11426120733363929 -0.12573808580871126 
0.070873611949850923 0.063445860832834045 -0.25690227375578545 -0.056318254688464575 
0.078278433559599264 -0.38671997023747512 -0.18901250971349481 -0.26682485585358179 
0.096867799204391369 0.2769967558271671 -0.23767040975389941 -0.091588887641124939 
-0.12282765125926953 -0.37218852628242965 0.24935000945614816 0.026860534447038745 
0.075381135323899645 -0.31871149622648087 -0.053299002980933305 -0.074480802128978563 
0.061819160320487454 -0.42514917098430921 -0.18927924117059691 -0.0091471528607213748 
0.22531623250346045 0.15061318669110918 -0.45259164289931736 -0.16884892014987718 
0.28807568221269414 0.17554669513277171 -1.2625007857521695 -0.34195028174346076 
0.037239671376021632 0.22403289435474255 -0.14916586604073884 -0.05405601895079775 
-0.28750741611713343 -0.1323133108930315 0.0041622705596204325 0.41401013992414781 
0.052586697089204236 0.031864731502240069 0.052295709544833952 -0.19173789609555428 
0.19373225797400634 0.055563881684578348 -0.56558750905106392 -0.1733557765661746 
0.085288000287862611 -0.074810407380828295 -0.27643860259152475 -0.063249820325739517 
-1.8445460760324903 1.2745699757482671 2.2714982551138219 -1.9735481903890244 
0.27607503656956822 0.43425843661324537 -0.25896684984617258 0.014929875620979249 
0.13814239970850706 0.41499551119720179 -0.06927124690763839 -0.36751196222948618 
0.02519666850511762 -0.13791258491605202 0.02403966574000976 -0.12136226132050405 
0.16215582412667828 0.059089305926263602 -0.038899926688028649 -0.31819535965368584 
0.2107111761290314 -0.034206190628583912 -0.26369034701916794 -0.30925728081263543 
0.46363706766325857 0.24561010861740923 0.022309367809385777 -0.086442108490521363 
0.44503342879222896 -0.069884412995547207 -0.29901382731582987 -0.07512009087001123 
0.13442108094917105 -0.4929016463710445 -0.13501442661439894 -0.13630367766049067 
-1.2787695385823485 -0.055308596790301694 -1.4364904598191544 1.0913720051160567 
0.0039447480179339014 0.49608313383947955 -0.013390754512143201 0.42305687339772824 
-1.7547501489152333 1.1058015903551839 1.8125569327533064 -3.132506660096201 
-0.20877055612341516 0.20863554901967937 -0.41420583038237024 0.15013854169724339 
0.0039447480179339014 0.49608313383947955 -0.013390754512143201 0.42305687339772824 
0.046851688738265784 -0.72281077191191978 0.11043807237528078 0.14792379268036651 
0.026913629944009681 -0.44073127843747845 0.016183328422522993 -0.22453077624108048 
-0.066757633213940668 0.49638403139488835 -0.010202235949948762 -0.21182671082702501 
0.18856350018834497 0.08055607688502045 -0.39964579052091531 -0.086611146237184258 
0.024346869134231203 -1.1486112394791443 -0.1732673199007318 -0.19953473219675255 
-0.21662169002246445 0.064547962428670766 0.41266700187724942 0.064361682676395957 
0.043673930341499523 -0.32019308217107162 0.039678397775012454 -0.0098757511547964069 
1.0326889073766461 0.57756746989273033 0.05085658046420688 -0.50772894067219876 
0.41304547620888621 -0.26380953509625549 -0.49335949285460723 -0.23263536288324532 
-0.088711296922930616 -0.2656600637144706 -0.092312792614440142 0.30292425329973255 
-0.14408853334516669 0.17838324420975893 0.22166044500164617 -0.10556277272326212 
0.14794827014632034 -0.34507999454088389 -0.081006532071459719 -0.12022755295506481 
0.15016343130734394 -0.11239724906730653 0.20116127838614095 -0.51227676070532535 
0.096525467602406004 -0.19422145250478587 0.046604551598582934 -0.0040976595825753031 
0.057299080947631656 -0.5693161197695924 0.017013717017168015 -0.029607252386195257 
0.16654866570858451 0.17274019112964362 0.31397746171883872 -0.018831996276240985 
0.075908553462770589 -0.10678340344638389 -0.05841371280214086 -0.14982075456093918 
-0.023765997297002774 -0.483866648675502 -0.22177337471334235 0.013280170912132815 
-0.062338379398647656 0.17867164455123738 -0.41550981040600143 0.11004590182150673 
-0.022671427703913422 0.22275594268098881 0.059185271195091989 0.067257296738712349 
0.00018172565925134512 -0.030536643534785315 -0.012575307584150824 0.053478103919452832 
0.048499867479831357 -0.13770343827409917 -0.036536767172802367 -0.053577117057188671 
0.19659380641988347 -0.52427378456255214 -0.19600191968912442 -0.11604761667779306 
0.16007526092356653 -0.66458944202688264 -0.10587709888170314 -0.59797870658373997 
0.064211392750038579 -0.017495370747837066 -0.012515808899499714 -0.012273939168642493 
0.064211392750038579 -0.017495370747837066 -0.012515808899499714 -0.012273939168642493 
0.25249914882934615 0.093879760431616971 0.10451608142862995 -0.046863876294606588 
0.15506348552937352 -0.027727907738963303 -0.28184643866748993 -0.16854068205031347 
0.057585441374046434 -0.12451057047619778 -0.3432395228778139 0.074830794587190122 
0.28780164188761603 -0.29831029836261491 0.03183519534855607 -0.20616134052195201 
-0.17142611004655497 -0.11894019937365105 0.10385452537706415 0.22590174421270345 
-0.020845981035045646 0.21820854077220797 0.044922516692456921 -0.017056448431671589 
0.03267152270088966 0.014313416073978763 0.050370067698156294 -0.049332443846093921 
0.063893892809551642 -0.30672823290521861 -0.1231563155626675 -0.089082969511798046 
0.10373400869673045 -0.82989791169056748 0.14606272475543605 -0.71388486093444292 
-0.10764668421370982 0.38673114572030198 0.3587705792480555 0.085627793369567148 
0.067844415577311329 -0.58807183475197022 -0.29207069542347136 0.072681640919227616 
0.026488022816670162 -0.22038911693161672 0.028521557104110279 -0.055953391652515366 
0.13672728286282904 -0.35757429076384889 -0.12735309511280474 -0.083160693913749542 
0.055502641014583541 -0.030338912501796194 -0.011646174139214691 -0.037637682063698177 
0.21498032126564134 -0.086086443543973157 -0.34774361501656514 -0.19035572837004935 
0.063934044249391711 -0.61953289439711257 -0.080568123768028271 0.2320837407421581 
0.083762057951462715 -0.20361976188951897 -0.24600666287057363 -0.10853808080286304 
-1.9477386365287837 0.2883063676956662 -2.7574485421928583 1.7144387210477614 
0.18701292760774554 -0.39406227713200903 -0.41527219557235817 -0.048799929419048996 
0.25748540480441268 -0.41594893213268713 -0.15587375556239508 -0.38083650253290052 
-0.099470690413006407 -0.47689465104385531 -0.031142182099442695 0.74248426190763817 
-1.8634125739101881 1.0761369125584113 2.0681380724438201 -2.6356017151461284 
0.039424402008587503 -0.23089313624827901 -0.18919487131381962 -0.0060826384848415294 
0.19911404573313185 0.0034743927063297488 -0.11875419408498314 -0.21259832515369784 
0.027302065068384215 0.045022738459256931 -0.38586666550702975 -0.079357833995503585 
0.19911404573313185 0.0034743927063297488 -0.11875419408498314 -0.21259832515369784 
-0.0070371195293166336 -2.5909929132365543 0.28479752092562921 0.1378375496128032 
0.19911404573313185 0.0034743927063297488 -0.11875419408498314 -0.21259832515369784 
-0.21120230347278157 -0.29770358947282149 0.14385080819416143 0.040873550755926802 
0.22484341080282405 0.066712197137065429 -0.1577775521432398 -0.18362002387184659 
0.22484341080282405 0.066712197137065429 -0.1577775521432398 -0.18362002387184659 
0.057111674514323925 -0.16731577742138259 -0.00021408381312987279 -0.11600993135926113 
-0.029024891104421441 0.04760212435429996 0.17071567703198193 0.018514565717361747 
0.43995766953100574 0.30763901952620309 -0.36426676966457411 -0.53154163656121134 
0.012991353461317981 -0.12968679515324155 0.16697103154532605 0.050236333066258292 
0.15383861314249292 -0.008929466922376568 -0.22110894298488001 -0.12339829425115909 
-0.016552975655528459 0.17252508299644209 0.11737645461252308 -0.062830240627052045 
0.15383861314249292 -0.008929466922376568 -0.22110894298488001 -0.12339829425115909 
0.011279771930643862 0.24171510951777106 -0.051614958276407927 -0.00075192371220194482 
0.11588863125146864 -0.080195655049535519 -0.66908098185714526 -0.066658202883809664 
0.031352529228829695 -0.27972075166621163 -0.053028229932515394 0.057190684476274345 
-0.041720037222119755 -0.13293821962340777 -0.0014691654929056136 0.099054760072452591 
-0.17978429846985833 0.32897542633679572 0.64366255323440058 -0.56008010803482222 
0.050323686161500132 -0.62588866982858959 -0.69281374213574298 0.13125207915358009 
-0.67415378088884592 -0.057288636624961253 0.40865365287731292 1.2092635866606789 
0.02086902784445549 -0.6589005315304961 0.011002114477033975 0.209147359507042 
-0.05590015503730085 0.054053599217283595 -0.47093650836208722 -0.11549651399253281 
-0.045546259789066713 -0.35067082219463575 -0.11511930117096604 -0.023264121828208847 
0.090696142342709049 -0.36904316285522099 -0.25120860194129324 -0.13260773535780918 
0.15763878256139907 -0.48942946680641219 -0.16824155132312921 0.032674996933520342 
0.16400021818812247 -0.13803096406156545 -0.17018881654676593 -0.24997427090673482 
0.18154318894398885 -0.63336974317339867 -0.10575133778163778 -0.058259978059312635 
0.097339956446564749 -0.75689073232695858 0.083458536145278511 -0.019131203194893753 
-0.074382037403928514 0.25100262702873899 -0.24259188818781438 0.20991437642627206 
-0.037307793400994688 -0.14622322679715183 0.07231235131542027 -0.021628015664369726 
0.19316816589586758 -0.2905915799515093 -0.34123872632465785 -0.21297161982672391 
0.10040269764915402 -0.0095862525522730693 0.049673439271636657 -0.058503597320808065 
0.11728217998460705 -0.10740833068979955 -0.061905324019261465 -0.073738168069634694 
0.42059403926053385 -0.30679280084062982 -0.12422069651007922 -0.27887851958947896 
0.011253523484649974 -0.42283462511126724 -0.019817699697737695 -0.19071984008054957 
0.017541606127862194 -0.070930239736477801 0.036604614771666079 0.054379149367743573 
0.089420700791444735 0.025496831658862174 -0.18487426566197446 -0.054569890596195728 
-0.095441797570973652 0.24286860375085806 -0.26222877131307637 0.19707832461830971 
0.082312493571483972 -0.055563790098904151 0.33630751977397233 -0.32482779495723757 
-0.097441814176129793 -0.35215328290861497 -0.00098866845963433911 -0.059055715511801388 
-0.010144379230653214 0.14354174955338161 -0.029830098427450186 0.046221467571358796 
0.14153379402397595 -0.15188760516006522 -0.28586623128435723 -0.27704899758732981 
0.36585685427689968 -0.095454743118307483 -0.26546903887418066 -0.17280463495443468 
0.18268312794154401 1.0457410344522124 -0.13426953624025897 -0.18949013551064542 
0.14952758993579948 -0.090997551771454327 -0.14300227161070972 -0.1196757158579399 
-0.062658879131411924 -0.79476266864949241 0.33986353940582487 -0.0341510723564597 
0.044844500766977928 -0.039417916878587395 -0.056438005853395076 -0.090923256609675651 
0.231708387627372 -0.27536648860141072 -0.34103850757585419 -0.13068935201009999 
-1.875429820991096 0.28025134229575882 -2.3219708961763734 1.632050525296473 
0.17386520927033544 -1.1046441277335086 -0.095368725587149428 -0.081042413253755607 
-0.0035408368343022439 -0.17831925763642711 -0.074847032470202329 0.18007649754031521 
0.11871865869062789 -0.60497585463547976 -0.047388977601941343 0.25047213054274919 
-0.087588109028834515 -0.23318917906414638 0.016293645574371823 -0.5255853585402166 
0.20291322690243901 -0.39529783134660246 -0.25874133569921365 -0.17931844255971741 
0.053164164607152557 -0.45951576578377384 -0.20592130417686225 0.052936483206761711 
0.084232235263939831 -0.061864867478549093 -0.11023458045745882 -0.11356129588818287 
0.013147997519091514 0.23253664007828678 -0.34594535076419669 0.18865368186510181 
0.12347541412611135 0.49285642822154863 0.0039194537763569057 -0.089986048561256027 
0.047556498514492958 -0.095426471634381421 -0.032737636191940651 -0.016780597210472176 
0.18564267215888236 0.082923014447762303 -0.17026343572570646 -0.28102833620070444 
-0.0032653505855823328 0.0048776917498426888 -0.71173013787924089 0.18409725011245323 
-0.061624270102544183 0.034831530644036698 0.016460954490665581 0.011351919884576712 
0.030847301048987086 -0.49432947718242098 0.74754904598604932 -0.2008974027124977 
0.045492940359641236 -0.10226496838373071 -0.0049149669063766575 -0.041416109577051288 
-0.04322674597913042 0.34281632212330604 0.18877210573190789 0.21319248777061162 
-0.095156035909413239 -0.0011338298243506444 -0.000655112133967226 0.049486304083655092 
0.10953920216141699 0.037433690757422922 -0.01285411132433743 0.37004742090656795 
-0.095156035909413239 -0.0011338298243506444 -0.000655112133967226 0.049486304083655092 
-0.03804624766768816 0.24453911322636057 0.0017060635061592585 -0.02856130543144518 
0.25595793254219029 -0.34376947646401113 -0.31452301952886608 -0.21455822670564978 
0.02711046231680829 -1.0745781694481316 -0.17213925247388484 0.25930648974265347 
0.096425756814323388 -0.46323972869016239 -0.17540170361189844 -0.086319587768596731 
-0.033509649669655861 -0.89593139146991985 0.0075781789721715981 0.13051595830338766 
-0.28180851459633088 -0.094442876191084491 0.0057201073712057765 0.0202163547307374 
1.1948413513650644 0.88769453532033071 -0.16450153819579319 -0.38153151323144152 
-0.28180851459633088 -0.094442876191084491 0.0057201073712057765 0.0202163547307374 
-0.28180851459633088 -0.094442876191084491 0.0057201073712057765 0.0202163547307374 
0.11851831117361275 0.066455715507198865 -0.27421344164320294 -0.12681381240667369 
-0.28180851459633088 -0.094442876191084491 0.0057201073712057765 0.0202163547307374 
0.074948048910213394 -0.023852615779967227 -0.18432292621056262 -0.038035460252810682 
-0.15846170192745046 -0.02653784262143798 -0.002357490971915858 0.089438626564488588 
0.042879409783173159 -0.15209279938353465 0.054505139685732944 -0.24653004833233377 
0.083079935007641756 0.34252244327592035 -0.53013222069654753 -0.38240052064921148 
0.04839249746130482 -0.19356556247130818 -0.26255470297075723 -0.10045629749677264 
0.12919092335326043 0.24086374128080121 -0.13307773863659617 -0.0061471282906198389 
0.061248960339986606 -0.047350274233825221 -0.089028497977870741 -0.067806786063556779 
0.20666690574336477 0.54134974674279168 0.0053927579987574029 0.041126418676132079 
-1.8765108968472555 0.15500847690469516 -2.3493596538554193 1.5913833355961839 
-1.7398926908376799 0.24658914068341997 -2.2770252288467145 1.4023780458462178 
0.1676215351726473 -0.42844568364835744 0.035713833479979876 0.099104277598037527 
0.039423342189805255 0.30398692896879576 -0.087003115368173997 0.1194182840997467 
0.064488588677477046 -0.056168974575965369 -0.42540559063321454 -0.18924356211336707 
0.062610442818495246 -0.067540151872561405 0.1927316237379979 -0.032856628201697657 
0.1676215351726473 -0.42844568364835744 0.035713833479979876 0.099104277598037527 
-0.074282725598964719 -0.43595558173151627 0.26512938674169795 0.089379702686168211 
0.17099586361606239 -0.55612131359678885 -0.19364440350180059 -0.3166643219918131 
0.13564724396207062 -0.21069853636899238 0.074970453640590975 -0.10488372971061011 
0.23167232515257574 0.55734768841035909 -0.0045108466972574035 -0.31780721429150938 
0.18604344080672114 0.18390245349161935 -0.58873437052086663 -0.53861097793048307 
-0.55381320168208803 -0.43700764341865883 0.24152182484500806 1.0287563143017242 
0.032582135402034668 -0.13724696464498304 -0.058493831071131736 -0.23607178822362065 
-0.027549624819293024 0.73964164377385633 -0.23905454942248566 -0.10006662903339542 
0.577171431510071 -0.45740924254050264 0.07250664859075398 -0.29712890008773168 
-0.082034005270046756 -0.39381314404296114 -0.011035254513025648 0.083420077055065767 
-0.061238790354584488 -0.061180582265540309 0.036748144899164406 0.28016678383679672 
0.14545777564402954 -0.13343506910826777 -0.13589703642737322 -0.15822619914857675 
-0.01001810469955219 0.00029292963899954955 -0.0004805344189745596 0.012730713651729932 
0.05850670602273074 0.044882227224606941 0.0033128557099713699 -0.048666601159988672 
-0.0019849043161856567 0.049391366019254111 0.25648653334512139 -0.10841879796114978 
0.1011244593437374 -0.21571619307516215 -0.12418374068719093 -0.10869177827862245 
-0.12613258427668678 -0.068738476840694396 0.12988914778285016 0.41583393134030822 
-1.8862568792736099 1.6175973012830405 2.0058498748191496 -1.8179439989332753 
1.0677065119326761 0.88541912557261138 -0.4071434194839334 0.71773701073067353 
1.2464883710401842 1.5773774878280615 -0.44118475190311757 -1.4578860501250659 
0.059846966029829703 -0.25778807938314913 -0.44316871960974746 -0.10018754557553321 
0.14015992406805333 0.037021206371486336 0.15288555609772037 -0.012005393274925918 
0.11913004116154066 -0.26799753828873757 -0.099984962033023317 0.15387351186690573 
0.51890293075201388 -0.1321602860224976 -0.47862835313293572 -0.8480853042733798 
-0.057116896932362549 -0.57603604065963465 0.010801917869115999 0.34690968714367532 
-0.057116896932362549 -0.57603604065963465 0.010801917869115999 0.34690968714367532 
0.0040448453513542426 -0.12296590848407474 0.049840810557287146 0.16833205041591007 
0.085908859121914039 -0.20305305692322839 -0.30788356860912769 0.14647337700561922 
0.63224734623206358 0.39869847898833921 -0.63182740404938331 -1.5152059832169791 
0.042649219864635261 -0.31485363793631255 0.002173055707105403 -0.21800334753002704 
0.049731926568823082 0.18039239047612587 0.2953671378270209 -0.11317539420941813 
0.023815746344622343 -0.07844484538394525 -0.063492579361976872 -0.40053835491498224 
-0.049241390056237747 -0.03260534093762528 0.18437984460396833 0.091140280211743391 
0.084992920365637312 -0.13123116765173495 -0.010350506642147671 -0.185255342793686 
0.024174535165575328 -0.13100136844490773 0.035969723665927593 -0.060620418071762952 
-0.14409017114528824 -0.0031464748079717592 -0.00041892951235918607 0.78107355419317948 
-0.28598085907140525 -0.16651082196631839 0.39088430590860052 -0.13703104452431408 
0.18215257310386052 0.20790370931425267 -0.042506894807209331 -0.37411093279463892 
0.30085958906223365 0.0029033770974553896 -0.06047805804319531 -0.42421047998239148 
0.074201853561488937 0.24758861984948474 -0.017178917068555954 -0.090402635024331768 
-0.28967196253820771 -0.0068308275363039867 -0.0074741107931344877 0.0025486386843368014 
-0.4812246964874437 0.0023392905827354675 -0.001723143224514534 -0.0097804311108530967 
0.58328976331545146 -0.37273269868716896 -0.083255112502965203 -0.13651257586340637 
0.31774646275976726 0.1372962276867255 -0.1569776469014027 -0.4614608984516323 
0.016157257803964032 -0.10153802257833991 -0.13763278705547427 0.09288871490193501 
-0.4812246964874437 0.0023392905827354675 -0.001723143224514534 -0.0097804311108530967 
0.2229446817110152 -0.68865135537501976 -0.23492763009602244 -0.31787860119935418 
0.16921773528855497 -0.8373678886719097 0.10000184524877748 -0.23389196267913034 
-0.078196779819790063 -0.36769804207810064 -0.15758598236884744 0.078026991580654348 
-0.24520618752900697 -0.03339465407383066 0.18212365602735286 0.24160478662545734 
0.38458647474574092 -0.13528129586929521 -0.27542070947298214 -0.45244538838204762 
-2.2103947196414917 1.0050900521782073 2.6037117104149123 -2.9971963732042148 
-2.162776123035504 0.38640257073245288 -1.703792984276034 2.0153886047949388 
0.0039385153388028366 -0.091066819042560671 -0.1707308854546635 0.022561373925864252 
0.2286154640106583 -0.51356454041783073 -0.28682775421803003 -0.20026568041010939 
0.20905433483057451 -0.29528546622900537 -0.12145130033607859 -0.17627763945602271 
0.097940840985434485 -0.10868607936751032 0.14440940195926111 0.11986538540552427 
0.048149564348924367 0.14149166788106543 -0.35036814389521165 -0.094062753105460029 
0.10036885196242412 0.10233880583615879 0.16522038738023975 -0.28406161901116878 
0.33204502068199909 -0.19900949663834955 -0.50285487097465598 -0.31569341411273028 
0.01456471198101349 0.042385322069274527 -0.045254979502294748 -0.10200612534036117 
-0.082196900560056102 0.064404995992123598 -0.0041773219160503392 -0.0091135246126369911 
0.29287084630133753 0.17946149753966378 -0.48597918020117092 -3.7234644070903086e-05 
0.29961332122119122 -0.35525423228492092 0.023316405482184221 -0.40992186415428211 
-0.140632849480958 0.77856896615758142 -0.045539238305007224 -0.18275634901018589 
-0.07733538318603296 0.030681501816652357 -0.020592303442455218 0.074895234206221739 
0.28273542607900765 0.26670957826695302 -0.22737992416303993 -0.29372836111597395 
-1.5376678865539368 1.3624811016079008 2.0449077936610567 -2.9649741630449062 
0.25445936877994024 0.28044279078143036 -0.12986082458160914 -0.83727684193890595 
0.10327697442901204 0.45379901956324303 0.017677495438643033 -0.1526178636439654 
-0.039627107046752839 0.17438427958537933 0.13206339669124539 0.0029981476331912109 
0.092030310963728129 -0.40559127327555894 -0.16383622796420677 -0.34845274626129386 
0.24245513848252012 -0.36923117833309266 -0.35959558347404597 -0.34192508660207371 
0.024130589463649058 -0.42668608607226621 -0.11579083836393858 0.065687437366405033 
0.13561487936952993 0.27876759689102909 -0.13950260487210164 0.026634678657327993 
-0.19616332519668012 -1.1361108555778097 0.31239688267389837 0.19721138774467012 
0.08220426961908113 -0.120988638576267 -0.36471850225400143 -0.046252030001688399 
0.21261133938561524 -0.55002906479327118 -0.03170828420745056 0.023942699459046819 
0.043936303580319719 -0.70687951335300681 -0.076782817996047276 -0.40588972824553354 
-0.056883654491736046 -0.034614912781551786 0.27912092697238522 0.21675309018942157 
0.085317996397925672 -0.40118638977698351 0.13584708780406451 -0.15530743523278973 
0.051176766745119812 -0.37559643458917835 -0.13008189042543111 0.038679312087252074 
-1.9892655009940143 0.57966944551821442 -2.3584555233534732 1.6279487208224717 
0.011095283967111291 -0.14197415697913271 -0.0027015550109050421 0.012396341261089849 
-0.1013879619778022 0.6232830292189413 0.038625951141749867 0.55956847751589733 
0.046473380468795414 -0.19263098981832305 -0.081274941299968664 -0.15705029594933517 
-0.016479981833588411 -0.26342390827521533 0.098771616256270553 0.16143652299254599 
-2.0054965803230052 0.94540112637256546 2.2092779234803852 -2.6353337063896021 
-0.020210129855054659 -0.18635654589274528 0.43116468940050934 0.052874695265711882 
0.038059271478367962 -0.28621931529476002 -0.023358711234759952 -0.016921631400784967 
0.099284181755138132 -0.08921071343071639 -0.15049431550191578 -0.097295468226151829 
-0.086811169537167762 -0.080394592621964744 0.16983732409300112 -0.079039672208569736 
0.053880225415458699 -0.048035626656712863 -0.21944471239537811 -0.062911455746438499 
0.071447107109684077 -0.058661193492777521 -0.029325921662474774 0.040582226488462998 
0.19625458374685362 0.20156552971771768 -0.39225629015063257 -0.16805511243838372 
0.22618364840422917 0.22411036307514356 -0.30778175820303005 -0.27339539311576078 
-0.22241668061539663 -0.61097875892247511 -0.016711926077979646 0.31404295238078073 
0.23081559823585501 -0.24199584523601639 -0.2379474742566357 -0.34836383827040263 
0.24034064172904254 -0.73228360733132702 -0.3029892991734815 -0.1515215620128324 
0.045188934552207294 -0.18994736106771162 0.061399117304033024 -0.049993126503664206 
-0.012931753941209254 -0.59068873914738029 0.060220384359354916 -0.0053073386425925347 
-1.7120784772821884 0.69039227250466839 -4.3230877100149936 1.4954745999051282 
-0.0052422567155571004 0.058093505466899939 -0.010947505129224627 -0.16045041490703088 
0.14056599446124107 -0.18427177902322406 -0.16510928344998257 0.61854664185374919 
0.23830082496145594 -0.27637874890952896 -0.72539584561199544 -0.22996857293476469 
0.11673237633200137 -0.27238980370025534 -0.31055608409704943 -0.041914496461191053 
0.48197178243669014 -0.26917634579734534 -0.10363801547655345 -0.31306114461811907 
-1.9423119699598259 0.033506514527998299 -1.829480522135611 1.9575140593909612 
0.18138519965224789 -0.35399056844553406 0.085928105256567813 -0.031026049768107265 
-0.077435332928549219 -0.76528040649844531 0.0044543592101269781 0.021330535440208388 
-0.027036243132134381 -0.26271451339810464 0.040254526231958909 -0.063425587595167754 
0.12191958751568616 -0.13154280522840386 -0.13833054009905776 0.13959473564288344 
0.058449219613946973 -0.0047830452371957505 -0.018698377141631702 -0.11022217406136177 
0.058449219613946973 -0.0047830452371957505 -0.018698377141631702 -0.11022217406136177 
0.088814203015943616 -0.17839394379217105 -0.090609861539468511 -0.10503973825367276 
-0.08441527141472055 -0.033300167772332363 0.0066853663174079314 0.026058377340158867 
0.02534830342554676 -0.28910036785075294 -0.10637801177811759 0.063406913413578403 
0.15610232229672263 -0.51333166806714425 -0.23823235247388608 -0.13259249886665969 
0.048919439686334179 0.51375390380647368 0.33881284048065585 -0.31088734324023837 
0.1098239621654469 0.50245792568011993 0.25980332710942711 -0.3225357191772048 
-0.017951258659086453 -0.037447014296803943 0.0011176128033329206 0.018361207312675314 
-0.10180807202439851 -0.053961092721269262 0.033704133910651385 0.14092421576326863 
0.080787321266872214 -0.040760473437830902 -0.016801255216446539 -0.021716670633281625 
0.10454953097260675 -0.12819032874729247 -0.21316663795123106 -0.070344394348320377 
0.26970564597982677 -0.41865916143650772 -0.36315108271749297 0.017640849389168933 
0.17617578563988279 0.23214442497108828 -0.16552203964956619 -0.020413568682910076 
0.048562270134813193 -0.030388289123067454 -0.064236857711075041 -0.02370632160477789 
-0.00076562940898049214 -0.098972081496228104 -0.32137440935476269 0.047628844967405076 
-0.16980892717795204 1.1807604649039398 0.14045197132811321 0.13159074060080267 
0.040374103506179537 -0.23818150499431701 -0.034242139784220166 0.39394793138744338 
0.27854307724798466 -0.90441428029445914 -0.37986785738928813 -0.24417707422847235 
-1.8030418587439332 0.4122665653160078 -2.5022601886472096 1.5548544311094241 
-1.8050582329717886 0.046792309647795939 -1.0800401318271771 1.2824821309359205 
0.086765657727318146 -0.60642708510454724 -0.34903932226003659 -0.044475110416228508 
0.043141149140975527 -0.048380455220030781 -0.18247064498510129 -0.130183088987637 
0.11771535384476722 -0.04210253467813161 -0.002045376980671653 -0.048204351790207128 
0.97383256038258525 0.11321077175824397 -0.0023712716389196562 -0.10306829105872573 
0.21319255160193848 -0.31189655884236506 -0.20183744106429016 -0.29584921721684904 
0.02811244449439057 -0.45766887925557181 -0.16817520572659894 -0.13268563468734423 
0.14546700452136857 -0.2893029149618972 -0.092855225254010729 -0.14515932162997092 
0.045243039808561758 0.072813858030491313 0.044410756783982444 -0.0061814929289181544 
-1.7348543486635468 0.51824214343208941 -2.8659451242428129 1.4285182669294527 
0.15322656791623102 -0.32635724321200987 -0.049279609036561284 -0.21360385444253205 
-0.059721615481564128 -0.15442921481777436 0.0066801181157895451 0.048736794590563848 
0.18432722187898626 -0.35906057265379243 -0.087361061811816965 -0.029364522924557573 
0.29561847349756665 -0.16763886055036531 -0.13972333628018541 -0.15603399146048741 
-0.10761695424949963 0.33848543712871226 0.23202196000087161 0.16279875619176848 
-0.059721615481564128 -0.15442921481777436 0.0066801181157895451 0.048736794590563848 
0.13401575039031316 -0.079609075290958869 -0.13051648536460023 -0.12748316368361012 
-0.16543448994748755 -0.071337955815343065 -0.28732694112592105 0.22695055440896328 
0.29495842565402985 -0.64076209796939909 -0.45846806542820961 -0.33166426173920849 
0.052199087196752744 -0.59432657289904867 -0.22744797709281789 -0.1517921575127959 
0.21116289331107457 -0.30249711349058844 -0.0045505400331766893 -0.58928806792471489 
0.25422505013659386 -0.44796785929467081 -0.29896592169836811 -0.56049698156471783 
-1.7958241319205246 0.95613271503031472 -1.541226452170217 1.4383524015284874 
0.18259291122396998 -0.40153683509598309 -0.26533334752379356 -0.18287874735927559 
0.032739892359299097 0.15877822382679146 -0.22848096009511704 -0.19039955708553635 
-0.72735629480827035 -0.68719550362479609 0.42265197684421862 0.70498970677577 
-0.010245791673932914 0.47540907521587222 -1.0418589700898684 0.037510210110509673 
0.18286297906694393 -0.017187606797788246 -0.22096042185368467 -0.0610231668085464 
0.12134354281471905 -0.0056779296872290774 -0.64409807620673032 -0.21333207369779006 
-1.3650764393363357 -0.0029422714822587197 -0.001691834239739363 1.5460620056298346 
-0.28181204835448259 -0.32150674730449824 0.19122835667175861 0.84211284157641264 
0.016020792543921698 -0.36996710332957006 -0.037721290171716132 -0.01732229671486727 
0.22181144252479432 -0.077312283287000488 -0.50748055077746235 -0.083854881055805991 
-1.1779466550555451 -0.47872365061938421 -0.32988754393549341 0.011179648440692559 
0.098042955543538965 -0.10403664297678063 -0.12486580341560863 -0.029395143045993187 
0.24345969733992084 -0.46548801305331183 -0.20637124483203317 -0.26996524544691158 
0.019275124534143095 -0.28323460365474373 -0.0069593431475769019 0.13214895078490818 
0.19503981510123877 -0.20889559967039589 -0.87671672003733991 -0.17995934279493586 
0.37415274368832535 0.86701620777354105 0.19623687860237288 -0.16736717382725314 
0.086530499114198509 -0.27954958781952977 -0.14933408393339295 -0.056110407827427336 
0.034719859392003928 -0.04000176009224006 0.085226389761421412 0.12142449032049096 
-0.0014170589479627696 -0.2058857955627158 -0.04449211335610348 0.12803418302617295 
0.21348386258402235 -0.55004515820902611 0.1957607244307969 -0.33898164422847477 
-0.1896172465134047 -0.035854228863383922 -0.21896266627597888 0.4725507613490485 
-0.03232260544990441 -0.033247168454997367 0.18577077051256338 -0.13483826249698821 
-0.00901915703799782 -0.067580254019423497 -0.085314178697995999 0.10405700616706838 
0.22622980485885896 0.1566442161722989 -0.63545523632458001 -0.22789347302581675 
0.49444210521002213 0.46144921522656968 -0.54447401848596533 -0.94183226510633566 
0.17713282017648735 -0.32327811912558629 -0.21169206318677691 -0.030245516860481287 
-0.21767730605926056 0.53319087678195831 0.61196104475385926 -0.0064553507082232009 
0.41540903402723228 -0.80491570974642657 -0.27534934676471801 -0.31659225127820045 
-0.22224028791558889 -0.12263478073160827 -0.085316423510397504 0.19709187249605764 
-0.066686347401565066 0.086576738701762135 0.060020007545125098 0.056304392464688852 
0.1220594098638115 0.50598526436949942 0.01816446827741787 0.020128753266509092 
0.19451904846143039 -0.2560614075631612 0.14507608958334706 -0.24309498574557356 
0.10143544042678271 -0.81024487358098363 0.031609349317829175 0.34120308864163629 
0.14749533330408612 -0.5431371914030203 -0.16782258487107068 -0.24963169306797217 
-0.051988659832033546 0.40486744265325508 -0.45400848367381152 -0.18187932027799608 
0.31529107475996965 0.80932999926809546 0.10081943935147977 0.014598311867253674 
0.29058339566560082 -0.086775144349954009 -0.0028532493711214066 -0.18954751664807967 
0.017993292737943894 -0.3941017634132094 0.28115962134583083 0.06981574411727981 
-0.16743268586187912 -0.037689298862394992 -0.0076127568751670274 0.17313718981776138 
0.010200992611001125 -0.03073980773669302 -0.0055180390212329154 -0.0079106513954858501 
0.080599285538115087 -0.42865386166319996 -0.22516330096618567 0.16802475962242228 
-1.9056971406287593 0.56114984247718691 -2.3520727557810464 1.6064462778851234 
0.011747504471901579 0.048097628874071617 -0.095783449817063965 0.020138418346163534 
0.22657507194993529 -0.86203394442862036 0.065365592307782661 0.35553174977944868 
0.010200992611001125 -0.03073980773669302 -0.0055180390212329154 -0.0079106513954858501 
0.17050931350686543 -0.69116722872070491 0.28748331448173059 -1.0764663066540938 
0.62922520735090948 -0.21160723982862073 -0.27626506036453047 -0.32269259783683796 
-0.086657202980414461 -0.03242399289542075 -0.4206633769171228 -0.044403978075983813 
0.26743690543627041 -0.6163576132205727 -0.26897351747464782 -0.20149905745905414 
-0.15241389766489558 -0.41545692794923528 0.064127150923254161 0.09361492325044099 
0.081946583748409338 -0.47287852002787845 -0.032860581738213643 -0.11576340396509729 
0.082091548669480319 -0.029532540386032133 -0.058497495797529678 -0.006166847821328203 
0.15347071793156555 0.3794287790861135 0.69338546348217434 -0.50085992792170531 
0.21116904212905679 -0.76366448907511864 -0.3700755733518053 0.092919788683937354 
0.21194137800662091 -0.39648139982867953 -0.20110062775382093 -0.169061594786796 
-1.8671573147288594 0.23969968775205469 -2.2623352517307005 1.4417577367166374 
0.11350590961601056 -0.31516381096650525 -0.3154834348138692 -0.35098128572786202 
0.054850987800092135 -0.1066255551240084 0.21503291928788282 -0.62283135049807625 
0.34188832330969693 0.13691099062239998 0.31654741325066893 0.026499679565857255 
0.23004103741194942 -0.45402125092828982 -0.12262224619772508 -0.39925445166777429 
0.060719414536119454 -0.12752755022625237 -0.077904411829646567 0.00432079957446449 
0.68817435452547082 -0.22517761127724084 0.01114803668493854 -0.50491715716445495 
0.26447738400459386 0.0034521538175105726 0.25633940866055616 -0.39716729428416897 
0.2128993421659896 0.31576191429775458 -0.076184237314193742 -0.31759802131765391 
-1.7184312012845431 -0.57245204125551052 -2.7252187487266664 1.5836255719568655 
0.12173343326383264 0.18888104810720746 0.095843954863504902 -0.13503720171249217 
-0.11837453763191408 1.1539845098524379 -0.00062423024343515564 -0.26611219740565328 
-0.062737439496131461 1.2444756311805965 -0.0011998222913807612 -0.31097420172777707 
-0.11837453763191408 1.1539845098524379 -0.00062423024343515564 -0.26611219740565328 
0.24474910473329742 -0.54864847246326898 -0.22743524608522961 -0.20778339872348817 
0.14481049202017574 -0.18932245401957634 -0.30763547511078398 -0.13375042351068514 
0.19503085857313837 -0.7255327392608657 0.019966293446832831 -0.26139063383220623 
-0.044110234637607076 -0.009336853426607632 -0.007772550135583034 -0.16925210323203796 
0.31480371948180186 -0.56264827778753057 -0.37589385881017912 -0.068750974033068693 
-0.044110234637607076 -0.009336853426607632 -0.007772550135583034 -0.16925210323203796 
0.12367859349998256 -0.084061398191811076 -0.23844993856800326 -0.066204894288223154 
-0.026025564490601005 -0.3104773766495626 -0.0056036015655756572 -0.094101085217563663 
0.030078898188070878 0.24614288389929156 -0.017873981795972362 -0.049088212896274706 
0.061891635652616503 -0.0074572027551666059 -0.011149564419570879 0.074500446964067699 
0.3992352455963436 0.57429074543310255 -0.17741833935710458 -0.30753505823569521 
0.17461158424157502 0.54463971555706947 0.071061587297847534 0.011338097937023894 
-0.12610925611295248 -0.24723473747792202 0.070900584987685158 -0.037296494853794687 
1.2922588550792278 -0.47885145910689758 0.018268089077178959 0.010267421915165276 
0.096918974349473358 -0.053827339884924816 -0.20924952020540183 -0.093376290222660682 
0.15695443401575535 -0.47094164374519254 -0.022769259320986279 -0.071303779112007984 
0.34973799226089031 -0.88416523159069293 0.26685810940686233 -0.53917231362816087 
0.028502636687047722 0.045246802287755392 -0.043581351168236526 -0.073746130705158425 
0.1500166045991129 -0.27628620872512655 -0.27527080382588637 -0.37150013133150556 
0.27785028803344214 -0.56559925184601711 0.085570228812439614 -0.23465082793953937 
-0.077724255150797672 0.5749805729345141 0.12191274912085708 0.49665383148344866 
1.1895700032936811 0.19755346161995582 0.0026884276125489631 0.016042069248956292 
-0.23579867450224734 0.45823104424914307 0.35368687784997443 0.10311316017243669 
0.16164158841576093 -0.81185114262352309 0.047039415542169116 0.095948099204000825 
0.070642764880695361 -0.26767230908542677 -0.20441476592305918 0.028866308004027397 
0.025450708959116233 -0.17697325504783254 -0.038834478984007423 0.046030360925294563 
0.96032326502550625 -0.22041213663275194 -0.0032869855448349576 -0.074351409948158836 
0.96032326502550625 -0.22041213663275194 -0.0032869855448349576 -0.074351409948158836 
0.079651081007048916 -0.0012858750238956694 -0.028822216108348703 -0.038027212501254598 
0.079651081007048916 -0.0012858750238956694 -0.028822216108348703 -0.038027212501254598 
0.095394049978094003 -0.82775895008878719 -0.065847362745986848 -0.2072141492502429 
0.1149309315306753 0.01808760064365901 -0.062337179765992484 -0.029392888788876068 
0.079651081007048916 -0.0012858750238956694 -0.028822216108348703 -0.038027212501254598 
-2.1100484846442882 0.49641148191038975 -2.3424144586009472 1.9641688350966473 
0.13937385344674252 -0.18619649065216201 -0.14255407131289641 -0.010391868058853101 
-0.16577821662923223 -0.88663394501235981 0.27208336188023946 0.18826479214483677 
0.19803505737327112 -0.57374489785905003 -0.26349342953526594 -0.093233198494731009 
-0.071260445589236485 -0.11928147615240051 0.16530589862316847 0.086364292220247718 
-0.071260445589236485 -0.11928147615240051 0.16530589862316847 0.086364292220247718 
0.18851828409065235 0.091334852848382886 0.20995773533773157 -0.087381027926955609 
0.040674682873948056 -0.18047144134790763 0.25136560634354704 0.17592810130089442 
0.13512254768637549 0.84925142093540629 -0.88345694878670888 0.074328040155048361 
0.28403279888304761 -0.38624833126672958 -0.36761637023125632 -0.26403867046453144 
0.12459801940941492 -0.18890128285388275 -0.095071942495452241 -0.20541405643387589 
0.0042969717764895221 -0.0063488191243198967 0.016853487127222615 -0.078206532370767357 
0.0042969717764895221 -0.0063488191243198967 0.016853487127222615 -0.078206532370767357 
-0.16896010655109509 -0.023388337864593517 -0.019306323842615464 0.032745879698336811 
-0.076873100454710075 0.48505218958907692 0.18160179169105214 -0.075468181894871783 
-0.042265313771567725 -0.01140835274060098 0.20580989327335358 0.055381136250572428 
-0.0031085078516591737 -0.12849688658926023 0.082385388137284923 -0.017149154307776356 
0.10619643852573017 -0.46758451338432833 -0.12228122701938973 -0.068105614697868133 
-0.000246677304416687 -0.078373522631642739 0.02915344731737475 0.040836947227848336 
0.078281520346517627 -0.32260145891662129 -0.11968396053904717 -0.045765186268959174 
-1.72686916431118 0.18439264598776769 -1.3898344848765851 1.3853808760630109 
0.1884833961689851 0.20343723203956296 -0.44666112629053434 0.021655608817028466 
0.19489162086153788 -0.41012968479542844 -0.0030506164007486781 -0.14438792876096673 
0.2444297887911559 -0.50701227774564595 -0.016684058191538884 0.00010838652753467542 
0.072729795144236525 -0.14310589917726099 -0.14552839485125399 0.044387619655653993 
0.078785175506384156 0.52997883770310084 0.16330193069998622 0.18792353692344071 
0.18478595212875196 -0.50386176087453038 -0.0060162434210611505 -0.19493651456887046 
0.19858318259330784 -0.11228453516412709 -0.24943501055484257 0.023565890086176849 
0.0033424376660020905 -1.2438960613867573 -0.02915321168037259 -0.30188667201580976 
0.018241483463810271 -0.029333052218303898 -0.012849357073558262 0.029766124272073258 
0.014303803434802465 -0.033158954836530814 -0.02876450626727154 -0.024141807410170718 
0.059740836266979951 -0.7543075697282734 -0.38473735990396185 -0.059262595719704762 
0.042131488115374885 -0.17733884535539116 0.14552698630104929 0.062600525905765703 
0.10884922507317077 -1.1586319755761589 -0.0053419193618225135 -0.37872314070015223 
-0.71853070251682516 -0.38437727883783085 0.054978607451071318 0.47071537741805325 
0.2947861206417921 -0.024619426775607117 -0.0029319731870976569 -0.13409178258192456 
-0.13441835948236525 0.20211320403520261 0.094999612076555814 -0.022696272534066697 
0.11792820905029436 -0.69959220584259074 -0.29908489355315887 -0.15989118170925887 
-0.89683655442122812 0.32849554519612217 -0.79700591952337985 1.5164271610344993 
0.013259645430089367 0.029505987824179139 -0.0030038330901733567 -0.027237604161814657 
-0.38976952669339848 0.018492132238711712 0.16415524682720184 0.70887716141580204 
0.013259645430089367 0.029505987824179139 -0.0030038330901733567 -0.027237604161814657 
0.16949102686817344 -0.57168329569315157 -0.25280278772123643 -0.074072263989769974 
0.061326123087508622 -0.13764709220124111 -0.10353569570757645 -0.19278142055484176 
0.28038769241323436 -0.011111020697482821 0.074906321592219244 -0.16109026093735829 
0.17133324173609121 0.28020753817446709 0.027118122195557648 0.050269045880950408 
-0.050437023094351767 -0.059854654519025677 0.39933475798937518 -0.1408244252290129 
-1.9575290415807296 1.2516567347904282 2.140940782401914 -3.1637528549959293 
0.56353464366658956 0.28934751053088847 -0.14499440638668717 -0.50792233704399647 
-0.021579573959393597 -0.40973638514496691 0.086251871021221463 0.16864824801074205 
0.21773708660534344 -0.02763110823910029 -0.16218380503771868 -0.18927407490040823 
-0.0043182573022526038 -0.23667903011674063 -0.029005136143274823 -0.1287707669722499 
0.21773708660534344 -0.02763110823910029 -0.16218380503771868 -0.18927407490040823 
-0.11398393556386469 0.52433876519543532 0.2409004257063061 0.10686560416589158 
-0.024855907910570445 0.0087283848803343805 -0.14254776699567945 -0.037463312452242062 
-1.8166276451097005 -0.071089525562951367 -0.1006015078655263 1.8956677014771806 
-0.21388879035629013 -0.37535471059322867 -0.20621884193334594 0.12888232109085501 
0.082641734595980579 -0.38372194186343922 0.079240228742175525 -0.07639221836092136 
-0.0076873325998612005 -0.88524641879434185 0.13795877766940218 0.086509213477014901 
0.19232171700193018 -1.0452165803899578 -0.30888394265471558 -0.0020455419975076231 
0.071434421099119821 -0.33344051616910442 -0.10627100860884217 0.0099937263957032042 
0.0048182142148610746 0.19058179132578759 -0.25054831187678384 0.13938544026682606 
0.20597602053712694 -1.0724180511578274 -0.73698157414522292 0.014449307356643876 
-0.012699947470391652 0.041079623264209428 0.14428481397978482 -0.12006922355005277 
-0.068723868606277216 -0.11680543253594976 0.1008749369893788 -0.19575938163732798 
0.44680777086283413 -0.98947724475933707 -0.1030938176069888 -0.096727294871910008 
-0.0016121094638060357 0.10082697815493138 -0.11033887458160392 0.05757719633970404 
0.20175600200253119 0.49518428028350131 -0.20351026022735147 -0.42405545592273697 
-0.094512201539704188 0.015570556528429882 -0.24766698947943552 0.043991809809188709 
0.030402105053264017 -1.4113535493093907 -0.0021507076563197858 0.49974689277582918 
0.073322254260279995 -0.59633259533421112 -0.11250910611140852 -0.1141430905539073 
0.086744750632921905 1.8760341829872618 0.00079026095832324464 -0.20675231078242323 
0.15949616400081207 -0.29372544418530133 0.24055250808437487 -0.42674247717617247 
0.023117677471821939 -0.45397084256134967 -0.0055090445070424751 -0.12099265182967256 
-0.017620258559068222 0.28549226422012441 -0.04451774986491297 -0.035457160304739173 
-0.15010658913550501 -0.17606721463916195 -0.6558396891783782 0.2073304130959101 
0.070800842016734658 -0.66132480296770257 -0.0078588769969129835 -0.05638520595817717 
0.33979147611973592 -0.29606009419216989 -0.034860238308364426 -0.39087077333830245 
0.21070304935385792 -0.24418936089712204 -0.59824728785130177 -0.25753278631617754 
0.18376863571265437 -0.079705069483104768 -0.23017906485346973 -0.00096648577370332667 
0.15887841048759421 0.49321386367581244 -0.14090936601451418 -0.43816887851351899 
0.93821417380157168 1.2061106907197454 -0.11622108270456585 -0.62609661215825008 
-0.74764753126968242 -1.7021919453446626 -0.0048754681588909551 0.85122878572585603 
0.99162710866162251 0.23962148420764989 1.4986840467497151 -0.38523775672136829 
0.22805513480215156 -0.28659012415119534 -0.066833410533165466 0.049014851421324002 
-1.2911232787206199 0.074799759369175559 -2.0219938357125899 0.70142883513704035 
0.22849500573079434 0.13466980754690838 -0.27287674256398015 0.12985897483185621 
-0.34164202316247011 0.75498539825463051 -0.23112472225119879 -0.38308648339835205 
0.20364950760450459 -0.52437555990731766 0.0012432300993737988 -0.19492445140578096 
-0.074467697396455701 -0.30203076307605414 -0.081111158284585178 -0.1107564967675832 
0.069311034926586287 -0.007921234592129317 -0.034983633216201765 -0.038242710511433166 
0.15147533439304439 -0.34621742646662423 0.31556163236774226 -0.017345925453365149 
0.052874856338843423 0.0021363287970921226 -0.00087041459278837754 0.00030516255869600384 
0.23460160980661177 -0.40828557050112824 -0.41123302275484419 0.10662233104760943 
0.15552747047391485 -0.37502170464776885 -0.12537459223940098 -0.19404796653653317 
-0.33971372736908628 -0.1936540342775995 0.0065578415937650493 -0.7219246266228192 
-0.34313332317666878 -0.75046001237353177 -0.18447588629831702 0.7284332178303301 
0.1031090932268266 -0.35168567683022434 -0.21377625411427512 0.068413770451454942 
0.80725607982224323 0.088862494639734585 -0.80829596339401943 -0.93802607318660747 
-0.26505764429914191 -0.036949703318512418 -0.0081965653382170822 0.53563522611427983 
-0.1062201965667927 -0.04599049278600581 -0.049526514569411866 0.1781644630236762 
0.090159552269176435 -0.6941200628300459 0.076863504303282038 -0.32693578764531017 
-0.0051526556653823663 -0.5702562658076793 0.01979146878699246 0.17145743524342424 
-0.20886880154299348 -0.006115620486903733 -0.0040474104739895468 0.17200537327757995 
-0.12994613723937354 0.18512886931626027 0.2554516922467337 0.009752732456667957 
-0.0089045901384390835 0.23907299914701108 -0.043035471090443589 0.38232586411158714 
-0.01915831811383964 0.18913065114706273 0.010791172232636675 -0.40767472015435535 
0.11169621966477089 0.028073783439058159 -0.59110435263067751 -0.028878166649670422 
0.15346444609627266 -1.0610176584812385 0.13126394809655595 -0.30251409950127839 
-0.10138638837511674 -0.63581169159730655 -0.11144963858508736 0.25747246993952116 
0.035747446564405039 0.057580717867231512 -0.12357448514259189 -1.1888591426599937 
-0.020114391700175462 -0.53446942914666995 -0.039806961724252257 -0.14957422474992835 
-0.014087772707992954 -0.96795484196912285 0.039814913917329463 -0.13984674733224775 
0.065031111012560261 -0.94213898756656322 0.024518238749898627 0.07845778455030783 
-0.015103386079347941 -0.38388222823999552 0.10554183111861619 -0.091377168277232163 
0.47809647380104875 -0.35876865278645675 -0.48718262264698847 -0.044834653843899341 
-0.13786382219245064 -0.049518999565990297 0.034389224726488976 0.10448231357417791 
-1.9523917087115932 1.1796229919963985 2.2959624721065914 -4.9496606330137354 
-1.9453431055034465 0.20670482233199078 -2.1243325656546066 1.8094755057624881 
-0.19635118882029218 -0.31973097828001928 0.48733256273163095 0.14469556195579192 
0.11179332353497876 -0.7299613303416731 -0.002778636808296246 0.070502187510306735 
-0.15045023568857283 0.17705281542842849 -2.4165267673729605 0.080082192076472061 
-1.7981176708892534 0.44354959822992912 -2.512868211229967 1.5217864042733436 
0.021650932848156605 0.46916196522394205 -0.56068707192442291 -0.2269759955848798 
0.0035259362150081471 0.057216936450845607 0.16516035568375073 -0.030626853145966124 
-0.047541847467191395 -0.29101305122887977 0.10912143727942958 -0.10804435027610418 
0.038801196071421129 0.55876012080285586 -0.3094715418816959 -0.022161653117772476 
0.12091789763237915 -0.15466655603678084 0.096787682265679797 0.041632176203174137 
0.15608194567366676 -0.29431552499901803 -0.34287354390796015 -0.19935416690100938 
0.28442026144315224 -0.087099999128636071 -0.32376276899588818 -0.20110638670247286 
-0.18128636291340183 0.12433997449750964 -0.29108719330894961 -0.12380383766538067 
-0.24173034675439675 -0.65754199488924403 0.1143571732017627 0.1662749135790203 
0.1408047404286995 -0.0043754799978252068 -0.0044424755102018647 -0.25319892328648891 
0.1408047404286995 -0.0043754799978252068 -0.0044424755102018647 -0.25319892328648891 
0.1408047404286995 -0.0043754799978252068 -0.0044424755102018647 -0.25319892328648891 
-0.090009067203745519 -0.14101238142059838 0.049547743344543038 0.24458649120475645 
0.027298371503444607 -0.47757753516434193 0.0028918108171150985 0.044816078205595633 
0.15442634083060208 0.014256219449364789 0.19894804768332158 -0.14989055656206501 
0.12346183356863838 -0.012980917759468915 -0.40210662339100139 -0.034931595768466703 
0.19023498866513591 -0.097107762112513929 -0.029834839992249479 0.02321667789992754 
-0.10686092451001863 -0.63553314147840689 -0.0076135173563707248 0.65027612569131066 
0.11910117231332572 0.64689822891440307 -0.019665006497504578 0.079682785742388212 
0.054879436168701168 -0.80368152874526433 -0.085752051350283603 -0.03008143403418527 
-0.011817872184950173 -0.0028117794823241176 -0.03668835497258767 -0.032240424715658314 
0.042130940358068095 -0.031003409555640758 -0.03153213818637584 -0.081900309877236122 
-0.011817872184950173 -0.0028117794823241176 -0.03668835497258767 -0.032240424715658314 
0.0017637720538419555 -0.44000293266221147 -0.034120225921923583 -0.024774606819766072 
-0.011817872184950173 -0.0028117794823241176 -0.03668835497258767 -0.032240424715658314 
-0.10782183325254961 -0.50783317917073012 0.29197155942686592 -0.12498851556785641 
-0.10195524017154695 0.14575404971653724 0.37917775626163691 -0.12215648044920654 
0.41292679767309481 -0.82376855370835878 -0.25850715368659927 -0.57051379740522579 
-0.10839243901317445 -0.015159693813626401 -0.03335932309497186 0.20616826445961037 
0.035861220806271417 0.0065116819732499026 0.23004997271032618 -0.026241615200185725 
-0.16218655814278943 -0.40674641720540761 0.11936236489387972 0.089987756410976283 
-0.015005713886984098 0.49277294713057368 0.094255059943097241 -1.7285060307598679 
0.058646843799128212 0.071740751839850181 0.080327125155150725 -0.18838377440731779 
-0.084634612363678113 -0.11854768646424207 -0.011022503675667622 0.060165295711281389 
0.45515590354597318 -0.4286932610132328 -0.19674494411536156 -0.388313426038292 
0.091831543404890248 -0.23864706599223354 -0.21403498661235359 -0.51469874403469573 
-0.35053310983369618 -0.18599243838144705 -0.19474212787071862 0.7206038677911869 
0.59757459758872356 0.39664924159616999 -0.19779324784662056 -0.49030262516096101 
-0.067547757212193749 -0.37765258178511218 0.72865814999676592 0.3729994275395534 
0.33512137860484981 -0.089236168242466746 -0.32607961147930542 -0.34747567102839161 
0.07141612402100693 -0.2297736082992051 -0.24715588479799949 -0.0252315488907182 
0.076736900294314098 0.18964356127787316 -0.38041675821510379 0.16753198586804902 
0.055076452491297764 -0.002774506220887036 -0.16706164424258158 -0.08814234538345414 
0.11177222100546302 -0.63829102210384026 -0.25279544287472988 -0.010936907312891833 
0.29825201566132115 0.0011656214159294631 -0.46739980305833351 -0.32394370058975941 
0.0097717212527450147 -0.44552567224551937 -0.084426650490819322 -0.21254325760890927 
0.25357639653401787 -0.058942824853769962 -0.97885589866301403 -0.29367283347066969 
0.0049510627098541676 0.00855455348566974 0.14276093348595301 -0.11739048599875725 
-0.13051431081924514 -0.4699687662742793 -0.0023539677698203908 0.25652327113255236 
0.025739403270228584 -0.70917155244036645 -0.034735385695643578 -0.10358751836628848 
-0.03327892855751112 -0.19422038417683862 -0.0027652906734012151 0.021196449412786457 
0.7080171850641539 1.0763573768139758 -0.39021460024440258 -0.19637116593187026 
0.21982579091259039 0.26450840837664352 -0.3384104154002231 -0.1430464298223047 
-0.03327892855751112 -0.19422038417683862 -0.0027652906734012151 0.021196449412786457 
-0.03327892855751112 -0.19422038417683862 -0.0027652906734012151 0.021196449412786457 
-0.03327892855751112 -0.19422038417683862 -0.0027652906734012151 0.021196449412786457 
-0.03327892855751112 -0.19422038417683862 -0.0027652906734012151 0.021196449412786457 
0.12932199550312834 0.20187415041162957 -0.14662779935387762 -0.64878920629821291 
-0.03327892855751112 -0.19422038417683862 -0.0027652906734012151 0.021196449412786457 
0.080439490277473061 -0.11040948268563845 -0.0096764756552461841 -0.030854447298414356 
-0.15236368394359179 0.25019856962997455 -0.79773061137879731 0.49036376484590738 
0.17301656714782265 0.40616663658573848 -0.76511736277002818 -0.31572818503360539 
0.011938480073329094 -0.41590427811234632 -0.30534739556061735 -0.075368329870492662 
0.15926309507596273 0.40882700666522409 -0.22308739006469278 -0.085339168879185412 
0.04342911176602849 0.014301114592086215 -0.086513621585935549 -0.10428715976527489 
0.06004315939266569 -0.10562325704917544 -0.078471287173925069 -0.14052054386080548 
0.00373727267252498 -0.30616837749735271 0.052143580309166972 0.11798962507286072 
-1.7574828204405388 0.3894020614018171 -4.1891605318617868 1.6395834258206388 
0.10429350218975127 0.10671641532528982 -0.50728853260913853 -0.016446009637334183 
0.18190056497970708 0.026904085084117707 -0.3053404525850032 -0.23216309964883416 
0.26109400675778249 -0.37304771618543364 -0.78979136606945777 -0.11546812091767045 
-1.8481435452073918 1.5695910019893664 2.2544988038352671 -3.1486623279324926 
0.019355570702250288 -0.52283214593966143 -0.29702550654439719 0.011146018171188474 
0.077741138328907222 0.066209144196415839 -0.060834100736965172 -0.089358885757495288 
0.09938915463168202 -0.71368568439419566 -0.063073625521403248 -0.001801384228003064 
0.25223585251270952 -0.11267602866876905 -0.35048393140520528 -0.078045982238592077 
0.069927865685701335 -0.35205531792487649 -0.17384871138326707 -0.30398124415545452 
-0.11682936189635554 -0.017785782561963958 -0.21142735491232739 0.10854389214538648 
0.19986638521413863 -0.16878146534033628 -0.2396835114962419 -0.17915693135911043 
0.044507228538091581 -0.67425527168804 -0.0023835991059166168 0.20537049821547318 
-0.008369352478053399 -0.084781452315419767 0.060104596384006621 0.049991097884129108 
0.21235221039381003 0.065498341534536028 0.019620268775642741 0.0020206666561005115 
-0.044130070357842735 0.36363224842850572 0.2695598018040174 0.17535884797164586 
-0.49362677863075488 0.044469359332410183 0.0024466940798657123 0.36320917606553521 
1.1908930603019126 -0.38115472306909881 0.36540776699713517 -1.2146713084954228 
-0.49362677863075488 0.044469359332410183 0.0024466940798657123 0.36320917606553521 
0.20499751270261315 -0.1735909553683434 -0.58306310451740451 -0.33127534834138517 
0.057836614428105837 -0.0090282532539645091 -0.14201669702064082 -0.16179041935694197 
0.093267172451915153 0.051644746923968199 -0.077534068020177302 -0.091329870681731554 
0.084648796327282477 0.55366078855898837 -0.054805256680630104 0.023894922708100563 
-0.010875059576342064 0.99166600109833136 -0.26428771165405485 0.22835749290220783 
0.32463746153987993 -0.21712878784703205 -0.15351471214081386 -0.56918603055026928 
-0.20061021234229107 -0.75118982305052429 0.84749421110215206 0.087003176294997597 
0.61356780269766475 -1.0265829451500916 0.40101688722934753 -0.045733467235263142 
0.075757983758388367 -0.81493940846667257 0.028853430193294519 -0.079729471362251475 
-1.8444793917657336 0.62137261133036181 -2.7002290593666958 1.8606836437537781 
-1.4598912832940805 1.4652175233202236 2.0621716390930391 -3.3098239556829192 
0.020688879890695192 -0.13614262251383061 0.24350621462462876 -0.055534769000383157 
-1.4470327417572246 0.23852707096966758 -2.4213397109535872 1.0408035974335743 
0.29635028868449959 -0.30562466887979162 -0.23811230201788347 -0.30261679422904719 
-1.7914936029674744 0.49877452909191788 -2.2161588213660526 1.6969317527505945 
0.029695563571296699 0.27545397764890406 -0.15930461848432656 0.18109943599851358 
0.019114456071407104 -0.67810726855340731 -0.18682402200388637 -0.092983383115907814 
0.030436949977181348 -0.19388762350166935 -0.051286573710567211 -0.10441870144322621 
0.03471439630079836 -0.11307368462047773 0.04756357744989867 0.07231177828672633 
0.87197039514705477 1.081269239572771 0.12521957238865322 -3.3423585754617635 
-0.020249254373446136 0.11819741589829054 -0.099293395061312212 0.1998319650481451 
-0.019314398555087153 -0.36084251033122694 0.05203856235621665 0.19515972589898867 
0.03471439630079836 -0.11307368462047773 0.04756357744989867 0.07231177828672633 
0.27287524661179469 -0.068993507443990076 -0.39705252772963906 -0.20786136305025038 
0.21031259637458444 0.22241173519191784 0.14964160320860956 -0.55778718771829561 
-0.11007041052070807 -0.32644697834368147 0.003739503421609721 0.19164872603726907 
-0.0041575072446617123 -0.51568322614618356 -0.14201639510429323 0.17178737588816567 
-0.24146232663965514 0.1503138750171287 -1.4875318921122138 0.40005507911770744 
0.0366665323983877 -0.21481956668202004 -0.034496609442034309 -0.058847556301262462 
0.23832772101524741 -0.012697203110271137 -0.23299949045814136 -0.15177786362387591 
0.018330634663676404 -0.13329710991153948 0.094228167289082829 -0.031064739750990222 
-0.075747779079803595 -0.0044728106882161722 0.12303108780314276 -0.044109836323078813 
-0.084394697901353621 -0.00018214780048196014 -0.004002269538157615 0.53777381851845629 
-2.1069417249603251 0.47953543975688939 2.248433049891339 -0.52069797113882754 
-0.19100469431369166 0.25046880602620925 0.010352540059257901 -0.46255196267626264 
-0.090318159494919031 0.19471415160937861 0.17706568954505392 -0.043388420048246147 
-0.044556624835430936 0.41736196246873924 -0.062576769441590602 0.29303334661643315 
0.17245906755619475 -0.19708699872471419 -0.22869503676594122 -0.29626651390169118 
-0.18091531450908199 0.1854403937175961 0.046464480178013239 0.23669247963822829 
-0.068369735874883847 0.08366338258825122 -0.34067392211387765 -0.31992719535240022 
-0.064365386298064473 0.28900314741306332 0.41168817499537314 0.15043813873524031 
0.15266916200833913 0.6734720335119162 -0.15851506005861909 -0.60822286125346048 
-1.7502957524436487 0.93352501241816366 1.9319290066013906 -3.1053226288341929 
0.0071910208034987322 -0.50436573539522245 -0.16367069244952095 0.042417064354909474 
0.15531854468969869 -0.4925827638479674 -0.1480474776268339 -0.1369553077944789 
0.38901788205236137 0.44393193274923337 0.0075464611649091184 -0.37677400998655569 
-1.8264624076571763 0.14020926355375965 -0.63496517947468545 1.3374857193650562 
0.0038891015649452076 -0.14514521639774894 0.15552624962508341 -0.21213844264079362 
0.12504978776660092 -0.71260128685951551 -0.00036558322250057618 -0.24499849817623737 
0.056568433921002532 0.014241736223874091 -0.3753788658103912 0.085313706498740649 
0.0018917649880851872 0.093778945790223084 0.4075513635214234 -0.86420725498723272 
0.25287224489031801 -0.3192759265348295 -0.27825930568987822 0.47105708050543704 
-0.024395573350273259 0.35003768429216681 0.15588394084766252 -0.27242391385304543 
-0.08835127580731994 -0.0059263361065068493 0.02299966367756183 0.057698200512670952 
-0.08835127580731994 -0.0059263361065068493 0.02299966367756183 0.057698200512670952 
-0.073177056205345259 0.0018783753888347923 -0.092623314909072746 -0.24009870515982193 
-0.079749765259280167 -0.61131725126488856 0.021113147887889816 0.055137988905040666 
0.42707035391262216 0.094036309053628919 -0.37471469420458314 -0.48503980198942681 
-0.08835127580731994 -0.0059263361065068493 0.02299966367756183 0.057698200512670952 
-1.6619531497064968 0.45743113091431242 -2.4644777174822963 1.5063153551678417 
-0.024049650572772183 -1.1292578319128062 0.068148890081179275 0.25710200063114652 
0.16778979893261017 -0.53810882811514138 -0.079668864916878857 -0.11096234524332896 
-0.08835127580731994 -0.0059263361065068493 0.02299966367756183 0.057698200512670952 
-0.10739784723021426 -0.14890894488601428 -0.069841116047983626 0.17969883488542171 
-1.9068350652415251 1.1989234914613294 1.6623035325101665 -1.9597279233938383 
-0.014281261420345442 -0.052189207954415506 0.098739886783754102 0.0628664177930012 
-0.057743347968965866 -1.1731662795286057 -0.36816032029524665 1.0890460362311098 
0.11920044052572584 -0.21578446295391224 -0.062555334832319939 -0.077856853688365937 
0.23519339081496238 -0.20467633706856719 -0.3073344735434681 -0.061243840676769912 
0.019786297182436338 -0.083193452377783722 -0.35065594351285201 0.066974779256363998 
0.15159800107307722 0.028175665816205939 -0.07774808959040598 -0.20383910709495326 
-0.09230605769921138 0.296851448615921 0.27548438199659347 -0.16269193939074023 
0.14742437281285126 -0.21040721790554437 0.003419724462840161 -0.10651856844687363 
0.14097802247514427 0.014253159718290512 0.034180203722239275 0.52361163890572771 
0.043965159275944798 0.08533532533857241 0.54027961604567298 0.12139871645178357 
0.10034265569402735 -0.48465000546201653 0.27783278265885003 -0.10116643725443554 
0.1483320026892673 0.11345566604732918 -0.15338003794671817 -0.15056414759357059 
0.040805148335002463 -0.81274396337136023 0.14856405516923443 0.24027762314030363 
0.42019895057214829 -0.67039889069115788 0.055914835886044956 0.012018877125351907 
