solver_type L2R_L2LOSS_SVC
nr_class 4
label 0 3 2 1
nr_feature 34913
bias -1
w
0.14417051111928245 -0.018418348223413091 -0.53846978547216939 0.0019529511619080786 
1.7778679408346971 -0.64248953516918661 -0.88726455406406501 -0.25998980297283092 
-0.26304867982117519 0.56398562842410105 0.46744475111966222 -0.04599146279188681 
0.83198200709526504 0.29766894104996539 -1.2689554279293378 0.014763147403729901 
0.23937802284504392 0.17751229515255748 -0.16407337683958359 0.038918235133988274 
-1.007016124402627 -0.54043912995208587 1.4022824713460165 -0.45541358166019941 
0.31192099758075681 -0.36368457003221766 0.069110859599704172 -0.39790513918689735 
0.3791179451731253 0.83581123141619917 -0.53551942757925364 -0.25663614058085721 
-0.016207985559269389 0.04975193943281233 -0.0052630408919894147 -0.025614600638190307 
0.083398816801140169 -0.83902634405922671 -0.17716565275686039 -0.061422987025294543 
0.034557729756799202 0.00041585294944641513 -0.094893772015304717 -0.11194004912520522 
0.06031461731074228 -0.038932219790167651 -0.048104681443969788 -0.068140343823115901 
0.024036189911881618 -0.23182127630816984 0.02520831767790542 -0.010216428542009616 
0.024036189911881618 -0.23182127630816984 0.02520831767790542 -0.010216428542009616 
-1.3369614586822496 0.062816498860639489 0.1063349878668184 0.73824214448570669 
0.3658335617001765 -0.14584937859963962 -0.25914130188998025 -0.14264140143107321 
-0.011961775263631399 0.014881366453551046 0.042609060146608785 0.019191192843526637 
0.029567837373375282 -0.0034267793064008557 0.019683654705448778 -0.012972023994052836 
-0.14375042385459175 0.74128590533252658 -0.67596599866907703 -0.072873443391424958 
0.10489230675095773 -0.088932034253364628 -0.21153228172109279 -0.096791606528283891 
-0.014633704659503085 0.010490998408320695 0.030498722565903032 -0.12586525597365922 
0.0078846872848197004 -0.021746694445575428 -0.036612753104842952 -0.089026665071951311 
0.1985388276075421 -0.60134318087477379 -0.080781104662016517 -0.32307791176978451 
0.25583433258123145 -1.0773654007016604 -0.62785359383510553 0.17240311932623553 
0.029567837373375282 -0.0034267793064008557 0.019683654705448778 -0.012972023994052836 
0.031010018189709884 -0.074162993964483157 -0.058534155354251785 -0.09608268441198034 
-1.5162381023039515 0.040002654413355938 1.7311207928686998 -0.40123728031864525 
-0.031076964503339764 0.011801267374176271 -0.002172484989014188 0.023547028967639026 
0.00362248072803667 0.014455396165493295 -0.10300773699829907 -0.046625785933882918 
1.1735949518149653 -0.46120803657539777 -1.2301111840730234 -0.12932531407526515 
-0.10344138075542172 0.31257739531014439 -0.050168897869636783 -0.16517890819580555 
0.49595952163924062 -0.39375130261268365 -0.1680474128468166 0.03970218198666392 
0.10701222000545972 -0.22294807794211743 0.32006839638054774 -0.18285796561437623 
0.47524516798362859 1.0985636873305429 -0.56518403392871008 -0.66478660874983853 
0.073605213982890563 -1.6060455628559611 0.34444744433200897 0.27632765735023584 
-0.0052055027797648992 -0.0027749236182199131 0.035984903323583742 -0.08678720178501248 
-0.36872581232304347 -1.27493632757757 -0.15546298109931256 0.26064313281267831 
0.20862873976842741 -0.38780620861652398 -0.06495086308230491 -0.2118360492997638 
0.14998991847476811 -0.034656579950365488 -0.21823132249654953 0.066427507962909735 
0.17704393529205675 -0.30310138785516938 -0.20602705924300102 -0.30614972602492035 
-0.053643458823523983 -0.008872128548045085 0.037988694998572423 -0.06673598086416789 
-0.075595306360799641 0.085272889067830773 0.01966196755441714 -0.064005657115005499 
0.22166259668244312 0.024081974175957994 0.005124038595332836 -0.17003031923294834 
0.11510031659984347 -0.040716080250895639 -0.052371502749917392 -0.23446611242868579 
0.0066216993168613444 0.050811199313495412 -0.027556449995184275 -0.025563213554516767 
0.033446689312973524 0.11118805919506952 -0.08090876435746211 -0.077087271754428421 
0.50152518790739198 -0.29580919560105434 -0.30667772527219178 -0.017542781051278294 
-0.097300792619094037 -0.55935357156164445 0.16394748932409076 0.32834872869901266 
-0.18384395899349223 0.19157609060869463 -0.029816146007365117 -0.56721425435325767 
0.50152518790739198 -0.29580919560105434 -0.30667772527219178 -0.017542781051278294 
0.27421251230104482 0.042535169070846438 -0.40277072676918396 -0.44582933089545385 
-0.051443432927278446 0.66337784872985806 0.028352603100480669 -0.30364634706740073 
0.041832635854159333 -0.14340730759353928 -0.080944836518377306 -0.19542278041573519 
-0.17984489261747938 -0.68864381601346858 0.12985063080929704 -0.15481034851348452 
1.117050321500985 -0.78985333199693752 -0.5837128100559329 0.047332786858745556 
-0.30482667823435872 0.53920823976267618 0.069010984016714849 -0.32275131514120148 
-0.047060807921619541 -0.47727352844093213 -0.054396108072548396 0.065456034600616456 
0.35598787185369513 -0.23443406286678964 -0.40176645345115741 -0.20036279585029215 
-0.32213412947299935 -0.3610714711371511 -0.14234568468590159 0.27176975089878386 
-0.92800235437364598 0.23163325719229252 -0.070816555680805193 -0.2141403829673531 
0.24301560254370191 -0.3228326864202874 -0.23727144892998958 -0.15930423276203631 
-0.029125817209779609 0.063440216819779321 -0.0053800964749947319 -0.086384291718860542 
1.0102090172509495 -0.0009886121385883264 -0.046738013253222854 -0.14960231739147284 
0.45726478418257799 -0.65639923995599148 -0.048576579634767317 0.0756017453358582 
0.16364547197538221 -0.33008744119689637 -0.16256713782655782 -0.12589688527386256 
-0.39552353182389133 0.097257061547521007 0.065164661513327948 0.13896614428111084 
0.57714480277469393 -0.0020987965488936089 -0.024812071557016202 -0.14385295892076178 
0.001247573288868091 -0.077197814438872997 -0.016610572253991873 -0.016597496851912197 
0.20533677081205617 -0.63403973598168262 -0.083556715133017434 -0.2342332928532268 
0.13652016594327637 -0.4159308797974951 -0.0027552466002896724 0.077465454174992981 
-0.6832973667610891 1.098781720501089 -0.96626581088052887 0.59464511410905607 
-0.097766413053022222 -0.11518393240894338 0.076670855185234074 0.077117616737791411 
0.047615124863546826 0.29029225873731079 -0.17321951347168485 -0.28541099858914387 
0.097155129822904113 -0.29760713867557209 -0.019539670586062836 -0.26833757997944285 
0.55253834028952142 -0.65576966431444461 0.42679767322944828 0.14717809376382596 
-0.25612812099874716 1.067016185651082 -1.0051874312388558 0.53573770007865906 
1.1475459888133255 -0.39333203954745977 -0.37417741408087934 -0.61677000696712581 
0.28943124857424629 -0.24912902876009718 -0.27240872397258908 -0.53820583887511619 
0.16670813763177833 -0.33726728728648925 -0.50778327045054683 -0.025360550208599258 
0.38021776237197824 -0.78232978106159434 0.048268838116363955 -0.36219457080050066 
0.17215633001686675 -0.19020453950226995 -0.13164859995285111 -0.06402048169825128 
-0.044262895452447278 -0.078780681617421258 -0.02515626830791233 0.28135328906292534 
-0.073080973842172756 -0.2172385971027323 -0.041776316556270669 0.23760432391337155 
-0.10572834292188964 0.86839339160186901 -1.134525480255538 0.3586715534319404 
0.51923009004073539 -0.42399695522630365 0.055862411152088953 -0.22824241967227457 
0.98130291964527705 0.64005611419320607 -0.68906092974041622 -0.46957111003657009 
-0.14727482297996755 -0.36585970221336966 0.36968967556380439 0.19579081634847861 
-1.044468080684039 0.9577735118734948 -0.41481541469493355 0.056251579429124426 
-0.60631245809253309 0.39486532732309521 0.2135851696299455 0.36112481730287954 
0.51923009004073539 -0.42399695522630365 0.055862411152088953 -0.22824241967227457 
0.51517893915131818 -1.6702650979834441 -0.5556570226509423 0.52740769554838107 
-0.97234993500393496 0.15848111989838248 0.66458189975524473 -0.055059820448764354 
0.30637963571698879 -1.4317711508673003 -0.29742885277420339 0.16063267645274826 
-0.41729390100393082 0.13973159476574643 0.037427989342087131 -0.14780115687052209 
0.44827387669514174 -0.80185165681110349 -0.10642408272242099 0.0882247471943194 
-0.097391882588713341 -0.87126301152119312 0.16910353119212043 -0.080364640068153553 
0.38816661445611245 -0.12349265330730214 -0.2160230975164146 -0.07237171823903818 
0.38710908341924383 -0.12641579392604763 -0.2607700645544393 -0.073907757713570374 
0.050865037306613167 -0.025832724310815951 -0.025974182768618417 0.096265130796564832 
0.30771882644269177 -0.0030087228740887382 -0.25027420779720239 -0.069491781107138106 
0.062071812642364603 0.089495710291732922 -0.066819650229448413 0.020147626832952042 
0.04367176331406919 0.13663094924102073 -0.14230743627332093 0.020635155959074308 
-0.26277824952054152 0.2685307783044642 -0.1211282313742069 -0.041876124004722612 
-0.26277824952054152 0.2685307783044642 -0.1211282313742069 -0.041876124004722612 
0.19057941151952967 -0.70468167252181113 0.14218803481271361 0.01990013162538792 
0.026533552801862328 0.0098485278724640864 -0.053066640642094536 -0.022927241426988425 
-0.26277824952054152 0.2685307783044642 -0.1211282313742069 -0.041876124004722612 
-0.26277824952054152 0.2685307783044642 -0.1211282313742069 -0.041876124004722612 
-0.26277824952054152 0.2685307783044642 -0.1211282313742069 -0.041876124004722612 
-0.26277824952054152 0.2685307783044642 -0.1211282313742069 -0.041876124004722612 
0.39602065644178136 0.1728982481459102 -0.20013232460151203 0.06103751085163555 
-0.068544102682032412 0.11471533143421724 0.087876472709100248 -0.098623344094244253 
-0.520170450412892 -0.29011314523863535 0.49401973190066262 -0.35859415876822964 
-0.082465281635416388 0.11236546078409576 0.015554538940551104 0.017207001858748558 
0.5279836547209783 -0.1767497857215429 -0.14406830533911874 -0.57873066046172217 
-0.34563324882792229 -0.1341549566372775 0.41869831328801749 0.0098135755747131535 
-0.34563324882792229 -0.1341549566372775 0.41869831328801749 0.0098135755747131535 
0.0083597408602106189 0.25430380457293555 -0.060463191625652404 -0.09654387539530937 
0.001201643721679713 0.083547730487042962 0.01903058521838815 -0.24254341993008421 
-0.34563324882792229 -0.1341549566372775 0.41869831328801749 0.0098135755747131535 
-1.7363149810572978 -1.1902421014321294 1.5036065017762259 0.18830267497901704 
-0.18102786449170102 -0.29261691590011119 0.12225795569966047 -0.48332120301518461 
0.24873427024901804 -1.556371379085193 0.097660625559742753 0.30353843210494014 
-0.040918115568928819 -0.51739044557902503 0.35752792514551679 -0.58917641816366151 
0.045838780721182103 -0.095131908436255894 -0.02037873179820282 0.013145746735780131 
0.6172456600350229 0.11984152076897342 -0.13970171140694704 -0.1441305662851588 
-0.055185150932622648 -0.035756764607595096 0.047318331617978257 -0.0064087154263650203 
-0.042139260701336771 -0.031239215294951401 -0.028090364584880678 0.1540510601337623 
-0.42262197382626132 -0.43643877288470145 0.3332615873843402 0.066130679920686733 
-0.67504550560830023 -0.002764656763102202 0.66482990397073372 0.20092768997879829 
0.082750858299253521 -0.23310917704077799 0.042760824180805332 -0.029164154600733898 
0.087218294502971999 -0.3100320362272812 0.018154282996375629 -0.074259954216156346 
-0.91530817873244441 -0.00014050055268446119 0.58566604734642913 0.017969084981510262 
0.095748752134312914 0.36493197379013426 0.18445452202657484 -0.64219069093641357 
-0.22371439415838862 -0.064273218375414443 -0.24500217191277912 0.47143330025988822 
0.20430216278701052 0.9345113952248798 -0.80758359962981796 0.33502016199411599 
-0.22197860746683587 -0.17324774716114438 -0.096482588440913009 -0.025504481585248224 
0.41651511514569972 -0.069364054140150413 -1.8842382675924445 -0.060463937549879658 
-0.034725388320954842 -0.089372669341426514 0.24194824107411106 -0.22132289051637233 
0.3848511507988126 -0.15275928987314485 -0.011942231505962964 -0.41472053545241488 
1.0622197638875903 0.31596071259138109 -0.5443254090390296 0.086631430221975711 
-0.16754105397831009 -0.45458655576177975 0.095842881255771561 0.038217366452102317 
-0.31087783171239081 -0.00054004176361035052 0.58995357328739428 -0.021810800128044816 
-0.14706800833020356 -0.38658432706044088 0.15077227962301026 0.28326954559861256 
0.57021078487173682 -0.56592787065784378 -0.072847731543957184 -0.59944102087812134 
0.23611436807273775 0.34278565814756778 -0.10707994941359089 -0.080600826035570006 
-0.2246576463377912 -0.66466293604326987 0.45538714967956101 -0.10374016014045587 
-0.1232492238459898 -0.16616953345785604 0.081061314669980317 0.13250040142536501 
0.21083690562507262 -0.37357145485910404 -0.13988338004300119 0.1142977364536847 
-0.97723472579990611 0.43783719459461323 0.57078524257087349 -0.03707354486258279 
0.014758118807135704 -0.099066328512772389 -0.040575056112369744 0.081959435906338127 
0.18981943091062553 -0.16648869453120291 -0.15751182458882931 -0.051566384282390153 
0.1819494432233498 0.070731540248497204 -0.23809819020360296 0.22890618953854128 
-0.17399116004873152 0.45583224504999698 -0.43409892259073268 0.010085091287179548 
0.352909616373697 -0.49443428284291085 0.039121351474957128 -0.024148163271301162 
-0.56078522393939267 -0.41904612463287932 0.15626847409848127 0.078793665292923115 
-0.0016891652868672793 -0.087990025241834663 0.0043571716580481428 -0.14829113764353405 
-0.23011170155130214 0.33623680949245766 0.014839014369468703 -0.27260680193879128 
-0.099092143907202918 0.013847186741683207 0.39482307081141421 -0.12203576504240532 
0.42517052177911507 -0.23505261881819139 -0.12196954135441278 0.013062709505706954 
-0.99630215430616065 0.55954983924560253 -0.16693214950537252 0.52008599925105625 
-0.57396359253618967 -0.091893012248114164 0.021253750810285493 0.2878535694484286 
-0.87017666520288595 -0.57939887121245726 -0.3831972866134607 0.92656521994269592 
0.023355811835349363 -0.11493132489420982 0.33528873035463636 -1.0315626261495334 
-2.0755166524993713 -0.0089573466364668841 0.77997741457060998 0.15179406229733106 
-0.77992124366618887 -0.47487800758005116 0.53853632375871507 0.43635093029242344 
0.83875675068514821 -0.13984313098636605 -0.23929076561388118 -0.34343219610071207 
0.029641703021800164 -0.058203960717578961 -0.01150374035004275 -0.052233709690191664 
0.54649662977217983 -0.17040322107962191 -0.14170771082984013 -0.18838615545213208 
2.2474568345191468 -1.1255519302088224 -0.72019764003131992 -0.23107838000142908 
0.048531678989447477 -0.43281589057176117 -0.19928531845218642 -0.13045984885980705 
-1.5095952886658575 -0.81437368714495972 0.78808878910062208 0.81572493402585511 
-0.015168440190268903 0.040149362559775012 -0.025517512643778752 -0.017279009412727871 
0.053745510293009849 -0.13761511606685134 -0.031598907100950882 -0.021973955656321636 
-0.087950979446512437 0.34738291061096016 -0.058381718150068304 -0.22772744777926351 
-0.50978990694834536 -0.46785501283754161 -0.06319741775964767 0.93238249375913285 
0.42355510898940024 0.016517234580058548 -0.23311918383148222 -0.21310733293684261 
-0.81018213890089208 0.97611024270794422 -0.28951807591208861 -0.33219374720347983 
-0.38302441128630987 1.2167937103208908 -0.13275797369318326 -0.24148298195636958 
0.079372823425489875 0.036183176257020284 -0.034790149195460751 -0.19460056094604061 
-0.1702669849601684 0.034837242343154988 0.21804823755989475 0.078791821063370931 
0.37392595630712544 -0.2986706161207856 -0.22531154726791616 -0.097583355240488709 
0.16291632480460594 -0.28386952078136835 -0.094886054403981956 -0.13029852075352424 
-1.0106237991290274 0.21605481901024795 0.38800859965746881 -0.071922438903404343 
0.46679808625675656 0.10391260963746608 0.51861810044675094 -0.098647869978191499 
0.46679808625675656 0.10391260963746608 0.51861810044675094 -0.098647869978191499 
0.20874044827806759 -0.27900674080068794 -0.2204723806794624 -0.36773340193342502 
0.57795038298218371 0.096956841320163828 0.57263014480667906 -0.043672837590025937 
-0.48789443543157474 0.97200065470242025 -0.84267620013637501 0.5799923741807852 
-0.1052422907945572 -0.28725181733904637 -1.1469105844835989 0.34204202848128767 
-0.27550643354503551 -0.2036093332402846 -0.15560650050069535 -0.059544671249840517 
0.17346298962205131 -0.14549230114863643 -0.061400514013301349 -0.25664928545481658 
0.029041388243631776 -0.27060274739734874 0.081946000870043348 0.034108099569183106 
0.066003427659278649 -0.046954878080004273 -0.082344241737250773 -0.10465495775564854 
0.139995051752621 -0.33762637547767821 -0.054878155048544597 -0.13070117005583559 
-0.34823852666332555 0.5375168013264473 0.17022496326422384 -0.46436025612342435 
-0.36477835658366586 0.62321537367001156 -0.041335433888272557 -0.074789662930885001 
0.54904042712944356 -0.62526288867635849 -0.2733410540222333 -0.11266399052263934 
-0.45173699139276358 0.87286451157093137 -0.84974952381992175 0.56244760441944874 
0.007864548435320768 -0.27204546898866522 0.02202222058878291 -0.15692866692758278 
-0.36477835658366586 0.62321537367001156 -0.041335433888272557 -0.074789662930885001 
0.11601577679262802 -0.020316146509204248 -0.10127746735652203 -0.01820658952846943 
-0.070410213015558679 -0.065083670223650317 0.36701064064378552 -0.14381492093707943 
-1.1433273038862533 1.4608920387068969 0.25311034151208822 -0.21779473019417833 
0.36491052837457472 -0.10831279567240039 -0.10478883086171313 -0.21290078708580157 
0.0071013882666574862 0.014701876098321354 -0.093126558521106018 0.06059638517448572 
0.17280758251969297 -0.17812454229934771 -0.24146211661880898 -0.3014151398607669 
-0.7314878051967848 -0.63446152379338738 -0.030582090040436449 0.22192841083816184 
0.18919559597927293 -0.36734971724998011 -0.10230624308796557 0.17907843758262076 
0.33596335253818915 -0.46469488069742648 -0.13754001199934279 0.3232199912083627 
-0.173429725334692 0.3937712726646399 -0.015869876412086634 -0.1107557841377444 
0.19501646822099589 0.024978792269293504 -0.10875665622740388 0.091668934136910823 
0.33053437320386592 0.053864534720018467 -0.45068247074661927 -0.13241713324073667 
0.024407397437735838 0.036078799065114436 -0.059301655436274969 0.085333360139265554 
0.062577931800027062 -0.65281346676302676 0.13530348863521785 -0.16578429874101192 
-0.27016557475205732 0.094701834724908424 0.46260309274738021 -0.077552625010549769 
0.024407397437735838 0.036078799065114436 -0.059301655436274969 0.085333360139265554 
0.46104050145337855 -0.0084237888635190113 -0.090691492141249497 -0.25171371665665326 
0.46104050145337855 -0.0084237888635190113 -0.090691492141249497 -0.25171371665665326 
0.078062409138598507 -0.48027409502962115 0.099500387702472215 0.1607307765958112 
-0.032296839530728129 -0.12758814610734187 0.14430968598750255 -0.086065407581724374 
-0.050544746310964062 -1.386369816107246 -0.063525659437132898 1.3543643988325109 
-0.17261089388398626 0.13721649196695948 0.22791070719240136 -0.29650577864138472 
0.46104050145337855 -0.0084237888635190113 -0.090691492141249497 -0.25171371665665326 
-0.14831570949227332 -0.032174321422195652 0.075823784482863976 -0.32691900728302514 
0.01048217064165421 -0.055461916612197834 -0.069277871127046101 -0.044079644779633859 
-0.10652540826575643 0.091367301445040391 -0.2188001412000366 -0.12144648209556601 
0.17098483048334281 1.1250911933780596 -0.50593065272970539 -0.9477389829774262 
-0.43456211676552964 0.092104929215877374 0.35424149369050006 0.5139741564832101 
-1.0416370138126525 -0.27453737923601562 1.1814609859998242 -0.63750818492750816 
0.73668311344352255 -0.0014509023881495659 -0.61374956854983687 0.0016570967220287669 
0.63044795181564828 -1.0273048169669647 -0.20004300665315558 -0.44737257683002463 
0.021366449443232495 0.010193116674617697 0.22890671779955621 -0.0026206844536658187 
0.73668311344352255 -0.0014509023881495659 -0.61374956854983687 0.0016570967220287669 
0.10338751533608083 0.13039138509641615 0.016441969593304337 -0.22037434245836626 
-0.19112661955099242 0.035582300112730503 0.89016512458209796 -0.00068245735907576243 
-0.11401187601732851 -0.44468519830220521 0.1526887417872311 -0.12455247023901289 
0.21847083690743152 0.87360749234437607 -0.33113155988096016 -0.24964339917255604 
0.080960762839013989 0.0072626928778472457 -0.10484504433732883 -0.12969265695082088 
-0.30498238095851893 -0.41920325030083372 -0.31446723063242532 0.68135995033833019 
-0.00074095530020316588 -0.068163545817385526 -0.042769863234229412 -0.043954491979837848 
-0.18985970523529211 -0.27740691405496093 -0.019026507948490312 -0.25872051002760377 
0.027621222829218028 -0.56745258854531622 -0.083995958627024608 -0.018991593084127088 
0.02199332493028526 0.64001380163019717 -1.4634196907254984 -0.0041776548422745724 
-0.62961235635848789 -1.4925863637254706 0.92206832313187437 -0.43523392174827741 
-0.16646522885739606 0.45213057473439017 -0.56261944086708859 0.13924755863698279 
-0.45869978874544176 0.02482638658720869 0.24654217636305367 -0.059330012669817675 
-0.25719767828895823 -0.099213083262180118 -0.11079557043144216 -0.18183665102935864 
-0.92219973508055686 -1.0709197319657695 1.5496005498205645 -0.29286610036859057 
-0.50731100779761229 2.5311916961127823 -1.2403576067499253 -0.24425895286818131 
0.20816498840203282 0.73245686060200432 -1.5220472979803663 -0.093103852374994134 
-0.52600560860220402 -0.0044050671429673571 0.47938468503006482 0.058155117178817148 
0.19234548784712951 0.071441278595888169 -0.15323591186755303 -0.41605165079783135 
-0.31700214431820062 -1.385035131183602 0.29745630874954931 0.39336599271967992 
0.087431743408798224 -0.042519873286761434 -0.070309806125058702 -0.080452451887310789 
-0.069613692752788919 0.16649635470755209 0.40186148368329694 -0.18051898216215012 
0.05906387836058833 -1.155110822999859 0.084710253846522879 0.006906254979091947 
-0.52600560860220402 -0.0044050671429673571 0.47938468503006482 0.058155117178817148 
-0.042987473734592246 -0.17122709339093295 0.043159253028354702 -0.0013992406028190958 
0.013109844714412296 -0.16038557382643143 -0.024449345071735899 -0.053244954048247861 
0.031191694264123507 -0.1527086694938973 0.19885824829993753 -0.18141586085127362 
-0.042987473734592246 -0.17122709339093295 0.043159253028354702 -0.0013992406028190958 
-0.28215641287025872 0.25978902987478503 -0.16317292294152516 0.17743577090391469 
-0.71895817424968533 0.44117381602929617 -0.0072466033182544271 -0.62670322058285044 
-0.02764950446689466 -0.075107601896318557 -0.11058234117382565 0.17003731929321728 
0.062759102339751988 -0.07094014023024342 -0.15840473054181231 -0.31781868738443042 
-0.042987473734592246 -0.17122709339093295 0.043159253028354702 -0.0013992406028190958 
0.28337901502543894 0.2016709155595944 -0.38741367375604097 0.010645026727143694 
0.84467481154155077 -0.85439223142594334 -0.59377566072437482 -0.25783358517618082 
-0.47850437488156305 -0.0012664568342092963 -0.58178611859019858 1.0090501370993803 
0.10725232564770809 -0.28449705806791104 0.15069688527342626 -0.017008261287050422 
-0.030052701427342281 -0.27545853313267804 0.13808987283451901 -0.36033768919559589 
-1.06077143027493 -0.3872046467798636 1.3560467501152957 -0.50623530643073555 
-0.020517015272964272 -0.16050680364406264 0.040424653122256453 0.032832545973341516 
-0.44618412542599684 -0.0036209685489273554 -0.45367594672992584 1.0393239672488479 
-0.47850437488156305 -0.0012664568342092963 -0.58178611859019858 1.0090501370993803 
-0.10290385227097539 -0.52333160258382794 -0.085005254508595723 -0.017522786188997233 
0.72430000467638189 -1.1805008893332463 -0.14943059929587196 -0.079851491097677918 
0.45214487746978616 -1.2589123438330516 1.3017585526826134 -0.13888615239940744 
-0.3346735981988177 0.47996802295760377 0.95900931652127941 -0.13788720359320758 
-0.074952494879856571 -0.21051223126827209 0.025674525974281111 -0.073347150848841192 
-0.063204214512648377 0.1557629373213521 0.038570507625017923 -0.099206578521004771 
0.16331387649343015 -0.32106673147827808 -0.19310229380618504 -0.2867516741894594 
0.13319965775125667 -0.33711548468059638 -0.090053884498489528 -0.25473459255582764 
-0.53154993632120418 1.2917425482692455 0.11647312912896607 -0.82352066444692262 
-0.043431614127820262 1.2247436029943184 0.094480239697436186 -0.77248582605517013 
-0.038447391193394451 -0.30964265770399108 -0.07285482610987068 0.031804950431992614 
-0.22067775073146889 1.2490272482246993 0.14270554223027393 -0.79309263944699782 
0.32504310497115096 -0.045495443828714101 -0.097152170219336864 -0.55974029245907653 
-0.060625077087693095 -0.079314447774287228 -0.042191391999620596 -0.15555745931705867 
0.32003865861958136 -0.48478701857961937 0.0069882939209096051 -0.033792884659948577 
0.041225909312051112 -0.19053461038318628 -0.041572416890335653 -0.054886891401554998 
-0.031517656559158801 -0.13345832964398791 -0.024249943413091501 0.1700643182293472 
-0.89598336859809535 -0.80818925224447224 -2.9564476235813384 3.0756787873509834 
-0.058589230419882329 -0.25286742221088532 0.12301092643735745 0.049740645434493282 
0.57542014484704496 -0.68839405148387334 -0.49475024179592658 -0.32545712613617295 
-0.058589230419882329 -0.25286742221088532 0.12301092643735745 0.049740645434493282 
-0.13129086564213832 -0.059283761481020797 0.0057373589146263587 0.059362048207111037 
-1.3200671252184302 0.30140907047943072 -1.105651745281109 1.6436991413930238 
-0.39991403830770489 0.24470483515149458 -0.32589806842439167 0.2481504073472105 
-0.058589230419882329 -0.25286742221088532 0.12301092643735745 0.049740645434493282 
-0.26006150146379403 0.29046528604346328 0.21225124220997624 -0.10362703607055412 
0.048164003131542607 0.022783652192676269 -0.083390019277817806 -0.06253912365637497 
0.14330068503817708 -0.27432547028652127 -0.022045538617611146 0.088962002876876986 
0.60975012656387773 -0.53066119436874715 -0.34557232146683092 -0.1116779877812874 
-0.20945918616955039 0.0094291029333058961 0.00087535454502980781 0.0062269649214035244 
-0.14484066952471294 0.78443592681604668 -0.34141996170981764 -0.24907123839324519 
-0.22759862219877536 0.85638125780399887 -0.26694700363029994 -0.32214660414834667 
-0.71697185275155562 0.91060581249545791 -0.088855420052651402 -0.0030864812928217194 
-0.1092907707213694 0.05328772567296379 0.11484501575253199 0.0020881466740260771 
-0.31038574519009127 -0.09182941208576953 0.25112838223348982 -0.4964148685690416 
-0.27371472036878769 -0.098353821157945581 0.46330114815945378 0.054960231116455649 
-0.27371472036878769 -0.098353821157945581 0.46330114815945378 0.054960231116455649 
-0.27371472036878769 -0.098353821157945581 0.46330114815945378 0.054960231116455649 
0.12062790738443348 0.051999043159036723 -0.45942495140146955 0.32418620703585771 
-0.27371472036878769 -0.098353821157945581 0.46330114815945378 0.054960231116455649 
0.30227396487929387 0.13813130541238128 -0.42275232297227228 -0.052301433221629778 
-0.27371472036878769 -0.098353821157945581 0.46330114815945378 0.054960231116455649 
0.059481916561637121 0.67525693037041778 -0.98942263877926173 0.39917229810994992 
-0.51613318484169313 -0.48669012322859906 0.61627360998469682 0.13617986213065367 
0.78103998569779098 -0.008047298341006117 -0.6829959478429698 0.099237416513381915 
0.12631696927490055 -0.0085247710632075126 -0.037441892280956263 -0.01874290052609379 
0.88367604986339165 -0.37860943748395742 -0.68122168184944198 -0.17976968506409582 
-0.22781420502835867 0.62851908081535035 0.21075687498348314 -0.57794827901981793 
0.17196694090778358 -1.1207209294879061 0.23981425484792088 -0.056836290541427047 
0.057956414282302929 -0.0081571109100641772 -0.03277994408134273 -0.017523612073463334 
0.03273199935556087 -0.77005055572249614 -0.029325610391656973 -0.022116552197656982 
0.10514532896672671 -0.01218879628463259 -0.046426132022111433 -0.028401157907041539 
-0.31717460252257601 -0.17306249156912834 0.055503323010945543 0.19862785360364746 
0.1563975458321141 -0.045360857203146095 -0.13103406729050754 -0.29064920146284468 
0.050806155719851906 -0.0043363082078887935 -0.046667070381525066 -0.075287298066247649 
-1.4639454618982617 -0.5426797779779311 1.0942192120649068 0.8524619467947212 
0.23773170245405911 0.046832899798471932 -0.25490657905236019 -0.25008319138146423 
1.4515644451673495 -0.42978966045478817 -0.49349191557681715 0.20526992470815114 
-1.1603949104532811 -0.037581827346361715 1.0525730024701216 0.2974519604575252 
0.05820308122053388 0.21987155796463623 -0.12061890563824224 -0.77731285005051476 
-0.090211559148697745 0.24031961242267452 0.31397527860082236 -0.072979271535379392 
0.059060898938356636 0.15073519794351684 0.25447295161774897 0.19268624181366975 
0.2446761870933562 -2.0260415942233445 0.12552591432210924 0.2467411802417592 
-1.2673798721929224 -0.099814306393364055 0.93211176012140928 0.0053087246592991369 
0.14762768297096476 -0.57304302825594111 -0.68914902855288895 0.25071387616439789 
-0.56845201829894365 0.18323115949234153 0.87397088014135926 -0.080444678676448875 
-0.035100749003592786 0.45330245461560348 -0.12570069791000205 -0.4957317782789723 
-0.041921286035906183 -0.021788592551819148 0.051646191567497821 0.093406808649320702 
0.11384991947141905 -0.038138480571008909 -0.19563394670117812 -0.05468885738295013 
0.018913175438751886 0.68364617649667725 -0.29319315706125426 -0.69078675458665129 
0.2332579669074564 -0.023932652159178031 -0.080665347862610509 -0.34717164776554743 
0.069400219146684622 -0.35988807846583071 -0.14301381334661445 0.18070525062220275 
0.15986831630625012 -0.28055301260251719 -0.17103707764887238 -0.059807615665933872 
0.004510007361924754 0.053828676174292406 -0.16995839100838023 0.1821274046383301 
-0.091523130050655072 -0.17206078433807542 -0.085919573075655453 -0.70412099432133868 
0.020027109267567372 0.88627626598788622 -0.78964318395367394 0.131180197008085 
1.2606878812011162 -0.15503860177084994 -0.889573937937569 0.16116657347684682 
0.31660256922548979 -1.0038724204453842 0.087248138333570771 0.25244498059231424 
-0.94094238024332921 0.28922788342305206 0.71527926563445954 -0.16720243387270139 
-0.039584467561717275 0.53771406633287067 0.26072974146023442 -0.45846376553949975 
-0.60856391909828345 0.77211674676034714 0.07490764542481998 -0.44494142384180613 
0.15804986324762424 0.16974650323250201 -0.31313394238772119 -0.36125658538682676 
0.63310571127057536 -1.5507725004239314 -0.22631835023975175 -0.21474281268506401 
0.15989947346781305 -0.0035494738264311978 -0.16344221161739492 0.046487310188665816 
0.15989947346781305 -0.0035494738264311978 -0.16344221161739492 0.046487310188665816 
0.29176030350704241 -0.80080535531260533 0.27135860748918467 -0.0091917586071325053 
-0.27581798784596639 0.0041636856402502212 0.13840425018462854 0.8896428188251484 
0.11442810405961769 -0.24831774136334211 -0.034931715704864578 0.029238880598037094 
0.17288731598873122 -0.0041404039891150598 -0.28169658980025969 0.13333502783866708 
0.13315529354169053 -0.55092364735682375 -0.11737318006475828 -0.1444509557394188 
0.13759311255700568 -0.043753041012581123 -0.23599336126734899 -0.066223248225647735 
0.27922661763015266 -0.11856892202680053 -0.91164026696025691 -0.050079430606587212 
1.2681282451367026 -0.0047463150803666518 -0.99303047720066739 -0.001997053124826384 
-0.2870745296072999 0.53037914561154387 0.034991135825971763 -0.38284302630951905 
0.17735246628730106 -0.37870873432151908 -0.038009918189335246 -0.25812912643530289 
-0.4986785190009731 1.2297826350610785 -0.14066634688798202 0.077000556032320783 
-0.16581191664518435 0.038384372553731477 0.12461487228187798 -0.22256253394945591 
-0.19692520013350553 -0.71108583683845916 0.18734777275333803 -0.039616782561461568 
-0.089577426352113895 0.11198751166643954 0.038008492997863956 -0.047267424123909829 
-0.42827434558187438 0.44969326720671554 -0.081097427527875701 -0.91416691469073252 
0.32230805160295078 -0.55869384941957767 -0.58634616995316835 -0.028107614021627224 
0.050287000393912366 -0.22402082017953728 -0.052191742815350467 -0.017364654825147978 
0.32230805160295078 -0.55869384941957767 -0.58634616995316835 -0.028107614021627224 
0.0023856532769490207 0.078627759633998262 -0.015410239346892939 -0.21419837147356219 
0.007004968587814393 -0.1620444215382108 0.051942941913061355 0.056709118352628873 
0.20530973251144943 0.50172107004252586 -1.3486895359277264 -0.27385101634614156 
-0.28462028631952108 0.060620498597366262 0.070564204904813202 0.12028761466241289 
0.51470364960162251 -0.16848943412882073 -0.48606983518329461 0.11324408169549297 
-0.29526489849856213 -0.14227718088688529 0.42639775441001282 -0.0091838210190498867 
-0.14925458391851223 -0.088007177783557627 -0.084210680006378866 0.14507187436836672 
-0.62148854853855151 0.13084509154376817 0.96662591976091694 -0.1706941114688188 
-0.077788480436639953 0.24773945041975073 -1.0189664639590288 0.024910533879187065 
-0.091189040371041558 -0.10634095893176675 -0.073752012175482842 0.096301208358697321 
-0.1936388878616685 0.42842926861945158 -0.23492766176421276 0.010695262589453124 
-0.1936388878616685 0.42842926861945158 -0.23492766176421276 0.010695262589453124 
0.10263621666713485 -0.18237113928948381 -0.080906245033860569 -0.99691637737318128 
-1.7617980431133931 0.020195625731146846 0.96964833848252097 -0.24590624564791169 
-0.2277751682955787 0.46404560333659789 0.47901403385550695 -0.52544055623414154 
1.826002457454448 0.046140466855223737 -0.56713200498467919 -1.4524342904066021 
-1.4552188601587108 -0.27444977128961856 1.4036128196601563 -0.65059128402981614 
-1.049045553757328 -1.0107704287839123 2.082725974930792 -1.5488308708088561 
-0.4432926714332413 -0.13990840911297958 -0.20732899333696223 0.14568508400579611 
0.39934026689198254 0.17042426521356596 0.21876194036781221 -0.064324130945227431 
0.071029171984464554 0.11642412288403374 -0.081600276861765547 -0.2246827661861481 
-0.13503167634440622 -0.024522884485836081 0.13392816186391801 -0.1698674563694888 
0.12558023181388334 -0.067724092327948876 -0.018064631359455768 0.13733782096742478 
-0.13147092018041046 -0.0029250155632252386 0.12641214656597696 -0.0034532719993541948 
0.028159683361925147 0.11199110304674965 -0.22381117074950929 0.0053268923508236615 
-0.13147092018041046 -0.0029250155632252386 0.12641214656597696 -0.0034532719993541948 
-1.37106311171207 -1.0595067547643482 1.60822616950602 -0.32033727718787836 
-0.40304111368081491 0.24221077627306481 -0.39214753563847993 -0.38121590447104331 
-0.13147092018041046 -0.0029250155632252386 0.12641214656597696 -0.0034532719993541948 
0.16482120109103721 0.15611905182816505 -0.14158721710911262 -0.49924813612759766 
0.029395358242062946 -0.18830834908112276 -0.010079193452523359 -0.11358427812309835 
0.29009977053898534 -0.35110599745906723 -0.34496442783244696 -0.031444340727493386 
0.35518455086517009 -1.2973256760612375 -0.10313754411587307 0.28277588261061037 
0.26516836433272251 0.4956490956583316 -0.077126879719322736 0.026063083535343284 
0.61450655350808314 -0.11268049093927192 -1.0693825718280392 0.27868744697069409 
0.1311797765950658 0.060777801664127183 -0.1008328667229644 -0.29332912192079802 
0.093609957416079942 -0.96614637511176527 0.25668369910844935 0.23017257083270506 
0.017798878689008708 -0.48798219482700178 0.15285447922647019 -0.15348843742720653 
-0.12674861523499023 0.33743523539152848 -1.2557060725262046 -0.46352169517752978 
-0.087274258078479355 -0.3702610299339183 0.094017764125881961 -0.079016441766862663 
-0.86598515644987639 0.68649993649087837 -0.067301046111933882 0.057966585192251868 
-0.24351932864111087 -0.47779245184152758 -0.11348325091462722 0.63704722618972598 
0.1421663558988063 -0.025343177878453645 0.065403522253522903 -0.46319625707462658 
-0.31947176238587233 -0.39984970986058804 1.2550266382533086 0.0023886207292214308 
-0.21569926525003633 -0.43771698070944609 -0.049155011854858766 0.4046337341662406 
-0.45591266827343913 0.13319592080455567 -0.17690938911026732 0.142773819137857 
-0.14279007038774008 -0.078008472035607554 0.10602787744519274 0.075338818506645339 
-1.0349252657008172 -0.83094487765587621 0.82281947751885331 0.035881284194199253 
-0.14008747429464227 -0.012739091795773476 -0.11787092095875429 -0.1453603674472542 
-0.22170133405793041 0.14854079103378243 -0.50622764278003152 -0.25012729222396402 
-1.307427866235678 -0.10662315557159999 1.5548348913954118 -0.8706146243497852 
-0.023289819484533444 -0.0052193956852164963 0.026596918593759025 -0.099979628782621635 
-0.042427737380552333 0.58551954100084425 0.2305931732729487 -0.83664197440788535 
0.072777242524399308 -0.034671709075151894 -0.077832329972925718 0.14513483667337679 
-0.34149377849534546 0.68217649801563907 0.22208109824669761 -0.15075651418399125 
-0.67370191728065265 -0.10025446351446249 0.96943001423315878 -0.42299368218459643 
0.23214167871266617 -0.35001837510370298 -0.12296570065505083 0.089431685117868337 
-0.40543613116345523 0.069489666500466674 0.36452500964218515 0.15567029148366229 
0.1026786156986616 -1.3665935691776656 -0.071093799771863919 0.0086205203648725276 
-1.6348314241641897 -0.24292584268923739 1.3945971369926691 0.09671619689347033 
0.23863818347483048 0.28548751455170718 -0.18284241902092815 -0.59611685474931586 
0.19436049114416534 0.032044400891594133 -0.023936384525974394 0.019625954944063499 
0.71899330067634004 0.028979246055906023 -0.51303691636176618 -0.22473857430247671 
-0.38491647621980529 -0.59045563315240646 -0.42628658108573375 -0.25807191708560673 
0.19436049114416534 0.032044400891594133 -0.023936384525974394 0.019625954944063499 
-0.27225845445402574 0.29330571457895316 0.042092955509146407 -0.02394126709788108 
0.19436049114416534 0.032044400891594133 -0.023936384525974394 0.019625954944063499 
0.16179889351812518 -0.014382895486021757 -0.37766257247420298 -0.2754178499583908 
0.48761424073165022 -0.0086439290037047464 -0.44695418663520997 -0.23351441037722132 
0.18454152107764707 -0.088878254327165618 -0.27166702107100127 0.0027222314843733941 
-0.014006484592675708 0.063605191657073373 -0.052460190869287063 -0.045245214458957336 
-0.37849027500109195 -0.53066016564535057 0.22026840737454137 0.02291809789939725 
0.54039511399855611 -0.0031779726889973924 -0.49227573395206037 -0.25190613901513742 
0.54039511399855611 -0.0031779726889973924 -0.49227573395206037 -0.25190613901513742 
-0.064658276121981134 -0.7915779406194825 0.064415847034925061 0.64571333513536588 
0.16243682748888844 -0.72797851379864187 -0.11478436030177977 0.38007245461420924 
-1.4747614620969038 -0.99477107068343262 1.560037132260002 -0.40248331618958866 
0.041469937147746563 0.44738727144550289 -0.2482943794693 -0.082617414084563093 
1.2797625763060312 0.035612178792679958 -0.28214853374589199 0.0058410254295525295 
1.2797625763060312 0.035612178792679958 -0.28214853374589199 0.0058410254295525295 
-1.2631413557299078 -0.99871527975488039 2.042175198645662 -1.2232154439206622 
0.046432400635343651 0.39385216026665065 -0.15956817850329441 -0.35279995459296798 
0.13965828955941711 -0.65580397743075614 0.052141150666646804 0.11092160623415635 
-0.1902323189606005 0.12077493797083047 -0.3268906573182358 0.55599539263864606 
-1.0225818943165914 -0.27099844054380923 1.312915766228677 -1.0138973983998327 
-0.12874615885495624 -0.0071457942598731547 -0.80474418186216845 1.1843245984500368 
0.082710117749439094 -0.39883965298130764 -0.067553958974793354 -0.0049021769261570897 
-0.016829079405309835 -0.0049074887758981632 -0.79488007183214648 1.3757723569697564 
-0.10076346817956087 0.39237057793798646 -0.21937471200028744 -0.60788314388306985 
-0.20424809246068013 -0.45433560752319491 0.093320927300141188 0.30168716149956221 
0.18382742015521503 -0.11589873932821895 -0.33894354834959839 0.082012575578685992 
0.21716690399700728 -0.15224517421535474 -0.079892142523150772 0.0067653697220288085 
0.00065839616562712888 -0.0052360652316673015 0.81821053632903451 -0.58529359441737794 
-0.12502090814319444 -1.0614792086953524 -0.10325478167568281 -0.4151260207110633 
-0.10802943864712786 -0.049191313370930481 -0.03249651562107489 -0.038338775495527694 
0.13869841545192133 -0.014072741063915706 0.82414855472707904 -0.53089751672927643 
-0.0025336800935708073 -0.015348864884009716 -0.0071870024170351317 -0.059601987628763842 
0.00065839616562712888 -0.0052360652316673015 0.81821053632903451 -0.58529359441737794 
0.20090676551232567 -0.58743447995498821 -0.47422908037117373 -0.53437473736928531 
-0.97987355074478666 0.47402643674242706 -1.2869695671841552 1.5125768935153894 
0.1220200075309423 -2.1909005739068479 0.39655365329069392 0.50185145303407586 
0.00065839616562712888 -0.0052360652316673015 0.81821053632903451 -0.58529359441737794 
-0.39356946429385753 0.065615074600702178 -1.8761195704247648 1.4162849008713283 
0.00065839616562712888 -0.0052360652316673015 0.81821053632903451 -0.58529359441737794 
-1.5178001170586608 -0.5135172891987374 1.8218782394495641 -0.52286198852456622 
-0.097005499555696248 -0.10353463049572453 -0.29229403993937275 -0.053155241098474068 
-0.79117193670469121 -0.54674035657799591 1.3369525583137434 -0.46755245579790927 
0.0041660886469843342 -0.00261164969426476 -0.30653542738605433 0.45340456002861756 
-0.13445185662635323 -0.0065848600471171068 -0.065317350676638186 0.021246806013185522 
0.094330000085268734 -0.65052458524611823 0.020676827031572854 0.10960445508399419 
-0.4975240068982823 -1.9439023257484103 0.69919608879379347 0.1698385315678177 
0.0041660886469843342 -0.00261164969426476 -0.30653542738605433 0.45340456002861756 
0.77038272570015742 0.1054757079411405 -0.40907676209557708 -0.40572174974093334 
0.96118974794751111 0.062542170532513847 -0.96467934221341334 -0.017423880945766142 
-1.5793672018774652 -0.1426477875255357 1.4019415554067549 -0.15879723932701334 
0.11089060234240387 -0.35904260489768314 -0.086208068755874459 -0.19393955504278398 
-0.94124239798891352 -0.45255948433496562 0.69736254553216204 0.052126475727082185 
1.4123863790176512 -0.35478170462952802 -0.6056207894697534 -0.13142541437686489 
-1.1385396194541713 0.84447794444962154 -0.051976061655018051 0.52286718712340186 
0.065187663824933295 -0.008592459889359149 -0.035469577661228269 -0.019602690784858788 
0.065187663824933295 -0.008592459889359149 -0.035469577661228269 -0.019602690784858788 
-1.3268030368851105 -1.2180889623759383 -2.7334929612179937 2.8898334650871305 
0.074903748394423333 -0.49753803341585018 -0.0074068519658245027 0.05456023864416705 
-0.089707959630544482 -0.15533394640124121 0.29688731908841881 -0.38753530976359174 
0.29518285766319996 0.41178415347748543 -0.17006249444504912 -0.59512565301684783 
0.083443628296513556 0.076245096713567051 -0.16616510070032703 -0.098075887147363427 
1.343217987536278 -0.19328084499085602 -0.64688133080591093 -0.66655820890347617 
0.3103214935748938 0.45945462288529004 0.0483670675824458 -1.0634103090623863 
-0.2999310739013259 -0.5497956667954631 0.64785043447080903 -0.47180108793912029 
0.75496386424492312 -0.55189295728276067 -0.62119833233550414 0.23608209030721591 
-0.072984676326734874 -0.14784148352653312 -0.011545292398507843 -0.076191156461354714 
0.1573134277216035 -0.20615456841860982 -0.1502646513273401 0.14067464774126581 
-0.027678873562482872 -0.38163866342403807 -0.073917046202694431 -0.0052169943101977763 
0.72437035663607152 -0.17961390581703301 -0.68509941778545058 0.60641547965742593 
-0.013721088458617123 0.059986359804974819 -1.1222336328666189 0.013235768357296764 
0.067304438493433996 0.079179472341633 -0.0037143140292827705 -0.33727230396982966 
-0.013707936983700372 -0.37683458628608879 0.089352393303038832 -0.14964329862663575 
0.040637499070100634 0.080411710140210729 0.030873493037070113 -0.10776234629910923 
0.048961140069937653 0.083408123280481111 0.0042556106440920956 -0.10123936221105609 
0.048961140069937653 0.083408123280481111 0.0042556106440920956 -0.10123936221105609 
-0.47408613106753517 -0.0035212450776536527 0.58489114514308893 -0.0034576232523586175 
0.16306988751062987 -1.0018985063045294 -0.2343659389095521 -0.048831566777985447 
-0.47408613106753517 -0.0035212450776536527 0.58489114514308893 -0.0034576232523586175 
0.026374871429247534 0.21046315825919409 -0.17684279799597979 -0.79220720839767811 
-0.46799114915305495 -0.0042870864522043684 0.54642250670505566 -0.00096442659754677335 
-0.068161934891432685 0.12809155889821355 0.039832063563277204 -0.28750715412836753 
0.18690644681401436 -0.83717337821685078 -0.20741131723781364 0.010515880199221322 
0.049838519739366122 -0.58949841208755116 -0.35195989998102339 -1.1474589868720442 
-0.79537611356650151 -0.49118429078411779 1.4426972428930558 -0.12490441032970447 
-0.086433620165779976 -0.074911276048294409 -0.082505606868030254 -0.045818104852223276 
0.36303798000120102 -0.04152365276397136 -0.21646601828895934 0.0024892830362855758 
0.8382698932401671 1.0369672569961201 -0.97466512164021823 -0.14882016719263741 
0.11424709967804149 -0.37168228108019685 -0.14878031030476066 -0.29000224435611222 
0.36303798000120102 -0.04152365276397136 -0.21646601828895934 0.0024892830362855758 
-0.084235667516295104 -0.22374490549458553 -0.051861217756205918 -0.47704218418329464 
-0.26575560347209287 0.3769928356709934 0.043848795332275231 -0.14687494786822411 
0.45906257384206162 -0.24103109288155367 -0.27265704111156908 0.016798039705005437 
-0.74099920945725228 0.47753998335013442 0.52254535970260296 -0.28877624643019351 
0.054818951572337085 -0.072419073918069787 -0.077623686219926449 -0.072248694420103815 
-1.316336934201517 1.016835898818564 -0.73908212038911003 0.84017605477660484 
0.78380679964143107 -0.11571287601858271 -0.48896285217407875 0.018131529013829143 
-0.10142990995679393 -0.9496517129017783 0.099870428272614831 -0.0083113213833993504 
0.59840650667488449 -0.072649717008325773 0.2643432202368432 -0.79417550784717117 
0.20820522143719195 -0.13989840445902579 -0.26778066544559964 -0.2880551690959855 
0.67163554955540761 -0.1018547299338799 -0.44810212519020282 0.030839848445315066 
0.31408071649698455 -0.18354249742687123 -0.39593287794756366 -0.00015526239897422495 
0.23209910573580458 0.47964876597444395 -0.24075179940104469 -0.4630497806223608 
0.67163554955540761 -0.1018547299338799 -0.44810212519020282 0.030839848445315066 
-0.77915188921586731 -0.067800750193706016 0.83655525590378643 -0.054988460393088287 
-0.02792746947860824 -0.22960183798859743 -0.037209876973349557 -0.07888654616764601 
-0.2269323184238492 -0.041484401599359046 0.3446800804585291 -0.0042302593298504578 
0.084359596436198725 0.10154590320186563 -0.13481604247941947 -0.0036644562539237483 
-0.14768126723198713 -0.039596837914392786 0.25287701506029475 0.0047179080822813101 
-0.2269323184238492 -0.041484401599359046 0.3446800804585291 -0.0042302593298504578 
0.52698099562348721 0.16368042944195277 -0.38149723557867121 -1.1829571147113076 
-0.013841446618839688 -0.19056646332163135 -0.1260014200885704 -0.26693789359860876 
1.4505645738604429 -1.5294878401683334 -0.65610117859814743 -1.2698076519464894 
-1.3913269551763923 0.48204651100372564 0.41229572338840331 -0.16254290062779531 
0.035532235903912551 0.0010914559101730739 -0.092325040200107011 -0.005324412237630991 
0.11374425743201531 0.0038297229857635348 -0.12855195676241621 -0.036654406106430643 
0.35307861358313841 -0.61655035750214204 0.022705471622067458 -0.45734237436009018 
0.035532235903912551 0.0010914559101730739 -0.092325040200107011 -0.005324412237630991 
-0.68836736865455184 0.61019780112529931 0.18632702415233113 -0.42713096011513207 
0.036122502838297113 -0.22943819733185855 -0.1151674986220828 0.052839226141127342 
0.035532235903912551 0.0010914559101730739 -0.092325040200107011 -0.005324412237630991 
0.46692641279055236 -0.13168685871669286 -0.62806405380328789 -0.29475856249384608 
-1.9904680001323554 0.24426748618606817 1.0645608080117446 -0.24287720737587276 
0.38673449994223402 -0.42480580848251709 -0.097957414166370133 -0.25099144971710657 
-1.3929038440695751 -0.089578959568343636 1.8705949050815214 -0.0089414114391216486 
0.028743443501461165 0.23449779955084435 -0.051012221567253047 -0.29307959967025499 
-0.75018977711077428 0.58423277503943694 -0.7821215481848407 0.76711018875950354 
-0.00081886767964740176 -0.093371838694940215 -0.44812921647372672 -0.27441489243958239 
1.5550228085558828 -0.69989302554919819 0.87782569466694116 -0.041462103097915086 
-0.036476455117839951 -0.038875181316138457 -0.035412823729844417 -0.012369255616387489 
-0.036476455117839951 -0.038875181316138457 -0.035412823729844417 -0.012369255616387489 
0.0098680297902563902 -0.14419067532664581 0.047109936317202603 -0.12679064843678586 
0.09318660793678793 -0.04489410781541657 -0.054155766753173795 -0.07576528555198847 
-0.036476455117839951 -0.038875181316138457 -0.035412823729844417 -0.012369255616387489 
-0.036476455117839951 -0.038875181316138457 -0.035412823729844417 -0.012369255616387489 
-0.12639308249768405 0.42237195016743534 -0.21303946795767856 -0.25793210668498623 
0.2688658556308543 0.23037338505087038 -0.50615184454598761 -0.16805844766501407 
-0.36363081655294371 0.2423314398513092 0.20045576435077797 -0.52878707956863724 
-0.19124325692651695 -0.28200674499191708 0.017148699766226176 0.16170399505790573 
-0.41468097823975908 0.72728795230513976 -0.010149924348338703 -0.010874949284055163 
-0.73316683956536743 -0.095068210186128682 0.27670282070750218 -0.036171903974397457 
0.70058763164936055 0.3326729354699684 -0.70027982374543374 -0.37594322985499035 
0.23060128383515149 -0.32647455830064742 -0.61286630803527942 0.21784762728844501 
0.65929801444631952 -0.37054088854961814 -0.046600159006578989 -0.81381961293135063 
0.042022644320038827 -0.43895219863898116 -0.17956091538446672 0.29357812936961791 
0.14364005381220793 -0.16716185023179897 0.03899365694662027 -0.22417229273019146 
-0.079822827731026127 0.046784588101186395 0.041614420660812938 -0.78098109785954684 
0.089340022740607011 -0.13442794043656231 -0.12629081459045449 -0.060490669006711351 
-0.0043044346436675249 0.031266422233114315 -0.065798343722271307 -0.35842179511860522 
0.014158363386096849 -0.14420641759113395 -0.22037555444848925 -0.21943096873955165 
0.56215608612141166 -1.1106815577112221 -0.29420922988928339 0.12190562446967812 
-0.72115393796374094 0.57083042256436567 0.06666534116337941 0.12994307312495851 
0.10747487252047111 -0.38358569905699802 -0.029752721717573066 0.097618068343610864 
-0.6064070904102552 0.47304483471893877 -0.18316295687188666 -0.023846280713842191 
-2.034428457742417 -0.75487054815555987 1.6097265351013637 -0.47333731237420301 
-0.015745501246129327 -0.0060047439689748412 -0.0092630909446424145 -0.0065913383095987862 
-1.3432877458134085 -1.1231264992513048 2.1625686828597228 -2.0150089054335951 
-0.015745501246129327 -0.0060047439689748412 -0.0092630909446424145 -0.0065913383095987862 
-0.22359064621506458 0.45827999108507006 0.26033743743960058 0.056276499932112201 
-0.64928110101167757 -0.58036170321716485 0.79691099530218423 -0.39924768156177759 
-0.99714056877208412 1.1093191089737802 -0.025153741383763029 -0.22124449158215931 
-0.21000302093356066 0.35622525616106171 -0.086628066978478913 -0.20744121033211316 
-0.24696416895073248 -0.42577461885657142 0.15331961658413923 0.15002376226087485 
0.073112978000398898 0.051371915648057521 0.047418741797926336 -0.20476743760601512 
0.10041279564383654 0.34364372624523232 -0.90895428294026182 0.5809591170333962 
-0.033340403366009214 0.18995793161208413 0.029610318703357685 -0.67671794785041239 
-0.63614603721135576 -1.5068146191494796 1.532896628616701 -0.0064505488901844231 
0.36817788933650264 -0.073403112580236171 -0.024077747543436494 -0.10575131769854393 
-0.69549331509095369 -1.5056231377825937 1.4625353128345677 0.023746369629436367 
0.51121533069883474 0.74866995852185836 -1.2124274361796936 0.10517822121085435 
0.029751689181169487 -0.046537886485501841 -0.08030700967369217 0.019785604974346147 
-0.20656157158185945 0.47066235081368735 -0.0001047868123446663 -0.47846563156299027 
-0.2423573171829512 -0.49381404810273294 0.28738969791354518 -0.29066947460239878 
-0.095502711802888912 0.19190123579880253 -0.083690361382481052 -0.026633264908628211 
0.10423248608943492 0.084052220126759739 -0.18657800674006753 0.0077996836085883741 
-0.27513586988246691 -0.84109992700362768 -0.034890536227492094 0.34743474761833792 
0.24143264966338468 0.080892280998480948 -0.25500292528160784 0.011810214015168175 
0.085927805216811787 -0.8352666052708867 0.0099115508834016347 -0.3624350562526138 
0.10423248608943492 0.084052220126759739 -0.18657800674006753 0.0077996836085883741 
-0.48965821303655832 0.025302535761918495 -0.18494477632079204 -0.086676016021290755 
-0.51378007543283832 -0.50193181928055841 0.65062719119001311 -0.078069251365588829 
-0.031793027951861605 0.080408462787513152 0.00091552281635266623 -0.22886818087347785 
-0.46984798123262977 -0.00067707591457306752 0.23927346273427452 -0.0730455750973871 
-0.19655191063770994 0.35091263543315343 0.202766727851662 0.11337930767979093 
0.75786201157361421 -0.26514185145477231 -0.01532470436277128 -0.093016552830134699 
-0.34757387561689884 -0.84762214176480666 0.97842388370399247 0.49978590095384079 
-0.047604947041233747 -0.72985194138275844 0.047592508465736295 0.0015087793520237799 
-0.27917258703524461 1.4518187262536626 -0.68676378964631146 -0.93612968436917765 
0.26965943592614694 -0.01586921360702627 -0.3057534942301387 -0.069912436507435283 
-0.20390631947071416 -0.016429199750568266 -0.18498620873361477 0.2434694550233264 
-0.065044702816376504 -0.60898456710821647 0.084408347703976108 0.0017484621446873932 
0.024951973156867494 0.0040322268970399587 -0.021359091321163093 0.0020942520271108041 
-0.56042309102343169 -0.93323782571207925 1.8502647522956432 -2.0752443345418805 
-1.3754897867618832 -1.0535842384210279 1.7496670536338075 -0.72464510038206897 
-0.30261474715641851 -0.18011993893320086 0.21480540124678277 -0.0098404068095785582 
-0.4108149231718638 -0.16897456341105024 0.3761148979233665 0.68755377479719071 
0.49165455167280475 0.22916552223329339 -0.20977586209343385 -0.45984701487897806 
-0.080543905110062736 -0.2204069295184877 0.50475789257938919 -0.2256438742354496 
-0.30261474715641851 -0.18011993893320086 0.21480540124678277 -0.0098404068095785582 
-0.30261474715641851 -0.18011993893320086 0.21480540124678277 -0.0098404068095785582 
-0.30261474715641851 -0.18011993893320086 0.21480540124678277 -0.0098404068095785582 
-0.028677275297020449 -0.4156544814668604 0.066693603260362139 0.016513960930946654 
-0.22400866409111297 -0.034837681741666647 0.0094566307877686911 -0.27276821818110275 
-0.038927615578258697 -0.27196353046115396 0.057633520490332046 -0.26190496382087819 
-0.024045107367596831 -0.14830834356182065 -0.032778782129112026 0.11647003611469603 
0.049448425642594024 -0.20777294299304844 -0.022287170000647061 -0.25374927892503096 
-0.0040572753324315336 -0.27449340348996204 -0.021293806281182062 -0.26399022979718356 
-0.096648317371958919 0.37453108094466653 0.012887759270897498 -0.024184710512159945 
-0.077383166366475006 -0.097163985441331827 -0.010363400688625582 -0.029136661038380612 
-0.25132685194214061 -0.27050311261098414 0.3076123266813332 0.96738574486942508 
0.12631219757470935 -0.0012686619054952386 -0.319928959323447 -0.35619558036433835 
-0.19422440165399057 0.56356623612572831 0.17618117174329556 -0.033276154764881966 
-0.13266412949551998 -0.092964145440854934 0.23172090435653692 -0.16587244723366787 
-0.076813424673741623 -0.25401990610697067 -0.099795191147141832 0.083966788523351654 
0.20675899363887162 -0.027595897864611349 -0.157464029095848 -0.30470974879475643 
0.078371719124129866 0.061245793250244429 -0.090712808837461245 0.089379148662598856 
1.3532039863136585 -0.13302085063290156 -1.2543134976264159 0.15802689342556919 
0.37120911270088819 -0.54000999433076236 -0.21790349658435865 -0.33473052583000384 
0.045561661128184022 -0.0025334124809516549 -0.26010289075460219 -0.0021608099668147811 
0.32346646437663373 0.32918252201005316 -0.084429014083314102 -0.248950702007528 
-0.098246033963273888 -0.093645897137799389 -0.10282016806830926 -0.0033484238883321931 
0.61860226112717842 -2.0627287026071022 0.39313985197204554 0.83209413407769639 
0.12273133841951386 0.64159790459632682 -0.058391318916781704 -0.46028598352302441 
0.11067668949763435 -0.13383732765758033 -0.044918573874245873 -0.095826790270765461 
0.76439386763728889 -0.58183217597114889 -0.18481425386064571 0.2197686786058497 
0.04125884727907294 -0.20940125563785014 -0.11578528789307188 0.16747605482683176 
-0.57065694589900673 -0.57480156384401448 0.21827340689883284 -0.47307104781481835 
-0.012204366656804196 0.0047826826126907106 -0.16583804552735434 -0.19929489656761643 
-0.36223121790658541 0.041525560007742802 0.42339669595150953 0.0069256402907548337 
-0.5266171703884488 -0.0087282092519860646 1.5933715581749539 -0.13154127931946291 
0.20824976743332971 -0.57636805830589966 -0.26813829443001663 0.11067505866821428 
-0.99515817853716149 0.1562587860087194 0.33439284310941414 -0.21520234091899043 
-0.45378816428131441 0.68183508797368764 -0.85810410229185141 0.64462466035294597 
0.079212515368540862 -0.7490920702108208 -0.23828613874381827 0.24414262968224504 
0.45394564734493059 -0.04051256558446642 -0.38846759689828653 -0.74905058154325155 
-0.5266171703884488 -0.0087282092519860646 1.5933715581749539 -0.13154127931946291 
0.074934284140476523 -0.135334287671106 -0.072206520528816612 0.12649969002046038 
-0.41227251238523871 -0.069848590462193966 0.15270038871297706 -0.074304100785810151 
-0.025375788218051407 1.0257135625109675 -1.4693768024942908 0.0064662892799276159 
-1.5424965610262036 0.57730377744800654 0.42484685740375561 0.14812150591773177 
-0.18738046683665155 -0.14891806225783466 0.0034104407930509867 0.027529577793278859 
-0.025375788218051407 1.0257135625109675 -1.4693768024942908 0.0064662892799276159 
-0.65055845839148074 0.29094087425995357 0.41405405161386949 0.10806030474497083 
0.066274409786026806 -0.039746954563482165 -0.45981765032571525 0.066543557329815872 
-0.30156971422561207 -0.0042575985355485391 1.0007242254948503 -0.76136914998432892 
-1.1440622967064287 -0.19277127945653796 0.95321993361338697 -0.71546544529773826 
0.69450866958650415 -0.50102792503851257 0.11627622375264235 -0.09882145190113753 
-0.98940090508028378 0.49324110298752377 -1.2902102654604823 1.5223849631092725 
0.4990823244961059 -0.89673731484949637 -0.40652028062765477 0.085844209574804847 
-0.020618628843059442 -0.40159588115162609 0.13822943056844492 0.25302493990586217 
-0.30156971422561207 -0.0042575985355485391 1.0007242254948503 -0.76136914998432892 
-0.32201378515449897 -0.64063756407204542 1.7405838743256274 -0.14199220205846064 
0.089164709442547549 -0.83577786013224353 -0.054677432467597958 0.15656990303106483 
-0.31739087246794206 0.22114859751155991 0.095015574462322533 -0.24428138100153951 
-0.34579860086496772 0.0071913012670914711 -0.3199445672653386 0.3803474663002217 
0.045196613430716945 -0.070841871848960125 -0.091193528049913014 0.2527524922642016 
-0.57273490538281191 -0.00012394283555029151 1.1747519569603153 -0.30403609403573106 
-0.065560539803570975 0.02540169991674722 -0.14067368004951331 -0.86378656257945818 
0.11811268016994014 -0.76224411826462268 -0.14913561296938732 0.69491090532779132 
-0.57273490538281191 -0.00012394283555029151 1.1747519569603153 -0.30403609403573106 
-0.031406661172910876 -0.0042967057443703983 -0.0015016570221330671 -0.011210139266422845 
0.11866314934488907 -0.21566192647882057 -0.14985309248107004 -0.18101372166702784 
0.01657776932738611 0.052446171859105051 -0.1643202687640366 -0.28673287313271772 
-1.3123130282638895 -0.96704084472863161 2.105014166189684 -1.8461776215093417 
-0.031406661172910876 -0.0042967057443703983 -0.0015016570221330671 -0.011210139266422845 
-0.031406661172910876 -0.0042967057443703983 -0.0015016570221330671 -0.011210139266422845 
-0.51249607523833607 0.64432032920252691 0.084780727584285925 -0.095769003649846168 
0.44969598029200375 -0.060369704168941746 -0.024556323132782734 -0.18506479249133947 
0.211539979201535 -0.54806016283495573 -0.2433323251847147 -0.22284583654182885 
0.44969598029200375 -0.060369704168941746 -0.024556323132782734 -0.18506479249133947 
0.44969598029200375 -0.060369704168941746 -0.024556323132782734 -0.18506479249133947 
0.035044021390008645 -0.08016673415789588 -0.11783763904633074 -0.018401085618712069 
-0.35860389346159482 -0.063014223328853827 0.43229809832747379 -0.11854133046440118 
-0.019609061990153779 -0.017014645767665489 -0.010227793557444388 0.053223848969165863 
-0.094161120441829699 0.088386554368259762 0.17865173872819307 -0.068617392598545213 
0.21887180178168952 -0.11063742952352626 -0.18536384014735841 -0.35542960292981834 
-0.045033149538808562 0.13792871058519807 -0.0095934833172042489 -0.14252164970436776 
-0.29700842980733733 -0.0015375702248139628 0.11501023131000682 0.022080964099518964 
-0.2217896802340916 0.84708682792311085 -1.0534454306262147 0.58664959570079223 
-1.0138912409537992 -0.63779456807151624 0.98413487347260908 -0.14816882524489156 
-0.019609061990153779 -0.017014645767665489 -0.010227793557444388 0.053223848969165863 
-1.0489750637853783 0.14035973949960268 0.3333966354290927 0.16769298766672738 
0.021457577926177238 0.022371291205239431 0.033550535987169158 0.07154000552389761 
0.011608015953795292 0.019883800900358066 0.059028444255125101 0.10005167556651451 
-0.055306966531217569 0.11140605598278724 -0.19498273434221752 -0.068707851317185084 
-0.38412299586255427 -0.9749489506498149 0.45713560316896379 -0.411818540732731 
0.047801722744155138 0.056025163881141031 0.065239657089197697 0.080630171928412375 
0.021457577926177238 0.022371291205239431 0.033550535987169158 0.07154000552389761 
-0.22037877043573187 0.1213967928689358 0.029926811594592997 -0.15744002746684346 
0.38726413678761418 -0.16237932057208379 -0.093149130370748595 -0.34397000960287111 
-1.0477067224940348 1.0698769770390071 -0.35695197466619932 0.24361959074499417 
0.69576366982966042 0.21989551365596285 -0.6443201900717257 -0.12087492376317938 
1.6983907625767052 -1.1195743132216169 -0.71764880895910677 0.0090212648174835403 
0.4059446359007432 -0.39274167370020419 -0.095090378987699842 -0.21073431946489762 
-0.32885410117766761 -0.13811892629705547 0.15640534668460179 0.66555146020095024 
-0.31071677982953383 0.017241606626015885 0.097049324321046682 0.0078094964115262358 
-0.31071677982953383 0.017241606626015885 0.097049324321046682 0.0078094964115262358 
-0.15709380500059222 0.39674960874464782 0.10419696121070068 -0.31973428204350796 
-0.34776907942683521 0.51194759745104446 -0.077768281262825215 -0.1344984679355648 
-0.27550597785841247 -0.1306579526037446 0.11651558446977522 -0.011023246649347132 
1.0955737179247103 -0.62829101461292591 -0.17542871349416245 -0.12815973553715101 
-0.27754071219141319 0.30377764387115175 0.13844538497409892 -0.56836092862410204 
0.002638868742507898 -0.083504314892282216 0.059317809622131172 0.078288496789582482 
-0.11788651359433991 -0.19278630852291853 0.21302767273461853 -0.081341817394545504 
1.16712196726943 -0.40017311110280179 -0.26214066304337458 0.1705256801359287 
-0.49812204053683062 -0.11459286538471301 0.40638897287591941 0.28238729968381404 
0.43692577624668094 -0.18103454246263231 -0.41823406838110733 0.081164062966891298 
1.0043574039407126 -0.46743319089653124 -0.37455661261280476 -0.066854462630533323 
0.12710454222461032 0.29032054847550004 0.39101962547388219 -0.66847175833744321 
0.08166484579193109 -0.26446156374863172 -0.10883386050177352 -0.11909611352370357 
-0.37255441960713509 -0.77672656927998207 0.21961806705429371 0.2346310644906312 
0.37742096136693498 -0.0097416256128285625 -0.025877060439845972 -0.16239336470840562 
-0.032721121975439388 -0.0034896647282163492 -0.021089126934620971 -0.0046067946117304588 
0.87742124012741973 -0.92273743312779477 -0.38401120576110137 0.21608433760103357 
-0.32285125764405787 0.21711046275088383 -0.30051306309377851 -0.0099368280082668368 
-0.00056264051645786052 0.04847148804405705 -0.08394911480180392 -0.14925835772823959 
-0.16286004185661643 0.27615418833079303 -0.39028411727517842 -0.31183744388736762 
0.29320375565556323 -0.10094934574025995 -0.28493482660006147 -0.44336777364600127 
0.074156021775782011 -0.039290857067992922 -0.12558915130859954 -0.38687487822268446 
0.2390361702783948 0.012449257632535486 -0.021079100082071256 0.0065765831013337994 
0.2390361702783948 0.012449257632535486 -0.021079100082071256 0.0065765831013337994 
0.19212279246434183 -0.29023118005434134 -0.31668138960568065 -0.074324534992715047 
0.16172415331832835 -0.279095774088997 -0.92895180512822662 0.014571848747379927 
-0.16147422908946102 0.95840470181411686 0.084390748181172509 -0.029727283073069266 
-0.23318244881757239 -0.40606441162181867 0.28427166098443879 0.39270780573333708 
-1.164851152607943 -0.89467346830535788 1.7054438941290366 -0.53609781734501905 
0.19212279246434183 -0.29023118005434134 -0.31668138960568065 -0.074324534992715047 
-0.032575197247595923 0.024287444303476118 0.012474533520347442 -0.81243401923584546 
-0.016684505893447343 -0.0080959810679166778 0.0923504806859161 0.034181089455871824 
-1.6782288490443911 0.53786602805147909 -1.9010650004285981 2.0142284255039744 
-0.082380203451362821 -0.036052490801582245 0.97359288518598108 -0.40546334371772441 
-0.83868980449550823 0.92624871652178919 -0.12427074792617315 -0.43915683227092883 
-0.032575197247595923 0.024287444303476118 0.012474533520347442 -0.81243401923584546 
-0.032575197247595923 0.024287444303476118 0.012474533520347442 -0.81243401923584546 
-0.44779246086870417 0.9091470369855098 -0.14090798664144305 -0.43981776372816733 
0.39638123540484838 -0.34212146209434141 0.19107591055334389 0.32041940517014222 
0.058383987376894819 0.022387241146061429 0.31294642527846872 -0.067931193447200194 
0.076340119536539963 0.56854130282452708 -0.29522985867453466 -0.47271257558712287 
0.032335621293218014 0.11173671728383679 -0.19886827600890539 -0.18940270396830308 
0.095933276599470596 0.88779239478303817 -1.0096695102655138 0.037336197635041986 
0.18660607568131551 -0.62020109410512081 0.077137358213187165 0.05004017731025201 
0.12685848087639848 -0.36414771971368037 -0.13194322214681151 -0.17726921272694801 
-0.23057679162900874 0.41884687819762412 -0.34750446222197745 -1.2956375213829143 
0.38869310362840093 -0.47816939259786384 -0.20557626088638625 -0.13722707166106027 
0.13334230002969288 0.11625862499130457 -0.052274426463766649 -0.047306933474573626 
-0.12825764855414953 0.52238775553468086 0.075594465520965146 -0.48357772287140743 
-0.41226450411926369 0.21731046722271705 -1.3865074239801254 1.178729147126409 
0.026372090352487495 0.46077332030337304 0.47281032808855761 -0.28386778895172887 
0.76564232323725978 -0.2224845614989428 -0.037624201777871097 0.23642574118944443 
0.14623591403678218 -0.066782470630273913 -0.3439947514497555 -0.090755114574482112 
0.11166275750691412 -0.32245360875385831 0.19054444984371052 -0.27686162786894469 
-0.13079172586674248 -0.32764807119590678 0.16859114289541344 -0.20027989621211945 
0.74510573779629541 -0.41995705637868419 -0.57402541591886846 0.048294905109507916 
0.37081519883351044 0.027315299926260833 -0.10420811800485894 -0.44119673541746124 
0.027756219535768796 0.62038135368557334 -1.6129264183049838 -0.25923247713613135 
0.033014923746407618 -0.042268076967910434 0.040190422978380519 -0.22632806141420408 
1.0604622392662759 -0.045557923745448654 -1.0840231877865332 -0.2326051933079078 
0.92765173822425528 -1.1205128704628982 0.24490781777258813 0.16178419550769163 
0.033014923746407618 -0.042268076967910434 0.040190422978380519 -0.22632806141420408 
-0.15636921955636238 0.20605948506626531 0.015955495960710577 -0.62871737182303189 
-0.39585222336474313 -0.069766324432101123 -0.87117098650166036 2.3098018410768102 
0.23823322329311991 0.24501733316481047 -0.1621811358860149 -0.094235737322468704 
0.52465959511057836 -0.72278942993772033 -0.025241856546297819 -0.88652328722096829 
0.18398798095539087 0.0010884462076882939 -0.75199135832952613 0.23092166016251103 
-0.35936817696112666 -1.0827356529084056 0.15468197731518421 0.47005631242098467 
-0.045397792146942638 -0.45582573545784477 -0.0018635344923656622 0.34151577530668542 
0.27168522777723131 -0.34150496178535117 -0.61895046076827176 0.22197603293715013 
0.43925141186835015 0.56735055720132643 -0.024222776047052232 -0.64860657694175816 
0.30092678154089197 0.19101270609198717 -0.23592092943576037 0.014748027541194503 
0.18398798095539087 0.0010884462076882939 -0.75199135832952613 0.23092166016251103 
-0.26203469615426245 0.71588302157196682 -1.148194416185639 0.35310202906798444 
0.92787821910905011 -0.01755396612751095 -0.22787859513718273 0.17337216635860317 
0.89443113213391245 -0.019990478384804132 -0.089187151511974982 -0.005008879671069469 
-0.31333800981005638 0.11784473848401064 0.098247447591007453 -0.12700077521298933 
0.014891622859149689 0.0013394045366995223 0.30071715963140661 -0.068085019229571053 
-0.26530425531332141 -0.35439739289559746 0.15191199169290584 -0.236391915450365 
-0.0014128090022823524 -0.055560043243403107 -0.076124947511184149 0.018925448929495037 
0.043256112005856912 0.011777879045529349 -0.68157640475414527 0.18269573356217644 
-0.23810131765705594 0.015498827987754864 0.13115532970218621 0.052105435710391217 
-1.2745678585439668 -1.5712838263121656 2.0038472101524811 -0.82312609622923483 
0.12365197419382191 -0.22191739725255727 -0.15082540629909133 -0.17471069635874506 
-0.62341560953795405 -0.92560671526355753 0.4216055744427567 0.022922000520209502 
0.061016587297778341 -0.11212206656696699 -0.16890586446526387 -0.27837389302078003 
-0.19976933032674199 -0.29121402382275263 0.26374522119500887 0.14123468186281699 
-0.41463708739031702 -0.0013106619535510743 0.01242935458988273 0.0048731165635628867 
0.14980729782663288 0.091040429857503713 -0.1246878271703499 -0.54041498188584436 
-0.010389659575603952 -0.16823195006805336 0.028494901516480528 -0.076543678267048165 
0.48628793816485072 -0.28565223577053722 -0.35528536017025547 -0.057272031487797893 
-0.33059419196968942 -2.11296530693253 0.18738682019266012 0.45569341577253486 
-0.16436803681042861 -0.010510270890288723 1.3517430560488606 -0.45615952137306037 
0.11179370007655812 -0.50707679439150366 -2.438536662503155 1.4340392889893723 
-0.16436803681042861 -0.010510270890288723 1.3517430560488606 -0.45615952137306037 
1.1572345251686873 -0.97557841064993811 -0.42426690227939301 -0.46142018371576571 
-1.7396475584665914 -0.92256617373169281 2.3777289013855549 -0.44610228978550648 
1.088733108999967 -1.4425374508008006 -0.43409706659720015 -0.29616694700392132 
1.3849063902066487 0.026317807606341018 0.11416181026883698 -1.0495957649620204 
0.046992160371539624 -0.0057780506213676343 0.025824078745067536 -0.85280148122421273 
-0.41658754654517127 0.41901593555055233 -0.053203415807376912 -0.060774700271030234 
0.09643079940690269 -0.44387268174646832 -0.23942952420405922 0.75856899031049441 
-0.3305230499390594 -0.7850547555214975 0.75602455043753047 0.60023268867289969 
0.046992160371539624 -0.0057780506213676343 0.025824078745067536 -0.85280148122421273 
-0.74937396003350032 1.2792806332906501 -0.95894139321067207 0.17933509521732022 
-0.017457656612608327 -0.62492269918998999 -0.0056795843494878151 0.2065093638689946 
-0.8049715297926765 -0.17073905451037472 0.43364040876903476 1.4036061001834281 
-0.21913461768351786 0.56836206680678925 -0.57753105489560841 -0.57253945740189982 
-0.17441387964149777 0.043485394870915545 -0.018964929529260724 -0.041909331609556615 
0.20582004154085498 -0.75425231646153112 0.2483344877074336 -0.26053571037178797 
-0.029076605040332826 0.1794117362308264 0.0080247210310648194 -0.020430521525609046 
-0.39419576258287276 -0.1786106400484454 -0.18075700185568158 -0.17574877688182733 
-1.378838124948391 -1.129670997192163 2.0658990955915089 -1.3424109572102099 
0.7402388952482597 -0.12790672695609401 -1.4315206761792629 -0.15448935785298254 
0.87224693777033013 0.59429510386770679 -0.39571939822125157 -0.11292520297258507 
0.10847690847440013 0.13580724131933744 0.098739914789538169 -0.63481808975679921 
0.6357580920199527 1.579228409787508 -1.3455099993837487 0.24244734878283625 
-0.0012736668841472898 0.13460485926481247 -0.56863259679857747 -0.043590290761764405 
-0.40506721193940964 0.32185900180675048 0.83373194151229413 0.28433837283592706 
-0.28301118192396485 -0.1972492950187858 0.046999896115199058 0.07983151523463973 
0.61790887605186273 0.41550499689598769 -0.81487717719937014 -0.33420317425632085 
0.011972164051695783 -0.032673808824405251 -0.026518899664505352 -0.059570522532807965 
-0.51882164352501181 0.90590660736459561 -0.091144443787434706 -0.59239792537815827 
-0.64444700719941306 -0.76202991357611194 1.2720496620756312 -0.14295334396159387 
0.90914639114488383 -1.1023435410266831 0.13391687929495444 -0.38882984135121662 
-0.99633182852195867 -0.59863633562387908 0.8949753066111692 -0.14078418951574334 
0.2414284096983538 -0.48242211126069423 0.33510977558361782 -0.38129551861120003 
-0.99633182852195867 -0.59863633562387908 0.8949753066111692 -0.14078418951574334 
0.57648156115204985 -0.55402766217221733 -0.31611144147936249 0.10419615272983068 
0.047404841927990535 1.2282164399610218 0.43829234824296504 -0.67463750844343762 
-0.6584316759087232 -0.20274907711150947 0.21102972895394184 0.16724910963720496 
-0.38503875470191695 0.046542155204594121 0.10254406519114162 0.20517211267329399 
0.1232086473964347 0.23451530591399106 -0.46950742843906351 -0.33097642093277235 
-0.42888338407528831 0.32488369443925363 -0.4895867229545226 0.053140812151362821 
0.049861270197979285 0.41245749261285103 -0.20066883071284503 -0.41831803095627734 
-0.31261214240853591 -0.20517873163993627 -0.0081342045726451734 0.37037832874076448 
-0.38503875470191695 0.046542155204594121 0.10254406519114162 0.20517211267329399 
-0.1346319206524354 0.023280892830755399 -0.30712077633538459 -0.077760591026577966 
-0.30842992542406267 -0.50434730419271534 0.98397542785449421 -0.61012127740922217 
-0.08585102687779006 -0.51208008660774462 0.14132257001438092 -0.21023392783924988 
0.53916140224730835 -0.53950489812098412 -0.66422891719499588 -0.20439144084697089 
0.34370195900802714 -0.46531909175955999 0.051552321454288105 -0.11038683757259933 
0.21634334299139579 -0.0054245570242295715 -0.47005161259381267 -0.015361342000605724 
0.21634334299139579 -0.0054245570242295715 -0.47005161259381267 -0.015361342000605724 
-0.13205593087249273 -0.047650238522585368 -0.17746501909604923 0.02978420849777532 
-0.97385749103595931 -0.025378121861336311 0.59158702894413184 -0.15269133653656664 
-0.7841567848740747 -0.13796550807661145 -0.03389992319854529 -0.068103410660463562 
0.25148943282834263 1.3701734945064663 -0.53474916948995499 -0.14150208029623362 
-0.0050234062367271182 -0.010025472550090926 -0.045108475837840278 -0.084055463144299236 
-0.46111753283972534 -0.46266688201108053 0.65490587074234052 0.86995663052161865 
0.22215501142327795 -0.430538878386792 0.074282799673626457 -0.12081686063663576 
-0.0075702536983457414 0.019347071091450754 -0.0076247908276293949 -0.15795000797530881 
0.017735135926021564 -0.12948456723588142 0.26773746042099716 0.11488629017170149 
0.42096766686234011 -0.10760002311142433 -0.0051642250016436242 -0.25073680040447233 
-0.3450494351686626 -0.78179412026993889 0.082577057274369398 0.60963892151917298 
-0.0012080421350953996 -1.6998706879904422 0.71746860378454158 -0.33056091195230358 
-0.36169545354184496 -0.010226960010935732 0.10668651927386352 -0.39011815671417405 
-0.34803758913253907 -0.12795361430783941 -0.059262408525754928 0.16021362834625533 
-0.36169545354184496 -0.010226960010935732 0.10668651927386352 -0.39011815671417405 
0.0066318795168465172 -0.77146501819107005 -0.01949566828230135 1.0149056371125482 
0.41450895061093168 -0.60158798037780603 -0.21747362340867074 0.32483272944936764 
0.05921163181294653 0.10500759154350563 -0.14232174667724184 -0.37411320785401825 
0.14846046521451634 -0.17880861870811485 -0.11949540602656203 -0.35444655291887828 
-0.96399960981739985 0.51316514241413558 0.28964777291716703 0.42074097343219419 
-1.051398190324913 -0.7006195246624114 1.5522917587727378 -0.41634426863961022 
-0.97013094458053506 0.69957105822512489 -0.073338751047561213 0.57143648284813708 
-0.54502840989187518 0.36730515857185719 0.019622798139087988 -0.093693178154871742 
1.0499105564276221 -0.81787337569376117 -0.14842588012108843 0.21861679451646843 
0.057972919754540733 0.60196167387605537 -0.038024410115539822 -0.7142855025826329 
0.024651701448276692 0.09605236767482124 -0.53159248229203926 -0.77472086677400642 
0.15183623162051188 0.062354848024484474 -0.076049410819984231 -0.47840737270456513 
-0.15149699446952325 0.2468138562029048 -0.10209700658679696 -0.1885582131419245 
1.7221812162057781 -0.46658185115965145 -0.05248990656101829 -0.35465843774259354 
0.24961881257630342 -0.095415373476068446 -0.0075504416046497172 -0.20321718970016928 
0.16519119289312822 0.089863319070853334 0.73670566591941533 -0.54129543841329519 
0.074910950703706514 -0.48162839215909731 0.11371210715865282 0.024721607386382596 
-0.70394576189414848 -0.17696603281214113 -0.20706681034542945 -0.31118817576477453 
-0.22329428483766661 -0.55665575175638515 0.53797402679094974 0.042054071667555509 
-0.2525365405061088 1.0636012501251748 -1.2726035018194959 0.38530544863353056 
-0.53721323452010972 0.24292298437191817 -3.4715966205453888 2.911882016522767 
-0.85531054496443926 1.0129627200609419 -0.26194149158727109 0.18678610291140729 
-1.0800298947104248 -0.79085805659223918 -2.3937215371477785 2.8092907056189103 
-0.10297253966318778 -0.15819508106750008 0.51170007947731666 -0.49042421431058802 
0.51902289764630616 -0.23069872300499594 0.51797875515051872 -0.48357556996166584 
0.71786043610304962 -1.0378479172408313 -0.90070082224546111 0.53551069990256883 
-0.057450430433263533 -0.2886225045637133 1.5289370967800919 -0.85336366460592339 
-1.1962268776140315 -0.73690446669875431 -1.7707024617439067 2.8697878578515117 
0.024551139323463776 0.027750393127323247 -0.0076317270148946216 -0.023405856419967785 
0.059854713696566107 -0.31161743446105405 -0.029411506543108229 -0.30680281367412882 
0.013247883741047184 0.11026182535601986 -0.044226602363116763 -0.32639759409807478 
-0.061950851887846659 1.9869602214272082 -1.4205321373284754 -0.017768643668354719 
-0.2703194998706322 0.18095725000346524 0.019630962741929672 -0.046869258330970831 
-0.31452150979903526 0.030219682921463639 -0.080622498238690499 0.31971153019921217 
-0.14635152746947505 0.25077864030686953 -0.062299692551972569 0.045478508729009083 
-0.18642851182513559 -0.066165351288269073 -0.19698940045277208 -0.048701852350847535 
-0.20664884626867436 -0.1870982230379154 0.044173945650411002 0.019829495936003305 
0.058295552701677356 0.034273537106086403 -0.025822627005259488 -0.26499579707139387 
-1.030750607620168 0.50648164082291813 -0.72508960524194577 1.3096546743516018 
0.21130890993407087 0.085281180983879698 -0.76741778184492759 0.009411672463749559 
-0.087140801017522584 0.001662039103360742 0.79235764307832091 0.0055903356280551748 
-0.23731274286453161 0.15379641060624252 -0.027624818437941435 -0.59945888666384872 
-0.014036422450239033 0.29741570795984607 0.081439750067712396 -0.70174256002379876 
0.7213225891113173 -0.11374856469355615 -0.40104180672722989 -0.419741696180298 
-0.025507750779759378 -0.25963689738960816 -0.10512702910993099 -0.50905204847307761 
0.33150430503017364 -1.2480580373753083 -0.15306163693060892 -0.32732441329771123 
-0.5102227565786257 -0.001992349084162091 0.015591050376041991 -0.0028890408676896595 
0.91461982909444706 -0.085568715259675313 -0.031466913040710989 -0.23599384563630108 
0.053685456173109103 -0.32058690829359177 -0.19379020827058899 -0.14990962316420206 
-1.5262065636168325 -1.3787854524919367 1.8302549977591334 -1.5410097282490645 
1.1121948285644612 0.43258497039580696 -0.7345052835983743 -0.2646915605270907 
-0.34680017898145277 -1.1264651508717929 0.57929774624572783 0.24774425920974083 
0.30561939461044912 0.2160910726450071 -1.7190242808878606 0.038980913824209817 
-0.070784645305550828 0.064030094810709898 0.04782755864119298 0.0013218084807890571 
-1.2526411896914074 -1.7547846048386415 1.3691099753856961 -0.73320714700020628 
-0.20033802226266303 0.74226678042149408 0.27036934578145277 0.30167792480448202 
-0.17539474831569685 0.37413382550221108 -0.029849712615997767 -0.20823221157087862 
-0.10691912623687511 0.032111308811840905 -0.043909325316802375 -0.15838784107429998 
0.093383487257796424 0.12466779356539703 0.10525494755837921 -0.38112269965409712 
0.23529369427611241 -0.18365941456229321 0.13505363719745525 -0.035237440606808015 
-0.10277815573208306 0.11829442701341014 0.22026166064391672 0.041404168283748821 
-0.22045790872511831 -0.24046076052734411 0.19774486478826228 0.02330498056133732 
0.11397789624315272 -0.24158545646662913 -0.14755071625834876 0.01943627846475722 
-0.1235114815111837 -0.34516387244556396 -0.097365087227132829 -0.46844619659309278 
-0.22045790872511831 -0.24046076052734411 0.19774486478826228 0.02330498056133732 
0.058564656257713621 -0.12341065320649695 0.029206513462793439 -0.80265699823231829 
0.016322152121254707 -0.0039302029342040759 -0.63637763474616604 0.28668228656296052 
0.016322152121254707 -0.0039302029342040759 -0.63637763474616604 0.28668228656296052 
0.040504039728377829 -0.087362212903352041 -0.0180257998284079 0.036594713613320888 
0.14991042321646747 -0.0034610946549245535 -0.14962033780885478 -0.01614709263857313 
0.23793492948752437 -0.7960948975200437 -0.14716901445063113 -0.076329141494529296 
-0.087503268050962743 -0.37598918679676635 0.060290638424964377 -0.005704355743165801 
0.094169121531061828 0.017342682356364394 -0.061249506957107111 -0.054937664589687685 
0.49088389925441978 -0.020552856050104078 0.013849431107642363 0.2452615060167872 
0.21180750296566672 -1.3126138202184281 -0.44065949143001359 -0.49872234204752164 
0.61486248099081398 -1.6067312706990757 -0.56038239905633858 0.51606673099971223 
-0.075566671425372767 -0.09699030834536343 0.18659859070436885 -0.17536617785505099 
-0.63863441632128792 -0.0030549703559209131 0.98302744994117697 0.10788571579505771 
0.12078279569290851 -0.13933280622926819 -0.35154386531211945 0.16144411673979564 
-0.63863441632128792 -0.0030549703559209131 0.98302744994117697 0.10788571579505771 
0.32421612010647533 -0.0153583697966478 -0.14318825730607215 -0.80213678547597933 
0.055642588625973793 -0.61123505664200195 -0.0013260493158359782 0.051691387707752168 
0.055642588625973793 -0.61123505664200195 -0.0013260493158359782 0.051691387707752168 
0.14538776965115674 -0.09234964127961956 -0.13422954197450843 -0.1857782629208124 
-0.39978262166136747 0.097071209115178539 0.75603715373507896 -0.33736203900483208 
-1.4735688648488541 -0.52830297662069758 1.6764842583923893 0.68616083190097588 
-0.52601414534094504 1.3902224493165862 -0.95932002467982846 0.67558349405634444 
-1.6211575646392176 0.17380082919245277 1.6126687439784284 0.11291385179006345 
-0.012612460993983478 0.24178523451970327 -0.15387209505858873 -0.091819265727959926 
-0.53819346191067563 0.60084310771915284 -0.28746400098305824 -0.011126887752816776 
0.54579442669197054 -0.52066921332728977 -0.8655899967175904 0.57703875749315525 
-0.29241187919333989 -1.762520054157829 -0.016611409675679936 0.28312629034687137 
-0.29720530897331648 -0.0065510058632103924 0.252582580340178 -0.023946373115161186 
-0.54290834088068274 -0.60122935456231441 0.57376759605530925 0.029192265346862395 
-0.22613510023247088 -0.15258759082402118 0.25721840706369958 -0.08071569856471883 
0.54377193828322357 0.022177936070476578 -0.28964892607157045 0.032458081420171758 
0.29006942994820006 -0.31692138493930411 -0.32737526551419244 0.055009511657132096 
-0.18876453313558877 0.37111028383536787 0.19015490090077586 -0.85145169046422486 
-0.12905290814763015 -0.48711336157670843 0.11186140976665421 0.40778717871472708 
0.041264609009011986 -0.2382880591597166 -0.17484500724706756 0.041488896672064478 
-1.0554347599877869 -0.13804894503677012 1.5082560180503604 -0.033407064468174222 
0.20359832605341643 -0.42189165622183977 -0.040195574517778526 -0.72226927297728771 
0.078042400368737982 -0.068027441649796183 -0.79190720882623955 -0.046450310108680948 
-0.037956695979431437 -0.0038165564750696733 0.053315008718907986 -0.0030572435176073865 
0.17426695215317001 -0.46429632868001974 0.055245224632365947 -0.10061815107660171 
0.17426695215317001 -0.46429632868001974 0.055245224632365947 -0.10061815107660171 
-1.0271562125505747 0.78655439790907922 -0.30612640705994115 -0.052940891699252951 
0.25775956820947338 -0.40264521718679086 0.19017750999480143 0.50140125448062378 
-0.036148682224987572 -0.56758222244880041 0.11854789008068206 0.21935390253544454 
0.067420757537476159 -0.13045188025978033 -0.032315923920950639 0.15140931205614111 
-0.15296877242807794 0.61445764613670351 0.056036153817927939 -1.1618774712296842 
-0.45987177948098873 -0.34654154467075693 0.29930793974408421 0.64069498583731277 
1.3819041905418263 -0.093780766512530644 -1.2565178728473057 0.27603523020333598 
0.43497094708819084 -1.0581000578090323 -0.59962350971477874 -0.066951071285696634 
0.080066601083289793 -0.19667608815346879 -0.14164950509960797 0.11325495020900232 
-0.040187880508706031 -0.0099982256295857892 0.89488814920768534 -0.016502451872995063 
0.27563484457819565 0.072008489622822497 -0.27549727367774496 -0.41533701422079033 
0.0096173911416656543 0.15871286464669776 0.12325729289776607 -0.29874858464189497 
0.32649725784856559 -0.17400659214289144 -0.99962411872218704 0.1474159079553912 
-0.003239908958611282 0.67412181691775075 -1.6684243539818371 -0.03605177750597105 
-0.95891481217908947 -0.20708550748033566 1.3187839689817911 -0.84426615910142355 
0.19646494501445644 0.85621985049925053 -0.53393466211668372 -0.16982060252942854 
-2.2837712829379866 -0.1746508670993982 1.6902366886955542 0.25735516528434227 
0.077785570179611518 -0.16809317279948108 -0.0019770899143746294 0.11467437541816951 
0.18155078448860357 -0.058008316479541105 -0.14853422433210045 0.022637451813504742 
-0.093318716416279202 0.01898784661941871 -0.027559287831503753 0.044299024324222488 
-0.16192492596377503 0.11807834225264503 0.35489738836379259 -0.12307019779627743 
-0.21164479434460612 0.064351234329878618 0.89303984232010092 -0.0024807572922357067 
-0.55723794081873979 0.68735838087869394 -0.34371299843558017 0.0011297674626173371 
-0.12534206322712904 0.0061766319963081906 -0.16365796747642536 0.2335475190374646 
-0.00020065842927413646 -0.053033337144407715 -0.049271327388310887 0.079084316269615429 
-0.19377612581886181 0.041909296252073222 0.055439401390311269 0.17130595666611856 
-0.21164479434460612 0.064351234329878618 0.89303984232010092 -0.0024807572922357067 
0.15135536073289832 0.0051716268685780969 -0.5801567813331544 -0.28461392548191333 
0.91892288893313334 -0.64496987110618831 -0.098260214448037619 -0.1490404451694449 
0.3794806934161512 0.6046541042602952 -0.1906762867799861 -0.24352229647835952 
-0.49644015344463455 0.33240986138600448 0.71701222384165131 0.20486341070827718 
-0.13806602852107039 0.64803272000191792 -0.079052786804238329 0.21350359544430347 
-0.46389943328031491 0.23483499270337721 -0.32455369360005037 -0.16651173772400713 
0.098476483632877712 -0.10378299777129477 -0.53626930373229909 -0.2791369574449426 
-0.091140925526360717 0.26620197261186529 0.1824382313774886 -0.21740604679572953 
-0.0035748295815279107 0.0019665409228040707 -0.56220774053025058 -0.25438336263996525 
0.09999578829953705 -0.34305913220436712 -1.0458294196944882 -0.24652970197413906 
0.13569513828930396 0.085595837236312755 0.058462525541259025 0.011915014299419852 
-0.06699760187613904 -0.069783495167250659 0.006729963610157319 -0.011504589824337391 
-0.19459461429056493 -0.20894454614870125 0.60272557844952945 -0.094306506576238153 
-0.53651228292053432 -0.05081757135111159 0.089698907950140627 -0.35892002936032619 
0.16165746801793882 1.4054235038796401 -0.031640201801506118 -0.78725437659862774 
-1.0224253154657872 0.21521204652271539 0.36502855749334451 0.23793212868525604 
-0.26308791709408869 0.22618424000186721 -0.0087202373457102855 -0.01609629195029184 
0.13168719404529766 -0.23743387450064579 -0.17567668061778524 -0.1094972479862321 
-0.10355569027180456 -0.47721766309367875 0.18515967907692393 0.20196119963141979 
-0.030367033331888137 -0.0042933999351507362 0.03391598545183927 -0.016746905242541524 
0.075976380538012367 0.34092623844962944 -0.22901676501769763 -0.23925050919492741 
-0.48679209983710425 -0.78428672279072553 0.11129733200983562 0.32701154881913103 
-0.030367033331888137 -0.0042933999351507362 0.03391598545183927 -0.016746905242541524 
-0.030367033331888137 -0.0042933999351507362 0.03391598545183927 -0.016746905242541524 
0.52321688496420038 -0.090426880689637668 0.12239566975304011 -0.37112747922432754 
-0.87941133551034567 -0.0059993011544374822 -0.77046876659161456 -0.012559121477362477 
-0.59811118908791694 -0.21875533078102943 0.30422791811148814 0.59903003478021544 
0.027545889252569219 -0.031521832318709392 0.26828769110385153 -0.2445810967729749 
0.89045368809248893 -0.21622172760978764 -1.0375558976312016 0.002274008369561353 
0.3522280293324177 -0.26297977355093533 0.11636013001337284 0.68485592395176076 
0.75725907570324735 -0.43812631223558218 -0.69814874399522653 -0.066516013731162033 
1.0345015060209042 -0.0033167218698198341 -1.1367681765843056 -0.0067494259098952805 
-0.35295877033359369 0.29208129399076005 -0.24428027964169752 0.19194358927237024 
0.23840673738511539 -0.61644024711441348 -0.1060775273280762 0.019606873886782124 
-1.9332525850975713 0.87298000515557705 0.15791060839487947 -1.8702502124613629 
-0.10612706926863039 -0.47806226230141352 0.054962991929088094 -0.1473953218561061 
0.43215616126561673 0.30636557865523201 0.035502649419585169 -1.6455799062955125 
-0.01163512214586512 0.21380084952086378 0.096384133192216281 -1.8722086039362478 
0.0069741227651719268 0.77336085527633636 0.10670291305813745 -1.8680931842070529 
-0.33064692721497962 -1.1234688739766188 0.32067338671495266 0.50335735727122521 
-0.014971388386799928 0.033354686434029349 0.016976453499692436 -0.02494225728847746 
-0.72084828221617758 0.006686276288590684 -2.8511701994325538 2.3643709641714037 
0.15398553731429099 0.22570303575517256 0.15516773387858371 -0.94958964196330509 
-0.58032456591677051 -0.52600438315520437 -2.6107888425597157 2.3250090906127832 
0.10875740517399009 0.056547698135511512 -0.031486758783740319 -0.40278564679197082 
-0.0387924215529395 0.0097861219195894342 2.4171523616241526 -1.0262213462664351 
-1.397969437363948 -0.49935263246428968 2.0087588205238358 -1.7454722251533483 
-0.12114435124855881 0.068163225525255555 -0.15784070243529721 0.16421950497536059 
0.2030904867732776 -0.19737162887327364 -0.27725203849942526 0.060686747944696799 
0.12656530097683996 -0.89016604700215296 0.0030979062383268141 -0.56793272697023955 
-0.62566700614392112 0.098190170164759824 0.20855461749963389 0.25665776545698893 
-0.46435498758677468 -0.38269146710900503 0.15059023777596334 0.12547432382750312 
-0.1824267568210067 -0.15519441436215944 0.29838028438103359 -0.092244464789505362 
0.26654547400129275 0.059700879760310521 -0.14900013333472617 0.054190233265752855 
0.031882506865898254 0.064782088542009869 0.0117130983118914 0.067620808067034868 
0.25821839821599729 0.51124417630231433 -0.19650295611493385 -0.079657359316990875 
-0.065160186087670408 0.24141046409272018 -0.17178127133451612 -0.16576787233497986 
-0.35278073185601988 -0.011733448186068115 0.55365465937224423 -0.84369536089053343 
0.031882506865898254 0.064782088542009869 0.0117130983118914 0.067620808067034868 
-1.1389634478288979 -0.59857314096015013 1.7263284255405056 -0.62275523728835103 
0.031882506865898254 0.064782088542009869 0.0117130983118914 0.067620808067034868 
-0.11394073907048008 -0.19598030378131778 0.15221914358346433 0.0043099311326216267 
-0.44139038645497852 0.72363071050540684 -0.36399347580630192 0.052334035329689554 
-0.23030903514462275 -0.58309637008172754 0.14252330771656058 -0.051053450289717493 
0.27236746874161716 -0.047273824357843358 -0.036944487868535061 -0.0087111801729350402 
0.27236746874161716 -0.047273824357843358 -0.036944487868535061 -0.0087111801729350402 
0.18903038415294465 -1.1670618233045587 0.059386259940143932 0.19531281046250609 
0.015302365453351174 -0.15085261961526725 0.051755451058375729 -0.018579223301465962 
-0.065322954978868281 -0.040929968579649458 0.064468458554744923 -0.20530463933480173 
0.14369536020626325 0.14831410591241662 0.096614428928093687 -0.10232782479769748 
-1.2337977966668696 0.11810130137948988 -2.7320859245628757 2.5930692324459668 
-0.0188952798866555 0.20984730570359403 0.024590661347796271 -0.2003881145287961 
-0.1581590019767215 0.80675249386458003 -1.117625611199627 0.75512975298655527 
0.76556943221861695 -1.2551693724563444 1.3960455685717048 -1.4750287880819462 
-0.20969934098122384 0.31293486434293633 0.0198473624387311 -0.18907850401533194 
-0.3717796631019788 -0.10437220716628497 0.33343795593981357 0.056568179663564047 
-0.3717796631019788 -0.10437220716628497 0.33343795593981357 0.056568179663564047 
-0.3717796631019788 -0.10437220716628497 0.33343795593981357 0.056568179663564047 
-0.31505770853754111 0.22034944196184528 0.068179919610373757 -0.11593356732363061 
0.15301610792589765 -0.035719838738662038 -0.029859975037284214 -0.15579337244899949 
-0.34946007904054777 -0.11868477315923331 0.28834254182924973 0.088365411406247082 
0.042114359964080778 -0.86107025591438702 -0.045947301650291122 0.27034737189053826 
-0.39092050850367899 0.36019564214486061 0.26157688092861681 -0.42010272007398558 
0.080977277890719679 -0.086570040249565577 0.0043270042169865144 -0.35846420276536628 
0.041248630831129555 -0.23206453012295356 -0.012339050891534496 0.25986837047203171 
0.1191946511950389 -0.15770363184264932 -0.035646751471071998 -0.048551160988601266 
0.018671282438352151 -0.29075044709297315 -0.10035717908810432 0.048091471671258101 
-0.24196388026490584 -1.2526696833614581 0.43951920573365277 -0.27451009049176278 
-0.028506419467414779 -0.032937301735524491 1.4106732602242424 -1.2638200052205084 
0.12183123100945799 0.54520382325168026 -0.080858071548411195 -0.25972073048999883 
0.71724688299805095 -0.77165949933747924 -0.16927515234657164 0.43923900654361103 
-1.2019765142783003 -1.596778978480148 -2.5227081116206902 2.5929555927642438 
-0.70850852334312509 -0.45354355307238525 0.60824933972553619 -0.24882433741474058 
-0.87902355183192149 1.6307810661144064 -1.3043694637068872 0.99169916446105022 
-0.43177862201049089 -0.73769451740337089 -0.19694137298293168 0.92001447396869696 
-1.2878757766737721 0.90240803689091387 0.11849238175550053 -0.07563338606584849 
-0.31953782370380313 -0.99170925558561485 0.30011421145033984 0.10538143212387366 
-0.13025352450694699 -0.033085369187496147 0.12049492600162015 -0.22184011918097762 
0.04200533437857551 0.01926366486875189 -0.043679848983523048 -0.10226808288535495 
0.1289841262031079 -0.0077982021597299504 -1.0957237199918661 0.82521504816933344 
0.16534422796709497 -0.0094177569670515111 -1.2602268049961203 0.92352397787392748 
0.1068222515688426 -0.56226143643318438 -1.0264190711951309 0.84760557269713077 
-0.38584497280448937 -0.0099063758002511555 0.62127053340589233 -0.061216001391925595 
0.53692133433850187 -0.12458842018216641 -0.032362102241291824 -0.11159549724824407 
0.31881799045655973 -0.0046031159658763594 0.27513224873684472 -0.12095263072443094 
-0.99790450780249507 0.27475419867303769 0.66046901830590676 -0.10723554478424333 
0.16982174803978844 -0.3478777638526781 0.72878352614440356 -0.20794315651586337 
0.19035054631912027 -0.16223222866641279 -0.1967826398368864 -0.14197711292651821 
-0.11733048206121319 -0.16173672657095647 -0.04530665334864456 -0.14221974718477409 
-1.5055012336632427 0.58132119670220184 -0.44188822867561534 1.524553149565375 
0.89422276364951137 -0.6841885813083125 -0.53358679313677837 -0.15068789230807397 
-0.33730071943872131 -1.1656772354662246 1.2498256417481615 -0.75795281987906038 
-0.84188561880276447 -1.2365064461016364 1.194438283588996 -0.42703292185151465 
-0.10527237732829892 0.30786906960270571 0.16935119219613232 -0.25162602943520623 
0.34602732473094422 -0.53405068011544599 0.063706285141526542 0.079020623455696465 
-0.21639380102570255 -0.2558939153535123 -0.28756134659299187 -0.024055487158001466 
0.054855349310571719 -0.17504020632279763 -0.18881454913603624 -0.22248254391784594 
0.054855349310571719 -0.17504020632279763 -0.18881454913603624 -0.22248254391784594 
0.054855349310571719 -0.17504020632279763 -0.18881454913603624 -0.22248254391784594 
0.054855349310571719 -0.17504020632279763 -0.18881454913603624 -0.22248254391784594 
0.53903444587086735 -0.17243212213845979 -0.22863040523253952 -0.11486499581555726 
-0.42485967185000756 -0.00046528208687599947 0.42308113187390006 0.0042547177261757826 
0.16734795459357982 0.39355047242095642 -0.19342695847261693 -0.71755933131543403 
-0.42485967185000756 -0.00046528208687599947 0.42308113187390006 0.0042547177261757826 
-0.42485967185000756 -0.00046528208687599947 0.42308113187390006 0.0042547177261757826 
-0.42485967185000756 -0.00046528208687599947 0.42308113187390006 0.0042547177261757826 
0.019910748568408389 -1.4159376866248341 0.032744587455275045 0.43890541473060074 
-1.4511762548288398 1.4113608712649444 -0.028924279922831177 -0.126460956476807 
-0.1975788324866411 0.1071551824667277 -0.1710992787938434 -0.054057889152730063 
0.11461463089507173 -0.92812187663227519 -0.027256432579627538 -0.022519440202164703 
0.11461463089507173 -0.92812187663227519 -0.027256432579627538 -0.022519440202164703 
0.21010948644327518 -0.28576825542436446 0.69803428641420817 -0.14322318928075906 
0.11461463089507173 -0.92812187663227519 -0.027256432579627538 -0.022519440202164703 
0.4135958956592482 -0.15873859910728583 0.039016776918688906 -0.031518539226411416 
0.4135958956592482 -0.15873859910728583 0.039016776918688906 -0.031518539226411416 
0.056914954589163957 0.69396082665012759 -0.55586249712408742 -0.30237860293976271 
-1.2417121721172129 0.12997046027659065 -2.3998310280737192 2.1897408659440245 
0.29391040217097736 -0.94823532421742451 -0.21095692919312897 -0.081677262360179248 
0.79227669858513683 -0.236476684100968 0.27158602536840143 -0.12596251062546368 
0.4135958956592482 -0.15873859910728583 0.039016776918688906 -0.031518539226411416 
0.022669889489685603 -0.038758270535130007 0.099482862750350565 -0.32548477071782583 
-1.1804703322196215 -1.4731826710553231 1.0570630671886982 0.18958457600735196 
0.34276747012533842 -0.48858510869499072 0.018772119994958342 -0.37875698599245183 
0.56286476210284608 -0.44623266912583326 -0.2711423841713953 -0.23843417778612674 
0.32408458413332553 -0.040588952719319948 -0.12722452562540215 -0.063105710313268254 
-0.22009076810993491 0.24456132323885676 0.12944285299722891 -0.35706825219978883 
-0.16305380391128332 -0.1054802913047124 -0.14745361880755023 -0.032616838331652367 
0.015341719614168109 0.13659864744723346 -0.2010070382505052 0.15610873741279879 
0.23493825367979559 -0.50813877965182519 -0.029987617460441304 -0.33217250479861049 
0.44592991815038907 0.256945583734008 -0.33450018753064581 -0.017254836630485812 
-0.035435804522757228 0.019480312666951605 0.15578420389007197 -0.26360930301719138 
0.029367150402389307 0.17282562977833074 -0.1672210307174003 0.20867244032765409 
-0.20749829538465811 0.054421980037841183 -0.083123103035834478 -0.046379070566084646 
-0.035435804522757228 0.019480312666951605 0.15578420389007197 -0.26360930301719138 
-1.2913265932029072 0.7835258826633692 0.16959007532639378 -0.28029121565699749 
