solver_type L2R_L2LOSS_SVC
nr_class 4
label 0 3 2 1
nr_feature 34913
bias -1
w
0.16972682005214201 0.015143268168537095 -0.66873206936522556 -0.061211823962211524 
1.6964356820940707 -0.66590934028148385 -0.90360896089383114 -0.32719357329163079 
-1.0222860129200053 0.66096672244615473 0.16106076958717708 -0.026307412436277704 
0.78059831135279945 0.12924069535203148 -1.1441538150976447 -0.17475696634453342 
0.068670394300312701 0.022251318455488254 -0.079020529970969103 -0.0042546705516135035 
-0.99746883976291012 -0.51133443586004479 1.4348791435022052 -0.53116211007440561 
-0.008541810529672067 -0.34171829623873307 0.1785760339685345 0.26667798976789442 
0.2154204636219702 0.99012203166625146 -0.53600460728595722 -0.35584449776994109 
-0.022477131824250259 0.062678943071966808 -0.014885170237497717 -0.049558884654838729 
0.050016196687319402 -0.82096370229412863 0.45780943297319465 0.010930058857505157 
-0.0010108809580201272 0.052298798841676875 -0.036512053673924016 -0.12238154476538121 
0.06072696938391596 -0.040124280901284171 -0.058894957401463867 -0.048476796168917168 
0.02778517529636635 -0.26602596541450546 0.10109266137491316 0.006424838893604512 
0.02778517529636635 -0.26602596541450546 0.10109266137491316 0.006424838893604512 
-1.3104560744285962 0.045646037470299008 0.29205149315309964 0.64368892180565052 
0.30085298705565577 -0.097286110533815792 -0.39688163098503104 -0.022890964582663459 
-0.0015636842392731079 -0.014768257202101903 0.04526043538109055 0.012061311976686922 
0.046223348331784604 -0.0039501627696919527 -0.024150723522130255 -0.0080644235049838094 
-0.30884290883211329 0.81940205695272106 -0.41784288454921764 0.13795193032612496 
0.14113169873664649 -0.086082207750065434 -0.19705458921104779 -0.21335794601257196 
0.049847092730507345 -0.023916542694017408 0.00085816511712413952 -0.11967711151875152 
0.015777872801636558 -0.046444129220652136 -0.056660449843588478 -0.088672230750216907 
0.19950204244273578 -0.82868986978309689 -0.041971918490857581 -0.10689125399613597 
0.026220426759374679 -0.97087817872473847 -0.43548081462074456 0.21888408745001683 
0.046223348331784604 -0.0039501627696919527 -0.024150723522130255 -0.0080644235049838094 
0.024573287570045347 -0.093359495075881913 -0.048797392377952421 -0.097770508981019313 
-1.6104501535074442 -0.068792483654882552 1.562904976998492 -0.13786016316350772 
-0.028326650208227413 0.017516400964830151 0.013984881776041205 -0.0034129315337605719 
-0.071295233840067598 0.12442592545469205 -0.1433909515542186 -0.0070412968970775657 
1.306770368358511 -0.35659302353689792 -0.99568878733131216 -0.038758598370820879 
-0.068603000195479533 0.1655698482611655 0.039583709515683886 -0.070386584995773063 
0.47258927433077702 -0.26071628992194579 -0.14780685055123971 -0.082705055743005171 
0.038669670926197386 -0.38222297778061642 0.32985509198416674 0.0012570136363732887 
0.30746181049205379 1.1155355480102256 -0.35123871095558712 -0.46497176217578223 
0.064404856120203482 -1.476306661957179 0.030398751012048975 0.24701281994641186 
-0.026534357075975852 0.012315636147412965 0.033897112170572841 -0.065078301055234988 
-0.29154405517234611 -1.3410838337642341 0.12040096261176463 0.26419586932025579 
0.30352609710079265 -0.41551979182297732 -0.15893829331178144 -0.25373244630544872 
0.11362672127320397 -0.0087916391166791945 -0.52250220097734246 0.03772117725899761 
0.16725782597432931 -0.29207308500233969 -0.19927760125652394 -0.32002645017594045 
-0.04740927572051197 -0.10978171628711496 0.014889045049633056 -0.023892348293366818 
-0.13799827089685326 0.1270936659039931 0.03685928388359546 -0.012804440268624638 
0.30203118651933036 -0.027775112537005091 -0.031426843917826672 -0.059327478143035801 
0.25930821982610985 -0.1193671722205855 -0.089643201121582111 -0.26616837714542929 
-0.0097808344541973347 0.020049885023504219 -0.0007096751121706366 -0.011260337868287158 
0.012004969074196493 0.11096383287970754 -0.082691936658348286 -0.065882611445652106 
0.50003696331852232 -0.19265324841366557 -0.34307042971621438 -0.0092157333791177409 
-0.14263495543255694 -0.53076942626939094 0.21468280054962763 0.37908869237106846 
-0.26810145487761616 0.24066119677885164 -0.010465698482696857 -0.7244771619519319 
0.50003696331852232 -0.19265324841366557 -0.34307042971621438 -0.0092157333791177409 
0.27349290336873522 0.18006938082643598 -0.40928526697501444 -0.48825634613993885 
-0.11578225856924773 0.52851878609143843 0.10148829758854208 -0.33649594022548796 
-0.036263417643922963 -0.17310482180078218 -0.031425516013337824 -0.19575312867841199 
-0.14737146329953787 -0.76030762080170189 -0.22411302392808877 -0.13851070425905013 
1.218447246071189 -0.57933442183982442 -0.43297277003959811 0.049646148086091177 
-0.29967570600459176 0.52254744875520509 -0.020302012753001752 -0.38286209348056283 
0.11819052697914972 -0.64612991164127609 -0.033252878734886485 0.28312565108722965 
0.49298042337563591 -0.13131415064323188 -0.21544285728992735 -0.65309589574128868 
-0.53983146189007991 -0.88279785801599664 0.078627610180237298 0.46986252499673636 
-0.79034688085900773 0.23026016449342052 0.012821640101007448 -0.26834461755088279 
0.14124120671976348 -0.066236185412954229 -0.19449106044951836 -0.12562990570494717 
-0.00047055514733403137 0.054545183882876262 -0.014050690549240718 -0.092723709188778564 
0.74184330802780984 -0.0020264515507918855 -0.33650034920007055 -0.0039259641094161381 
0.47272312010603962 -0.10324715975952917 -0.12135649786776578 0.071706375410649004 
0.09246599731775644 -0.2708561238611607 -0.098660390426234507 -0.11398420211532476 
-0.15979515108304324 0.013546252651699701 -0.029309522403143017 0.14739666122183459 
0.57156799196532337 -0.0030264776855568965 -0.31250131753973026 0.00075162004557050932 
0.035606392783032285 -0.083446070851063522 -0.013080391785268174 -0.04122140182208725 
0.24299177604872263 -0.63405144240971412 -0.16207806195985852 -0.34083344716488145 
0.14110143675519782 -0.6410020171973464 0.025725674180883493 0.31266426999942537 
-0.5093225208131219 1.1256752932174423 -1.5138539685784786 0.44588667054968567 
-0.1364535263173981 -0.16292454399215925 0.038116659425370923 0.036329831727022407 
0.00024716788699472719 0.4110661945753879 -0.17700179769389862 -0.27155731234192015 
0.043646645655759667 -0.25686560127940733 0.0041100507098041986 -0.21401900489365697 
0.63475650034553655 -0.06644020635704756 0.46689204792527622 0.24818919846277876 
-0.15798166437187205 1.0615279907190822 -1.1140307143182517 0.4897051430957714 
1.122359328909373 -0.61620640698214446 -0.38040927780378331 -0.32873139024690234 
0.33531167883931146 -0.22789431402722871 -0.32245354982251417 -0.58763734693439595 
0.13931858966391583 -0.50582758307534514 -0.46301768510861874 -0.036690180461630952 
0.10819682383066687 -0.88718038753203832 0.076063955696171637 -0.063042052863992892 
0.096748152527805567 -0.16647093665022919 -0.099822334486309991 -0.079174453653730145 
0.079893957416993955 0.045055449518673782 -0.057335754781614866 0.25208592578811495 
-0.015340668113159844 -0.13710837494731912 -0.12813529431143678 0.34838061149295874 
-0.039734808060196136 0.9099570928354157 -1.3106533829094382 0.37279706948468927 
0.38715495599414407 -0.46208427402918922 0.053551689344552705 -0.05680941588266529 
0.91957205925496743 0.74981978436493291 -0.48829323954941245 -0.32710171653029047 
-0.1541157075699317 -0.49907211776221666 0.58608430940783796 0.30525204418821827 
-0.63022811378217203 1.3770662080128877 -0.87846553399990723 -0.11512309658255372 
-0.21782927758987325 0.15173677761145235 -0.15127792981196089 0.47898780245911693 
0.38715495599414407 -0.46208427402918922 0.053551689344552705 -0.05680941588266529 
0.4004946878575868 -1.6126717085419178 -0.79264393754761309 0.43712162466600757 
-0.51521258334068154 0.10350999562546276 0.46544908866917001 -0.049402988806123205 
0.11601129039789748 -1.7171024191246602 -0.24946683935731326 0.02501274195727167 
-0.14651926824655248 0.41028394499309229 0.21975606610301218 -0.096093768658081835 
0.34245486014917936 -0.37950363413211141 0.14184056665017236 -0.10982720271046933 
0.06205811970882108 -0.87001172641712521 0.16571963858912303 -0.038463016827056815 
0.25178753165467782 -0.089075158679342875 -0.27339660979466562 -0.031886844076862111 
0.28620290496127399 -0.092126501236592856 -0.32392016177189753 -0.032673372246849616 
0.031233710622347782 -0.043528541855108419 -0.023297751270545904 0.11213616717906795 
0.16110405367749708 -0.0026823283366529766 -0.31535299922383248 -0.034869189063529288 
0.14003926662021737 0.13820897793440917 -0.074592441416280686 -0.061777763394021107 
0.061300911369728102 0.094216343261922242 -0.12651499083985468 0.0050347552388649783 
-0.12491741199438622 0.30787303241972708 -0.17112003183985275 0.022301672079656124 
-0.12491741199438622 0.30787303241972708 -0.17112003183985275 0.022301672079656124 
0.13530540968120081 -0.36284550767969259 0.18689489312288041 0.015551545573433162 
0.02093217357022642 0.0010035899864062267 -0.071175584643228568 -0.036943695154350746 
-0.12491741199438622 0.30787303241972708 -0.17112003183985275 0.022301672079656124 
-0.12491741199438622 0.30787303241972708 -0.17112003183985275 0.022301672079656124 
-0.12491741199438622 0.30787303241972708 -0.17112003183985275 0.022301672079656124 
-0.12491741199438622 0.30787303241972708 -0.17112003183985275 0.022301672079656124 
-0.2760078812173517 -0.19474336491107958 -0.12016861058130086 0.047200798763143967 
-0.16040436896921459 0.055964053306117444 0.090941231331896841 -0.023991552777026671 
-0.59663108208602744 -0.46163025871840552 0.91888467039367405 -0.53121933695379187 
-0.094262849592132492 0.1624228236095312 -0.037197493927310768 -0.029913049230803148 
0.26322161408211475 0.078444826649192834 -0.16440222598624915 -0.44259675395857057 
-0.23148698667046158 -0.12466716166369307 0.30901510167066892 -0.0029992945040327266 
-0.23148698667046158 -0.12466716166369307 0.30901510167066892 -0.0029992945040327266 
0.033167110174240351 0.25727809744743357 -0.15952549608884933 -0.045671843169308037 
-0.024482513872948374 0.0001218948804592463 0.071395103090964335 -0.24187457925721137 
-0.23148698667046158 -0.12466716166369307 0.30901510167066892 -0.0029992945040327266 
-1.8584976498285508 -1.236234231534155 1.3637974421689874 0.2572867810485146 
-0.20951134349108361 -0.28900759988812469 0.23534651309997609 -0.61856778284775737 
0.35843268191923322 -1.352511126249859 0.021069090670684271 0.33527372392085936 
0.015735938675702804 -0.43910935090961117 0.27552563848849676 -0.44804662573869347 
0.13060066455280694 -0.1292090871447214 -0.081582879758419199 0.047380476531572971 
0.29784529933712167 0.12748642736958832 0.039705288090522664 -0.032426410534464059 
-0.046436044760794354 0.046392567608648801 0.032942879629267487 -0.015070936032516965 
-0.003577641171338344 -0.14214008973280329 -0.047955808685276907 0.12069564062275183 
-0.13347791378715623 -0.29145615500636635 0.22675623935235295 -0.00018071001106306772 
-0.42376515945833299 -0.0024195839196632677 0.54661286625905914 -0.0038168141287205351 
0.098497922126173837 -0.17820235363595985 0.016388496324564402 -0.034537206718243292 
0.076055051876946195 -0.32691370866686398 -0.015319893110799227 -0.084890548344679476 
-0.97979915721938382 0.0004072436759625295 0.53284076395107871 0.0087525020835997353 
0.044716309231204523 -0.28209960436284121 0.27559950206011491 -0.37280180724483947 
-0.3708559037630289 -0.18482566539136652 -0.015777260006458099 0.42673096092040252 
0.056126040803553906 1.102262652305253 -0.88811170575000054 0.18235836763822763 
-0.32631061893904578 -0.20454606115539317 -0.11360692545821646 0.00068678217268295164 
0.83298508754172651 -0.3312633208300001 -1.3099202416645919 0.29601518921741055 
-0.24613216929410522 0.0050439065209776021 0.27359369496554442 -0.13119242144946952 
0.32906566553007366 -0.031637504455181861 0.0083387714481463482 -0.49766990876727774 
1.1801191296181102 0.18933282800326007 -0.5568160902597592 -0.079585803632847563 
-0.3055741214615168 -0.5760184288949397 0.096557840979746706 -0.08419219692321879 
-0.82870622717154141 -0.00051204135152697916 0.49097813463711532 0.066510328474244651 
-0.17191848786328118 -0.13533312488806792 0.17251470266758162 0.20101797770763238 
-0.15613567968591854 0.016142701948665822 -0.054219612631405192 -0.3497035711430827 
0.21000991956341936 -0.12481586823391762 -0.087439297991299764 0.078212408662716698 
-0.14450580379332845 -0.42408403445296367 0.30472209522065852 -0.066400708044099047 
-0.047905715306292909 -0.15227622642501634 0.081506198419660156 0.0093507218480740201 
0.20917874912168832 -0.5961463059877582 -0.092990951933405175 0.19416645467324972 
-1.2620970042748916 0.4635454163374178 0.47389313167263919 0.058370543295361135 
0.025944839305879389 -0.068190914227607147 0.0036632938873821397 0.036292815972941518 
0.16336308618265771 0.075444591198062169 -0.17158296015425528 -0.064274873254382581 
0.37198702764151081 -0.098515095470359498 -0.33771603998943472 0.3113808458874166 
0.091607272581072208 0.16786291400659403 -0.24722795006778853 -0.18548977315592316 
0.21359321799457423 -0.44873282743761822 0.0066815823814786596 0.26573840942640575 
-0.58295663032226919 -0.32048393260916097 0.12011006346270875 0.13981693006553442 
-0.031374480790287547 -0.02422349300115036 0.042115608500581866 -0.21136642770983338 
-0.031146764679482793 0.33099430375551503 -0.01422765064505388 -0.24784775003119583 
-0.11339096482491298 -0.12057287648285016 0.2212485350277284 -0.24417921784181049 
0.25705613276922917 0.41448719313627796 -0.47372210723184183 0.18774237971683869 
-0.97609189233220883 0.59184804121590107 -0.21239815650512883 0.5130372890399002 
-0.55041919469519607 -0.17080377333012756 0.017600829928485995 0.43234443144207985 
-0.62869516965672634 -0.82589793892709751 -0.024830764004470374 0.84405175666872456 
0.050498828351817432 -0.12870605116009437 0.26853933720641587 -1.3772000994452136 
-2.0560570952792681 -0.0070239478465280343 0.78564006316665824 0.1159490616834343 
-0.89150053438349719 -0.64885168790702918 0.33518241204200133 0.60776216976461928 
0.73293097592543366 -0.35204757790726593 -0.074310290993974362 -0.4655139464893317 
0.025943043922383106 -0.081638717383353113 -0.011161915385198061 -0.060596935473307058 
0.56122414561828071 -0.25994595244913288 0.040128457119137512 -0.49196137997682099 
2.327882431618399 -1.0390360019366518 -0.81890938209914677 0.12760874838525293 
0.072339970702107501 -0.53066809660617764 -0.18863290500263319 -0.065633667485257924 
-1.3746542095230798 -0.82152505357124839 0.59484983298019301 0.67227514066656857 
0.00514669508622687 -0.038388003967938032 0.0014483811424958332 -0.049655121065435237 
0.040202965454234518 -0.081081138117492457 -0.018620492152286516 -0.038684329092383528 
-0.088597829196616823 0.24739201650771128 0.005224466193341451 -0.2642946296848584 
-0.73095006452194999 -0.5070735688682223 -0.14025667248245099 1.1370776984662636 
0.14258289879066693 0.23714610046415091 0.010697933209729768 -0.44161936077216096 
-0.42711566572326015 0.94361790265748791 -0.26872879066412148 -0.17745439916575298 
-0.37679194528855275 1.4326788352748496 -0.40417964992963595 -0.32595901101088265 
0.12255858429197596 -0.12132401413090821 -0.063266921041572832 -0.012796193560040359 
0.013313523559502053 -0.036985446555215608 0.060366482185076231 0.031780046416645731 
0.39444622175219707 -0.25470368896978229 -0.17358311192029965 0.080926954597941192 
0.14438272262048552 -0.26945249293403611 -0.11262100458268584 -0.089583837605140493 
-0.47116703010929484 -0.015554054915715772 0.30759563689539154 -0.058095805403910683 
0.24159126339660164 -0.029794768094124527 0.57967230124389157 -0.1365889416374533 
0.24159126339660164 -0.029794768094124527 0.57967230124389157 -0.1365889416374533 
0.19841557370875712 -0.23632922911826326 -0.2222260575308693 -0.26243337090777519 
0.35999566379019521 -0.068629680828830683 0.50362581362995873 -0.08277919811038216 
-0.28576862660620816 0.92173776090729587 -1.0612054488243896 0.5970338173713664 
-0.21972137175293133 -0.19153675678561671 -1.0383904308093519 0.39682966541896453 
-0.34520124232442195 0.63297877505795497 -0.20910340414982856 0.0021067842464013633 
0.17466752894206417 -0.13477377756642106 -0.089745077601583775 -0.1873425381984018 
0.18774721527241359 -0.10663885120799495 -0.024634154370294915 -0.01662347386490684 
0.066762492993731271 -0.010804124757683 -0.087992938899070408 -0.13500547063957652 
0.16271685711058145 -0.25878347621297454 0.010833557143831947 -0.15138855957375502 
-0.20640449043696985 0.456666655456196 0.11726698946450645 -0.57181473164762331 
-0.40287579396639894 0.63989896129667934 -0.044715201069135874 -0.056860624549254751 
0.15252912800035656 -0.56606548060228412 -0.20263073575812329 0.077586119376253815 
-0.36479642368854653 0.82663101053111665 -0.94478881256857883 0.63088279763626876 
0.032924471658818989 -0.24987065317519494 0.011861893026022662 -0.12665069673070198 
-0.40287579396639894 0.63989896129667934 -0.044715201069135874 -0.056860624549254751 
0.12201335755797636 -0.071551366558607374 -0.098744396359615988 -0.039836389401832747 
-0.23026091387607964 -0.015341081899260395 0.57600169821366487 -0.089523774748438645 
-1.1707222204263932 1.3312251114858928 -0.15932791906985999 -0.26782054018207013 
0.094889106397453682 -0.11358151067464317 -0.034586445706523319 0.10310945808070682 
-0.0409300951901925 -0.00070558895072111256 -0.19559659170989063 0.059087897490141608 
0.10658522805332271 -0.19724056782265492 -0.19730311031425662 -0.14470595647169676 
0.12322336921118393 -1.2165471993004007 -0.044600264256187093 -0.29067859277627772 
0.21786367174955934 -0.28561041067295095 -0.16856908179767535 0.17932824065952402 
0.15653306628663577 -0.74257661125253027 -0.23209358821565818 0.3576621048063558 
-0.069913560050438084 0.46131142679341641 -0.076421374606428644 -0.054958398137660375 
0.089978372409465532 -0.0013662156521586782 0.0094949057511206358 0.16580710835862597 
0.36833754550375497 0.0094331917930087356 -0.31915420986919163 -0.16933324616578377 
0.019874098149663968 -0.0036274060836186256 0.080497239524928238 0.14057276888032491 
-0.017602967579373983 -0.35081878141897366 0.14565794858242448 -0.13285801078260129 
0.064072043023293557 0.1239646322209052 0.20795317234045449 0.021733652822616467 
0.019874098149663968 -0.0036274060836186256 0.080497239524928238 0.14057276888032491 
0.51510833511592224 -0.0081107057290030343 -0.11158874349065284 -0.14765077965346746 
0.51510833511592224 -0.0081107057290030343 -0.11158874349065284 -0.14765077965346746 
0.097839975726436768 -0.44768539975299204 0.10886474677792482 0.029211657953021303 
-0.00041052986943205909 0.0046133565905887488 0.050868554445292022 -0.08966460885912339 
-0.21718637892635462 -1.3015795690944016 0.19452409219343617 1.5289570816793701 
-0.091651289781267173 0.10068366879326626 0.14764939569156832 -0.20311176264413777 
0.51510833511592224 -0.0081107057290030343 -0.11158874349065284 -0.14765077965346746 
-0.14491626650353145 0.04380901555282507 0.079431777737154846 -0.36276076997018625 
-0.015030880335790094 -0.015759784213966843 -0.088442305487724429 -0.0087744660125837117 
-0.029321818225667678 -0.013432948540894177 -0.25130877968900189 -0.23512633315397746 
0.1021959339194109 0.96042654349947287 -0.49052052213373587 -0.83749233520870969 
-0.49934419201780772 -0.046025683379350965 0.43395668451383318 0.62592087123504647 
-0.78924682227809329 -0.60816912406064183 1.3372656665570255 -0.55295741755681171 
0.69307827416340317 -0.0013026904190574489 -0.65921930372665649 0.0014782429096406508 
0.58471270907261252 -0.99313819180388463 -0.38584375921949382 -0.265717888554031 
-0.041882402084396614 -0.17193217663769228 0.31714353321037275 0.0038589719581794361 
0.69307827416340317 -0.0013026904190574489 -0.65921930372665649 0.0014782429096406508 
0.039827617751803199 0.16934607106189259 0.030104729801195024 -0.28554489756429252 
-0.17623666919403702 -0.0085474172569138043 0.77435103133646344 0.00019630831938489474 
0.005358795723197321 -0.46116332560207518 0.053708522358900855 0.064666409584155898 
0.27745246414000568 0.7783584538943682 -0.36272283374938097 -0.24720926489984532 
0.11949055538517003 -0.024008807565670497 -0.12793780741517785 -0.14166052092033321 
-0.70594073133690816 -0.22002068106533809 -0.12403871512921541 0.88036336944240046 
-0.009262558444034983 -0.065443565410615648 -0.023562574145288836 -0.076410647540956764 
-0.20169252713651223 -0.279425732523366 0.052597574881196429 -0.50029244458848243 
0.067747776266630547 -0.57630965130364242 -0.056487178727778406 -0.06950241349280209 
0.056512001877163501 0.67935222394851991 -1.5190632231893118 -0.0028959904985553491 
-0.67886496345175551 -1.2711492312833303 1.0673613059720295 -0.44754023353610345 
-0.21819588903734374 0.72048518937214223 -0.87584960358858832 0.11820900518725805 
-0.35743888245740313 0.14855177315784546 0.23247083685919781 -0.16558393631780594 
-0.30836554267927813 -0.062789399961781261 -0.0032903394282204623 -0.0061014801652966022 
-0.95824633346728216 -1.0321542562911958 1.6499342137840562 -0.42359199010977899 
-0.47573983322242724 1.9494205316580573 -1.3537627695398466 -0.23315047473596306 
0.49872391879389888 0.69901281437709173 -1.5612689877642663 -0.030798988181920652 
-0.57200944582251156 -0.0064328503057535444 0.67416704282690076 0.024895268737324075 
0.20952430983737569 0.12827912610353553 -0.21754178772230684 -0.52263195375624916 
-0.48525360896828273 -1.3085067486217132 0.31831522707382681 0.49415609698603458 
0.093579570008251109 -0.031479717833056836 -0.094304543767615281 -0.078684625868731428 
0.15887514157464727 0.84155166894000266 0.073694367142512207 -0.32431992487440625 
0.17063692489690252 -0.37557729571325765 -0.042867206969135457 0.029819482977193973 
-0.57200944582251156 -0.0064328503057535444 0.67416704282690076 0.024895268737324075 
-0.05334527183897133 -0.26167751957555047 0.12743049500071454 -0.0012183658951467704 
0.023699159082869709 -0.16365636437942643 -0.038536553264774127 -0.0078825891455980013 
0.18168470697476657 -0.10872157500702161 -0.1776380819144191 -0.1242634495643765 
-0.05334527183897133 -0.26167751957555047 0.12743049500071454 -0.0012183658951467704 
-0.34611268855636701 0.17440294543607132 -0.086927426313962469 0.013847565508170005 
-0.81405093669555206 0.83169713984088123 -0.1967192887924179 -0.45856624425222464 
-0.061291719916444963 -0.096460576554225283 -0.014388195822617009 0.094138965941927222 
0.02795851025576708 -0.11296029428468396 -0.14963185599385054 -0.22094848902094777 
-0.05334527183897133 -0.26167751957555047 0.12743049500071454 -0.0012183658951467704 
0.13479201724526302 0.24898342818888636 -0.48330703172297851 0.07206631330858701 
0.64366109989748765 -0.60917553344658348 -0.49711196921274425 -0.24926885938048549 
-0.41469310245902569 -0.0011712176570181534 -0.72805071016254075 1.0330516061186086 
-0.095073114755902771 -0.34602435424206762 0.25442401683295723 -0.012143420287708651 
-0.061319164650043195 -0.15579377323777499 0.058519402532674743 -0.29617865156190748 
-1.0516179093518083 -0.51472718379696303 1.4879539216518982 -0.51149178382440474 
-0.0075094551986936604 -0.24931288762393294 0.057533505270928223 0.028753453021687261 
-0.45504444639359665 -0.0039620050144720167 -0.56314498574399652 1.0554969924608628 
-0.41469310245902569 -0.0011712176570181534 -0.72805071016254075 1.0330516061186086 
-0.0014140252319658521 -0.66781694802204106 -0.14934225535208165 -0.02824193749129697 
0.95132531204104109 -0.91193932514289722 -0.060828649131892149 0.087453621039757554 
0.43279462970670929 -1.205364782716472 1.2462243664242856 -0.079965618892111234 
-0.36093935843403741 0.39773179023488525 0.97671266256539435 -0.10505827704576359 
-0.12773765797062281 -0.25631859834849818 -0.023749418947197582 -0.037541324733648511 
-0.024415436085798048 0.244327144358543 0.051272469910957637 -0.13389366934907951 
0.1603416620325106 -0.33280600838959823 -0.1792739868094588 -0.28769785792489133 
0.11802698875691889 -0.17075653466866833 -0.13832024753137423 -0.18390033231909259 
-0.3990088021661839 1.1585413027327025 0.15840498170779294 -0.80018029904875432 
0.044610319207971282 1.2335831481622099 0.090268349289260863 -0.9724901575250382 
0.07489149868636942 -0.24744978760231073 -0.18667348319018967 -0.008225745278525657 
-0.04766172657838888 1.2472602406200664 0.15811934543831568 -1.0036912101213367 
0.43172476987550612 -0.27614046837354872 -0.075043159224280967 -0.44256511194807957 
-0.047336421148923287 0.10107302095481399 -0.1507930684599621 -0.12593706856054915 
0.18945964414984323 -0.53717523360250286 -0.14920363430273631 -0.061438026282700162 
0.023877309820668272 -0.15207376855690158 -0.050105683832493197 -0.051492446130285113 
-0.044342621864716769 -0.20057006732132437 -0.014066466976597344 0.16275818233505787 
-1.3802821546595887 -0.55443231860811681 -3.4917909613027955 3.6609868846280889 
-0.087678750795497223 -0.23112847353999502 0.14624832583065778 0.0014742613514882041 
0.63430163861147915 -0.54976039919388198 -0.44523132939250915 -0.0023583644102861401 
-0.087678750795497223 -0.23112847353999502 0.14624832583065778 0.0014742613514882041 
-0.0984608324065393 0.09272720549626709 0.015084199190754117 -0.01514893903008166 
-1.2201187389658632 0.30939791563252256 -1.2229289124456564 1.6543368083296952 
-0.34753189837990306 0.11919277519725507 -0.41554514089707473 0.21906342891623526 
-0.087678750795497223 -0.23112847353999502 0.14624832583065778 0.0014742613514882041 
-0.35195815913602246 0.19944289988506911 -0.15849836409516005 -0.09301054274561453 
0.042821640235351649 -0.056523675996534448 -0.061785929252854324 -0.026832924137494382 
0.15154018681412001 -0.24054565706659578 0.071070536059776951 0.30440206521736601 
0.53400388752625461 -0.51825333469375978 -0.32538252425437542 -0.3101222530730382 
0.088493941304059104 0.080689071612362689 0.057455732285928263 -0.25744675213099261 
-0.33300439823101091 0.82446427706721592 -0.48774966373726264 -0.42676234039556721 
-0.31025661567029894 0.93434347018806019 -0.15391835920194732 -0.30148745530490562 
-0.5425725054692403 1.0428893682888258 -0.098567620228220715 0.0016423191045243507 
-0.1969056936535592 -0.049216098024717631 0.15658010646198478 -0.039306060023550672 
-0.24673904995939128 -0.24742678032315801 0.19131612422547867 -0.28460906112223633 
-0.3088526089901783 -0.003243772638403912 0.47621873834283257 0.11372999060046549 
-0.3088526089901783 -0.003243772638403912 0.47621873834283257 0.11372999060046549 
-0.3088526089901783 -0.003243772638403912 0.47621873834283257 0.11372999060046549 
0.2270656210853372 -0.55481289048761862 -0.60986993433724079 0.35510011947158632 
-0.3088526089901783 -0.003243772638403912 0.47621873834283257 0.11372999060046549 
0.29350192319214335 0.0043984070691714377 -0.28275129613152272 -0.15486176159768339 
-0.3088526089901783 -0.003243772638403912 0.47621873834283257 0.11372999060046549 
0.086547196698280288 0.86282975471163859 -1.2559151599574891 0.51214926885198009 
-0.41990685363571773 -0.38567848327251308 0.42141884517561662 -0.046659773503525181 
0.83497138361291845 0.051956374304313137 -0.58878548608676262 0.082435751768434928 
0.25363492402566562 0.051123478118810975 -0.039729348140616252 0.016015591903759105 
0.75673269828151124 -0.17327247720964442 -0.429050824374208 -0.18131594566328529 
-0.32031095932546927 0.45347908854690633 0.04926064863641029 -0.47166726962548017 
0.17496321107763846 -0.98625910400885064 -0.17587480185161319 0.082160051899344305 
0.074917900966303921 0.051597479644608965 -0.035719005395766279 0.017263440275332234 
0.059263793204407708 -0.36808574526645876 -0.040069374300436639 0.013309774690567325 
0.12162705883268596 0.059493941577176093 -0.047308903140411362 0.0093689763220482086 
-0.29408051706374694 -0.11490519241814481 0.087602806611126613 0.068937787756478949 
0.18118603927536778 -0.050923264330471049 -0.13589464357485073 -0.27310532506985086 
0.033715178244251666 -0.09823086033612069 -0.04076946415708313 -0.088649201546988826 
-1.4767850815148393 -0.47652682392971946 1.0420218175082339 0.964405163142252 
0.28293672018505989 0.087847942573688859 -0.48036157422523418 -0.15180356755124058 
1.3834992709629366 -0.51842651333087708 -0.39919100083249398 0.088358144959472792 
-0.93657959875521812 -0.18337497126608845 0.95549302673861869 0.18916688692943295 
0.0093207939195835993 0.10900911659762683 -0.061756869612163881 -0.77483055334895812 
-0.14995449273982256 0.21800137656374929 0.03589353165248016 -0.24957199186834766 
-0.36068628992592466 -0.34619328397314258 0.35053361934221305 0.016192077295069829 
0.1196304787871933 -2.0533394382203767 0.29895936526869132 0.10790420308006807 
-1.0870325978891628 -0.42155965087798597 1.0157953239343627 0.086464307228945325 
0.17670053913672817 -0.67404770212620457 -0.8271913577185438 0.51323023046663951 
-0.4518188494101546 0.029222460080778723 0.94817704700286232 0.070952953557927328 
-0.058943228751892403 0.47103759189477074 -0.011739999974725177 -0.53026080439731194 
0.039934620624105882 -0.17018957847372546 -0.021656682861776355 0.089946231107026861 
0.082255697614973367 0.065195254171362474 -0.11418537579135049 -0.019178224929666039 
0.53446519633408673 0.490731138685294 -0.34457616073129094 -0.97326596483373062 
0.15845372722177212 -0.036200226640820052 -0.044893990909740521 -0.47363579885908369 
0.035325814206752848 -0.36443619713928849 -0.13687716205293302 0.20178699481273077 
0.22472550538985941 -0.24589803483115127 -0.20247299363713009 -0.079361798473833498 
-0.090477461695036412 -0.016490247651210682 -0.099828997745832704 0.2210983723764173 
0.72173719338282316 -0.15139008988070618 -0.40607302903612152 -0.99608481639318047 
0.097777633153812257 0.73134475025418577 -1.1082257668136819 -0.029148544057349166 
1.0277837725652135 -0.17462498729281672 -1.0984143629094945 0.012324968497161963 
0.21331012291178081 -0.30930479699918489 0.31813998187306525 -0.0095461405335792032 
-1.0189981737067415 0.27730113420239588 0.94361603193846344 -0.38929316949014503 
-0.077276829190720236 0.63296423037214433 0.28018316475732785 -0.48019446934129506 
-0.59466489052646754 0.74801120678687039 0.18720616487813008 -0.55185054460821403 
0.15796372154553992 0.085962093583783677 -0.192039403690559 -0.48104378082164262 
0.57112248874000859 -1.3190881419989138 -0.079090075374812857 -0.14211002658306349 
0.11152752058019458 -0.0010947478768277993 -0.15598339573342468 -0.0050509702294497163 
0.11152752058019458 -0.0010947478768277993 -0.15598339573342468 -0.0050509702294497163 
0.85403109608691796 0.0028394231403023606 -0.40589574251989602 -0.15572400351487592 
-0.053599056080641222 -0.2173935001832964 0.099348393743757202 0.62892217146360607 
0.16511213319326248 -0.26626616720856061 -0.10771345374448706 0.11854576774940803 
0.24092643740175818 -0.029175693231137393 -0.069547289262725923 -0.010436800197228459 
0.11307542564710579 -0.38972690985167391 -0.1729340072906082 -0.23868535680798825 
0.088557144643440777 0.059930563334627318 -0.099446832524096737 -0.2389089430069041 
0.25899129933224996 -0.11606151596950272 -0.42956874314507398 -0.080532597627620217 
1.1665959337401617 -0.0050071050811122987 -1.2663322729484463 -0.030991239639179866 
-0.5345807335279833 0.47621337227256055 -0.087660128397312118 -0.46900873963994083 
0.14289949148860506 -0.22245433552338917 -0.031226814972662151 -0.071395795334337125 
-0.38030314623942041 1.2949654184006962 -0.23589272186295368 0.21840097783468154 
-0.079065144593165437 0.11634380487651277 0.10578539315730091 -0.071556585664629996 
-0.16450219542587993 -0.80220280121818233 0.23456383309079215 -0.13637133450373665 
-0.063463443958575061 -0.066523675808960819 0.056441820554881013 -0.060397250785858191 
-0.35345335950770579 0.48833842463690513 -0.1183949537701241 -0.75783117074388739 
0.97022196306586594 -0.43450205371579476 -0.61504815525465095 0.046855689588013949 
0.023222033865517053 -0.23293968408719357 -0.025776461600181617 0.001400402774207811 
0.97022196306586594 -0.43450205371579476 -0.61504815525465095 0.046855689588013949 
-0.026342941410781331 0.064978683329371345 -0.0041616397395821125 -0.14770090010525999 
-0.015485231951218736 -0.17758306835600746 0.021133286476960472 0.071278460518189535 
-0.069904012922474154 0.74607521231651908 -1.4419712302703855 -0.17578989443967141 
-0.13901585547330797 0.0058616213245465433 -0.023571664378912796 0.083374635267207037 
0.49875370449894629 -0.20524340573432504 -0.35764236004154298 0.24186636249852145 
-0.24190927388538355 -0.099291556453908386 0.48115298485911895 -0.013122192142062748 
-0.083661817936453026 -0.11861435120863097 -0.069470457622227116 0.10953024473467257 
-0.61258103734893421 0.030981153766125553 0.91878078553951825 -0.31307321383812747 
0.065194417289154372 0.31294933157736132 -0.93157517698659986 0.013014553567586521 
-0.22176114708007966 -0.2786679580999043 -0.080177324517121618 0.18793190218732131 
-0.26469771348350946 0.34438577859708785 -0.12812179036263471 0.20376948029851502 
-0.26469771348350946 0.34438577859708785 -0.12812179036263471 0.20376948029851502 
0.22385912354795104 -0.10700113618195684 -0.15453706951231139 -0.83498556883818853 
-1.8055499914246185 -0.090248750642584308 1.3347877367574901 -0.32121949471410471 
-0.59191857973159889 0.39794450570039841 0.38329715229496675 -0.36170018831583617 
1.9220325501731026 0.13932832600707112 -0.62360918552090761 -1.3961384233040166 
-1.3904316647148067 -0.43021070945318918 1.4758553900496116 -0.67450557762423746 
-1.2042599147852335 -1.0778448849449624 1.9939560515592454 -0.99784455053248156 
-0.21154383307969443 -0.19674906563657385 -0.2113031878735141 0.14672725099257353 
0.060107996799272451 0.30487514448879988 -0.006294971395764383 -0.38130535771076152 
-0.002759692812227741 0.10206834410574797 -0.072196378637123859 -0.1401711510751186 
-0.029893729739310107 0.025275564024966835 0.040683671243439738 -0.30013766543466169 
0.17109295944154207 0.036099502782698203 -0.43759152108853694 0.096848380149128138 
-0.18664265697807847 -0.014589099899477265 0.083760710924550563 -0.0022684606866726922 
-0.011619585322155873 0.16119492452118275 -0.28200721960551484 0.041363063455817944 
-0.18664265697807847 -0.014589099899477265 0.083760710924550563 -0.0022684606866726922 
-1.3645540849276814 -0.80848301638058362 1.6071028041747419 -0.43450963872594717 
-0.25728072735909518 0.26889419478721166 -0.2109442905947464 -0.5445018320023931 
-0.18664265697807847 -0.014589099899477265 0.083760710924550563 -0.0022684606866726922 
0.14443240212479258 0.12952460861817611 -0.16634710278919362 -0.37675943017204511 
0.045180176297078066 -0.22253485806103612 -0.043032718727984129 -0.12061830966567821 
0.27406836528545037 -0.21690461112984988 -0.25497658579035432 -0.03319267274392064 
0.31925733394767086 -1.3500212909204623 0.072457241277250617 0.26614037152707148 
-0.24547317314128619 0.8006120380636822 -0.028279505620685014 0.0044216191897937934 
0.6308070296015913 -0.032161400151781497 -1.2026514486368383 -0.0056037636866222897 
0.081770851593599314 0.0065177511474762469 -0.045289888390821764 -0.25738595576120471 
0.76830035299974331 -1.0550899299973251 -0.16001443679972852 0.13971380816447798 
-0.11855558355558722 -0.02026891539780127 0.2365600693100722 -0.24069753614471573 
-0.067203525349386617 0.58536442421735724 -1.1114093474491145 -0.73482290658902483 
-0.12616220543052242 -0.36491086749773949 0.16536089557684908 -0.031318259825946951 
-0.66347235930843518 0.77962565350888779 0.088304205756196671 -0.32273634164823661 
-0.18947041220515731 -0.63041619393039561 0.17188457520571526 0.35538188927072795 
0.11985986287588835 -0.041073960013275859 0.028612807562764499 -0.39431401469367749 
-0.36938520795139701 -0.29728408264380246 0.6321261419826596 0.001129272408559935 
-0.16517284804475907 -0.54632627208808915 0.0061239158220386565 0.30069752585815662 
-0.43510190007245242 0.2975987951437668 -0.062246475220451722 0.24634460087590587 
-0.14442775882294862 -0.099391700936346361 0.060950844063545527 0.15148590790571875 
-0.78017752075431301 -0.9388027020863734 1.0762257925003 0.080565354626969038 
-0.1697127478174501 -0.01268401925691531 -0.061448777665530752 -0.11702571751688082 
0.33822345535442999 -0.24016172204367292 -0.20467287112654495 -0.26432725166427673 
-1.3332887790199583 -0.14276406554333526 1.503934672291747 -0.89529555943085182 
-0.021775636827061788 -0.0046948721900259283 0.022260766931344982 -0.059042552010259014 
-0.10271153751086551 0.58460317261116956 0.27688880485031186 -0.85721152827428837 
0.23130748643184024 0.0052027536620671 -0.23374764570775039 0.1037323226328615 
-0.21588607266705181 0.75698093519377851 0.13955702096148265 -0.13299882330385215 
-0.75146190352633746 -0.51505725387270784 1.1072888492345863 -0.34643950886630592 
0.32176121073913594 -0.32792559467870275 -0.20536389222453053 0.0066618703405076449 
-0.38127469669286246 0.064447345048668961 0.41028125462091292 0.18711657753002486 
0.15258827689478388 -1.1112943294384601 -0.086353002246366078 0.006243130663447994 
-1.5582006548676739 -0.099418678640499636 1.4669657385951476 0.033593752331671445 
0.13364645916995127 0.22111884519475514 -0.10608849955337017 -0.46425977705871313 
0.11436647786375538 -0.0016465166359399958 -0.030367156988798466 0.024697377058060889 
0.81051167734033602 -0.0041013580940057193 -0.59673622220895695 -0.24475098983248747 
-0.013554186237746879 -0.69921149370767732 -0.44917492702538919 0.00033161868386244464 
0.11436647786375538 -0.0016465166359399958 -0.030367156988798466 0.024697377058060889 
-0.30340917343481827 0.20746036291980624 0.11883215919863703 0.38023639945195342 
0.11436647786375538 -0.0016465166359399958 -0.030367156988798466 0.024697377058060889 
0.10177972169197054 -0.0042755359330659652 -0.48266371012470488 -0.080198094362953179 
0.5960038968037854 0.0009191844759735019 -0.57667427200542742 -0.23735050239629038 
-0.083657792387840463 -0.11951378082871358 0.062102141665551114 -0.052617546927795189 
-0.035802130909872672 -0.0042077489255500401 -0.047570209515231394 -0.030985455005630692 
-0.44096762181415783 -0.49895051139238483 0.3443484926449264 0.021018708609917433 
0.71593829919182794 -0.0028275743099638248 -0.57017595823734268 -0.27929451483591383 
0.71593829919182794 -0.0028275743099638248 -0.57017595823734268 -0.27929451483591383 
0.018155432257201135 -1.013216358312536 -0.23504127902416083 0.90283096286586917 
0.090848412853401936 -0.69661690974405932 -0.094269465609196482 0.40997243809513573 
-1.6926591833958085 -1.0529401261925153 1.7342614156821148 -0.43428451624241693 
-0.053532413684672916 0.24684661506014804 -0.13575794371708225 0.0047313549012123202 
0.45464045018340959 0.0048566549984605679 -0.064295914051183983 0.0034425719563733453 
0.45464045018340959 0.0048566549984605679 -0.064295914051183983 0.0034425719563733453 
-1.1850410308433266 -0.9777708191594715 1.9024489610541444 -1.0805892335241292 
0.03419488913830792 0.39963797949080104 -0.12832579469139913 -0.28734082709591424 
0.10482696503592787 -0.69887992163175949 0.013317749371298558 0.14517917983095735 
-0.19981061040617773 -0.0086983790764961384 -0.1003411138821686 0.52640625552316955 
-0.87075591552416953 -0.63361625770822849 1.3995201411328577 -0.83417352631562514 
-0.11880059722866484 0.029078741464368257 -0.76416073906167226 1.4000768868207756 
0.03017927884968781 -0.35917729642278956 -0.011807064192863832 0.030362871155671892 
-0.03302915502107142 -0.087835823607485791 -0.76776107553217743 1.8512925625665364 
-0.097576620151109794 1.5278836297104146 -0.78721397283442474 -1.2566220641506027 
-0.086346393599201238 -0.62892439221176932 0.090440148300438131 0.36467461775613319 
0.033357759338581761 -0.10066692249242748 0.073282426557700342 0.22455635777564398 
0.23551248586839063 -0.35352878152509221 -0.099798488264746188 0.023894611672514082 
0.034614829933369846 -0.0043532688946966071 0.89764145964584663 -0.55016250245897891 
-0.044596331431191155 -1.0387939572229028 -0.29502287780763425 -0.26877146529823637 
-0.12161099142502876 0.15220243833357447 -0.049399309423434797 -0.12235003102877451 
-0.13336312538655493 -0.013121001139375317 0.59038410641305206 -0.50224900175953746 
-0.0064886098990138601 -0.096084575541381334 -0.0027678427948234358 -0.059128330079073928 
0.034614829933369846 -0.0043532688946966071 0.89764145964584663 -0.55016250245897891 
0.39872662357921884 -0.5297491518636458 -0.40282004630899848 -0.55997062478884019 
-1.0235940282791558 0.55371655166396694 -1.4252860757535479 1.5722535758011311 
0.16227024234098508 -1.281229665787639 0.2690662804565338 0.4714604293418011 
0.034614829933369846 -0.0043532688946966071 0.89764145964584663 -0.55016250245897891 
-0.27318458845798343 0.19822950156430333 -1.7733107044670517 1.4973295478845354 
0.034614829933369846 -0.0043532688946966071 0.89764145964584663 -0.55016250245897891 
-1.4602902907120845 -1.4139345865940887 1.8200003339167732 -0.21436545539809185 
-0.15990573337281533 0.14838125638507527 0.070788833017270694 -0.25743387729843892 
-0.81799260187895428 -0.51214637280199837 1.3689781010072388 -0.56162970544488777 
0.041094021327561375 -0.0023211298069848157 -0.068925713343863659 -0.0042437864181152796 
-0.26193326276228618 -0.21725753719079599 0.025480168620791221 -0.030966596015745272 
0.068291559682540845 -0.8086311663736826 0.0036284388255938549 0.11327344373188936 
-0.074631484540231441 -1.9082529974989106 0.6555154895938371 0.062723276558053112 
0.041094021327561375 -0.0023211298069848157 -0.068925713343863659 -0.0042437864181152796 
0.56167269781459739 0.11797962829626547 -0.43300409604995482 -0.11961187990241076 
1.1004320458144898 0.065182615665581742 -1.0113540300988253 -0.010256998311142615 
-1.3346102602408072 -0.056117658351863296 1.409887376960592 -0.34132352547601119 
0.094258595160742614 -0.43637301120055599 -0.090962523214507471 -0.19056434105632425 
-0.62813788438637896 -0.34238890110003545 0.71815225357440926 0.0069214006713618735 
0.80185121047719599 -0.38319849290695107 -0.57614652402874178 -0.23550857184324023 
-0.99940279290151901 0.85632497794045803 -0.14446386451170862 0.50454885180542053 
0.077224049070259523 -0.0072247719953837178 -0.038654650560730669 -0.022207922965432066 
0.077224049070259523 -0.0072247719953837178 -0.038654650560730669 -0.022207922965432066 
-1.3016016560254378 -1.5196780440181294 -3.5232340664927611 3.5112801146803836 
0.091856115245089326 -0.47547031503048254 0.0079510815927817322 -0.020633022067211876 
-0.16306151894346529 -0.08368044115340767 0.12071882778110289 -0.57621324263849205 
0.28069132946026903 0.24074745841439976 -0.17368317253591031 -0.38906561781274207 
0.078201884007802591 -0.00024662214570943253 -0.069118905349709381 -0.063098494002990738 
1.4641022223092959 -0.12729926376422013 -0.7193398776179436 -0.81131128012581855 
0.29230177609133307 0.40748146664155144 0.055931840688242945 -1.2180132132610935 
-0.33657457046974038 -0.56288472628201192 0.35513659140011056 -0.45383942701390256 
0.71335584415020192 -0.54661497825081307 -0.63514401793148445 0.2586479652587243 
-0.057528827579981318 -0.25964773253082485 -0.018607160012289212 -0.058619006680430207 
0.29849484484760064 0.067255680593102635 -0.13454973260099704 0.23708288579327924 
-0.14485907498996925 -0.40393897636799841 -0.085291708645967815 0.054551783516587744 
0.72890335160076225 0.07740887877107909 -0.62377031271967653 0.71842467998477855 
0.099103746308637261 -0.043453054578736452 -1.1697319991204793 0.092728290708764594 
0.1148419205989638 0.12487330608642414 0.0012246884633917571 -0.21716326780094675 
-0.075655483928867798 -0.32892594619449594 0.1278568739304268 -0.10542154139923336 
0.096326123221760734 0.048187956413863781 0.0026333118010044912 -0.12302614576012211 
0.066435438440818909 0.05098123425103205 -0.02326326698091357 -0.11850446906349633 
0.066435438440818909 0.05098123425103205 -0.02326326698091357 -0.11850446906349633 
-0.36620913744560457 -0.0049062865678432457 0.48689416612826503 -0.0022750504542313294 
0.036605340352233763 -0.8251865224307634 -0.25393143090414305 -0.045055630087841254 
-0.36620913744560457 -0.0049062865678432457 0.48689416612826503 -0.0022750504542313294 
-0.11093633201925196 0.17530166566143929 -0.036533395603578676 -0.65265158034146409 
-0.34883972020513671 -0.0055913166132636524 0.4566380841970703 -0.00092370944732886513 
-0.060113979895762726 0.11621529002137887 0.011698949168731555 -0.24113495897570525 
0.17495450302277096 -0.61741077221433094 -0.18273264009898177 -0.026300466115713822 
0.13688725536588631 -0.73104431363915301 -0.23421606889480612 -1.2981036524422418 
-0.91993628163985308 -0.45824907148414212 1.2330565941449063 -0.099513218596670311 
-0.044243483860045889 -0.59106486563618521 0.098343618203027741 -0.0062506752373736995 
0.38540696014292386 0.00030072132358765135 -0.32676667123413999 0.0021321439451984698 
0.93156219945285235 1.0995258263998398 -1.1166046670638976 -0.069180697333840857 
0.072629607666647847 -0.14770648476131673 -0.17443429615402981 -0.40573023478986503 
0.38540696014292386 0.00030072132358765135 -0.32676667123413999 0.0021321439451984698 
0.17422409824687018 -0.033640944896599953 0.19441628236206765 -0.33831660986161494 
-0.50247449381736264 0.34675100731434899 0.039985877523553592 0.023204042422162369 
0.52869642553003193 -0.15470312101064665 -0.3836353872846977 0.013321076797137919 
-0.53760603243433136 0.33733530683036184 0.42941258284515932 -0.24157585325050132 
-0.00093583488578135882 -0.048069771502264567 -0.030587263851480626 -0.078521208257730665 
-1.2014255237819806 1.6259530701154699 -1.6663792405964741 0.1113390388068079 
0.6839945165465493 -0.39180325497251134 -0.073956348951537909 0.013692591701284791 
-0.013853414210519763 -0.77129270937123362 0.17756677569442902 -0.092653995270583905 
0.72596498334957138 -0.32984147002822373 0.38665292649510158 -0.73855942198768143 
0.084946619172558302 -0.19868574623315899 -0.15601406044096527 -0.32210166462909917 
0.5849639258511925 -0.38701914716144581 -0.02568338704070508 0.026608718941631658 
0.4585663577423349 -0.12575393570979856 -0.41205682366426932 -0.10790704817509511 
0.27211677849343674 0.45880204906100591 -0.21965258224544867 -0.23585411643270027 
0.5849639258511925 -0.38701914716144581 -0.02568338704070508 0.026608718941631658 
-0.90949346886896543 -0.1273570333679237 0.69707453529377306 -0.031573686576576908 
-0.14692488969349907 -0.043697519253365069 -0.12775605882985241 0.086990695170157478 
-0.1424940754583798 -0.10924284685444915 0.34694328633065874 0.0067920195242475792 
0.062836110845114146 0.15983017165075022 -0.08670592501981754 -0.079445292270667781 
-0.039668970726179059 -0.10744511438247838 0.26154000543102535 0.013373968647435956 
-0.1424940754583798 -0.10924284685444915 0.34694328633065874 0.0067920195242475792 
0.49364254803987129 0.21019840460779851 -0.51352737559608974 -0.668099930171415 
-0.14172623858211073 -0.12679014320290466 -0.086183924266410139 -0.044003524103976399 
1.6929186886108887 -1.5739223443806654 -0.67404243489430282 -0.92537145244815078 
-1.0610733503993102 0.25588737746751322 0.24799641843407666 -0.071669500917482448 
-0.049478951786374355 -0.0041232348815551205 0.086881048684576676 0.072533809061494731 
0.34137761636529651 -0.0060727609195361989 0.035340009552500967 -0.018050502205479935 
0.30864571338154806 0.69213112349221828 -0.83117936351976995 -0.32846756342553496 
-0.049478951786374355 -0.0041232348815551205 0.086881048684576676 0.072533809061494731 
-0.51559327056515425 0.40962167444439562 0.14373899902440912 -0.78596400786049458 
0.032515439384896039 -0.52466072722170431 -0.024150668876598468 -0.31700338905776215 
-0.049478951786374355 -0.0041232348815551205 0.086881048684576676 0.072533809061494731 
0.47126813553230285 -0.10492687910267029 -0.43822962029952606 -0.25488869755205773 
-1.7589486596518142 0.15688010979956599 1.390706060620811 -0.35266793018187637 
0.25406592512029263 -0.44723724262362502 -0.043001225619753114 0.12681161650648165 
-1.6810389447892298 -0.070471963844612975 1.4273677914288494 -0.0065779412741255941 
-0.017780653341306289 0.25060530623614863 -0.075839671931093824 -0.21167929614113903 
-0.56165257400268775 0.21984388181024483 -0.87689096303802927 1.1187589099868331 
0.2189641743626565 -0.18489326576492365 -0.29275237758491668 -0.19057014750096862 
1.484703240718857 -0.19826083281772056 0.62757530861786115 -0.059608068066276748 
0.071448480182569774 -0.13043722980144049 -0.039904808158371816 -0.0050282125135161452 
0.071448480182569774 -0.13043722980144049 -0.039904808158371816 -0.0050282125135161452 
0.031631706501327204 -0.056958408076799402 0.04618671819535753 -0.22992986620092942 
0.21766658700751348 -0.15171906877020941 -0.073639455071821347 0.037819310528107442 
0.071448480182569774 -0.13043722980144049 -0.039904808158371816 -0.0050282125135161452 
0.071448480182569774 -0.13043722980144049 -0.039904808158371816 -0.0050282125135161452 
-0.22590693171211368 0.6690095510263846 0.077548213750975134 -0.33335470259942773 
0.24925819388778525 0.33077716656489609 -0.65906143303092335 -0.23630647694425905 
-0.38628868664673693 0.58236635969292827 0.1410112957915127 -0.40526347350080927 
-0.22560348914343961 -0.23036881682057012 0.058953970918213451 0.18089634364207338 
-0.60466317942092429 0.63009709343013254 0.2156621294355956 -0.19056257852808073 
-0.63985519556147119 -0.17388155576711978 0.21147862701385339 0.18133384243243139 
0.89470743924008178 0.32902661205128225 -0.86912652614340047 -0.34990894300009157 
0.2173605234622985 -0.3589620070652314 -0.51794770599001816 0.21050034748924235 
0.6300783140047016 -0.30935072459368279 -0.046048522903665678 -0.90196773053847967 
-0.10131382021610773 -0.3032671111825942 -0.1378510244289553 0.34313451642107323 
0.12853319873470515 -0.54807501206514941 0.039787455980510644 -0.49510820771755948 
-0.039221678971955554 -0.13561005917522972 0.13304840677371765 -0.85323979943960038 
0.079070191053342606 -0.14590797491674856 -0.060285277098031533 -0.078838223682024061 
0.25986447605966451 0.0063999148409644643 -0.12937221964015921 -0.2976161203948392 
-0.00055349801887677463 0.096800956015307998 -0.15162597136179434 -0.23383595849171707 
0.66750092045991283 -0.72665988370668988 -0.13922493163021082 -0.17536966857810687 
-0.73768416625545641 0.61076224701613202 0.065290760831915262 0.10406741688744904 
0.024387012407399877 -0.46764789345736435 -0.073768746237886484 0.21126474581519858 
-0.76276449888947806 0.52922440879917287 0.077835962692164251 -0.22210657582949048 
-1.4623338247893864 -0.65217105640985529 1.601412652700402 -0.17536352636581071 
-0.0078477443602173683 -0.0030740111608606431 -0.0060608836426207027 -0.0051113404752487386 
-1.476337215163646 -1.2145905207638665 2.029300658980425 -0.85075994220764928 
-0.0078477443602173683 -0.0030740111608606431 -0.0060608836426207027 -0.0051113404752487386 
-0.2053650080325492 0.42348441090844496 0.24836919327290086 0.097694365158150581 
-0.42926872282157258 -0.38886918244124663 0.18176730260336343 -0.14009746004654511 
-1.1849476383403656 1.2190514297424493 -0.027796928986630387 -0.24275812651933884 
-0.29463673345186286 0.35540176068900992 -0.18146135920212275 -0.20031659800947352 
-0.14291151091443388 -0.34165927630747422 0.14930799473820658 0.23957827306995719 
0.12905718967218635 0.023402749884862562 -0.040463672354446097 -0.1216146429809761 
0.24624100999107873 0.45843587577878447 -1.0686565808037596 0.53743801674410507 
-0.11928756485834516 0.18840485483119385 -0.047591878636148555 -0.75273210659642331 
-0.98344042875192317 -0.44802617042765153 1.3495300645037329 -0.32944355473880171 
0.44784433307529437 -0.070907309053504619 0.034073139554367318 0.051461494553553977 
-1.0319445649941119 -0.45025795412107383 1.3056728807144475 -0.32390293653178553 
0.99716230755255808 -0.99837502721880089 -0.95040159232023358 0.66415364000856703 
0.03621841048664115 0.024615779554411028 -0.047660216723099155 -0.0080963731797133558 
0.24832845323254574 -0.65341544905354143 0.056489669699288134 0.084732934533201756 
-0.13519549654864457 -0.20100991352682945 0.52332522367758194 -0.40926202917618137 
0.070108297177814055 -0.014410309040920159 -0.089734688604520704 -0.025718189696382385 
0.18035334731160657 -0.0023877274131911775 -0.18450489794204225 0.0036603675693053896 
-0.32731121105009742 -0.42597134395879543 -0.017618343916173257 0.3172236677108829 
0.20869259587662545 -0.0044382572627888282 -0.28321566051531494 0.013181022202063939 
0.24421747963093821 -0.81796410085127813 -0.12375293561753829 -0.28249185790546066 
0.18035334731160657 -0.0023877274131911775 -0.18450489794204225 0.0036603675693053896 
-0.36312231448460103 0.10216614108467463 0.37076961256597324 -0.056215442661858572 
-0.33141263417721406 -0.45574706843416335 0.51264417617043134 -0.027092888981242236 
-0.054627669972481759 0.066224571739250837 -0.012861498747014713 -0.17690646283786293 
-0.4008529074893265 0.00018752320499745444 0.36139751228077333 -0.023130281688942406 
-0.044088748019278964 0.38745740784121452 0.098981068070240513 0.13904299038300755 
0.70497750092750977 -0.41159524383196167 0.046872597012662054 -0.022565864762465984 
-0.91588956290084989 -0.25807155908589424 0.53579531342212516 0.56581653923288899 
-0.0024321462162299537 -0.52812177252350345 -0.012088762645697929 0.024546836310438649 
-0.093178400260030353 1.3000817123034412 -0.6429347628209181 -0.89672034835467884 
0.18830733266029201 -0.11018673526840397 -0.21043449348617249 -0.090155759186427958 
-0.062444177779505131 0.23421676665509197 0.017958902902368262 -0.0026343051790905514 
0.054510405662838976 -0.69303097458943452 -0.027801858138255739 -0.022644527087470286 
0.24160943120868703 0.0044560425389832767 -0.023026356104719418 0.0019467332054140256 
-0.085611676571607009 -0.52288470147311905 1.2782498941809897 -2.4484536220085498 
-0.97145868330326235 -1.2783017358699449 1.658629694697153 -0.91432269071124139 
-0.37184741076652839 -0.16643480447980077 0.32999931707563751 0.016997048296596554 
-0.093632733649925109 -0.522386910849163 0.071031499014649613 -0.1562352431092654 
0.33156883149216104 0.30879493807770875 -0.17499327339756848 -0.201928977416102 
0.008425403840118334 -0.1528700689571319 0.49377893558398173 -0.095020936764938127 
-0.37184741076652839 -0.16643480447980077 0.32999931707563751 0.016997048296596554 
-0.37184741076652839 -0.16643480447980077 0.32999931707563751 0.016997048296596554 
-0.37184741076652839 -0.16643480447980077 0.32999931707563751 0.016997048296596554 
0.12561954145963447 -0.38531973874062292 0.42499665303507678 -0.17199607746234827 
-0.25235748409575665 -0.18009625663297923 0.074333297619977881 -0.064968984334845048 
-0.044042054665184446 -0.28106984455571843 0.42949319900234373 -0.040824392494314729 
-0.0094272195617972829 -0.16315282712699442 -0.0083947459492787063 0.081278040330037105 
0.20649913794971717 -0.28599694876269777 -0.22909253674919214 -0.12537281547976417 
-0.0039196252269227483 -0.28338549021942794 0.24606195987439125 -0.042160599546143318 
-0.22996958176465956 0.48986420067752079 -0.087652726469244158 0.028642486269963678 
0.14005693068960118 -0.15364082656239617 -0.065364365071762437 -0.19771515074815157 
-0.32885890424030639 -0.21585064005621438 0.28341829267154028 1.1540064304190603 
0.043244434974834725 -0.0029779785778563696 -0.3063504816294591 -0.42374366846995526 
-0.29493928347265641 0.55408609221682581 0.25304363718897283 -0.24266811930999244 
0.050274788025442128 0.21533533082659606 -0.015218057993101679 -0.15633639763223106 
-0.10784132325998015 -0.040736695548165197 -0.027162798066007084 0.14551267273551052 
-0.093437036906940427 -0.32166539129640853 0.13760010282564386 -0.042650717638065772 
0.039148342471117585 -0.03589114217418958 -0.10004515871732735 0.10001260322661287 
1.4748633646828879 -0.44045142793275288 -1.1357115239868658 0.00028909627362687243 
0.55317079297309579 -0.32905900278808098 -0.49823339961091406 -0.30076203516031602 
0.080449242872896592 -0.0022653014701077756 -0.3427067197778208 -0.0016319558992221907 
0.24806888188328532 0.28851426771126998 -0.17878964546951856 -0.29389029211677498 
-0.29054535184999386 0.0076067639534353228 -0.052559351232644241 -0.0025881294930519541 
0.18933572753364014 -2.0397627498190452 0.76988133040695605 0.62326920894374993 
0.097076039569736997 0.69078814036484648 -0.07160748142736853 -0.40035653173662389 
0.099306985711013512 -0.036814217088317155 -0.081663787312363512 -0.3498948861024106 
0.11661754498324312 -0.35743452157614319 -0.18934868999506563 0.34522737184846308 
0.070091554861185457 -0.23214039947890613 -0.12312416641485227 0.13328702865502956 
-0.63740265400232821 -0.65239616986850346 0.32191487192527107 -0.35676437633853869 
0.088692661923638241 -0.067071377173652913 -0.18191899531709432 -0.2457769487601538 
-0.44069710477197321 -0.037825826145772616 0.26176145560216113 0.025798137588530223 
-0.1880846871438584 -0.0089779290747052862 1.3716666601713938 -0.14689445510719903 
0.14506222141897646 -0.44306560952859686 -0.16643737942135928 0.15604677608742212 
-0.52121559706523657 0.21111998335218352 0.24724156196796954 0.047524185092165772 
-0.44302762854238198 0.65000278879660611 -0.92367843070797218 0.66126438127896592 
0.073568812885617715 -0.97159694901732796 -0.20046243173841871 0.10369746131100735 
0.34305229859340114 -0.28998733485111128 -0.24427174860422629 -0.81560094084824364 
-0.1880846871438584 -0.0089779290747052862 1.3716666601713938 -0.14689445510719903 
0.024091355390860211 -0.26826351417052186 0.013271337557591786 0.16777809687166911 
-0.28338055231213649 0.22930326580807114 0.090262110821773336 -0.51654409167429827 
0.16610223384898018 1.0766082108714223 -1.3977234434507837 -0.0050656271429850592 
-1.0810676349372932 0.54455004927777362 0.27810450792029751 0.51668472094416751 
-0.19214143966214897 -0.19710805419941166 0.046413155944359907 0.15697522600811656 
0.16610223384898018 1.0766082108714223 -1.3977234434507837 -0.0050656271429850592 
-0.66181025154182227 0.27186735740480683 0.47075798612520736 -0.2257204363766232 
0.51289839182865771 -0.01365143855746412 -0.56375130812096719 -0.047688082233644319 
-0.068594225453879387 -0.0027054749276732883 1.0588500787717918 -0.73263297401951877 
-0.92831796260119659 -0.10639453191352016 0.83478914704300211 -0.71789960040778211 
0.038430784003828475 -0.49151362571371093 0.26286316309314806 -0.2227525010629966 
-0.87234210225171438 0.52671253742432311 -1.4175395528395034 1.5748045306224228 
0.4038747202787959 -1.2318693158934704 -0.46474788148438945 -0.1659559267642956 
-0.1842895025954546 -0.48983879160644034 0.068399487229983985 0.48176875777635841 
-0.068594225453879387 -0.0027054749276732883 1.0588500787717918 -0.73263297401951877 
-0.92207268178377211 -0.27394629157235428 1.6953239481696409 -0.29729352494150457 
0.13490684537995257 -2.5303729465830465 -0.042480454509480042 0.29161589932337334 
-0.26381431583623671 0.55262256228654705 -0.078516348388991561 0.00010446272121743261 
-0.46865859847195479 -0.029974631569977664 -0.69653394300754146 0.25434612613671248 
0.1115081715271575 -0.06071677546430878 -0.099948779654152151 0.15687898884540474 
-0.33990644691681515 -0.00012702249364865084 1.0688681988731954 -0.3359583096949541 
-0.090830675206110545 -0.11596610198911121 -0.15826106755822494 -0.50469277564968529 
0.21144707078852484 -1.0173588103549367 -0.078950456598924024 0.57294783347503131 
-0.33990644691681515 -0.00012702249364865084 1.0688681988731954 -0.3359583096949541 
-0.033242022838474515 -0.0040829199059493372 -0.0018469708872341757 -0.0088012360200464268 
0.11161233781842556 -0.22609622857755837 -0.14956538245880874 -0.20152125754520711 
0.03377362285570451 0.17725044667339823 -0.13738512665322028 -0.4332731018135883 
-1.4329820621201599 -0.73170417673724975 1.9379377469615113 -1.117272824689191 
-0.033242022838474515 -0.0040829199059493372 -0.0018469708872341757 -0.0088012360200464268 
-0.033242022838474515 -0.0040829199059493372 -0.0018469708872341757 -0.0088012360200464268 
-0.52556676109848954 0.16123688038759976 0.23770108176825178 -0.24722776600761237 
0.57024472718730757 -0.0071509621451248534 -0.040924254063948742 -0.30831893350032374 
0.080183456363006292 -0.54583215864262991 0.10566586670718117 -0.039496095625501021 
0.57024472718730757 -0.0071509621451248534 -0.040924254063948742 -0.30831893350032374 
0.57024472718730757 -0.0071509621451248534 -0.040924254063948742 -0.30831893350032374 
0.0179727694364097 0.083903479157022398 -0.07365593314537966 -0.04235760242614324 
-0.283973086227848 -0.0089423096471832504 0.24884605126546927 -0.32484274659694978 
-0.021533860072387636 0.024100095624533469 -0.016541626361605527 -0.017221407827243483 
-0.13613271377699879 0.0055658380051861987 0.23144693741761257 0.042081571232772036 
0.23434789761056465 -0.1818436523495878 -0.18079956840156952 -0.51616934622843691 
-0.056111615615312943 0.1351823187225363 0.046575942233263931 -0.12369217274547817 
-0.036293473170544627 0.20019356671455035 -0.0086895589284305963 -0.011518814046931947 
-0.1880462594154704 0.88238542168940381 -1.1719849605294739 0.59336837620358696 
-1.2832034299293982 -1.0483348206943919 0.99409177650795721 -0.13368475580899256 
-0.021533860072387636 0.024100095624533469 -0.016541626361605527 -0.017221407827243483 
-0.76302066585063777 0.10274575649756473 0.39468945777285763 0.16067651711932546 
-0.0566628020509891 0.0019239769252749027 0.038002580280945733 0.053787488951289375 
-0.050726157327489196 -0.00016236737030605439 0.055211159520186542 0.047377883321179606 
0.14093223810501898 0.049158535873009751 -0.34401091296905539 -0.030443765947464799 
-0.37498983812610354 -1.0425262019865607 0.25306088961672674 -0.61545961432170426 
0.17578420679626033 0.043347704564378114 -0.14950565193026483 0.073667331568518749 
-0.0566628020509891 0.0019239769252749027 0.038002580280945733 0.053787488951289375 
-0.2238593147166428 0.26608257172966182 0.05816860105651589 -0.12390926966967014 
0.29987869333719985 -0.20336278348430217 -0.08953477464945564 -0.24973233450506899 
-0.87217603133196298 0.96727219338036718 -0.34519369947983264 0.29808731648592462 
0.72706571294483624 0.037473400448181766 -0.75729730378217197 -0.11836192675989525 
1.6793584453439301 -1.0080945894261304 -0.68620399549185818 -0.0039287953940830905 
0.40521901210051525 -0.41989894599082012 -0.26410961344872685 -0.073921377051780757 
-0.25014058020266766 -0.64302725632254876 0.25256891065595205 0.87543899122277713 
-0.18684466569373168 0.033451588059342424 0.13442019660984109 0.073413931115229605 
-0.18684466569373168 0.033451588059342424 0.13442019660984109 0.073413931115229605 
-0.30041265303846976 0.40357643902784612 0.35048392141709617 -0.33424353099303472 
-0.34147085869255689 0.24561164576439609 0.11510140952495687 -0.022415512094648468 
0.084744265434614552 -0.27424138990667035 -0.012338320893359005 -0.0097479510093442523 
0.49764507039617256 -0.41745142679910985 -0.29617550610398108 -0.070073342107671077 
-0.33346465923884427 0.40864564521621394 0.0066852066774236978 -0.79807723787567453 
0.017032043273683184 0.06759730797263469 0.043706835128514657 -0.16819793417580223 
-0.1315873462319562 -0.041477661965682547 -0.035051108097739467 0.14870404737725809 
1.0201926333365869 0.059915644248984837 -0.12848340911000067 -0.24252941885444909 
-0.64150631195549646 0.095843621880093974 0.39391580606087145 0.26272767643000694 
0.033171377752266362 -0.088175429268927574 -0.16015691897248824 -0.072940210788667387 
0.86062184741347236 -0.36309932688503954 -0.29997765819551553 -0.04355987836215619 
0.060181471616291227 0.62745755709056505 0.22729688725189998 -1.2017020354664458 
0.042575226013693734 -0.28489558305519358 -0.097314480489707686 -0.17199853721267069 
-0.30573769016388408 -1.0510743636955995 0.289363589420366 0.44276486438386298 
0.44047290280546769 -0.010977550628293177 -0.019445377296284011 -0.044459626596875662 
0.018306804741495313 -0.0031091196427305212 -0.023460486674407796 -0.0063776517425251922 
0.98896957611065728 -0.89220334090031328 -0.33020721948941045 0.1345432046851629 
-0.41417442422195044 0.47469350682327738 -0.20647818193248085 -0.14298080344085062 
0.015484640638057937 -0.0084925132073143221 -0.085168643977374156 -0.16425108126697155 
-0.23475140505410191 0.39436222524163689 -0.32950373584384485 -0.39834883081926209 
0.24300082227919437 -0.17109983796294717 -0.24573234408880956 -0.41910651589700393 
0.049089306087029584 -0.038558347038537825 -0.12660236819123388 -0.37415664445128638 
0.25951420556000854 -0.0030297462933598814 -0.030568485833360443 0.078180997688086423 
0.25951420556000854 -0.0030297462933598814 -0.030568485833360443 0.078180997688086423 
0.1723958529433465 -0.23437889662525285 -0.038806129834179193 0.098832769726352659 
0.72661813510734652 -0.25576890645147932 -0.10113954951770571 -0.11141778576410248 
-0.30838198396971561 0.80331448648955406 0.31319593377386895 -0.082616476799735009 
-0.037768517492732662 -0.23859136565772987 0.12059802334203226 0.30811591026908219 
-1.1299568331392358 -0.77603744311973899 1.7398452357473815 -0.6179587503955617 
0.1723958529433465 -0.23437889662525285 -0.038806129834179193 0.098832769726352659 
-0.020077508513965003 0.013020320497854648 -0.019535633867161485 -0.41659925973309692 
-0.089212916202026635 -0.021538540373132454 0.10208468168486902 0.043919354226821902 
-1.8540522235064945 1.9053328459249184 -0.50015993875291853 0.044352136847650436 
-0.98752182225474139 -0.24266090910683624 1.2911899347722589 -0.038732941180731409 
-1.2750317584721056 1.0851850258302291 -0.045191389649531538 -0.37609787915754367 
-0.020077508513965003 0.013020320497854648 -0.019535633867161485 -0.41659925973309692 
-0.020077508513965003 0.013020320497854648 -0.019535633867161485 -0.41659925973309692 
-0.33940040712494696 0.72837236595162502 -0.36078374819390613 -0.33255007411604282 
0.095798556070677082 -0.27760462827209803 0.22002953888433657 0.11242917335045434 
-0.073164003988332033 -0.30298295035572237 0.27611221024263211 -0.25347192206088098 
0.025065420352190282 0.76322200275577645 -0.43824893186181835 -0.42034409012390572 
0.13152455505563754 0.26319763805124446 -0.20392997445882693 -0.13613984321193209 
0.19495738733202134 0.94002626791361832 -0.79246642070826545 0.0014005131687191735 
0.23623598655511097 -0.52383292518925495 0.096650291254046658 0.14082145829552012 
0.05709939800774444 -0.32625836585121437 -0.050842031111955441 -0.20114471285623764 
-0.056857603406174448 0.6519436789449693 -0.32103097342612086 -1.2430170099955147 
0.199064610734006 -0.70436692346191743 -0.15620326846734706 -0.24428754708665135 
0.099144763296950961 0.18338475870735135 -0.051660971892570191 -0.027585404553589245 
-0.36441551072482814 0.71437474358629549 0.48767497524685721 -0.85231116321761979 
-0.43541090625178824 0.25792332320391803 -1.4704285559854742 1.1100048316358346 
0.14914894358018241 0.36075115464843899 0.15537055645039291 -0.30606624033078156 
1.0001792234205475 -0.35250407214878288 -0.016883540847165736 -0.30725551682614655 
0.1325667908596401 -0.076773807954598483 -0.24728512607061437 -0.21526174524258654 
-0.14268045115065084 -0.08197960587280291 -0.09047453218643392 -0.11444336828486631 
-0.12950442183083016 -0.6589005933959915 0.18145890895060807 -0.24787009840995816 
1.0027257685837432 -0.4911580145797721 -0.54757843784504368 -0.18916645347651051 
0.38710146862397254 0.055243001188106593 -0.11615322927866255 -0.46096377344065453 
0.024939307192730149 0.75888621175136461 -1.8386696141207524 -0.20431467234354908 
0.021406825248008094 -0.014344643500962671 0.045293891929926305 -0.19374459157669688 
0.97265452673969599 -0.016874640628432254 -1.1392792635545885 -0.19839541274876082 
1.3123575522192295 -1.3685252632224305 0.019310866375446184 0.31991585514638626 
0.021406825248008094 -0.014344643500962671 0.045293891929926305 -0.19374459157669688 
-0.073061466875799494 0.47703935926013635 -0.13366395396159519 -0.38686050779436265 
-0.65485690741154701 -0.30897211265752755 -0.67533717098371826 1.9886991393431359 
0.36097652837287231 0.1836187621005185 -0.34984580412060173 -0.16435533244784398 
0.70882250622465381 -0.43293465955416627 0.14520783249980321 -0.96319748298789309 
0.56748095156999734 0.00069911702197994756 -0.84977858537097362 0.02646517047304054 
-0.36335623160843555 -0.67070816464698402 0.17750475348403766 0.52597345014938268 
0.041097763253135355 -0.35367151667289959 0.014287116387849491 0.35110960822311821 
0.44438800540301604 0.14988510710817526 -0.75546651297047918 0.038229876113325165 
0.41660764141477402 0.36649785716046573 0.02706355760337462 -0.56729106311633481 
0.71958198060965761 0.0056290806164057336 -0.099267708986663761 -0.14205539187963923 
0.56748095156999734 0.00069911702197994756 -0.84977858537097362 0.02646517047304054 
-0.26295513361732137 0.72843767862220288 -1.141430256016724 0.3789642132390092 
0.50527525187827327 -0.065980479465340081 -0.10415042649668532 0.10099987109737921 
0.76909872537932467 -0.068097097407595716 -0.094851406671809607 -0.004271932092206868 
-0.16161959624442646 -0.080053196669933407 0.07791353391010114 -0.10684703152063757 
0.034066816081616096 0.0098615413626159561 0.13790581639089464 -0.24202972395171318 
-0.36756326183732063 -0.13669176797194618 0.064812015557503266 -0.44938759874941225 
0.060799717774089046 -0.041956532472581229 -0.061904200290110241 -0.02819579642099879 
0.31163766190023834 0.11984577835895015 -0.080043589481245125 -0.069259067528617407 
0.088695692878551974 0.17900805528606062 -0.13937461651490174 0.004078991978806349 
-1.5979061576508304 -1.5577779490946411 2.2165179216830158 -0.56571831290263841 
0.11279963279357653 -0.25831115461984522 -0.15331798572237132 -0.15043930573674597 
-0.51264392565408978 -0.95890203004254682 0.48702811198819723 0.059818560379473668 
0.027796621189019828 -0.53825313313808576 0.16119683759700304 -0.19312124930206115 
-0.25828063491694286 -0.60124289807022957 0.5022230948887616 -0.00010546981757855733 
-0.14904812267677908 -0.0011831897680880912 0.015040966033847997 0.0040676762204333063 
0.11210300127790404 0.24364369836979405 -0.135206670185266 -0.62262348639671405 
0.0054107268551893267 -0.083501962404732122 -0.020038401602197962 -0.212293954905863 
0.49897998026183366 -0.2163854744215532 -0.5336029507506358 -0.0010438072724150219 
-0.17384808246983419 -2.5604755038900278 0.15225647788822638 0.52164200634567059 
-0.20691871605754875 -0.0096430456131846275 1.4791782424521753 -0.43943220029336943 
0.26925110381349704 -0.67754324915333675 -2.2896930928492405 1.2752117509032197 
-0.20691871605754875 -0.0096430456131846275 1.4791782424521753 -0.43943220029336943 
1.0243985385599252 -0.32372133956082061 -0.41903071407783599 -0.46688859423519669 
-1.8163625979727418 -0.94389116259381123 2.1921755879684293 -0.40838352490554009 
1.4353751959682099 -1.3417651340523078 -0.81703309414349645 -0.26265829665064933 
1.5092623655024946 0.043861453121687863 0.088055938677474743 -0.85336685714906269 
0.051069930602949981 -0.003727970599361273 0.01835374246382343 -0.83500995075160822 
-0.47262467529062974 0.17627310241235392 0.088352609748022198 -0.022394952895559622 
-0.13901561608677077 -0.57820476443866564 -0.14160433526735508 0.76991706333957621 
-0.32998964489669347 -1.1025451538976125 0.53612119033867878 0.46791508101588231 
0.051069930602949981 -0.003727970599361273 0.01835374246382343 -0.83500995075160822 
-0.71433373024628855 1.1189954318241546 -0.89707358305195473 0.40810971871910001 
0.19350802820917018 -0.58120829158046727 -0.17429474664629024 0.48868402279598844 
-0.84678496992718399 -0.020381139692386585 0.048069745762346322 1.2770022384984085 
-0.038001133426653955 0.45715900275025223 -0.41403755154254457 -0.80408153347199873 
-0.21320713702060407 0.030375759483311768 0.036964245119947226 -0.09876154801694903 
0.26419914986580306 -0.9174063674851678 0.16664739195183234 -0.46856913962132363 
-0.045844606912594676 0.1933591321056386 0.014012227370750205 0.016634072835291221 
-0.65505318659983891 -0.19026604259954966 -0.2123156824363174 -0.21765222412195048 
-1.2879218949586186 -0.60326750882170121 1.809012168818251 -1.0318205741793425 
0.47175862105606625 -0.56648310408441693 -1.2679580606942125 -0.033817293674921783 
0.81392874098518897 0.76600400495991194 -0.28487448056397252 -0.17431428627420004 
0.33157811322748237 0.57281984152890475 -0.25962630278898563 -0.86148532659448307 
0.65077575206553973 0.90528386963606289 -0.88697776152472696 0.14460358717595514 
-0.12073026763969669 0.078466423804650104 -0.64691599834091695 0.24481745863352986 
-0.47223353297818593 0.21053934091012746 0.74909064198799935 0.38208758786443503 
-0.32357190976640382 -0.012123256347291514 0.040970743868248782 0.26382033524851767 
0.44813175368927172 0.29459360581206356 -0.63315968907360554 -0.22443518040510821 
0.0024571289322342579 -0.0041452240242506599 -0.039754541740156697 -0.073746716310932187 
-0.41994095015662908 1.0278354262523617 -0.1351693074934322 -0.50410810405198503 
-0.85937521510942982 -0.97367153074439861 1.4307009556229267 0.045330425849381441 
0.86468426013543942 -1.1891455905470776 -0.067019015572421708 -0.40275405484992821 
-0.85328612389062775 -0.0078395904521960449 0.15953274505264181 -0.20407383608948915 
0.20754973450782915 -0.3819673597270421 0.21752069028100768 -0.25643536351773077 
-0.85328612389062775 -0.0078395904521960449 0.15953274505264181 -0.20407383608948915 
0.4436635453322022 -0.59666153129449939 -0.59296519699837691 -0.20472268683696454 
-0.052477971545174473 -0.32714776520306571 0.47462028252457333 -0.22864955309685692 
-0.77755088670918415 -0.044948192655044863 0.5815663469987743 0.34212982600926761 
-0.36377317863638514 0.04649887552790008 0.12656478111410968 0.54149605274907886 
0.093354081293005292 0.2238988865969706 -0.4022962471662011 -0.27417220495162137 
-0.14966499191617805 0.33371953006976096 -0.21641206585268577 0.12886860717074811 
0.10114548534769663 0.44111103239636118 -0.24098167403984566 -0.38800790236315374 
-0.48473182444586999 -0.3008106712569007 -0.025168964373672789 0.51204075646180358 
-0.36377317863638514 0.04649887552790008 0.12656478111410968 0.54149605274907886 
0.013963560972195352 -0.11069832462689917 -0.34093383489718343 -0.13785138428777158 
-0.4188752059449844 -0.2977652395311905 0.8681837067367304 -0.73135490670225567 
-0.13338995452529806 0.022694486447104405 5.0318462462312086e-05 -0.070927856311093287 
0.86400269947394226 -0.73050100954398411 -0.56947335981379343 -0.28512818601039958 
0.27073947531490689 -0.50384783018169699 0.11594958905965472 -0.15579300876676819 
0.1040570603501054 -0.00277537155628937 -0.42301897692491486 -0.011531268462619048 
0.1040570603501054 -0.00277537155628937 -0.42301897692491486 -0.011531268462619048 
0.11273743178924732 -0.45680956482669832 -0.17279063376035092 0.14063984995068798 
-0.59892569771651094 -0.0053533402373003441 0.55638257408205161 -0.086978515084794844 
-0.44299832085559265 -0.0021450512071168777 -0.15707237433542431 -0.10741322682361486 
0.23707131450918914 1.2621905377329246 -0.20239923060956033 0.015452743516140566 
-0.017627213689570619 -0.032163393357323489 -0.032171650216241743 -0.13204139035455806 
-0.22621549723613318 -1.0398550124024593 0.23726695964713962 0.91309886266953288 
0.09290576802164506 -0.52015273863555977 0.20272577346728876 -0.084671478358118585 
-0.040751476102517031 0.0035050532900619963 0.032922912856698114 -0.25210549738360938 
0.032764502300175649 -0.21488678719732443 0.19399290402700423 0.0855743098572843 
0.30633611647986225 -0.062669159206410502 0.085596251176428897 -0.2685183450944717 
-0.51364985165461607 -0.60849156261882287 0.12444729858647383 0.64222976946472943 
0.19359948664166304 -0.25710373267628661 0.43508711033446512 -0.4042529615396307 
-0.29326807328051085 -0.0091676403940228468 0.13690503940559345 -0.31868305223316912 
-0.29777050778046071 -0.16357688141424961 -0.10823161766004433 0.094756253036998167 
-0.29326807328051085 -0.0091676403940228468 0.13690503940559345 -0.31868305223316912 
-0.23989143410423375 -0.59901355815390367 -0.01512481633622384 0.97297439008342879 
0.50650300643785617 -0.72420672401578123 -0.0074200260254355666 0.11566415436669253 
0.078702203824692007 0.13879964936446035 -0.15680017862184303 -0.43792333049951404 
0.1559209887493814 -0.13432225558000629 -0.20313990925251085 -0.25397271659544457 
-0.89355667848497622 0.14650499075386791 0.64928760901613369 0.53973091143909047 
-1.0307586353061664 -0.59336711779523332 1.6583811377785933 -0.55721057509143734 
-0.97727614357382775 0.68269132364512142 -0.085670151360978164 0.54178345818695584 
-0.36698776831348701 0.43167038078484848 -0.074896909842367659 -0.053861756360351391 
2.0563313547544242 -0.95289259967464524 -1.0469094142835351 0.25303780509516738 
0.058029809998003432 0.77850058430622526 -0.025826796692914419 -0.60654178010248017 
0.11685353431008927 -0.025927569178606558 -0.0033775966890843175 -0.62096398669111463 
0.22512037801556883 0.12136041369018588 0.036204990406531079 -0.39708929696217043 
-0.012241403949502294 0.27990760834465789 -0.088857692153066825 -0.26982395989749236 
1.1872015999624441 -0.77435087190118268 -0.020663081964439334 -0.1948507059478819 
0.33570799476627999 0.12397364229394238 -0.11681497956881687 -0.31589686342215378 
-0.15578842459161349 0.46589523603385052 0.41368200516142989 -0.48950546826125424 
0.14931120168069253 -0.75350676455895205 0.0098791584615759223 0.016206212591992109 
-0.6469161588913579 -0.12031411134695774 -0.16168466905385984 -0.14064036460269991 
-0.23293064924998214 -0.77214250871433421 0.56642913294692832 0.037379722989711844 
-0.52882701887205052 1.0721601282580713 -1.318868943853742 0.46102139468172199 
-0.86416795151990999 0.26666976109293905 -3.764454071666635 3.2785299802204038 
-0.87450775321324059 0.89549514441118883 -0.25578870936406239 0.29000208804069599 
-1.5674631248606214 -0.9103043414737666 -3.0149961922935153 3.5633143364923878 
-0.023146104588191163 -0.10567302746974923 0.57715579515007431 -0.52497183715171469 
0.4633774428070162 -0.13391995773101245 0.3570391186381846 -0.45677231267561791 
0.69881754794438855 -1.1330870833668509 -0.76427233424652752 0.41907118744505667 
-0.063088941297559667 -0.096904632295040372 1.5999767797170039 -0.89967461151165984 
-1.5431524461187451 -1.5706454378637205 -2.0047279023721782 3.3429665077242889 
0.022737437596099825 -0.010655976710196781 -0.0012122634898728063 0.054249458531762704 
0.13942593798459291 -0.37147482571636486 -0.046115856793871396 -0.35463102826608417 
0.058169730649045071 -0.2547441584823617 -0.11470651213988169 -0.43219814713382426 
0.13875284480981603 2.0084452592510229 -1.5314978698978314 -0.0078176810176876377 
-0.25519011015803289 0.25049492680161328 -0.057728213840199272 0.13668689106314386 
-0.49813454725856043 0.09274762638198833 -0.075424247963679733 0.2823103478687653 
-0.17669968881833917 0.24082924058752553 -0.073403676995821135 0.096618732017138095 
-0.40199428872496085 0.15838034987358088 0.045777658242933089 -0.097375405192941522 
0.45607462264936782 -0.55436246396837718 -0.23129007940008928 0.093892389938464216 
-0.073151740675580876 0.058930497538376356 -0.01886661596951953 -0.16016756803594354 
-1.0080014915886173 0.60434441061439725 -0.82547017843036674 1.3890527889585411 
0.61809241131848625 -0.064010818457544277 -0.5089935106952943 0.072764801320712377 
-0.055687714731625426 0.0019199893302327149 -0.06731516925634734 0.0030356479431750865 
-0.4760673778038762 0.13925360547256016 0.20271694246658517 -0.85138219342178845 
0.039229884015509101 0.1070942790902048 0.095685775055905392 -0.7916388742069238 
0.02179394151538129 -0.4843869917538125 -0.35547110739792476 0.14649003984907372 
0.1665215213693611 -0.2764864464851306 -0.19888405278124963 -0.72320197896201277 
0.42391183792937071 -2.0441738414205077 0.012550117749415363 -0.41431259131035264 
-0.39524985406005664 0.001696034326674963 0.031591300035205314 -0.0021625932682217144 
0.84661275150777149 0.73912113951033964 -0.67746467870777638 -0.42970453325593411 
0.044872869209325011 -0.1035346829082882 -0.27320313768775012 -0.19141595960941624 
-1.4788499989592494 0.037167355810365017 1.4109393915627644 -1.5274334148707549 
1.0977793324838157 0.20427764288873082 -1.149694050425468 -0.30594590645883346 
-0.40519756664660306 -1.0905789503039425 0.38559285511964997 0.25582554541676555 
0.18468030043105624 0.2952604399105685 -1.6747673879588059 0.18556194215074304 
-0.082571798932212823 0.020326068540782526 0.044713182911085114 0.024287082994207482 
-1.2677532777214828 -1.692966421219718 1.3855240360197281 -0.34683712306758852 
-0.28689550656955676 0.12168678243482073 0.24480568605570974 -0.071548516264616557 
-0.12663758475055698 0.22251477768206562 -0.0046775938217178403 -0.22644369496618902 
-0.037394145266982461 -0.004787051468855304 -0.08349553948430638 -0.19500197801433813 
0.060175431619126064 0.32384292201412879 0.039127746867954075 -0.40562018256347865 
0.079910982686439577 -0.029461043114578752 0.22537123292991501 -0.092028206106284718 
-0.29162265947370419 0.084766084668736905 0.2218001177875254 0.019749632855840207 
-0.079267240688742899 -0.28676201187809175 0.12044368970235884 -0.0099390612828784489 
0.28548011586216698 -0.28684897925201525 0.0040239479353118834 0.00099905377532356204 
-0.11553136386133561 0.049849811806422492 -0.13731953960010002 -0.4733183273640495 
-0.079267240688742899 -0.28676201187809175 0.12044368970235884 -0.0099390612828784489 
0.19367889543395872 0.074255857196360464 -0.10913354172908542 -0.51187692727173673 
0.1029712412770671 -0.04587603506947209 -0.63789404501700009 0.26740206743256117 
0.1029712412770671 -0.04587603506947209 -0.63789404501700009 0.26740206743256117 
0.080419212136022683 -0.19114098832734155 -0.023974641801393512 0.047336453582299307 
0.11037839513996373 -0.0035425853875812579 -0.078677522209124842 -0.03118583217510694 
1.3800626739468991 -0.79463339071114913 -0.15188722093697038 0.024343785500091232 
-0.061034285445139988 -0.37144523854849432 0.057471670566535099 0.080676917888731936 
0.11879021327037717 -0.02046523198930152 -0.058947077241477547 -0.061096336951249532 
0.5165650814466054 0.16568152452656504 0.018750811529579262 0.31672133666858632 
0.24389693104032817 -1.096868643534562 -0.54175142234394646 -0.61143164492463675 
0.42764705818371951 -1.3641780859855435 -0.4187555440422408 0.70005255972439406 
-0.10803746884315582 0.72695631404233252 -0.1984680082507618 -0.18930428480420058 
-0.7245045773467701 -0.0037940134987536987 1.1318551673539177 -0.016050436063041337 
0.2139675858918017 0.058867069647341327 -0.39619403479614212 0.087681888220975765 
-0.7245045773467701 -0.0037940134987536987 1.1318551673539177 -0.016050436063041337 
0.69009739352881261 -0.21293762818205178 -0.39494103757208499 -0.63836276829098959 
0.069472827619307287 -0.65227118005416762 0.0013343831985129298 0.10259830603996387 
0.069472827619307287 -0.65227118005416762 0.0013343831985129298 0.10259830603996387 
0.15888023020652492 -0.0581182195006981 -0.12881659263767883 -0.2130486808251614 
-0.62855255365264462 0.14063424968511912 0.93944709846979779 -0.30453608339088056 
-1.763410349084745 -0.5679525904638324 1.7222212681217197 0.52222925720047575 
-0.16715460848779717 1.4859688436627145 -0.93952455285554104 0.61674474902130594 
-1.6742899332438235 -0.015469494939143756 1.7281234730031518 -0.047870295927406353 
0.012880004677872064 0.25130824686878378 -0.11847993827957543 0.017062108393553585 
-0.45059995701820799 0.80549349761418476 -0.34387983564047875 0.10501505259511175 
0.68398034998519663 -1.2639038465551062 -0.61420646758424635 0.42015358576957301 
-0.092781238808151742 -1.6773942738059218 0.17039519896841832 0.30036609367694123 
-0.15640010849095112 -0.0047520615827908175 0.17865458156848946 -0.021246126306973083 
-0.29373873830215402 -0.53297067468490888 0.38592489266831992 0.0068708367756435355 
-0.070438739342088746 -0.10162282005921094 0.15563255288163372 -0.11179508138927902 
-0.20557760737707964 0.043467754960554675 -0.1153399603097208 -0.033679888723081697 
0.29147304920347722 -0.47429413991313363 -0.046782075333603498 0.16930856638127154 
-0.32006046745831213 0.24464150028280202 0.12792365920472154 -0.92121943468802758 
-0.095063140578067862 -0.18186008192296085 0.16414526153422493 0.2644366002801174 
-0.0081996046488751438 -0.12968227059469933 -0.2022097881718288 -0.079468944816441831 
-0.98251836751292176 -0.46816476321554651 1.2986704712482722 -0.10941857997725811 
0.29384489034424977 -0.18478721864972394 -0.14418915610391461 -0.58372171843438436 
-0.11208304080660289 -0.43064777373736135 -0.28935751470263005 -0.18737452401739954 
-0.038911316142669912 -0.0020765838475814381 0.04606606325413129 -0.002488096030603547 
0.31090149954226709 -0.28468585499168353 -0.13079069563207163 -0.037076199884331182 
0.31090149954226709 -0.28468585499168353 -0.13079069563207163 -0.037076199884331182 
-0.61600737973593389 0.095962976291475988 -0.36051191994370008 0.19397848242402313 
0.36423957672875207 -0.54250180950280635 0.25192988511437348 0.47926337975324113 
0.12012346337535725 -0.37175690731868904 0.23418274882576143 0.19150019549511538 
0.016201396039080426 -0.089507830715004372 -0.017636169551457928 0.13218933483870271 
-0.14034603281204827 0.46992214020541023 0.14142440582078977 -0.93421296414307031 
-0.52090935967586938 -0.44167049494329608 0.44584663739728714 0.47414904096133215 
1.5296811157698786 -0.031668523182413894 -1.1005340065533071 0.55641194837688657 
0.43867288614604566 -1.0626447617537615 -0.58647316993225151 -0.1827000548806906 
0.084170134550443268 -0.20484581974493168 -0.15437992007924883 0.06962402618241699 
0.12283523745887312 -0.0093099025521845985 0.57928270556123318 0.011297290471520068 
0.31289899544060384 -0.21712356603924263 0.010784248226096693 -0.21576904042743675 
-0.089727061606522773 0.53153489241797014 -0.18857258647842018 -0.23307141301210782 
0.5318874192162194 -0.036955458141707129 -0.85756011349089256 0.32296872290225953 
0.0053094316655343905 0.77907295726973902 -1.9002543190642065 -0.013750825554391947 
-0.69109408907996039 -0.31347220533697734 1.213912837418587 -1.1656144060826845 
0.36465883109785979 0.86400673530258598 -0.52432293096053684 -0.10756075692815624 
-2.2750911751931091 -0.066412411293058138 2.0509640674985596 -0.074331267916315946 
-0.044635186726126624 -0.40002027716131611 -0.059685954326060393 0.14826845444279341 
0.31150664308698656 0.031644797910218792 -0.21704531462493087 -0.055724254677564963 
-0.066092062551151798 -0.015956833467165837 0.013349479028696376 0.071591682215589383 
-0.14038165009204664 0.039786538123478189 0.41481947495443405 -0.076422905090629351 
-0.22789659078826702 0.0055704865443941369 0.74975267300241699 0.023468873336617749 
-0.45502636662453166 0.37566170415095773 0.063903704343807294 -0.079514895611119019 
-0.13455643578368104 0.11155297619962878 -0.16176637150765205 0.17803743231897887 
0.06750628922037355 -0.26149431574336174 -0.098069066624947257 0.13144753109992424 
-0.17821656923786466 0.085041165533481317 0.10444293948964377 0.12078491975404121 
-0.22789659078826702 0.0055704865443941369 0.74975267300241699 0.023468873336617749 
0.13742791150429123 -0.058557128460033525 -0.45705144253555119 -0.22379695652270409 
0.87612893768107059 -0.51829105727159086 -0.25885581023551257 0.41297293862280149 
0.39139535360064437 0.89091506223471884 -0.46631334473175134 -0.049717587451429207 
-0.5023480805220476 0.46371819571031803 0.50407887200394863 0.21276639899032679 
-0.12995267470708033 0.68290452715921235 0.078908503176551598 -0.056916666766496204 
-0.56650846311554504 0.45953491381739525 -0.33802713459421185 -0.26888930203549144 
0.032434069376679212 -0.073302243868617584 -0.40199962737458583 -0.094988346284408609 
-0.008868747650997183 0.22387099712383482 0.31920751478788584 -0.27562992159562033 
-0.031468777534397363 -0.044156678964739252 -0.39176477839805163 -0.084420376365849675 
0.34546357771649588 -0.50358415022619152 -1.0311196843226902 -0.18480327475835243 
0.1254027569769412 0.1101104185964565 0.11413440465132613 0.17553005973401989 
-0.076576927887992544 0.0061068017212872472 0.1084737389319793 -0.041386155588929982 
-0.20255908655360255 -0.46103736854987887 0.38688573114622915 0.18886093243454555 
-0.60610636503850024 -0.59666975458372717 0.21195098688842698 0.085863231658420275 
0.3302438036287198 1.086441990298018 -0.15132261141422637 -0.64347435106984718 
-0.95811515158926652 0.19253065841986583 0.060801810937193473 0.29212132691296977 
-0.36407122149011784 0.032490055634342707 0.14705837240366726 -0.24832297955543425 
0.13578840543450074 -0.29855575203661866 -0.13832717396873573 -0.14433032174078553 
-0.14104252185491484 -0.53073781851146551 0.12743023601810388 0.020035714839349544 
-0.026573816207210398 -0.0033243713358832895 0.03218200335723867 0.12540715436602873 
0.017893366628618984 0.39189247938649652 -0.023104722925896409 -0.28145906954506505 
-0.68873267759621404 -1.1364699320735081 -0.18214946544524147 0.41561499183130551 
-0.026573816207210398 -0.0033243713358832895 0.03218200335723867 0.12540715436602873 
-0.026573816207210398 -0.0033243713358832895 0.03218200335723867 0.12540715436602873 
0.64264003625430599 0.041014121153617258 0.15762552441415678 -0.41272554459564148 
-0.92483848256580925 -0.0047916880220349265 -0.8622652394664907 0.00032856088849521044 
-0.34245450789096221 -0.15983323945118549 0.11939009571076054 0.50974056550940494 
0.023766024196686636 -0.29339617032108123 -0.010982591129573727 -0.39570840882372182 
0.88654579452954174 -0.12979783197749817 -1.111358895826787 0.0092942499905534839 
0.35421900573438836 -0.35088925430031204 0.20576842629665154 0.76625834533453641 
0.87910203809880727 -0.74957839093533662 -0.35417780193546161 -0.12160634970753408 
0.96163682088391911 -0.0029306729432994052 -1.1968902286783771 -0.0050557755145478455 
-0.34318298850433815 0.40065144985633389 0.11024579388960364 0.23428270398476064 
0.27070164043748673 -0.67707600415181735 -0.11872968035966573 -0.032006586042244684 
-1.8127027812345904 1.1215797187867058 0.17033164209804669 -2.1333606932496805 
-0.24338052549819453 -0.26989787666102727 0.078031078925832109 -0.00013950310825922019 
0.2986550240472835 0.31131421938463372 -0.10044548883494009 -1.9192000428969886 
0.016086341788720402 0.48996881896005978 0.10932773705191051 -2.1337875108851772 
0.032616850194150421 1.0368538724595431 0.12787866006874193 -2.1307919542812686 
-0.23123675422071138 -1.6258514125253074 0.074587628623913327 0.52189070892779355 
-0.07730805106274985 -0.044174560572789165 -0.018228435540912503 0.12628128461411917 
-1.0289079402580201 -0.083758963215745677 -3.3673114579025651 2.8381303694827129 
0.20727260985388166 0.27906935995648707 0.10546095625240394 -1.0058792588341361 
-1.9202821871420648 -0.9692339153231484 -2.3990628983731543 2.8357062206902248 
0.13315322108158353 0.052685855176345192 -0.021591618579577879 -0.61398931647178678 
-0.027043967261876849 -0.0044631818942847141 2.1122112064919154 -1.2240544250274692 
-1.6004425096363519 -0.96225533835327992 1.8881278823611307 -0.56172776252998757 
0.018818221721362008 0.177878819223831 -0.1883473951051895 0.037870854920363593 
0.12859624943131615 -0.035512507378463794 -0.22802823169259065 0.14617228722677922 
0.40911799449252439 -0.91767923097980264 -0.10321150020315858 0.0106228118067445 
-0.65123641431254475 -0.37929780984994788 0.55596624925895466 0.01305693627741452 
-0.36729439748161041 -0.35091369348200252 0.076707862417793662 0.15763287834735396 
-0.19114709866471155 -0.18158187755353067 0.33348723523912405 -0.079857716959398722 
0.33808552747101356 0.088376746544837514 -0.38244345277491215 0.069170697931573086 
0.14480635755040588 -0.00044665871920907267 -0.013776612188749732 0.00031404767749164668 
0.077654543609911864 0.05189207878549295 -0.057365776966382259 -0.10526733691062345 
-0.18332233757921496 0.10428205187759015 -0.21379710833974164 -0.021602640167182177 
-0.39697402340787014 -0.081862222039911003 0.74876862258839472 -1.0957366161342654 
0.14480635755040588 -0.00044665871920907267 -0.013776612188749732 0.00031404767749164668 
-1.1341606189126727 -0.4512534063003073 1.7202603601324498 -0.64106242930053503 
0.14480635755040588 -0.00044665871920907267 -0.013776612188749732 0.00031404767749164668 
-0.16269084100051287 -0.25647157742210142 0.17081093918084647 0.013719644780496101 
-0.56291178896732097 0.79121003955859215 -0.5350629866384945 0.051635757443821914 
-0.32040499452116022 -0.15007511841179974 0.16866060650621131 0.030619022511461789 
0.090915837408505562 -0.15365139525090238 -0.032641608812115336 -0.0063683470081155012 
0.090915837408505562 -0.15365139525090238 -0.032641608812115336 -0.0063683470081155012 
0.15722788064136708 -1.262078896372453 0.23685412953815291 0.095878559224861437 
-0.062383137297089858 -0.18441941358939412 0.02808894024904755 0.026302011114204795 
-0.073281621873033609 0.083787117014049881 0.077428653355073887 -0.17660881170643694 
0.077766680104123076 0.19065511342909391 0.14717854987722573 -0.15157971564196446 
-1.0187915213961949 -1.0211325034428145 -3.5495227737778174 3.1800191937815772 
-0.054623241934259964 0.15727260985501229 0.019480807179273717 -0.21741984499199071 
-0.077234314075602578 0.85413656167237906 -1.2330653644329801 0.88243259992891165 
0.74024310791256531 -0.45058123214176932 1.6645971233358312 -1.8418394261263393 
-0.22824406968584171 0.090356450203766647 0.055408839976479378 -0.22049851244210589 
-0.39271808829015364 -0.12917741727954513 0.35857971785038023 0.052375649216058001 
-0.39271808829015364 -0.12917741727954513 0.35857971785038023 0.052375649216058001 
-0.39271808829015364 -0.12917741727954513 0.35857971785038023 0.052375649216058001 
-0.24704544291231542 0.2445728810047253 -0.01057559763137926 -0.19083085556154844 
0.33604762557514711 -0.099999198342499929 -0.12254557673258713 -0.094968073016465079 
-0.34136087660410408 -0.13732621240102447 0.34777827101174474 0.37588912214944803 
0.29690202061200666 -1.0574163849407303 -0.15901523689115343 0.056082636758990362 
-0.3023398731555319 0.13546067973001685 0.27369500398862689 -0.018477299783482115 
0.084689290650167975 -0.13640954235472913 -0.061977317013384187 -0.2827536069593577 
0.25628202918978416 -0.13368444337045574 -0.025914917225737438 0.020951237901672998 
0.11082351642934886 -0.25581209351812956 -0.017689996564973533 0.045250373973352048 
0.059310169564490589 -0.26014367318218667 -0.13887657732340369 0.25338766536852608 
-0.18141876484293226 -0.42699928119798458 0.36807750352975488 -0.49584788204774799 
0.60165256557216018 0.88175774441413324 1.1330120686617486 -1.4919200418173357 
0.10236081383362286 0.011608198440310774 0.0028572360815920339 -0.03536926871823784 
0.66380393529873272 -0.76957907568108463 -0.00042167558041161096 0.45754746418867087 
-1.771602560923351 -0.0054644957536433489 -3.0474144978769613 3.1281143997018184 
-0.63777676926938409 -0.19890824323730794 1.1856795444977739 -0.4780969599742485 
-0.79656665350864875 1.7514899458752682 -0.87936662686526268 0.69510553273835562 
-0.45738791682201829 -0.66132989370560769 -0.13403911321140979 0.72582575802636762 
-1.3894146371690397 1.0258752833180154 -0.028680326065664785 0.22140470040869836 
-0.3292405857134747 -0.79529799730239481 0.26598421705909225 0.080857849006862437 
-0.023233408807018505 -0.22176431742035108 0.0073164002222123655 -0.29930995845581082 
0.35654393460206624 -0.084523275654386637 -0.1048772318978427 -0.20800856151370667 
0.0037378057485871891 -0.006618016443988569 -1.1639371072946532 1.0993932114643825 
0.023463096944029094 -0.0081178628248701409 -1.1457074457310279 0.82562454147032405 
-0.011183193716696377 -0.53521682337052567 -1.0720760458208778 0.93594346794524497 
-0.54760581528547569 -0.15105785144799416 0.92976728152257659 -0.099005057419835646 
0.6363686144067876 -0.14978160615829156 -0.24780038435031612 -0.015377299037436256 
0.1846596806968745 -0.14577366697024283 -0.0045800038811396881 -0.11061680522033704 
-1.0119956865343835 0.4979215511396462 0.74593549022221761 -0.18024533618326427 
-0.054271994135906609 -0.20299383562177098 1.0282248950527668 -0.15553175231969552 
0.25136917688793836 -0.023570944678896789 -0.27060994928232995 -0.15966393132665924 
-0.0852973823065028 -0.023058230380809376 0.00083292293887109875 -0.15981383953631434 
-1.1817847453856583 0.75212813048055871 -0.64503569333648636 1.4175346775365867 
0.77056200087958426 -0.58866017139779792 -1.0803727757084349 -0.15551305106966123 
-0.32001562313396809 -0.86080701992625874 1.2915259603144507 -0.85858255470903821 
-0.86636748347249193 -1.3896053837322666 1.4683294099526001 -0.28093376194921599 
-0.062820071812985753 0.10559662404433016 0.27487904662406959 -0.21274353140272514 
0.44389822613779273 -0.43660715758847002 -0.02863296803320467 -0.033075965006640014 
-0.4090587131247565 -0.21632736062419738 -0.12469898908898744 0.17644004217259812 
0.070197655046440599 -0.16968105695754795 -0.19627909812017402 -0.21577399417383411 
0.070197655046440599 -0.16968105695754795 -0.19627909812017402 -0.21577399417383411 
0.070197655046440599 -0.16968105695754795 -0.19627909812017402 -0.21577399417383411 
0.070197655046440599 -0.16968105695754795 -0.19627909812017402 -0.21577399417383411 
0.51650477728643707 -0.17152316260401806 -0.23527998521830684 -0.21136592288883443 
-0.44843164993317286 -0.022925919012560081 0.4915410461417663 0.19382030233470107 
0.1776671534790065 0.36716377006495532 -0.39749959490187337 -0.64615281186670748 
-0.44843164993317286 -0.022925919012560081 0.4915410461417663 0.19382030233470107 
-0.44843164993317286 -0.022925919012560081 0.4915410461417663 0.19382030233470107 
-0.44843164993317286 -0.022925919012560081 0.4915410461417663 0.19382030233470107 
0.19373527326228024 -1.5127757700265971 -0.042741678159570043 0.51697321079430414 
-1.2103844375407227 1.7041800594562244 -0.041252929714944417 0.056564384364572153 
-0.30048227024259483 -0.015835658647330726 -0.11982649746451365 0.0033799471585206908 
0.31163860647700925 -0.92308196459499747 0.014273586258191952 -0.012890653298895625 
0.31163860647700925 -0.92308196459499747 0.014273586258191952 -0.012890653298895625 
0.56321630053387306 0.051624225569792716 -0.0022579279789740336 -0.56289818227577193 
0.31163860647700925 -0.92308196459499747 0.014273586258191952 -0.012890653298895625 
0.45557124085012107 -0.0016256422536216047 0.014865460581649288 -0.046409946025485344 
0.45557124085012107 -0.0016256422536216047 0.014865460581649288 -0.046409946025485344 
0.12261964765835186 -0.36282907474530479 -0.073853925866429138 0.029574110202080034 
-1.3034170803073573 -1.0125522777124665 -2.6147670677466262 2.6272035930971152 
0.42009376541188187 -0.65512693802326216 -0.03156007257572252 -0.11502859430160822 
0.42664415244922804 -0.039268300927587194 0.11767747782783788 0.15941837053849861 
0.45557124085012107 -0.0016256422536216047 0.014865460581649288 -0.046409946025485344 
-0.061699112632826042 -0.002187121476906034 0.10326931135638254 -0.31088703311662802 
-1.5128775374911467 -2.3316013777883589 1.4890503419975509 0.70419523671602846 
1.1916451440886271 -0.50016774409021791 -0.37789160893970825 -1.1996117704356335 
0.40746138165506768 -0.38530372316481298 -0.37823707417153263 -0.12199067977790445 
0.20511145835013786 -0.14790546624770395 -0.090632669521012066 -0.13471979636583575 
-0.22131801495295036 0.23889078183898843 0.22607957751350838 -0.3193131125541796 
-0.1946039599146562 -0.28079568098786861 -0.09850618598022863 0.11410698209288563 
0.1609596961951433 0.24149649797679273 -0.37073519808105276 0.19492991853358066 
0.34741899809792448 -0.45842286875398069 -0.04631330726652165 -0.36710359839671164 
0.53978485867621551 0.17138337914459184 -0.450283980208805 -0.11029502733307066 
-0.039172741218371915 0.012555044648932645 -0.0088982383456758206 -0.16561085533656364 
0.15790683230055463 0.20253542827010795 -0.12913615586557289 0.072750564659408573 
0.045044969343853464 0.078494313682106701 -0.36289905017620283 -0.080010084078203925 
