solver_type L2R_L2LOSS_SVC
nr_class 4
label 0 3 2 1
nr_feature 34913
bias -1
w
0.28651023859145186 -0.015321147871279812 -0.63191465480208631 -0.0054160362202652773 
0.86015312695681989 -0.6245801892895595 -0.12431656739968738 -0.23532948087956931 
-0.39844563693500867 0.56412791653790961 -0.095514224444037316 -0.042239809180214555 
1.3358176052988169 0.28845596462322898 -1.1754707169726395 -0.033134192602176808 
-0.096746525787830773 0.17533198270301778 -0.1739576425984169 0.016333211663022651 
-1.2481655133631693 -0.54277683985570058 1.0700707434602788 -0.4613508678222944 
0.426842084920936 -0.37390960267953838 -0.056731490672628261 -0.39888141613903555 
0.31287552673082442 0.85269497161600094 -0.37629049777304024 -0.25991561078347208 
-0.037442544108743869 0.051368024435460707 -0.013634220064645198 -0.025127905598939931 
-0.24530808339795512 -0.85088499280807173 0.41897421521044387 -0.054110364895024771 
0.057764906236799154 0.0064253315872898654 -0.20643016705235334 -0.088252451120513914 
-0.022956416942849955 -0.037241307601882837 0.020441697979802463 -0.065111414573553447 
0.0250892553801721 -0.23725041145982873 -0.023201329776636512 -0.0090029909665998668 
0.0250892553801721 -0.23725041145982873 -0.023201329776636512 -0.0090029909665998668 
-0.4428171797925235 0.066698900868244509 -0.085684633386839543 0.77036824526360059 
0.2138624899373078 -0.14499114398925184 0.16474677260634349 -0.12547780262036135 
-0.023880804469650557 0.012905698657893936 0.028415922383683553 0.022686224099259404 
0.035768459863696769 -0.002895230958732003 -0.022993658223150075 -0.011471942575948177 
0.20330654730777425 0.74771581730616477 -0.91519104659970452 -0.048766868664370966 
-0.064712568833984782 -0.086666820447602044 0.0075635238950406691 -0.096660410173970743 
0.12885049285247249 0.013061139337233154 -0.051170459995204948 -0.12047036806760456 
0.0043282516836084008 -0.019840213958549732 0.0074021241948196009 -0.08741978536717096 
-0.10934040203980935 -0.61293794367531051 0.097889135315258891 -0.31620522111586091 
0.36658555408599836 -1.1033611527127922 0.20812566223452783 0.16190799171897885 
0.035768459863696769 -0.002895230958732003 -0.022993658223150075 -0.011471942575948177 
0.048286776711197341 -0.07344865634286607 -0.025458834381272097 -0.09722231857460395 
-0.62328986085653282 0.044230582498423376 1.097306983074674 -0.40780360905056112 
0.0011573212753797886 0.010390749356583358 0.011974365724833973 0.020721003399089777 
-0.15039247423808383 -5.4502138262836619e-05 0.18312572775411889 0.0071638960881361263 
0.30433759239507935 -0.46853266310745695 -0.69952781568053579 -0.11360644373612905 
0.092513882703047903 0.31954825740448145 -0.052969636396508396 -0.15888917041104225 
0.24117121132813113 -0.37880212100092053 0.20520707947516992 0.038716130768507488 
0.11922405998887542 -0.21414627142172343 -0.1086989898182561 -0.17522335115407833 
0.01434449303508234 1.0996985625028384 0.17027851012448397 -0.62294506260264981 
0.50700675469032441 -1.6731214112818573 -0.2298951496498928 0.29961767511578352 
-0.00079237644199332651 0.0010536061768946815 0.027208549235711518 -0.093887715731982777 
-0.32532457290108618 -1.2865171732428735 -0.051146934110817013 0.21085150867461985 
0.14169179893153783 -0.38776549155970336 -0.78447336289030711 -0.22250795469839035 
-0.35628556050250304 -0.029280755316411472 0.28974828797308483 0.058533869927412968 
0.19915848209875706 -0.30291488854785903 -0.11202718208841249 -0.30338175300937176 
0.066246655484967845 -0.0058580653182953527 -0.073092149059805822 -0.066657440300139842 
-0.040618160283688171 0.082745687417096078 0.07533442237407148 -0.079097490347173838 
0.048853027065445712 0.01742992717530498 -0.016927996902799544 -0.16314257594557696 
-0.047803912271701117 -0.034448551211034587 0.0066673525790637116 -0.21330329810735282 
-1.2728203478766347 0.049708395869896317 0.44425363524712203 -0.02573237776801425 
-0.04806951983811638 0.11436719392408405 -0.096654546525010265 -0.075443941796048991 
0.82361399091240939 -0.2924754916195586 -0.10415156867344991 -0.015363141523920314 
0.23222855367091874 -0.58001720194815565 -0.15875745502797234 0.34927536895476718 
-0.056149089153252202 0.18555024891992705 -0.32589081677198173 -0.5510871528982072 
0.82361399091240939 -0.2924754916195586 -0.10415156867344991 -0.015363141523920314 
0.48461135402980854 0.042362044722963337 -0.278256005983331 -0.41350084525206116 
0.11478272688949423 0.66938288068329233 -0.43120656537179813 -0.30852274611137165 
-0.28961112872743117 -0.14543880150630911 0.26014072380756403 -0.20849379871783313 
-0.57021892734644752 -0.70254159347626077 0.077077888116486831 -0.15551036587132527 
0.57670734212071273 -0.78875022758422475 -0.33886845402118404 0.039842722954559838 
0.33272102879122523 0.54377950849407697 -0.02456012576624228 -0.33038489040693847 
0.018667577820013999 -0.48467292187229033 0.0086378248434870741 0.087256202952656028 
0.17056309598129923 -0.28294147138286252 -0.091663560521860657 -0.17418078759492062 
0.18274406503488988 -0.36339317459757936 -0.30875928858924984 0.25359272722978449 
0.19969926206503832 0.20835229748097259 -0.10208826780446645 -0.18852850758726705 
0.16995786485016734 -0.32244527233312448 0.045914772492136754 -0.15662365544317741 
0.0018252055917251995 0.06319643400711919 0.042249270841968105 -0.08860755048325944 
0.57288121742213927 -0.00083526256402709307 -0.15827455578716981 -0.13498626300988342 
0.5393184189022624 -0.65311185252528481 -0.4890848933224124 0.068017134890991426 
0.12923930638711387 -0.33322973904336212 -0.079316480345289125 -0.12349430710544923 
-0.10981523715691643 0.090066301539381305 -0.16663489655693037 0.13963132333326383 
0.30700630319091843 -0.0017732395935409501 -0.097182668893766699 -0.12985237207236958 
0.062386832088060347 -0.080641532787406323 -0.072270536629326781 -0.016193574737724467 
0.082526107364339935 -0.64651340657462564 0.30806797888122595 -0.24697166842840945 
0.91579020368916741 -0.44726757324811445 -0.022634710008805507 0.096858734925882178 
-1.2729449027805126 1.1030154956291083 -0.98939780340178651 0.61447604446710624 
-0.021355077263234989 -0.12068255860608591 0.010117017741242039 0.068427251463741456 
-0.13261266799596413 0.29775267513113651 0.055295054876058146 -0.30253362287967628 
0.15878084492036237 -0.30476360208236292 -0.029978234824572177 -0.27400379922711959 
1.0079095473163528 -0.68287553565952952 0.11103909740539514 0.14431421427445271 
-1.1681289211060026 1.0756723320466621 -0.87707054096457771 0.54568331396694203 
0.87734526083084985 -0.36701069354818694 0.025218970915568809 -0.58109882848035999 
0.25174467782762888 -0.25380795520956334 -0.031599436863660506 -0.52653670510617645 
0.082530526309205515 -0.30400016731438873 -0.23661450520560173 -0.025970452356337527 
0.34966221114468832 -0.77492026403097625 0.32147699665160451 -0.35353233822693997 
0.0010131839172063881 -0.19015838020975517 0.19458719191348148 -0.059790604619171711 
0.082179369882425995 -0.089866528011345259 -0.12607561896904698 0.28318535097863418 
-0.058371727325036267 -0.22784873370666253 0.17661585031241919 0.2427498458988161 
-1.2997064570387658 0.86876254050421597 -0.81429603558417463 0.36943598141845907 
0.18286957523404157 -0.41518368758438534 0.12502258084821311 -0.21928183949520846 
0.013780588471885527 0.63587863293255009 -0.29082742818844659 -0.47481783952392465 
0.3167327828522441 -0.35079957812236839 -0.090523255722096962 0.20277173692564252 
-0.95803056018911592 0.94806578590822987 -0.58060298024600754 0.090749228771620977 
0.52006510397780148 0.40889891227388742 -0.17747210848593259 0.36588206855487637 
0.18286957523404157 -0.41518368758438534 0.12502258084821311 -0.21928183949520846 
0.34400116371369738 -1.6733465322807903 -0.4556052025417765 0.53548749110709426 
-0.66076868274340539 0.17362873534329271 -0.03928779383294273 -0.071182509493702667 
0.81397939656377227 -1.4580231848157352 -0.45851445370360822 0.13889910254103194 
-0.54813889627209278 0.11603913782045788 -0.10616877582049813 -0.12998073444934594 
0.2303505461740219 -0.78680999682167785 -0.0029776344410743782 0.10177487088063583 
-0.14233993583097565 -0.86170379811933984 0.15209501753621837 -0.070474847186618714 
0.20838473615898473 -0.12800189597736886 0.30779626368958607 -0.063435944001211109 
0.19317468641872326 -0.13053490141539964 0.34726717018165854 -0.064790324221171092 
-0.1377446578509911 -0.027421790094662297 0.14814498066245907 0.10400732095183982 
0.34958679464381731 -0.0025420217739250371 -0.53219646415898092 -0.06090658392747339 
0.12886667560395992 0.090202874977062544 -0.15595979324934373 0.0040314537196079678 
-0.0087568026668759808 0.13513821572755738 -0.070852133886026902 0.022819414205604814 
-0.022275185236686298 0.27092909838211621 -0.2765515520828834 -0.015258986157642433 
-0.022275185236686298 0.27092909838211621 -0.2765515520828834 -0.015258986157642433 
-0.053009147607017443 -0.72131267489208573 0.23777388924716233 0.010667776696022806 
-0.05788895643922521 0.010899430314872362 0.040427119624046562 -0.019779427198846483 
-0.022275185236686298 0.27092909838211621 -0.2765515520828834 -0.015258986157642433 
-0.022275185236686298 0.27092909838211621 -0.2765515520828834 -0.015258986157642433 
-0.022275185236686298 0.27092909838211621 -0.2765515520828834 -0.015258986157642433 
-0.022275185236686298 0.27092909838211621 -0.2765515520828834 -0.015258986157642433 
-0.44428989918104922 0.17740566425652027 -0.040405691836235491 -0.011770502582204618 
-1.2831351315534578 0.11751246999731124 0.43083447267726643 -0.095399547461525153 
-0.69048856654811419 -0.28202498199709924 0.64401381390962498 -0.37389804012921601 
-0.026561706041791068 0.11664772074279492 -0.063467098059050625 0.021339413007244099 
-0.18738379002099234 -0.170061741077386 0.30864935417888784 -0.62307032903087456 
-0.20973603850718572 -0.13808814906795672 0.3421703329848948 0.0084803859751276522 
-0.20973603850718572 -0.13808814906795672 0.3421703329848948 0.0084803859751276522 
-0.034946949849002928 0.25572058874252679 -0.050178890188796156 -0.10006359986809832 
0.0079272185440832574 0.085203599426628612 -0.057926145525660812 -0.25022470664797891 
-0.20973603850718572 -0.13808814906795672 0.3421703329848948 0.0084803859751276522 
-0.48661481723028888 -1.2289099091368518 -0.19414946039730591 0.20622293340346576 
0.054229835590064279 -0.2887221492226032 1.0088034515772459 -0.45063611042734575 
-0.12064830285503782 -1.5705391809611158 0.83266246442507796 0.28987818477648336 
-0.16746954584117224 -0.52191571755744171 0.18806959453077468 -0.57522935347265258 
-1.433939159636124 -0.094904852518836014 0.44909912749624148 0.015998210350480949 
0.43251595110197916 0.13293928246865191 0.22565176986558771 -0.15202034556870703 
-0.043443512625946298 -0.038185730965522816 0.0093170811156220099 -0.01008071101828552 
0.026289771375544176 -0.034312876647091484 -0.17010485660730013 0.1456065184893594 
0.29813342966648632 -0.45389070210190757 -0.083634969182712626 0.064374705393974024 
-0.62802248895593871 -0.0023358142252844147 0.74030696357887626 0.21325275220311457 
-1.1767264100719594 -0.23513927876744062 0.50271358300352231 -0.026129638749446526 
-0.084686577977590841 -0.30932324497043406 0.079137240836706188 -0.060729746775900727 
-0.59371008314271478 -0.00011870666695439639 0.68931741265537694 0.01603785748867266 
0.43468466176065373 0.32094514224590154 -0.44508015222061409 -0.66348590638229843 
-0.41078426613116481 -0.068349025066672869 -0.13620428492565151 0.44740455884872765 
-0.55104118107085831 0.9454494915217464 -0.49122763196168934 0.35128289188982215 
0.064730388639924613 -0.17226606128689684 0.033673526938381805 -0.042506186510386595 
1.143362327971936 -0.036086283764311722 -1.0420444219552949 -0.044933678203757446 
0.15921930166968665 -0.090048657566307283 0.17292450876663601 -0.22735170890725862 
0.036214301360876056 -0.12893217580629349 0.06100969364438702 -0.38475965332717704 
-0.3622683071059844 0.32736173209228647 0.010389945236962329 0.08876989900746951 
-0.46482599583191497 -0.45077164656323349 0.012359885848960056 0.0071105546558857769 
-0.2033742397329667 -0.0004562726377191381 0.69631193535313041 -0.049310124104290129 
-0.55579923422410116 -0.40152048044719268 0.040611366154883019 0.27487813597672794 
0.12457552981808223 -0.56595326790627265 0.15267894083560163 -0.40083787586985953 
0.12506679112509159 0.35863888394941129 -0.16658326601294535 -0.092455908719608459 
0.26920805076957932 -0.67098252519378188 -0.17387721334084399 -0.12125698631785704 
0.10198695757055386 -0.17919845049222363 -0.17289705787148213 0.13287097483168964 
0.11208571643084031 -0.38116438644561745 -0.092224754604890907 0.12734251710617683 
-0.52659561205634642 0.42629865446933313 0.6384563404026844 -0.067102556878083391 
-0.0051782763602477092 -0.10265278931222518 -0.021618583645444299 0.081796542103604319 
0.24762752373967675 -0.16901256823101649 -0.089558988922105995 -0.054062781466750053 
-0.1128805698296895 0.081316218645292607 0.37668944643812874 0.23981513173301933 
-1.1546563262267004 0.46475743592779639 0.11809630402870584 0.0062669219636098672 
0.19968980802144515 -0.51474182740285845 -0.18380157245932047 -0.0017909823729783114 
0.11612808906449527 -0.43259375339126732 -0.34506181468990205 0.085970948604506853 
0.14039205411654521 -0.08544530932684119 -0.060314866284476673 -0.14127492294672389 
0.39473058378447934 0.32905763538353472 -0.23696657064682861 -0.26180909334319213 
-0.14037328942554697 0.015283191378320585 0.17768863352558026 -0.10858416367214042 
0.44405763931534392 -0.24055988991784916 -0.029194741172961503 0.023607055268359295 
-1.2036109659906244 0.55817423095259644 -0.52108094847221575 0.53176555870996767 
-0.04979753672470634 -0.10010929761796189 -0.085837931982200438 0.28107319832222166 
-0.38973802481746578 -0.58536718430322832 -0.088685592150705872 0.90632984536580974 
-0.25184371237699738 -0.11555887960284127 0.3035228877590806 -1.0168038867474285 
-0.023981866330039292 -0.007567918728104691 0.11107098748928865 0.32700436429477553 
-1.0185976510851809 -0.45877412568850612 0.82813369699300421 0.43662476295953057 
-0.013000467279933724 -0.14633830254235591 0.19569438427464927 -0.36197202757656299 
0.032643736815256869 -0.059239164109882517 -0.0031148202292765209 -0.052067696549933914 
0.27676700294202838 -0.16447968443696509 -0.54275379429315085 -0.17220900515713414 
-0.27983089692574237 -1.1234514229433594 0.68760778401214528 -0.16739274321268455 
0.15437957034803945 -0.43835329862695871 -0.26186265516113716 -0.12555274264306773 
-0.13263136335150721 -0.83132893759304183 0.083135811722741135 0.79579454379059578 
-0.015698501915268392 0.037994673155434484 -0.024253911552320123 -0.01714009958001186 
0.065166682589110569 -0.13710767418498945 0.053334367178748295 -0.019166724300528376 
-0.0014657634313751042 0.35392981356438502 -0.12453519282517267 -0.22130553200459335 
-0.45569528860463004 -0.48674929070810319 -0.3734781116836704 0.92433943063866519 
-0.38470332027313248 0.016237327093647485 0.14284006095550719 -0.21234186636233277 
0.29844381096710348 0.98761187232920844 -0.94406911084739276 -0.27429132457211797 
-0.32851344929652831 1.2071913138985551 -0.16420489568504079 -0.18787344605447376 
0.065838563461527611 0.039229133608786167 -4.9315696625586505e-05 -0.19978638337389665 
0.025982209348219293 0.029968451888651798 -0.00033200687984974355 0.071016661301890119 
-0.13377606695301128 -0.30488083200172977 0.35894496526097869 -0.09516140953380485 
0.068697752874661316 -0.28364656305151731 0.020820966323802696 -0.13411534970100228 
-0.013791838924827195 0.21844375350196801 0.15680108463821479 -0.041286735938501073 
-0.0025968677017329839 0.10355549963007102 0.23098682722018798 -0.064849363749306277 
-0.0025968677017329839 0.10355549963007102 0.23098682722018798 -0.064849363749306277 
0.25522269719289531 -0.28085037809102664 -0.1550111221093152 -0.3741829632652941 
0.0078163290491727981 0.097518907309668501 0.25935741788126498 -0.11245822548283327 
-1.2759193806483804 0.97641443847815323 -0.89083315575746624 0.58048462035772697 
-0.30082658271417373 -0.27985733581059713 0.23968249542015541 0.3754282171807054 
-0.60248956120041686 -0.19927500258249092 -0.093045575124771088 -0.051866738322460915 
0.10397962368984395 -0.14652973134200822 -0.028668171793386488 -0.26012265921963185 
-0.063967959448623005 -0.27011733993136644 0.16706524360441069 0.036679423739574668 
0.031163392011451629 -0.047699223848378297 -0.030367535941340562 -0.10522844513953349 
0.23832908584018697 -0.34555440175266428 -0.00705641805955394 -0.13146861315893585 
0.18039629491477305 0.54467808277739016 -0.059266010764662813 -0.47427012438276245 
-0.020329676394385571 0.62798288533691338 -0.71762274086160682 -0.065863374182158096 
-1.0259317353943471 -0.62401314364703786 1.4751671683516498 -0.10086271910055133 
-1.059589761399349 0.87845407346054061 -0.85427788999517729 0.56793667713981333 
0.18004196004648082 -0.27284370259205787 -0.061225901929675447 -0.17158633567940021 
-0.020329676394385571 0.62798288533691338 -0.71762274086160682 -0.065863374182158096 
0.072620763437810931 -0.022256165103399218 -0.040331341846304242 -0.025357645077373401 
-0.53919604601797233 -0.071308512073809838 -0.00051927504988033557 -0.17772505836539365 
0.02110823943698131 1.4723181273177539 -0.43603967131917509 -0.22562487525030694 
0.25064782848612571 -0.1064710650554897 -0.031470844420768931 -0.21798039991054385 
0.0024250046034265259 0.027765286903889755 0.16603510653559966 0.053547769676386928 
-1.2840848746734637 -0.17606324816054342 0.6185738472595812 -0.29684200846276287 
0.20142854662195298 -0.64487457375477431 -0.51003742539366137 0.28152263441333458 
0.0040833039461738701 -0.37013367506936046 0.062420047157117457 0.1816007924653848 
0.39306891573919067 -0.46370345774392008 0.15488470520506334 0.30758911654993476 
-0.18909105252669287 0.39672767982942642 -0.33692137662290012 -0.10182260515636291 
0.048044608416336065 0.031953927666996423 -0.073349139859938808 0.10417719819645671 
0.27111650675670201 0.056984418732741585 -0.14923954649158108 -0.11775218954906466 
0.025209937366369846 0.041572445465025962 -0.012728763535750778 0.098171907289088534 
-0.084029334846754816 -0.6609471258423979 0.41828380921541897 -0.17197944406508631 
0.28711250691218171 0.068988647484233057 -0.036996964888667827 -0.066754697098660221 
0.025209937366369846 0.041572445465025962 -0.012728763535750778 0.098171907289088534 
0.21837938651413735 -0.0071171243102601672 -0.3194298511331996 -0.24444322131086332 
0.21837938651413735 -0.0071171243102601672 -0.3194298511331996 -0.24444322131086332 
0.17793233690984342 -0.48437323418380762 0.34907876998800602 0.16905719806203878 
-0.12511878230555631 -0.13348471876888149 0.19681791370802598 -0.088315892105688618 
0.042338371863971103 -1.395659301236414 -0.18436510537292344 1.3514102516073012 
0.080548244204185812 0.13678359645968319 0.20191009732407753 -0.2773650717815942 
0.21837938651413735 -0.0071171243102601672 -0.3194298511331996 -0.24444322131086332 
0.13514545678240295 -0.04109231853713935 -0.071847272155606795 -0.3061863076413891 
0.026722785019411031 -0.058235687637629673 -0.10719575687991606 -0.054134399704418759 
-0.011642690012292609 0.10123189152812344 0.016962460600960509 -0.12222811467204023 
0.36801909399325383 1.1315134841851453 -0.49683100569657518 -0.92630959333949525 
-0.17667588581392774 0.097102118637468371 -0.019372770826456637 0.50970534126184508 
-1.2287585869301076 -0.2715967155515886 0.8312740685352249 -0.64560492590865382 
1.1841811145433976 -0.0012258441926570212 -0.20108577300208408 0.0014580622493675748 
0.37288092002298445 -1.0622573196215281 -0.010516135226235235 -0.46932973909390896 
-1.4269724589953254 0.01838439243559406 1.310642082135969 -0.002312810253456097 
1.1841811145433976 -0.0012258441926570212 -0.20108577300208408 0.0014580622493675748 
0.036352435761589974 0.13163016570166219 -0.23159406960942719 -0.20598377352385311 
-0.65832371369541476 0.030672350712664904 0.77417844527359592 -0.00060368243130278583 
-0.30035311504499712 -0.45756123338764954 0.68039851502652149 -0.11926562728068388 
-0.069665425366612396 0.88097940713733847 0.021400985729206373 -0.25624176025554912 
0.084413107859867095 0.0097620483405287534 -0.043659182140617439 -0.13237882844273935 
0.50947032725600383 -0.43013785138479776 -0.55762413737568384 0.69419137387940921 
0.0096103869514646556 -0.069472201214080542 -0.017618819374517928 -0.044121616931686355 
-0.33173920239492849 -0.26100797762811301 0.30687336265293913 -0.29496028634896954 
0.152082122354744 -0.57747147911906938 -0.24482516864458079 -0.013497401761083704 
0.0089963759822167845 0.65311720613645274 -1.7656252597365263 -0.0036748981699275315 
-0.47422996221097541 -1.5209893707071316 0.76395223192762807 -0.42734832979226361 
-0.13074969184292096 0.45834585803428851 -0.56085959084771475 0.12264373506361137 
-0.77145679322597993 0.030301626245399199 0.26876383816902716 -0.0857320637679444 
-1.1357020063749923 -0.11340167375294054 0.39619582235306255 -0.15250320080935728 
-0.74458197440827867 -1.0852591712037345 0.88243051226075275 -0.30748758293910755 
-0.38283729614914541 2.5705956685761562 -2.2760001601270252 -0.23631393267801298 
-2.0001240916974186 0.73322245620413673 0.66242124149477777 -0.089526676487695106 
-0.17379918283568846 -0.0037217706853165788 0.34451259461806466 0.044974673568175777 
0.1155464379996268 0.075798644132008958 -0.027262633300944653 -0.44158489600996492 
-0.081742979917590164 -1.3852149754275689 0.28165378957013137 0.41251520543732489 
0.0065624184712629423 -0.043163151052095367 0.014319460715549228 -0.081420979495296184 
0.33112085614793973 0.17595910221416805 0.20482228577489189 -0.16892959306309546 
0.22419671848437689 -1.1540071073906866 0.39877475892531589 0.026351507593134621 
-0.17379918283568846 -0.0037217706853165788 0.34451259461806466 0.044974673568175777 
-0.0093196155803445813 -0.17667397001339177 0.21811927841181403 -0.0012342334499016599 
0.01317904442433584 -0.15918054396288531 0.0055354962992659826 -0.062842563085799261 
-0.52883809343557009 -0.14859735669872817 0.56408172679686974 -0.1725295336622559 
-0.0093196155803445813 -0.17667397001339177 0.21811927841181403 -0.0012342334499016599 
-0.16750230935808585 0.25735016116537718 -0.15664606554840291 0.16225376649315831 
0.33628681521425685 0.44549853444638099 -0.30361567990039218 -0.65075265132334259 
0.0036666102971717879 -0.079434302859502204 -0.05049325371785858 0.17626363005857701 
0.14978980751513546 -0.075676900968434463 -0.12373560660433672 -0.31807150290088632 
-0.0093196155803445813 -0.17667397001339177 0.21811927841181403 -0.0012342334499016599 
0.36162342683762216 0.21125460335774882 -0.56456603916989212 0.015392432502267586 
0.24826108252668977 -0.85235558911663711 0.61635682656052426 -0.26737922163010081 
0.00028409448428762458 -0.0010700090978871721 -0.75970147952726252 0.9980456658145096 
0.30950488850165186 -0.28396845717963842 -0.225609130536506 -0.01652549913129512 
0.22304657462823743 -0.27622734438486274 -0.07991586163548528 -0.33558148781411479 
-0.97574491413093101 -0.38623583351099633 0.79416448290437391 -0.48802251172365974 
0.1754040318601999 -0.16281938323987991 -0.11848570859334961 0.032055980523134103 
-0.05620688916360389 -0.0030592983399506564 -0.73899013613050579 1.0250887693116923 
0.00028409448428762458 -0.0010700090978871721 -0.75970147952726252 0.9980456658145096 
-0.17924985603007859 -0.51083609430497556 0.11158224173590842 0.0035842651558507799 
-0.85169999892663828 -1.2137050067892579 0.5016579264500044 -0.021297964061636976 
0.20918603234955663 -1.2407580502053726 1.4948113798325262 -0.11331649194575599 
-0.18323638634710909 0.4874640149584486 1.0637389116531426 -0.11590655232634162 
0.13281805220332032 -0.21110852175997616 0.092931962629355658 -0.052947034314198449 
0.086352471740413397 0.15661948350611202 -0.13388019608136575 -0.096435862515633769 
0.13150647592825521 -0.32420841111482418 -0.03773676765279381 -0.29192611554187214 
-0.012076983684817771 -0.34047682149118846 0.20579831004807009 -0.25594179655866151 
-0.061184149563973722 1.2994480257776349 -0.29317070507977633 -0.7970549828514939 
0.016470084040076976 1.2322692825495927 -0.084914034659546972 -0.75173251448115086 
0.032460937424310776 -0.313746953468513 0.043369241657822258 0.037778966983666805 
-0.010327184835333155 1.2533118983095548 -0.025627667179536497 -0.77043945401573888 
-1.1549991803076229 -0.040840346789257319 0.40409790232684389 -0.59221043456352629 
-0.067581792025169063 -0.090816380326707219 -0.12073547069543562 -0.15363842090553398 
0.2778073971201197 -0.50441223208751762 0.22435736133975703 -0.030155565831520882 
-1.3745373554453189 -0.1925570284192617 0.49840894857630358 -0.056763188494885757 
0.011687800856554922 -0.13373018486047636 -0.16125146890532188 0.18978610216834907 
-1.53374700645205 -0.80292802178403622 -2.6029836502379382 3.0666819220106261 
-0.21689771704821292 -0.24858439381479741 0.039480861362454399 0.043085219958879484 
0.39130121164323206 -0.69285263083323656 -0.51029628570816055 -0.23608777811399995 
-0.21689771704821292 -0.24858439381479741 0.039480861362454399 0.043085219958879484 
-0.073433984841232411 -0.06638448247194656 -0.038252019247332368 0.05797150042262883 
-1.439366725003338 0.30878274585825782 -1.5211251022104211 1.6498093043793256 
1.1765622508831977 0.23566925785032183 -0.48002025457200087 0.23656842321948279 
-0.21689771704821292 -0.24858439381479741 0.039480861362454399 0.043085219958879484 
0.0095007300824693566 0.29777954194339379 -0.15809893735773095 -0.1088770744531577 
0.052261922134838906 0.029111932423442042 -0.14337194868638903 -0.056417384884625263 
-0.44289552116523362 -0.28446301085692915 0.091550535251825466 0.16016323137137353 
0.086135320141106392 -0.52676400115929789 -0.16386169941127982 -0.12845325449062769 
-0.59495693913841585 -0.0059803986847760116 -0.23755647865391905 0.0097716870654338955 
0.26435387642215252 0.7920795353927671 -0.51297534844293913 -0.27588369212453534 
0.35623839593941498 0.86477845756120342 -0.96594619745600951 -0.34469947931231348 
-0.58727692621365191 0.91258599470925406 -0.077300480818416992 -0.0026949038963992242 
-0.051593086566715726 0.056649527802937048 -0.20631974985496138 -0.004903762728799492 
-0.46977791794148271 -0.092449230323919954 0.32776130140047055 -0.48967562017828187 
-0.32493027913055528 -0.098224634562156077 0.31708538768995859 -0.021240059109199468 
-0.32493027913055528 -0.098224634562156077 0.31708538768995859 -0.021240059109199468 
-0.32493027913055528 -0.098224634562156077 0.31708538768995859 -0.021240059109199468 
0.4949618700318949 0.058832792777972459 -0.29586527705800303 0.32638339249262005 
-0.32493027913055528 -0.098224634562156077 0.31708538768995859 -0.021240059109199468 
-0.00020336469503678956 0.14394312808250254 0.13592983290387839 -0.045623418244636262 
-0.32493027913055528 -0.098224634562156077 0.31708538768995859 -0.021240059109199468 
-1.1276910632917845 0.68383377067291651 -0.77426782920757287 0.39690907838777534 
-0.17619301580042801 -0.4210961818900707 0.20420080037458099 0.11487565573391217 
0.41688996440216775 -0.0067990334969964122 -0.21717971820483925 0.12077283880042558 
0.41800126570894069 -0.007202442553624358 -0.12708394073889595 -0.0029406591693434368 
0.69399559025128321 -0.38785879576480897 0.44597432187594371 -0.16610970600453265 
-0.13540776420389009 0.64335160548003201 0.23975199674531036 -0.56812386268792847 
0.4035976975403886 -1.1200712026516442 -0.54800389254122583 -0.03486656152626337 
0.42224068567928463 -0.0068918123780293307 -0.079088089780048124 -0.0018504851974591088 
0.40475632964548652 -0.80927719880047311 -0.051089450453725302 -0.0059552803790531919 
0.61578594304515932 -0.010298118786648654 -0.29850410821912637 -0.011568206837552851 
0.07723481431160531 -0.17697354600393411 0.097484920781857401 0.20785696029651435 
0.14719446049469923 -0.0415554243016256 -0.080433040677309595 -0.28818992260845405 
0.13574359655679202 0.0054214054418219738 -0.094350289900081041 -0.079151341569378905 
-0.14862710880737509 -0.55046921087494161 -0.12560373040551714 0.66556470250821598 
-0.36269403372656595 0.034463752408596393 0.24952938722760243 -0.21340413053257726 
-0.50751696064441432 -0.43052533209201871 0.79714495264677354 0.26855165685474913 
-0.18755795829726285 -0.03163286946910189 0.0022308117954228934 0.36625156927593971 
-0.18813847961503172 0.23175109358302992 0.2130798575376813 -0.73556780753468298 
0.55561788415123248 0.23443475966378158 -0.18493168122428388 -0.051852728595375625 
-1.0818234807265941 0.156905879952283 0.4158575109671529 0.11342645656644076 
-0.862704372680827 -2.0348734642006168 0.34964700058155512 0.19325508821690635 
-0.39876844953121038 -0.12516339963609832 1.2259962471769854 0.010008018584993714 
0.18954786353309805 -0.58002432122876513 -0.75224536156051092 0.25247479587729188 
0.026905835615000109 0.15169418180027205 1.2376725441879779 -0.062606223297540495 
0.32795689568339503 0.46698625407723859 -0.35306136213469252 -0.5151795025483521 
-0.25626921378201356 -0.018617993559928624 0.080102664790222738 0.095336188852869846 
0.019031507061582582 -0.039830008563084843 0.055894141272696783 -0.014600235315638047 
-0.24660955122726386 0.68883668467757297 -0.76101794168410009 -0.69713311976905223 
0.20088535809088079 -0.031552223819263148 -0.30214360838374132 -0.34095845634592126 
0.42062540357410261 -0.36347441987239981 -0.021882201892301154 0.1996781446212651 
0.025966921882302894 -0.2805692855939253 0.16793976576733616 -0.067754126229186362 
0.058231024583686675 0.05161842082958866 -0.34821411302974015 0.17340329310677521 
0.080743974623504786 -0.17794264606506105 -0.053845459035781265 -0.74690803227365254 
0.34774762361504796 0.90563883351748919 -0.80518994201401872 -0.12553091483328163 
1.3648549573508961 -0.16124821034968437 -1.1355445373074653 -0.089530362544356534 
0.43595357142468738 -1.0068464684899161 0.47116606832971902 0.27031340338038956 
-1.0098561337093406 0.29167061405910316 0.30811798867214207 -0.14851606085170327 
0.18664380990631652 0.54986215020824081 0.10630955467653815 -0.50635500878460782 
-0.0028748768272098685 0.78108119331281811 -0.08291905924709711 -0.42320373067191064 
0.26857332597188338 0.17125855185992589 -0.30670713078491796 -0.37889256881245559 
0.260651436721337 -1.5646126313797604 -0.11336718992470261 -0.21381691547569689 
-0.25955709104861285 -0.0029988935938468865 -0.11298338715349091 0.080908327247236816 
-0.25955709104861285 -0.0029988935938468865 -0.11298338715349091 0.080908327247236816 
-0.26664159583382052 -0.80511068670452712 0.16400434399305885 0.031057983123338018 
1.0984167245606948 -0.010684831912624815 -0.31369894142094834 0.79429824923563064 
-0.035052123251232178 -0.25493434728131914 -0.040960777517685953 0.036189696163487078 
-0.18275613551602965 -0.0034981610250044964 -0.22459211542295793 0.15770155089317178 
0.39453245026550926 -0.55630145231783057 -0.064830397946841478 -0.17299461163678195 
0.17776544050569992 -0.055536316429629883 -0.012023232718126723 -0.063145877538885717 
0.3595990986424461 -0.11746368611451997 -0.72174076577791602 -0.070255596274234333 
0.51425475798036391 -0.0040100856028008683 -1.5662512497589658 -0.044604029864166062 
-0.34129954089669839 0.53360250621312788 0.76682833638910874 -0.35193929886349423 
-0.01263061057919165 -0.38525927511245828 0.15274728836876439 -0.24045614821044492 
0.51228738783840266 1.2406318921152504 -1.4248545152799461 0.069065861677024276 
-0.22052569151041829 0.04459397611881738 0.17027688312596068 -0.22675613948233364 
0.27213161618812176 -0.72499872350670302 0.28925254777533477 -0.011407838285733912 
-0.11020320248379217 0.10858943028711894 -0.03376601666653227 -0.038392498277528997 
0.29311467436139155 0.45283648101325208 -0.54650434922230973 -0.89937931365313517 
0.25402779038311235 -0.55885426711065456 -0.087473342526703163 -0.024164235531151136 
0.090497514317200017 -0.22593824239851684 -0.066827084855300589 -0.018225066053600924 
0.25402779038311235 -0.55885426711065456 -0.087473342526703163 -0.024164235531151136 
-0.052787196962508817 0.080509504958235584 0.042881640935973714 -0.21490194839561896 
0.079714941919361182 -0.16391986209953593 0.041329765440749219 0.065176801563964562 
-0.40389319824547443 0.4923036605842705 0.24059726034520224 -0.25266094578104026 
-0.084725323441958017 0.061619675941175622 -0.1322396825227144 0.13024665864799986 
0.12280155583103916 -0.15809665137962753 -0.24682715161514618 0.16287767236596901 
-0.95345350296876219 -0.15067810868386855 0.56245150665337185 -0.017572195458588055 
-0.4469733074933514 -0.077812280351280225 -0.14530653139261171 0.14126367040692467 
-0.03256533840985594 0.11239033632038753 0.35421499348639274 -0.15584366652586401 
0.45068638119715093 0.25633598626160831 -0.61958208620490196 0.028483243582015635 
0.38459367320180449 -0.10473990646295879 -0.033025244531795402 0.076293380314057566 
0.17598038082577755 0.42774927429471643 -0.49628908757653878 0.010979988325718636 
0.17598038082577755 0.42774927429471643 -0.49628908757653878 0.010979988325718636 
0.61578318907654728 -0.18842951266392169 0.051407902348384271 -1.0380062621425628 
-0.037551218930339941 0.018692753051215927 0.07065150387818131 -0.25960050081272679 
-0.17214030087478965 0.46059360679212846 0.064032705662960002 -0.5154923905082065 
-0.10796575060431898 0.051542452457687418 1.4915812406493136 -1.4486525751488417 
-1.3692058394711011 -0.27787479612795474 0.71387972501705321 -0.63405495264418854 
-0.97367887501448913 -1.022761071703667 1.4717797847740843 -1.567164706135127 
-0.37595944162960293 -0.13912886959839796 0.094815941681422294 0.081212858907746877 
-0.45065986252413226 0.17019318972048633 -0.095705431599916804 -0.23470680417281226 
-1.1855335966095508 0.11569221958906221 0.20575478440907197 -0.21792719522783266 
0.060108788627968715 -0.026956910212809049 0.0012509568001116272 -0.1700871548044805 
-0.0055483224992224876 -0.054579433039559588 -0.25515888227720807 0.11648942385678568 
-0.038900208998820129 -0.0024712988074849394 0.050545649012363358 -0.0030436513423466247 
0.18977599051350871 0.10711893264522754 -0.14163963589977535 0.026831990525518074 
-0.038900208998820129 -0.0024712988074849394 0.050545649012363358 -0.0030436513423466247 
-1.3120604021378592 -1.0664979371016061 1.1036143056395797 -0.30248795781246973 
-0.16722556144825276 0.22212400531069762 0.32661675020373171 -0.37668971770773463 
-0.038900208998820129 -0.0024712988074849394 0.050545649012363358 -0.0030436513423466247 
0.002536268158518741 0.15501898683229848 -0.055543802735849496 -0.50836986332020784 
-0.13190957175229265 -0.1823709167924073 0.12714579266251841 -0.12233758113911693 
0.37358311873931216 -0.3509550730828408 -0.27300743815152845 -0.027631782752948933 
0.54967443852937226 -1.3321930121300993 -0.061386654273645994 0.25795722487727807 
-0.12287378196138876 0.51521416013223331 -0.39232499756316075 0.012784910932206628 
0.035321239375175451 -0.11503886265586871 -0.6555099360628438 0.25131643849034602 
0.005234579450318709 0.05965140548461545 -0.16040972562347824 -0.28187492116054141 
0.21345994471728394 -0.98329220650227289 0.049120672709199925 0.26936667520139934 
-0.21892506373732606 -0.49457770570566673 0.13303135661998994 -0.17685310344088701 
1.6570490290820024 0.33911985315592391 -1.0555728070039596 -0.50345407927743857 
-0.12815584868479102 -0.37321314923178772 0.18215721531083234 -0.076022407701672082 
-0.74250844776140734 0.67849047701526088 0.14942606819795645 0.044812479527352296 
-0.60680091229914979 -0.47986178621650738 -0.22510237245885542 0.64730825796324476 
0.20189736830632249 -0.025583284956489469 -0.036843798314430146 -0.42663082886473969 
-0.23539898333137307 -0.40549896859000878 1.0984027805957544 0.0034567124446853986 
-0.0043377121861074286 -0.45374846806317481 -0.15614226804363157 0.42402598914258421 
0.14978438861866955 0.12207437420382836 -0.60373171984198715 0.15419801521439269 
-0.011103526721613664 -0.077786701140033276 -0.0017434163407930464 0.063729788254873451 
-0.95316953748586264 -0.83943336564231674 0.57672537155273296 0.056365854118159781 
0.17084791090753526 -0.010763029665823053 0.026080411940313422 -0.1615946843892751 
0.51697448134047208 0.2139508019087048 -0.4901851169924733 -0.24414559594788215 
-1.5953792640622964 -0.10890898822825024 1.175385654940774 -0.86057776671964326 
0.10607760176677031 -0.0044097588358148199 0.4914855187981948 -0.086668020653992567 
-0.21633580382523154 0.59478684354612943 0.16889325147123885 -0.82843820273104485 
0.25191174167695579 -0.0323693207774969 -0.22257892401923449 0.15072083593511598 
0.20312771026832852 0.69789096983148291 -0.64874593516492718 -0.13242447636178103 
-1.34390718706731 -0.09660102331217689 0.89570764135847614 -0.43881179042382729 
0.13961009555048193 -0.35062679269253383 0.1256948852166313 0.097806600214887907 
0.24689477316313385 0.066716106785273774 -0.3374300779800038 0.164894078305338 
0.0049173433634430242 -1.375167593703124 -0.13850756382863888 0.0075976421774280132 
-1.4018479251994127 -0.25179430932577307 0.58914204112320601 0.08825203431074613 
-0.57769796573756338 0.30477743964352733 0.4041162678098098 -0.61017666220886224 
0.14181939288871509 0.0089624360128195482 -0.19803930283327487 0.019524468978329285 
0.27236781925483255 0.0063023287071249205 -0.58076454195470428 -0.23082618760528623 
0.47759743333898297 -0.62110608803415446 -0.14448384965259745 -0.28696886069447392 
0.14181939288871509 0.0089624360128195482 -0.19803930283327487 0.019524468978329285 
-0.092708192831769648 0.38708053655598185 0.22302399301364845 0.052535029596968805 
0.14181939288871509 0.0089624360128195482 -0.19803930283327487 0.019524468978329285 
-0.50827780879483897 -0.01215185079388496 0.0060009400900335463 -0.22734743820621794 
0.19453098276498115 -0.0073030899117382427 -0.41092224701090185 -0.24097197485251223 
0.098690768238039323 -0.09015601628403748 -0.32715513535717011 -0.024339256420788324 
0.098001364271565097 0.065833151099475407 -0.16814191897179037 -0.04201383807274893 
0.17627748361288381 -0.53729004140571246 0.073896797120244342 -0.001153935825307803 
0.13114891954873406 -0.0026850182321351947 -0.40298747498868276 -0.25775555545732448 
0.13114891954873406 -0.0026850182321351947 -0.40298747498868276 -0.25775555545732448 
0.34378257273096058 -0.8090904612996036 0.11062681278809364 0.65461027903123237 
0.54543210861667135 -0.73880916113121664 -0.38152412685229375 0.36609224357949627 
-0.60074621783741722 -1.0011964662877608 1.0447581416212588 -0.27552851589145416 
-0.031151100594454612 0.44055003948324517 -0.41878157689884787 -0.07702278311413098 
0.0013051562846926965 0.041269996760093172 -1.7245191468336483 0.0051501836022706023 
0.0013051562846926965 0.041269996760093172 -1.7245191468336483 0.0051501836022706023 
-1.3497864712926706 -1.0150161431326139 1.646033430515689 -1.2308690543676786 
-0.040033685863356122 0.39504910833925261 -0.3269802259455043 -0.37017092077145941 
0.24173398080507713 -0.65695796555033792 0.049083148532598583 0.11271456779095049 
-0.188745534984643 0.10403377931584411 -0.15647938112130921 0.57293129823457556 
-0.6250401831355894 -0.26500763259745103 0.87599978336563133 -1.0086201233397243 
-0.096146905908936403 -0.0060373671357445632 -0.69507100515340725 1.1485969575109016 
0.13661733309151844 -0.39972387346273475 0.064317086806632479 -0.012664774516467928 
-0.037168286374954625 -0.0041462586770821697 -0.88783436574022234 1.4283836514413619 
-0.21959504543788622 0.40446213962060923 0.06077212037551874 -0.55678402694885754 
-0.22925833295503462 -0.48479129375270308 0.030643102572613861 0.29228611818609773 
0.022689635590021073 -0.13765002050941472 -0.42431116895582871 0.060325190402119089 
0.043333201353802198 -0.14825322323779766 0.18201515633322782 0.0062739851989964228 
-0.01341671227964663 -0.0044238676626612451 0.64273082271498683 -0.64111917581429068 
-0.044464749572220852 -1.0540268736976683 0.48000390820246036 -0.13115792054409642 
0.032238173125947317 -0.050711468307096955 -0.11494229078533832 -0.023041164439740747 
0.59903024055836995 -0.011889833560732227 0.65850283569244361 -0.59237421869788043 
0.046218743615741048 -0.012318304129501165 -0.045858330983128158 -0.059383096012638546 
-0.01341671227964663 -0.0044238676626612451 0.64273082271498683 -0.64111917581429068 
-0.34272251135480181 -0.60508297631293173 0.45539573267839556 -0.56351368421226067 
-1.6870488743157825 0.47768984058680741 -1.4666918713620143 1.5153799215548061 
0.15207319429275501 -2.2298524167192344 -0.21554394382634887 0.50430566587030068 
-0.01341671227964663 -0.0044238676626612451 0.64273082271498683 -0.64111917581429068 
-0.42107057186107233 0.065608044271074625 -1.6279997625693776 1.4152918511732375 
-0.01341671227964663 -0.0044238676626612451 0.64273082271498683 -0.64111917581429068 
-1.4230559668152294 -0.49505981344765937 1.1326973768099216 -0.59008798603174906 
0.16517319644251252 -0.11517185335495254 -0.02733420167844712 -0.079814996659140949 
-0.5628190487399829 -0.54697853553302445 0.85258765735623387 -0.46915582186249638 
-0.01157084314174181 -0.0022065410031146225 -0.010134638760940883 0.10041463322257788 
-0.10751140734837222 -0.0082743698915495045 -0.022414602332964165 0.017490063774395666 
0.061760328087636734 -0.66398597722784347 0.45575557496443275 -0.036043673877916786 
-0.054303447275681788 -1.935546966704057 0.21852930687500885 -0.026906454939066071 
-0.01157084314174181 -0.0022065410031146225 -0.010134638760940883 0.10041463322257788 
0.10658243699433592 0.098119877246491141 0.024756928016354929 -0.40788828818462725 
0.55036891595889847 0.048583232620754598 -0.09495658565612905 -0.019148412708064905 
-1.4085234305695224 -0.14111177323471288 0.8370946298188503 -0.15708812365252778 
0.17262840798260209 -0.36665893527521937 -0.071224244088677113 -0.20364569729255327 
0.63546175193399046 -0.46085268793621204 0.024056924844953191 0.042128706855244363 
0.30768036811594529 -0.36105223634954275 -1.1229730474832973 -0.149309957334647 
-0.6727743445695018 0.84460028656320696 -0.77125097331441883 0.53402376874567659 
-0.090921739715658784 -0.0072596317588551791 -0.061427148530626599 -0.019237933462029528 
-0.090921739715658784 -0.0072596317588551791 -0.061427148530626599 -0.019237933462029528 
-0.34748586036084972 -1.2679202130753207 -2.7517447885513922 2.8975201671652751 
0.041898510661510888 -0.4888071155836598 -0.062259777148750868 0.051880981058900419 
0.22439391948120033 -0.14638057502901419 -0.51526330406457987 -0.36922895394340671 
-0.028893132703782784 0.41350166335681077 0.16563782358984422 -0.5710233886704511 
-0.033788115574091296 0.072395667271313593 -0.085752191205695105 -0.085864457404849298 
0.9834015502501281 -0.17933649430036011 -1.4999410540967337 -0.6393419090630531 
-0.32287527536386751 0.43644676453213688 0.2519293822018619 -1.0502157055523855 
0.84931498997182886 -0.54646028077177977 -0.21036098520038957 -0.50514493243783409 
0.69565855502812279 -0.54827765766271253 -0.4261622822015777 0.1065617284021276 
-1.5452385697031388 -0.15326126123518424 0.65850176375580305 -0.094707614558133479 
0.42864744483306572 -0.20192450384220134 -0.47537487447571536 0.27147620766475711 
0.034095225547184208 -0.38111435062008026 0.11460648551388401 -0.0041639225943172452 
0.55223885359494829 -0.18278038259888674 -1.037339117417301 0.67323875570747427 
0.42323930773680574 0.03920691686290137 -0.55585677877005479 0.0054232794382476912 
0.05835854601117299 0.08964613911757735 0.055244862042768697 -0.33305459606162952 
0.008928153320980993 -0.3833445589824267 0.11933154962655612 -0.13762526168873612 
0.41458990856271483 0.090713917049548343 -0.061725817752475584 -0.10607474809597164 
0.039566912879443097 0.093310415736686025 -0.049341750877123752 -0.10024636790611155 
0.039566912879443097 0.093310415736686025 -0.049341750877123752 -0.10024636790611155 
-0.39519985812897812 -0.0029750435760665279 0.28777350488288933 -0.0030476874065951424 
0.10687699284372239 -1.0107136563524426 0.16356373929886003 -0.074622418967637119 
-0.39519985812897812 -0.0029750435760665279 0.28777350488288933 -0.0030476874065951424 
-0.24660870250409372 0.20952559226432901 0.10710750283288149 -0.79311941927109197 
-0.39826152506500534 -0.0036220906890613476 0.24758365576540986 -0.00085193915886582275 
-0.16157368764069535 0.12556942480195901 0.019380038022230366 -0.28144427354645934 
0.12144066910226134 -0.83507016758582053 -0.016228971792368596 0.012447653118430791 
0.66050973714466688 -0.57970621426763203 -0.42534173738270775 -1.1761577184556309 
-1.2365870949390663 -0.49337300081359803 1.3117459868426438 -0.136233973404911 
0.15295639414778456 -0.084820494104705768 -0.16555137852773946 -0.060123695269334608 
0.21422623517634309 -0.046022315369483764 -0.66897281086303118 0.0021930833884700181 
-0.090444616921123627 1.0396047677407327 -0.33163946061152444 -0.15657906685556597 
0.35183272470136323 -0.36773294558428676 0.13571589435764214 -0.24896040508267636 
0.21422623517634309 -0.046022315369483764 -0.66897281086303118 0.0021930833884700181 
-0.19224958111683652 -0.23928747267714173 0.10745561381039058 -0.45569979604706079 
0.053195183181112174 0.39837634738371602 0.1071824164706195 -0.13585779486478725 
0.28194299064817496 -0.23800216494569482 -0.47669204233640083 0.014915993216791865 
0.58222158878526864 0.47744349467013736 -0.22237832812214398 -0.33041522967952963 
0.056538416808098999 -0.074865082980972553 -0.058922265983799356 -0.077148278812526894 
-0.71092954171533818 1.0285932322003033 -1.2324608127621368 0.80842396601003141 
0.15907305556299031 -0.11583590402955256 -0.085598387048433117 0.01630089019245469 
0.17535342064183926 -0.96234439493185908 -0.48179046125075797 -0.034263110568752642 
0.041085586939026864 -0.079125414016650089 0.24617107630975527 -0.76285735760115325 
-0.021155204613924658 -0.15872994245284416 -0.0095791993402688964 -0.28597295070040729 
0.11882109244801814 -0.10414065079416121 -0.042736249008957686 0.027497211898632891 
0.40153439202487295 -0.17799753632187729 -0.094583008332057739 -0.013456459497608153 
-0.30578989381597521 0.50485201974932314 -0.10670994591679543 -0.47910278515523202 
0.11882109244801814 -0.10414065079416121 -0.042736249008957686 0.027497211898632891 
-0.46094249599748999 -0.066862934937302998 0.38671929513937287 -0.049035617684014182 
0.090566337681689077 -0.23238066528589074 0.22001789254147341 -0.062587712230557119 
-0.57088617844144562 -0.044024199114449061 0.32087555357639025 -0.0037282539636906212 
0.20457240374458088 0.094361299875630356 -0.065991111586064619 0.023431285043699648 
-0.56527484398545003 -0.042386069160985938 0.2270297037288736 0.0041532857176483189 
-0.57088617844144562 -0.044024199114449061 0.32087555357639025 -0.0037282539636906212 
0.19171729062510537 0.16027328682130729 -0.10270259554645506 -1.1649152396045093 
-0.15008861420389502 -0.21652516163768146 0.040434691105515022 -0.26159300588438883 
1.473573212359931 -1.5454913157929182 -0.67865591903430478 -1.3025004384087111 
-0.92052315420417041 0.47286336688374675 0.50012813746960272 -0.18716812545952657 
-0.028088822468303853 0.00092215361967464514 0.087426978239339398 -0.0046349109020853473 
-0.036969692157390259 0.0032357070549726141 0.084292418799081531 -0.030918780259481859 
0.38509306547119082 -0.61986366609777832 -0.44499683651885513 -0.46245260691374157 
-0.028088822468303853 0.00092215361967464514 0.087426978239339398 -0.0046349109020853473 
-0.69052482126457404 0.61843059751842699 0.090376530552814305 -0.46475753421382437 
0.011718335977668989 -0.23239468795638352 0.056365386272045806 0.064822019259375002 
-0.028088822468303853 0.00092215361967464514 0.087426978239339398 -0.0046349109020853473 
0.30121005748129698 -0.12338210479248712 -0.4622150739217723 -0.30024738669301426 
-0.89527803124334304 0.25805292183844136 0.1916554389036737 -0.26648781533723626 
0.49692062457662295 -0.4337921581304226 -0.40823669626034442 -0.25350001374176795 
0.0096123482857320731 -0.080590595375426233 1.1536204885186323 -0.0078755462880899588 
0.11582661856354623 0.23542820211912049 0.011825441868088898 -0.29370868649239035 
0.16036093888388173 0.58101747885771937 -1.0565756323101496 0.77432124747611675 
-0.94303531492450632 -0.10635810868473639 0.14340559620608384 -0.27503839138698416 
0.48834079589739715 -0.7086747838969053 1.3920023531906358 -0.034177286066947879 
0.20026514990632996 -0.032365390711201814 -0.049273227851444321 -0.01059985592236776 
0.20026514990632996 -0.032365390711201814 -0.049273227851444321 -0.01059985592236776 
0.079992424408103974 -0.14903877053635919 -0.035244025905208851 -0.1427658025461746 
0.29457153440605799 -0.037442959251843794 -0.12061175823273393 -0.059115672740271366 
0.20026514990632996 -0.032365390711201814 -0.049273227851444321 -0.01059985592236776 
0.20026514990632996 -0.032365390711201814 -0.049273227851444321 -0.01059985592236776 
-0.54924315047867245 0.41687410248579998 0.56895635860484628 -0.25848340556207833 
1.1821943828336334 0.23291559721095076 -0.82401585120255105 -0.17848472074238042 
0.063683150498760693 0.24851315003705024 -0.36500797629436649 -0.54661469842700594 
-0.23519293484156065 -0.28590628851784816 0.043170802606603574 0.17171062525129077 
-0.87351173447661812 0.74122659374868749 0.027357583296343746 -0.013254871537387386 
-0.34909660668147213 -0.099959274732305287 0.063207532150823795 -0.036838129147773201 
0.3642388058164257 0.31075567547180627 -0.53206558917696201 -0.36011723151918473 
-0.39446536679766914 -0.32298880843791905 0.22878579553733552 0.23161141835951349 
0.31037959021336836 -0.36483212181163166 -0.33337832834706904 -0.83310723676645337 
0.35375558343465913 -0.44376272161637442 -0.3846844556884193 0.30268642704068294 
0.17983747038144005 -0.1694477410860705 0.12468083584915174 -0.23443179385897628 
0.073515546972324999 0.039942480312429585 -0.065338027310374136 -0.77375224367066298 
0.05191199189495125 -0.13306361822316665 0.02564445109007529 -0.066554788198901288 
0.30986253485116305 0.039133206490575508 -0.23703562944309342 -0.36563622213039126 
-0.0060498357974072686 -0.14689938524297089 0.084514466050761003 -0.21247166991019478 
0.087614672025289803 -1.1204425275543859 0.39572421784949463 0.12289114412535518 
-0.69480130784211758 0.56664684404128796 0.035743069169865187 0.11787568229514514 
0.1565444920623737 -0.38795580184784456 -0.031278135875426917 0.089283040904881705 
-0.18383950871862612 0.48173157298252528 -0.29597229459639418 -0.073841780535224111 
-1.4517498445017241 -0.77409890389505609 1.0441329407754338 -0.48199519169564609 
-0.020689707150097686 -0.0050733120180110718 -0.03024322071329192 -0.0058074564291187205 
-1.3150928612450987 -1.1258139132863159 1.7369307262458515 -2.0040705641910721 
-0.020689707150097686 -0.0050733120180110718 -0.03024322071329192 -0.0058074564291187205 
-0.38623364816695471 0.45413526445388924 -0.056674889076659879 0.081077417660742654 
-0.12962889995719962 -0.58957357508987129 0.44947501111214949 -0.40728575353926744 
-0.73527170410737153 1.1086547462149214 -0.016829984391438818 -0.22139018815756673 
-0.74546411331288231 0.36267215009088621 0.23719862748090842 -0.2088017493343875 
-0.19674430623925018 -0.43512090771489265 0.16333659806323875 0.22780999974492183 
-0.051476253229194219 0.051808437457577405 0.20474262206232591 -0.20008960381494764 
0.37811800572741688 0.35673292190723604 -0.96579059965464176 0.55433756612242302 
0.2144015132512303 0.19580192207189329 -0.26412051235699807 -0.67375292213237026 
-0.67218382018203693 -1.5444266046036668 1.7474803590347985 -0.0056832123662683542 
0.53829168233075775 -0.08439536794633376 0.04535653055056936 -0.1255520361472906 
-0.31757945963414691 -1.5433941435710774 1.7495479109865117 0.022243419977735254 
0.48966297508223833 0.78773529981500601 -0.81930230348571531 0.14389562489357632 
-0.0086112640434287853 -0.046775306412538631 0.029132228836986327 0.015706280553544675 
0.14698581314086304 0.48080315868710249 -0.78222893446401653 -0.52323753249668548 
-0.24976002947862019 -0.49637252278527649 0.46876589462674001 -0.2687833933544076 
0.3210719645580527 0.18270778504867438 -0.27015338073403505 -0.023552842463721857 
0.42348354078976208 0.089797341124328231 -0.11176146823873401 0.0067569662263127078 
0.095168268609915257 -0.86285831375051947 -0.60225032801246714 0.34994327785256346 
0.46375966262449592 0.087054974878155236 -0.26363831780655339 0.010435034314123678 
0.15596140747519216 -0.84586923137579806 0.32064477737523023 -0.33083150252808308 
0.42348354078976208 0.089797341124328231 -0.11176146823873401 0.0067569662263127078 
-1.2738516638121424 0.020762955302668119 0.90100024983514881 -0.084485732310397507 
-0.12875637451138552 -0.14688205393082326 0.73120122371640606 -0.076682261014704906 
-0.027915597370377472 0.084021417343934118 0.051209494876477968 -0.23381283611323464 
0.089648013280123548 -0.0005720505973706286 0.046468814494439667 -0.072193248585019604 
-0.66893286346237013 0.34361602877353692 -0.02025176880430607 0.093204191627025784 
0.11204419139755764 -0.26527270201237402 -0.0077999895559891803 -0.090176656576832895 
0.34354504901306715 -0.83417293595008302 0.28722320001302509 0.53552731226455141 
0.19003954988416819 -0.74610963832868671 -0.00502483572345018 -0.0058584844365433889 
-0.47297283841166282 1.4614156328280523 -0.79895378787188631 -0.9551404429554603 
0.12280181675454996 -0.028288789176454245 -0.14764717660527454 -0.095495388774996096 
0.06715930781983559 -0.024585721525011067 -0.43311307937599319 0.26333084599698475 
-0.056755714443683242 -0.61904959065042897 -0.069929265499801926 -0.0082919585323826886 
0.0077736469658676415 0.0034067639322834225 -0.6540082237188185 0.0018464014424156364 
0.059106380176605244 -0.91922881199827178 0.77652956332418732 -1.9371341167108278 
-1.5446172855444202 -1.0795973206085705 1.5307255899371219 -0.85293193059767813 
-0.023091725886074929 -0.1801215440556509 0.16583328861499572 -0.0086740000818079557 
0.23030157783783969 -0.18840614974139766 -0.26348831940047962 0.68816602917843528 
-0.10711672265679403 0.22639033647848925 0.23364074702849369 -0.4464168225109249 
-0.073064830500549224 -0.20593944041996404 0.2194954903218902 -0.24620888977516947 
-0.023091725886074929 -0.1801215440556509 0.16583328861499572 -0.0086740000818079557 
-0.023091725886074929 -0.1801215440556509 0.16583328861499572 -0.0086740000818079557 
-0.023091725886074929 -0.1801215440556509 0.16583328861499572 -0.0086740000818079557 
-0.10717198632468414 -0.4080786616160893 0.26111548253772676 0.044970294513187042 
-0.065123457267521861 -0.024908559570291179 0.079871271054365492 -0.26923104804655068 
-0.097754309171925347 -0.28053584429365347 0.41472089644945265 -0.2734089162169473 
0.037412883726235815 -0.15608340458722536 0.068852101594100393 0.11943521499800369 
0.12864817287266322 -0.22620262134012298 0.089459419839670429 -0.26036876067150927 
0.010160167489106517 -0.28272806936089934 -0.23775270659259778 -0.27527215010259781 
-0.10983690475795271 0.36138555360307567 0.02180890557061544 -0.033751481506679275 
-0.075424471158697284 -0.09561218574246598 0.1290522616988386 -0.033295492935810495 
-0.42074741341782079 -0.27231000810019401 0.07325430187557766 0.9848954129659655 
0.13601260245305732 0.0036317766948612829 -0.078123789693014978 -0.34351342880479985 
-0.27188002217704704 0.57608244515095519 -0.026221588690302361 -0.039500407531726137 
0.16055676576807415 -0.10003793647807517 -0.18398923408287446 -0.16597935062077951 
-0.99852515105476614 -0.26001831222247013 0.15498768446294237 0.082795239093740647 
-0.22878597826803498 -0.0066035656849560281 0.23175165758664479 -0.34883091247295928 
0.11659762048141012 0.046335254785741825 -0.050907717345660672 0.094943889544366292 
2.892745020149023 -0.11703595685092803 -1.5817360118295054 0.13695180427101664 
-0.18742428216866971 -0.54294052747146604 -0.20301747469630238 -0.34457186748358259 
0.12214157431929237 -0.0021404396344954337 -0.63199477417386762 -0.0019064343747887003 
-1.1351814116327987 0.3328649358857057 0.31514951945989328 -0.26064517438130536 
0.49964762929102352 -0.090989682929942695 -0.38098561891058236 -0.0029483335150207058 
0.51780186470675549 -2.0635486688307716 0.63886215105439104 0.76234353132922905 
-0.25417682592404683 0.65587138711146054 0.33963107015491079 -0.46809748553906716 
0.052067249013093286 -0.13085438663395271 0.07312888382064528 -0.095228664106787458 
0.18138187780106807 -0.57466007814613773 -0.17344108557123358 0.21894198039230656 
0.14905787035046075 -0.20306057289525525 -0.14231290907464805 0.14806705908228354 
-0.21857608901439793 -0.57195077344755685 -0.12522671911065641 -0.46379757524483806 
0.024287624101075302 -0.0014096093357538822 -0.15310488089895041 -0.19801702669440321 
0.12579949388839443 0.043766322460331422 -0.49049414138763248 0.05137849120758102 
0.012459106755852163 -0.0073743242214165776 0.95544861361168021 -0.11503702145786733 
0.04985817027246154 -0.58291353776994304 -0.089119198838020178 0.10057356981009748 
-0.14902365425251954 0.17074180512680801 0.58677881824739186 -0.18706086850829579 
-1.2019821402974826 0.68333988661729794 -0.71276119083810952 0.64899553691769951 
0.53061764224324004 -0.73370626956546769 -0.32544197874229436 0.23377447531126766 
-1.5813954142706748 -0.044510654449031926 0.55105236849249906 -0.77614077721859165 
0.012459106755852163 -0.0073743242214165776 0.95544861361168021 -0.11503702145786733 
-0.078749857340855295 -0.13532669408617803 0.029299861004359606 0.12262742134002871 
-0.056104327362909656 -0.066992764036699265 -0.064655405880016448 -0.11010747745957014 
0.18106361759193573 1.0168028841067085 -0.81265461070808098 0.0050280776364107519 
-0.18383277403198162 0.62381345279512712 -0.92274585873719728 0.1202303077078718 
0.18926761187990107 -0.14640315790856298 -0.28785631052161154 0.070745615644240742 
0.18106361759193573 1.0168028841067085 -0.81265461070808098 0.0050280776364107519 
-0.65986481302963884 0.28532109517431087 0.45908710395227031 0.087961749837024469 
0.27911471071459126 -0.056928020607148924 -0.013954541686909572 0.060517811745188832 
-0.13696297430150575 -0.0035971768205051817 1.1292810210134556 -0.73375405868550481 
-0.042419251944481595 -0.19432403773366441 0.7861119546137032 -0.69242322756921149 
0.080720263550275562 -0.54329985120370172 0.38102878122935135 -0.15629605538219904 
-1.4622038593005404 0.4999181149078904 -1.4900268283773968 1.523612903582038 
0.62335918433773929 -0.87998451273924894 -0.57602967054322862 0.075756114740958627 
-0.10793568002016948 -0.40812670394866851 -0.1005745500815422 0.28182928923492606 
-0.13696297430150575 -0.0035971768205051817 1.1292810210134556 -0.73375405868550481 
-0.7820285858132614 -0.65041979455537646 0.68781717816439347 -0.1448965415355028 
-0.51868556452615233 -0.8335404263504369 0.41529346496240038 0.15737487211236664 
-0.46680513820088293 0.22648060677728504 0.24052031112775601 -0.2300765297608296 
0.12487644457291264 0.01354711270930653 -0.53646284465890115 0.36671119743246716 
0.20251532808096206 -0.064362390032436795 -0.095432229123264239 0.26238745370179029 
-0.41993600567401485 -0.00010471731690684841 1.0922118692216498 -0.28816467738139107 
0.28221079520949355 0.016435310438915683 -0.30954143158781922 -0.87473836185639753 
-0.20135537566359804 -0.76513602227124444 0.25254062278170086 0.71455560914540528 
-0.41993600567401485 -0.00010471731690684841 1.0922118692216498 -0.28816467738139107 
-0.0085534693130351509 -0.0036302178749668072 -0.018307098522261152 -0.0098766835387904123 
-1.5041876468096766 -0.2165335143660069 0.74895625520590936 -0.18491571871843554 
-1.278721369272565 0.0511868633691131 0.46511512920413556 -0.29358614007274914 
-1.208352686397838 -0.97748078173076625 1.5627447555484526 -1.8200520877163637 
-0.0085534693130351509 -0.0036302178749668072 -0.018307098522261152 -0.0098766835387904123 
-0.0085534693130351509 -0.0036302178749668072 -0.018307098522261152 -0.0098766835387904123 
-0.44713274722482038 0.65684692209655404 0.20521155318526929 -0.10897552499912122 
0.175385158444612 -0.063409429067574255 -0.42838496910077345 -0.20839256554644492 
-0.083946301777160087 -0.548589396683688 0.17360727904170703 -0.14577838527088691 
0.175385158444612 -0.063409429067574255 -0.42838496910077345 -0.20839256554644492 
0.175385158444612 -0.063409429067574255 -0.42838496910077345 -0.20839256554644492 
0.12906360798083216 -0.090364199758506056 -0.092538774063331608 -0.0064386339329193382 
0.89431497566330187 -0.065704485961740111 -0.28785318596665632 -0.14754825095973623 
-0.0067230736098850361 -3.3370352335124198e-05 0.015887913202501325 0.056469545637718374 
0.31755901868798198 0.090083202810377266 0.053775976920798399 -0.05221767790543326 
0.2825139062383073 -0.1136665270970257 -0.076018541771663145 -0.37070660169861569 
0.086610227802333267 0.13931073393151477 -0.2208139064583832 -0.14703830355128653 
-0.24899013244783674 0.013378130582558049 -0.099092408833156453 -0.0038716465275254047 
-0.88307705391853486 0.84849794414003077 -0.69909688475616039 0.6016204065668791 
-0.7871055753365841 -0.64062755317118014 0.93106968102447119 -0.15338830292456831 
-0.0067230736098850361 -3.3370352335124198e-05 0.015887913202501325 0.056469545637718374 
0.10072890029498675 0.074117419508521271 -0.40523797403495099 0.18801271449979462 
-0.12167482680914016 0.01839820231638984 0.042730424405933831 0.064862836663256679 
-0.17925888682079358 0.016299754608358766 0.20676524568462012 0.090286710192264447 
0.24116240797191388 0.1036227286856488 -0.33900708600173352 -0.13208506610334336 
-0.348804636613464 -1.1375059733773978 0.64471929708960507 -0.40877956326216069 
0.2350253095793258 0.053821466448890846 -0.12136055942071301 0.083999745757077332 
-0.12167482680914016 0.01839820231638984 0.042730424405933831 0.064862836663256679 
-1.2012254615392632 0.12124529441409032 0.43710794696271826 -0.16481962388063004 
0.055404462579449899 -0.1666330803880037 0.20098131828165675 -0.34107774096885729 
-1.013027526376129 1.0672773807960581 -0.82133377779447136 0.25495898136073786 
0.89820159192446924 0.20863825090157284 -0.50084915789034889 -0.022025071502766627 
2.8258447835474731 -1.1200684061645694 -0.29620055089708397 0.0057725090332335274 
0.078339429999695426 -0.3866589225923055 0.40932178066805108 -0.18086590891081278 
-0.17280374412422589 -0.13659704445213655 -0.089309400935915578 0.63623023259260747 
-0.017280015009895781 0.014013562363621924 0.072676810989287258 0.0059982017196142101 
-0.017280015009895781 0.014013562363621924 0.072676810989287258 0.0059982017196142101 
0.11466178498189016 0.39522791833577037 -0.48624770091110553 -0.3320869938748825 
-0.36619990173480627 0.51842835132944898 -0.2633425842099138 -0.15957476564725201 
0.36423537377403459 -0.1259293468039534 -0.15178643615026766 -0.017978974198502369 
-0.069871796494227076 -0.64565647048471142 0.69765059410076113 -0.1059350475428561 
-0.2267420809784676 0.29618897068555033 -0.39440687560931542 -0.5818792084628065 
0.20588295280007154 -0.087887501988219208 -0.06019446444799624 0.063585871885392567 
-0.40760213199475098 -0.195188972109165 0.26130862388973269 -0.098371127860848839 
0.074250275914114927 -0.40663315929043897 -0.31717805458335707 0.085337972463610912 
-0.26027819387395557 -0.14521230259517515 0.23486151397083446 0.25120392788792445 
-0.24322400861856122 -0.1850056140769181 0.32825742678225078 0.048984830280036258 
0.89871248950801474 -0.46737717647224047 -0.25557664167428396 -0.067684893507174423 
0.10401110420332241 0.28775473577629407 -0.14560795336825672 -0.69534105914240052 
0.15294229372906498 -0.2692993221293255 -0.059174120199722027 -0.11564424267195111 
0.2007379770162161 -0.77676903095547334 -0.17679884306815663 0.25697449739863737 
0.066773473778054981 -0.0020966941643818932 0.11341945586012656 -0.16617680238623142 
0.03466712035155297 -0.0029483618445620011 -0.01282896773940078 -0.0048824956584656489 
0.58129149376810241 -0.93013364097952644 0.0056543560004748694 0.19362623609481777 
0.20175468201041449 0.22265697420899114 -0.070546355933848323 -0.036784546735078597 
-0.00062051146019963255 0.049337486130045641 -0.04043847959885756 -0.14625795845779199 
0.69784593489199198 0.26845448627299417 -0.90190866766252209 -0.29411075353610455 
0.37868948026805838 -0.099499577956424112 -0.35331090679058563 -0.44765668299649353 
0.028737386284036201 -0.035972632923473198 0.028243036563300152 -0.39073500379333298 
0.25660812499542995 0.016100307766509829 -0.052007569079957766 0.0179791629610771 
0.25660812499542995 0.016100307766509829 -0.052007569079957766 0.0179791629610771 
-0.060936593527201044 -0.28792994994933729 0.56763619721905978 -0.075540160755010827 
0.48664690135403077 -0.27815102943643888 -0.52088291433929967 0.14054851744080071 
0.054992369053697629 0.96867126446239304 -0.54441481557956672 -0.072923981921636544 
0.61018784348299926 -0.40841365721101563 0.050039467857029007 0.36457887960270613 
-1.2809678533693383 -0.90242830651613581 1.1512371151297953 -0.5329622621155472 
-0.060936593527201044 -0.28792994994933729 0.56763619721905978 -0.075540160755010827 
-0.036183568681569349 0.020520072747187493 0.010738857415477025 -0.81519724390526527 
0.0094778174293973852 -0.0073144818435173925 0.019784527479298528 0.047293012667200915 
-0.83433284133212537 0.54190216538883829 -2.4328577569375205 2.012381051520439 
0.075795034224480667 -0.030103601825899443 0.21760797188494846 -0.36558004730575822 
-0.052176221855524299 0.94253364193393863 -0.99306087730483994 -0.42855468985889622 
-0.036183568681569349 0.020520072747187493 0.010738857415477025 -0.81519724390526527 
-0.036183568681569349 0.020520072747187493 0.010738857415477025 -0.81519724390526527 
-0.24380092380620111 0.91147213534073313 0.064639082599074152 -0.44242137355009364 
-0.36602924238741852 -0.33391787522949329 -0.018655924443577443 0.29103042836126036 
-0.23906339710638719 0.023128350999980715 0.11939406648814847 -0.090536319223933015 
0.35797961586870969 0.58475868971144573 -0.69796012510168381 -0.45176180459256854 
0.12473676122936354 0.1127041254205555 -0.15521865321167799 -0.17723942210918275 
-0.30156898222374989 0.87707469049685816 -0.27227740552247115 0.060896388907149275 
0.39017802922153744 -0.62592110087577812 -0.084075882651366854 0.049127481031664991 
0.019103473138533958 -0.36817801666658878 0.034618361718906893 -0.16402126511515985 
-0.18180995870259919 0.4321977759422117 -0.4660993288050968 -1.2615409623888301 
0.76334814225759184 -0.48911581560265416 -0.11678570550606054 -0.15276894357575063 
0.036617083436144386 0.11602940400542246 -0.0060462030476747981 -0.052699217817095169 
0.18731156188044373 0.5195222705717687 0.0059094186328746898 -0.48524975580852064 
-0.44847276183179752 0.2172976719004073 -0.76923738978136691 1.1582526456447901 
0.99942035915832417 0.47791061864365209 -0.47287355819383758 -0.2684636683399827 
0.03180336415783902 -0.21340261881724365 -0.059658675642703975 0.18231357394254966 
0.59741413370696494 -0.065013072253801166 -0.61536641029407479 -0.063859676898764109 
0.31634965614886179 -0.32547978617655171 0.22740130834408029 -0.25855516850833521 
0.071352787991354569 -0.32828347268340996 -0.094181495671829818 -0.21312527385177185 
-0.083189082105556311 -0.42692905813100213 -0.097746367160494868 0.073542324706681622 
0.59096582971794276 0.054103693531545399 -0.24543199991367937 -0.4684660777338483 
0.16722733901551889 0.59432278848513109 -0.92857713338335657 -0.24001378003867441 
0.18678095206361689 -0.043363847007873879 0.0059813308455537745 -0.21024973832073318 
0.87745782915445036 -0.046218954148689421 -0.70089710713037534 -0.21585849105232635 
0.36371592188300728 -1.1179291489502146 0.56708472810612254 0.10828612014823122 
0.18678095206361689 -0.043363847007873879 0.0059813308455537745 -0.21024973832073318 
-0.00072942092711487938 0.21086145764427561 0.21280950122132031 -0.63720381574883778 
-0.089635430459770737 -0.072261497930464713 -1.5440662057079022 2.3153026379204382 
-0.31146297432885572 0.24935179238388661 0.14356310020106083 -0.089175460797746298 
0.087296172687501117 -0.73501711934530356 0.81909680339827673 -0.89449514416877041 
0.74061213285811645 0.00091961077024342325 -0.7799302976434872 0.23230775470842965 
0.00035690557716122617 -1.1064814495926645 0.28584651183986515 0.46297800918138698 
0.15828213876905328 -0.47862953175470041 -0.27107740325996466 0.35247745973604205 
0.3137731426532589 -0.35487310610049771 0.063098708246882296 0.22410825692810427 
-0.21996172341777215 0.56925430712355329 0.067988560017462979 -0.66536960122669941 
-0.44293668806587871 0.18468618951527574 -0.16016601903372896 0.025802340932033707 
0.74061213285811645 0.00091961077024342325 -0.7799302976434872 0.23230775470842965 
-0.98615434043881933 0.71808979369063608 -0.71557957962003749 0.34688472395991832 
1.3206743567347397 -0.014538615545310371 -0.17117892052241584 0.20673385296486094 
1.9589399006276855 -0.016594058154221457 -0.35249957819384176 -0.0044096104274878737 
0.069348742523412166 0.13589052438094953 0.0098717647694227528 -0.1423463194496829 
0.00024026578625669222 0.0011316414435195367 -0.087356859660124409 -0.082540435086482677 
-0.83899162867447696 -0.35607602103497904 0.32942061652617111 -0.28383054692979776 
0.038531530632147558 -0.058323536541133029 -0.21119946873688583 0.02819738886840148 
0.034543972857790317 -0.0020902274210138072 0.11821080554474547 0.15891657404678761 
-0.24425923873414102 0.0054422458010090925 0.063666222453031537 0.063683207720080182 
-1.6360117530692326 -1.6128324852063014 2.1424215842042562 -0.81307250948580412 
0.25015938395111731 -0.22565705924070434 -0.27536917416274875 -0.16708035915389077 
-0.99337172601719725 -0.93061922354567561 1.2420200351571933 0.015201537857457845 
0.131627210755417 -0.09980872639872522 0.038043832356506421 -0.3650448153461876 
-0.034444184001190425 -0.30972915385334321 0.13067356942210001 0.11399578403395076 
-0.25419246421733477 -0.001107357295307909 0.052443325760229947 0.0042915079850444097 
0.16731739386482949 0.091257283696044855 -0.013235608312758065 -0.53785886815220052 
0.0047851515578023994 -0.17290932072421644 0.054064120328217558 -0.078237553221832484 
0.58103938813093836 -0.2970492593596904 -0.42947066977308129 -0.028270195250212363 
-0.17637186613290171 -2.1539184712180477 0.010852698664672582 0.4332088715684449 
-0.019133251589492879 -0.0088799595612662104 0.46055012980992271 -0.46982011969482984 
0.68120127863996927 -0.53449582284290997 -1.6904266079846662 1.4679502512749738 
-0.019133251589492879 -0.0088799595612662104 0.46055012980992271 -0.46982011969482984 
-0.16855254250270002 -0.99053089428852292 0.95428904619752652 -0.47900767603960581 
-0.50181457603735236 -0.91909246854927862 1.2836727989415671 -0.43299611876851679 
1.2891827877325814 -1.4495429961831812 -0.65411154260433646 -0.36655937546041312 
0.93217951123986631 0.033071899693626783 -0.57956838573084168 -1.0762593020797682 
0.048222737056531323 -0.0048817824389381162 -0.0024957377201448318 -0.83700104144023713 
0.39873401151929982 0.4113598406782662 -0.60795123563350484 -0.044420721916551352 
-0.68007375709083739 -0.44986599375401942 -0.11380220958539497 0.77381204493853217 
-0.030419880274047628 -0.78808892347733728 -0.061975591941638548 0.59580837536022313 
0.048222737056531323 -0.0048817824389381162 -0.0024957377201448318 -0.83700104144023713 
-1.1158994598673826 1.2777908764013957 -1.3055086571901338 0.17034979568419323 
-0.39089749441363575 -0.63216707154217122 0.30088025775465066 0.19033877115571696 
0.050667587098143244 -0.16157390574652722 -0.54626112144232641 1.3891291376435999 
0.42976707447062962 0.57051972161313713 -1.1516708573483925 -0.55498077809433266 
-0.83002472304621033 0.04292984827486284 0.34211171942954988 -0.044719407523862734 
-0.095080785780535054 -0.75907677726167888 0.085047390381044474 -0.20932484584201477 
0.10986139554057275 0.17953589600677924 -0.054734477636267043 -0.016863667924975564 
-1.4689769216165927 -0.18711259044813244 1.0832365675234443 -0.16277469046606027 
-0.99498480747360585 -1.1454047942942365 1.3829111305983797 -1.3634194845550343 
-0.067983605932281005 -0.12203957726240933 -0.67942128355950482 -0.13047979514888197 
0.045274443461672545 0.60797803436449627 0.52657568513899733 -0.088629079346486672 
0.35480983114333287 0.14410414198528831 0.2408776426954633 -0.6180642819872163 
0.0069322588119208016 1.5959121788987729 -1.4077807399412867 0.22993915789323102 
-0.66323125030939023 0.11626479504697655 -0.24115318063704699 -0.061809514242868999 
-1.1316500753500598 0.35104026705247166 0.6277425154124926 0.24802808960760972 
-0.52768922005776464 -0.20203647858773224 -0.17742291558916204 0.099863917159729948 
0.63741836647845651 0.43796260754635236 -1.1105053203085888 -0.35920411989325751 
-1.53690777779493 -0.031855365108031122 0.6311413480079977 -0.058922856367363552 
0.38482078888948773 0.9020696093343078 -0.8453253655473254 -0.59650076665498131 
-0.11675542913818111 -0.75918698359772374 0.24347631776508255 -0.16900252198348706 
1.8703435255181837 -1.0994654202098184 -0.10859858378234616 -0.40462771474128784 
-0.68626498185763773 -0.60089418508163206 0.73724794667560878 -0.12802292717368541 
0.26523480875860855 -0.48628453632828111 -0.082978187164616191 -0.42736561842778109 
-0.68626498185763773 -0.60089418508163206 0.73724794667560878 -0.12802292717368541 
-1.0507600387537466 -0.56246245010005458 0.91500177300975272 0.13886761689625676 
-0.26039866264994682 1.2504976757355215 0.032212609137397985 -0.66871479096884334 
-0.20121511480915125 -0.19892967061634129 -0.26330752309278976 0.17550222358759834 
-0.68264208841553931 0.039322743579135191 0.12858303928840764 0.17780568382771755 
0.32533785629823975 0.23673547887809121 -0.47124383292169669 -0.38503365040300513 
-0.30561505351438112 0.33514935749379271 0.11709496405007519 0.041013299654551277 
0.34615353101967905 0.41736116355364494 -0.28417059449580617 -0.42856543986927009 
-1.0928461753152696 -0.19814810147659265 1.4221478975108126 0.36584487182619024 
-0.68264208841553931 0.039322743579135191 0.12858303928840764 0.17780568382771755 
0.021972127817343423 -0.011937151217957472 -0.61680714997897801 -0.071074088923142403 
-0.39715889416380895 -0.51813625859202128 1.4842333880094105 -0.59935502700368182 
-0.33041162910790717 -0.52158306382361563 0.46703228245991002 -0.19740828061639221 
0.26775309362473321 -0.54206351122190954 0.23022881793565825 -0.25862955921087427 
-0.095821624152259283 -0.46312444863531554 -0.32759679220454052 -0.16716033838740907 
0.11212607604262115 -0.0045831213596453264 -1.0037113980076078 -0.013533178936765027 
0.11212607604262115 -0.0045831213596453264 -1.0037113980076078 -0.013533178936765027 
-0.66601816757482679 -0.052720978158502317 -0.034039986741068874 0.054973970178057566 
-0.23466889648738071 -0.021441528422694721 0.83983703804801135 -0.1664540823968626 
-0.012949169009960144 -0.14476503593685322 0.032418068518942786 -0.06548318552950369 
-0.22395605053328815 1.3849928190741663 -0.41140401172506491 -0.13898917139297887 
0.09863383068441714 -0.013862749539334786 -0.021230672644085655 -0.085951466470984006 
-0.37559407584505217 -0.45525789210411682 0.62808317328004837 0.9160580446667077 
-0.17911710435664085 -0.44446069353386003 0.87350863633307729 -0.11791876710325097 
0.096270740435188629 0.019963675628975656 -0.12038021498072086 -0.17566245744058928 
0.055726295178883313 -0.13344471335846048 0.33733752430253905 0.1063219101766143 
0.13651791875861644 -0.098905411661796061 -0.64659105553186369 -0.27291359041166485 
-0.16801862311339122 -0.80716829916740129 0.29904579168767065 0.61509586074825051 
-0.493184051104125 -1.7170644411822376 0.73998794622379638 -0.30909800433385631 
-0.37696462076566395 -0.0086405947363076101 0.12094687540445559 -0.37483864002348982 
-0.22967986010996327 -0.11532549413539181 0.29018546304547432 0.15246670346367275 
-0.37696462076566395 -0.0086405947363076101 0.12094687540445559 -0.37483864002348982 
0.20840022222588506 -0.79821776440079861 0.18702583970479658 1.0038103680302828 
0.14893422537212558 -0.58647510808086933 -0.047009593644388101 0.31356306456220706 
-0.087680092776823607 0.10673227020413341 -0.062252791732910935 -0.37878028230295835 
0.40509972850370446 -0.17366848973663093 -0.37004951197587349 -0.35434165966983061 
0.16911691681160168 0.54139994500169153 -0.1746759369519893 0.44324544827861811 
-0.77712021921173402 -0.71105248817681455 1.0561213647315881 -0.44376889238094641 
-0.94285091004322896 0.70462653917805951 -0.65248655430750002 0.56599864296452407 
-0.15603234925315856 0.36696727827348896 -0.30271411152515348 -0.083064353674781904 
0.49261435563162326 -0.82047811355484157 -0.32130449910869174 0.21777308481820043 
-0.0026216571045754389 0.59525269972830386 -0.038855852926628048 -0.70724701169258697 
-0.003229342248685773 0.096246761101181619 -0.027893895877745392 -0.75417294936717327 
-0.34856275991588836 0.067315473665113826 0.36437060841248758 -0.50371673971238629 
-1.3205865854618888 0.25310027808231889 0.77877035821283058 -0.16279347202001618 
-0.88299416119075536 -0.47392404644471808 1.7229847682349479 -0.35451907763722917 
-0.092662807871487271 -0.10127562915233601 0.047807660964693764 -0.19259629830759994 
-0.065121662912407341 0.08165413073529168 0.59900293576493513 -0.54859732351711787 
-0.0013500223309305093 -0.48569029898949251 0.34998204139063477 0.021779981112490965 
-0.03587839187470665 -0.18899159038485974 0.26408591866034459 -0.26154726213271456 
0.15123312555560631 -0.56456720746807598 0.67798472140636756 0.050787705717947954 
-1.5498761058424719 1.0753324202151358 -0.7240150841133981 0.38115306872519433 
-0.78820160663159622 0.24589914259969237 -3.2435551067990067 2.9261082958926408 
-0.97117361653537748 1.0221528796463937 -0.47026441560424115 0.18836030184979957 
-1.5362158485125024 -0.79448186059923176 -2.3527894897043198 2.8044791150835184 
-0.19289769705515433 -0.14600954242589195 0.98219613865228605 -0.50091626606559958 
0.60386034124004206 -0.21821073067298252 -0.052927858486759599 -0.49431368938394377 
0.79362966494869813 -1.0320751441740748 -0.44166584547161181 0.53880873411968011 
-0.81368363187806725 -0.28187411390117528 2.1228260471220235 -0.82210687943897598 
-1.3373906670011633 -0.7515381511568261 -1.9719279101580609 2.8654432992778007 
0.063185400980163037 0.024938458287518384 -0.048168943136807037 -0.025959414873636972 
-0.15921097251095526 -0.31765200659380438 -0.0023527420340325594 -0.30519320434182784 
0.52816153746064276 0.12784399565074478 -0.089802404603774671 -0.33511951467296797 
-0.13290459914951502 1.9800464044194315 -0.67156514492876129 -0.016729133478403178 
-0.1909291106754939 0.17614185938562993 0.24585471028564793 -0.019144083540682866 
-0.64970258276040083 0.048968123114244741 -0.1575249859144649 0.58617265839919852 
0.098552548579496635 0.25739293690048448 -0.27182957447168266 0.037404980023302212 
-0.32068356293277916 -0.097841690888412602 -0.74622975208169795 -0.13126051990202792 
-0.054908672897063651 -0.18828752927479622 0.23896776815189286 0.060473508038956729 
0.013844879377404948 0.034368480424245604 0.0059617399438719812 -0.26218409810732257 
-0.4256319864805802 0.52170130360648781 -1.118898289314608 1.3352327997558395 
0.58582518206382383 0.077371522704097695 -0.48999878077090708 0.0073277895727467957 
-0.92824902737133919 0.0014042302221461641 0.14821444441744289 0.0049305179580249169 
0.50747003649683453 0.15233943372211603 -0.56102787731610426 -0.59483780313824508 
-0.25366532587133295 0.29201548841535563 0.49382441924731413 -0.74002861737184578 
0.23880255010190157 -0.10468709292808766 0.22200093277419661 -0.39851769685594207 
0.37784667739695454 -0.25460810743683704 -0.36644852962488256 -0.49804947960578144 
0.27962559664262565 -1.255953265592745 -0.20861213381887056 -0.30580307423996517 
-0.011719542493745065 -0.0016833038352638465 -0.010695345208335164 -0.0025384233854178961 
-0.38259754087148284 -0.073955707043555294 0.73730467698429303 -0.27196591100647549 
-1.5220923435788298 -0.34149630528182834 0.41824517787093796 -0.11711442174032435 
-1.5933117310456195 -1.3915414403390214 1.3193581365765328 -1.6126381456239574 
1.4015998554419538 0.44606221943289093 -0.68675424932706419 -0.29227666785425499 
-0.43682264203710319 -1.1317307676125925 0.37200516123663957 0.23035956226208679 
0.32197777905816172 0.19842829685965344 -1.3380143527406707 0.053822510415529171 
0.068014225906533221 0.070154408761892606 0.070880813344727928 0.0015500226058090265 
-1.2983250003797844 -1.7588134079716271 0.5465477381820677 -0.72217483077696498 
-0.32417097270376155 0.72755575209924261 -0.11287085083082052 0.3220519209186864 
-0.026210308145887172 0.38524243157425953 -0.086052227812121102 -0.22289995835647866 
-0.013726592010553276 0.027130357198899877 -0.052209918791443877 -0.1613947654727737 
0.069701339004333146 0.13191191123713275 0.18454135635628838 -0.40513498827832639 
-0.31646083179732404 -0.18462716564625903 -0.20405391530190978 -0.026731480665805468 
0.019868191534878038 0.11910792068496467 0.21355918809349961 0.042830611603415163 
-0.27025284254047499 -0.24450228880961389 0.053023767450244327 0.017189922398674853 
-0.23938780313343566 -0.24547836083504124 0.35489591253609176 0.013734516920038638 
-0.057502741743962249 -0.33138235640360281 -0.055692625980701307 -0.4501063719092579 
-0.27025284254047499 -0.24450228880961389 0.053023767450244327 0.017189922398674853 
0.73148866882639574 -0.13403798839110315 -0.27704760136343443 -0.82712906778885276 
-0.070886724133417928 -0.0033205655199191123 -0.72298670190389736 0.25137163480735325 
-0.070886724133417928 -0.0033205655199191123 -0.72298670190389736 0.25137163480735325 
0.10150399484126078 -0.07994636959083401 0.014697412647341427 0.052610330039170185 
0.75782142298411781 -0.0029242234471656258 -1.2361343528860189 -0.015001522161759533 
0.47523389008960415 -0.78723329954352728 0.34788079362594726 -0.066755102607566799 
-0.034532934829283803 -0.38138649306865929 0.10875606471601454 -0.0067476234580307326 
0.0016872604018489503 0.018951905173109039 0.00073367379737053831 -0.05598445454681697 
-1.031374422842283 -0.028617044600049948 0.59905434765188981 0.26442479627776755 
0.42063070354958554 -1.3173729290694169 -0.14647722388940096 -0.51116723338553915 
-0.46240498461462065 -1.629062061052778 0.43155528010188243 0.52933285021689891 
-0.18154536375285435 -0.094240697657176131 0.1784371185395868 -0.19819257635542881 
-0.0022769965188779019 -0.0025810955307071105 0.13277369808906761 0.10664380508171592 
0.078683483252408065 -0.13631442314813802 0.32807605498997683 0.16592931661186039 
-0.0022769965188779019 -0.0025810955307071105 0.13277369808906761 0.10664380508171592 
0.51035119395739392 -0.014675135325957003 -0.1703272146584888 -0.77804068065217613 
-0.10226377237348103 -0.60864346956153381 -0.035542168790365959 0.065172212694270149 
-0.10226377237348103 -0.60864346956153381 -0.035542168790365959 0.065172212694270149 
-0.11325785253288127 -0.091787738093880245 0.05587937410336595 -0.17413040137797173 
-0.030760166721039206 0.090324874823219617 -0.04731957033500106 -0.10185093921865912 
-0.034948368970702193 -0.52762507247676149 1.2150400662886414 0.69821882522843748 
-0.46304482144707237 1.3980397982815647 -1.2534468328368744 0.64360625881096878 
0.28917403562873056 0.19604850647396169 0.82838538590197097 0.15588774841071379 
0.20923731556576738 0.23896783740841362 -0.077804005220781236 -0.10762017459055397 
-0.69776252609461287 0.60855727972412887 -0.50967121854387043 -0.010809580726855755 
0.30663579878582059 -0.52798552281980093 -0.65537703172649064 0.57371165530220536 
-0.35905398616744549 -1.7806627633048229 0.16381488177799242 0.33769755901165055 
-0.013128124503848541 -0.0055348399444848165 0.035030166712122487 -0.020981331076361118 
-0.020704516289770627 -0.60759291611159361 0.13048016712504062 0.029195050258984903 
-0.36310452799840903 -0.15852506826981635 0.3177938040019111 -0.099119621103177902 
-1.3972032388129811 -0.0077906346221223305 0.59931157883810249 0.02594130992232796 
-0.092614425170812809 -0.32851889944075335 0.0037375869043608928 0.052399289393785541 
-0.028983579724002395 0.38375608901300307 -0.04431942274004258 -0.84624515675544854 
-0.37816083189129324 -0.49354864452964059 0.23729572352360315 0.40177687046523602 
-1.4874693395738943 -0.24345123344189665 0.080554042841817317 0.045008843809423507 
0.13882951686921374 -0.13078090069374013 1.4500355332087844 -0.061709641853418769 
-0.17078400782685213 -0.4322633153728197 0.69921241982982441 -0.73863862858579377 
-0.39923392899640414 -0.065731686642738207 0.013563761478049885 -0.15288893491047126 
-0.010679339689689083 -0.0032245474465574494 -0.058325565384465136 -0.0026945947760965931 
0.044008222537324407 -0.46142477022165929 -0.002489328050454083 -0.099997430403082621 
0.044008222537324407 -0.46142477022165929 -0.002489328050454083 -0.099997430403082621 
-0.36329479273248222 0.81603143198980121 0.2257807762346894 -0.062398176323239685 
-0.078087670760027789 -0.40590582037905054 0.13837427325404078 0.4909809057166134 
0.026492670165259739 -0.57467442784087164 -0.039619049648979984 0.21385106488345004 
0.16818624610644686 -0.13152382495105711 -0.013304086685107658 0.15596420644344344 
0.37319212077287017 0.61985465592708944 -0.51800110455182136 -1.1690066299677357 
0.58248814334659271 -0.34883439452143994 -0.54367840520953736 0.60441985034454726 
0.41775839376945778 -0.088527660196137711 -0.25645281177388113 0.23159573717699075 
0.097900559105532164 -1.049933453836118 0.049788489965838491 -0.089425747909550199 
0.16541590106131993 -0.1970961362057839 -0.16031276562580277 0.1258142031048492 
0.00043118903343623231 -0.008447340720510968 0.27900661954073203 -0.01811834247508886 
0.07542902206154288 0.060003629608676584 -0.55116505111826974 -0.34703886363163472 
-0.090403267781046112 0.1714524830253063 0.43472952189223785 -0.23626515738827369 
0.16491408067227237 -0.076504458564362096 -0.51886311979862731 0.15540951611060649 
-0.016049427731309806 0.64620042452654414 -0.94440646015431917 -0.032099105895525788 
-0.91073740346736765 -0.22988524026722568 0.83690735860504217 -0.84104287381208676 
0.025954736558233174 0.84028295857577839 -0.71339572221321035 -0.18340810330281074 
-0.71727494276078518 -0.16102224276973287 0.68045698022523404 0.27178183298821113 
0.011820802781605903 -0.17323664969238617 -0.1500061997004889 0.11299506574527421 
0.049231405361853359 -0.071816338694421139 0.012697166548056069 0.029731520310454038 
0.03193060155249236 0.024456429950971074 -0.086069966134151299 0.049989402406839745 
-0.13889779392782287 0.10916412249310756 0.36613254761651887 -0.11740963149678543 
-0.12742629221975363 0.063467836371206066 0.18152281164030709 -0.002186418520309727 
-0.19006709592516099 0.70087418299745186 -0.63041544239922187 -0.007067478554598286 
-0.23738003750936551 0.00051204822570398434 0.055951207976546943 0.25666527137972411 
0.13095470581742763 -0.064912977288682339 -0.080273221752741278 0.14029033124903656 
-0.30127058211621138 0.038988771935362709 0.16622917030692821 0.18624536914910897 
-0.12742629221975363 0.063467836371206066 0.18152281164030709 -0.002186418520309727 
0.45699363788723185 0.0044146355145825659 -0.64242886516019759 -0.26060961792305226 
0.30216623227414319 -0.64226072668189682 0.12321391024728665 -0.23152061268436425 
0.11287496067598775 0.62518443946564384 0.14230170739935322 -0.21737780933490475 
-0.15742364608069259 0.32624821843816787 0.17170990373786291 0.25561194074760962 
0.14934239491379941 0.64974513543354095 -0.41614695947189045 0.24957118728938932 
-0.52762957656584952 0.23773257428266445 0.089989552157397068 -0.16279182041840282 
0.37618924839240364 -0.099840847557430876 -0.58672488064476014 -0.2578572923828224 
0.061205655536900647 0.25795165467130404 0.55080946395765962 -0.24408879657836419 
0.33490160406781277 0.0020032099587153933 -0.51064435293540433 -0.23594012091484895 
0.71385281320122307 -0.33374313107345932 -0.88769256075068392 -0.22202856685825345 
-0.20287783203835721 0.10078403313848674 0.073188382682164904 0.10892934230176929 
-0.15328823080283943 -0.057733969089272669 0.31752003154141395 -0.010042668202903424 
-0.046629596549809638 -0.20115912886417606 0.72146968693337399 -0.10002306401288515 
-0.160476247926917 -0.041734309017384327 0.27668506501148332 -0.36182943835990156 
0.11771412095026286 1.4147071919842973 -0.2651263270009328 -0.73403541805498951 
-0.040747835109416208 0.21293791567888798 0.20619340788278562 0.2424268031249876 
-0.069236987140886636 0.23728995673858952 -0.11493601933650294 -0.014088629265906091 
0.022510013503031209 -0.23733702349148095 -0.0088827232775549898 -0.11445432412272986 
-1.0255179862975061 -0.47900337671355736 0.3778298307556297 0.15277747756711194 
-0.00073076892171600226 -0.0036274248496971206 -0.0023886197599888997 -0.012156882174617564 
-0.070383529203264905 0.33692106821180223 -0.013734092662181119 -0.27004989322511641 
0.016686222583359084 -0.78669729557318302 -0.41241795847686968 0.33164687129488124 
-0.00073076892171600226 -0.0036274248496971206 -0.0023886197599888997 -0.012156882174617564 
-0.00073076892171600226 -0.0036274248496971206 -0.0023886197599888997 -0.012156882174617564 
0.44757519698421844 -0.095769272955427559 0.18395350462269502 -0.29887620567604689 
-0.2967265683749209 -0.0050687134711709884 -0.21730165638483401 -0.011219334654023486 
-0.18028806734879219 -0.21852011914725444 -0.13357346982961199 0.59568979509656961 
-0.21753252186191921 -0.058873539437570011 0.45601304288172134 -0.24298310335560261 
0.6820213654649443 -0.22024116703318822 -0.62978644932863259 0.0016217550571584909 
0.20981390304011693 -0.26822857699086156 -0.22601545130289785 0.71777240551047672 
0.15980144007988034 -0.42001576323869788 -0.26127375972017414 -0.12937048062664058 
0.70527596479550347 -0.0028022451930502096 -0.71736933484286669 -0.0059475436580674144 
1.2854116437807752 0.26515986269135561 -0.44744503669585201 0.19080618728449467 
0.13570229292043812 -0.61735485957576786 0.015861629460048328 0.013950198684036109 
0.18147683599937808 0.86106348084608908 -0.63985446164404491 -1.8603488336680669 
-0.0043270257656777382 -0.45893698974079677 0.27725662741184381 -0.16266590059140071 
-0.15536243499155972 0.31744097711885561 0.23080072274945582 -1.6588294532954448 
-0.012948897470292129 0.22159065006542084 0.15401069842592888 -1.8621007894458095 
-0.0045012867536390931 0.77473987084984386 0.16475676804085354 -1.8584203805034714 
0.36952182756015628 -1.1682519459536662 -0.66718895132374845 0.5092200693752631 
-0.071400109354029573 0.036313583070060794 -0.027927990384172104 -0.02741672327606887 
-0.44824284347933441 0.017591087776948712 -2.5170195184551423 2.3853701209784322 
0.3916213434723802 0.23815708371688968 -0.72484942696388599 -0.97605200128785397 
-1.1551605465858477 -0.52277413126596606 -2.3304113404229758 2.339697542176153 
0.24270967201441618 0.057642225658546785 -0.0048021533606492674 -0.3974731691398467 
0.092524450001650549 0.0082681600368712249 2.8083996368573136 -1.0428697063901726 
-1.507760437111503 -0.50362414512591991 1.5577541116720433 -1.7385073824571995 
-1.2195923526675174 0.075242682624496862 0.38578861331103065 0.16315968166927369 
-0.17889569097794505 -0.19548049651998903 -0.047713091220368972 0.04800718656511798 
-0.098464882243380847 -0.88863201036414896 0.18572827653128002 -0.56961527124457834 
-0.24423310596648759 0.13018179654618145 0.10073342183764097 0.22337679668613825 
-0.3793104014369193 -0.39962365451459458 0.052799399193512848 0.099728181075760133 
-0.12509579976727503 -0.15590141525730739 0.23832110710590021 -0.074424465123045749 
0.15363053161198126 0.04963939223957102 0.1163647783215859 0.05036237000330597 
0.014733754447186047 0.053925901779351193 0.075618074394589327 0.062304206660415959 
0.28937962897540936 0.51789842874611203 -0.72664502094482775 -0.10675467870074809 
-0.59391362310482698 0.23887525094768819 -0.049635865816724682 -0.11247876063403181 
-0.93270735585486197 -0.011205939245007472 0.5869905714367063 -0.85256193951290393 
0.014733754447186047 0.053925901779351193 0.075618074394589327 0.062304206660415959 
-1.1737218093241557 -0.60688289200384971 1.2797364495275521 -0.6034565772242102 
0.014733754447186047 0.053925901779351193 0.075618074394589327 0.062304206660415959 
-0.032602313544266029 -0.19600032823865002 0.059231554781827483 0.0081542752675361398 
-1.1873210227267765 0.69742508992653118 0.4844276957681537 0.051627175260200157 
-0.27972916678700899 -0.58894552607446926 0.50465818237800142 -0.050340581098316114 
0.63490762034239223 -0.039562685769432726 -0.5016617862957875 -0.0076747970830276496 
0.63490762034239223 -0.039562685769432726 -0.5016617862957875 -0.0076747970830276496 
0.35740302389904866 -1.1867249584890587 -0.12184864047419164 0.16608447821641734 
0.07342349277208654 -0.15043831097159394 -0.048825608668176347 -0.029992172622876852 
-1.5599195774733388 -0.039104222645635359 0.32620435251951796 -0.19006450158879584 
0.056997317210284816 0.15640154137351445 0.14823195539847481 -0.095107222515224715 
-1.3221692931691016 0.12625029422764461 -2.6644747075062591 2.6015745254855331 
-0.12842728900973521 0.20676660684878961 0.063896446001716331 -0.19709095378062808 
-0.79655041498481127 0.81191989214525706 -0.90062725440140623 0.75404851358997615 
0.26324592501742605 -1.2792414573043784 1.0159313404659742 -1.5252788307569887 
0.069430382301079258 0.31789126758546205 -0.24458540926920302 -0.18916238564681442 
-0.18830832780205733 -0.10946767990348022 0.085454109574681442 0.051545668134203651 
-0.18830832780205733 -0.10946767990348022 0.085454109574681442 0.051545668134203651 
-0.18830832780205733 -0.10946767990348022 0.085454109574681442 0.051545668134203651 
-0.12457505458353219 0.22142418715914627 0.0033694453206737623 -0.10320401024044767 
0.065654030165321869 -0.035702364416778515 -0.043822961110814268 -0.16296571215008843 
-0.19963234942059524 -0.12187002800121619 0.10481216056768944 0.074431165287621379 
0.3292191045280311 -0.85419949996795452 -0.26673839340691574 0.26566289358424505 
0.084867956920563176 0.36687994431111198 -0.25618794438787762 -0.41836134994900487 
-0.016378251258571733 -0.092079973590445119 0.12609543261009043 -0.31326858342359887 
0.21393827108161417 -0.23634409206082158 0.54485660055648377 0.25348226825721443 
-0.052572514221963247 -0.15669784581072052 0.079575452405645453 -0.069493006301264371 
0.2317995375153 -0.28644323433028512 -0.49474914420010835 0.0071467050311414641 
0.41355814133762481 -1.2655596419111197 0.43927851146065122 -0.18176667084896353 
0.70139916305772543 -0.04707859287736485 1.6095636856399214 -1.289960431963441 
0.32646639865291638 0.55055773339801217 -0.14067702221954226 -0.24294479018924597 
0.11574778467442479 -0.79648785743171924 -0.31828109916053615 0.4233950609430801 
-1.7682889095307204 -1.6071299056276365 -2.3264086332597471 2.5778815367000325 
0.33674429139917378 -0.47059769389917649 -0.089267465472438773 -0.22404817461423904 
-1.1082708186086951 1.6166730439338031 -1.281304650929713 1.0023868440908439 
0.47777463064401937 -0.75101865611935581 -0.080651951278956358 0.93124285668032181 
-1.7331096667856718 0.89849522625553468 -0.44436741010870195 -0.092545438319055331 
0.062797546321066086 -0.99982099511391487 0.034853569453547228 0.11668504575192194 
-0.081544609997442161 -0.030439815376801072 0.11231171830192635 -0.21130757997295652 
-1.0640826806332253 0.030783235884184565 0.40227440790509206 -0.10553228990046498 
-0.024040292585069081 -0.0065885761225207493 -0.87366888443474344 0.85357605343310561 
-0.028671970889701116 -0.0079569120432968661 -1.4172256719188203 0.94145447833144069 
-0.035192983180865049 -0.56314099812012874 -0.82078738905731552 0.87482692210000079 
-0.036408666252936074 -0.0083697382706108825 0.95772820185764029 -0.065774928947773148 
0.55017132052196738 -0.11788341664210063 -0.3325915955115219 -0.12545909551750806 
-0.49740370384509536 -0.0038890989641922266 0.96059068773318201 -0.074762702700297529 
-0.49963948641967171 0.26814335691645963 0.48182349473838593 -0.1095980821951168 
-0.010485056306335616 -0.34930942092840411 0.24670460528925939 -0.19663401007225306 
-0.080717431635956294 -0.17335910080254224 0.31135263442768418 -0.14887690528949687 
0.15401872843596304 -0.1728771346028205 -0.38340038803437038 -0.14911021036178534 
-1.1502072440981956 0.59644120206881035 -0.86356663289757307 1.547270929750858 
1.7848408504197875 -0.68156754149406584 -0.59107123368798309 -0.18096242050602318 
-0.17047695704355531 -1.3148777484981395 0.5401549612998966 -0.76394799802103242 
-0.19505970768274827 -1.2365373699505271 0.86365538138563802 -0.44493957714669907 
0.40659242259176004 0.32241621918951013 -0.51489009493424942 -0.3079021029805098 
0.65210765409894678 -0.54026814093731934 0.10187749217655306 0.065410132922303466 
-0.021330087533445591 -0.24477592456723452 -0.1147176507183299 -0.026688828360979081 
0.04197659909096086 -0.17646055186667528 -0.12338923001078057 -0.22373232625379791 
0.04197659909096086 -0.17646055186667528 -0.12338923001078057 -0.22373232625379791 
0.04197659909096086 -0.17646055186667528 -0.12338923001078057 -0.22373232625379791 
0.04197659909096086 -0.17646055186667528 -0.12338923001078057 -0.22373232625379791 
0.49135917429957254 -0.17403522720172987 -0.19303165531064068 -0.11201879086149889 
-0.4947150433723807 -0.00038997999868679162 0.27791542488993415 0.0027508672631263009 
-0.085114156572078131 0.38613948758071293 -0.01022445381661655 -0.69675041318522024 
-0.4947150433723807 -0.00038997999868679162 0.27791542488993415 0.0027508672631263009 
-0.4947150433723807 -0.00038997999868679162 0.27791542488993415 0.0027508672631263009 
-0.4947150433723807 -0.00038997999868679162 0.27791542488993415 0.0027508672631263009 
-0.032794280444356921 -1.4192483267967189 0.30042734128527332 0.53588812312087619 
-1.0587952042033844 1.406197068826003 -0.021725271423194525 -0.095544836653697438 
-0.68111530852989377 0.10587677546706359 -0.14736667843290877 -0.035070024835665826 
0.18535161116687635 -0.94027272391015493 -0.0053663765368584769 -0.01974488484474209 
0.18535161116687635 -0.94027272391015493 -0.0053663765368584769 -0.01974488484474209 
0.45898028235329741 -0.30234623035795527 -0.041976880128237123 -0.13583791485577437 
0.18535161116687635 -0.94027272391015493 -0.0053663765368584769 -0.01974488484474209 
0.42648474363097122 -0.17445493325870173 0.062575264248414059 -0.027759265219621958 
0.42648474363097122 -0.17445493325870173 0.062575264248414059 -0.027759265219621958 
0.025685030858337121 0.70578387388961938 1.1826570359766519 -0.26713935031419483 
-0.75965538308422331 0.13272017231438277 -2.8093996735985667 2.2001678154154232 
0.42968330062251003 -0.95271894299341098 0.072643199035778636 -0.068598720812373976 
0.92735726486404257 -0.2477656187821082 -0.19320709733716357 -0.082945261485816851 
0.42648474363097122 -0.17445493325870173 0.062575264248414059 -0.027759265219621958 
0.20674889355478582 -0.043696193751016923 0.15344816634379838 -0.32519337804852849 
-1.1582561027161897 -1.4942120999941531 1.1096846386272918 0.16501668110726608 
0.21255168050342338 -0.48608153209183852 0.20135504634650306 -0.34470386183787938 
0.066836804609964051 -0.44647262878824023 0.24639212133783817 -0.2303098471263087 
0.032557511984127492 -0.037485854159012594 0.0885493935775091 -0.044783700026881118 
-0.032534563140667813 0.24153100978105169 -0.18301580463014699 -0.399759100031994 
-0.38308013437375643 -0.115950967528171 0.016110096827947396 -0.03187320656756569 
0.69243872123760586 0.12890034510906978 -0.57575245368831673 0.15514755518515491 
0.43680088873580286 -0.49519645110125987 -0.15637823273229451 -0.35591516680962798 
0.3241037005042337 0.26679712857616456 -0.25092259928009952 -0.017468742752814695 
-0.017821645977222536 0.016458604210019476 -0.10838257168182024 -0.25903509894230575 
0.3477386820839295 0.17349294917098557 -0.33821332940005006 0.22028188106234689 
0.87287328417807664 0.040573077766141663 -0.12517111605347353 -0.089459538785162593 
-0.017821645977222536 0.016458604210019476 -0.10838257168182024 -0.25903509894230575 
