solver_type L2R_L2LOSS_SVC
nr_class 4
label 0 2 1 3
nr_feature 10797
bias -1
w
0.2490221040082744 -0.033473152857604188 0.096062082837462037 -0.051442385435126275 
0.034001651636386014 -0.022013480422883886 -0.037388939936887786 -0.21992954281392721 
3.3938405444161206 0.10029348598013077 -0.83166816633150398 -1.6499446282382948 
-0.013397304168542026 -0.071091263070510224 0.18042676190729384 -0.16618844670118621 
-1.5403305442091402 -1.9323855977878859 -0.91273977586130139 2.5388842127528086 
-1.1047171379684519 0.78536612108875681 -1.4493346472963404 0.50519008624718631 
0.078332904973737752 -0.071933553250726368 -0.090142369316514551 -0.17443589840708687 
-0.30584455141679773 -0.1229776572479972 0.29668768560839331 -0.35103826877425515 
-0.76749704259304985 -1.2154541276082118 0.63979729530278184 0.55672701540697678 
0.31428350284493378 -0.83111272674724246 1.393115416083855 -1.6489336908880137 
0.23889638402550453 -0.34807466165069362 -0.1054767805378175 -0.11281900949036143 
0.071374640410830636 0.25294853796081618 -0.23064672011920312 -0.79832563108964827 
0.045206634684310507 -0.064972779247057244 -0.11103444475386709 -0.20243203120188288 
0.072759273986671272 -0.15438218548607524 -0.044114139397255385 -0.18632064667654788 
0.10677073202956086 -0.042290277640676985 -0.094872427050082531 -0.26175432500385437 
-0.83119442784146291 0.69491247903277076 -1.4608745489864341 0.47481274934220746 
0.10817585604473864 -0.073808461857411162 -0.18720574943567836 -0.16607527884587711 
0.23544080015714336 -0.080062819686774811 -0.21087568015146052 -0.4961912323338985 
0.21874818857054504 -0.211814630587534 -0.041698945423875172 -0.019464917211113954 
0.041232458451689845 -0.017012236989076873 -0.061080821836375448 -0.15837926357234158 
0.16606533693484329 -0.10597549923432315 -0.20412710553840141 -0.42313243491884223 
0.31921598796162176 -0.29068473875514911 -1.3579039647319673 1.0023293931710109 
-1.0147424744322922 0.69374916953023669 -1.7081070332258268 0.55546748246127942 
-0.53464234452726489 0.74573148283390012 0.24363356605967468 -0.28255257557795666 
0.07785652593405322 -0.033274209353154664 -0.079874973399007357 0.035019970062066197 
2.0252785830657953 -1.6969334310734658 0.022245883852934491 -1.6350096536630061 
-0.38014945851076992 -0.093116840964536943 -0.37869112475717742 0.24308377384193369 
-0.035106678914338801 0.038314536720883287 -0.036349921937109189 -0.10589247620919476 
0.54031027719135327 -0.27459256038222724 -0.18807953859659463 -0.31724077302119946 
0.59430812904149988 -0.49577978417262097 0.0045459116570244467 -0.37857670513249564 
0.13661970322230518 -0.064727984853016729 -0.16670026420700101 -0.18568618683470989 
0.050769338455823966 -0.22404337974753086 0.022446179910256166 -0.19463389024102559 
0.12175969498306889 -0.22476180849477082 0.021941818218524867 -0.14636054910075255 
-1.0760985612895118 0.76795589800640629 -1.6087181834638176 0.48343197954748657 
1.4072106596268699 -1.0553216111237942 0.16921222812462799 -0.28456496562302119 
-1.0488623857496906 -2.010326382824144 0.96688118208796148 0.72069271080005071 
-0.14281994569170534 0.78494418982775549 -0.34138642101726147 -0.47891812101654729 
0.16761535873090594 1.0714396113603581 0.01196691033311445 -0.67861085931378617 
0.16761535873090594 1.0714396113603581 0.01196691033311445 -0.67861085931378617 
0.10531245965938055 -0.72351852388011051 0.16477968102008961 -0.93622634382955183 
-0.29074868239840262 0.69583372609275451 -1.8675649358183537 1.1195502904700403 
0.16839342629598678 -0.19787791192963347 -0.091146239659870065 -0.22876840854623995 
-1.6278453378357427 -1.9116006455805161 1.2511474507430298 0.64228636040096498 
-1.4498635796384882 -1.2559447310554694 0.80699467846856343 0.22886124957455634 
0.51511772848297266 -0.46937425119829146 0.012637575796807826 -0.18553634575862971 
0.51511772848297266 -0.46937425119829146 0.012637575796807826 -0.18553634575862971 
0.51511772848297266 -0.46937425119829146 0.012637575796807826 -0.18553634575862971 
0.31079845837314141 -0.24360298333746538 -0.12437598615195102 -0.3237871320612537 
0.51511772848297266 -0.46937425119829146 0.012637575796807826 -0.18553634575862971 
0.63181733648208493 -0.57419519140705033 0.043771240399283262 -0.17605940096269351 
0.017031831521061476 -0.087063812012436029 -0.16953090079171779 -0.088157541693979463 
0.1169503783809849 0.065494553079844087 -0.59987994608482742 -0.58504202566085239 
0.14603786531070664 0.3597895511730213 -0.013520406351148172 -1.0474562933430434 
0.12442529741088867 -0.072185918118525039 -0.0012027839283443621 -0.23780736071722713 
0.021727865495558218 -0.078925329490614649 0.085532469828267871 0.045980606580829059 
0.022205085023030632 -0.2579881087748942 -0.098587675099880062 -0.065132439411479184 
-1.0790947212329129 0.40073244034429062 -0.64337705051218541 -0.028317614058818913 
-0.31412457544952466 0.63180003222577585 0.40135279619981795 -0.018470337667491822 
0.22406499825249851 -0.144871045896942 -0.13551909739171139 -0.53842483008254138 
0.22135057432397159 -0.031409956639755349 -0.13060474994325916 -0.48724950448536775 
0.56249219871811196 -0.64547809181197768 -0.080429079772861498 -0.28815517637283206 
-0.011554607614718659 -0.0098005693872380978 -0.53347192804159993 -0.26249580227174546 
-0.077954916563118815 0.10837151569836281 -0.10752411928932459 -0.36082444094083083 
0.092555351401380201 -0.068531671643451392 -0.31559783233379901 0.12092260950538698 
0.34835943931417435 -0.11739568072937713 -0.11265311332240112 -0.055281350736122115 
0.28078900040281329 -1.1816543383994003 0.984563458555471 0.3977175477207775 
-0.022873467033546882 0.08278305934246491 0.0053236908242848494 -0.38198700436961025 
-0.2867864150806026 0.2263530018326495 0.50717655877603085 -0.8795600345776915 
-0.94754959927080273 0.96217175286474044 -1.7549158385134844 0.41737732420963614 
2.5287843343542966 -2.460493865507543 0.022758152019500242 -0.84457426665203905 
0.11705415863264212 0.010913764160384136 0.064787578211334199 0.029713846186594707 
0.67573911859515601 -0.96941142013165749 0.23027625136225199 -0.31648005589898398 
1.2659316541460048 -0.73514763191339183 0.24075677659203443 -1.0672323790931006 
0.32898314196954648 -0.32618859050413884 -0.25440617043480701 -0.52557296256219432 
0.3413529351243092 -0.17344837257536094 -0.22393780526982948 -0.038111789398081207 
1.5545329805467634 -1.2810683135561232 0.063350448783469779 -0.72797506703304704 
0.11954682499187119 -0.072911031142985486 0.36819201083584124 -0.1981743894159034 
0.28432013322899902 -0.48012853247820403 0.10269920583908185 -0.82833243607746954 
0.6746067180203098 -0.43083771171729235 -0.1302414503102747 -0.54350083252301185 
0.32953605239412909 -0.42951055961377815 -0.271952817328042 -0.14360163356298314 
1.0074217790251387 -0.79607496455692861 -0.010016616174836766 -0.62883593384587144 
0.12553733425681854 -0.17376498352690736 -0.11750944041223088 -0.18968229463179609 
0.42520123387369529 -0.47512980537993954 -0.45511579687833953 0.070151393789442018 
0.096348831075439567 -0.10341671866147342 -0.04136761006075243 -0.13511242252102343 
-0.17833494194770369 0.017825682619988271 0.12122720761465085 -0.3137774478262666 
0.21183461888793992 -0.18279485226011399 -0.11022003566382822 -0.46510039562172423 
-0.25811377400422325 0.63206871599422976 0.61978855286591972 -0.50212109172951147 
0.11457908682026904 -0.1264447929957831 -0.10582767086885224 -0.12806737209586519 
-0.06260540031491324 -1.7497117635013035 -0.55609134316184516 0.27230270143541319 
-0.46494543435913882 1.59056707309484 -0.22755245091822648 -0.17860222170780041 
-0.13852682731693813 2.3012628750084301 -0.38425099733016921 -1.4373557074342176 
-1.3312815776056497 -1.952364183790233 1.2270066115055127 0.58092591559496753 
-1.4689068915489714 -1.5291913403449229 1.234369768613516 0.69089946652897116 
1.6730699598799872 -1.3075078698393585 -0.21418939712479754 -1.7443908165224333 
1.1420189977548347 -0.063733730058108812 -0.14984679628131897 -0.34559332759983374 
0.25836930685335563 -0.1471754150881413 -0.1841414017874155 -0.29337787237176671 
-0.028395222120002221 -0.26386994156625371 -0.1733420130574202 -0.39821389819138808 
-0.39276956098934412 0.089343426949339139 0.11946618363662331 -0.21633541626331054 
0.062472501175946285 0.023893290535072428 -0.53439554719695403 0.011528830947111718 
0.062472501175946285 0.023893290535072428 -0.53439554719695403 0.011528830947111718 
-1.2353633838394269 -1.4855423535570758 0.84192211579414278 0.58919399343702783 
0.85134607009565355 0.38873123308791685 0.014267704725079683 -1.4578545626408381 
0.085461794708482003 -0.069342939606256829 -0.086742372032843601 -0.1334923763215681 
0.47853186937376535 -0.20247020602783944 -0.31368804633622216 -0.87861957350964492 
0.92944153470224777 -0.95226781218745793 -0.040158203392524405 0.43761626112901042 
0.44154972781131835 0.020503593009977839 -0.35241138008239253 -0.0033385007431792207 
0.52213788172653353 -0.42137145343778659 -1.5244330719965009 -0.37458628579783726 
0.013571073973129299 -0.077731362630654166 -0.014505460926618259 -0.21597286967495086 
-0.028380604871208789 -0.03141864030575503 -0.040579748011790373 -0.13808009226756066 
0.66203250260631963 -0.86417016464001573 -0.11039009393947447 -0.74793538850029928 
0.082206339938277417 -0.17029887175875014 -0.091613681040818906 -0.39682621323014966 
0.057022426480299121 -0.058003230828795604 -0.13693924602898311 -0.45086528184400326 
-0.05111794513249808 -0.18958694002696633 0.1337804712403847 -0.11244671355581881 
1.5247399420324079 -0.87052918218589703 0.14605498589631927 0.0034005848502644525 
0.020458209482349901 -0.10682205327074443 -0.064625395275530531 -0.41933211640625367 
-0.057477494330968923 -0.067464486440801427 -0.23726396282341289 -0.95983088599136956 
0.090931157019630476 -0.12669202130627852 -0.15117927390062286 -0.34545832595019738 
-0.42220659317799991 0.24612083745066138 0.36332887858285867 -0.1385588900066147 
0.23875980720263784 -0.17822424955608859 -0.30986347045181367 -0.58631928535155731 
0.12235986945503857 -2.1113417912277805 -0.0092772808117393864 2.3566976101147072 
0.083847172195840591 -5.9004201767538095e-05 -0.030806109540539837 -0.19672982961249841 
-1.091482667967332 0.70019249737049383 -1.0407790652806623 0.075253547227496942 
-0.11237269914827215 -0.11329728994876562 -0.059167965013575519 -0.062003249981737854 
-2.293145916700853 0.78284079706022969 -0.22391362569114098 -0.046754042789463768 
3.8513168354286407 -0.60989056746234671 -0.22543194938716718 -1.5952908406967425 
-1.6461171049329795 0.57943644092152358 -0.32488682069453262 -0.036108363342344484 
-0.55130169482864888 0.40292645269139166 -0.038576500211191855 0.062980903230521856 
-0.0086535852813852971 -0.10943991001282344 -0.044149525643663534 -0.74988208196479322 
0.0091816565248390714 0.1106549021659043 -0.14459319474383867 -0.20229502417819922 
-0.37114062423317878 0.52274744522001215 -0.022974501874643873 -0.44064777217632456 
0.40855281297572521 -0.25033540738732224 -0.56264278023837211 -0.32837412804925104 
0.20883569077006636 -0.12087097943198291 -0.41934351083137456 -0.086246701933666653 
0.04919618744968652 -0.089935654366471773 -0.09338235271157741 -0.26324749750671234 
0.050056146563883311 0.085762348493340967 0.18655737305852382 -0.056656624185270156 
1.0535655979886083 -1.2633287725685558 -0.037175108611086069 -0.89264236188647261 
-0.18241606501541385 0.2964404615270968 -0.84349387843690904 -0.27690428655626587 
0.029686779798487439 -0.013216441702184556 -0.14650659033052543 -0.2370745953384229 
1.2033258290232032 -0.95619873156306745 0.012112597004330625 0.011188048806405115 
0.095449693697926788 -0.11576780037969218 -0.27284458579826132 -0.31365046024349463 
0.45473992780395384 -0.39427028468126379 -0.4296303939092409 -1.0162985983110211 
-0.25005081123484668 0.26764319350302412 -0.38261236217364697 -0.14466521552454017 
-0.064726174680470414 0.45251354119189535 -0.41102599258232692 -1.132455626564834 
-1.3856875558035529 -0.60642166960425326 -0.40522455100280769 2.6161094948173709 
0.15290225641967164 -0.23971035786367517 -0.030035478365872587 -0.11851473673382559 
0.059844125367207193 -0.014916855271681333 -0.17647370489401012 -0.11966671534746047 
0.22489474321848993 -0.21752322693234535 -0.046060652895237475 -0.20918764979422405 
0.50886764285468211 0.016838214150381101 0.30684120558846317 -0.30142123037647967 
0.27620433105666398 -0.63541074626318883 -0.0320107122427776 -0.25046528116473582 
0.27620433105666398 -0.63541074626318883 -0.0320107122427776 -0.25046528116473582 
0.51012677902995851 0.038098352847376948 -0.38579919330655488 -0.22886992943125517 
0.099718278178028225 -0.40531967402590885 -0.24359813819625276 -0.44976581259265874 
0.54763711243286628 -0.88791743507626064 0.1199662074930507 -0.053362399049286593 
0.52828319722332306 0.32293601973660219 0.15418045852692455 -1.708629425785269 
-0.020747909401455239 0.095971284168662463 -0.11745481933977071 0.29110086157002246 
0.54763711243286628 -0.88791743507626064 0.1199662074930507 -0.053362399049286593 
0.036246354122016447 -0.18586125063333769 -0.26429287270907331 0.08186648418485154 
2.8468523515480531 -2.0424457419660875 0.14082555065829133 0.057943295302496173 
0.054157975034993609 -0.036282819382801285 -0.19651109203266842 0.028364021452344245 
0.0026174989472302276 -0.072624803039833555 -0.13618822516797624 -0.086713561554899579 
0.051480172633572602 0.060174222947510361 -0.030022007673933416 -0.15374527606175631 
-1.451222401676898 1.2940356302071918 -1.8825142036737512 0.35190286467240012 
1.9004181448600734 -1.2881181540846844 0.033133512728406367 0.012517590061758344 
0.46698702382862967 -1.1745796827030306 0.020518054573062439 -1.6993560051045709 
0.11257208701573679 0.14450566479786672 0.047129091598396712 -0.014803288510557153 
0.066959135173015688 -9.8027744079708101e-05 -0.095960054236392589 -0.30699696356647949 
-0.089549809892404575 -0.038665773541718448 0.095236613537776654 -0.66547733672684828 
0.3582240623484807 0.091412187160525571 -0.077031454166085131 0.10228816118258682 
-0.10608883550129736 0.14933015883347767 -0.0021692057323379824 -0.23073430327173883 
-0.10608883550129736 0.14933015883347767 -0.0021692057323379824 -0.23073430327173883 
-0.35682995585738297 0.3152484498662057 0.035178270655034982 -0.019405790676471801 
0.13151391344854996 -0.15656982203150716 -0.29440299472679921 -0.04901763202058311 
-0.10608883550129736 0.14933015883347767 -0.0021692057323379824 -0.23073430327173883 
0.010920081860507979 0.026677787689161819 -0.13025769259520092 0.099282192795990279 
-0.41757663484107438 -0.12046006415611706 -0.1386570306292027 1.2482823839196169 
0.25151754555111239 -0.151675797407445 -0.32181344758820801 -0.084377002121695258 
-0.10436658182083293 -0.1954530136553333 0.16921718767293803 -0.15227819353794703 
0.16163273577396084 -0.14314267326056349 0.20086708066418979 -0.76106135244729956 
-0.41757663484107438 -0.12046006415611706 -0.1386570306292027 1.2482823839196169 
-0.1525761632688537 0.16866927700906525 0.44185639606824906 0.015937334877464668 
0.21787537440003518 -0.12716324982684063 -0.14206197916404434 -0.22588602855587472 
-0.1525761632688537 0.16866927700906525 0.44185639606824906 0.015937334877464668 
0.1102499432260606 -0.081277954030744712 -0.11327811427489781 -0.17769969763582535 
0.39199410788398187 0.063404295397691116 -0.26793095714180132 -0.06418531590160359 
-1.0357423100076417 0.30683712417687958 -1.3817040651998425 -0.27872569846127321 
0.071093817269781701 0.10077301422237814 0.061765666105436164 -0.0083906620908216958 
0.23088771157552532 -0.28120111735880693 -0.085675204343503494 0.12879912801179283 
1.6679091652965869 -1.3475873197436168 -0.056405274006735992 -1.1033794630589469 
-0.031525236611352411 0.027439190574851554 0.0043030097603820395 -0.18526357235074856 
-0.014854094986484743 -0.32903619366240827 -0.22438654070537445 0.17719526226018861 
-1.5662744377904747 0.28557773077124976 -0.67972188479643125 1.7697160908020666 
-0.090956559712869089 -0.25663322563300961 -0.023591488225273183 -0.09429885079423185 
-0.19830919886025045 -0.14415927136121004 -0.15673509336201591 -0.77544448326551008 
-0.6415904862639672 0.047253276640134012 0.04157319383426706 0.26427281178758744 
0.29716360264865227 -0.89706503111391911 0.13527574067937576 0.61663253706061449 
-0.019958699508310182 -0.80797340031456333 0.069256886410363372 0.6350391275471321 
0.29772732272300706 -0.11378389393325221 -0.48910778270424887 -0.14535947098589561 
-0.14879801613108556 0.14218902984789394 -0.86450310523150331 0.10783194724205922 
0.16481369885631411 -0.081284386083133486 -0.18834979016905615 0.10468131836852199 
0.23548273018729426 -0.51557023513783939 -0.055228005569681049 -0.39647649888014624 
0.26844868501434394 0.18834719379803519 0.1291718217923446 -1.6249265721371795 
0.67834986776092132 -0.83283273260173074 0.60479433887510703 -0.032010631767064 
0.0088390827188957743 0.10065093908116669 -0.3322694537787016 0.22572187990192599 
0.47718611813680351 -0.25466550110072306 0.62468918404455409 -1.9194714645556994 
0.125986661716222 -0.44220065446968543 -0.0066167392986315743 -0.11138382413012593 
0.35594117244454554 -0.89311384659135606 0.1011201999244172 0.024292641067024598 
0.14813092758537144 -0.29582684949488441 -0.25237924746226875 -0.14366549705639314 
0.14074386251729742 0.013220218901844723 -0.19105054585473047 0.028225708482542397 
-0.32513518343022207 0.80248752986452188 -0.48339879162392568 0.23186657836043117 
0.27923633192679154 -0.49870634427254745 0.73425657954673795 -0.95823880750726254 
-0.32513518343022207 0.80248752986452188 -0.48339879162392568 0.23186657836043117 
-0.31475482669774563 0.18163274403967647 -0.39050336087272897 0.18042528605339936 
0.081174693426366448 -0.21406816485894065 -0.024559405250318855 -0.17935102559621624 
-0.31189451562086024 1.3612488675153691 0.34472174816006185 -1.275406038386925 
0.45655995496937646 -0.15357732433659216 -0.041004540435870228 -0.54669450945131304 
0.45655995496937646 -0.15357732433659216 -0.041004540435870228 -0.54669450945131304 
0.45655995496937646 -0.15357732433659216 -0.041004540435870228 -0.54669450945131304 
0.45655995496937646 -0.15357732433659216 -0.041004540435870228 -0.54669450945131304 
0.023949009310535785 -1.0676781527877055 0.35445889151885013 1.1645559310648157 
0.31319425536833806 -0.30891287475786566 -0.57934446608094503 0.33265238980648304 
0.69671258574862804 0.99488875687560352 -0.33288978485162191 -0.65612951143166498 
0.9686477784134967 -0.63812920051596722 -0.525976261251627 -0.29158627444199203 
0.3148592181797053 -0.055830382762425718 0.72094601131610692 -0.24212258121929947 
0.2294507981836903 -0.46607133448253762 -0.38053381470902437 -0.96361840156414114 
-1.5205738680153231 0.33302276763816824 -0.039777411897920167 0.26498304936534051 
0.14738576759675259 -0.85991463651942168 0.34418040421636686 -0.041400241271170327 
-0.82173447284228218 0.89163852709560121 -0.23160096191455035 -0.080261931843365469 
-0.85095079777027216 0.60787573753741975 -0.30063994638671881 -0.088660360340160421 
-1.3315176684560135 -1.5725934064008158 1.1479591454717633 0.6986734814032185 
-1.3668155697327797 1.4246523171788883 -1.3703261718209443 0.6071069576623187 
-1.5385378513658692 -0.025199845857112435 1.5279235709686854 -0.46343418005604453 
0.091898658345714423 -0.032729288234078328 -0.073220633862454948 -0.1876530003304191 
0.01093862912919185 0.021223807074085596 -0.053090291623225101 -0.16593608268235427 
-0.22905493196679272 -0.21442718125442278 -0.30331713999538817 0.93690240129320679 
0.084282237586633613 -0.13134018206938242 -0.0032869357243434962 -0.085587514191218211 
0.015479715875697492 0.0025345011442332796 -0.31218798471919645 -0.27272910831025104 
0.68487157920644681 -0.45621155168637789 0.15251286031007755 -0.87852680089192225 
1.1201009718881947 -0.66961151927479223 -0.14723585997917119 -0.68796786076560146 
0.65195088638072451 -0.85968394405127702 1.150553917987597 -0.071692339765733193 
1.0327075805643267 -0.85499391434742145 0.22023029673634067 0.37267605355305938 
-0.15516951152501879 0.23847694895018226 -0.9594980024964046 0.627134491641404 
0.14902268285582865 -0.096748643936138967 -0.43439243990202442 0.074784406804376202 
-0.069345513575586701 0.08141362102137692 -0.25569260299714536 -0.72110260797656989 
0.070973740109813693 -0.30185246480731465 -0.055479373353842766 -0.07252446555852729 
-0.026745183210368721 0.042431972167276177 -0.071714260966381088 -0.13013533215360046 
0.25076761796922675 -0.29957033678499068 -0.22089710563102788 -0.46237107490778834 
-0.92534303827642517 0.62363721605013345 1.498657502046993 -1.1395424281166033 
-1.5512457838161402 0.60704937027710937 -0.57174761855928857 0.8126863791314719 
1.1572248998548511 -0.3327328864049432 -0.23715693620302974 0.014156789910507783 
0.076724636375807675 -0.012832973846441404 -0.15066998599850137 -0.19554928499397922 
-0.2390064982401322 -0.57335982337691482 -0.24563039621065125 0.28507721052211493 
0.10203432764812455 -0.078477450927934164 -0.12562182647647685 -0.23536726414283066 
1.3434604887988706 -0.53966778892250766 0.02134728694273522 -0.67903223062608642 
1.3434604887988706 -0.53966778892250766 0.02134728694273522 -0.67903223062608642 
0.038697216152542027 0.071731268201673234 -0.69960145029989196 -0.77603732810116943 
-1.3146489303379403 0.80009746951647864 0.018633546250869652 0.01266531736993824 
0.10098796848987712 0.46075175375235805 -0.32946059304286046 -1.4814482621520841 
0.15190406123171579 0.0024667727976255688 -0.25745122730660658 -0.28995413483033627 
0.24605199497829625 -0.36060957164256813 0.016038734222230535 -0.22101041269594862 
0.18062429288085313 -0.074335213894564683 -0.17004573769138479 -0.184895230197895 
-0.019869146123905196 -0.73690233503843117 0.39070645228223805 0.63873760192900531 
0.05779995049513232 -0.12211556393976426 -0.2116330369234605 -0.4452884667183023 
-0.019869146123905196 -0.73690233503843117 0.39070645228223805 0.63873760192900531 
-1.0310553810617811 0.39189200461101059 0.28393693592861513 0.59377730460954126 
0.034702581933462553 0.55668365421586519 0.83019471696594427 -0.73557097801818561 
0.14531979548743262 -0.27119844170486718 0.05659484122842777 -0.13592082011005693 
0.32500227140681198 -0.18898964377868344 -0.19889843743125526 0.026346698524868969 
0.096563085135660712 -0.1733378660892356 -0.081582539901085147 -0.21295356717708946 
0.059355794970678805 -0.066880406735805017 -0.20706277486644248 -0.18801016386896369 
-0.39540978911494035 0.34280826775084733 0.33201931004791602 -0.57248655526283665 
0.19721243870853888 -0.19603473345902228 -0.3619545823606074 0.26964431961497343 
-0.077884765539051326 0.17174260456600926 0.058567352817694623 0.36749908265136433 
-0.038977652971916021 -0.11277216995922798 -0.58785542828663329 0.78202627871894115 
-0.061606317621676641 -1.3031464340898122 -0.064243747415026933 0.10337521570714302 
1.8943500787215788 0.26469474874216953 -0.32723404409986856 0.49055550721001551 
-0.12543717896740753 0.12326998636961907 0.0036027873716734243 -0.25627133243528782 
0.4446052609432592 -0.33941949677590977 -0.18598057949227212 -0.23124418909435546 
0.13548986641721658 -0.13462511952750453 -0.14085382599722457 -0.32622442366807436 
-0.050272487611213147 -0.12767128107693387 0.071208177209800619 0.16170550233874695 
-0.30670190784397278 -0.70074931452290357 0.021893768879429287 1.5216527346618522 
0.084318341174016667 -0.19498418017591004 -0.23474530355701995 -0.035243884118940742 
0.19418945283601574 -0.18007290384806915 -0.30041060451746016 -0.33831001594887022 
0.26927436557043749 1.461466365777107 -0.44579957490315941 -0.058793027672491463 
0.26268770472940584 0.18769228892913803 0.078618605298655136 -0.026841643644109348 
-0.024888223240804863 0.68483540226391326 -0.21706096504465391 0.13500601840624452 
0.08625935649852573 -0.13042809555214604 -0.083491002548493287 -0.21533419062610348 
0.027841341993424151 0.1347419471163645 -0.022195143096063935 -0.33625692702094384 
0.35399211190199614 -0.26041814320572026 -0.0099818691490290989 -0.24658755715654773 
0.064128199456506718 -0.20644661474191911 -0.058781069420734286 -0.75252895746742099 
0.69800223229832026 -0.62881433215869609 -0.033930262979821754 -0.049121923472026228 
0.69800223229832026 -0.62881433215869609 -0.033930262979821754 -0.049121923472026228 
0.14420734292126833 0.13306403195593208 -0.39646112215607371 -0.010931506326600183 
-0.032249715390364191 -0.15298822706212234 0.026148256068671147 -0.21511150634958456 
-0.97357587561977166 -0.94698807875503976 0.88277496083139262 1.2670014109278345 
0.35800189147545991 -0.14446319912930194 -0.1458595975152375 -0.23208741262824925 
-0.013500327626104905 -0.10912609380118074 0.055966348567452237 -1.371911264513108 
0.011328323823065759 0.0019417268580105354 0.024127320135526566 -0.37733546684033237 
1.7067049570170325 0.040052387734038103 0.18583526261634492 -1.5382137361051682 
-0.39595431880586412 0.84505166392923736 -0.15815862735327857 -0.99276242128322745 
0.036553981008408669 -0.24193328158974281 -0.063543142892725335 0.29039657287368859 
0.036553981008408669 -0.24193328158974281 -0.063543142892725335 0.29039657287368859 
0.036553981008408669 -0.24193328158974281 -0.063543142892725335 0.29039657287368859 
-0.17633500892426074 0.50999074019476021 -0.054367050743638567 0.031079505960026184 
0.21281201761672994 -0.14834739136695044 -0.15053668407968226 0.10495124540331632 
-1.0414104644823163 0.72170192825157664 0.36964254403060071 -0.70825023734759085 
0.011372762013011892 0.0086303046065495936 -0.2515469475991256 -0.12628055249180339 
-0.97278283126292131 0.7306920772873633 -1.105541229669831 0.63142620580726916 
-0.048626194682606413 0.0028346367894372705 -0.059317036924218372 -0.029404996157964811 
0.12567737310556326 -0.099760210429736845 -0.10297070178114447 0.036045292838181475 
-1.9880624018171433 -0.038489725752161794 -0.0050930987926549702 1.3349417687224174 
0.15011706706655378 -0.082349873120312 -0.3537151681118918 -0.31736942055122785 
0.27460205825998041 -0.053351519830246899 -0.49495106430910135 -0.12420681186105954 
0.23862615858250058 -0.21703092100980625 -0.42404641819018268 0.39126087609898663 
-0.099693028446830381 -0.41764059511509555 0.058836578216292179 0.23695293416417423 
1.3665042728429693 -1.733135164098679 -0.33171156386324685 -0.31904641103978865 
-1.2005942323714045 -1.4367996937741521 0.90309298443089414 0.61879158914477417 
0.16225745989722262 0.7862704520733268 -0.0292856185285367 -0.61137169843581129 
0.16225745989722262 0.7862704520733268 -0.0292856185285367 -0.61137169843581129 
-0.0066493958379216442 0.095388634029462585 -0.11180267685932414 -0.39021319985232816 
0.35760624600237351 -0.51546241225094291 -0.075754396468876217 -0.59943849348598655 
0.55459017588790516 0.46697165670742946 0.41199701219200224 -1.3111558195726181 
-1.7369258541718757 -1.4843988750106754 1.3087106162412849 0.76312523737970772 
0.38552108348612263 -0.3067715461473135 -0.37944045705700324 -0.38956655326989642 
0.14553779279662427 1.2641173761368312 1.000185986989067 -0.0739825003385534 
0.040086945175545681 0.011605635130401921 -0.04033975486656112 -0.026458865150921357 
-0.073135680450027926 -0.75950124290931353 0.33943975484983313 -0.59502726816511864 
0.12739604160807194 -0.11363170334335103 -0.26460397190114665 -0.27633920403129458 
-0.29992708058820378 0.71335731535303037 0.049310470707768186 -0.89149548345727858 
0.011921307485494151 -0.3291883895918799 -0.15509343461248276 0.023970096427012283 
0.32397121411294172 -0.041930396359402156 -0.22221064270430871 0.028399486891716119 
0.27932568470253416 -0.27366972641106513 -0.40600905914645169 -0.12395461231775787 
0.23179093014873059 -0.50193803853000407 0.14287405245436077 -0.017510926591795442 
0.15210791846214744 -0.20489147102316768 0.034901714130152403 -0.18351141659815559 
0.011827990872880029 0.040521769394107759 0.048741684895017567 -0.29054381288329439 
0.011827990872880029 0.040521769394107759 0.048741684895017567 -0.29054381288329439 
-0.81591782337481333 0.80195369158490393 -1.7155664081226263 0.14698180062798263 
0.0022377209256215086 0.008817179059144753 -0.15930871541165234 0.14907149795914323 
-1.1660638456465899 0.65081345280140623 -1.3772400612899656 0.29889419769763909 
0.25443221400911031 -0.28497927925525057 -0.10318369362445919 -0.29815296435346489 
-1.0522603984981587 0.79331730612021878 -0.90324558721846893 -0.091543458933848049 
0.93307458829977952 -0.022039057537811449 -1.091248030595269 -0.68834654179345101 
3.0235483716221436 -2.7200514161373506 0.10443722255803806 -1.8422235573254901 
0.38239804376673625 0.048390061710579586 -0.36410722022187403 0.00036175300076138339 
-1.1355063363274058 0.81259110090934461 -1.587552040934183 0.44526611301794156 
-0.7508764267467436 0.37550942724294423 -0.090287039696963028 0.1987569819195022 
0.072959981828965084 -0.062491430291865213 0.059098297519814325 -0.41626305795873864 
-0.55625211723605006 -0.26359221317280501 -0.097628168740240495 1.5027584799081171 
1.6372528688175718 -1.0112574958281599 -0.036397027816632663 -1.3344449199952697 
0.1819834190007541 -0.28780057431065292 -0.17740141168177082 -0.83826752888622713 
-0.59232734940595699 -0.98322270226928754 -0.032965573262708568 2.314323346187745 
-0.43338429166884829 0.46414251809333834 0.35212844685256217 0.049393287935537211 
0.76007904675372107 -0.50778488514488729 -1.0420233079676273 0.45340642973070344 
0.029968823735022285 -0.038321191464615469 -0.36082143259738819 0.14765740396073598 
0.10849190677061425 -0.22824083566652359 0.049269825700381686 -0.46953949851463911 
0.29093445859406292 -0.13078632124998771 0.0030176821535999945 -0.016791964528001253 
0.27860140914511178 -0.17745089791237301 -0.0010635936168786886 -0.80699140687462689 
0.50755094129633571 -0.2602906526485636 0.34256081119054149 -1.9320035418927577 
0.16372270364291347 -0.28259819874585018 -0.15287621521484249 -0.10607795785159123 
0.29093445859406292 -0.13078632124998771 0.0030176821535999945 -0.016791964528001253 
0.30376677843048921 -0.96933270288832496 -0.22060956360040934 0.11497899875414216 
0.13963874213586774 -0.1327028927384698 0.11889196142173014 -0.045504207585147366 
0.4734585358946557 -0.35692889913653209 -0.093531285972132533 0.037900871027055832 
0.13963874213586774 -0.1327028927384698 0.11889196142173014 -0.045504207585147366 
-0.13378925103985206 0.37887518359520994 0.70615518398266175 -0.68137518486776405 
-0.15194306033939881 0.11726737007005197 -0.035718339791828688 -0.083497634673363907 
-0.079652303691269938 0.37265145854396481 -0.57046844520818152 -0.62567779471175089 
-0.15194306033939881 0.11726737007005197 -0.035718339791828688 -0.083497634673363907 
0.0044003651736664127 -0.16877293433557466 0.016946500386172899 0.09618317544036839 
-0.040582651831656241 -0.10966774316858371 0.23688034071439601 -0.22879168764095384 
0.11787242630363914 -0.14015022629018098 -0.089165872991553929 -0.71660765530356263 
-0.75461129288346762 0.96992030325894762 0.88469575748061258 -1.1531739565154382 
0.073087139844940377 -0.10794249988042727 -0.15783889833804898 -0.24710439902753328 
0.45197625619633119 -0.79609089239574671 -0.57218087097405734 0.12167597442236722 
-0.39530527300293178 -0.64344113699905292 -0.018124670201651382 0.94096280723028081 
0.049294628643290761 -0.17984316922404966 -0.045782009140778714 -0.14986712005270966 
-0.33017267152067153 0.062911758769949422 -0.57766474708709914 0.49204349788292862 
-0.22021119410799916 0.041483185595436373 0.5212625573687043 0.053180779489474889 
-0.22021119410799916 0.041483185595436373 0.5212625573687043 0.053180779489474889 
-0.02668767634804009 0.33639100260798749 -0.023721158825077887 -0.60293701260868293 
-0.22021119410799916 0.041483185595436373 0.5212625573687043 0.053180779489474889 
0.19482817898000393 0.13825256088753018 -0.22880837596862785 -0.77964918284455276 
0.31018988832960936 0.019810332298920274 -0.40152624342803594 -0.20954168056731282 
0.66249890966304559 -2.3372066750485563 -0.0095861692623898133 -0.023477548707732294 
0.83354929482715123 -0.12867891890870725 -0.48669238142369092 -0.72123547187199166 
0.38415126718804049 -0.99729282799742147 -0.52202789338171263 0.27555076071618056 
-0.035548241264829666 2.2698157099918483 -1.4528640110217097 -0.5810813645090368 
0.082402217663561692 0.048497653161398521 0.01688233165782338 -0.96371143155928363 
-0.21822287483887037 0.29909307008785158 0.12420436628712789 1.1722092547204706 
-0.081328285169121078 0.029424792235978221 -0.35736618763424144 0.14099643403969603 
0.082402217663561692 0.048497653161398521 0.01688233165782338 -0.96371143155928363 
0.082402217663561692 0.048497653161398521 0.01688233165782338 -0.96371143155928363 
-0.79959045038784293 0.47446085449878933 -2.4148964103158339 0.34855647143737323 
1.4639718131401347 -0.0081471683080045487 0.30045050774566001 -0.88228372165357805 
0.055932033137176131 -0.044053000518851818 -0.17759129064075235 -0.20870105678882195 
-0.47897292558167159 0.69888042735537814 -0.018587763562768572 0.017526264947357408 
0.37122613106646385 -0.79729003000997478 -0.34020022091278901 -0.22059969236510413 
-0.66683918542795895 1.296834500799362 -0.71631572736169691 -0.56668774760309792 
-1.1149376854021198 -0.53166332866089894 2.0127995992420318 0.48694715303030389 
0.006817255893269529 -0.022780221027770657 0.16083614416637931 -0.4589160503106795 
-1.0239921599589958 0.61465392979098032 -0.10545753778876148 0.066069294111011853 
-0.12738935388172354 0.54940118890306633 -1.2498557133900525 -0.51132438417534809 
-1.0038775398348077 0.77169619313261273 0.73033246380531081 -0.46564485771772351 
0.0127235754794306 0.045464765658869297 -0.088380726294825449 -0.20230208928599039 
-0.16991442645048627 0.040793792715877145 0.20697855884807234 0.046080496375345885 
-0.02984147761687661 -1.1620681630873251 -0.014611520664247125 0.35421710459525585 
-0.02984147761687661 -1.1620681630873251 -0.014611520664247125 0.35421710459525585 
-0.03074220367689471 -0.026921916337486806 -0.16434267707442574 -0.34415311572188878 
0.11828843561264159 -0.12835397088380207 -0.11244079753084305 -0.26810406995225183 
-0.11365174521731435 0.17217287377448659 0.12121363211042313 -0.32264828704292237 
-0.2212156998916821 -0.74446095173865523 1.1925029648175713 0.24484473510432295 
0.13427503373137267 -0.11409560567158744 0.35760371470637903 0.020614511119178947 
2.7976878829814265 -2.3138515074293502 0.084947315631719644 -0.91034204811846198 
0.19832662772915435 -0.21528218685343609 -0.13368229999591644 -0.36056629354391589 
-1.1335320790208914 0.88789728933060819 -1.0078386142167357 0.25924563536242651 
0.22831791812908686 -0.15365501780017421 -0.11408390749958056 -0.25992264455530117 
2.330589507291438 -1.9686993487266826 -0.022104551843802715 -0.85715410935034697 
0.28186881421057475 -0.18614766438495942 -0.22947920173009612 -0.09316850267460508 
-0.30851530625754009 0.63337471095117392 -0.049577261276064967 0.62155705616531765 
0.1301208635249283 -1.5987286010344599 0.51224852727577119 -0.60376142066678984 
0.42924088503084934 -0.25741814288705495 -0.74110784167164945 -0.84290128892707872 
0.13552767122239134 -0.62479643277320895 0.087826223532445208 -0.77609605695529071 
-0.31724910774194287 0.78024577971413933 -0.03777336984949909 -0.2393126259381114 
0.30615032890124283 -0.29286740010746426 -0.51016096874769667 -0.41697708781117954 
0.10393229557901605 -0.13681721195852159 -0.00025430763367974285 -0.32009522994503586 
-0.49058388018764321 0.099608124105422774 -0.14602869956517278 0.2882280739544037 
1.3912929518883019 -0.9308825384806112 0.012057400822558045 -0.47307545032330939 
0.18381975230112649 -0.041438885160066274 -0.24600333011340036 -0.20035840529433235 
0.21317816106672161 -0.027455553817435752 -0.31947784818125002 0.038660790806535221 
0.10297024262331027 -0.29319113266181557 -0.26095041497574145 -0.12536466769459167 
0.93124646143991741 0.029279855545462918 -0.22436052097938519 -0.45088162933820114 
0.10166325390679293 -1.9399392828281281 1.1237859711274136 0.85551716955377743 
-0.7417871564645877 0.46765741357420387 -0.57655264727668643 -0.48337788490991324 
0.64572712195602888 -0.32820868562282196 -0.098052225942491286 -0.66538121104108483 
0.68148850246887882 -0.11737095395550601 -0.28758578176659738 -0.33928211521969037 
0.20698690773057368 -0.11179478979571114 0.026002487384377299 -0.12588310178709797 
2.6296548004364615 0.032372347149340647 -0.59926031731955909 -1.6736629024626888 
0.27006803673069052 -0.21204665611224363 -0.33237179969022601 0.0098088771460209598 
0.0822723285395211 -0.062038667361740935 -0.14864071772804593 -0.16195330300219729 
-0.13981762766664912 -0.17649588704985689 0.22209448103710897 -0.29461499862949692 
-0.34786194166333834 0.029735428393901121 -0.056971429765491299 -0.3109793414272356 
-1.2340663953570159 1.557175249086693 -0.70550310870925581 -0.017497522384077101 
-0.25394356610458874 0.3192346369288081 -0.025834448502302244 -0.17591875794010203 
-0.25394356610458874 0.3192346369288081 -0.025834448502302244 -0.17591875794010203 
-0.050892117174875309 0.10701651064243853 -0.113766061167141 0.14918453981776272 
0.15744538814904313 -0.047330432108014353 -0.16347538967217978 -0.34999316529925228 
0.30276019848975566 -0.19288458526948182 2.0381611559756152 -0.043486177184798039 
0.39453124627511682 -1.1460642138355985 0.47069839798189983 -0.93950072619860092 
0.15564452717531715 -0.23075869784133174 0.0061032121490338237 -0.18753254397264002 
0.25024843381271844 -0.18382064303905471 1.9795283176147962 -0.037738952231594791 
-1.4560224030476923 0.89269684200736499 -1.7165662291991395 0.097677054312333311 
-0.29634536239994835 -1.262128959848358 -0.047440546305591275 1.414195757895814 
0.24544719060537279 -0.2128404617141271 -0.28443053254179618 -0.090694616819093507 
-0.18982856864853234 -0.69541454609161901 0.80832097443067208 -0.31910055851025909 
-0.18982856864853234 -0.69541454609161901 0.80832097443067208 -0.31910055851025909 
-0.021750941807511286 0.16813636930884193 0.06470690195906563 -0.18362071093889326 
-0.021750941807511286 0.16813636930884193 0.06470690195906563 -0.18362071093889326 
-0.021750941807511286 0.16813636930884193 0.06470690195906563 -0.18362071093889326 
-0.060912184802606746 -0.0184391811745519 0.058135937570642754 -0.076934497019817472 
0.20467988721797786 -0.15993370825047559 -0.26201364595114052 -0.18878352978536478 
0.24063585944199867 -0.28391901078906912 -0.22567073654554282 -0.22370695011740621 
-0.33961123550765121 -0.33199777767136879 -0.49961972521405379 1.0251911466659416 
-0.46057581149885612 -0.40007884139102023 -0.12621164620786429 0.32083457540141391 
-0.18820566000822639 0.86380394663499904 0.56517675980066429 -0.05445285486442758 
-0.4516297724432482 1.3210213799261743 0.59129412109487089 -0.019439760139734488 
0.059841857896777734 -0.42818333879367743 -0.0421634438210573 -1.1372235591078379 
-0.24914003318652417 0.46696738919782371 -0.029669394330615478 -0.25975643270664428 
-0.28510358958347903 0.22602816797330261 0.013222871246194125 -0.2178504351267985 
0.1778780550313338 -0.29691834688470187 0.24477815971517589 -0.23380256060132795 
-0.90201300833394615 0.14836835190412179 -0.46754348474309604 -0.14873846338895325 
0.10902992343540338 -0.22252592890495063 -0.32825660294669512 -0.43840014319811005 
0.096883761423288306 1.1756092288256801 -0.3962654650914661 -0.35376180536039847 
0.096883761423288306 1.1756092288256801 -0.3962654650914661 -0.35376180536039847 
-1.4651231206576687 -1.1630331570358741 0.83386310547485964 0.63255386215388631 
-1.5929904425131147 1.0192552454343493 -1.6629942088994154 0.89091573334823482 
0.089407761231635574 -0.045801219529673365 -0.097904412543021596 -0.19898114775034356 
-0.11216614810430908 -1.1900543489564632 -0.020433733234954031 1.0959017809780731 
-0.11513703867688888 -0.035870215649024456 -0.10613953631701825 -0.15192173792306338 
-0.43348031860555269 -0.50695637209123567 0.27975449429952109 -0.18722248285378207 
-0.096967762166979721 0.091274411885226031 0.051961920305299447 -0.60450790869465676 
-0.43348031860555269 -0.50695637209123567 0.27975449429952109 -0.18722248285378207 
-0.085609049394347686 0.16339439407454437 -0.0091480630748478863 -0.75188105668118155 
-1.9652175026858627 0.062077641379459647 -0.14250062756244827 1.1810104823264158 
-0.90314893347963787 0.60836057782129338 -1.0413739987858086 -0.82672460697170458 
0.28456161113179662 -0.38528240804470781 -0.24865627446639599 -0.23370261580316837 
0.14149634005507467 -0.54956784746770504 0.11303471300594234 -0.73478199699579116 
-0.0057909644139279293 0.36754146153811645 0.15606466489431736 -0.35523534897800929 
-0.0057909644139279293 0.36754146153811645 0.15606466489431736 -0.35523534897800929 
0.20622615986614504 -0.28110442500472682 -0.12508878207995197 -0.058308934696624959 
-0.60982559005322556 -0.56364152475842333 -0.13669281640385106 1.3701490395203137 
-0.36699664128142589 -0.081357929105413243 -0.17091967433081001 0.11964272474891063 
-0.36699664128142589 -0.081357929105413243 -0.17091967433081001 0.11964272474891063 
0.44423204103812564 -0.18169698686324107 -0.1880074993695697 -0.25822095051585892 
-0.56887647914395312 0.64808954421265974 -0.039808096713396829 -0.49318219335845975 
0.12832697100232579 -1.4548684278895343 -0.22644563838762463 2.408467152387852 
0.81284497353437124 -0.60706699790057428 0.38902286725959734 0.049707936619412356 
0.81284497353437124 -0.60706699790057428 0.38902286725959734 0.049707936619412356 
0.55925764613428486 -0.86914333908681995 -0.75505366084138936 0.95309009360266661 
-0.85115249469370979 -0.063084360535087342 -0.027698593169619264 0.33740838104196003 
-0.24143366107684763 0.28638098699024439 -0.58001328547324049 -0.015040557624715869 
-0.85115249469370979 -0.063084360535087342 -0.027698593169619264 0.33740838104196003 
-0.50977298135356142 0.27371861288696964 -0.072722559596180208 -0.14575272772935455 
0.63755572181811238 -0.30785083885860109 1.3219947341615472 -0.33778113365254914 
0.0015806270125269806 -0.81304156758495716 0.1280888860110716 0.26663207089738994 
-0.35672357506864555 0.48411347659077653 -0.2175287385645028 0.42486655211854535 
0.18874299020750135 0.040541673372419651 0.10911724911528675 -0.0097252571722981872 
-0.042105167818768816 -0.22360526613173251 -0.60424178913083526 -0.042919322793669723 
-0.24724300464771598 0.098387245467734266 0.1170039352923572 0.10514484036017523 
-0.32389702549450816 0.54676100557277696 0.12669861432419899 -0.11889669190563285 
0.53205932830789937 -0.36414993452871819 -0.37944845575954694 -0.56285233276108737 
0.22964258966960371 -0.67051654448687259 0.073964285412125033 -0.024970589877231698 
0.17267078432941613 -0.20439265224624409 -0.048944875160516155 -0.38368039967623435 
-0.40160264288255215 -0.027185509577321687 -1.2264551225876366 1.5165557939692602 
-0.92696772812323736 -0.22191017501067506 0.024809517914849366 1.0948916145166461 
0.18580158410281333 -0.044219548294018945 -0.12664279312634288 -0.27747558031266362 
1.5613206664629322 -1.0265041814716396 -0.52700802645005318 0.31982706350047363 
0.17146075494391519 0.2272164166842825 -0.15843483062059766 0.12280072073135087 
2.8467396826250222 -2.2912948563158206 0.047315315863994761 -2.0969577455955735 
0.14147194201824967 -0.067875947004997217 -0.1887517946008419 -0.48109413220926089 
-0.76371172500923246 0.26516777046803153 -1.8945854385168666 0.60962252102630177 
0.095157212585792711 -0.18844727715516341 -0.014783251858835503 -0.064539684240470768 
0.061095018184447895 -0.1155576731444844 -0.083994644688921941 -0.24383862244889631 
1.1448550272249443 -0.39579715914287855 0.32439775347324784 -0.99834762573532509 
-1.4806459288243496 -1.8535305674615152 1.0223372462000926 0.57754440562563347 
-0.034599796620984578 2.6280455188268337 -0.11709900608295734 -0.20481359952052525 
0.055618961808386755 0.004742521224153369 -0.22851924522447076 -0.41799438504577779 
-0.022843581837639293 0.43675545204914806 -0.46365021170085757 -0.55044146053733667 
-0.097445622128052717 -0.15007750130152203 -0.29941212732973382 -0.53219509737546944 
0.46248125593051137 -1.8023334789949688 1.7324743281012807 -0.21533074505977312 
-0.41489771152955351 1.3161072764457931 -0.33633802825651116 -0.51089781148678071 
-0.39983873992111774 1.370464013248329 -0.25797779601986359 -0.02129900931844602 
-0.22694863465944257 0.1320055319674312 0.0020310371316405867 -0.85646586562248572 
0.14627247533455015 0.046454949899424489 -0.10978259453960715 0.049773136903662543 
0.96077850619335292 0.09908809802656697 -1.6875450045460032 0.081879561963035058 
-0.34210238499194778 0.89579315678197813 0.48522506943190508 -0.48987829308720265 
0.39981089452615171 0.2414454455329938 0.72470148313704263 -0.63603675480250832 
0.40014581861149418 -0.37152018921991059 -2.7256781634306968 0.74057889129202192 
-1.0094164591237558 0.073755931919528644 0.22523072151940177 -0.63275887424208299 
0.32839118958362051 -0.23049319455771222 -0.06965944704424841 -0.01929931942028202 
0.32839118958362051 -0.23049319455771222 -0.06965944704424841 -0.01929931942028202 
0.16501909667381781 -0.23861742754725157 -0.12443356067317321 -0.22308731104401908 
0.66768258001367964 -0.5702835740433192 -0.56283521522445834 0.42897052503437355 
0.70089231587016987 0.36604094361406447 -0.049990217638034469 -0.62884335240321476 
0.57288358548789753 -0.60780946777750833 -0.3769403699729823 0.081632087163630795 
0.70089231587016987 0.36604094361406447 -0.049990217638034469 -0.62884335240321476 
0.60885901561065525 0.48414085071005775 -0.076528478315523174 -0.66074723126767509 
0.2425894780245107 -0.18635733759593703 -0.13232666799636533 -0.34806392506065942 
0.071175740523415409 -0.095680258312165145 -0.010860423177792011 -0.32212464572767041 
2.0781758425862056 0.18736862562179096 0.050671631660523186 -0.46507806973731536 
-0.1243521696823959 0.23892541657865399 -0.056679120517680863 -0.3837432292013922 
-0.1243521696823959 0.23892541657865399 -0.056679120517680863 -0.3837432292013922 
-0.14961829541615174 0.46645679006490448 0.95876378367560422 -1.461154928147959 
0.080174261112247541 -0.046226267666591568 0.24028017165107238 -0.39124189236873219 
0.22326742975125327 -0.51088419801368068 -0.19723606968443069 0.0051846318088971458 
-0.240881572757216 0.079831881107220531 0.24585300456928699 -0.22500854881747281 
-0.25756127989658223 0.20987796653396804 0.035822087554163086 -0.3245057458952052 
-0.56333579031632408 1.2019509876755818 0.20425639384679276 -0.20198585637443928 
0.94009602652553237 -1.1170499195706056 -0.025327266068515101 -0.17051817727722696 
0.94009602652553237 -1.1170499195706056 -0.025327266068515101 -0.17051817727722696 
0.44309756095543867 -0.41265499950632051 -0.29381883981758072 -0.37526300516803124 
-0.079719482561334196 0.26021586266420377 -0.2089527246094228 -0.1636306601700423 
-0.7444351595164086 0.57992830999613698 -0.045221585698501404 -0.024036307529579498 
-0.7444351595164086 0.57992830999613698 -0.045221585698501404 -0.024036307529579498 
1.3429723896580965 -1.1596760563840074 -0.16463691196284413 -1.0093462714867423 
0.21817766217096998 -0.18553714071500638 0.35340701370956012 -0.86389144779324445 
0.17613652934029578 -0.099984114815625802 -0.23922386923146277 -0.0014839923454694542 
0.40911801400584941 -0.69988488353451728 0.28041962394689418 -1.159014822259653 
0.039455886062002787 -0.085900610747681461 1.7979999235148121 -0.28813824287676593 
0.19813902231376371 -0.056470941125824382 -0.10361161541051489 -0.36713619336194248 
0.039455886062002787 -0.085900610747681461 1.7979999235148121 -0.28813824287676593 
0.71188656112244852 -1.0078813369089594 0.36437517750268578 -0.6494837306994683 
0.30138411507238072 -0.72238165734389947 0.077917081692925438 0.028208565469434052 
0.30138411507238072 -0.72238165734389947 0.077917081692925438 0.028208565469434052 
-0.077048775785665255 -0.51365698118665915 -0.24299127322532288 0.75141816436601461 
-0.077048775785665255 -0.51365698118665915 -0.24299127322532288 0.75141816436601461 
0.14785924256610927 0.71413511002680952 -0.67003082156984206 -0.028240483064024047 
0.089426386607990821 -0.10691808361398701 -0.25595871448075042 -0.64217397870328008 
-0.37510667207603654 0.19530330821392988 -0.32630355933021166 -0.0040379148344574234 
0.46340901713332527 -0.3521374507586586 -0.34572232174898648 -0.6416851156868848 
-0.15048404067286134 0.078004375460632436 0.65947882004521707 -0.92417796254718132 
3.2549320095656782 -0.23237551168046006 -0.010723912282965552 -0.12746948673897093 
-0.33551259033377656 0.56810307151625472 0.16459371214876944 -0.16616452358512987 
0.5062961096623676 -0.44631116892091449 -0.37205313468923723 -0.42183018277137985 
0.20150350739532341 -0.29898838176129222 -0.087104687087252886 -0.51836337753803852 
-0.14962224473863442 0.15933194520960953 -0.19606847339420597 -0.85520964299651991 
-0.76105047980669938 1.0053594085689239 0.17866146311947417 0.0069897270789950564 
-0.074451681698475686 0.056883585247403549 0.027788152558730229 -0.14776220195821294 
-0.28770969120355827 0.3879141363308376 -0.28390117864235481 -0.11099639784402668 
0.53313090704392196 -0.086098009829221903 0.0041742420997571972 -0.98621177120156167 
-0.074451681698475686 0.056883585247403549 0.027788152558730229 -0.14776220195821294 
-0.67920712387909976 0.53397187998138729 -1.1544161339182926 0.86672433018964168 
-1.2510709640758197 -0.11420760247051039 0.62297874048981527 1.3422231664916036 
0.22536244300194802 -0.45416663786500694 -0.12745351740311217 -0.54942557847672313 
0.32843978471576407 -0.29512820791624389 -0.64412728447028311 -0.20350798541694523 
0.91623516786924342 -1.0912400794919981 0.76593518229903523 0.2089905216180413 
0.29228713903411502 0.16656174664315257 -0.010397905136440524 -0.17234150174563584 
0.20349436718153455 -0.32723407811943395 0.15122655654117895 0.046007859714856374 
0.77127232679022006 -0.72413550033331464 -0.0031154650954385854 -0.081231663985261202 
0.099670174078201168 -0.072926456193980971 -0.22738410521366567 0.27144765262713072 
-0.29230557008793712 0.63869638829274933 0.02482032946375879 -0.56800751620430412 
0.054585764087055511 0.0067068332770063724 -0.12321407525560729 -0.32691682470633204 
0.10482024680887228 -0.085404299574669662 0.010305743892857096 -1.1107252612021863 
-0.30835195062724419 0.75609996136231949 -1.2133791535656031 0.31460050377197346 
0.17558519656995164 -0.34804885174137845 -0.12376560145851366 -0.044705195267425536 
-0.22172477072014729 -0.12047987772806494 0.97023378991190001 -0.10396898082087223 
0.38539701046261976 -0.12714757954134881 0.026883420763031483 -0.11910550225476846 
0.67940666563195462 -0.21575310230489284 0.045044478686465543 -0.21382399109270847 
0.88648316735735433 0.001024840256945312 -0.51011739757888397 -0.78646856419532662 
0.88648316735735433 0.001024840256945312 -0.51011739757888397 -0.78646856419532662 
0.071887018753487214 -0.052275162294386363 -0.092553179567185867 -0.1641128944472684 
-0.059944829454225947 0.41649710701429288 -0.25866719376679076 -1.1962605785433886 
0.36911495353168783 -0.98708226067188876 -0.50647999638570484 0.098746481037679537 
0.10700062004018593 0.014783099706056936 0.23000732651761502 -0.59544870063671351 
-0.21665684360776544 0.075438907520119683 -0.13966269438231821 -0.30037479573845738 
0.20897498633180461 -1.0218264071300951 0.029109420260513674 0.54156937744534583 
-1.0047565328686516 0.96338708038262177 -1.0557988245168768 0.31759765076666435 
0.96611784384941912 -0.95415040660683459 0.16746987177189268 -0.40156565439309222 
-0.030895521083874757 -0.90969530173868152 0.04342178874469807 1.2569173265149924 
-0.62699141797911206 0.23013428012245107 0.94687368973725805 -0.89553596309057282 
0.37698228496601577 -0.57765500234978984 -0.55939101107444911 -0.31711990390354228 
-0.55504104255678111 1.1103714665774 -0.20784541112030572 -1.0647807618945024 
0.43063258801596344 -2.2922604511252613 0.034486666989595544 1.5641123536584598 
0.57061694357035075 -0.11880437888829688 -1.0435455710758759 -0.44537769247031855 
-0.26357719766633531 0.29733459087973796 -0.038311698507355413 -0.43416711727244894 
-0.605066734021802 0.43934081131892105 -0.1000300285683888 -0.042595659386052795 
-0.90791343384297485 0.78339003040868649 -0.055091618172228643 -0.40275740636042479 
0.40440234122713919 -0.4669093725860739 -0.11550179019250081 -0.20607630830678419 
1.0625982317505436 -1.216205534132492 -0.081941767506606117 0.28099734727668602 
-0.66898408302674761 0.53317635488731108 -0.35102837652797714 -0.29113157787027999 
0.046294372662651878 0.070017792096559534 -0.50541447869962031 -0.041356703019319083 
0.39594694024622251 -0.69846141996497901 -0.27652563913749162 0.62806175116357399 
-0.043355375375095415 -0.25736041761675243 -0.079691641462476509 -0.0087010612187740696 
-0.043355375375095415 -0.25736041761675243 -0.079691641462476509 -0.0087010612187740696 
-0.098136539105287926 0.082639841487277738 -0.060195298118401575 -0.37300825221838835 
-0.73794090836486026 0.15561537382034862 -0.33378648454913057 0.10795504456972026 
-0.12009161357839535 -0.02379183528697211 0.078229249044165602 -0.530582636663253 
1.0953288692301144 -1.2422572447349733 -0.3086886700109015 -0.31261162797247233 
0.064114424833142239 -0.078002258313230585 -0.017014364789104529 0.097165447161993906 
0.59338948734192998 -0.83424691565117082 -0.61793298498218607 0.41069169305284992 
0.35777169401517983 -0.24913858331448557 -0.42032901725348321 -0.016420260129250408 
2.4213237442311364 -2.6112128113714066 0.24713177698646288 -0.74510050306657927 
-0.47934134869180789 0.60102955576340622 0.55451961626541202 -0.14331510102581269 
-0.051906102941255104 -0.62475906741690024 0.23039435441474618 0.61441287597413041 
-0.051906102941255104 -0.62475906741690024 0.23039435441474618 0.61441287597413041 
-0.051906102941255104 -0.62475906741690024 0.23039435441474618 0.61441287597413041 
-0.00075054091289063901 -0.017977335391669458 -0.33816782678006269 -0.11301430084393362 
0.3609994555804662 -0.074593556627564464 -0.34260712064682297 -0.39267838427659496 
-0.0799431987215935 0.46539640668550425 0.11725633332900737 -0.22506409042808787 
-0.1221914942693115 0.012808434706656623 0.085300890287242276 -0.071212747747922897 
1.4265378940085123 -1.4391387564586722 0.51465502920861128 -0.13396728272452965 
1.143781010845182 0.35035017732936313 0.11063858566432228 -0.54228876307793983 
0.20909492745805569 -0.19656809032196337 -0.33163132646848409 -0.16006691981313276 
1.143781010845182 0.35035017732936313 0.11063858566432228 -0.54228876307793983 
0.18848247488024439 -0.10935031438744475 -0.020480958081558753 -1.2662217800907465 
0.56742454860392444 -3.3173404086012628 0.9841992562785522 2.1269171402213654 
0.18848247488024439 -0.10935031438744475 -0.020480958081558753 -1.2662217800907465 
-0.034648616326121311 -0.092517100027265431 -0.053640436293096554 -0.03402234958099859 
-0.027123244997202874 -0.14702400057319187 -0.21571167741329669 0.46042241025878072 
-0.49364491207943367 -0.48089010441324176 0.78173913143115037 -0.22759761667883571 
-0.32539399734098495 1.2731930733639398 -0.6135737654898098 -1.7032844571349219 
0.89088379144968877 -0.39128331096114444 -0.0087631323611622562 -0.063019240501266949 
0.2329204501240783 -0.30668559652234112 -0.057571159274039052 -0.046210907227821806 
0.40563898839057494 -0.43932541605576964 -0.13069416233443198 -0.13426314112508864 
0.070023388871334719 -0.070675893892590047 -0.11411862500294126 -0.37389587799557561 
0.27344502119248021 -0.13655019014092826 0.014228550697677006 -0.47379436643265482 
-0.086306442919281537 0.021573304527677899 0.041500019100537064 0.34630916624094377 
0.18737922515942212 -0.11364899016461529 -0.15973341933700091 1.3469709732931738 
0.1978830176585599 -0.13804255478588173 0.29385112341096886 -1.2970599917619432 
1.0275571530756247 -1.5209047494867893 -0.013899170226925731 -0.72790653028518659 
0.046268062626053125 0.3364881553421486 0.46339339019332337 -0.71613254488056688 
0.026140678921605001 0.27354801920815858 0.47391002734506327 -0.066694459282953672 
-1.2190973595620331 0.85645926811605544 -1.7774636733462761 0.37651218325354763 
0.017905688547063585 0.070091234960272003 0.081119624251996189 -0.96298786767170619 
0.067913503744580606 -0.22463421381519919 0.97707172512947715 -0.20608375454557187 
-0.063432379630731409 0.088931422389399356 0.12393159612427508 -0.14251070304077998 
0.58616825252947369 -0.46099519491824065 -0.46442855997861981 -0.23584799345680887 
0.17416350592418614 0.085114250458220131 -0.23273186281936994 -0.18525164160618693 
0.080214455431875498 -0.099003670215855433 -0.11380064121579989 -0.15298106031702777 
-0.29156871601419809 -0.40867496305215767 0.21102931171623002 -0.17276370904621374 
0.015022144472243787 0.19944301375269408 -0.38734657019116564 -0.59003579767653591 
-0.32152507062508084 0.93675620576342944 0.10282693152355962 -0.027236373910853467 
1.1652024211352925 -0.3128168089683061 0.079000597208456869 -1.067159890812883 
0.28537220154414328 -0.096826570004381218 -0.52635874040208497 -0.037619225951568289 
0.013275053920290811 -0.23539089903006616 0.2786876799283548 -0.42485050553164533 
0.23275464571456767 -0.013551294587965633 -0.11854492656106295 -0.36752319268649974 
0.18024265013477925 -0.13052203111872637 -0.52477576691637096 -0.70198527621930829 
0.2681160419587249 -0.38312504181350104 -0.32577134264066882 -0.29867396816272657 
-0.048618070595615251 0.57426643607977623 -0.314681529768565 -0.31822560036905517 
0.34773380060040215 -0.62469664055789442 -0.088992982134770929 0.023878363519076351 
0.31701725400282155 -0.24916624835713211 -0.061488187195930001 -0.038262336084198774 
0.31701725400282155 -0.24916624835713211 -0.061488187195930001 -0.038262336084198774 
0.24089488826085453 -0.23596484809063717 -0.09745713758581985 -0.26858893314044546 
0.31701725400282155 -0.24916624835713211 -0.061488187195930001 -0.038262336084198774 
0.29947872877967374 -0.37465162684374842 0.57668405259377853 -1.2828750720240287 
0.93162112585133805 -0.6118189601502273 -0.14927263938223911 -0.35552185739749342 
0.56960870255359897 -0.17880101016297384 -0.11322087426332661 0.0081234071953653585 
0.21476849720683891 -0.072605287009606001 -0.13062538121164122 -0.45699880595811615 
-0.50047269845172382 -0.26354707374203451 -0.013699915380550591 0.48595413036750212 
0.47369780517349647 -0.34173300767838949 -0.25952982748266018 -0.041236896123393901 
0.18245349256318477 -0.11686649513632197 -0.18720526869147811 -1.0901207680985932 
0.80159863668393572 -0.63047317532747671 -0.059818129900681527 -0.36295416170825667 
0.11928257997783749 -0.29922374429680232 -0.16684879361097138 -0.15082628237320683 
0.80159863668393572 -0.63047317532747671 -0.059818129900681527 -0.36295416170825667 
0.10552276802624172 0.20257922420022492 0.069790334445966939 -0.041945778473322592 
0.68759418057445787 -1.3076522235381633 -0.41139900297520565 -0.063809662933987515 
1.4347523438244771 0.21938171297799058 0.038340800094516514 -0.94453477274015707 
-0.16828300220048861 0.32986804622349719 -0.040167777669265201 -0.295142038327731 
-0.16828300220048861 0.32986804622349719 -0.040167777669265201 -0.295142038327731 
0.35002865881699785 -0.91585984737804127 0.15219505798064861 0.25869318584693879 
0.15865197840355216 -0.093078710820305555 -0.21554383700935556 -0.31062735969093574 
-0.055253696139802036 -0.045466888042997242 -0.0059059723334179831 -0.18856246823242234 
0.14329512624580837 0.036998819391569168 -0.16450721071506083 -0.70731585285059229 
0.64031066295388417 -2.1083532629653519 0.10728283309558823 -0.17573958541688164 
0.36094424126908048 -0.4007125581469908 -0.34678120728232231 -0.26536080431365505 
0.078595126672238738 0.037765582045013971 -0.04992760121913152 -0.41064706951323043 
-0.67885942420641121 0.6122643492161195 0.0058970124763910534 -0.06719989476054436 
0.14360933113126798 -0.060256775013901656 0.16486901325185241 -1.1027774573584737 
0.087517609993612286 -0.14719856844580886 0.078257433773779153 -0.15704086124102593 
0.14185418995547203 -0.20734898448505235 -0.075127434850898983 -0.41096482813289065 
0.68226409251770015 0.20673011975600966 -0.69658651469584243 0.38278253257085992 
-0.089514361648113633 -0.060515998112819047 0.045406401516500425 0.050246992972256245 
0.020292311011012143 -0.12498864256548423 -0.22912966047304642 -0.27746705687634632 
-1.0675993841895766 -1.7014176780165702 1.1847371692620583 0.64996836091102705 
-0.18504882601376899 -0.026952481800775273 0.11854489804507665 -0.13414909768764216 
0.037334219445631325 -0.066969792512281731 -0.20002543191583919 -0.16838193979896987 
0.82706575436024199 -0.39489179419753778 -0.55148841432955742 -0.23591722141526944 
-2.4740093298929509 -1.0363395345467308 1.8504907509627295 0.33295020398573011 
-2.2247114993951378 0.44246648208722211 0.25900055605209099 -0.025317303919666152 
-1.0521530644296193 0.58500172840026532 1.1317822060297948 -0.11052945926131025 
0.37772540023641688 0.21123478371779142 0.21298756390672252 -0.32306649478230504 
-0.71613481858787242 0.046878892524657045 -0.93767811200312057 0.61149039181350551 
-0.01745829267277306 0.17562458142359871 -0.032796123541533322 -0.22148896304942617 
0.69582235405766701 -0.82939676382758287 0.2226351763934265 -0.49297077489111746 
0.025222895033512188 0.068626512881185375 -0.19671352016668775 0.24199245804051939 
-1.19377134559788 0.56961788959774617 -1.0375785731710745 0.31013240813925624 
-0.68524075433512543 0.39384391301521315 0.1304485265027881 -0.31520962054499246 
-0.078764543519211527 0.14763147174444058 0.11670567836778251 -0.069861087129338584 
-0.078764543519211527 0.14763147174444058 0.11670567836778251 -0.069861087129338584 
-0.078764543519211527 0.14763147174444058 0.11670567836778251 -0.069861087129338584 
0.24454188783654368 0.48435125924419375 0.056338274076393954 -0.25678893773922884 
-0.014912710014225745 -0.019144610268036703 0.066938201884628179 -0.31593853852749398 
0.4162613101613129 -0.12742355039112996 -0.44895336928671492 -1.2315866219874421 
-0.35858560041715842 0.3884039790214634 0.19028224902790292 0.07716287199599392 
1.8044519329059121 -0.95729435298016852 -0.24563143348028152 -0.28009279133600939 
-0.11987790858788852 -0.073311481113218335 0.39275465312081159 -0.16850727279559441 
-1.1793491846496629 -1.8119237123513143 1.1589962643785596 0.59863638620671245 
2.4898602422828073 -0.11511516986071534 0.053519570165169686 -0.95335847692813913 
-1.0806690812488542 0.45359995841553929 -1.8955526321716629 0.32035573569996051 
1.4071534135129378 0.22874619407978644 -0.093247035825950897 0.29883114191866822 
1.5017831087056048 -0.040868525633255992 0.12511381908781702 0.011570372853762251 
0.24483322838646349 0.22389132366495546 -0.52315046554028755 -0.47893197194182219 
-0.21582692332518918 0.14153325499994021 -0.043924481643778802 -0.20345052606780567 
-0.21582692332518918 0.14153325499994021 -0.043924481643778802 -0.20345052606780567 
-1.295552111098615 1.1822232552497269 -0.29227166049978331 0.070671918589676669 
-0.64025681741699514 -0.12613033509041055 2.5256702096179806 -0.21720689025051965 
0.54760626914086452 -0.72337758804499874 0.53220372485444256 -0.24469296788305833 
0.58734533918348841 -0.34669991219454793 0.32027652236938287 -0.98765326519882257 
0.066751132337985186 -0.38028194529349146 0.70356861758336375 0.11602721668239294 
0.089603349690293946 -0.398874023960334 0.32484499289309832 -0.49531348635304107 
0.67901274222006502 -0.43375029176172986 -0.13139486563031672 0.4906841438858679 
0.56086459338530159 -0.40306265530445146 -0.031169705472807591 -0.51134269870271332 
0.56086459338530159 -0.40306265530445146 -0.031169705472807591 -0.51134269870271332 
0.31337342078328601 -0.14675423392132925 0.62180320437198888 -0.050497843159647171 
0.31337342078328601 -0.14675423392132925 0.62180320437198888 -0.050497843159647171 
1.3247148744795598 -2.0119437680512431 0.49747438003064204 -0.026764771267515058 
-0.13155048850737316 -0.060359870475333435 -0.92606097868786508 -0.88433383275880295 
0.1108766105119702 -0.12015671174347912 -0.15441152428105437 -0.21723675068206522 
-0.10773397361569359 0.14172167913058095 -0.013875984925099149 0.022883435209813043 
1.4987174146866071 -1.3178516475558129 -0.0038529614144760665 -0.33116060181303203 
0.1222401745019574 -0.068764813976119082 -0.23056046916643577 -0.22327280228800739 
0.1222401745019574 -0.068764813976119082 -0.23056046916643577 -0.22327280228800739 
0.13797383228090787 0.11599608244901449 -0.32670030625259783 0.23025025659114765 
0.53519145397478252 -0.79668792521558107 -0.058982557754067536 -0.012478178970115406 
0.50336301996038568 -0.3986349818763506 -0.42285143096053657 -0.17162782647756475 
0.40452481024403902 -0.3086220706119811 0.31060774782598621 -1.2145477478821984 
0.21193114375742272 -0.23879278537266002 0.29544485439721241 -0.13919790012731337 
-0.96150833735486629 1.7865559045209807 -0.20301100344821846 -0.060120821338540506 
0.70696890527099499 -0.6396206190682745 -0.43038813002783555 -0.22382805419883747 
0.98625299858655624 -0.41314742325933668 -0.18144521165878896 -0.6520532615208382 
-1.5870909645723947 -2.3008317443270467 0.97759684771981581 0.41373486992720049 
0.87147603686740283 -0.20105326302867929 -0.28620326710324628 -0.68912151708015412 
-0.58529410657990377 2.2845162731972679 -0.15676527680529645 -1.0521744769093633 
0.082645448707474131 -0.23330162110769428 -0.1016957873393447 -0.33700400924399831 
-0.12558436974069906 0.37798775433471471 -0.97164791098615733 -0.20643055859486903 
1.6575859539725482 -1.5346893145831695 0.060753844547823357 -0.21396948179921485 
0.59713899334729148 -0.70501121455860094 -0.63333958712034599 -0.45757790438488588 
0.45515465966912971 -0.39229898821696979 -0.5043309918826776 -0.42175556236989281 
1.2234532682691441 -0.53391343843962258 -1.2801230180929668 0.79870787694241141 
0.10605628599786955 -0.28236200821424828 -0.2916419595243962 -0.15028995314411117 
0.1309960578991286 0.051150296991043752 0.5319084914480291 -0.97523284516896402 
0.38621659653079565 -0.086306386388188494 0.018551344942700318 -0.041970138505536547 
0.14413742335288515 -0.10389264455392738 0.076984211231867078 -0.33677744055181702 
0.14413742335288515 -0.10389264455392738 0.076984211231867078 -0.33677744055181702 
0.18219076231308873 -0.21140922830231029 -0.047356876577483331 0.45417593657924438 
-1.5211396350819362 0.95048267824926647 -1.8348443032378456 0.28584703259243727 
0.14413742335288515 -0.10389264455392738 0.076984211231867078 -0.33677744055181702 
1.6450562716587489 -1.4286642485427969 0.066810089796115996 -0.75058951457701817 
-1.8402783429722294 -0.17933946895416264 -0.65620394978642116 1.5745103337247768 
-0.13872819472479808 -0.10441358153898897 0.90006620402197179 -0.93174723593518682 
-0.13872819472479808 -0.10441358153898897 0.90006620402197179 -0.93174723593518682 
0.38307619107147595 -0.42765196477253131 -0.057668358626660109 -0.65552598666324124 
0.88618791665530772 -0.66460370205603003 0.048273670928241225 -0.39067472899766514 
0.79747482685795501 -0.59912024790877361 0.34751827167020694 -0.34280761449648045 
1.0496439958572441 -0.72342671443388085 0.060458661519289358 -0.33403156166562059 
1.0496439958572441 -0.72342671443388085 0.060458661519289358 -0.33403156166562059 
-0.30977525105464843 -0.1437548612796235 0.55926620389454995 -0.36593291906182474 
0.49224016013499544 -0.63193019021631502 -0.654784398696863 0.16774411545724957 
1.3492886370453898 -0.94437387658737304 -0.054913567591693191 -1.376872877713661 
-0.23613152616453401 0.89969959761743723 0.156173141035122 -0.19238648476179282 
-0.12728720023174195 0.2051114580899992 0.59699454151989895 -0.22766086993954157 
-0.40870935741475017 0.64896587864859678 0.47076417936130499 -0.24609936858229489 
1.6675027828278548 -1.508774924776803 0.55338140159862359 -1.2248034804514758 
2.4966517785499924 -1.8751556825308711 0.051464205212942725 -0.33025891031200139 
0.17559467925309993 -0.11073572919140681 -0.036871790636876289 0.26234686892412745 
1.518294344176939 -0.59229383753137899 -0.7724015046450825 -0.02396740220662193 
-0.47082646435651232 -0.48026190946772984 1.919194639613572 -0.38930161329412705 
0.85831981171861194 -0.97106972782653789 -0.22181646287410131 0.029659037100973853 
-0.19336000467042896 0.29105718457931135 0.098848119145287294 0.061101095139429046 
0.081973078364729335 -0.05569758423052841 0.25595727313603628 -0.12489330905469248 
1.7666533491963412 -1.4467362903424668 -0.036562844248981707 -0.84083905198777031 
-0.51294381772943953 0.99537933232411924 -0.041275310736499878 -0.40789400928038722 
-0.034997795551600042 0.36423683207467522 0.32712855997260404 -1.352560412614513 
1.4918136371113779 -1.3697615000946946 0.0982648397060219 -0.6905082363415479 
-1.0619020709247273 1.0190889394213583 0.25196499719622489 -0.23193049871095411 
-0.065822499380438645 0.055320716555355059 0.059534293975323171 -0.09225892269633422 
-0.065822499380438645 0.055320716555355059 0.059534293975323171 -0.09225892269633422 
0.52292863938135747 -0.63191265248835071 -0.16686780680319463 0.29598822405801012 
1.2689752050104333 -0.66937489847105058 0.56040041326250511 -1.3400450525348675 
-0.21106513391577078 0.11767795217875177 0.087161677390555581 0.036001016463139066 
0.13810479581264751 0.33093308497216378 -0.45696542271800433 -0.21386728576645209 
-0.42898903535786848 0.34741357152519398 -0.58682511957034589 -0.57212309446237908 
-0.012888795382376077 0.4535644543775828 0.19040060312917667 -0.28509499110774628 
0.0032288444656901165 0.031266214515077995 -0.004214620299290546 -0.34775840273744463 
0.17634483156138045 -0.2232012348264972 -0.014813005251722284 0.045248006944732889 
0.40801598305864084 -0.47657114509008863 -0.60238714425513296 0.28922654134021331 
0.21085120132603674 -0.37822587690440307 -0.0080831944843656987 -0.011697907290038357 
0.30276859332504996 -0.18964994089202575 -0.00016122474301676071 -0.42265644474840869 
0.21085120132603674 -0.37822587690440307 -0.0080831944843656987 -0.011697907290038357 
-0.10805186774047948 0.17577866426887526 -0.19961251025995641 -0.5143348901801722 
0.085213524267668816 -0.31388972367609763 -0.65458055404756987 -0.79987396120974363 
1.1112942646409287 -1.1067577371544335 -0.022251711708538423 0.031111303741726298 
0.21862165749279477 0.41746831741507839 0.032426833299591687 -0.016734165075410479 
-0.0039619168169622403 -0.098854323758131718 -0.013799506043407211 -0.15384614462587332 
-0.044959451990780372 0.025687139450374694 -0.014098922273856585 -0.25809368495712931 
0.18916527538353012 -0.082396391047440648 -0.10396312188707296 0.03398000254004558 
0.18916527538353012 -0.082396391047440648 -0.10396312188707296 0.03398000254004558 
0.21722828089158219 -0.17287568556262256 0.068377691343913 -0.71093844597922151 
-0.28389069792873844 0.23261401428558157 -0.0099182706287487925 -0.30056205393697399 
-0.28389069792873844 0.23261401428558157 -0.0099182706287487925 -0.30056205393697399 
0.11942666640267538 0.13085149736265231 0.0084237393905600699 0.34846455979644103 
0.041866630595069093 0.027827178869050385 -0.21877945014564967 -0.2188116353156731 
-0.10751394841920552 -0.75430267546631025 0.28708203781307207 0.52596650063668449 
-0.10751394841920552 -0.75430267546631025 0.28708203781307207 0.52596650063668449 
1.4827386426694702 -1.2963621992939318 -0.026812219599321157 -0.11089776548661617 
0.11316943307203067 0.088955008688366574 -0.16633057637541515 -0.36771535601204641 
0.25037046593349693 -0.88057398607531079 -0.094601294457802271 -0.036803300109954716 
0.25037046593349693 -0.88057398607531079 -0.094601294457802271 -0.036803300109954716 
0.23205269259350503 0.56218574057474124 0.016134704256287109 -1.588655582901692 
-0.5026326910068496 0.63002540400822415 -0.57063721461099215 0.40957900901885658 
-0.024282020258168634 0.12696962899461786 0.025059508200422562 -0.49198102429031382 
-0.95465988383330691 0.10448493999455249 0.92416089427113124 0.073147778440066855 
0.11637411547779317 -0.14521767794618484 0.63772761232999831 -0.80179615173548413 
0.34536828421328231 -0.40171415427580526 -0.61094864849256736 0.1079396718547819 
-0.021891558759757318 0.017977504629368583 -0.49630910088727548 -0.064702423156013267 
0.18387966757911772 -0.079153408030670835 -0.045963294853956935 -0.0027474123176199905 
0.183834033482493 -0.20201196595361853 -0.13746010339789383 -0.42030046309356583 
0.020816183691640441 0.13564884490784479 -0.41999073585446539 0.039025272778834781 
1.8027127651836934 -1.1631108171242515 0.0081274372814890174 0.014216549996492838 
1.5234868847334757 -1.0692724427351348 -0.071896803700741835 -1.3366488478183707 
0.40441345953006047 -0.6206128812773033 0.0084293494748514108 -0.0010726349422759823 
1.6593989212054501 -1.9043504401017728 0.32738098566906548 -0.065834724498201755 
0.94993693825283088 -1.0329578230687524 0.81298049679996576 -0.51507060671981464 
-0.39128725929341612 0.19579593342691884 -0.13931827850372233 -0.10200390285150912 
-0.83006164793510784 1.139657829005831 -0.35740948844694143 -0.278171709786669 
0.15986373656827996 0.70115521171112183 -0.82124082591520464 -0.98275932036716518 
0.1838577297756751 -0.33841333081740294 -0.22568560116044237 -0.77052438728893369 
0.28385426573401357 -0.21326048522391713 -0.19099724805562204 0.087436035894638151 
0.28385426573401357 -0.21326048522391713 -0.19099724805562204 0.087436035894638151 
-0.10104024566006083 0.11982092284458362 -0.060597736970298938 -0.26965131424931721 
-0.10104024566006083 0.11982092284458362 -0.060597736970298938 -0.26965131424931721 
-0.10104024566006083 0.11982092284458362 -0.060597736970298938 -0.26965131424931721 
-1.0293449580104941 0.46247319383177654 -0.82601177133504355 0.77514988874811741 
0.19552477098968374 0.16433385903922307 -0.45362422745656589 -0.52260612309560561 
0.26328236266639898 0.15764528068762268 -0.61285973246754777 -0.4067351310932858 
-0.67281776671916593 0.90129357712448976 0.099440690203782184 0.14557707171787648 
-0.67281776671916593 0.90129357712448976 0.099440690203782184 0.14557707171787648 
0.27625548870432071 -0.25600743359853667 0.15613180925712886 -1.06405376236995 
0.0089445102107195695 -0.66710466401991231 -0.22735688950784361 0.064954505760385944 
0.0089445102107195695 -0.66710466401991231 -0.22735688950784361 0.064954505760385944 
-0.053676905970899025 0.10638463586511762 0.091384575161613996 0.12623248491658789 
-0.017637898796987239 0.14070510152039484 -0.13174613983286493 0.085177332444726944 
0.058851446865135056 -0.15070933561870392 -0.055068112464989938 0.030904888066675355 
0.1830482081274421 -0.61013411884065905 0.12021486570594528 -0.24214918631573118 
0.10941265521386859 0.24211937606233638 0.35022271721726539 -0.34972660964371449 
-0.73364796632485496 0.19785229210711763 0.21897171699948723 -0.68281111686164608 
0.45019990286458772 0.26123614221740954 -0.11500196440898922 -0.52320194196961944 
-0.63651685445847062 0.27676918649715498 -0.048282476489544673 -0.40017820719715325 
0.12558665681096684 0.82428057688323442 -0.10131462488738152 -0.27353175869660729 
-0.29179432294010021 -0.52339386068316762 0.051080178105535431 -0.038617349328935485 
0.14261342231970486 -0.10612678690451086 -0.1623174753916006 -0.26200419126792174 
0.051155513964835718 0.10253072581407359 0.083877709744508006 -0.73105211765437472 
0.15374747283436763 -0.10831775883607776 0.13498809136328108 -0.31391594469635536 
0.080365472228230622 -1.9138293762729353 4.0064942434423374 -0.84921107823034925 
-1.8626509201344585 -0.13820438604044527 2.108417698446905 -0.053806174128235795 
0.26900800776172651 -0.057153267672684749 0.24143522429712733 -0.61589553469561698 
-0.71487251028383469 0.59280633517185066 -0.34912402845003576 -0.018055246955175935 
-0.71487251028383469 0.59280633517185066 -0.34912402845003576 -0.018055246955175935 
1.2059890569229592 -1.0208282983506609 0.010336628211181826 -0.36958961510827437 
1.2059890569229592 -1.0208282983506609 0.010336628211181826 -0.36958961510827437 
-0.56868252933938401 0.81771680753241316 0.073586192279832027 -0.0055699273948627837 
0.33160440201218144 -0.35889924848308685 -0.26174967400611016 -0.16213407199036756 
-0.088874876803292605 -0.043816567981340704 -0.13612985622012738 -0.13695742294283619 
-0.49024924200024211 0.52534180052273216 -0.15707313761246772 0.00077552936344487029 
-0.49024924200024211 0.52534180052273216 -0.15707313761246772 0.00077552936344487029 
-0.49024924200024211 0.52534180052273216 -0.15707313761246772 0.00077552936344487029 
0.078379118444790341 -0.22143727570496896 0.1467249282516716 -1.3237208682325146 
-0.25760057131947817 0.12322200667595984 -0.18125645774327798 -0.54477047587239702 
0.20084091819012992 -0.38961360096229686 -0.20491413825409505 -0.22322023682138467 
0.37635258859533116 -0.28366280572400926 -0.27228974809961964 -0.35921349162656252 
0.37635258859533116 -0.28366280572400926 -0.27228974809961964 -0.35921349162656252 
-0.91619878856443759 1.0875085387501158 0.4720739090668617 -0.37530790814329174 
3.335130057584176 -2.9444017350811844 -0.00047174320761509775 -0.78753831176804678 
0.020072601498776571 -0.0599876677026982 0.026097605828826351 -0.11878160366373672 
-0.17820747049479996 -0.19640662519371632 0.20727710888543199 -0.21395521343489488 
-0.059781698688311291 -0.21006236229811365 -0.42788450309751541 -0.23463520292045625 
-0.05266701118133562 -0.12522529797104526 0.35295273214731115 -0.53566899807094726 
0.53620594289685508 -0.44061845099265695 0.18035899978032557 0.045101124660327625 
0.53620594289685508 -0.44061845099265695 0.18035899978032557 0.045101124660327625 
0.13011216173119172 -0.12537157451276321 0.13085498256217848 -0.1940699261112947 
0.27372647686161344 0.1503027137809746 -0.36996222340403317 -0.91537028409433363 
-1.2053420066549649 0.41562078443795042 0.33015431932954331 -0.33231129067687681 
-0.2588258536760154 -0.65136854243002695 -1.1760539483638843 0.44707241441049822 
-0.12592089265259931 0.10322007100844136 0.093462959849067453 -0.36056211117368986 
0.18816484664513053 -0.13527462418600655 -0.25158951636443572 -0.084427942796723485 
0.39555900559636431 -0.0080946366304880391 -0.0092583026178375532 -0.63183336788662792 
-0.95993525795474766 1.0464616793738224 -0.60540394423483923 -0.14013816718068828 
0.0044278952297780415 0.54424839533873481 -0.76641732485859404 -0.51189829192346081 
0.02843209299419 -0.063120353071067087 -1.3636306644586591 0.48161074551874894 
-0.63411806800089676 0.89636584010661458 -0.52445608466733529 -0.48215322294258006 
-0.63411806800089676 0.89636584010661458 -0.52445608466733529 -0.48215322294258006 
0.0026412532302548045 -0.078858018965277665 -0.12238721573042607 -0.22015460074813656 
0.35952491413472426 0.097521817556490573 -0.7251114567137299 -0.31980737024536227 
-1.6966107358328575 1.1442293283770515 0.19895252523337831 0.014226223590550306 
-0.026105194431533897 -0.023266037504254721 -0.28093057406433908 -0.10626241556495028 
-0.011877079580576336 0.22467050859573043 -0.1411224815419555 -0.76321436783206165 
0.25427801673676775 -0.2953950278825509 -0.29591075362954578 -0.12507109918712814 
0.588360356651209 -0.091638583397561868 0.0068926750125385119 -0.38012407746584359 
-0.32406346113208462 0.6067293862305565 -0.45154282220568731 -0.86623114349767527 
-1.016016143217561 -1.8302987870993821 0.98570772048695798 0.59786273535766865 
-0.19410904286900527 0.1324824548074483 0.12393476300797027 -0.21645676046791529 
0.14391643134263055 -0.17548391816805053 0.08976940075902537 -0.26394118780896225 
0.6863291777734517 -0.29094494122415171 -1.057230836923658 0.069319206109333481 
0.15596605518827578 -0.076103024342551825 -0.13909376896407832 -0.17905906519348475 
0.32118592496551895 -0.06812062298504748 -0.379307818781358 -0.061279754643852102 
-0.16845893979022897 0.12671076656918348 0.26893840275707992 0.06609672835203706 
0.12411133144037415 -0.069205027851722542 -0.12090855119724207 -0.34573272554878259 
-0.34016322291283685 0.82024591463664853 -1.2500298355907915 -0.0075973662015668547 
-0.34016322291283685 0.82024591463664853 -1.2500298355907915 -0.0075973662015668547 
0.59354183647338066 -0.68134842823400354 -0.64670360235051139 0.26157350617789976 
0.2002874149719337 -0.38036763441556998 -0.059721151261415001 -0.60443950185252315 
-0.045843265687066904 -0.17102751510064634 -0.010299420493499509 -0.63094165326801144 
-1.6821891555293831 2.0533384472847231 -0.14233004797839158 -0.090659367658181111 
0.26942246334859299 0.0015370412815454565 -0.50395680992469938 -0.18432951309900575 
0.68356872611200958 -0.37466476549353089 -0.34405597315833714 0.25625155397829857 
0.26942246334859299 0.0015370412815454565 -0.50395680992469938 -0.18432951309900575 
-1.154496763104738 1.2153102437630003 -0.0058722431490005958 -0.048841654447762561 
-1.154496763104738 1.2153102437630003 -0.0058722431490005958 -0.048841654447762561 
0.84737493360438576 -0.50064460174750613 -0.5976829066596766 0.096783862759140749 
-0.03292765162353227 -0.25354867221212818 0.023104136183858419 -0.66007450160246794 
-0.72405762650432393 0.75208463436472583 -0.21703060299907584 -0.3678540884668956 
-0.72405762650432393 0.75208463436472583 -0.21703060299907584 -0.3678540884668956 
0.40880629870081586 -0.45223332177824244 0.052510974461440214 0.31720558552773093 
-1.4919728654708762 0.44196121042473002 -0.56185451007682252 1.2008420008017469 
0.97891373953225247 -0.24044276130036465 0.27095861266315791 -0.60555910176611816 
0.18155487752181321 0.24224708482625901 -0.94924852152281225 -0.38708629190426397 
-0.11057676724000194 0.40452487145141569 -0.007379775669831474 -0.26571621857405026 
0.15315174419099931 0.10450111160727359 -0.64308443520435521 -0.26793113215414882 
-1.6706861381937115 -1.4821107048808226 0.97572230065776233 0.57925363643070837 
0.70941732875187646 -1.0814941341457331 -0.34331067576581192 -1.1564352985507924 
0.47388036346196977 -0.2300985980942733 0.096876145110173201 -1.1560319997301025 
-0.60145701652405825 1.406081195064383 0.20788828569906476 -0.51238076733064519 
-0.04294396416527814 -0.051597218440554989 -0.0047722005425085683 -1.1831399914496785 
-0.015304446273349693 0.010044721168493479 -0.019255605364139901 -0.10167123555168439 
-0.72550494963629475 0.6827603810459586 -0.22028827201006429 -0.011461427673014515 
-0.72550494963629475 0.6827603810459586 -0.22028827201006429 -0.011461427673014515 
-1.0230068739683555 1.4849326603121533 -0.35840742292729671 -0.39949891184980879 
-0.063458162917142152 0.22683882696867022 0.026009860998345801 -0.017054221418843774 
0.16233826143902338 -0.11546028287034633 0.1734842472559196 0.12994022561229601 
-0.95310073540846063 1.9848734520020412 -0.05604737436471037 -0.7391701401908769 
-0.2419351885300626 0.28205653668665454 0.33317912140480305 0.0095768277093597753 
-0.079964129902404535 -0.38951529819478276 0.64415389443852333 -0.26219038181327242 
-0.079964129902404535 -0.38951529819478276 0.64415389443852333 -0.26219038181327242 
-0.079964129902404535 -0.38951529819478276 0.64415389443852333 -0.26219038181327242 
-0.079964129902404535 -0.38951529819478276 0.64415389443852333 -0.26219038181327242 
-0.18982402060520234 -0.56555205469562275 0.38593387693303671 0.93846372099341768 
0.15211801882255188 -0.18235057177566361 0.049839002327179249 -0.33263632661588693 
-0.18982402060520234 -0.56555205469562275 0.38593387693303671 0.93846372099341768 
0.42163435480695655 -0.34409111424287897 -0.23406944954698272 -1.4725293289612451 
-1.0527496526426408 1.0146693115032546 0.14330361562450852 -0.035853010050333894 
0.04600451866280042 2.1734799850987874 -1.0671058686756594 -0.77635627752275438 
-0.12612603708135792 0.1360887517179028 0.021480754843680859 -0.11988419357985299 
0.25733810748539304 -0.59060988606793463 -0.3510117895646242 -0.043858344089543755 
0.40198998014750925 -0.99015971674596925 0.89707418810187156 -0.7885993929982783 
0.38856308579288551 -0.57104981275106625 -0.43838925420511976 0.021225616745440542 
-0.19892699016388418 0.58759697172608427 -0.7492742227971958 -0.25217540915762332 
0.17213753940171983 -0.079468875682496692 -0.47225431472261642 0.016110487593462522 
0.33960185263943021 -0.18310441631459462 0.57053984614637177 -0.12303978947151094 
0.33960185263943021 -0.18310441631459462 0.57053984614637177 -0.12303978947151094 
0.46659283101261273 -0.64629152225791264 -0.27116771345587287 -0.08602138771615761 
0.67146303749747316 -0.49600862203818008 -0.27833020794928509 -0.31909998455096938 
-0.36301205141928095 0.77245844340347469 0.013223434709711237 0.021991564285622284 
-0.36301205141928095 0.77245844340347469 0.013223434709711237 0.021991564285622284 
0.030883046749791199 -0.24351358487545005 -0.11666581664340425 -0.93385142056182957 
-0.25015649838880005 0.042550262257821297 0.62141737824839605 -0.26585112639423569 
-0.34135763020000515 0.30836025077715301 0.1255366215157695 -0.2912017071056196 
-0.042205383277781894 0.00017961435867824838 0.094707479893159932 -0.41672666297509614 
-0.11330878913679286 0.12469392739014368 0.068572582901966522 -0.087951003974203606 
-0.11330878913679286 0.12469392739014368 0.068572582901966522 -0.087951003974203606 
-0.51276995764802824 0.44404960807298555 -0.15081700648943624 -0.82306798330284114 
0.36686521350248924 -0.19625547991305459 -0.13009955007731577 -0.31624922685868917 
-0.3746156385208001 0.38302983294702936 -0.029827123121478456 -1.0022278042603536 
-0.98132702619632473 0.83308754103182237 -2.2481165384724364 1.1893942365320043 
-0.45219222908166778 -0.76422919073455786 2.2384697633759716 -0.052834682789203793 
-0.12606817110860236 1.0997412982422718 -0.0055678283384777202 -0.7840428015795442 
-0.50194234492545897 0.54078646498747174 -1.7853186479456427 0.51177040029978504 
0.11773241931206088 0.15687324201517514 0.2046810440260457 -1.2570016756920579 
-0.38765728414027434 -0.0099716484713629483 -0.42445677062902837 0.89755629650736413 
-0.49357910530669513 1.0939526339721766 -0.013899611058255525 -0.62967805954005951 
0.9661821490450353 -0.67531914151131656 0.033125418821294494 -0.65850220819014837 
2.1401653996879988 -1.5499073144733886 0.017241764214709188 -0.46410370648022231 
0.5693460342391955 0.42794457834452676 -0.69640062636977684 -0.46027333726527359 
-0.082635397728803878 1.5011578499372806 -0.30875467419214381 -0.099824129839627407 
0.13119541602275814 -0.18777801298253918 -0.17262068530090413 0.089131045399870434 
-0.22867643086472389 0.68558993414456815 -0.001591207756527881 -1.0153839269043425 
-0.45261422388011663 0.49341511248422371 0.20737283852594332 0.22357549141864796 
0.087600047297753822 -0.090693724251616079 -0.0021553480082830562 -0.79626064213440517 
-0.0095886918208450307 -0.036946499867494459 -0.060217624710169913 0.88192997218506408 
-1.4174758518055903 1.2081309525929937 -0.86601197445996603 -0.30454308753744136 
0.38158155869392724 -0.52474943109749961 -0.27745606856224569 0.13103584060729312 
-0.22038786589963924 0.28574943428136784 -0.020821866720646419 -0.035614585196873674 
-0.22038786589963924 0.28574943428136784 -0.020821866720646419 -0.035614585196873674 
-1.2987792147545143 0.24585594038221092 -0.64490134546912903 -0.40208164263065521 
0.35152771831431329 -0.26650327092120896 -0.43310377907706377 -0.51170147995540172 
0.14095469240952113 -0.090163252381261758 -0.091847225588691711 -0.30337272109559249 
0.26712458180621407 -0.21761253032183026 0.20243692870062829 -0.5378552060618792 
0.34967351015989395 -0.15767677141884079 -0.40243669351392863 -0.69368910142395734 
0.19793159784282416 -0.33393014294124151 -0.0609672597507257 -0.04759081725084538 
-0.54634942011195275 0.27563115937237681 0.19988382248014744 0.073867657842065282 
0.34794792273179564 0.087043594317233325 -0.20831097330692008 1.1773081144409638 
-1.2890256406366754 -1.2580762634736622 0.96027387332872194 0.54800333191188677 
-0.7747151076061688 0.72858037913188889 -0.30216376850107424 -0.058837043487802304 
0.51584088239426662 -0.42247972440070847 -0.13453113590046184 -0.53934491245944249 
-0.1514106912057479 1.4988019737420668 -2.7682258327318969 -0.44610976305122096 
0.1255184480471411 -0.12436117514608044 -0.27966783738720952 -0.57986045771099293 
-1.2099434707192391 0.22550217102068196 -0.052648053500184609 0.24718094130128954 
-1.0728233610858848 1.1764746087845372 -0.39276039550366176 -0.36692228869172272 
0.84423471081540347 -0.72123044095504218 -0.81701977929091696 -0.5988553483296245 
0.68495490493499389 0.1569115718681118 -0.85811548077392408 -0.016445796583398703 
0.061210137796924476 -0.07519577200119161 -0.14176375371515637 -0.43435112816669891 
0.96227848013775008 -1.9933205959115265 0.023229327388748597 -0.035596430653525385 
-0.51888967458155721 0.6268688610713119 -0.029257995288676925 -0.36313761749018347 
0.27466685608144981 -0.29329846034208601 -0.24997300051140595 -0.33195968691489303 
-1.2298780458716201 1.7644432020448488 -0.057417972681290987 0.071394599179270768 
-1.4551592301837666 -1.8816054706916834 1.0864773848158809 0.38517741194940858 
0.24023518923334652 2.8764140324948086 -1.7018698532375751 -0.88467627816743255 
0.36938641631634589 0.041966937733269802 -0.68564116365411676 -0.7185545803090162 
0.00057138772691314038 0.039406785942495609 -0.050200475902629993 -0.052516447699856063 
-0.18104991068703669 -1.1127187385224366 0.026886531542350704 0.383562529735756 
-0.039604563858529285 -0.085599349840651248 -0.25254431573631803 -0.15870580950840488 
-0.78094033656120754 -1.0877415967146979 -0.7329005584663576 1.6851111702476398 
-0.47683153436985831 0.56345235317306397 0.28431146675407559 0.10941339241416861 
0.083187876671171015 -0.033482999893203226 -0.043785403095818229 -0.35938763515557826 
-0.06865154962307532 0.15947531469870449 -0.33130601489946354 -0.047605338747069251 
-0.06865154962307532 0.15947531469870449 -0.33130601489946354 -0.047605338747069251 
-0.79484368285160367 0.08907131400852307 1.0402108881071896 -0.25768762328000744 
-0.33723725587972286 -0.16372705143513214 -0.14542707069567032 1.8054663316384758 
-0.43034511324072799 -0.32977509044503772 -0.2044702686686036 0.12441511611492445 
-0.37240285431312359 -0.28287918006148383 -0.23247631739535615 0.2316546284666019 
0.072942041803752744 -0.045211643780779784 -0.29391310393223524 -0.21602823654498521 
0.25369387246628305 -0.44604507929146758 -0.31049603887372129 0.25859102720159788 
-0.93359709978661642 1.136735030346077 0.14391277942629302 -0.40064299386623586 
-1.0122913569280967 -0.42807244081398077 0.87902496787027884 -0.42021964491723529 
0.46651382587257179 0.15712054795482122 -0.13119967127718898 -0.75333060767327364 
0.34428791587662355 1.4700258665466466 -0.037950391441740713 -0.56996175371828128 
0.084337428597256334 -0.19376667465479294 -0.05658107408963739 -0.061564866186686301 
0.084337428597256334 -0.19376667465479294 -0.05658107408963739 -0.061564866186686301 
-0.43170873028861073 0.36772862064358353 -0.25970159992803954 -0.22858841981592948 
-0.43170873028861073 0.36772862064358353 -0.25970159992803954 -0.22858841981592948 
-0.42909493824369749 0.59471224139948131 -0.51165733575169792 0.53485654839809404 
0.14149640698390575 -0.11523718193862231 -0.30495153397484998 -0.21412243589377264 
-0.14796548085736505 0.15459996758831204 -0.11680494599671333 -0.074104508655729789 
0.77927430440753953 -0.17437833965702532 -0.74637330089743792 -0.4737940542348823 
-0.38663358640597323 0.12386114021150255 0.36322675539728427 0.036215978830044487 
0.40816881820014633 -1.1667988401869591 -0.45827032196113865 0.22075991205829243 
0.067830019075918249 0.19249836021796501 -0.3910334264618196 -0.15906407427297753 
-0.90304287693820207 0.62289634825514573 -0.10809544415399086 0.17873676325912066 
-0.046571075383362144 -1.9959107971917462 0.10041006191866764 0.54096250061404194 
-1.5042551226584204 0.62960791524620685 -1.2913800846559664 0.016060643796312113 
0.30831540636902954 -0.29833055277362641 -0.17355025505855606 0.25292162980697702 
0.63860845250883425 -1.2029948105804329 0.90637387755408727 -0.64897825292575351 
0.10888052266151151 -0.028773240707860553 -0.4422087746686354 -0.13385325925587793 
-0.41354620635655337 0.55305455461699593 0.00075815980261723158 -0.07988651339636027 
-0.41354620635655337 0.55305455461699593 0.00075815980261723158 -0.07988651339636027 
-1.6109252092976865 1.0766444143231448 -2.0792954678145437 0.3445841537656551 
0.15874362101830164 -0.58999333854191849 -0.17145223355884515 -0.32359996546498609 
0.14981315817706189 -0.13363364877242789 0.17164073911761363 -0.60989559271258931 
0.85277453751520427 -0.092599774815916525 -0.20885636760787987 0.17028531284366821 
1.7763649247237023 -1.0296942130300291 0.50746198428732248 0.49927347891545959 
0.19969530213029416 -0.16282174703004762 -0.089247609137717426 0.010781101216257419 
0.15069166051658461 -0.37599153088059789 -0.24718829581927693 -0.46544819340710752 
-1.1475993010397232 0.29985926685675057 -0.091231745220065802 -0.037521565989336127 
-0.95086366102981346 1.621829690904588 0.083491720230810806 -0.57150903217353732 
0.37833815342862132 -0.033109794192767203 -0.21226464774431142 -1.162319501053857 
0.059555460550337766 0.035276340802910894 -0.42207369248221138 -0.28912699817595988 
-0.74970171957273934 0.72392369666961232 -0.016230858218587788 -1.1197106281599345 
0.26114317543314058 -0.69244682784033684 -0.24222648334764771 -0.53715909479340263 
-0.69887138835736662 0.78497016765342509 -0.31064141749617091 1.1406868899397622 
-0.88426716937348426 1.0858584187559581 0.20754965057271069 0.63209977855124178 
-0.029055349146917923 0.11145413482999159 -0.002091334821722024 -0.20316671112689685 
0.069836919527258012 -0.010883712038737954 0.011562531622943394 -0.49536801755646365 
-1.2304352375431213 0.82186590377063384 -0.21039250443427004 0.0565943324869016 
0.069836919527258012 -0.010883712038737954 0.011562531622943394 -0.49536801755646365 
0.069836919527258012 -0.010883712038737954 0.011562531622943394 -0.49536801755646365 
-0.47451072520093085 0.55288668881012393 -0.30006206048822082 0.073790284856267471 
-0.081187699392773413 -0.014847056471129813 0.18528777743101305 -0.27296306519169561 
-0.47451072520093085 0.55288668881012393 -0.30006206048822082 0.073790284856267471 
0.22674863581979721 -0.34671793609192897 -0.081957898299501022 -0.31586247328542111 
-0.33943663050866602 0.36228232992363529 -0.27620478722529374 -0.23337090038771621 
-0.33943663050866602 0.36228232992363529 -0.27620478722529374 -0.23337090038771621 
-0.33943663050866602 0.36228232992363529 -0.27620478722529374 -0.23337090038771621 
0.19234459088542674 -0.26765891741401948 -0.46795359727935026 -0.10893136829742542 
1.3574907949793462 -0.80002841558454463 -0.010102701144871419 -0.11623271228369204 
1.7960022742504966 -1.2508701066266799 -0.077483944327290943 0.087438824802216319 
0.074972489360192573 -0.34610647665681415 -0.34352831495244085 -0.83414554346708203 
-0.10013077733754246 -1.1096108306826458 0.12033954456601467 1.0104366390788382 
1.0982314037662655 -1.8802709312207009 0.24403964549225721 -0.0095323164043832689 
-0.36769529722535849 0.74135113824171783 -0.20493426248510557 -1.1381082780924017 
-1.0696440086800729 1.0621583584474701 -0.53589595536877122 0.010393184570529457 
-0.17356471130080237 0.47732822641611067 -0.46364820744545732 -0.52939030600587178 
0.13525896019389022 -0.25848964487826964 -0.0028933467859747902 -0.14642483742129847 
0.073623470468333049 0.14033743252591127 0.20631369157580937 -0.41774387165227544 
-0.5872799507471772 0.092900771690815537 -0.13136701603503306 1.9414568259571472 
-0.5872799507471772 0.092900771690815537 -0.13136701603503306 1.9414568259571472 
0.31335351430132447 -0.37470131259513179 -0.58956951129311908 -0.20086708731099986 
0.41919351975870894 -0.35711427195548667 -0.070752701908939453 -0.19160220115496246 
0.0018667014880488081 -0.040385276392663629 -0.098888365933057248 -0.044138960409863398 
0.051619321998759099 0.0029517181562970854 -0.13204750054436371 -0.29377784484925706 
0.4457788129298369 -0.49879424945750345 -0.72067596884149732 -0.33437253229428654 
0.035781668720458633 -0.15153201715348735 0.077094325333574978 -0.29988040063375643 
0.19121038364202225 -1.2166440656152826 1.5949320704114656 -1.2593357258401421 
0.54063121325620012 -1.5938449407771982 -0.41813841396123297 0.79405062320550956 
-0.10880915581578038 0.039353439034024121 -0.22431226751870878 0.060849615545258542 
0.76778324971358058 -0.65095624397326768 -0.042089688278077929 -0.28890306268489774 
0.76778324971358058 -0.65095624397326768 -0.042089688278077929 -0.28890306268489774 
0.12446813811546305 -0.5744613581882031 -0.13979443681916662 0.80903786736810912 
0.020118322340078751 0.26905626257933313 -0.23844953419646622 0.1153357433678136 
0.42819779967062765 -0.48176235323427619 0.064008169722786099 -0.73015406308650233 
0.98251684793043892 -0.77259925836909771 -0.3112480186545421 -0.011873484654423186 
-3.2511969726306482 2.6012364487757607 -0.18392262616065416 0.056618443214941541 
0.015693647645045852 -3.0822737291308648 0.023166162980334748 1.0715523824818727 
-0.010492594451987011 0.0068984647771114238 0.0099813202488814728 -0.22407887546489386 
-0.47296878557234368 0.035038586422435958 -0.29640582718047759 -0.8740787852395584 
-0.35618111651142792 0.29551866936174676 -0.30342371210549463 0.29743642472618953 
0.10518385846016864 -0.61288625031745592 -0.35831565533746557 0.069181254904135667 
-0.69301557758974741 0.74004880503990567 -0.36596156372621064 -0.039369681533190599 
-0.69301557758974741 0.74004880503990567 -0.36596156372621064 -0.039369681533190599 
-0.38634373648674653 0.54168715566466663 -0.027965939591152615 -0.94744415404410032 
0.60204178894869642 -0.22303602908207504 -0.57802607712457876 -0.05714869761331437 
-0.14009577748231228 0.045118572071234181 -0.16869940953567225 -0.0035987111328320415 
-0.22689116590009276 -0.70299624214461409 0.67525697191077771 0.24603403284308223 
-0.19461044167913147 0.46852097056542691 0.19673436629298721 -0.0096585678426303612 
0.10178450302064811 0.047292546446940628 -0.18646704184538185 -0.28522502135201838 
0.092535412248409804 -0.046280552123972821 -0.57604811570801018 -1.5931910360600519 
-1.0456643063361211 1.6841361022010131 -0.29358610325996859 -0.050893322575125237 
0.0066352694214169283 0.077543794151131204 0.51859235193741482 -0.10676569943654485 
0.0066352694214169283 0.077543794151131204 0.51859235193741482 -0.10676569943654485 
-0.59063998395523543 0.88040725885461335 -0.064874926538335972 -0.09777616899698971 
-0.49249900501322835 -0.19782008390081829 -0.061998708159445387 0.44438035253217884 
-0.59063998395523543 0.88040725885461335 -0.064874926538335972 -0.09777616899698971 
-0.24085024225505197 0.43615954817907737 -0.30675557517350022 -0.89596661781663645 
-0.37638118656708258 -0.17090671490552778 -0.39211065226054465 -0.099366311991853598 
-0.70394402823233104 0.64688640078060233 0.32836841671053452 -0.34175258368418243 
-1.6205410903194075 1.3719157815802823 -0.0058317879440025521 0.10476648863254834 
0.67161884037235609 -0.36927571476009607 -1.4166249993987188 -0.11354467259010234 
0.35018679151020682 -0.37128136606025053 -0.43492926211044058 -0.7992025755184613 
-1.8617016449778496 1.7852116004469096 -0.036945855622050987 0.023475353388882136 
-0.05413027076595045 -0.12794785396250954 -0.30697687076807278 -0.64404850130766755 
1.3108507499076694 -0.97038568512783885 0.10448418599953871 -1.1682721048607698 
-1.3860751551682964 0.91276893890089472 -1.6776563953923374 0.65685724440348159 
-0.13243608737299609 0.46028760630073623 0.066831354096669404 0.017440745462344781 
-0.0090061977781415933 0.17490069420224841 0.93531742335887635 0.096358475186714823 
0.45864998957338854 -0.92838776278021973 -0.72749826588022193 0.0017908445090785985 
1.4833046596057868 -1.6482978411956251 -0.7222229440214698 -0.26425259041190657 
0.047240882798918735 0.37259414856586909 0.034758540573594107 0.041646742411510354 
-0.47791094361682696 0.48460667250263667 -0.074588711576565853 0.17170715869622927 
1.1917221758804148 -1.1990717484385063 -0.41669768366281523 -0.72965337675398234 
