solver_type L2R_L2LOSS_SVC
nr_class 4
label 0 2 1 3
nr_feature 10920
bias -1
w
0.63949517699525771 -1.1111694972158082 0.20174334449545947 -0.1703200683371183 
0.074149503671490313 -0.074831166188435216 -0.18560057168989086 -0.18058595163748731 
3.8199208999334924 -0.036071260622997495 0.0054288781759183509 -3.4169067511756244 
-0.082395206940354709 -0.13699454234492714 0.31020325105966295 -0.2462017789414869 
-0.94103867757942905 -1.7371954382916484 -1.6034556057508946 2.2334857256162715 
-0.74238271530196409 0.60611144225109326 -1.4552061017104025 0.24690977185054697 
-0.94445628215463273 0.56561687183136544 -1.2574113697820803 0.32231210976878949 
-1.1244116232687091 0.6632908167430529 -0.18848195179684135 0.072635807844985051 
-0.40661958245859853 -0.74436378932868719 0.59525179470728773 0.31564584608955915 
-0.18121588497722177 -0.22623994860243207 0.85122132792562866 0.46368564401927292 
0.40807716244637571 -0.066427937251614486 -0.33605913249859498 -0.18629208355139129 
0.47584733464830753 0.5945369714217672 -0.7045857483278426 -0.39011236143452355 
-1.2368916869171913 -1.3079238310417707 1.1991497351733367 0.46194016833932416 
0.062162163032255732 -0.12988915616305774 -0.098700829914181498 -0.10068153638107938 
0.034556337796271 0.11307974152014486 0.023323532559604267 -0.57972644353846126 
-0.50247658150785612 0.50796794626190889 -1.6356494991061303 0.29538481497587105 
0.189603834837243 -0.16764531250947196 -0.18637806710327198 -0.18336442241919265 
0.1986892731698186 0.066787651146898414 -0.34180377936492556 -0.38795162702372615 
0.19250797670914813 -0.25468270809464783 0.013512157277807822 -0.07432870459828457 
0.06043899148311177 -0.0046261727431012277 -0.13707953470751494 -0.10311986246423564 
0.12166238896622683 -0.082558971650894736 -0.19678707679886392 -0.38649794545367838 
-0.3702843615755862 -0.21333352158705302 0.1940076519517214 1.1467346447672808 
-0.77558141426191962 0.61594327088487422 -1.7553936667236327 0.32830293916023812 
0.17775647101421516 -0.432525366511473 -0.058526812713603646 -1.0187430392865444 
-0.87173597519205703 0.67967082632647902 -1.8782748017319699 0.32452175187344123 
2.3814722672298685 -1.2933278935241599 0.01501692420155195 -1.4856980412626013 
-0.15282735879894749 0.27309648208486575 -1.5780230885372102 0.74460037810935364 
0.0042645986021931474 -0.21876496231713841 0.13265462473731437 -0.26900884697146188 
0.6176759649635436 -0.26485470997772198 -0.19665639184647912 -0.093363996307446906 
0.60288239455432424 -0.30059361959639058 0.19860900696543388 -0.67747941867384753 
0.058966756482724619 -0.069091970045918688 0.061032175020353865 -0.24779287333163663 
-0.18078879719403679 -0.10775033763138661 0.12291067155785283 0.002473549058179033 
-0.074887988753880363 -0.13478116710536153 0.0039642591851694955 -0.16456062843080499 
0.08252524992756774 -0.19323051622341103 -0.11431013362484906 -0.45340664904030276 
0.3248390164420899 -0.32746648577211296 -0.78970779751472309 0.82190070935425141 
-0.91553453019989506 -1.7476218812180138 0.92750761516658609 0.54343971007543035 
-0.082722355774884238 1.3349020330671719 -0.8314880423066926 -2.7595080843146138 
-0.023446271175110566 0.14784376864615331 -0.024431502613154431 -0.10827135330956802 
-0.023446271175110566 0.14784376864615331 -0.024431502613154431 -0.10827135330956802 
-0.031343887634954187 -0.0046360684139523795 0.36910627725115414 0.078726924060576409 
-0.75763288631484982 0.27149889636121172 -1.9816778882059567 0.63455204723395553 
0.12233932012022937 -0.11319170914364141 -0.13749581628297997 -0.26847529036681977 
-1.4675932555298525 -1.62548502630702 1.3458554515091445 0.46105960590112799 
-1.1731618827106152 -1.566258470672045 0.84620808453867435 -0.045417603233225211 
0.01701310116189611 0.080320836563459869 0.032978492508785477 -0.029024643478972378 
0.35244067619406166 -0.15287199557221232 0.018124732649488683 -0.046715520758521811 
0.35244067619406166 -0.15287199557221232 0.018124732649488683 -0.046715520758521811 
0.15223263684886829 -0.22815206414766326 0.099532265561993225 -0.19862686291546852 
0.6222125493191295 -2.4872849367623791 0.018235699100067105 -0.13163181036895638 
0.50622775887152482 -0.20019519306321315 0.032075015136237249 -0.19220448830272668 
-0.031264088865630604 0.1118008445641369 -0.14337730387602904 -0.16640152436013081 
0.35969115887703729 -0.2282527243066014 -0.59769158387863852 -0.45843803293614394 
0.22954596608804972 0.42621668019497594 -0.43924403856805194 -0.34644774322975336 
-0.57556835575933896 0.69077511306685935 -1.8213238898156112 0.45695031994101487 
-0.22535067675795453 0.37298160153567883 0.10116260171281362 -0.3391548020926855 
0.037406236001949054 -0.11427260861374125 -0.09354422680724267 -0.13713788289048001 
-1.0933049054703652 0.57503374450498324 0.10923554670675015 -0.13305165194635804 
0.012896007597160768 0.034671393043679971 -0.0048623235079760215 -0.050829406505050703 
0.12766900805840686 -0.11095777525561061 -0.083023379694672106 -0.53352344357894932 
0.077324477900619706 -0.17813295761796274 0.039138588080929994 -0.38262232029867427 
0.343655982291736 -0.64855795337496358 0.73524124337236407 -0.17103238018029068 
-0.179143820329971 0.32116400981613247 -0.27061991936407076 -0.47032739584534633 
-0.23606530342064083 0.19010124572032944 -0.30268078570267876 -0.16075423000383324 
0.78940926043117909 -0.36628534658122114 -0.77502318993420816 0.3912766444416429 
0.38860940325290622 -0.042682393678737211 0.015169494819081142 -0.072076535728895483 
0.31130379486255083 -1.1263402712011708 0.44361404481567607 0.3628129949464397 
0.21195404404376819 -0.037109059522572922 0.39461727983701617 -2.2618887567752566 
-0.52835375330496914 0.17292641338378581 0.094560597672117705 -0.4278191672477889 
0.33110536684501668 -0.20318029398089565 0.012854042955969813 -0.33217283144995424 
0.99006719607433746 -1.2252691835566738 -0.01114229802211485 -0.25868475950575459 
0.32889055035171838 -0.042168912157731497 -0.55209482081139394 0.11878290201249542 
0.60594113557193074 -0.98272909133997288 0.20174419774803667 0.058965592947714217 
1.0236517033576831 -0.54774446650188069 0.21055962145141127 -1.1733739175388902 
0.29245480392971412 -0.2332915752206374 -0.31618209241223905 -0.5594406322950769 
0.29740165261706031 -0.52089490550548123 -0.20743817256933389 0.34176716887714637 
1.2368517838743258 -1.2214355188201285 -0.01514226787655891 -0.51504193166988366 
0.014866498868084402 -0.18971405799532817 0.34596811379158354 -0.07779337293587954 
0.38527384232480377 -0.054671665644143483 -0.21535225770746458 -1.6079643118043776 
0.41985075892498741 -0.5500989117348567 -1.397258065202676 -0.27565663164996185 
0.42528581879423022 -0.51520442927115839 -0.35787984393664579 -0.31165734421620833 
0.46168628622898833 -0.28551320443001316 -0.008021999355432477 -0.61329580937266903 
0.12457096604823495 -0.15107399214885886 -0.10216181489798745 -0.19761892420275906 
0.06498709529678004 -0.20963940774765635 -0.03854190471429645 -0.39391099819836461 
0.10208236854402081 -0.088269065541868488 -0.11287707361243181 -0.15723824002943987 
-0.16431235438352979 0.16112334801717704 -0.020452805094798035 -0.34878814593226282 
0.1014189923771876 -0.1303675468450205 -0.19049290736169378 -0.32317729996241418 
0.21352494454491155 -0.36143887193710317 -0.16797420498714982 -0.62197524615734012 
0.085680683798804752 -0.065289009325456074 -0.18649980871288616 -0.41793112461248005 
-0.091779831010756707 -2.0806729752897288 -0.28639429505585967 1.8510816823591352 
-0.86099629120007581 2.3760277440857895 -0.18074026370293844 -0.82296982981874411 
-0.92622165703318338 1.7898631868205328 -0.28009831032367821 -1.0056970158055136 
-1.1573660960456453 -1.3959295673136056 1.2430735726723756 0.3975340554138892 
-0.85724528841294401 -1.3631372234426924 0.97399366503931661 0.53317655006850995 
0.5460298961744332 -1.1955917816379948 0.36975522089692459 -0.83662662156224266 
1.4166176674138962 0.12668691808970528 -0.39248933513358947 -0.83399233158129804 
-0.21252387789275981 0.27751886249904101 -1.393081359958416 0.12043299723245228 
0.12042099797536876 -0.16185447279737999 -0.35701595288012833 -0.41262876764089407 
0.021804325624165566 0.11322560031798808 0.25367106343161611 -0.73978408404592666 
0.0075292552142043031 -0.049720698362817631 -0.53013059997144529 0.32039968517866335 
0.0075292552142043031 -0.049720698362817631 -0.53013059997144529 0.32039968517866335 
-1.036723785581283 -0.87723765496092965 0.72994713544897571 0.48112394181755658 
0.87089583637518087 0.42562827254576624 0.067813810261996454 -1.0749269682831604 
0.077120774717943083 -0.068357060917657655 -0.10243002476995637 -0.18441606649483794 
0.52819060836268839 -0.11111303421859789 -0.10470671434008327 -0.34495567734628008 
0.64847408865470135 -0.97514156712057209 -0.017089016417711714 0.23663243617272051 
0.20488623574479872 -0.1787645028056972 -0.62624199113249923 0.049468674631554674 
-0.24344760837652935 0.31669170921521234 0.61549928539004672 -0.20936939460518963 
0.13632791095347627 -0.12219086385352537 -0.16688487916419487 -0.16958703638657116 
0.10121854785118452 -0.034691893466163949 -0.11188826567322838 -0.34443860449038566 
0.78269329433315604 -1.071525564329848 -0.37425961096411886 -1.333172248766181 
0.21663886249581349 -0.14568554747677079 -0.29151918169508906 -0.39046812281224436 
0.1635364268889023 -0.16624524148485506 -0.20108221221709166 -0.54787553487320251 
0.024478826458594866 -0.094733287247405928 0.16359094987638356 -1.2185325729173886 
1.9216657653052673 0.46192001373042652 -0.090520782940095246 -0.0062314801168161394 
0.33349061478400216 -0.29554526341160237 -0.2143345668770974 -0.70444446113922332 
-0.10022449585119352 -0.78925779343203972 0.098365687361138598 -0.32367250345227389 
-0.015328143546713194 -0.097362335945615053 0.1057011238781858 -0.31769804750519698 
-0.017281961929197426 0.20439407436554119 0.39204512998777968 -0.48493239957399153 
-0.058082945282661176 0.10370285917581894 -0.11609925368345043 -0.32006510009675948 
0.20669849044657712 -1.9111046571561321 0.0081103548102261745 1.2805312978944796 
-0.69592106006290155 0.59604141234471752 -1.6535010591605905 0.30990263266578955 
0.093300540553120578 -0.23841242865514195 -0.36341747668701047 0.13825974678093877 
-0.11906579897226076 0.047300214824324865 -0.17411171875552439 0.063373310897541557 
-1.917626932111308 0.85369182331345161 -0.052182598837889185 -0.041222018992455506 
2.7384228251391192 -0.75506359633213227 0.10839268583047013 -1.3566914504419885 
-1.3190076785684581 0.59543208091622879 -0.27731807250375928 -0.021014342482139715 
-0.19317809821808141 0.071275031476752251 -0.41493168552603515 -0.23145035882361273 
0.013199726773968863 0.052480194557603749 -0.026752744637491332 -0.28772098048895711 
-0.51693435908866803 0.6758584221522016 -1.1927259837858606 -0.012040345821467126 
-0.28025878524618109 0.13882504999237413 0.070397783252112697 -0.35376567223544347 
0.55806342383320495 -0.39735826074519703 -0.33239002456361211 -0.50528950755474211 
0.079699769080065319 -0.028309279812535011 -0.36298650656251097 -0.1477308776260591 
0.041549513255709311 -0.063284146822050302 -0.18431238415516543 -0.16798112651143729 
0.19238592228040069 -0.26461608133011627 -0.028075493333156495 -0.45110037491655181 
0.64829013944081382 -0.8984896738261533 -0.13469763926270661 -0.66583086872660036 
0.68238628172834781 0.74702592829314918 -2.3345103856150478 -0.90835610560836078 
-0.87755948509917781 -0.59979960826235024 0.96872604371915716 0.21043646125773238 
2.2877773196576987 -0.52266056376115833 -0.0046574190234854552 -0.42769217019801559 
-0.27867909139749625 0.40375619307576915 -0.17904075340554718 -0.4813824839945659 
2.2577105837893479 -0.88696067465255091 -0.60335568203161793 -0.73180068480975535 
-0.9119228630552727 0.49456440188572354 -1.3949551220587812 0.22139642904116602 
-0.58416875274548952 0.53789656571968969 -0.094037182342126213 -0.67341677550419421 
-1.0456660495342203 -0.96984694534496407 -0.65993187159931121 2.4630693091445748 
0.075728999089598903 -0.00093680497380729116 0.01091719443356122 -0.25665761585079078 
0.058157437881425363 -0.0049617296921837979 -0.16123290770136184 -0.15882990114535389 
0.35831207659352798 -1.0835066414898404 0.30950589306496579 0.39379061265854459 
0.31408493525724079 -0.11235272668520815 -0.068970654674782694 -0.3290458004082687 
0.32461218642768391 -0.31120142267528184 -0.013033105383256711 -0.33130420702351349 
0.32461218642768391 -0.31120142267528184 -0.013033105383256711 -0.33130420702351349 
0.26533189980714261 0.24563490877902444 0.023108810402389234 -0.18521423114831245 
0.33236967777003096 -0.63524084051975782 -0.31423554373309326 -0.15894766919256334 
0.096091734115750282 -0.38909587956936098 0.003618337648306073 -0.077534552041976942 
1.1619943473966146 -0.43322608962277587 -0.91903499168247538 0.074897179691022053 
0.045702086644183196 -0.22986494117949258 -0.0072887705239612736 0.14793582215179107 
0.096091734115750282 -0.38909587956936098 0.003618337648306073 -0.077534552041976942 
0.052907313400796831 -0.23983470817992797 -0.24593969263562121 -0.072885408020642625 
2.985419660691659 -3.0716794391259064 0.31549015051325568 -0.073632652124778541 
-0.17090892192160445 0.10058351026310967 -0.33059056670104375 -0.013695286059434333 
-1.0007045774649048 0.47033045701984494 -1.2634976794826347 0.15174416591254269 
0.12972832583756064 -0.181752835662955 0.0019355877254667985 -0.28499060022571721 
-1.0905966109250185 1.5377905140569481 -0.88377409430697484 -0.28033495749355386 
2.3837271443946255 -1.4283877854639448 -0.091155973156171119 -1.0259866443974655 
-0.074368563083248948 -0.94998000838057095 0.079837941703132187 -0.27416207260292413 
0.081181085429465505 0.077738863269795705 0.040394602038496707 -0.056782246914759305 
-0.6813029980769999 0.78809155951327314 -1.5887651637621991 0.0021698568635827274 
-0.52520727166512349 0.29119990600786944 0.19504532670881622 -0.74989914114589695 
0.65601399102419566 0.41657870677143727 -1.5286516740601419 -0.87657563633399282 
-0.12544604105213647 0.064356294137121919 -0.0032910394814955665 -0.041204648024919008 
-0.12544604105213647 0.064356294137121919 -0.0032910394814955665 -0.041204648024919008 
-0.5002595629304637 0.81293416467624591 0.037319580058434776 -0.22898803441753532 
0.0061645657186794392 -0.037869076986549191 -0.093868424610956736 -0.032266398048961142 
-0.086866011764546711 0.114295917587535 0.0016624507018956863 -0.26461665717058552 
-0.21132704745228562 -0.071972589117805894 0.20804302958701615 0.073318365377655126 
-0.58128325834841865 -0.091491563020386871 -0.42185433689326934 1.3794687443240381 
0.075941501869293826 -0.11409210671530599 -0.27062177515536179 -0.23953559080059311 
0.014862925921633416 -0.13550035898395338 -0.069571541362130104 -0.35460931096736098 
0.043338871870590503 -0.26895165530293802 0.5426850254447515 -0.67444741897250471 
-0.58128325834841865 -0.091491563020386871 -0.42185433689326934 1.3794687443240381 
-0.35535461886953856 0.3710333352487904 0.41718309678205479 -0.040979460633658732 
0.23025241903965982 -0.20144252956474243 -0.22252630164166859 -0.19906634472264975 
-0.35535461886953856 0.3710333352487904 0.41718309678205479 -0.040979460633658732 
0.15189924935669746 -0.10173735125077137 -0.11663595253581241 -0.16869792413722606 
-0.22312726482246775 0.56863653356860244 -0.27736041685073076 -0.32903439095457959 
-0.93200645237313851 0.10420879323674929 -0.68636761789391287 0.031394925929957684 
-0.048280579280868638 0.22164981545071011 0.0043592951455248535 0.03079316056949568 
0.16041761794721907 -0.23076750884641409 0.21808544483552239 -0.41224744657679629 
1.3122146503624348 -1.1314915260432317 0.49229085884960028 -0.4792131099846853 
0.029943216331747159 -0.029769257143448476 -0.10211059812715931 -0.087481331405893217 
-0.19290087210686307 -0.32534009075435322 -0.27080415014662573 0.2417791300193981 
-1.4117998177497477 0.47785714499265308 -1.4927383599874879 0.82448685048322856 
0.22455682815952005 -0.31957581847548872 0.16738174751340903 -0.036039129914253405 
-0.46482907724147915 -0.043003887957764095 -0.0051534785968323504 -0.26340524573566859 
-1.1356624997983951 0.22995854236709309 -0.0075984010382678172 0.26991788882783074 
0.4533184573041622 -1.4817721933225518 -0.68908122822617945 0.30232112270817524 
0.36107881384048901 -1.3723852890246129 0.011585109047708524 0.64862527884931642 
-0.11070417167163309 0.31228483138923335 -0.097988479399115674 -0.34107411108161056 
0.046816833529206757 0.35223730984972945 -1.8927821114856691 -0.041988407083961274 
-0.062474374314854295 0.1535382323754047 -0.10834373211325049 -0.00063001704452362445 
0.44681129994536262 -0.48011758844918467 -0.26800937353742899 -0.37412864092458847 
-0.079389188364020397 0.097467612427093481 0.032298193313830999 -0.6201234849824051 
0.82993748944370893 -2.3254785224261267 0.57645960412075503 1.406424257755059 
-0.11371711149076738 0.080363311452195094 -0.18594927842598855 -1.0854242498119762 
0.25982334947626495 1.2602918821974765 0.4535241937840685 -2.594994426705544 
0.16089436425384401 -0.4021085885425596 -0.10001138955854297 -0.035004477788058992 
0.45094302537764758 -0.84130514430952519 0.067493739806892952 0.026111176249320536 
0.049925203666932219 -0.46567532111244558 -0.10652805931742527 -0.1811060233147867 
0.15772243144123516 0.060776502482045053 -0.18077901830904625 0.015155652306840618 
-0.28472590362346417 0.60506892453142169 -0.66116460874021443 0.0026649912788245297 
-0.47348880501683033 -0.11494121571976219 1.9526494252473008 -1.1158072962198706 
-0.28472590362346417 0.60506892453142169 -0.66116460874021443 0.0026649912788245297 
-0.15154609534796559 0.35185229149137853 -0.91658493729316337 -0.054362163903427657 
0.29009314117669194 -0.35528090476273672 -0.35383514535139993 -0.1055524936820057 
-0.78456704612444961 1.4811359167209568 0.46958889195717946 -1.1196374830683307 
0.37330913591635029 -0.070329322845959427 -0.0046940964011175099 -0.38865676890386169 
0.37330913591635029 -0.070329322845959427 -0.0046940964011175099 -0.38865676890386169 
0.37330913591635029 -0.070329322845959427 -0.0046940964011175099 -0.38865676890386169 
0.37330913591635029 -0.070329322845959427 -0.0046940964011175099 -0.38865676890386169 
0.048190754854911422 -1.5959833374071277 0.49225226668314015 0.73980893619788179 
0.31657059259634657 -0.5412405230438655 -0.12349288584921445 -0.40419305742331868 
0.88228695587377248 0.27572945250271813 -0.34119411586666681 -0.26922226949117162 
0.38586194119228728 -0.089052941704044403 -0.51764666024505135 -0.85132872080218569 
0.21304075990640142 -0.032423062082157006 0.22606747492908669 -0.95071804108640046 
-0.91457496896170043 1.0887999592389612 -0.62344025751011245 -0.63129823013387576 
-0.34063659496590876 0.10176925392315531 -0.26621074170400233 -0.079566685232625597 
1.9035471267294355 -2.5297689160929155 0.052917313903518184 0.038762809242433693 
-0.79235426261235342 0.97291652829323394 -0.45348353349574644 -0.0058535783555025839 
-0.8311885224999811 0.28945709898163391 -0.47961636209391711 0.094614397853572396 
-1.0179272635074348 -1.0434924963030028 0.93095059955948711 0.38077589197617201 
-0.68562268012207606 2.5502377484355998 -4.1734423244118082 0.52279651249519921 
0.89501127131607827 -0.65495887360066141 3.8402744894210517 -1.2694844564117664 
0.029748782163767348 0.042080510772292065 -0.10807479325059433 -0.33266089350817307 
0.12704899516647999 -0.10674789575947351 -0.13263505464733782 -0.14805798454746893 
0.049448403453428408 -0.19927029926396822 -0.29466277015139319 0.53231341290193313 
0.090801008189050597 -0.15370610253291628 -0.25134021660612216 -0.025057663965910922 
-0.068638662802789491 0.10138530199322139 -0.059774144102782187 -0.069827338015576348 
0.13918342118475802 -0.33606339078587538 0.10339848911942418 -0.43282831264097782 
1.2440633055845063 -0.76708170947644938 -0.44517491030400502 -0.80091878511438974 
1.3447054012414579 -0.68912661935586361 1.0076561968115061 -0.97026158685511421 
3.3419287692895567 -0.66745981222573225 0.036664794745430801 -0.58490886965180344 
-0.78747317099632186 -0.69452556363440876 0.57478896412898861 0.99101706551064361 
-0.48901128181010167 0.47220056717086495 -1.368953902586838 0.36230867971282971 
-0.30205072037794711 0.30732514641883596 -1.6448858191666933 -0.12140613275768376 
-1.1650552770584264 0.5647284307627749 -0.072591552278977081 -0.50274651506281387 
0.0055183794431535177 0.046452024630517862 -0.1990627987667552 0.14503189897148955 
0.072657640060911105 -0.044107849406565432 -0.21723259768524572 -0.2501170927876748 
-0.63999378114572514 0.97753074791976591 0.61826906002006465 -1.3140412097971597 
-0.91438141849011179 0.74263919930951083 0.072150901534032183 -0.37511217927833834 
0.20905621388860074 0.19273759211668234 -1.1632505247534575 -0.065550463740674775 
0.2395830652471769 -0.28021220224895971 -0.27568501061321155 -0.036780761804588426 
-0.53096022517266162 -0.5802758134142727 -0.629719995386961 1.0920918108837416 
0.036135734945024242 -0.030390343001056346 -0.091730702129869598 -0.22349099952212237 
1.2503834257295932 -0.48464191169139614 0.00010288936947452145 -0.85457403191525105 
1.2503834257295932 -0.48464191169139614 0.00010288936947452145 -0.85457403191525105 
0.19804965053577595 -0.04941312853647202 -0.25575436293491904 -0.47242945438475747 
-0.39740622231425726 0.65193910219223861 0.00066283095185202872 0.016241185968828113 
-0.31105433477580874 0.50384924472939518 0.01895890232530837 -2.2561931508998456 
0.16997380100483911 -0.22150101681742154 -0.030224622548248984 -0.21433251041991461 
0.19163736884890553 -0.29190589668213768 -0.021826049804515944 0.22883568625480533 
0.12839377745769465 -0.055963461438293671 -0.19260121365697311 -0.32212389078078091 
-0.072842094483510395 -0.093167498272433286 -0.16560758925178753 0.31418729041505739 
0.15372903567109419 -0.14920880049314433 -0.20854460059315769 -0.19679237754177756 
-0.072842094483510395 -0.093167498272433286 -0.16560758925178753 0.31418729041505739 
-0.91833119171748556 0.45481746886965746 0.51753353385535972 0.39669090480601749 
0.095143138753011836 0.4855520031692443 0.53472740593549561 -0.51759465381189596 
-0.063425559036341769 0.039197820660962265 -0.024549067750162117 -0.2475899488192877 
0.27464968573493009 -0.56539754705301026 -0.12300278267889209 -0.25022689803997206 
0.12248501163753189 -0.029487391908487877 -0.0017093831594884867 -0.50155185863917162 
-0.87640906981738531 0.49136764878559808 -0.72307312292058334 0.20916262328240381 
-0.31261670453752805 0.2705468169449069 -0.12029246718185994 -0.47281689524320913 
0.3520405892510603 -0.072526126085108417 -0.88176805067894826 0.06384517897502183 
0.55515197605349942 -0.6130407879091625 -0.32638931997539261 0.48873217750149123 
-0.45758458093708565 -0.22165710952897932 0.73915545160288221 0.98206076520322982 
-0.083260964760126649 -0.95031987886141556 -0.027537865132249838 0.14843596424731242 
3.2727578771454882 0.5752120309115526 0.03932395169781714 -1.9480036559702225 
-0.22051841536333863 0.11073577002689522 0.36735906713596572 -0.28623048096141218 
0.12692965036533699 0.16823007233367249 -0.12733188530736272 -0.4596692197959743 
-1.1736172121776263 -1.2796481648161837 -1.4204967185227093 1.6751282863699568 
0.005580979627102166 -0.24640040124280796 -0.20649071388320012 0.19824374811971346 
-0.099842510287735053 -0.023778669595081341 0.4179474692673002 0.9754507616824295 
0.041705184411197839 -0.35003825037376946 -0.027613250087492158 0.040394416539302445 
0.103140244303617 -0.13923960707006477 -0.30561443679561817 -0.46005335311986179 
0.065466648400573951 2.456924147919862 -0.17526801614188206 -0.090862757811307732 
0.58368870396004147 -0.13160151980189452 -0.66480973359633477 -0.62868942751349366 
-0.46158515498574459 0.015154738364720366 0.64234508937473689 0.45658335802221373 
0.24452914861865321 -0.28228966287328255 -0.0054348519505491508 -0.071344724694815051 
0.0015682509551288304 0.05446162938698712 -0.058552858391009849 -0.48733932934161639 
0.73444853508350905 -0.54218515371142351 -0.22044661784508932 -1.0145326809420607 
-1.0645369152481503 0.94849232861615496 -1.7796680934932638 -0.053328611016870572 
0.83668885936448623 -0.58007481985457099 0.0052537921735507313 -0.064895352967025408 
0.83668885936448623 -0.58007481985457099 0.0052537921735507313 -0.064895352967025408 
0.086494551002654657 -0.65705819604270843 -0.15671775390088269 0.3350541834299493 
-0.13148803096940001 -0.22448926332832764 0.08272738691920388 -0.10383838101654844 
-0.97130618793252177 -0.086604315288665495 -0.95181622240383335 0.65177703658268715 
0.62097184237092828 0.12456214062394665 -0.20988321042471916 -0.75632511996583085 
-0.033677854643136836 0.084651912424555359 0.18623961451480253 -0.4600771267476339 
0.035348164718747646 -0.19316270870671104 0.048795725080239882 -0.21250648107342263 
1.6446218384750497 -0.67497085638167431 -0.0027938808332480984 -0.35601111974737415 
-1.0320449896671009 0.92016431186017111 -0.47841418073236763 1.1083948792355569 
0.06038857280287685 -0.31550541333900628 -0.018520801000076789 0.0025367034649110016 
0.06038857280287685 -0.31550541333900628 -0.018520801000076789 0.0025367034649110016 
0.06038857280287685 -0.31550541333900628 -0.018520801000076789 0.0025367034649110016 
0.06038857280287685 -0.31550541333900628 -0.018520801000076789 0.0025367034649110016 
-0.64874133592642091 0.54275772086568708 -1.3189362568608345 0.27420998724812845 
-0.84981573866555071 0.022633066550660441 1.9822412476020623 0.42871439997804284 
0.047344431569331838 0.10491161969586371 -0.28707006389639217 -0.53407111593476242 
0.071809417435660952 -0.033796421055937845 0.10677479222161756 0.026875609259473646 
-0.024014171782022191 -0.032502003622372322 -0.077492376659477238 -0.095216335867922747 
0.11804783536329717 -0.18039387675030477 0.019923679440582126 0.39076379104317732 
-1.5377613068914022 0.061649200291577 -0.010113400475694173 0.055431503561321066 
0.060661222595509101 -0.22011031064803602 -0.49461047815290754 0.061882880419883803 
0.075549970854435197 -0.15613324771471926 0.0058850106074119085 -0.24384477997987711 
0.1454689908717049 -0.054310750692200573 -0.15475177959742473 -0.020116084917945511 
0.20523141656229346 -0.73578978502557901 -0.17209940850812039 1.338372721447028 
2.0639329275702347 0.19884598661065328 -2.9336115721338958 -0.81023521119505904 
-0.86720811556493516 -1.0927891372264478 0.70659813387186876 0.30042522268511712 
0.36658777662964531 0.81258533341719341 -0.091265637788203985 -0.46675311121307428 
0.36658777662964531 0.81258533341719341 -0.091265637788203985 -0.46675311121307428 
-0.25978936482048542 -0.15445029584369102 -0.26521394881230537 -0.18500289933313319 
0.45693709295435991 -0.7076795868577257 0.074446818974629736 -0.080456638256589955 
0.22895813353604966 0.57583104021965836 -0.045542640019811814 -0.74035669542375093 
-1.7674562841301431 -0.62551971426644681 1.1999920230024854 0.093491516805043612 
0.54876194189278693 -0.42432702668901656 -0.19972835383038154 -0.2588557801221627 
-0.048511798247307406 0.99583889266759196 0.026025182679132078 -0.16646310598371408 
0.048411043158595332 -0.057728991284803452 -0.084002582807441467 -0.037252193364333962 
-0.91998051278035864 -0.83384422281917414 1.0859726936179805 0.24297013186337307 
0.065225452122955843 -0.043377159511265827 -0.24770586399576244 -0.23198862869678544 
-0.40740326585647946 0.35335437633398625 -0.04870130328870291 -0.44134043313803489 
-0.85621848577563109 -1.9831873664477651 -0.82852231715897739 2.1704316191772017 
1.4326589748680605 0.46404705434902094 0.079393166930348119 -1.6965489479788645 
0.044533434480242551 0.2904129972618672 -1.1913336324981314 -0.058834860783039129 
-0.47256463011435268 -1.4318518734504124 0.67801722612903281 0.54463050299238325 
0.10747264645738101 -0.21839340870063828 -0.10318832151941805 -0.067273888927469355 
0.047909645858492 1.1230280721167185 -0.17246034413664868 -0.025797815757474366 
0.047909645858492 1.1230280721167185 -0.17246034413664868 -0.025797815757474366 
0.32085541856684946 -0.35383075849607531 -0.30842963169603399 -0.70113770882591753 
0.018209237862139425 -0.15636573640341139 0.039226753579166648 -0.51142912534381046 
-0.92639507823871248 0.42877584824483261 -1.5465232498661927 0.32320672352848295 
0.070316178430491955 -0.11274256942399927 0.03489600344526305 -0.28617018370801561 
-0.51685306685969001 0.3254434105931826 -1.0157327716733526 0.20208892880117157 
0.14729678310782157 1.4467113697926535 -1.1091880587325564 -1.3184685146301456 
2.2564849400331162 -0.35810245018128395 0.075760730796271353 -1.2048164837347608 
-0.46471955981557683 -1.103282358906833 0.88352098754774444 0.41580851289805876 
0.084342595846296053 -0.1418611097709977 -0.15492705186716008 -0.029309342818104697 
-1.1656750533840285 0.71874751636009226 -0.71953672403289981 0.224804404854649 
-1.3787075509774849 -0.93264124062721954 1.2388365038259126 0.31252801180696876 
0.042682370005038522 -0.29511418615474144 -0.71377625831615865 0.42746912390532948 
1.1479745855446739 -0.97170794484003142 -0.017527679644368164 -0.73344028011261475 
0.16475409386644707 -0.29222467143163527 -0.33218415742876167 0.13168232156028933 
-0.77345957454110259 -1.1386748755203087 -0.012273867446058608 1.7878397838540052 
-0.0081596448744398926 -0.10126950586238503 -0.071490795143678856 0.26288704101406035 
-0.13534533357303141 -1.4352784680771795 0.61324044520870458 1.5436612451193881 
0.16953024360646374 -0.21947804096650214 -0.21959688643162284 0.11531438691411672 
-0.51847988496224107 0.64168636983155614 0.18152654244806998 -0.83711140561468811 
-0.3979832612731225 0.75842168258155296 0.45210367652651107 -0.19514920154260823 
0.13597592317904805 -0.31311904724187734 -0.087053308798356752 -0.22063976420205025 
0.91506299075640518 -0.62006565998000351 0.12050998564682977 -2.0435984051491429 
0.17993773939779689 -0.26287165177912336 -0.15722588202039592 -0.11028174764913501 
0.76454405344009135 -0.18088568140709604 0.032733227855929956 -0.046821634947823883 
0.626251194218718 -0.81874529200330459 -1.2969714481763215 1.5069134123140764 
0.56784007056098729 -0.68686883650674946 0.00521465940839691 -0.051961520434696311 
0.027426289201612566 0.42017281876740947 -1.008339619471456 0.12235652406307787 
0.56784007056098729 -0.68686883650674946 0.00521465940839691 -0.051961520434696311 
-0.071230026642846417 0.00023770611018677709 0.074767804884862593 -0.999091235310546 
-0.13186663004103583 0.075715883404068707 -0.024690019045407526 0.1156620694309789 
-0.82347912361704145 0.99402214327846383 -0.11718173457269812 -0.78640728424208983 
-0.13186663004103583 0.075715883404068707 -0.024690019045407526 0.1156620694309789 
0.20386909679413359 0.082081675251854308 0.017683139961013748 0.55781782149629189 
0.024887106805784612 -0.11577774991128231 0.094584537917512396 -0.39343591448521692 
0.46060173231777729 -0.49124859293341816 0.073987929629424479 -0.54762986615959541 
0.058217314894743688 0.43878859192768149 0.033162327530088506 -1.0520380648465339 
0.10791308355851216 -0.26854073124767752 -0.11010683891069019 -0.40436658093705036 
0.43206252916385657 -0.14095421801278613 -0.41777440423447965 -0.59829514036174225 
-1.0807482131281028 -0.47451979251087117 0.010321899144419916 2.3962337241790119 
0.10333660504563305 -0.28383294990602959 -0.37924042302317357 -0.0057836094624528767 
0.75541014598586531 -0.7184085466320671 -0.55788692300783949 -0.54801539816461975 
-0.44395680033973312 0.41007956670329387 -0.0057290326361763028 0.021101077126570434 
-0.44395680033973312 0.41007956670329387 -0.0057290326361763028 0.021101077126570434 
0.10535968940290838 -0.015836959540130004 -0.050093176113975027 -0.15031918307481251 
-0.44395680033973312 0.41007956670329387 -0.0057290326361763028 0.021101077126570434 
0.21067388929184067 -0.24942881644954804 -0.54272104661895948 -0.25899114324706407 
0.48652267926348863 -0.3100027215790998 -0.2810776839456709 -0.16443296052817874 
1.1335586491972487 -2.4157696619295406 -0.015086822852293374 -0.023170137798789712 
0.36608944400287469 0.53580332618060422 -0.72205345983005365 -0.8471839285137428 
-0.05689992363002825 -0.1880218808426812 0.018479798694382193 -0.76010666608556343 
0.18196707061316697 1.5788254301842235 -0.39664261268926981 -0.73179744971573246 
-0.11044161586838439 0.05969159667471069 -0.0064273518512294302 -0.067785289098370866 
0.76534530249567512 -0.56739991490507558 -0.52470467389288045 -0.30852374460667953 
-0.33169386766007442 0.41272435905699301 -0.059958063157218883 -0.72004300004446153 
-0.11044161586838439 0.05969159667471069 -0.0064273518512294302 -0.067785289098370866 
-0.11044161586838439 0.05969159667471069 -0.0064273518512294302 -0.067785289098370866 
-0.99421093558801243 0.5799789979528247 -4.1668906524306992 0.27449458641560703 
0.38817269368613483 0.71733140412869967 -0.13899337372127984 -0.36950461183571093 
0.082536379176521846 -0.15603181837987368 -0.027639269398121773 -0.29048370721439398 
-0.18204148924249514 0.081880552247149074 0.16100059089404556 0.036997939530043648 
0.16576237680316974 -0.21899144841497528 -0.26279058577607767 -0.18494924695875298 
-0.66512950854809116 1.5507098728682012 -1.1535869264884107 -0.56326405173176219 
-0.3749072479621412 -0.99307455472001482 0.99182168973781282 -0.25141700548763385 
0.060200800968189389 0.043120300270326442 0.13039164003283799 -0.001890520189605574 
-0.64140531438011139 0.23550178662540994 -0.0072642735355256706 -0.73422549241747415 
-0.51089066324513555 0.82903533512189997 -0.78911589750589628 0.40933584761214814 
-1.478413208557565 0.90590895509147695 1.084041252974892 -0.33670203624191558 
0.15491902516936173 -0.1826461990187177 -0.034690353219033965 -0.22220125188586376 
-0.04772542593054914 -0.31867408693521837 0.74924116767485183 0.11800848522306988 
0.031047063691566068 -0.64750953636346531 -0.011671180895061469 0.45054572738578047 
0.031047063691566068 -0.64750953636346531 -0.011671180895061469 0.45054572738578047 
0.29328059392548478 -0.74133599877171441 -0.10273302109247268 -0.074262148710834211 
0.1344372844771522 -0.1356702724761302 -0.12510456839968992 -0.28236660122962542 
0.031141545225803011 -0.03906964920136248 -0.0035768929173255679 -0.098473444439695051 
-0.31990409579488466 -1.2205330426336498 1.8775678643525331 0.2892663475031938 
0.082949823970592862 -0.057565625880431806 0.49870774909739179 -0.050628921809499461 
2.8363707345709517 -2.2821991286785774 0.03199231784769712 -0.14591761233553022 
-0.32285571630168641 0.17809675336939976 -2.1552194849095883 0.051539224970688122 
0.24534749877040363 -0.30452983303867598 -0.17361688696865352 -0.23448640250415104 
0.26821747348079406 -0.19643516322442206 -0.23187735490138478 -0.31440800337245861 
0.77245103558552508 -0.61599111732359668 -0.55121061026773499 -0.5837650669733917 
-0.023312010566484007 -0.11223005318633536 -0.23641284349917135 -0.30979149663303773 
-0.29373961276177019 0.21746100349204339 0.38018310725947063 -0.10873620879708246 
0.086661616392100682 -0.020615848290146663 -0.1551644133075708 1.03520050723019 
0.0455693626136984 0.036924636749701686 -0.49167205364563982 0.2127230218763993 
-0.084217820010557706 0.0899348663192929 0.018249119558688218 -0.96133985002490552 
0.0787253929400204 0.15778555690667684 0.031779683231730194 -0.16568617760648008 
-0.56548708144637627 0.6440005781453001 0.31783308881179878 -0.23727684653645961 
0.19722922859850484 -0.11795008600181237 -0.31701418858121361 -0.31372048122423524 
-0.2771911099135167 0.0095149294934253614 -0.63578701093900147 0.57788315337690754 
2.6515574757333651 -1.7946779202456264 0.039055037634464877 -1.1708600446224573 
-0.87521044441378992 0.61092161049154614 -2.1255385428245339 0.25693390498260743 
0.56100502610672143 -0.41688912265020317 -0.29318537644460019 0.25149814968438844 
0.020265163971300515 -0.061424864778298699 -0.15891269326532431 -0.15856618099133465 
2.9803694437593382 -0.80447850855476366 -1.7070859484254415 -0.1895005633396144 
0.43219239355827976 -2.1225954480758591 0.82241071882597605 0.50232041604524802 
0.32272013544509054 -0.19435034348644753 -0.29179234093979323 -0.29393058753487722 
0.4493001707146218 -0.49935734134906362 -0.3025418419985188 -0.3501927082856634 
1.2259867253121293 -0.21624603945462015 -0.56163075668022078 0.64058664731554127 
0.21439617171190345 -0.29120284995346846 0.031357791817688226 -0.26716028445961254 
1.5442247090328822 0.045680262371316435 -0.66186827354897837 -1.8633832838961086 
-0.016224667486953566 -0.22091046190722541 0.11158393906187891 0.0038966286847826517 
0.14503683330635495 -0.29960452627329137 -0.20601152965721795 -0.2804093239096872 
-0.02824093441169799 -0.23873572450251451 0.17109706167952951 -0.21384836407536037 
-0.13269841941112243 -0.13065735689364383 -0.050991975310024307 -0.37069504659141006 
-1.6536214616338849 1.9116556049366917 -0.72662252874917588 0.0046485589085603499 
-0.041211711554953775 0.037903824833593724 0.0030161420616218754 -0.30039781305944196 
-0.041211711554953775 0.037903824833593724 0.0030161420616218754 -0.30039781305944196 
-0.022385753251986662 -0.18270925517528813 0.045381356824160349 0.10073898653172383 
0.22012795295089146 -0.1519103065104514 -0.41922215064402585 -0.40714378256813294 
-0.080508141053125204 -1.3387435841105613 1.844474895059127 0.47435199160070202 
-0.49625950046667339 0.14307119002175878 1.0136621708711402 0.25185925118662944 
-0.6120623856768157 0.4712545722190894 -1.2646372706288744 0.29387244140614921 
0.012230777343604192 -1.4224809514769259 2.6621631794181635 -1.6611996073968101 
-1.258952600026253 0.91098162194459564 -1.6094990516976049 0.21173398094479778 
-0.42176583057089972 -1.0707137153175241 0.013821306862882854 1.5456603247172802 
0.047412252458180197 0.0098362472095816569 -0.23221481386273257 -0.31707058245211284 
-0.082380683558484019 -1.0943796443624814 2.0789461015670563 -0.25869627787816191 
-0.082380683558484019 -1.0943796443624814 2.0789461015670563 -0.25869627787816191 
0.03993140197697146 0.98942436730985583 -0.0044139844712132933 -0.38105375994627289 
0.03993140197697146 0.98942436730985583 -0.0044139844712132933 -0.38105375994627289 
0.03993140197697146 0.98942436730985583 -0.0044139844712132933 -0.38105375994627289 
-0.071135842062648044 -0.32743428642875649 -0.069309568299649751 0.22742076151324284 
0.21018826842558247 -0.16655619561348434 -0.30827697144095445 -0.25203147036936585 
0.098801626721246372 -0.21553594889779329 -0.05895646211974017 -0.22629989551990751 
0.33289765951518113 -1.125076840685082 -0.76813747913867547 -0.10502290780588699 
-0.43532032387525837 -0.45198952603684639 0.34114711651267859 0.60762344917236732 
-0.28543486999913215 0.79081696221782416 0.16469671664004198 -0.099009318143853123 
-0.42713541352689399 1.6626034972836683 0.1647985687502872 0.020432887018615561 
0.053544625858946954 -1.03564899554677 0.28220084972371273 -0.14797213441605178 
1.268765715078549 1.6590577989114188 0.058194412832899833 -0.82021798115728528 
-1.2694625687840555 -1.5640013846778866 0.16725249356304817 1.0135451690321158 
-0.42653434835301668 -0.12798182119087487 0.56361700865314179 -0.58856689886082281 
-0.99115342676702844 0.13407609804736564 0.0087208633042813732 -0.055674600585064557 
0.10593430796939246 0.036773813429157337 -0.42983186420987241 -0.66929490055509777 
0.0052901684620573486 1.0536136645657082 0.061213437044586524 -0.66897732283931155 
0.0052901684620573486 1.0536136645657082 0.061213437044586524 -0.66897732283931155 
-1.2432120960899868 -1.1585233849699079 -0.51673380717085338 1.4864232181266259 
-0.089067177607098397 0.60527113094044482 -0.13819375856541791 -0.8283982059456898 
0.13221918049171763 -0.097546881007075328 -0.078070572962886955 -0.23163146992632461 
-0.09838619544621989 -1.8326780181575448 0.061859800789366065 0.71718199115605608 
-0.29201936511787491 0.12197839271516663 -0.15006963558643571 0.044691315688969675 
-0.63585763239737736 -0.28428386108690218 0.78351184355252412 -0.28030075658784775 
0.34458246331759829 -0.38938251859978373 -0.65294987709183117 -0.40496650523372729 
-0.63585763239737736 -0.28428386108690218 0.78351184355252412 -0.28030075658784775 
-0.089394160768713732 0.34432618568076356 -0.010254704073156051 -0.88085274997375518 
-1.5554908340396416 0.12967836711510353 -0.73413587063082297 2.0733708155026838 
-0.77312230461422782 0.51100316058849871 -1.3238128948824879 -0.94546012007843783 
0.21052982352824909 -0.24750435993411424 -0.13541759849443277 -0.29903101128770881 
-0.8857177794774802 0.34117818457673704 0.24348162846475185 0.66659087206335665 
-0.082675032038165924 0.120143258629375 0.098873111938664521 -0.9017102427749486 
-0.082675032038165924 0.120143258629375 0.098873111938664521 -0.9017102427749486 
0.094644495299029283 -0.2713878480437511 -0.14647089586145834 0.04964288780403224 
-0.4075955017232144 -0.90064104826671498 -0.19115916951125006 1.1607089058159616 
-0.37619954555909779 -0.083608312967758627 -0.21250006764655413 0.12178358866516725 
-0.37619954555909779 -0.083608312967758627 -0.21250006764655413 0.12178358866516725 
0.044375564351213884 0.36650919525156872 0.20468667636720445 -0.20491173283580871 
-0.62033637119231555 0.50289138767804187 0.0089342016994556038 -0.16907424391933962 
-0.1595545298612942 -0.57426960387479709 0.15298113196345164 0.4280709853459071 
1.8994565262152174 -1.3679741880767717 0.025837613192120829 -0.58911085557978315 
1.8994565262152174 -1.3679741880767717 0.025837613192120829 -0.58911085557978315 
-0.64601532931127104 -0.45135124728847681 -0.48837825726402195 -0.046745678270959781 
-0.68811819609973002 -0.10757287029390344 0.062018490609265939 0.86173516461738453 
0.83630158843723934 0.13771943416178728 -1.2307152775126433 -0.066310610050825364 
-0.68811819609973002 -0.10757287029390344 0.062018490609265939 0.86173516461738453 
-0.97135694533000261 -0.30981315423768419 -0.28556120212070291 1.0160188889979946 
0.42436636816747231 0.40398138499463943 1.0224828099658181 -0.83228044434749571 
-0.48489053386320807 -0.077430214627841248 -0.14634037104375686 0.33499669296640872 
0.27187557584791244 0.31166159161098878 -0.21705686499318638 -0.54526719706831206 
0.13066601977980027 -0.19299223201512755 -0.1343310445236475 -0.20766730294815006 
-0.42782550771343186 -0.96150447024953944 -0.95270893395431433 1.5745408865220603 
0.2292621291039546 -0.081144916538402473 0.28969065725552551 -0.46013387090738778 
-0.79879939784529441 -1.6744122235693699 0.54680839482375954 1.2346537848926862 
0.24458843574572595 -0.029590535084553019 -0.27364859534706631 -0.81012704957516168 
0.70423098104623072 -0.0040456909610477737 -0.56906506979782923 -0.13477011844200404 
0.086432153543845647 -0.37497721773511705 0.088343756783486854 -0.011755999226342212 
0.53557380419636402 -0.1022321612547339 -0.57046576694546824 -0.7614667268475015 
-0.39704172542328237 -0.040721316695988018 -0.13221991076779727 1.7246137174778968 
0.21612095889114702 0.070477789290448789 -0.2822938762054879 -0.18324442032048638 
0.64676106000319344 -0.85616102189890964 0.73280276011712298 0.12493440372050459 
0.30277679721714162 -0.36121434880678627 -0.39901684374632967 -0.41896608836519361 
2.9856449264109628 -2.2086850626506549 0.017321213279296491 -0.41249183860203448 
0.12376925513792798 0.02472846853819809 -0.26079207920208741 -0.58758019903488934 
-0.70186811381334846 0.10724881201735864 -0.26018106601294683 -0.27958648547642917 
0.11157495071259013 -0.040267264808139455 -0.14916435819738655 -0.10780027339189856 
0.043827184740246355 -0.093546651976899653 -0.14286771471538073 -0.30431879640603432 
1.0270213583426344 -0.68380511993732518 -0.014075072783053436 -0.43082938339640464 
-1.3864215212095297 -1.6026019240410849 1.2424844819921623 0.38235982488282383 
-0.0066810812949577017 2.1345468471222193 -0.03076956722387552 -0.066251873279346271 
0.098707813673461972 -0.17629813648441026 0.019862168592070031 -0.2237951407054822 
-0.3062680429794451 0.54305910543764035 0.050398516117805964 -0.53433078429478187 
0.15843737613924908 -0.38553090034749987 -0.14170363880219589 -0.19906924943168686 
0.30847926855663682 -1.3954657258718923 1.8290879790790653 0.45274936999204524 
-0.37792245537367936 0.53174628874146757 -0.35684424162754652 -0.2875756542429237 
-0.48933459307653904 1.7729722952802593 -1.5208055629252288 -0.071704317004860324 
0.28081800028924819 0.20561100319615699 -0.96471495392900175 -0.35000513808437939 
-1.1067127527342457 -0.62103854085574561 1.4581653551916478 0.067737805410714627 
-0.64603249080476954 0.88275024499654109 -1.5335519576962779 0.24473224986872039 
0.17119670854728875 0.37538099066391184 0.096376960686368709 -0.99718028558268701 
0.25493176735426992 -0.0270263613546061 -0.11090464906770213 -0.31627094832625757 
-0.12307294409842313 0.0039630005663672391 -0.12563631586468993 -0.48017534532761708 
-0.15336210657228921 -0.089574013947450959 0.026544858592759728 -0.41948116774434285 
0.28378917895814337 -0.19589007925867474 -0.12515919303167161 0.034509474633952153 
0.28378917895814337 -0.19589007925867474 -0.12515919303167161 0.034509474633952153 
0.12931446497720245 -0.26961563337968558 -0.066617251652912782 -0.11697092383835808 
0.13519444426224844 -0.73346975947434534 0.099053777630926654 -0.97145592102265765 
0.88526419874276008 0.016562650691741065 -0.090612054676608378 -0.035614017191168378 
0.27220261391012368 -0.20854312466862934 -0.19848051162640323 -0.31596728576256089 
0.88526419874276008 0.016562650691741065 -0.090612054676608378 -0.035614017191168378 
0.88526419874276008 0.016562650691741065 -0.090612054676608378 -0.035614017191168378 
0.17768280075802481 -0.11347170129049276 -0.17139276408790244 -0.39823476009587361 
0.15492485092051178 -0.25350548399526818 0.15651785701617091 -0.1350087385559692 
2.4217787585349049 0.13674559151749316 0.058099421118890826 -0.56273906182068378 
-0.090765403867778482 0.12222859466885683 -0.13710672970410137 -0.17030280985902202 
-0.38689162658566867 0.42866398835272734 -0.021064101131813409 -0.07646739415472914 
-0.14166561077455075 -0.13474493515855029 1.2369317556131327 -1.7456766121996421 
0.054106604484229659 0.018566032509205993 0.46599420057772245 -0.013877803704489572 
0.38350989376178463 -0.49509194495152925 0.031953487723673374 -0.10234047571191897 
-1.3729823749520969 -1.0771818359443894 0.9882797506443437 0.44311117986783649 
-0.19854559430712376 0.21343385854722041 -0.10147349139824273 -0.38849036974383439 
0.65710092037897405 -0.56828424759365359 -0.69446842296597799 -0.29225017103666262 
0.12782760521914702 -0.2917249955778452 -0.012893720956023057 -0.038482281906942861 
0.12782760521914702 -0.2917249955778452 -0.012893720956023057 -0.038482281906942861 
0.28576895042187306 -0.091428727481486283 -0.44034260005151216 -0.57046787673594923 
-0.11181422137453226 0.37145638411882564 -0.56888464795640448 -0.31727179771968844 
-0.6574474101574419 0.33896664779933483 -0.020544231204302328 0.0010612093059215351 
-0.6574474101574419 0.33896664779933483 -0.020544231204302328 0.0010612093059215351 
1.2186137284149241 -1.1645187623590494 -0.17728785924528398 -0.50027249434024024 
0.28685897989322068 0.021244323737968404 -0.14645673924245056 -0.38236377596086102 
1.0075341428160929 -0.073133659284529751 -0.18857664624913556 0.051420356446068988 
0.56578139109780401 -1.0504851141114706 -0.057279979082616533 -1.6903774555496394 
-0.11588638725776931 -0.025087377934973527 1.9152322825436197 0.40843838110502456 
-0.053884179826273804 -0.041705409581784772 0.11102144155478416 -0.3139574410037328 
-0.11588638725776931 -0.025087377934973527 1.9152322825436197 0.40843838110502456 
1.8807149302799584 -1.0229938242875378 -1.4294383344718109 -0.66527797621500928 
0.33758634409490529 -1.1519330285446185 0.030830586289519707 0.027017050939483207 
0.33758634409490529 -1.1519330285446185 0.030830586289519707 0.027017050939483207 
-0.29703993528943751 -0.053116781651275341 -0.2701540203490399 0.87665396417004415 
-0.29703993528943751 -0.053116781651275341 -0.2701540203490399 0.87665396417004415 
-0.95975636795628705 0.44884736514773083 -0.60560582209095282 -0.24125815602013345 
0.057065201834354901 0.099507429658296023 -0.21226913253827365 -0.34184084788620772 
0.21187298180672562 -0.36139711684252057 -0.47768209938535017 -0.13895557180096413 
0.13407626387793781 0.14827482702052636 -0.037010597688299368 -0.66362054010719518 
0.22297611610821055 -0.299955039153323 0.028100907294148034 -0.66664303866163888 
2.0507817311445979 0.13156453349438729 0.13388952220526895 0.29650470404331414 
0.1720808599384113 -0.058349418281825841 -0.18068043099834877 -0.45665057320322389 
0.43952529178850958 -0.45608028033179593 -0.28682067000175621 -0.33535435470305541 
0.010472628817676577 -0.01378080915426032 -0.014002130958063578 -0.52140807078066165 
-0.021521477830660697 0.26516848540997107 -0.29823218578072264 -0.86949161802614183 
-0.9876731474819177 0.40525179727685728 0.17243311701067987 0.030044841391048085 
0.14675894684871688 0.2901158291385183 0.0037050566633852556 -0.26548774780601908 
-0.28900198792075832 0.36292129322659011 0.015628650039020239 -0.15966692129657215 
0.77349931685304973 -0.75625465743391374 0.10608479103049817 -0.5661712500366719 
0.14675894684871688 0.2901158291385183 0.0037050566633852556 -0.26548774780601908 
0.026680289082198883 0.19522569480721719 -0.2173031357201291 -0.11312324992087291 
-0.86637662084908373 -0.14048082411647067 0.1260123457799518 1.2035895758136874 
0.08914451841688216 -0.20493362436175538 -0.062824989611180271 -0.40523235517746831 
0.20258384570528812 -0.017243777055993267 -0.58900423884065511 -0.052526484173419617 
0.39081407528668793 -1.3434508315191607 0.13802338064134084 0.15909880665373952 
0.65538757270529524 -0.084369922568581418 -0.69515696948384731 0.228741234751136 
0.095468758627763523 -0.082522457862492363 0.011549487987467879 -0.43950575412568493 
0.27361528864712831 -1.0159242217409197 -0.069272463505762549 0.96430458351101767 
0.71273799396598347 -0.015568432594179789 -0.75788341815731286 -0.16687064534360685 
0.18342017583881731 1.4473019718758173 -0.017402327016739237 -0.099528256205808879 
0.22994984170529004 -0.20264585872143884 -0.34557157527360077 -0.29293273552061078 
0.11087630278764686 0.89061994833349689 -0.010890503880208013 -1.7448102195275021 
-0.0064477797249394633 0.40288081104600548 -0.63909376379145333 -0.43986365215641499 
0.15233153340804306 -0.30322104249438803 -0.074210173694489151 -0.19812930697716827 
0.14433886204910318 -0.16168535807551457 0.0010831664316104032 0.018195396792457248 
0.14433886204910318 -0.16168535807551457 0.0010831664316104032 0.018195396792457248 
0.25777687038369407 -0.29597929564564962 0.0017080255297886836 0.029677508865385657 
0.83245945208107086 -0.041052967661603004 -0.87323166022539922 -0.63197104743156585 
0.83245945208107086 -0.041052967661603004 -0.87323166022539922 -0.63197104743156585 
0.14396788195017921 -0.19368913085989148 -0.03832708248296459 -0.28555074681261194 
0.57150092352620852 -0.078005287248287258 -0.16623623411415084 -0.97941821764360648 
1.0745254190517322 -1.4123702032152656 -0.024367238591786154 -0.046282189029600594 
-1.1797481681786413 1.0330899927839552 -1.1109976085155431 0.0089093827060888198 
0.18636274649988524 -0.11898769300447981 -0.2349195651952749 -0.28318105671313948 
0.50179005767120921 -0.3607716079267545 0.057170405645175601 -0.61069539193481037 
-0.70306634476536312 1.2413188989027799 -1.2679004101387534 0.38766625262973187 
0.21215058628565767 -1.0497734546514672 0.39681791596074656 -0.05556300280019158 
-0.040813561931253642 -0.1722514310685444 0.065936086944676051 -0.37511586779172573 
0.44661765756143668 -1.6519898570516143 -0.017503474171423672 1.4243773800098287 
0.50766152342497395 -0.061993253444243654 -0.18884473946946395 -0.32517645362216568 
-0.40799796666214316 1.4674961199888741 -0.098773271607525914 -4.8316355430013861e-05 
-1.0021390938389383 -0.65361647925267607 -0.0017486482613980475 1.8894803592205183 
0.53292149019013746 -0.38044065143694761 -0.33242620592599809 -0.12912303790774723 
-0.14318384140121146 -0.083637489883855609 0.05392981981819113 -0.29070973514505016 
-0.18885470950586636 0.076772900383510881 -0.11373402695221643 -0.012149970152517363 
-0.89394361933006783 0.84775851024723736 -0.053126734548287792 -0.38313083619788946 
0.045470856471016757 -0.017719554941960529 -0.10960488656111958 -0.43038591422265443 
1.3254693906625437 -1.6976791656699208 -0.032403469584616651 -0.4867833559354533 
-0.866393605519858 1.0163469090362096 -0.81219572543199614 0.51220986791227474 
0.16552435499482815 -0.2532365136498177 -0.67131679085412921 -0.086067449700977516 
0.59320966932203489 -0.64872834096421195 -0.15126483024602549 0.65528043906222877 
-0.051647996628267114 -0.6737199515365816 -0.028257828873326243 0.10466015301678308 
-0.051647996628267114 -0.6737199515365816 -0.028257828873326243 0.10466015301678308 
-0.12734573627060852 0.06114538274497662 -0.061839927811232945 0.020227079452636174 
-0.61355177263298788 0.41977325759061823 0.49301774499793183 -0.030110198333383992 
-0.18466820202132089 0.42038835152972298 -0.13820386533824308 -0.39164185945792751 
-0.54740851313189243 0.2870122833594424 0.20820792533440069 1.7135108660851004 
0.11979554145528661 -0.018392182986438271 -0.20719216014181846 -0.76103808623780811 
0.85109055995466798 -0.82522019067749053 -0.4111041119381994 -0.55825895140808623 
0.0086246091408085646 -0.29134843456190784 -0.0024004709386739251 0.16588156801552834 
1.8054541774280444 -2.4961056748143857 1.2557639141468662 -0.91340475310650127 
0.38351689198325828 -0.27606950577213901 -0.11353703505030144 -0.15032563012006117 
-0.00064487552674925613 -0.01939329495972969 0.062556658121207115 0.57257000442795958 
-0.00064487552674925613 -0.01939329495972969 0.062556658121207115 0.57257000442795958 
-0.00064487552674925613 -0.01939329495972969 0.062556658121207115 0.57257000442795958 
0.038776353896339842 0.045113287688565096 -0.15493427809517629 -0.44187541492409571 
0.28206653778511426 -0.27570886863604105 -0.21785046533377508 -0.044121128543516686 
-0.11294836100622709 0.34917556728670585 0.14880620210579132 0.23640464322018498 
-0.14692540684330221 0.042791339736381231 -0.017021628523010833 0.14763277937731978 
1.1346396938837358 -1.4360881453037126 0.077570134669844346 0.13583609694696624 
0.9158050295833936 0.029851881159397881 0.085578914192601593 -0.1993423178867666 
0.13112289738559615 0.055758779156749601 -0.20421920794576154 -0.43031937703909584 
0.9158050295833936 0.029851881159397881 0.085578914192601593 -0.1993423178867666 
0.19699948743956455 -0.10297089392972777 0.06322651693013355 -1.3140415078195131 
0.31325395627489228 -3.3226157018844051 0.10494966669961084 2.6693383254968861 
0.19699948743956455 -0.10297089392972777 0.06322651693013355 -1.3140415078195131 
0.068756313424514576 -0.010864467315019721 0.091947751260891136 -0.23363572821325568 
-0.19208277728294657 0.12056304986908654 0.13262204686921705 0.0848567816643475 
-0.24085612438527076 -0.47303198522421053 1.4513457284578264 -1.24768624156761 
-1.1288012748053053 0.34542017116282209 0.048252999715392222 0.021646368845851756 
2.1892906417033662 -1.8413783811780591 -0.00073414034479977954 -0.067551927650038354 
0.069197337880272228 -0.0067100727624818182 -0.028124366662068391 -0.0063977227775462893 
0.31319431059452918 -0.22215730255900398 -0.7151699797490878 -0.67903004925314314 
-1.4054638019842667 0.81679262093750771 -2.1875696246844187 0.32877045196853261 
0.11663700246886398 -0.4638207838048295 0.0072011638497937094 -0.027757366779998707 
-0.051338244330158905 0.12272889489662456 -0.5189138278301042 0.018866419682664295 
0.79055779687296601 0.71396558982403502 0.13158866486126197 -1.3042692572907884 
0.39191257116880285 -1.1538293313583545 0.012496683899282861 0.05434138134981982 
0.63620488690545263 -0.58112969849921037 -0.52331938555666935 -0.56458509383059163 
-0.13802020020768896 0.71272084382810508 0.16055004584929697 -1.4270516389793291 
-0.19742885836316015 0.11264409583844757 -0.17678931679668802 -0.037324344670894356 
-0.9447469918663558 0.64926376868189617 -2.1979207019345677 0.24081837119104438 
0.050031329340969349 0.70012972887379443 8.1948891104942232e-05 -1.0150822469913623 
0.60861460512938392 -0.39726944176818252 -0.41531807928796993 -0.62949376454019623 
0.010418543216783066 -0.1086108695835849 0.010979627202703797 -0.40133482980957536 
-0.080738264711024674 -0.025197082886224118 0.1855628946244941 -0.3908941549519297 
0.30114022806930224 0.61035021815164514 0.21876663664965104 -1.063650339250072 
-0.1604126682323409 -0.034314818401076287 0.012452157838788067 -0.14007859447060794 
-1.1609481409588553 1.1431835130739461 0.017087407822438536 -0.77513118272084891 
-0.027615475532528994 0.3649803283500892 0.60462340295418771 -1.1851184002161632 
-0.22787055405455489 0.2350592100733061 -0.012360370468321343 0.013688589696022263 
1.8815319860821136 0.18077076616260668 0.20607801427489236 -1.4452779230025539 
0.26061272730232588 -0.20707063588638555 -0.085375151973066499 -0.10302544922371039 
0.34639819125517912 -0.036609157652953403 -0.060776797097905344 -0.24918679965207149 
0.26698922586674395 -0.095542871968621351 -0.32536811095251583 -0.29982407129428651 
0.072001594929897716 -0.010138145337207499 -1.032447206693299 -0.73446610495614317 
0.19623522351622338 -0.58602590139044874 -0.16940504841513065 -0.32974529386582602 
-0.24354869770123183 0.47852452067062862 -0.47728009787769204 0.046081972465221492 
0.32030366571435431 -0.54254249593046711 0.035587471884786281 -0.15252527006878336 
0.47630227309771311 -0.098655522409898472 -0.050537316359805393 -0.051913464359611292 
0.47630227309771311 -0.098655522409898472 -0.050537316359805393 -0.051913464359611292 
0.18133934815948743 -0.2381661765156233 -0.098771135189579279 -0.20924132766446213 
0.47630227309771311 -0.098655522409898472 -0.050537316359805393 -0.051913464359611292 
-0.2110657250308271 -0.15786691736532335 0.18348941925679338 -0.45531148747360561 
0.71855802804286795 -0.75360124258514127 -0.052907208760630507 -0.39169654524355108 
0.54476625184188632 -0.23514210142522501 -0.2245316376152377 0.018801569783019122 
0.21107423602537428 -0.13704717024496132 -0.27133634865870326 -0.42397481777059048 
0.18349124799896754 -1.0087744700345167 0.63063939526364754 0.72240749417240446 
0.33717050533274834 0.49812034796592669 -0.5485556501178569 0.13991589815024855 
0.38213097184520706 -0.48075954484002803 -0.60104077276973478 -0.36367699530783992 
0.62337161441022404 -0.67567099986572443 0.46636698540342114 -0.23287598042144589 
0.15207079808230586 0.024322519118425399 -0.16368450495203107 -0.12669438343776124 
0.62337161441022404 -0.67567099986572443 0.46636698540342114 -0.23287598042144589 
0.29495392910019663 -0.079349484975324916 0.14630723888022482 -0.12145550884168232 
1.5087766482044782 -1.638791246790078 0.072925044524435031 -0.32100723800543018 
3.0502039255605027 -2.2184160700869722 0.49462271364925808 -0.71844300789107385 
-0.30078745757147418 0.48250784383359657 -0.024364065880580217 -0.20023684486768034 
-0.30078745757147418 0.48250784383359657 -0.024364065880580217 -0.20023684486768034 
0.60096195568116861 -0.69106662102386607 0.15267718305634176 -0.62842384844075039 
0.18193736986432146 -0.10244649515265464 -0.14025667444860956 -0.37036973387920102 
0.050511500721943464 -0.1644733112559138 -0.012501904447115839 -0.15416634427456882 
1.2250355856688451 -0.43285192575493592 -0.94445921369177155 0.10570346526326746 
1.9011295644182735 -1.2791242338672766 -0.94611592395883104 -1.0294353348629941 
0.30867642598474393 -0.23131583180829302 -0.37810670200613178 -0.016144657483964833 
0.16435416684595469 -0.051949335008561887 -0.12092733730328246 -0.20415966003424779 
-0.75922341906198565 0.77781856998877297 -0.0039944532948070904 -0.12283558656348617 
0.12261247443325689 -0.067412363670171727 0.0664547140105025 -0.97750830573223657 
0.085997662510820055 -0.10133564629958307 -0.12362328714128941 -0.11601188447513405 
0.0010050612844473943 0.14918223521287768 -0.18499691947680053 -0.36985708093653979 
0.26494114288580262 -0.15922548198006159 0.83734481773448466 -0.17371626954716102 
0.20683760985223235 -0.19525878549665915 -0.13481214084319731 0.019221527902507179 
-0.11208422482977599 0.034106410511312135 -0.028055417826719581 -0.15632689382231302 
-0.44762995276684225 -1.177269655786997 -0.7427154265602286 1.3778659235798971 
-0.11051844803331325 -0.098888993340383355 0.13862901320916507 -0.26149257634901646 
-0.11171926649587449 -0.05955358596701768 -0.23972670293322135 -0.17489999642873416 
0.92845108113750208 -0.80232747568781992 -2.2116891643423227 0.21133441010554976 
-2.2704281090133183 -1.0882563648600552 0.64989501817402862 0.33986878808360566 
-1.416494932753855 0.9739648835620468 -0.45654603469465832 -0.067195640484561295 
-1.3107708125519322 0.23647086905846992 1.5618779999601924 -0.71906961696127858 
0.77593996052743153 0.24038879009019151 0.086386933152245854 -0.60519273061414558 
-0.98539641250822951 -0.28309929365435649 -0.66451098333846503 1.5148208560510863 
0.045285039766757698 -0.02300575382427171 0.053923379765800569 -0.19646856534882695 
-0.15449430595707569 0.7424841799643227 -0.3486847030952378 -1.4555590136558338 
0.32187159305678925 -0.63788816395526493 -0.42411253251482428 0.070820573816536392 
-0.94550290030117989 0.51136749435475304 -0.79975330571096648 0.26226351092654232 
0.32887493899123366 -0.34637066448055098 0.11207636354736025 -0.64218490703838083 
-0.42760126793039244 0.4090768132020608 -0.027761156222283451 -0.0099845261073995134 
-0.42760126793039244 0.4090768132020608 -0.027761156222283451 -0.0099845261073995134 
-0.42760126793039244 0.4090768132020608 -0.027761156222283451 -0.0099845261073995134 
0.26983558632012328 0.70860348634986658 0.025159316795407463 -1.0572410162145536 
0.030541466546138277 -0.037046889397302732 -0.12401153688219449 -0.25971835107956903 
0.8773197628571443 -0.80181528717185813 -0.56586637894885405 -1.0205683917481134 
-0.47409640321972596 0.41390307073960064 0.20754209554544126 0.34212728950892302 
1.1345081461393425 0.51369130907954053 0.46834817749666169 -0.38458087420877973 
0.064719240950749435 -0.48229217657261853 0.57968571311824824 -0.69282225723252067 
-1.1198460058520925 -1.8846943301510928 1.8282165763306777 0.52315018824293102 
4.4595695766503738 -0.33750790026772215 0.66987003017473878 -0.088574719980796676 
-0.91573613273969534 0.54339384594252382 -2.1558415956113763 0.10997078185383241 
-0.2653598423086998 1.4913309921159514 0.71154883896900223 -0.29139391806701614 
0.84880027673614178 -0.85199917540060521 0.0097215740710906301 -0.26709402002106297 
0.15738572953334376 -0.1270053062471293 -0.47153163054908281 -0.46423399626466305 
-0.081745845731083885 0.0079643675604979675 0.25992925847350701 -0.24310235962564597 
-0.081745845731083885 0.0079643675604979675 0.25992925847350701 -0.24310235962564597 
-0.94594040614713482 0.75531395527020795 -0.37398850666759831 0.033530493641370389 
-0.5114310520308325 -0.1003215282801677 2.2322569559381615 -0.67657503249007545 
0.083268466833277641 -1.7609689116601994 1.1611833340268767 0.42406429976235965 
-0.12827966767212962 -0.73938298918139644 0.64580578047141057 -0.0071184340624224907 
0.26046676354603732 -0.22711395605268359 0.50270621051264175 -0.20423620589137939 
0.40047060762474218 -0.37676747444342035 -0.026689542771061031 -0.21222227812389674 
0.40047060762474218 -0.37676747444342035 -0.026689542771061031 -0.21222227812389674 
0.40047060762474218 -0.37676747444342035 -0.026689542771061031 -0.21222227812389674 
0.40047060762474218 -0.37676747444342035 -0.026689542771061031 -0.21222227812389674 
1.31589957170217 -0.24288488201337965 -0.11043002877845109 -0.021483341769852858 
1.31589957170217 -0.24288488201337965 -0.11043002877845109 -0.021483341769852858 
0.41538606805451328 0.18302051500647318 -0.13231946542174691 -1.2727191311743247 
-0.3322562344434643 0.17165630704311965 -0.041892926328339498 -0.14416166233988903 
0.078122589919923033 -0.10608796089699327 -0.1321547357070455 -0.33635887872702364 
1.2560646506782183 0.023674612123290483 -1.1407265960549799 0.0082532466466144448 
-0.3109110063993093 -0.29861620492145519 0.54628587138278251 -0.96819503502735538 
0.39311034353611729 -0.19314007036512795 -0.44113937184309004 -0.044354151296229459 
0.39311034353611729 -0.19314007036512795 -0.44113937184309004 -0.044354151296229459 
0.39311034353611729 -0.19314007036512795 -0.44113937184309004 -0.044354151296229459 
-0.22853140081855594 -0.28491407740235619 0.017648172823720693 0.54558948784643513 
0.053152759852182131 -0.60256890685866205 -0.10967685113812545 -0.69677370826995999 
0.58084839137756505 -0.49762064288263125 -0.97915395748676437 -0.83499769934630907 
0.43764200653394481 -0.57332652725038991 -0.14222453656009032 -0.28652595045802631 
-0.121987344888851 2.8587648498088827 -0.45412853553748322 -0.14779370518256429 
0.070354265441497116 -0.34113664758640216 -0.13650915078319142 0.42645320865647562 
1.2472436033176344 -0.6004543051050979 -0.44283334772552996 -0.72987427015842654 
-1.7158929633217195 -1.4059401804843534 0.78630401667277428 0.38375908743455678 
0.53369733949686848 -0.51340141961582553 -0.46582460505200451 -1.2624806174478591 
-0.59166032244460132 2.1734840846864838 -0.38280581526364954 -0.63391983504208804 
-1.4866991939239587 -1.6985398940100094 1.2576893013490875 0.52637812323937916 
0.81976309432698435 -0.53660413095425963 -2.0534697718442785 0.34781366908272482 
0.5378934781664988 -0.55602461222999211 0.018209331176257035 -0.73499083031002899 
0.38775997625045372 -0.58974456839888778 -0.76574722574322052 -0.041429602684346006 
0.11233456172396483 -0.038846460198155679 -0.47586350502015018 -0.47427571002347513 
-0.63923637632411168 -1.0421072399883529 -0.012965412723437833 1.5339224337755588 
0.085140788519692118 -0.22314666917242831 -0.056297347440592019 -0.076610539511068415 
-0.21809654031391684 0.038385684860102631 0.48797212997704209 -0.78840086504609896 
0.40206944129777966 -0.15952767239832147 -0.20795791315204476 -0.43671017363439779 
0.92556315157830849 -0.29750339794492414 0.069751619136423873 -0.7130998053951404 
0.92556315157830849 -0.29750339794492414 0.069751619136423873 -0.7130998053951404 
-0.10029722321528967 0.22678594261791257 -0.6617656966162595 1.3466557421543619 
-0.89229201670650193 0.59523954040109817 -1.1563906250852387 0.27745621648067048 
0.92556315157830849 -0.29750339794492414 0.069751619136423873 -0.7130998053951404 
1.4104995691191147 -1.3314073750343922 -0.040777576854514205 -0.56073850501426936 
-2.1541932452667392 -0.32222495047005123 0.25565939945547045 1.576547171094874 
-0.12188340513427097 -0.24335988116923091 0.49658793055001166 -0.93749680784771483 
-0.12188340513427097 -0.24335988116923091 0.49658793055001166 -0.93749680784771483 
0.33483466309778998 -0.074497343894859597 -0.049574690137541101 -0.73522279217866904 
0.1144124458051831 -0.57983212809611817 0.30784857427777734 -0.53952204358546907 
1.26703587651006 -0.57154012379258434 0.20273319715445104 -0.18758897590645351 
1.2633374851513428 -1.0572625479977455 0.13501516964184454 -0.088772601991698522 
1.2633374851513428 -1.0572625479977455 0.13501516964184454 -0.088772601991698522 
-1.079348011161978 0.73487337508995698 0.35609371066961426 -0.87005904034303083 
0.40493544724575486 -0.6680318031911554 -0.33708127143651895 -0.089950526617999266 
1.1093295014626632 -0.74554978785802217 0.016981405072403446 -0.88020794719126139 
0.31707419631923478 -0.22652039401110363 -0.59685258443148936 -0.47021191318418359 
-0.32228218901999361 1.3503139110530042 0.0074887787576025464 -0.12375458742606793 
-0.2070453010735524 -1.0148561440431747 0.16635491677141481 0.30805862128111378 
1.2501830633810327 -1.3635770939814464 0.62871614963500866 -0.97084278938926127 
2.1687018421127782 -1.2390858961462525 0.024598675791123896 0.022803384488929952 
-0.14520169019583321 -0.25882838776980377 -0.08316753772273261 -0.11595734895820635 
1.5604748841136455 -0.6424772746235361 0.32790411712625717 0.0073295500807658079 
-0.49255195776587457 -0.22926281218460776 0.68301891641138524 -0.38031891620767921 
1.3826310456911948 -1.208541640599708 -0.5759600070069516 0.025422266155548181 
0.49188426609409852 -0.097086298133476634 -0.18368237471358378 0.15556468510852953 
-0.3665218546506685 0.21698764839303461 0.35524460329416407 0.4391746361107538 
1.7287795146580145 -1.4729381822976759 -0.0095009447092996007 -1.3164302685509575 
0.10572939683614645 0.6572842728584074 -0.5309416441929119 -0.60849883729719245 
-0.14569790731760809 0.21407497448197454 0.2545902280900485 -1.2902256969070258 
1.1609183320933987 -0.93096520478716416 0.02356923408860484 -1.0363766487780384 
-0.90378165819194978 0.93102556910442158 0.12855707242475067 -0.49398434252939455 
-0.020902085846662907 -0.0035453209605645552 -0.0096774461319706941 -0.082751351558477182 
-0.092321291932365102 0.16378406387822575 0.069479381346197425 -0.58649448874671395 
0.53681828394316011 -0.37304415400454249 -0.026893838363355519 -0.26992094942786587 
0.17229614745903188 -1.1729638682952397 -0.30562788684212722 0.9754704478332501 
-0.12540336187589024 0.26745021227349036 0.013444315305161655 -0.34907218196861473 
0.44694634772199487 0.29784442433681013 -0.16927673032146753 -0.055926047490880822 
-0.74281252122997277 0.61140191781700404 -1.142795728957557 -0.21345968009638594 
0.33842717192380323 0.035337445438772576 -0.082579747309642182 0.048850978740458323 
0.088973013868731174 -0.080084981254653853 -0.21231672668804452 -0.49978547456787192 
0.16448967952672761 -0.23661641042724438 0.031120789605813687 0.05445019379035565 
-0.031592203933486503 -0.4433690775622226 -0.60364995092776086 0.042575824681680668 
0.61857396431465594 -0.44408982896552118 0.086792677844459848 -0.13715695392445534 
0.117006065359468 -0.018302338198113284 -0.73514790389269491 -0.1682386265098206 
0.61857396431465594 -0.44408982896552118 0.086792677844459848 -0.13715695392445534 
-0.070208996783664171 0.044577977992244243 -0.080387279091097469 -0.47824374072793374 
0.20862955090628724 -0.80837735746519845 -0.77127585870030846 -0.2031626368788261 
0.78159731563343182 -0.47580218117871026 -0.010397322424281111 0.029227698148261143 
0.095999509651024231 0.03409931858464578 0.064129400372844786 -0.83387192526585108 
-0.12114637917718252 0.21511084230486566 -0.60210943115687598 0.024306300061430489 
-0.12166730471708216 0.075228106625770605 -0.063421840409030955 -0.056738428388157874 
0.64432267601133797 -0.32284116837526461 0.35923537899616842 0.05562967927723933 
0.64432267601133797 -0.32284116837526461 0.35923537899616842 0.05562967927723933 
0.22876777800763567 -0.34582484670268931 0.51054356755050512 -0.36810549689617178 
-0.10684184718502224 1.063686187430237 -0.022114872007346721 -1.09781024057119 
-0.16845821293652949 0.63965819550760639 -0.056090613753610227 0.70375078654515577 
0.18723210428801215 -0.45116796645524021 -0.12820757455521817 -0.014512148921561691 
0.13565509974581841 -0.080497584653151405 -0.1966400564583447 -0.046921747394640861 
-0.28658022518987286 -0.65858960854072568 0.16485419275944865 0.58220846563427098 
-0.28658022518987286 -0.65858960854072568 0.16485419275944865 0.58220846563427098 
2.6928219400732609 0.12800055272100369 -0.68635050347664128 -0.85373629741315238 
0.096773973593115098 0.10168131522154124 0.25955567681101782 -0.21190484674662147 
0.1699891907208371 -0.62413064156829334 0.066542905843231942 -0.057185940616912213 
0.1699891907208371 -0.62413064156829334 0.066542905843231942 -0.057185940616912213 
-0.18132856650154719 1.0057584281979888 -0.79599832621331701 -0.4176285847778558 
0.22802997227057009 -0.29050021295091333 -0.50073595280237737 -0.36368899230639107 
-0.18761526343202864 0.12196634306359724 0.052189872155420314 -0.24440274677260079 
-0.44464172822335524 -0.34739917599125786 2.2308683993746024 -0.27342743747062276 
0.015335878259773658 -0.10969134301308883 0.42411083685071599 -0.24806020755456762 
0.1261544518146071 -0.15256255817883657 -0.19888647922088765 -0.006701293641227641 
-0.59925880495556294 0.59861657778557398 -0.12035319592814228 0.11108317020407214 
0.32596059541555655 -0.28552406178998629 -0.14996464804670234 -0.48760964286087732 
0.2029846189199967 -0.24670805310972571 -0.33071917721591371 -0.42024602712804504 
0.088803696765396858 -0.18675994763170622 -0.7380867482035256 -0.33109535405992646 
1.690968962433427 -0.64459264235966851 -0.44951883576737772 0.048609595541312098 
1.3770890330226124 -0.80102169535196921 -0.057835602544630299 -1.13621549738028 
0.19196294391471191 -0.74114500712879783 -0.028802780423623317 0.05058459515634358 
-0.089876238640742845 -0.11085872893278201 0.80215770538946551 -0.31834097058202149 
1.7762155942798332 -1.6249703816326526 -0.78743382015180963 -0.31462883212738235 
-0.18544416039001904 0.42347539375330923 0.40977511892159069 -0.47878539344326021 
-1.6020701066716012 1.3001048740350727 -0.61912919257438581 0.34029682080192092 
1.8319076293207492 -1.6350118303880221 -0.5488962290733721 -0.37485757744515297 
0.27003813582089503 -0.43599810527552196 -0.1153065335710525 -0.34864383930654791 
0.67380613581423765 -0.54402739221856222 0.51855220753858466 -0.17077194852023897 
0.67380613581423765 -0.54402739221856222 0.51855220753858466 -0.17077194852023897 
-0.10612616593426449 0.11158952887263776 -0.028380574479377974 -0.09646094209918385 
-0.10612616593426449 0.11158952887263776 -0.028380574479377974 -0.09646094209918385 
-0.10612616593426449 0.11158952887263776 -0.028380574479377974 -0.09646094209918385 
-0.93986888117981449 0.4171196010575734 0.13786934882766561 -0.67937735311029801 
-0.57849818525917407 1.228323060361538 -0.23449398663656834 -0.7824107994251519 
-0.0069729211806320024 -0.088440599147794396 -0.43317068093314803 -0.84882226589919085 
0.24316697291643233 1.0192293602755249 0.26134110810747141 -0.24938658105012199 
0.24316697291643233 1.0192293602755249 0.26134110810747141 -0.24938658105012199 
-1.1073867784239906 -1.9969696532107686 1.268127913016061 0.042069048514675883 
0.70276633304046099 -0.052916896857115911 -0.8169058444321966 -0.048496896067695909 
0.70276633304046099 -0.052916896857115911 -0.8169058444321966 -0.048496896067695909 
-0.030268704694770675 -0.23191864702975531 0.046686186111145306 0.36755627985693329 
0.19464459001301004 -0.052317590106194412 -0.030364444803202807 -0.13448093721529281 
0.26000905845308669 -0.10494725709457092 -0.16615354499999155 -0.30670168615063981 
0.76576663056008198 -1.1099230894706451 -1.2151973177761306 0.52082752164279134 
-0.2715866458503276 0.22635703472227844 -0.047445008383591752 -0.11090639263687167 
-0.066176178878276495 0.47866481452826559 0.15353201369536146 -0.73438361674097707 
0.4478182640923265 0.28475365238177203 0.35571416429170366 -0.3676003910033237 
-0.32634829773157242 0.39989674924775909 0.40671792090826886 -0.33841721955529069 
-1.5906407811907748 1.9860212345613872 -0.029782132001154246 -0.14143628718209761 
0.076344174649518814 -0.42084565361817439 0.065576501253845537 0.05588961695537048 
0.17122889575894013 -0.24566328135681925 -0.1475061494295333 -0.25359831093512541 
1.1359541997519589 -1.0298781466825797 0.17394686721483571 -1.3395826957462265 
0.19918678317815586 -0.16042114130540158 -0.053682779658293954 -0.16235263348596946 
-0.17308612497704515 -1.3986794212279301 4.3701667223823373 -0.51478058794792925 
-1.7104560753695297 -0.12186019720437298 2.0606875564310192 -0.040111996725646644 
0.041219413191791975 0.043497583514945933 -0.21412928806169196 -0.32647985060068396 
-0.2340537030688763 0.2240874378725598 -0.15730421746418027 0.017225635460346053 
-0.2340537030688763 0.2240874378725598 -0.15730421746418027 0.017225635460346053 
1.0734077920615515 -1.0831771132208581 -0.0074881818909120108 -0.094945148156848749 
1.0734077920615515 -1.0831771132208581 -0.0074881818909120108 -0.094945148156848749 
0.18682270026869424 0.47655272988421504 0.052975027306604694 -0.62614282554350287 
0.3355374294002289 -0.34721031916877992 -0.20313874663496062 -0.11852520027175686 
-0.022809439482261204 -0.50253584680777597 -0.089736706317820589 -0.11818570790299573 
-0.45903771837020896 0.41778420143317274 -0.076765348259077673 0.0097605122748343313 
-0.45903771837020896 0.41778420143317274 -0.076765348259077673 0.0097605122748343313 
-0.45903771837020896 0.41778420143317274 -0.076765348259077673 0.0097605122748343313 
0.10252840049045175 -0.072365671106933219 -0.095791311041445518 -1.1422223702644274 
0.061399002582785231 -0.52992579438459209 -1.3323179253593391 0.20709409939622755 
0.34333612070183411 -0.2151158175090371 -0.4925744488362222 -0.029716201424844064 
0.31003463814689364 -0.36749852803571842 -0.24453502187278076 -0.46057746831928986 
0.31003463814689364 -0.36749852803571842 -0.24453502187278076 -0.46057746831928986 
-0.77303938522513094 0.44903441341652117 0.19425232384833435 -0.81191085488755543 
3.5445708802664915 -2.7006140465568098 0.017479023277742693 -0.55004403715836769 
-0.88628296427931996 0.55389362164173328 -2.4970146229872725 0.53685563551938487 
0.32095693326758068 -0.24670421077320684 -0.22618045339821952 -0.095986075146355265 
-0.13535103290698874 -0.0045807085941604216 0.0099665443106765374 -0.25763389248894897 
-0.0089756966327367745 -0.12501644254661518 0.27743266903150932 -0.26333871325544178 
0.3556431513909275 -0.28135603800211162 0.22603322209015053 0.0099990130183177893 
0.3556431513909275 -0.28135603800211162 0.22603322209015053 0.0099990130183177893 
0.21540556170622055 -0.14958835286018687 -0.10635924078069298 -0.17488292075463061 
1.0339931737848165 -0.52633902757908368 -0.4111874782898679 -1.4969848992798611 
-0.48345342459139595 0.24967804568290622 0.58652135855133425 -0.10936068131179688 
-1.0839039756616693 -0.68712382164898467 -1.272369361151783 1.5726123308071049 
0.010780666200444766 0.11195416688613111 -0.11900357514096083 -0.18443983907827391 
0.10442026569718636 -0.053035297849726687 -0.076567395773732061 -0.26506577577153662 
1.1498753847814482 0.046430093935518529 -0.030470339369067609 -1.1273478882899004 
-1.2871317488081711 1.052525318458186 -0.42054925016445915 0.38459783426042549 
-0.3806825791395908 -0.33214123533225171 -1.2431686615865225 0.65692253020140112 
-0.16545511062660478 -0.57800118176825399 -0.91917426839185168 0.30436535849299579 
-0.68194187602403544 0.87026934804544354 -0.50155317565903468 -0.4869314296991244 
-0.68194187602403544 0.87026934804544354 -0.50155317565903468 -0.4869314296991244 
-0.044122671042160166 -0.011741450848865048 -0.15090836392313528 -0.036074016258272515 
-0.60200351374717609 0.054613296384776813 1.1835310729577899 -0.26215155802789614 
-0.573742819150313 1.0845469328074311 -1.2218967377813652 0.27912645096922284 
-0.077766198371657297 0.065664692477657355 -0.217571095364746 -0.12907654512834493 
0.29806011691870632 0.17159072685091342 -0.93309823677115178 -0.2662581151901865 
0.21976289784793956 -0.42291177489819298 -0.35196243976857461 0.0012887100208222591 
0.018760817281954001 -0.080537721939737197 0.0033749058484345692 0.18443861295764929 
0.16644752419764797 -0.068179600917854383 -0.36063618634113542 -1.315748335949368 
0.35878240250644505 -0.84714003147136396 0.019474566334163501 -0.084369652659611577 
-0.10282292947051735 -0.10422723621108042 -0.51035666288903503 0.13626597062099338 
-0.016604757886943294 -0.18213345905960143 0.58478451474987303 1.2191925759919502 
0.68736825907627719 -0.11441355824478405 -0.62994685466655065 -0.31180718943968722 
0.084734158160046189 0.12777369068871317 -0.19231688752528184 -0.16348204879901682 
0.14826815553309206 -0.055603870675885549 0.38946643608800635 -0.45931456016200284 
-0.42905843893232865 0.34260650257908021 0.15226542008882488 -0.061411624772434496 
0.097407716796085814 -0.14165813209066908 -0.1372142167113769 -0.27476782143650447 
0.019367437279777105 0.69564571084257221 -0.58677667132680478 0.040433666821943208 
-0.016082808729472577 -0.19702834692878152 -0.68974387721404118 0.075323458008085029 
0.39537401902045038 -0.29179402528244963 -0.50972241518296191 -0.35362103854757998 
0.025127460328868173 -0.020803001729546106 -0.19052518879760902 -0.18865349116214897 
-0.41306583608755842 0.2080055502003072 0.10182465412380587 -0.52412590383042601 
-0.96096948951325234 0.87102879805352029 -0.41276071367240741 -0.021974766292266686 
0.91853345698703648 -0.033092762971633174 -1.759581616704921 -0.0701787794075098 
0.4285832509152151 -0.31920145421954954 0.27852277674626902 -0.0044631779183304243 
0.91853345698703648 -0.033092762971633174 -1.759581616704921 -0.0701787794075098 
-1.4439186503483779 2.4622656148554789 -0.0093759788199261444 -0.079871024525731318 
0.33974209761165786 -0.2458233535133402 -0.020649851842948534 -0.090955200659355348 
0.92538933960755099 -0.2614764443288477 -0.75959613432248851 -0.27955980533712144 
-0.24814464836892325 -0.4651571117030332 -0.055378616622886026 -0.045775215863305255 
-0.52830694540592826 0.42242896866105356 -0.087901057692537976 -0.2005534402892466 
-0.52830694540592826 0.42242896866105356 -0.087901057692537976 -0.2005534402892466 
0.074024899802463281 0.13338841014514063 -0.36873171358828533 -0.062730119622281449 
0.045895945618509626 -1.1098572692346755 -0.49132118638862771 1.2158251270081983 
1.3058793787489136 -0.027846192506629588 0.014284151552418547 -0.83289282037945067 
0.51368880894105695 0.04256439973841189 0.019659957223690603 -0.83514267016555199 
-0.15641799194131265 0.10065750092438211 0.036661763091997229 -0.39620738696031227 
0.4164728203423364 -0.016898097941055193 -1.1589059187465542 -0.32856467027386049 
-1.2775296052558975 -1.1851515104105097 -2.2447801817370046 1.9370883532578875 
-0.28597747838005927 0.46468225793878559 0.15878953892912523 -0.42883480818337516 
-0.28597747838005927 0.46468225793878559 0.15878953892912523 -0.42883480818337516 
-0.74536618817151445 0.71114018423715541 0.058200885488205178 -0.92368359496321495 
0.48983167524967952 -0.10643973746336907 -0.37382638814642943 -0.29659829473595895 
-0.048216311808225026 0.022101836868319197 -0.0075024509001060304 -0.091593269296274774 
-0.69729280033199792 0.6208501360733808 -0.1637184950281835 -0.020010466210038918 
-0.69729280033199792 0.6208501360733808 -0.1637184950281835 -0.020010466210038918 
-0.96229057078819391 1.193803258995922 -0.030042705391767836 -0.49860414243329443 
-0.073336972117455698 0.058480723974069906 0.12269593876251866 -0.0014854214848648781 
0.07981402728011637 0.210123219467619 0.14276948826474428 -0.23569794539733757 
-0.83633657996985666 1.5839557615808051 -0.012533397652372835 -0.61662184270752229 
0.19487338319732075 -0.19244303611181682 -0.95935487239922301 -0.13981361932127762 
-0.47251953581514194 0.89163930967427818 1.1460450955870605 -0.28900295389931308 
0.013394949765207425 -0.20441293140971364 0.049106477033976192 -0.33828656319897399 
0.013394949765207425 -0.20441293140971364 0.049106477033976192 -0.33828656319897399 
0.013394949765207425 -0.20441293140971364 0.049106477033976192 -0.33828656319897399 
-0.35035645232413631 -0.52347184483253606 -0.010381242763347176 0.85373400011720257 
0.084128656597116158 -0.13908508373470957 0.051391987724276715 -0.26054780394744476 
-0.35035645232413631 -0.52347184483253606 -0.010381242763347176 0.85373400011720257 
0.16433510346433217 0.061806383435171766 -0.31632594694574601 -1.097418162933107 
-1.1428135141644626 0.65861249625921947 0.026215679598161151 -0.028993937498417 
-0.14849414645791986 2.2125720087885323 -1.183272527091114 -0.13777438309361953 
0.023079362348184029 -0.40432504022724514 0.043892227827550631 -0.078561088539999602 
0.19578132458713704 -0.46025357423661228 -1.2958510354974613 0.083337388755391512 
-1.1925524693038692 0.38272218881142084 1.4532347255949154 -0.097064318212120193 
1.7526972704617698 -1.1291057034801608 -0.59105743233486419 -0.041787026477249772 
-0.53541813731194288 0.17213179051998356 0.65437567535065067 0.041673244033860302 
1.6270217843230899 -1.0396759409834111 -0.5623414818386816 0.19297981620220389 
1.2421242556338259 -0.3351239966103941 -0.17633280716294913 -0.35955599836647567 
1.2421242556338259 -0.3351239966103941 -0.17633280716294913 -0.35955599836647567 
-0.57130352846255694 0.97736093832567605 -0.20024356976530325 0.32032196815022212 
0.23248119874300102 0.27573063791687491 0.18434177452036535 -0.10781248026968111 
-0.71587914181727663 0.33520903878212283 -0.22510239485362174 0.0233426893361201 
-0.71587914181727663 0.33520903878212283 -0.22510239485362174 0.0233426893361201 
0.19964917036637794 0.025146249776465159 -0.21710826468165123 -0.6278128100310969 
-0.12968761244297167 0.0068857055344189455 0.62200559332152372 0.099408839944707394 
-0.019714757275738848 0.046121547046414926 -0.24220997993973389 -0.1223005197983421 
-0.01895763355675199 -0.056244409749933416 0.10158600177875592 -0.38737977071317797 
-0.30613046454959258 0.29641942329190885 0.042931638254613116 -0.11922501361442697 
-0.30613046454959258 0.29641942329190885 0.042931638254613116 -0.11922501361442697 
-0.56847704038478952 0.33938926839643641 0.62127907399382254 -0.32922053337706042 
-0.013502031859654024 0.23531737820823267 -0.37377602101474749 -0.28531294791999595 
-0.24409125118210151 0.52766315728632995 0.1256426693836358 -0.79720047174348985 
-0.89756366759955386 0.59183875663957719 -1.5945255693728946 0.73821924690553276 
-0.5342281654031189 0.0089169610743563502 1.1740575102649484 -0.67831207635280522 
-0.073853879808885331 0.27557621004378891 0.02430038790149 -0.026598139624858179 
-0.24888874136985509 0.5784034611529989 -1.5562841447092799 0.51391603388580387 
0.074287293724306758 0.072103225652123626 -0.00071399471895283728 -0.69031256110603656 
-0.61137165512127112 -0.21586762571355442 -0.10498955098014909 0.93810222662906129 
-0.50857282558718353 0.58847301528325047 -0.0095239705065367289 -1.6390380019880697 
0.53180937228230429 -0.506078059670519 0.12615117627077096 0.06481488187439996 
2.8464668294971061 -0.27258338709235874 0.027187669344713464 -0.77002780918602642 
0.97667059689035995 0.39456098500118797 -0.78082795340000299 -1.1025956938785624 
-0.57827612029111986 0.938131511830542 0.11184279184352403 0.12885155587373337 
0.22935425513122493 -0.26739726369989092 -0.59930882909623584 -0.12860747801183708 
-0.36924869086358447 0.61391241573641875 0.0072391813001928262 -0.084863761349637606 
0.35212110724919876 -0.27925879888324034 0.26100462476312719 -0.59436786194297664 
0.015748666848296608 0.12486622917703237 -0.13974948959587238 -0.71272180856815581 
-0.051766243942357529 -0.30910327017419159 0.1014083087191236 0.068884930800461527 
-1.1755694415222429 0.98628399464529437 -0.83048264203174205 -0.11248989028773776 
0.45530399656956688 -0.5063654525712844 -0.3726684536840717 0.00031545884398201385 
-0.076672420908315705 0.11184004368066221 0.00070497053679487794 -0.28926170883612895 
-0.076672420908315705 0.11184004368066221 0.00070497053679487794 -0.28926170883612895 
-0.54019548059154088 0.39211793583925941 -0.064929230316106201 -0.53320703794359958 
0.27640410533959475 -0.2044090424523515 -0.37160452971302382 -0.55421547327166221 
-1.5257121502398412 0.82389298519286602 -2.1418861763012798 0.41043025511509323 
-0.070905261823456134 -0.49941219210262267 0.50451729527762756 -0.25046506191700557 
0.16315262885831039 -0.31139255386475861 -0.17826233047609483 -0.76234885259793117 
0.28337150628982549 -0.24829932544720151 -0.47234010774518725 -0.57327008113823508 
-0.33203500215381926 0.040252009053271601 -0.1483802403408071 0.60991942225023055 
-0.030821626591353683 -0.37447650434454249 -0.36805166721318616 1.741675194365029 
-1.5594530025173712 -1.0844840828702647 1.4487848219916759 0.16504560578019056 
-0.83345346592317726 0.81612231605839147 -0.28031424370236413 -0.031327328561915641 
0.48432113451912423 -0.58673676100417282 -0.11151773920602635 -0.58843225417665979 
-0.37069085949540931 1.07748552123931 -2.7941468343662308 -0.45692831589182803 
0.10069397878629653 -0.033218352750461366 -0.35547726742580854 -0.97617074899584222 
-1.0894071790610353 0.27011787860914294 -0.027413902423831731 0.35038516359017879 
-1.2282540084106977 1.1520090346793661 -0.60740549226841667 0.26099452798930345 
0.72932028429451468 -0.73681728209619579 -0.70694276840462167 -0.49007325359162468 
-0.21862322739405851 -0.59621302260711317 -0.079516110741405716 0.28958062790215999 
0.10636431197734553 -0.081693352287071794 -0.25609551713907042 -0.34158891951657083 
1.9215724902422318 -1.4425092465504579 -0.032607589882801602 -0.99533856330259785 
-0.57499048791047092 0.75191505228878575 0.24183779261500199 -0.10802232975330772 
0.26925004476415637 -0.39066765820004956 -0.1941347082833739 -0.36533490625129006 
-1.2547916410931297 1.7767116921197992 -0.23354724456603498 0.020512643563737751 
-1.4335110739829098 -1.6632205994473988 1.1665785813442018 0.17944506156272003 
0.20447828564861714 2.5366751816404154 -1.8701220810141124 -0.47899001908560312 
0.21662598743635392 -0.037073728654261048 -0.68885152139898587 -0.020618218570677013 
-0.034358356839166028 -0.12056852314544611 -0.13438226954536409 -0.29579667538227478 
-0.005296569783201862 -1.2585597928466798 0.2066441798954628 -0.17851165767551386 
0.075151812634023513 -0.48001058327452761 -0.51960434836574454 0.19206425596442361 
-1.311955758797049 -0.74423646597320259 -0.35340386175339111 2.0132796932077919 
-0.097134040176218767 0.25592040235062041 0.1003141585345441 -0.28860652435292061 
-0.94909761496411449 0.82174497349871178 -1.6261346841386781 -0.074850498130331455 
-0.035991877488465336 0.065637338719594013 0.014924442387673754 -0.038941268263035157 
-0.035991877488465336 0.065637338719594013 0.014924442387673754 -0.038941268263035157 
-0.33211488731044381 0.079156333962727685 0.23004223886328395 -1.3196186884979562 
-0.16975974831820834 -0.28474771662614895 -0.40343568186752954 0.77478149495852111 
-0.16975974831820834 -0.28474771662614895 -0.40343568186752954 0.77478149495852111 
-0.76317713944836674 -0.41690116341556754 0.18794261236056262 -0.093647776365005042 
-0.024393592253878604 -0.1225386176304714 -0.17192687359394915 0.17447250710996595 
0.60902320627414475 -0.54328835108971141 -0.19193045324664404 0.10953950818929897 
-1.4286530651764933 1.4678699279140657 0.0036295705690833043 -0.54673840143771701 
-0.90863147681633138 -0.67227456303108957 0.25011181360315549 -0.24950678419854955 
0.037271323487116426 0.41699843026742178 -0.055872967234654403 -0.46948709731445609 
0.29089579241116376 1.141093275830807 -0.01684403142284558 -0.32488525617789582 
0.19044929059780147 -0.021658459898499655 -0.19934944742637131 -0.10907777231031178 
0.19044929059780147 -0.021658459898499655 -0.19934944742637131 -0.10907777231031178 
-0.81071657405213338 0.5666839659340398 -0.23351960104353695 -0.19471106224736306 
-0.81071657405213338 0.5666839659340398 -0.23351960104353695 -0.19471106224736306 
-0.27069173294699223 0.20769827227002605 -0.59485740106255647 0.41537155925930641 
0.21169278909726794 -0.074900942157296452 -0.60225387452837176 -0.15053917798414013 
-0.16596258433883049 0.26580316859026398 -0.56937776572783794 0.18411984126159833 
0.50845443870075613 -0.11133568431893563 -1.0166196530657401 0.0083250650617360811 
-0.0022395336108419484 -0.39373396498576879 0.36606204818334265 -0.2216465895522709 
0.27440479543520457 -0.62166663403804612 -0.24313146587994966 -0.14663216584750358 
0.020574106719909842 -0.15095660566908503 -0.15842270805408398 -0.23349215001991319 
-0.51157909906662091 0.39760236509896518 -0.0034560521339075598 0.030170552173329146 
-0.070429098848189708 -1.794700772429674 0.029769931430094473 0.96976086854796739 
-1.4305389448733128 0.82000259578218793 -1.9387102077314506 0.35698996335537059 
0.27983215977651682 -0.5698978379016415 -0.11356288471329776 0.00078057966230696794 
0.83971809588115409 -1.0800531657146963 -0.22062027325676933 -0.19076050814735096 
0.22544528573146572 -0.07546802818290102 -0.49194635043318669 -0.32365706703483876 
-1.7418901392640462 1.7321199158536369 -0.0047840455687659109 -0.014017061274106542 
0.70121235931753478 -0.7782544395760177 -0.37804372308600726 -0.071883798609860078 
-0.83874309941198666 -1.8666418369738196 -2.9843035887481064 1.9981278652234666 
0.093468417139933063 -0.85753192162625447 0.077524563671578076 0.46626273466066459 
-0.5942958706355902 1.1131157930945748 -1.0249668829602625 0.36939070955046305 
-0.17777882470378592 0.60294667520784329 -0.35522941621681259 -1.5271788724880586 
2.3360196930986179 -1.0938056284881166 0.15353801183527008 -0.23873721684356541 
-0.80518759091100423 0.40750809152092549 -2.3291297535488451 0.47741267929234099 
0.31997213085013559 -0.2212649475576422 -0.94612076690210312 -0.17841396387176695 
-0.44092565056598892 0.10516136452205131 -0.0077195750899822779 0.28443511101807717 
-0.38232654491850832 2.4468372850042273 -0.062064371008113128 -0.37646631821005999 
0.70038610731535145 -0.13362627069144656 -0.29635064037676706 -0.47564228473837483 
-0.78282598958010985 0.72937276531717343 0.026473370075876683 -0.80828804243974817 
0.065640011235050366 0.81047168951551452 -0.10399590637023709 -0.42850770986069142 
-1.7594634472854707 -1.3586865854696175 1.5318970820523206 0.69942195490752801 
0.065640011235050366 0.81047168951551452 -0.10399590637023709 -0.42850770986069142 
-0.91769893915094647 0.058288259495551102 -0.3143507502236218 0.59370555371085154 
-0.22610273393079394 0.30955599771067177 -1.003603434945183 0.21989500455203978 
-0.0070866427652145954 0.055439226778959814 -0.014033926985800003 -0.071796124097246727 
-0.43819779077694759 2.0896052788525354 -0.40749558103014966 -1.2655566370965019 
-0.0070866427652145954 0.055439226778959814 -0.014033926985800003 -0.071796124097246727 
-0.0070866427652145954 0.055439226778959814 -0.014033926985800003 -0.071796124097246727 
-0.55587774759791031 0.44265731403786268 -0.31725634005459197 0.017339274023535019 
-0.17757608018364382 0.24645863792556086 0.1737747776655138 -0.56974654945559522 
-0.55587774759791031 0.44265731403786268 -0.31725634005459197 0.017339274023535019 
0.141472459332595 -0.11284001805787904 -0.04857455464288303 -0.19544203588201872 
-0.37402006020597067 0.34561587757466017 -0.22575272605173852 -0.057488977688248483 
-0.37402006020597067 0.34561587757466017 -0.22575272605173852 -0.057488977688248483 
-0.37402006020597067 0.34561587757466017 -0.22575272605173852 -0.057488977688248483 
-1.2033676901479717 -1.9657214502939078 1.0434644722470798 -0.027152518500168969 
3.2740332829176473 0.1665979290763423 0.023900757426667703 -0.68653350158887361 
1.1965784087632709 -1.0433655020784232 0.17218970088941415 -0.58953076681537631 
0.064913126561593509 -0.12221515103232009 -0.032957578704014473 -0.21292045755302411 
-0.082136556174264852 -1.8727767112801919 0.0064719977107686837 1.1084973322202925 
0.63904097017380601 -1.9613132727641518 0.11714701418888787 0.026422836558957868 
0.16578814505816389 0.43354320165079241 -0.50993787975634952 -1.0083682369040314 
-1.1906506711959002 1.0614080151094274 -0.38564651117109561 0.081884257342830308 
-0.022368860546123109 0.70392075611029581 -0.60549559222416771 -0.090735505611349146 
0.30385571071764 -0.22004045282961163 -0.17368977545725156 -0.22044211279926254 
0.084452826728045396 -0.02950584028823346 -0.030651030070258364 -0.078817112864337596 
-0.95028276437492354 0.039337480469603704 -0.71073416983350013 1.7410552772214929 
-0.086916341080916726 -0.71724827805608449 -0.72901869903272321 0.79557816817389138 
0.41635265070128102 -0.48405131029326987 -0.36982998490068769 -0.11655003644985813 
0.29714841228156347 -0.36653198404249998 -0.31450628934602298 -0.091621598374213936 
0.001809557425448631 -0.11359344338362727 -0.17965234009146519 0.12815443446762262 
0.021084989900833719 0.0051646289602825662 -0.18844505814325879 -0.22116349130597296 
0.48049540694550869 -0.24982965460234591 -0.77615707903325992 0.14274727938867071 
-0.067047711721286415 -0.034011626750896098 0.26793688673252758 -0.39979111069616124 
0.66135253373720349 -2.1641888987478262 0.2529256317273918 -0.270822341820736 
0.40381596364951733 -0.6432521573859038 -0.86055139668767122 1.2112733323029308 
0.12225664223806681 0.15966784258221128 -0.34820299973695645 -0.17692986349531814 
0.67165127467153873 -0.62651106518797606 -0.019901785538667081 -0.04301245470691363 
0.67165127467153873 -0.62651106518797606 -0.019901785538667081 -0.04301245470691363 
0.21183910857820579 -1.9166826481484618 -0.14356806733187955 2.0879564158511124 
-0.22189060047842632 0.33324707219535799 -0.02488022967777774 0.064462472486583433 
0.97057296368271029 -0.3953920590550033 -0.19851184643745576 -0.47648220130053215 
1.4040388600736033 0.1443766155538268 -2.0494838767410224 -0.72752786872795439 
-2.0141044610380106 3.2686168009956229 -0.41700090881061386 -0.0024431701694118996 
0.075657591171468461 -0.53098917269460522 0.021669824552440958 0.58599341724238185 
-1.3680200824724489 -2.1494845008270151 1.1643267827930983 0.52218197300351776 
-0.67452592296152436 -0.60504094356886218 1.1715184142562662 -0.67478716737484223 
-0.8271010921715849 -1.136278584341569 0.78804191864190354 0.027969889308815828 
0.66208159710429471 -0.097227112668581861 -0.61600860978010852 0.067531613186497905 
-0.11756028629339021 1.1641174293926482 -0.86676063861388764 -0.063242657869448896 
-0.11756028629339021 1.1641174293926482 -0.86676063861388764 -0.063242657869448896 
-0.05614140729751823 1.538206937677713 0.59359192140068018 -1.3073574554748966 
0.027131762493367247 -0.11127408316293649 -0.69349750143547362 -0.33869782903969325 
-0.91515832660388263 -0.97468947985994314 1.0220011690229462 1.026776395895352 
1.5088368724783305 -0.49939849388550356 -0.13017452025643172 -1.2966199227688864 
0.18213492711209578 -1.1404441748980325 0.43000278058886893 -0.60774902778033635 
0.19829928483043066 -0.058709203299068181 -0.32500979057825069 -0.22526206078776495 
-0.1843489069784888 0.015287419028472162 -0.19163328643335337 -1.1622302394627393 
-2.7892677433147592 2.4653813876710853 -0.099126376514529935 0.019831694632519402 
-0.21568459647059535 0.08959504161540538 0.012206887462604211 -0.013523747988074172 
-0.21568459647059535 0.08959504161540538 0.012206887462604211 -0.013523747988074172 
-0.18646489498703722 0.53634692289462949 0.096394458724218757 -0.037717105170904063 
-0.15475435176513685 -0.38289101661767011 0.12075181890806505 0.063078641255395487 
-0.18646489498703722 0.53634692289462949 0.096394458724218757 -0.037717105170904063 
0.065170066717826935 0.29435258269125653 -0.13842136096216126 -1.0004293605343433 
0.17687710760000408 0.14399496071584136 -0.018392486513579609 -0.50953082558682428 
-0.33285263225791595 0.1421121105562323 -0.46006021162326338 -0.36290267359479994 
-1.6179494020811944 1.2151468137373613 0.0033990559173606239 0.13848374894558532 
0.37206724847711992 -0.49017272607283091 -0.34411339030904853 -0.19236868558445822 
0.062252491756581305 -0.048965730856600692 -0.32335616911863702 -0.97069636429502171 
-1.1971342497044621 1.515309166598096 -0.023751119423632214 0.007794432388582323 
-0.38589637463647636 0.0079054643670680436 0.41137698856227867 0.13041948484251359 
1.2958584427187838 -1.433863541778005 -0.019061512375707461 -0.46193603906657982 
-1.2802882318474123 0.64152962000205438 -1.9478405326818344 0.18576189982168462 
-0.24562776019910665 -1.0561348076570618 0.20377996149858807 -0.54809309085103441 
-0.20470128556603595 0.24943781770671086 0.016052565056120609 0.046401847429332281 
0.11784055575938698 -0.086628490618343962 -0.68477151415077508 0.42713022492750297 
0.7885549059142789 -0.8553276406973962 0.18467070800561186 -0.63803089785618716 
0.51188619580358896 -0.31722247387075647 -0.44398110585712247 0.4283163038252511 
-0.53842336736549823 0.74297796070769728 -0.3913218654103256 0.52474623608854332 
1.7005195367442316 -0.63188709923195474 0.046790799534170452 -1.9381010665752665 
0.11574650887808807 0.020385933109835774 -0.43074090013143829 -0.25713846460777334 
0.53900023615185433 -0.56407591109861066 -0.042018825531665555 -0.020226966151479189 
