solver_type L2R_L2LOSS_SVC
nr_class 4
label 0 3 2 1
nr_feature 34913
bias -1
w
0.074808915955194816 0.012114570605744984 -0.5545573902867319 0.024631111731339098 
1.6501433855677234 -0.69184335574408529 -0.7178038238056389 -0.34807418823012876 
-1.0479876878385044 0.60041784707431622 0.21757008914372289 -0.049301872076583611 
0.81912888145173979 0.26655103508947925 -1.1814837318115883 -0.022139314132839913 
0.079391423013100926 0.39128241180903889 -0.14345533799585808 0.0061377059815909685 
-0.99654643391718345 -0.58113077251278822 1.4367919805354967 -0.45634069883468842 
0.3678044058784008 -0.3532772423695002 0.072852033453367673 -0.40500626260805894 
0.47879174311380057 0.82568210292032318 -0.55543445836769367 -0.34177166346062182 
-0.030986933770644508 0.063083516806821172 -0.0088883835016237804 -0.029141205905740035 
0.10876338222097268 -0.9066213808961201 0.20414528892690165 -0.049710871663327091 
-0.0054290499312151519 0.025112307659466118 -0.046885791188239365 -0.087359133993140436 
0.059342085099035047 -0.038131373271746781 -0.068154089828450615 -0.061190259597090207 
0.021286933894026857 -0.28472480125589922 0.17205408526617982 -0.0092117693677185794 
0.021286933894026857 -0.28472480125589922 0.17205408526617982 -0.0092117693677185794 
-1.3204978250685504 -0.018123391534732872 0.48493515971848128 0.6474248258020604 
0.28730329055045112 -0.0427559121292004 -0.13788953264399176 -0.0683021579511712 
-0.0027263756547757818 -0.013912574740746681 0.040977790952156409 0.027417278717943604 
0.039562533138647313 -0.003997031952752585 0.10289031836421245 -0.0087821857872759142 
-0.24535650451052748 0.73016904152693818 -0.52156740578240224 -0.090304195422422462 
0.11734963284552588 -0.13192041508106495 -0.22296033859188319 -0.2150412273850858 
0.070284225679797668 -0.016272665226555735 -0.0018597356713673067 -0.10602512973988454 
0.00248094447362468 -0.016286897146700556 -0.045438042413331756 -0.10079655538697521 
0.29167915458078575 -0.90031226687219357 -0.11866319441330724 -0.28158762442600516 
0.17773187653910294 -1.0285726532284678 -0.46036090633285365 0.19940832948924239 
0.039562533138647313 -0.003997031952752585 0.10289031836421245 -0.0087821857872759142 
0.018352332097386567 -0.068945316759677272 -0.051551242633659372 -0.099961721317307572 
-1.590747741670528 -0.18087148289003291 1.7159310285388774 -0.26803563775662376 
-0.038930440804863853 0.0034787941054559035 0.001065944402058646 0.0064098362506787663 
-0.048901532016343334 0.042856646286716232 -0.045488201475309263 0.032270638366924918 
1.232385672832047 -0.40157773379215689 -1.2310892609772837 -0.18817837744087457 
-0.096111450311190255 0.19144288172022086 -0.026844863317646024 -0.10735294331716572 
0.5080037994094907 -0.28953589687849279 -0.10170813334432176 -0.0084734023192223618 
0.062093028342497025 -0.25024200432962485 0.22790943880192177 -0.29286907691431507 
0.37765180727886827 1.1033450146307846 -0.46361084440943789 -0.68666438297474741 
0.18465027928859612 -1.6513566590342355 0.18494097792327654 0.33365452700735793 
-0.0042416646331102439 -0.026167765374261201 0.025953762297359361 -0.074700572224298253 
-0.29257431572892006 -1.2949991501841489 -0.0040947018376361333 0.27164912328573698 
0.27972312834202917 -0.31189761944654987 -0.175953650761969 -0.16647862990251044 
0.13631642700321134 -0.021695381599209584 -0.3320147126392724 0.068812413202968561 
0.16260739336073121 -0.29524628858964042 -0.2032902723023742 -0.31329184804928445 
-0.060381000272195381 -0.016689417117849038 0.016456046514068824 -0.0052430124177194615 
-0.10053277546999709 0.11785106644078325 0.033368386836725439 -0.10170629667922926 
0.19618261795509959 -0.011900117606114662 -0.006126247552759076 -0.077906043678820647 
0.23652320370415103 -0.14316957241765943 -0.12407247545478289 -0.26251331859013532 
0.0087413897155813429 0.033534592860055085 -0.014022315274611589 -0.028071098914488057 
0.037371464808577573 0.11244481713656027 -0.094782122596488494 -0.031570504343706923 
0.56994270726335483 -0.27018695033254847 -0.066934630643842613 -0.011861622926970398 
-0.09510215176997 -0.54282653067694298 0.15864823392510286 0.32753078076551867 
-0.26473439404376869 0.26267129402989692 -0.0031563835982551629 -0.64528709142653295 
0.56994270726335483 -0.27018695033254847 -0.066934630643842613 -0.011861622926970398 
0.28294646468674728 0.13028174609088425 -0.38058200032845457 -0.390889961629867 
-0.13204441215345217 0.55576216100523401 0.089018651885303696 -0.32252179758372979 
0.0085840117708672684 -0.12530967066335691 -0.05400271852925053 -0.19561676723096738 
-0.14065530939987836 -0.6123648783556519 0.1586077167008319 -0.1754756154807938 
1.1624323032727548 -0.76246709118336564 -0.63465406967687077 0.048514416349114048 
-0.31330321007514095 0.49080772102149872 -0.13261412313805379 -0.34783789219706834 
0.029803910962604239 -0.66999101293454277 -0.058356954390605606 0.19061247376577681 
0.40121601360215819 -0.07458003604245575 -0.34493650062088799 -0.36702579283621811 
-0.55209419454587894 -0.84679002275028592 0.11234961024691766 0.34065630109587386 
-0.62491860054488879 0.12395311238491791 0.0083855836027911246 -0.12515986928684131 
0.1346298427577724 -0.087486177943502177 -0.24868766339826942 -0.12244189753254447 
0.0014557734326384048 0.046773870589608288 -0.015352849463493561 -0.093604334408347395 
0.822177972770604 0.017117950279389033 -0.32186915575985642 -0.14171842011685998 
0.50580013511111876 0.13043369450062686 0.056112166595494208 -0.10662314421111851 
0.11570026631349674 -0.30008112676019388 -0.13025827963815736 -0.11331728317761744 
-0.25872131595857767 0.01340297245306523 0.015791975754079715 0.16865826103047199 
0.52514265067332067 0.016088408313334579 -0.29996908266469313 -0.13652792972710676 
0.022544030934062889 -0.098789042554852338 -0.014018748620522156 -0.033572563992358369 
0.25297558665692177 -0.75671440878261276 -0.11297491763300571 -0.25047274437163314 
0.13664316963064935 -0.59186880573136214 0.024059728958387219 0.29589230154720908 
-0.52143584354092853 1.0874758511922809 -1.4854589997677454 0.56694597984829409 
-0.16997876680493823 -0.16999154883458062 0.078709155140519821 -0.01435368196155613 
0.023207432666457389 0.33066117376617371 -0.14910892368398293 -0.30747917545084963 
0.086073602238330854 -0.24890573984553283 -0.010112410344426705 -0.28275644032776309 
0.64971821787772255 -0.17226013802482693 0.46114385306892419 0.21988377255137939 
-0.15304050551148035 1.1446047316497188 -1.1077489520948121 0.53906093220775675 
0.83402961232667083 -0.61361258626741422 -0.45744763550457751 -0.53062507328742425 
0.35048349138198032 -0.25960658538092241 -0.26070517157691914 -0.64655247011649586 
0.11848558978462628 -0.27605511273752775 -0.54643010333454911 -0.034221480456953779 
0.15265798835341052 -0.76451088165304892 0.062324761352490515 -0.078665331084873683 
0.11730555487898764 -0.055773700884042932 -0.075053078890542843 -0.11078473485564071 
0.020218380585389724 -0.043351625347277475 -0.011561811487053097 0.24242395469074982 
-0.056002177846977197 -0.26320159283221423 -0.07926513044914657 0.22254162883170653 
-0.013615655340575511 0.92964392036831667 -1.3059768280099613 0.35997793358101793 
0.41317110958924513 -0.39330806164105281 0.079457038295528332 -0.065009808297172761 
0.95332028305955396 0.6677628321644884 -0.38997137020308259 -0.41308131207153892 
-0.15968548360099127 -0.34517587493425245 0.47732238813190264 0.15014998192033729 
-0.59496976203050655 1.1646232205977485 -0.80789424038619762 0.060187666846732685 
-0.43271782108716994 -0.090150155124980327 -0.092354648442362686 0.44830665846955597 
0.41317110958924513 -0.39330806164105281 0.079457038295528332 -0.065009808297172761 
0.5039952275947478 -1.7429127553406976 -0.70090557512330776 0.32237171394533409 
-0.67713938463638867 0.0094676645630084807 0.52241279790760675 -0.13177382358301282 
0.20620486365531476 -1.9590373813149364 -0.29142201787667865 0.20150490020421313 
-0.39168146960752592 0.33080579317859993 -0.06261285671570857 -0.14080648945062291 
0.38353024371221744 -0.63986969742333955 0.01017049417902792 0.10220802895638656 
0.061502931160071772 -0.95449134151414339 0.39495422342248765 -0.080275735725466493 
0.21243827383306829 -0.087833063940664494 -0.25767742922804299 -0.072947939286586244 
0.24287653867717462 -0.090877294081370255 -0.30041079962557748 -0.074215445212275202 
0.035311958245913086 -0.08841807216350156 0.0077102695468246121 0.099013310924298326 
0.14955163091524415 -0.002683983660050876 -0.29258759093926945 -0.071694040500810657 
0.11333026807832058 0.13317102764380717 -0.071630319776647355 -0.022267315087110443 
0.041260076570335834 0.11620726373752333 -0.10872300702584869 0.0074132874065407223 
-0.25289316222819597 0.28386925858979151 -0.19471121209608744 -0.0093349765523677228 
-0.25289316222819597 0.28386925858979151 -0.19471121209608744 -0.0093349765523677228 
0.1080024136821941 -0.66807131548248821 0.22137489642089508 0.046810079393276513 
0.017086141619210585 0.0088238236217888129 -0.068577799095415254 -0.028697877492797376 
-0.25289316222819597 0.28386925858979151 -0.19471121209608744 -0.0093349765523677228 
-0.25289316222819597 0.28386925858979151 -0.19471121209608744 -0.0093349765523677228 
-0.25289316222819597 0.28386925858979151 -0.19471121209608744 -0.0093349765523677228 
-0.25289316222819597 0.28386925858979151 -0.19471121209608744 -0.0093349765523677228 
0.43921423368867363 0.14721773732540139 0.063646076053048617 -0.06063763359673538 
-0.072994538926852759 0.11618232706531822 0.056823851120436225 -0.068630291081449107 
-0.59825083525300427 -0.38863138194643698 0.86845688599081672 -0.37237986876724616 
-0.085199698634018314 0.15528675516851975 -0.027135425437929201 -0.023630128219936541 
0.35003781044448889 -0.12516930956048264 -0.056823858003818478 -0.68506597082441822 
-0.25925740500104388 -0.11661844349441242 0.24893690230763069 0.013411367946517327 
-0.25925740500104388 -0.11661844349441242 0.24893690230763069 0.013411367946517327 
0.056011800705748377 0.29393992459269791 -0.10596266429598566 -0.11705452136748537 
0.030825755950041969 0.050317273451727894 0.045281550520474008 -0.25064791069644954 
-0.25925740500104388 -0.11661844349441242 0.24893690230763069 0.013411367946517327 
-1.9753135903402115 -1.3643194419638485 1.2481596493101117 0.2965906619233642 
-0.14774790639239838 -0.25937939640889068 0.22387767294316352 -0.39485443824466698 
0.31089761400046673 -1.4701546271999637 0.071982293860125779 0.12649927532255495 
0.072982056610452845 -0.54434279658266937 0.34885399836161513 -0.58463051382105791 
0.084808003644270491 -0.11521119915145098 -0.0018277438282360073 0.028445855274987011 
0.42009880115900966 0.1411199586391059 0.05469734713601751 0.0024299987162765824 
-0.064366571117916091 0.012508827284823765 0.040569657788064886 -0.016750407858527779 
-0.0038901539446464023 -0.16029900374131886 0.019357474876695258 0.13415823186785569 
-0.41754608071474408 -0.35057953075753456 0.28754007560492434 0.066310141363843639 
-0.44240388095681532 -0.001577301051747775 0.56957432389623297 0.13363058040044154 
0.10912151132199446 -0.17006599874746822 0.0074676938528697844 -0.047520543971344663 
0.1205470615868731 -0.30257228200707814 -0.047381370865502224 -0.10455792358185359 
-0.83798753156417449 0.0006014206683032583 0.46352256223881988 0.016712510195410969 
0.050393680345238868 0.028032981662567326 0.17309162732610184 -0.4100389142269022 
-0.3013671311928513 -0.26008390083801003 -0.12212555070057232 0.46991702094247145 
-0.031943472536678265 1.0680942645406108 -0.9247598104304422 0.27546825618167781 
-0.2555455209386846 -0.25066223030815249 -0.055458943597548493 -0.020087746470490074 
0.64112042435239192 -0.45004166730175738 -0.98670511922527049 0.056103602171580558 
-0.23503800980018277 -0.017022584928835467 0.23152174148828808 -0.075953180770137144 
0.32462467636736758 -0.037010102892661711 -0.03761097284826187 -0.47931710374897862 
1.1726428737893995 0.19521664745408202 -0.61049318008890852 0.074538951645727214 
-0.1914329360943742 -0.35424017953612902 0.20406121530160581 0.017125073901608147 
-0.90841671626036924 -0.00049855060789914872 0.42825228879382909 -0.012482379206292908 
-0.22740677485242797 -0.15674595334357153 0.20615280847836401 0.20156166475771567 
0.003870579075327743 0.043914708038485614 -0.011221046962699793 -0.56796103674044962 
0.24765414443006967 -0.20486308501751421 -0.06762091127794273 0.147029960698841 
-0.12237301087154678 -0.55822082680645424 0.27456278161973346 -0.14941671078200447 
-0.1027745189463497 -0.21353859136022779 0.094990765719009329 0.059615162157839525 
0.18022001834228113 -0.51102907909237449 -0.087343175679996415 0.1461161493751495 
-1.3666320380818702 0.3893754105268733 0.41861789287888324 -0.031674583949144429 
-0.0023210103031441193 -0.082448634493925449 -0.019407433405005402 0.062708042984724904 
0.14543782320077753 -0.12037616858631464 -0.15024202618053498 -0.053938170574226639 
0.50292763578620259 0.036156431575315652 -0.61594194322351903 0.32223524779574736 
0.065949388676573129 0.13448956668317993 -0.37537743190593076 -0.05646908081481268 
0.24079904326822282 -0.51787862105218951 0.046952994044972274 0.1352123540730174 
-0.53921988778168084 -0.43654005194642148 0.14831371042788771 -0.047263731049465962 
-0.023418285273251627 0.026177659733297273 0.031335482470114577 -0.19161383149947056 
-0.07175121583391697 0.42733537431163532 -0.03227299617068026 -0.40200860877858297 
-0.15448878626792875 0.19564745610161932 0.25663182269862539 -0.057801408605940484 
0.36482166892208268 -0.29307826579956692 -0.087286249161921348 0.093162559506459131 
-1.0507342380600566 0.63535147270620695 -0.18097323404670723 0.50200242412003715 
-0.59758625187552827 -0.038501953765598361 0.10430917639331991 0.37852084610130105 
-0.65728782778119743 -0.58417525880245091 -0.22827445182034026 0.84707347608184325 
-0.021778814100741395 -0.10461781699103555 0.29161574837407211 -1.1305292356457137 
-2.1202079889009879 -0.0073521347117503147 0.94803503788360644 0.10801371009110131 
-0.75128886436115527 -0.43327623123233494 0.337208373239273 0.42782991399730602 
0.81464685388438962 -0.08627019276688995 -0.13311362277410044 -0.36585880753480804 
0.027011711224489754 -0.069135027426222143 -0.012084352211110226 -0.056737687468637596 
0.6374335226537774 -0.14598245493013692 0.044410113614375885 -0.2573193017784875 
2.2132412623304951 -1.1409076740494943 -0.81870598033097675 -0.10945796867354297 
0.067409639959115031 -0.52376327016952062 -0.22903772361772076 -0.19845859729732557 
-1.4617392886297909 -0.74087096083731896 0.50620065775989032 0.75903179518821928 
-0.0015801205441688532 0.035057385013831655 -0.012610734281974104 -0.04539086995994783 
0.045394045357951385 -0.083459327185436916 -0.022488699790421514 -0.03540762884766941 
-0.1259119822277513 0.30720287957180947 0.025095812376946337 -0.21756948639786561 
-0.58994830881853755 -0.56899790900899194 -0.038377239266975907 1.0806945998422761 
0.24539561174820496 0.30698756793189053 -0.050175525027459797 -0.26051319342165979 
-0.50243927220282658 0.85970954562194368 -0.20986016150994483 -0.39638004357954515 
-0.53730166528357015 1.5238660382392364 -0.47799716543799198 -0.27161957717593987 
0.1027048979360852 -0.21777244766845874 -0.057699655251116484 -0.055989833513099101 
0.024959719462894818 -0.10249363678443857 0.059293556247015398 0.016677162287924815 
0.3583409965250417 -0.30675690984117782 -0.11708032805844916 -0.052655867672727993 
0.16837040898796163 -0.33459044431027274 -0.10646647357566985 -0.12641471494923273 
-0.37021464850292995 -0.027845821664302273 -0.0068558338200213065 0.13392588646329612 
0.23176279156159957 -0.058335449509726391 0.61100964122430079 -0.19578712026410749 
0.23176279156159957 -0.058335449509726391 0.61100964122430079 -0.19578712026410749 
0.16941092240043315 -0.2025069813214585 -0.2031542383621861 -0.32345873045144835 
0.36079094126340938 -0.0079313524515028933 0.65621710064913397 -0.010458875035941007 
-0.31537323425073527 0.98561695859702048 -1.0440166777289321 0.58495459003627337 
-0.16209238898062739 -0.19127254274860539 -0.92096887768847913 0.29681264236066934 
-0.35262149898727313 0.61474497522062621 -0.23360574461397893 -0.16010027620440012 
0.17021309707469279 -0.095266765714679222 -0.084600784193581663 -0.24027076605369077 
0.040235044989179389 -0.099156435581768454 0.057554627864673538 0.039659340800529727 
0.063825496795713588 -0.021867999221353823 -0.073299441171019941 -0.12296953752740195 
0.15643830213110355 -0.29224130276780558 -0.011608036585953187 -0.10036958250108075 
-0.24953809125363635 0.47074195093795551 -0.0053084668335697943 -0.45831923701713828 
-0.50625955847065107 0.59917258485883307 -0.040390718812918225 -0.064479913750635623 
0.55853796602165706 -0.65759670683580551 -0.23766600210129279 -0.20595102812640426 
-0.38933567414137898 0.8609758194346625 -0.94722721649193065 0.62126306521839147 
0.01097612425599935 -0.22059280989579066 0.013373028973616346 -0.19607212468098784 
-0.50625955847065107 0.59917258485883307 -0.040390718812918225 -0.064479913750635623 
0.11086534531217729 -0.062474539983589678 -0.087173484639066809 -0.0094163832409662127 
-0.18591291776573082 0.083628012490526413 0.2769558328247399 -0.23990303048127923 
-1.1626270150483009 1.3168806751624944 -0.064295759772753813 -0.21294653903729621 
0.36807841922712287 -0.27147061731254146 -0.093291682064880893 -0.25564379943525828 
-0.043073887807664232 -0.077122233983363847 -0.097908286325323779 0.064912856120417514 
0.13844833121011757 -0.2060956902537926 -0.2021882740974783 -0.22542893677373976 
-0.95318415122718925 -0.17101084624154275 0.13724895974063028 0.060714358428191978 
0.18958181155439099 -0.2966661072922252 -0.045884639721284412 0.2243487882429091 
0.31719399545355736 -0.77452268785790201 -0.28734459330744683 0.18309015767669604 
-0.10291403781583787 0.60281111736597215 -0.033316041664751439 -0.0078116800471415282 
0.091858451147566286 0.015815905961168941 -0.070281377289077976 0.14524882136480721 
0.30351808233306954 0.00041180441372488247 -0.3907753096285479 -0.11459335733904238 
0.019959989562477094 -0.016178245879987035 -0.00064864651229629144 0.14161912766553697 
-0.0018169141266561988 -0.47470910296904206 0.15101559036596457 -0.14959219174129901 
0.035571565881323833 0.067374555901644595 0.30819982680881641 -0.03014172070088765 
0.019959989562477094 -0.016178245879987035 -0.00064864651229629144 0.14161912766553697 
0.62160608320715394 -0.0080210382284215329 -0.35808320177935543 -0.18918286278382235 
0.62160608320715394 -0.0080210382284215329 -0.35808320177935543 -0.18918286278382235 
0.10420114703885215 -0.39551678796421635 0.094983370512017148 0.046973545822005754 
-0.017537069487444247 0.0013079192566784609 0.019703719861248772 -0.12480736786548643 
-0.39153984485351834 -1.3884693030870665 -0.32760435734844107 1.4988510310121077 
-0.24340714894762744 0.15291884647160942 0.26080831747310634 -0.34525035184982433 
0.62160608320715394 -0.0080210382284215329 -0.35808320177935543 -0.18918286278382235 
-0.16728774931641793 0.02950460297195583 0.061495271814833184 -0.35792953201965844 
-0.02851860349556639 -0.06318686871913573 -0.042643066327664826 -0.016510616886354634 
-0.11582965997391835 0.095496706127310704 -0.29490010823039453 -0.090752197216155531 
0.06519895487402938 1.0269008786258786 -0.46465899348215056 -0.84382845270694773 
-0.44329183307365172 0.036353400338280703 0.38805095136291246 0.51502916629858952 
-0.58450229487830008 -0.55638701701443583 1.3277439019602904 -0.68031429162821322 
0.74090014397838611 -0.0013007630598007168 -0.71653977725345674 0.0016415573110662887 
0.53873057433090699 -1.0079500102611629 -0.34391946302345067 -0.36326481166905289 
-0.087581874132756088 0.10687948422129645 0.3731139728963736 -0.0022081905261046334 
0.74090014397838611 -0.0013007630598007168 -0.71653977725345674 0.0016415573110662887 
0.086594851659320821 0.12019119788078128 0.04199777412547339 -0.27595030695955403 
-0.16341234177141289 0.0054245650559972755 0.80859044304802119 -0.00042872097688600975 
0.0024879833429240772 -0.33948872529764418 0.16742048237239854 -0.1088182806886565 
0.25291814957819181 0.77732301682941785 -0.38979903519228165 -0.28093922903114377 
0.089117203823221219 0.013128721067344301 -0.11700137146465592 -0.11411726132575475 
-0.98550023968370493 -0.34849625228167469 -0.21398282975897867 0.72441582227312695 
0.0046465598609514262 -0.06379261354958736 -0.035101202252517394 -0.067786878529348615 
-0.16961741158594651 -0.36204568866760306 -0.022215528166868087 -0.46470271142775532 
0.028852342072779473 -0.65514869465794634 -0.081924934176791919 -0.028138238491939513 
0.056277308264385983 0.78670963110526015 -1.5214735807975066 -0.0036827723528052372 
-0.55236499821248941 -1.3945024659802017 1.0365918666301375 -0.42211068067041407 
-0.29196655505626057 0.63430286898087052 -0.9545281468364345 0.11045790948131987 
-0.40355156662193381 0.22030198411533081 0.27023789351967359 -0.084545610191478521 
-0.33608276164877665 -0.087295093488477221 -0.01730564691314837 0.004179700048093038 
-0.98641629674042486 -0.99247894561642647 1.6787015225767548 -0.284023505940456 
-0.55597211186344109 1.7944981320417694 -1.2881516723148856 -0.35612119367006589 
0.36060892047796317 0.80977622679863004 -1.5579072535763017 -0.08438806482425075 
-0.52376132120407326 -0.0061656953661257848 0.55606410151766594 0.028308012557766299 
0.18417098723101955 0.16280427445714749 -0.20843731747058047 -0.44553538505323986 
-0.35459310908759634 -1.2510883029649027 0.37120071745824285 0.49003856741252494 
0.078427102617350891 -0.024443557128968472 -0.076348866718734101 -0.085713826144406216 
0.012015557418535272 0.4994248917922699 0.17063955416838428 -0.032655992547762802 
0.13902207541946618 -0.4594718500163455 -0.013002716408898662 0.021718684381499626 
-0.52376132120407326 -0.0061656953661257848 0.55606410151766594 0.028308012557766299 
-0.051576704076469262 -0.22688688173807242 0.069147327784677748 -0.0011203910502906856 
0.013956819931045547 -0.15760670406010771 -0.036482824763157964 -0.039609369022032194 
0.18681450474042183 -0.13872073834206966 -0.23914437670185595 -0.17413382139573763 
-0.051576704076469262 -0.22688688173807242 0.069147327784677748 -0.0011203910502906856 
-0.31559536456960952 0.071039417617854969 0.054130026656354725 0.17290402580133141 
-0.77391671328071832 0.81249108842643192 -0.11400691817613015 -0.57718772407558261 
-0.09771661570554814 -0.049936738843027108 -0.038000501921524557 0.16911209293104884 
0.089428364374449718 -0.068417865698340644 -0.16561332840152665 -0.30242219778107127 
-0.051576704076469262 -0.22688688173807242 0.069147327784677748 -0.0011203910502906856 
0.18671901033386459 0.23791459028698625 -0.37217578588136768 0.023391489720287401 
0.68625986936460137 -0.69459047674845764 -0.53874060336574203 -0.32128990696829424 
-0.30437174237866954 -0.0011743531083998312 -0.64032391700181068 0.98008952522772264 
-0.051162335479010175 -0.30072779783020759 0.15934250549860005 0.050479613051167979 
-0.043888146098758296 -0.30807373029187157 0.10599087244928435 -0.36312870576051548 
-1.1033542970267931 -0.37263892529088904 1.4147030936974243 -0.50866491156735427 
-0.02975109437159593 -0.21675682519105349 0.060640426223797027 0.073425298694168181 
-0.36393571054812063 -0.003007330068277898 -0.5179210631566209 1.0076251987819018 
-0.30437174237866954 -0.0011743531083998312 -0.64032391700181068 0.98008952522772264 
-0.030754351195750984 -0.34622625706881599 -0.1720420412129621 -0.070136848409404304 
0.60815343589607718 -0.91713205937149322 -0.097999271450013137 0.087191268548529821 
-0.025444199505641425 -1.2421792366280651 1.3142732170116096 -0.11450962842475063 
-0.48502178470497487 0.44422324862288054 0.8954903751260006 -0.020689916454281893 
-0.093510883042791454 -0.27223332897935459 0.061431285706088135 -0.059326592300450787 
-0.016468424164999305 0.16456618011765081 0.055020100089891041 -0.16545596618805963 
0.1467721370260843 -0.34507107977299928 -0.18593725625360008 -0.27616104910552475 
0.15373390329018372 -0.27008649803658102 -0.11024863606746937 -0.31303750102396077 
-0.58342539428324258 1.3436654665205352 0.21034071684663858 -0.86373800575124848 
-0.074456626691489752 1.3081492017525767 0.082338442601053441 -0.81605989037826576 
0.06695687886874413 -0.26470456871428732 -0.18223845676044492 0.062966693014240543 
-0.17065249071869537 1.2929799644708708 0.14766050404184355 -0.83315386693911098 
0.42467719544120319 -0.29106834520093583 -0.097369198840523793 -0.41222739614073811 
-0.086268616133946291 0.073349440414383293 -0.074081570404933572 -0.17718182010149547 
0.19702431886730121 -0.57341833446914992 -0.1667536416385989 -0.092426643530506475 
0.033526740752363074 -0.18938735818444163 -0.048131801741853129 -0.053704220840847014 
-0.033264562292549024 -0.13089574742868318 -0.027388588024291491 0.21481466032530083 
-0.97568238408021801 -0.74210674645422769 -2.7864073007728445 3.1510162774268498 
-0.05746424176631057 -0.21636180474399014 0.13322092669320279 0.050723253210187669 
0.63420400164522628 -0.73125568476242175 -0.56106546318430317 -0.23124314959597381 
-0.05746424176631057 -0.21636180474399014 0.13322092669320279 0.050723253210187669 
-0.14150074639938309 0.03727651452596592 -0.014181639062760272 0.058158735300310738 
-1.2994334442127693 0.35114543996485365 -1.1885130275367863 1.6467072803459102 
-0.46682525313735951 0.10101147299473198 -0.42586206559508266 0.24180641410658149 
-0.05746424176631057 -0.21636180474399014 0.13322092669320279 0.050723253210187669 
-0.1775471508740013 0.23159117141949376 -0.059975171392605997 -0.099616516440479058 
0.032113044439699243 -0.042585348185122607 -0.073004141933976821 -0.01536241145501948 
0.14413409529379545 -0.54198396632568635 0.07709933625057519 0.20741561506648623 
0.51235957868346005 -0.56811436841623686 -0.35377956818379952 -0.19525971994473268 
0.13514946868157546 0.13582202136400381 -0.0181130590174155 -0.15379434185046117 
-0.28091582381107016 0.87215573583872419 -0.41965088753740754 -0.27728016250992021 
-0.31246231186116546 0.9267653932918839 -0.094700458696989648 -0.32558077807779462 
-0.70229284126080749 0.93269863111623563 -0.22182905274268577 0.0039347857942228746 
-0.18732546555752649 0.061785115005113356 0.12768570871715818 -0.0449978399493208 
-0.26304087797134068 -0.17949522848774527 0.33287557995460337 -0.45750347524316537 
-0.29209450109147456 -0.01398033156305066 0.43692136284511307 -0.021281999029685562 
-0.29209450109147456 -0.01398033156305066 0.43692136284511307 -0.021281999029685562 
-0.29209450109147456 -0.01398033156305066 0.43692136284511307 -0.021281999029685562 
0.27024924498644731 -0.2384097160299524 -0.69404489696752558 0.24256032862648605 
-0.29209450109147456 -0.01398033156305066 0.43692136284511307 -0.021281999029685562 
0.2393153327128428 0.053943570180468942 -0.28009338196242001 -0.14255265762084518 
-0.29209450109147456 -0.01398033156305066 0.43692136284511307 -0.021281999029685562 
0.076249623076044507 0.70349483792076106 -1.1697019158250246 0.48971659159426173 
-0.51541854247967211 -0.19942277544424047 0.52258733349812381 0.30035993429293478 
0.44665071130166445 -0.0075857362689746785 -0.51472083794837209 0.094397154334311256 
0.24225457777283455 -0.0081192822574711609 -0.035465312038127875 -0.01623781352482747 
0.82345101757247363 -0.061603034538970314 -0.48486558372776756 -0.23413803530035357 
-0.15072970084965143 0.63765203892588695 0.085658227417208077 -0.67678353130398194 
0.24079111290448751 -0.90219020862861876 -0.20266313258460555 -0.063831423904015208 
0.071886718850661308 -0.0077108472914776786 -0.032271877474214714 -0.015012499288377166 
0.053068534025459815 -0.48214025231307533 -0.035369684461324685 -0.019285356929216423 
0.11742974239386422 -0.010944236135225147 -0.038404637555659649 -0.024944728835853767 
-0.4276272377999063 -0.16830623157980371 0.05690060096737893 0.23411141576312317 
0.18167985456809269 -0.044016646196318981 -0.13058606433352635 -0.30506810626857539 
0.016135581067972499 0.031122694489316594 0.0075167890167318202 -0.058117291894119176 
-1.4132537156472478 -0.64113542879131258 1.1073409474436748 0.68626580321062958 
0.24871838657407491 -0.01874066269404541 -0.50256465151177487 -0.20391797685847718 
1.2623491842567165 -0.55490913785416662 -0.3965727767375945 0.1442483327002545 
-0.88999111219225857 -0.19968459483651432 0.93871799338811479 0.5115826280034238 
0.042586400952979643 0.28562964140652652 -0.10228633866149499 -0.77125893494290032 
-0.24665293805066549 0.19142892167230557 0.2516515069825051 -0.067619001697196007 
-0.32635376228925744 -0.19359160519724072 0.41941862948929515 -0.01406043590457462 
0.20067709448728199 -2.2351548955544258 0.28807649191293561 0.29891524584802226 
-1.0420591252066835 -0.066283061208702337 0.70855250475919274 -0.025956574125635429 
0.12535838000181743 -0.48621944891084734 -0.72796812660344423 0.35560613770644911 
-0.46185503843223308 0.044403902217471439 0.64968835357770272 -0.061055765975158799 
-0.077123437479892809 0.38754329617263217 0.022641862230416605 -0.4987316873939136 
0.06339410085580155 -0.083110838974735743 -0.017293859228020191 0.055900939447436376 
0.061445017468172582 -0.05100720758354442 -0.17043498122965409 0.0070345038396928752 
0.38086465804373704 0.57855706036024057 -0.40191660771282156 -0.64293658600937953 
0.13900498438125364 -0.080988804514305374 -0.071887239931136271 -0.31182088548524667 
0.090855482029664703 -0.37478274007892698 -0.10017579008684871 0.17392633439028179 
0.18684655493754318 -0.3194391094900953 -0.17007208543182109 -0.099173834775766107 
-0.045001305673493149 -0.065582648211905292 -0.14426839085008603 0.318645467328522 
0.742400618624108 -0.086346319199124513 -0.33972729036193933 -0.94728918845842136 
-0.00023691568224529051 0.90115645097177532 -0.8872055617276513 -0.11042232125047308 
0.95562692255810477 -0.0070999179786590642 -0.88768526491832933 -0.0085154627561446327 
0.29718969892899705 -0.83658505016573326 -0.11031033971134616 0.11426281086995037 
-0.99985280906957963 0.28791023106975289 0.91498087195415967 -0.23652973126503879 
-0.0737032040092023 0.58495988425315915 0.26669075756830563 -0.4933791555848559 
-0.5839818831442144 0.76785959207775578 0.11461731999184574 -0.50202378207465947 
0.12665797748290902 0.11272279144241792 -0.26497631455388743 -0.46910545074024457 
0.65099005485001515 -1.607287473934619 -0.062533544285662185 -0.20444817509070548 
0.1073148790892714 0.00077577444708449954 -0.031795916954376072 -0.0063423314031499315 
0.1073148790892714 0.00077577444708449954 -0.031795916954376072 -0.0063423314031499315 
0.52061922128049631 -0.012310360732459766 -0.2926300438316069 -0.096576057637317581 
-0.07578581921622464 -0.27403183406074122 0.065272862851578073 0.62811102891583914 
0.16382471189574099 -0.26130993378529732 -0.065449933841851604 0.065130563181741902 
0.076570702860062997 0.00021638881520856989 -0.10559704206614284 0.014803349063937269 
0.12166507112100214 -0.4504416871810667 -0.18997964748231377 -0.19032280152066536 
0.058856126956584223 0.018084585898987871 -0.12908521893739708 -0.077514761584234149 
0.12652323354149814 -0.14047502307215251 -0.38725119016480203 -0.14738054600339928 
1.0627921207934559 -0.0048850167219258566 -1.236364483303533 -0.0099237151718263045 
-0.44456161221457124 0.62451990333577012 -0.036252752458051242 -0.30949834975538054 
0.17598819472119381 -0.4366231608996165 -0.065940797360882583 -0.25023860589965963 
-0.39264864959182166 1.2848060653299334 -0.027141660332716866 0.15090403566387955 
-0.1423729373715043 0.10583364236257953 0.11935142500147587 -0.2767955215769467 
-0.14508877538552695 -0.62060741426618304 0.12785737399845451 -0.086706338159455276 
-0.057958041078985549 0.11520013726587057 0.030346237021038822 -0.024861341836286053 
-0.36399847114173406 0.45527786164311324 -0.13262137365694909 -0.88588947904303172 
0.97187762110339038 -0.63165665598091736 -0.65483661853482678 -0.03161159756561524 
0.042760817082013611 -0.20791434813332932 -0.028708164082159454 -0.026992805632473325 
0.97187762110339038 -0.63165665598091736 -0.65483661853482678 -0.03161159756561524 
-0.0040496525719426685 0.054863476810440751 0.0016899436183631916 -0.17237766513775499 
-0.0077350941883656248 -0.13420175199690193 0.025300815546132435 0.023539741019312617 
-0.069554534791450712 0.7201360168968105 -1.492420196483202 -0.46114099037540435 
-0.14766780607027102 0.06875641580994421 -0.028847840494765992 0.12830008236935744 
0.46320570875961486 -0.23000539596275377 -0.39898841712174993 0.12827268151216686 
-0.29585116912009124 -0.069633582842718394 0.44186718659981777 0.0042827106605412106 
-0.099606650104483913 -0.038512940202389573 -0.026783069508169458 0.09824672183022469 
-0.51658020461281473 -0.19005498925066477 0.80954209557456824 0.017545880574972333 
0.022831596663491376 0.36305652024508939 -1.1123732112478999 0.055076713624842594 
-0.16883810235111885 -0.27548882038355815 -0.011532757130690798 0.16365293068229128 
-0.28368465274583582 0.35633469523303513 -0.087126563126680712 0.17107209600062259 
-0.28368465274583582 0.35633469523303513 -0.087126563126680712 0.17107209600062259 
0.19835875386843893 -0.10014895407950605 -0.099373450396144022 -0.65458022071812039 
-1.9557439915723536 -0.13544276629848212 1.1850818594766399 -0.33195576556617806 
-0.013739209285667811 0.48139111536045054 0.51884029854102609 -0.64854597890699717 
1.94672563623006 0.071515305444487601 -0.59384911892815739 -1.6048244609325828 
-1.3656994663392659 -0.38336876784734641 1.394389378602765 -0.56737226673406616 
-1.0918789765219148 -1.0751336880316646 2.0914587784104501 -1.6161141756823825 
-0.5386257050908454 -0.21057426178624733 -0.26124080742248407 0.19707301674044039 
0.2801200382973501 0.19980672518262335 0.11447930517308644 -0.29618738947134715 
-0.0075738899353963232 0.23045008506024492 -0.092709491878399067 -0.21602380123293799 
-0.0051551998298114757 0.02455271326552079 0.060821864913485457 -0.18756922082715205 
0.078605284307835505 -0.05377210594514728 -0.011598994009294733 0.14562573214348284 
-0.15157107498865136 0.058437723851939898 0.032094995632453494 -0.002941097155285277 
0.034247867035041915 0.065608100835025648 -0.23453273285167803 0.025720466443337878 
-0.15157107498865136 0.058437723851939898 0.032094995632453494 -0.002941097155285277 
-1.361274938591519 -1.0225745267800472 1.6092675767418394 -0.37283898865358789 
-0.33211128678336516 0.26406606168970148 -0.13869573923536571 -0.42999004929450657 
-0.15157107498865136 0.058437723851939898 0.032094995632453494 -0.002941097155285277 
0.12835849145298267 0.13031747924605114 -0.15145625607017191 -0.4173690959577076 
0.054032800822713133 -0.25868990849042606 -0.020480555110314221 -0.083561397122883685 
0.30283107926089214 -0.2536234423852658 -0.37719180526993201 -0.029515716594663947 
0.34632777762073108 -1.3043536244785214 -0.018739230870251367 0.21009733917515344 
-0.063574034354923148 0.50168265382491328 0.096034008510360633 -0.095705685447202524 
0.50387783783845008 -0.067194825270018702 -1.27548592124976 0.24101985582087906 
0.14296865117163277 0.020419201719346133 -0.11085239021743197 -0.23729811204436538 
0.76910233693040464 -1.1133226996529124 -0.20375985949782044 0.19223919964195291 
-0.11143413793651136 -0.35493939127466856 0.3480950184586607 -0.10912256599740569 
-0.15287950843768666 0.13920434504581014 -1.0758865110221429 -0.64801121138741169 
-0.11588560344947421 -0.37975173786736638 0.17435156377735123 -0.091759029031771064 
-0.79419836633566609 0.8555302877757206 0.14432997692042143 -0.15903706437241349 
-0.16252108925199416 -0.67932450919075582 -0.094800306801851558 0.61755494295292546 
0.10753900103439204 -0.061584163382259915 0.087878918719810781 -0.45033696981573479 
-0.29257304649055149 -0.33155757920675422 0.85695557414578061 0.048480930545458698 
-0.19403956777939296 -0.6004686194559089 -0.021556129701519582 0.43847763374034943 
-0.47743854501393046 0.27390803729463092 -0.08020535790183278 -0.016769771020066326 
-0.16820533874599455 -0.03865677479315812 0.088052981124818533 0.11167569967602191 
-0.80474596852474556 -0.55233352884869447 0.75073298053996373 -0.10411303819960468 
-0.13853576234337417 -0.0073502996283813966 0.2079380649449874 -0.11896014678491189 
-0.18498512843079279 0.026630507343022483 -0.3240705286884803 -0.11047909815763733 
-1.3136971839536555 -0.09328152926079164 1.487782789841261 -0.91148952307328468 
-0.020538492768384816 0.00077638435748318777 0.023310442924811506 -0.049627293968766473 
-0.052494315086701854 0.50720982026777583 0.23955889283912751 -1.0536896464645782 
0.081417022823383478 0.066474691150331 -0.2373476695427571 0.1492499903472938 
-0.33983951369972154 0.93283760063129773 0.17742405510731052 -0.38465648866152707 
-0.79917897733886989 -0.42991205349244105 1.0758257231652575 -0.24638203130368075 
0.30217163690603788 -0.31002401606756014 -0.082471376673297153 0.054356792194644662 
-0.31406045020815937 0.011784806397102179 0.36471905596929544 0.041205623660385923 
0.19170297388527599 -1.2447920274445785 -0.057085500088168956 0.0078625863938199033 
-1.7261859547096794 -0.1981307335298691 1.4605933962241688 0.1131950360992323 
0.16306861174575557 0.17138181883558765 -0.080359419903969526 -0.58671103092271659 
0.20075564243220317 -0.0016542865877048583 -0.025174251843329581 0.034364286904126531 
0.85867294710610387 -0.0041119530607559799 -0.47663390512324383 -0.10127397895897175 
-0.35398701928047938 -0.56173168776717597 -0.51971245391222332 -0.19209489189889611 
0.20075564243220317 -0.0016542865877048583 -0.025174251843329581 0.034364286904126531 
-0.38277968327710804 0.29518706772806774 0.12030284162316468 0.078059843693858752 
0.20075564243220317 -0.0016542865877048583 -0.025174251843329581 0.034364286904126531 
0.026333307621520724 0.034514202726314107 -0.202295219042814 0.020198793301477003 
0.67971147561838652 0.040846449371606829 -0.94482690925494939 -0.12879339461890199 
-0.12446428916979622 -0.26808656288958943 0.067982491214069962 0.061574685252439545 
-0.026077445161207816 0.084100090311179071 -0.057983798710111445 -0.06573120939989667 
-0.39288631912931782 -0.55671632229789936 0.12322772505330287 -0.050877441692799466 
0.67961460022854703 -0.0028308064205651478 -0.45465717496158042 -0.1418632124055117 
0.67961460022854703 -0.0028308064205651478 -0.45465717496158042 -0.1418632124055117 
0.071676246703861204 -0.95526929400966254 -0.21457162541679276 0.70837463569358283 
0.16870100089538104 -0.69277653751981283 -0.15508683236022938 0.37841027665085886 
-1.826092311123368 -1.0157689173308027 1.6673204283534053 -0.13591123896994034 
-0.024230042378396516 0.37614826973056914 -0.20692509670381876 -0.0062595032812369777 
1.4983923286824736 0.0054825655419967236 -0.056844737146118901 0.0043491052492502583 
1.4983923286824736 0.0054825655419967236 -0.056844737146118901 0.0043491052492502583 
-1.2063458887388392 -1.2386030825849677 2.062027247206478 -1.3027959261298618 
0.0038406154889177452 0.30910580131946952 -0.16160825306138843 -0.3807501452183682 
0.12609695275662589 -0.58986963748635013 0.039623960141721065 0.079768682293678977 
-0.15294291078447986 0.24985381663121856 -0.38527520451112246 0.56994034494150236 
-0.87741405034917219 -0.27229580246535456 1.3366084631362047 -1.1159559553512632 
-0.10416316112471335 0.14362300774707576 -0.81754746631220043 1.3214827238096176 
0.033203198754746303 -0.37097327672204622 -0.017532563300494543 -0.0065274994149659218 
0.00045940967552782989 0.14605835784488413 -0.80223180408512273 1.4005917401701105 
-0.15757879568830474 0.38331913254111533 -0.32448813398164555 -0.63214218120941001 
-0.24105997276097607 -0.52911036671691314 0.13292308217112431 0.31372987690193233 
0.12021854281934348 -0.18747049432836552 -0.14827975995291257 0.29213207374995703 
0.13103886912578733 -0.0028185673593165428 -0.10451098338888226 0.0034095042038138753 
0.093843721412722333 -0.0042723749808160523 0.91119755446216888 -0.58000326997707274 
-0.044630833131802022 -0.98348712729941001 -0.29226215599831257 -0.33205585167778606 
-0.12485482865277522 -0.062049078645115475 -0.059350219697087578 -0.072527906473300735 
-0.094211305840475379 -0.012970660718005372 0.60042698908957082 -0.5314279834495933 
-0.012669343137005778 -0.048771147348970811 -0.0096914724394613593 -0.063119153213861939 
0.093843721412722333 -0.0042723749808160523 0.91119755446216888 -0.58000326997707274 
0.28025403857370207 -0.5200115065955776 -0.45884152753966012 -0.58440556259600773 
-1.0073810591531889 0.57143313446846267 -1.5191871322597184 1.5315941188931916 
0.04423388751920837 -1.8581687138604588 0.3080130667457629 0.52671166938998681 
0.093843721412722333 -0.0042723749808160523 0.91119755446216888 -0.58000326997707274 
-0.36770108324998974 0.21927335121339411 -1.6700588384632318 1.4318620706688217 
0.093843721412722333 -0.0042723749808160523 0.91119755446216888 -0.58000326997707274 
-1.4747249490488579 -0.6328739708660488 1.876019394073094 -0.98323866252110026 
-0.19344662935928356 0.087318081915276957 0.055677445619029396 -0.18849074684428907 
-0.81615991332607396 -0.60965137018164173 1.4056529846533501 -0.46903617203424852 
0.040536620061719021 -0.0023458751568003209 -0.34615890268783667 0.15834192688702456 
-0.30035029161150717 -0.13578331947072728 0.11370294238231474 0.094878313446868257 
0.023301313935331407 -0.86823091197944191 0.059885252144308662 0.045651123238902289 
-0.18958715599438947 -2.1236695819079157 0.68671713845811244 -0.16839508700108566 
0.040536620061719021 -0.0023458751568003209 -0.34615890268783667 0.15834192688702456 
0.57213184162900732 0.22294686447994633 -0.52804478935717514 -0.34069497391746134 
1.0391315381348796 -0.017144492290086508 -1.0136565800446229 -0.021305492615146013 
-1.3561353825049764 -0.18841553828366064 1.456664022142063 -0.18130097421107413 
0.11031481898819764 -0.37935998948642824 -0.055537590437379623 -0.14360564549785668 
-0.97172079911554632 -0.35619501498474337 0.66482827012472701 -0.012894350124967764 
1.2814211481916007 -0.40168386913249871 -0.62073489048267549 -0.18447545427850384 
-1.0392764287152492 0.91989847124741186 -0.13815000988808263 0.51936669742306019 
0.074555023579921956 -0.0072627660965246775 -0.034275135710067184 -0.024503841196074301 
0.074555023579921956 -0.0072627660965246775 -0.034275135710067184 -0.024503841196074301 
-1.2372250147230939 -1.544011026279978 -2.5769516566146971 2.8848630772844555 
0.075292041556006231 -0.48392654326506834 -0.0017502077288961554 -0.016635693915286201 
-0.050335096389999202 -0.11445985181541829 0.19541870001032652 -0.41378990117658188 
0.33906996514593624 0.22538734397888716 -0.1796318961425408 -0.40714161392370357 
0.054526258717185833 0.096765798592473654 -0.15862227631969839 -0.089345921426317601 
1.4420333496211173 -0.097157532754592574 -0.70971601362092152 -0.69231011691311872 
0.050114216660336636 0.40955139503433635 0.077214701266082708 -1.1289599655993166 
-0.25634589491380744 -0.54626046497356351 0.39046246126419537 -0.45080666254065982 
0.7926408023354593 -0.54822554649801247 -0.64186585553229625 0.30710348451052527 
-0.058685973170927677 -0.16787536387494123 -0.00061353036739811989 -0.084215519027534727 
0.065465161133659383 -0.16654027641106428 -0.10032140135214122 0.085992315992758098 
-0.059024747376034012 -0.45896704639850661 -0.0064538211418305111 0.060507991678029907 
0.75754362485573157 -0.14618484542417282 -0.67889145505578297 0.68733106864101901 
0.042566004198150577 0.070325262031330812 -1.131084231822771 -0.028600914135478335 
0.1430903652441583 0.048241602645784518 0.11708289522388451 -0.31976580769511093 
-0.060960370831716182 -0.25601189346017433 0.13097952502400131 -0.14699557531554236 
0.087487630014038142 0.049299473018160539 0.0043055456302017181 -0.1023584731925227 
0.063157138570346133 0.052094577845737185 -0.019458526771903101 -0.097532325885858334 
0.063157138570346133 0.052094577845737185 -0.019458526771903101 -0.097532325885858334 
-0.40555820604753962 -0.00429274646924643 0.47690740947253218 -0.0030040573239943401 
0.12538023649052135 -1.1746389647859088 -0.19441426438622095 -0.11127135073303598 
-0.40555820604753962 -0.00429274646924643 0.47690740947253218 -0.0030040573239943401 
-0.14115414693724374 0.27353570331492594 -0.069208749473906372 -0.72683138692826654 
-0.38686153285703756 -0.0049755526013816505 0.44662871383319902 -0.0011073523465795442 
-0.046311639648943193 0.077717474131135916 0.050402494249717315 -0.30597432513230471 
0.18186952708292331 -0.55714283824381527 -0.19318953969676186 -0.03290642155547531 
0.15850706653383456 -0.67998705387964131 -0.35283108608470537 -1.3246347222215051 
-0.80700905467767936 -0.75185901518354625 1.3477664147013977 -0.14079989954637906 
-0.083064622044972086 0.044790306004540287 0.0079084797273546587 -0.12706004299192675 
0.33847974716391033 -0.06898269030922427 -0.29648753693584584 0.002337651433905583 
0.98673412188546039 1.0867424336382343 -1.139559461370931 -0.20945894162561624 
0.21619151515136081 -0.21206045207335614 -0.16137017294263906 -0.25886049948318851 
0.33847974716391033 -0.06898269030922427 -0.29648753693584584 0.002337651433905583 
-0.099932371945807799 -0.25315537122302439 0.20631176888496797 -0.51784738800654329 
-0.49534735186437223 0.40927247353961593 0.10133201434657238 -0.13985569857887989 
0.53925056363363022 -0.2090076537034081 -0.34895349822449312 0.015082743560221098 
-0.56965452765173197 0.35287998403910381 0.45515286728715521 -0.46661099558536356 
0.019867585416680308 -0.030032052743338353 -0.044894514440785058 -0.11028790665612517 
-1.2157228328679539 1.2086697066629029 -0.98976705263725506 0.95766465944781343 
0.65712510898339693 -0.094489350557157195 -0.077521505861002676 -0.011971984629811305 
-0.069864935246402138 -0.80997494603588616 0.19332511165914945 -0.16421217536838123 
0.68192333997910437 -0.092671186025381352 0.82262024240594267 -0.84956002095194982 
0.19675447801729218 -0.2240134855347512 -0.24169659881069716 -0.27342032830716734 
0.54765718150898146 -0.10567314544648163 -0.0330063187302298 -0.00056060119261623848 
0.4367163872203621 -0.19265417512527266 -0.39776553522225777 -0.042847017599507826 
0.23336642877262467 0.46620655263179667 -0.3174422844986507 -0.31131627865155798 
0.54765718150898146 -0.10567314544648163 -0.0330063187302298 -0.00056060119261623848 
-0.76473669144620637 -0.092662864185281829 0.79912037206391684 -0.052606758744222326 
-0.069467882307650941 -0.12931351305012254 -0.11979237540842125 -0.07518959290580976 
-0.13997351611529329 -0.07429322159698859 0.2950773620177522 -0.0038059409901283732 
0.019974394625284449 0.052466415907208283 -0.04874945858694358 0.021084935819602562 
-0.038644961715517581 -0.072482515205369455 0.22218552058084079 0.0036808787123912964 
-0.13997351611529329 -0.07429322159698859 0.2950773620177522 -0.0038059409901283732 
0.48748693696664669 0.31667136781107519 -0.44328381032281577 -1.1777341815440443 
-0.033242421308223996 -0.15644675609501663 -0.10568498669876053 -0.049217713901870942 
1.7129544906475307 -1.5344362655730468 -0.22103556066486668 -1.275384876527019 
-1.4330389592371995 0.42247916384924195 -0.49673337886838914 -0.15122239581403416 
-0.029502466190705311 -0.07371531229414309 0.083363442891676132 -0.0018539286834317677 
0.30617598293401227 -0.079642263228087304 0.0013932272733876011 0.077813342564861859 
0.38523116618627073 0.74738103294105518 -0.76298971934522419 -0.52363098489034554 
-0.029502466190705311 -0.07371531229414309 0.083363442891676132 -0.0018539286834317677 
-0.71287063224267344 0.4692580345836635 0.15858956026008716 -0.69805895543354768 
0.06087887545038928 -0.39296398659625276 -0.065908142329696121 0.047938664239001033 
-0.029502466190705311 -0.07371531229414309 0.083363442891676132 -0.0018539286834317677 
0.44618566670459081 -0.1395196075808447 -0.58115602697253821 -0.32679179565475658 
-1.6608631483432788 0.20392253379648487 1.341864775491358 -0.16638377391625978 
0.22961694263966209 -0.48489306045165109 0.04754913361888069 -0.2502199042213924 
-1.6737690027251473 -0.093816069951439693 1.4423816656956716 -0.0080789503930411843 
-0.0079963179783059668 0.24438176378231741 -0.055203755866443847 -0.27839795308412746 
-0.55416489908044742 0.52744820889810495 -0.95030227513490573 0.95899058230062351 
0.15293070076564702 0.00036209775050317222 -0.29292106412174568 -0.27441442830120866 
1.5096383227325121 -0.66780113937545993 0.86632403402782321 -0.040294916657265561 
0.070026415230239308 -0.13729756428198264 -0.033108683032500863 -0.011202047168145803 
0.070026415230239308 -0.13729756428198264 -0.033108683032500863 -0.011202047168145803 
-0.010924152676925029 -0.058059804203988652 0.075293695254339793 -0.19237099748989411 
0.14232545858668066 -0.14341675936076434 -0.04799246054642553 -0.058997283314010079 
0.070026415230239308 -0.13729756428198264 -0.033108683032500863 -0.011202047168145803 
0.070026415230239308 -0.13729756428198264 -0.033108683032500863 -0.011202047168145803 
-0.21397076365578235 0.41638589185024161 -0.072728892128682138 -0.28313377461521572 
0.22975874940766622 0.25271711399671559 -0.4312653125500624 -0.11005548403547361 
-0.4479438035198629 0.60045840789763105 0.1516370183158629 -0.50495308455105781 
-0.16344532463538503 -0.31510115260593208 -0.014113078746565005 0.13685174249200957 
-0.6338099128742567 0.58715327142300699 0.33266869038795382 -0.1252441058154232 
-0.69260144874571028 -0.12666764264004388 0.24154440531748841 0.0051013353532212364 
0.78073794817193365 0.19045104547794006 -0.75485394991850263 -0.33162410614376997 
0.41691741986243347 -0.33871435646813031 -0.71854969453587358 0.13327478334661577 
0.76539874960384513 -0.23573724043311153 -0.10174293661644779 -0.53012448965708681 
-0.031855981564397409 -0.35214550526556387 -0.17746109286887532 0.32292545709871567 
0.084111902684231993 -0.40086206649060552 0.035337256983531407 -0.10811241302785146 
-0.04257415371640301 0.051085834962593175 0.063634124161545694 -1.0427546209085974 
0.064056030029848485 -0.16848307675932722 -0.083366988366455883 -0.068440370336493625 
0.24468779468805904 -0.072988162169856499 -0.11738887071610318 -0.44134216724209541 
0.0070805262514255507 0.03623646779346032 -0.071552619965801104 -0.30856390208714923 
0.64335100210172924 -0.98681510440403031 -0.27318598591805077 0.11195337203736283 
-0.79045690104419064 0.60324043324889765 0.090184366792160353 0.18893992318964259 
0.10718628526959391 -0.43923187609737485 -0.032037165843711371 0.13033612430532693 
-0.67534389507302306 0.72094972366867971 -0.17632866859810115 -0.17054049521539838 
-1.6925808311876103 -0.60937638317741361 1.5342376300215865 -0.12064053578256019 
-0.0048047257632401605 -0.0052624757669851602 -0.0071931891168562287 -0.0057366576778458359 
-1.2935764027116865 -1.3080313816822917 2.2994336864694409 -2.0311938902027209 
-0.0048047257632401605 -0.0052624757669851602 -0.0071931891168562287 -0.0057366576778458359 
-0.19506873533740213 0.4350108770376519 0.22912472806565709 0.052775655536836552 
-0.44782780908777103 -0.24162825747067254 0.34358279808445824 -0.31964707628052291 
-1.2543399152349275 1.1590596390736279 -0.025044244637099491 -0.25500583324720544 
-0.35371241979455537 0.37507109591906812 -0.083409693334037555 -0.22898001610472288 
-0.14556446437905049 -0.45844444535404011 0.1031167476697705 0.13472127413325385 
0.15166695792242707 0.057849232073032511 -0.037426092060603988 -0.17736787811325883 
0.37482285658935793 0.43564553800569161 -1.0044435806934411 0.54407294482779822 
-0.067762482519179892 0.28791070843248018 -0.058648999402634044 -0.67310593203067171 
-0.34129715055289367 -0.93925609156795364 1.4810784227497229 -0.0065292097050465969 
0.32536057475598196 -0.24534648200573358 -0.0070904249302914356 -0.22451345962918953 
-0.39343202207641637 -0.94057949808469887 1.4352885766264494 0.020239702249767556 
1.0456725160725484 -0.61062378805550099 -1.309714680492384 0.57199958913958127 
0.058584901376987061 -0.021168288009341122 -0.098343890078862406 0.024237066128030636 
0.1207242710130568 0.48697315648243827 0.083680097446853147 -0.63519461172491476 
-0.07739673998703471 -0.3209690550231743 0.49217770564613172 -0.27410520109931119 
-0.011848178609069449 0.087116067299484318 -0.087758792548673928 -0.029889770936528059 
0.16432919550310504 -0.018032043015923427 -0.1639409896481803 0.00086357990565848132 
-0.34835906669983202 -0.77579596319601241 -0.15757578790714344 0.35532594730342948 
0.23451237456786761 -0.020553255116880706 -0.23285335743703683 0.0065012713932312699 
0.24609023848015735 -0.9599391049343251 -0.045263565802190084 -0.2876127057348194 
0.16432919550310504 -0.018032043015923427 -0.1639409896481803 0.00086357990565848132 
-0.40780918321203186 0.21942389385451572 0.36151349072811029 -0.12605093554005484 
-0.36435880531362191 -0.46907518524998931 0.45446988564282675 -0.12004702834471009 
-0.027458543750655408 0.049577611176989854 -0.029770150147910644 -0.16181654650147576 
-0.4302035966441472 1.0086671284987063e-06 0.35023575456146616 -0.11534458264893843 
-0.029089488238696275 0.46286647191474367 0.01031720242170503 0.22935935149625644 
0.87833577327097923 -0.30561385071477382 0.010832541965681064 -0.13081170847126977 
-0.93171350514072315 -0.31279014241513636 0.54314505513121225 0.46923503390422283 
-0.050699389331496203 -0.67179338672769084 0.034593012068588655 -0.040269630161603398 
-0.23349955801665473 1.444503592656122 -0.67320664548360676 -0.98919054657183003 
0.21014184118321499 0.034911556161719613 -0.24206841190358841 -0.082166483492463291 
-0.18392089361978187 0.25768390978569067 -0.11304636125384912 0.22068173799955781 
0.010025888002772626 -0.71279719522152452 -0.038714500295196339 -0.17191819824705476 
0.046724053979181293 0.0038682520665214784 -0.028509987282491808 0.0022406951202377273 
-0.68148071858085479 -0.57977735753418402 1.859879627276428 -2.1600627072562046 
-1.3614153545378467 -1.0892975025264355 1.7897789316737545 -0.67725473996240004 
-0.37742434971107119 -0.18608499286768515 0.35278825618641863 0.043639619500346831 
-0.088674412175702114 -0.37316788544284729 -0.073038759753348198 -0.10367182762158991 
0.45684329505182247 0.46769741487077177 -0.1600422448076696 -0.32966702387545571 
-0.093404769453149905 -0.20155006474538664 0.25340618136682191 -0.20530986521227607 
-0.37742434971107119 -0.18608499286768515 0.35278825618641863 0.043639619500346831 
-0.37742434971107119 -0.18608499286768515 0.35278825618641863 0.043639619500346831 
-0.37742434971107119 -0.18608499286768515 0.35278825618641863 0.043639619500346831 
0.20118305962646912 -0.33592207932096901 0.22523749707799948 0.023308017839112901 
-0.22376824859403044 -0.10124457396573518 0.046854466340953221 -0.22938157523855579 
-0.038489451526326254 -0.33618362612286129 0.23368840760556359 -0.21548638490820954 
0.0069720393189681672 -0.13545077997047839 -0.045188473858600878 0.092485408920037038 
0.047140958230695543 -0.33151301449124021 -0.048143804837790544 -0.34795977621935781 
-0.00073485348680593979 -0.33850088127529099 0.13632974526114028 -0.21724085661051989 
-0.21661581182890852 0.50991337807170733 0.013115426169936079 0.17847692686904135 
0.098854280194131144 -0.13556853725953108 -0.088712369341586939 -0.065722009933240469 
-0.54114956663316804 -0.27058450758724506 0.5803826652020404 0.81275387300151714 
0.035311908189363722 -0.041566876974749062 -0.27688702936863385 -0.2946262148818965 
-0.17649454045189422 0.57865233918964287 0.21411587637803814 -0.11296151581615044 
-0.07390165506837211 0.051644887810864744 0.11142927468057261 -0.071073909165295476 
-0.10051923223527431 -0.071187370975319214 -0.098099307686745435 0.092728628962714416 
0.016461501757514069 -0.070244802500879167 -0.025578354290821448 -0.33946197196995737 
0.06825997077896763 -0.075675032797155456 -0.076848612855375725 0.049750004916225721 
1.3627463145723508 -0.23552944265972692 -1.3519757395673497 0.17785861934225661 
0.73664529617350905 -0.29049821585794949 -0.25343633059682519 -0.26754328300749131 
0.060824900684603833 -0.0022690589139248013 -0.32998296274534206 -0.0020350599347914674 
0.34025952544582072 0.2573887865144332 -0.14440631905175458 -0.24952773927366403 
-0.20231192307700085 -0.016641528507222957 -0.18365701477571372 -0.003040769934106906 
0.29667350791531111 -2.17297853745985 0.54767416020475534 0.80070636493402914 
0.13413176709198518 0.66582968007140431 -0.062092200610655575 -0.44488015257370839 
0.1184683944752252 -0.11487048669928673 -0.050084484017650033 -0.0084177328547669697 
0.093401537984902777 -0.40353074132964217 -0.10072444708691446 0.23344968252657272 
0.043643735566002498 -0.25516820928878636 -0.13424492176612313 0.14474308080435444 
-0.57903475704315432 -0.58701736926410697 0.21039468674907164 -0.42448647623689728 
0.048177995642155379 -0.093355663878081308 -0.18661411720883558 -0.22446351577454784 
-0.41458242050811028 -0.22475198597416504 0.27746273245715319 0.12111535243187356 
-0.22790676562865858 -0.0088500893235594763 1.2969237898078672 -0.14603620960926936 
0.16647170872575526 -0.39234955465054827 -0.14312057571662548 0.12263354030424808 
-0.56689806780085428 0.20690520231551884 0.34406070612066114 -0.12579368852898004 
-0.43940742241708564 0.6698278348954444 -0.88162521616701728 0.65613924233822885 
0.06817810974831455 -0.54502157936607643 -0.2726692999465079 0.1790200386343872 
0.42389973290345856 -0.154084724208432 -0.2790940534329252 -0.79028064472202253 
-0.22790676562865858 -0.0088500893235594763 1.2969237898078672 -0.14603620960926936 
0.10119065514368915 -0.089749873056728796 -0.032044255993363739 0.10919632433598803 
-0.3100348731844228 0.0676111721940892 0.096429834135672715 -0.50309882727378841 
0.1921711238139899 0.92552598201907732 -1.2741783689961386 0.0083754760967378831 
-1.4594866005762788 0.6011877294944733 0.28764596304590978 0.28397254742287947 
-0.20638681994834751 -0.25743288497700234 -0.0032429283600655945 0.058436475153905543 
0.1921711238139899 0.92552598201907732 -1.2741783689961386 0.0083754760967378831 
-0.65957819809944662 0.39118480801092415 0.38984724883344241 0.065905906431079297 
0.25628652316632378 -0.022331418049311786 -0.81261867064656568 0.095842915643216675 
-0.065490865149259725 -0.00314349821464597 0.95869414927935304 -0.79398495157341431 
-1.1805240265649524 -0.158641393813164 0.91214698482824685 -0.80680509659184063 
0.033197581594065204 -0.66133003696738157 0.21285274612570487 -0.10789575263856566 
-0.90500607255849164 0.53006330394128365 -1.4100977011064311 1.5577422137540391 
0.43830441239458201 -1.312124271585497 -0.46086362407471138 0.077490815191114282 
-0.19597563633766138 -0.35872593670687292 0.043320471685771862 0.25652653583499957 
-0.065490865149259725 -0.00314349821464597 0.95869414927935304 -0.79398495157341431 
-1.0451316297505371 -0.55641743148596323 1.4217252747347287 -0.20096563442281248 
0.22705092875174523 -0.86623086791735193 -0.025022901986108709 0.13522931122599208 
-0.23002659232961339 0.12361144816736729 0.129518072459998 -0.14398874792501304 
-0.14277414310248199 0.018198627987829674 -0.90016899438272147 0.41836319909108888 
0.045402979707117576 0.0015558751512228242 -0.074218611834927561 0.20775304554214916 
-0.50698431707334424 -0.24424872349016946 1.2710562987110492 -0.067062027113554856 
-0.024627693210103201 -0.1481555377505841 -0.14990320420259312 -0.78895193966204213 
0.148125650258361 -0.95207730936211765 -0.11030710459581561 0.52633760423243081 
-0.50698431707334424 -0.24424872349016946 1.2710562987110492 -0.067062027113554856 
-0.032365524813784234 -0.0035098734804976644 -0.0041071833794514359 -0.01037101405750891 
0.097812134742208498 -0.22750953264248497 -0.16478791616194011 -0.1716363478708576 
-0.014915958743658621 0.13585336059930819 -0.17836374847338388 -0.30524401058653894 
-1.2439179667937399 -1.0253379114745971 2.192278379599891 -1.8934546293597732 
-0.032365524813784234 -0.0035098734804976644 -0.0041071833794514359 -0.01037101405750891 
-0.032365524813784234 -0.0035098734804976644 -0.0041071833794514359 -0.01037101405750891 
-0.50123305146254837 0.50902775223220154 0.19701837331713523 -0.13895137842677813 
0.46103339050248171 -0.0073304394251261888 -0.032290617440446853 -0.22175285128120664 
0.0087848679680680997 -0.56286701626031643 -0.034926121021042339 -0.06520474616753523 
0.46103339050248171 -0.0073304394251261888 -0.032290617440446853 -0.22175285128120664 
0.46103339050248171 -0.0073304394251261888 -0.032290617440446853 -0.22175285128120664 
-0.0025822924487813939 -0.051587910620029501 -0.059449651511104422 -0.0075559206374412533 
-0.28923504570771558 -0.0091875154985831022 0.31793990518641324 -0.187202852195616 
-0.018892438320969825 0.013849420267645171 -0.012878434300014424 0.047902183802326852 
-0.14125872601020184 0.046261332963199855 0.15567473331891957 -0.066929661656526529 
0.20640478974272763 -0.12385483966639746 -0.19724908346135858 -0.39551994550475766 
-0.03983144184372741 0.10414897552420044 0.019878753702174838 -0.15440873343863087 
-0.12368238487612909 0.0059013167006553863 0.069502054033489635 0.035728541917859825 
-0.16882776506744346 0.87376573805423441 -1.2277472570858574 0.60699104937689596 
-1.2305663112624581 -0.84959582383210797 1.0376150195014657 -0.21138929701826115 
-0.018892438320969825 0.013849420267645171 -0.012878434300014424 0.047902183802326852 
-1.0754582657884888 0.12605663971663172 0.39026724082548403 0.12692266962282978 
-0.047017866791733878 0.011077179804614853 0.034685751013806304 0.069448318556311589 
-0.040616686715949132 0.0090057112315852644 0.051996493869399724 0.061597413670528983 
0.16881309841494396 0.11930873368979322 -0.29652631763552173 -0.055469684830502734 
-0.42249024688230319 -1.0489020698299019 0.32178119299879204 -0.39123606080247009 
0.11638018965840408 0.040897300392124983 -0.1542670023084064 0.11523782214163765 
-0.047017866791733878 0.011077179804614853 0.034685751013806304 0.069448318556311589 
-0.28729488299808892 0.23669715221125845 0.054035148328763272 -0.14222873544683004 
0.35871333706871211 -0.23804052075072502 -0.12866847699140205 -0.32588055895637968 
-0.91083553599939437 1.14171004208219 -0.27551393512135169 0.31718055758690222 
0.76654466686411682 0.062803121019251396 -0.78500736450254016 -0.19855293309914859 
1.7149263133200614 -1.1306378735819389 -0.71196544627818925 0.0071802605313918983 
0.22178584486658065 -0.46278593170619708 -0.08306892045133267 -0.13186027565240524 
-0.42402875525352152 -0.054298339080392319 0.15623409148414208 0.58045126130057267 
-0.30633626593603702 -0.00028047267245217438 0.1203520202614287 0.011453197246874394 
-0.30633626593603702 -0.00028047267245217438 0.1203520202614287 0.011453197246874394 
-0.33692492217430375 0.35451130596247871 0.35558407286634164 -0.36401185420739157 
-0.33095152121152582 0.37589086006794337 0.095265468760871386 -0.05127030677312204 
0.073705558762741374 -0.27259955544169528 -0.020023368538907696 0.016208729400062419 
1.1587717512004709 -0.27330965327364054 -0.33480992078857974 -0.20182382580807098 
-0.33707829294621872 0.38970065003403431 0.094729018848602395 -0.62918164751185979 
0.052782223917365825 -0.044634375248216514 0.055786274354208173 -0.01003565791384961 
-0.38213875639460837 -0.15895737905864427 0.032036004445773814 0.10801401136385888 
0.93918256035867365 0.17471374407830706 -0.17851866705275404 -0.18581044822337078 
-0.64778114164151201 0.17748402414879369 0.49089794191985453 0.21664226430192809 
0.20819477697354352 -0.15052639918848781 -0.29436819764856614 0.23247439772730133 
0.70626008377453764 -0.46138491421329419 -0.52511599546083865 -0.09450554754973757 
0.13021878249669758 0.56660829267764545 0.36783458654127638 -0.74249484426190515 
0.069087026419626774 -0.28209008879965397 -0.11022717154188846 -0.13245135755897419 
-0.21836716164914999 -0.87965897949708483 0.17284732712606901 0.22244493538150101 
0.39974886568586554 -0.024437304914842105 -0.0026886837208550049 -0.23882215792945966 
0.0042695516380546932 0.066852686710879683 -0.021295979834812392 -0.0094068242805473209 
0.99049595821365344 -0.87152554848032504 -0.41048677664838396 0.10735310603558382 
-0.40853172959188361 0.40543256677630801 -0.3078072864354196 -0.059923768141557976 
0.035867319402343265 0.01983325631070082 -0.092199436812253094 -0.13840153104704789 
-0.13604796114567336 0.42639187118393135 -0.40138296250727745 -0.30825879568544534 
0.28261300504739906 -0.14126302023761148 -0.25596595712684639 -0.44837643026216251 
0.04030668049772259 -0.049495574931239239 -0.1209486336709571 -0.3956655024470348 
0.24084871406589453 -0.013815670776760214 -0.038104019635043535 -0.020391311626744305 
0.24084871406589453 -0.013815670776760214 -0.038104019635043535 -0.020391311626744305 
0.15960210787051293 -0.033079045677810281 -0.043658744452342274 -0.0095284333732183427 
0.55272373429627053 0.11748937513028937 -0.10213434532134202 -0.1481267078335291 
-0.26751328826666759 0.79962493432173909 0.35275046832310641 -0.10850880649888449 
-0.18068917289422792 -0.023672307978721219 0.31096214353596485 -0.05450035979006037 
-1.2104592852688096 -1.200280625243707 1.7662178163887263 -0.48486164220645422 
0.15960210787051293 -0.033079045677810281 -0.043658744452342274 -0.0095284333732183427 
-0.030670653273494101 0.012697197891169042 -0.016024644274510634 -0.32722199639190108 
-0.079371946877106248 0.0061149009140266872 0.085414197629132493 0.049440472608093748 
-1.7649183151003434 1.8602112384373131 -0.46414226963250765 -0.033983925731831122 
-0.78082548250341499 -0.41485076984970037 1.127336820231819 -0.22044402835785612 
-1.2676299231435233 0.81929227105631541 -0.035217467641015729 -0.21288742046259274 
-0.030670653273494101 0.012697197891169042 -0.016024644274510634 -0.32722199639190108 
-0.030670653273494101 0.012697197891169042 -0.016024644274510634 -0.32722199639190108 
-0.1005430926080791 0.76384968889562321 -0.40342734120584933 -0.51687458011216003 
-0.089751623925539883 -0.26378664747428254 0.22279618581986133 0.33495257676773893 
-0.14415362975644014 -0.29822232252255909 0.41961448536478602 -0.081516128277220268 
0.018640618309792731 0.71479619045154585 -0.2947552610481729 -0.54171432744523584 
0.08357491499586843 0.13737098278056528 -0.18642794722561859 -0.2032508895130607 
0.28055411146368264 0.99202205081177186 -0.88876241425290825 0.075811924172286965 
0.21072353632491544 -0.68353698361748605 0.088591332187708052 0.12861869152875124 
0.058508522989564743 -0.33008364454813022 -0.058327841379729677 -0.17584252505259923 
-0.10059848709203283 0.6776783941389779 -0.3446502956182575 -1.2624348863074739 
0.26696486768989036 -0.75610904256409439 -0.072962564276691552 -0.27725332110027062 
0.12760240922559291 0.11366869717094552 -0.062533802484347117 -0.03209645154155541 
-0.31779033972021192 0.67369786203266036 0.10542298847403267 -0.73015466653834959 
-0.48084982065732546 0.29499909413054709 -1.4070876461055275 1.1075837012599934 
-0.072560447014677343 0.33999726796107288 0.42925005313380193 -0.36003050099976186 
1.0185737530085799 -0.16559421382438719 -0.41504217657518383 -0.031765795574435041 
0.24238352874590419 -0.012623109501985613 -0.49112338312226977 -0.014138482539989367 
-0.089313218248135706 -0.060583884777420063 -0.12178972680000413 -0.098370017117553318 
-0.059465880875659835 -0.67216266708375616 0.18173500365611975 -0.0068690554858198694 
0.81276383714349165 -0.59612390086194911 -0.51083796274240689 -0.019861779525232895 
0.36511027349248082 0.094885523940355709 -0.13879504007139332 -0.47725606251387415 
0.030317764042197694 0.57995554407700967 -1.7214258207067068 -0.20722332728301004 
0.021819909279799515 -0.12020480811719572 0.041242036164131038 -0.17515811682512919 
0.94414984570815308 -0.12312471668358729 -1.2470808717569493 -0.18080306003432114 
1.1680971339603774 -1.1544486546901549 0.11828119275505479 0.072033904668304533 
0.021819909279799515 -0.12020480811719572 0.041242036164131038 -0.17515811682512919 
-0.08364429246429958 0.55342039529960407 -0.08463653285030992 -0.71719505713439735 
-1.2859218070560978 -0.24575831352029989 -0.52789536341295651 2.2979224135915262 
0.36910355762209185 0.2523801059716444 -0.38186260540849049 -0.0997603247199218 
0.65179898610374398 -0.88628519684630624 0.045712826715416648 -0.90396873133890898 
0.57267921756325157 0.00045050114528109105 -0.79290498378143459 0.057574517627199007 
-0.43088406794308914 -0.49889625215046768 0.059154943229472262 0.47881512630257206 
0.098102617035462067 -0.39795116769780808 -0.070137052520804016 0.32101689360630964 
0.55182277519628076 -0.19356083025379739 -0.68448122104355824 0.047889726393958582 
0.42056962326233893 0.612004325994006 -0.024967113078131865 -0.72161124094340223 
0.71525978016528924 0.058581875379779262 -0.30759987720666671 0.086096832097044329 
0.57267921756325157 0.00045050114528109105 -0.79290498378143459 0.057574517627199007 
-0.26353241729765742 0.79982668366321708 -1.1690298383402735 0.3610546640153538 
0.69793139754980438 0.038814949597932635 -0.039256461943309007 -0.020560323177050061 
0.62717292114073608 0.036251807269937292 0.013223334092005157 -0.0046814599066684432 
-0.18175402082157593 0.025813320003596138 0.24949262852219742 -0.237024220624065 
0.032118865422928806 0.027323234727551243 0.13745493863860031 -0.15356450050172013 
-0.3011626488271808 -0.18646507863152595 0.054376933725682045 -0.19833358918842081 
0.041343241604735931 -0.052855964645574176 -0.09875581368076608 0.0049915881098723577 
0.081167328077015988 0.0066290970283894024 0.0036204547224344963 0.067441202804205083 
-0.064401254499827781 0.20567905030612402 -0.063768423809688252 0.09720655029510844 
-1.2670272970153127 -1.829757930314593 2.1882197362249189 -0.83506109535822892 
0.13144539144052272 -0.26091750942286007 -0.1443470210843488 -0.18767796872776749 
-0.5029930051110677 -0.78789678283870301 0.37445065465950245 0.053989308008405255 
-0.013258746236076313 -0.28624191091624152 0.0012618412766752379 -0.31116718986851016 
-0.21038825019102331 -0.49418277853484305 0.41942471030837564 0.018686729183461794 
-0.28040552598604146 -0.0011781649114936121 0.012508572651090205 0.0045282103807859578 
0.09530555444623888 0.10650684237868126 -0.10776785243231696 -0.55053033992075218 
0.0032417923292213276 -0.12899876206268204 0.043534979899145579 -0.097793778686969535 
0.52468154324102645 -0.48355693635997615 -0.43440234511410225 -0.040268911289547689 
-0.17247088721406925 -2.3968346228177753 0.19687746436314246 0.4131595738828498 
-0.17927749571734258 -0.0097667666969076632 1.4159794150806422 -0.47770359002198554 
0.1835001608436721 -0.61564008797628145 -2.4126898480388856 1.5300631356413386 
-0.17927749571734258 -0.0097667666969076632 1.4159794150806422 -0.47770359002198554 
1.1192979015758004 -0.33584918265359165 -0.35724956096309823 -0.60495023329970432 
-1.8034075994394831 -0.4918325873358857 2.41262888290942 -0.42644040832407176 
1.0245807094006605 -1.3361406091797423 -0.45789806008673961 -0.33471410607339674 
1.3806005621549924 0.052013707967059827 0.30287070557021678 -1.1358741478135055 
0.0537978867993055 -0.004408920351646764 0.018391318455519182 -0.93834374733925974 
-0.54405451978464203 0.087204493623600915 -0.0048104227731118731 0.26616156639902566 
-0.25598333144111135 -0.50441405059869149 -0.19213712736125593 0.77340651535436122 
-0.46776208510648271 -1.0359947131473102 0.6040475424355285 0.5608685409075117 
0.0537978867993055 -0.004408920351646764 0.018391318455519182 -0.93834374733925974 
-0.7368109877739778 1.1275577772591157 -0.96766458700880498 0.32512684326884839 
0.25769123900662338 -0.65135180149734195 -0.0046512892281394269 0.07223150253929754 
-0.80922611082827389 0.026473612984050127 0.21654303519526474 1.4964165584806486 
-0.10597949214906291 0.42125035893052315 -0.30270258186897891 -0.66016520152839053 
-0.22183872938252414 0.018460018683170234 0.049470157187323532 -0.073216671046261783 
0.082818442771923392 -0.7174561995274118 0.11063253673677187 -0.26244300064866743 
-0.055266623412225782 0.16668879425866917 0.047296045151177822 -0.080654149376689507 
-0.54312883560810832 0.00075004578027585561 -0.20012291174864075 -0.23727232376427004 
-1.3629792485533396 -1.006512454609398 2.2709466264770755 -1.4313889410295495 
0.53843221097856164 -0.34075335516820576 -1.4043622668973952 -0.17426518396538246 
0.91165909497250674 0.79225609455026902 -0.28417445660862317 -0.16998175144191391 
0.37465850122668659 0.69719017279318274 -0.36470202672893959 -0.88603824475029347 
0.55553866437397625 1.1834862199794824 -1.1042982554891003 0.13255675317678237 
0.10107526032448695 -0.0062239796868375497 -0.71869596195254359 -0.0014435353921343945 
-0.62707492945390575 0.34579879347343973 0.72966260249009318 0.2400077988218792 
-0.2405139861476322 0.12683234311135444 -0.047406018670705194 0.19280927720538393 
0.48344806694655174 0.35397196603836845 -0.73574101655771262 -0.32206093304922256 
0.0022115150540726099 -0.019147002127669791 -0.022008358951770578 -0.052959896179983083 
-0.51801477375990201 0.9896964856207271 -0.19571701684112228 -0.55744125845851522 
-0.83362846371286936 -0.79786739439806198 1.4368294357876583 0.08017676784001132 
0.81557605567997937 -0.98942596243515646 0.051207625130831776 -0.62726957491047619 
-0.89725181628049167 0.010401822909446381 0.86725891549923861 -0.17242055711520646 
0.42700102224776892 -0.40236280777761096 0.35279069958340742 -0.31189922996941533 
-0.89725181628049167 0.010401822909446381 0.86725891549923861 -0.17242055711520646 
0.56655357715559251 -0.53597815525225623 -0.54623008298822384 -0.15586561831876025 
-0.15250207802201807 -0.016586577655363047 0.66299711478583689 -0.20717897221964121 
-0.60510232550402909 -0.035608700856485043 0.22996039547161898 0.11194782445688478 
-0.49596910948352124 0.050122252532182929 0.080786182218072239 0.21750806363072006 
0.15699379729347995 0.21298744021811022 -0.30949721781180345 -0.43023538450809562 
-0.35970294391140345 0.37673116369420179 -0.45671097965349633 -0.036156736766325512 
0.1026868369403678 0.4405265999030043 -0.3150509111213351 -0.42263695700806836 
-0.3844359324195909 -0.35993742009151986 -0.03038435110497209 0.39019628812636087 
-0.49596910948352124 0.050122252532182929 0.080786182218072239 0.21750806363072006 
-0.066989161434602928 -0.1399595218553174 -0.23602089098182938 -0.087617760906125747 
-0.51738600328245676 -0.37968072351082888 0.90117866814122827 -0.6115412911412319 
-0.064132780215972587 -0.44971077119336433 0.12572563267575146 -0.17332097763202881 
0.91407254079118117 -0.57371018918968009 -0.6203652929508171 -0.24813960615451774 
0.30736829222089135 -0.4679218473877701 0.071375403413455052 -0.011702200180767286 
0.11587496220586616 -0.0048389097111601019 -0.48604360708400424 -0.013951445473808124 
0.11587496220586616 -0.0048389097111601019 -0.48604360708400424 -0.013951445473808124 
-0.21572185876587843 -0.37193273750867734 -0.10926252246537746 0.15554403579830745 
-0.75874391355240722 -0.014464978575786554 0.6701317977449035 -0.11520321003911493 
-0.47210513212516825 -0.00670322223338643 -0.3145203427529728 -0.088242368704002622 
0.2550340040950419 1.5648344763763498 -0.52179910605373592 -0.07480862845907571 
-0.0019392623956477929 0.0208962836184148 -0.036908658345353812 -0.1073314891123803 
-0.43989872945037689 -1.0681253550275953 0.17357394891229816 0.7434895167862986 
0.043881681786160573 -0.39576770007114459 0.16113085591344006 -0.17446507845490206 
-0.015494528421919902 0.050296251536502162 -0.0016315798692736732 -0.18396270140672594 
0.032788663685753353 -0.24463231958692178 0.2232704093202478 0.061204340278002339 
0.32833871389193597 -0.21487201227318017 0.15705853058188046 -0.14886693620497476 
-0.42389210499659052 -0.72182342073164552 0.10211849669017653 0.68227686003038968 
0.13078260754481419 -1.0801997957317422 0.64261783363028013 -0.30201312099945676 
-0.34709661049025997 -0.0089990614876547873 0.10977139355027526 -0.37623714070410968 
-0.30783566619756086 -0.21788908352567798 -0.068329437202682475 -0.0086311057582722783 
-0.34709661049025997 -0.0089990614876547873 0.10977139355027526 -0.37623714070410968 
-0.082668552329430448 -0.71258951999408426 -0.0018414672433915156 1.0752288700790533 
0.52641959776616476 -0.65269205297272426 -0.27110207396980579 0.29225821614400338 
0.057475182442320638 0.15142303725880965 -0.12243666335939601 -0.34778439563676278 
0.1540998772642812 -0.076935998264311731 -0.19715516035700686 -0.358684363200654 
-0.82784307014593372 0.061943869386871228 0.39978862041663393 0.33722154643864821 
-1.0070484600131977 -0.56788403431419032 1.6326015032677712 -0.44188066413540661 
-0.90747998013793407 0.74292680048340876 -0.10235919460797477 0.49795583175614977 
-0.41327180506892741 0.38919341495142917 -0.10139937992521296 -0.08389936263487216 
2.3340714304450962 -1.0074472012864748 -1.0176357457033567 0.14229083530333131 
-0.0036846524592497043 0.7056178809530973 -0.022193103203636211 -0.63476845555422468 
0.03603432776425991 0.02809704440583044 -0.0030710758138579337 -0.70450419302811806 
0.20993994813022454 0.056472593331144155 -0.047772014091495368 -0.38555525156755133 
-0.13023018242248452 0.20131224756450544 -0.083565130488393966 -0.11479928728847497 
1.4499834597291428 -0.72770878381602289 0.050398920275111184 -0.2939566123326483 
0.34291911651417067 0.11419235973704925 -0.10079171940757549 -0.22394727991279112 
-0.099713117638761353 0.46805883685700639 0.51463177419068806 -0.50724664336572634 
0.13490096714522562 -0.7069079815647521 0.18038452278840666 0.022071794444228139 
-1.0098893369905753 -0.15205416288163387 -0.19281249217981861 -0.22171696368241223 
-0.11080841989559331 -0.68800875246981574 0.70017548329897339 0.014286404426216183 
-0.36480530959970964 1.1630310358210569 -1.3310689719226985 0.34054296344484458 
-0.88610014741350107 0.38541382485625303 -3.5984704864082682 3.0479643858894532 
-0.89218455802383945 1.016827865197665 -0.19797927712943666 0.23475098372444139 
-1.0835302367596504 -0.861183627963377 -2.4242284319640661 2.8548617702744772 
-0.14645306219094389 -0.090917845546771459 0.48314198609061088 -0.5116650228750671 
0.43213566382087232 -0.32993092686532699 0.48297623537014545 -0.48832024072345631 
0.73420574923956439 -1.2332652530282617 -0.84332228601818437 0.53286495166191572 
-0.065853365568860636 -0.13089627988965899 1.5495629666049955 -0.83261341232356301 
-1.221038452148024 -0.83684758141689286 -1.874950788971939 2.9071064892031 
0.04545565042427184 -0.0060648319427469219 -0.023232810934372156 -0.025357078928244698 
0.099356338662428129 -0.18438852174101431 -0.075081510359367137 -0.17085714032198562 
-0.03850683607748695 0.1139856308328098 0.08510038882705237 -0.37546415960852092 
0.1872676447975431 1.9658990591086658 -1.7219581875845198 -0.01492657168541545 
-0.26394760048172516 0.23148683235178782 0.036737182862424028 0.021008545105825352 
-0.51596354311036752 0.13872141110796166 -0.11558458877600603 0.31624416467254202 
-0.15516100252858661 0.25524462512771529 -0.11390113010658169 0.079261762481431616 
-0.53272425759033104 0.019021652821233331 -0.25082715604586586 -0.12681139863125646 
0.44665639443007232 -0.59580640922158956 0.055948290893629654 -0.0013731123553987201 
-0.034329700446177121 0.0091743894613534917 -0.0066653441357283488 -0.13783209457244139 
-0.99313014110181586 0.5905089426469281 -0.81005645677036131 1.3228270679034706 
0.24309805783029795 -0.064222165914065349 -0.59732416822851886 0.020905994793086941 
-0.09427880023126213 0.0021679985992904948 0.31234682631465188 0.005274832185516067 
-0.1906066570431646 0.10104241869264588 0.0032802717247368898 -0.59331953444814944 
0.041617625744376663 0.192966287058567 0.14885622808000801 -0.74686939301248967 
0.57930376284468932 -0.3271137188059956 -0.36749160699836658 -0.50578272663327306 
0.12342017949419312 -0.27764891897918326 -0.1864587741898113 -0.54043391068452029 
0.32146349979689504 -2.0478488771067083 -0.09835334202717344 -0.31967603906920428 
-0.41888458556530062 -0.0018236703341067062 0.019813491059362268 -0.0026999814173700133 
0.81828552603307947 0.71654556857284601 -0.62848383467390123 -0.29921678030672982 
0.073685041139092827 -0.26163594179099364 -0.25797527848926788 -0.15856466228581301 
-1.552921705001248 -0.8825520583665335 1.8301703951039716 -2.0073829164524781 
1.1052272458924997 0.20433927726101087 -0.97768159273141519 -0.33369694769810054 
-0.35345979937684147 -1.0352629241986999 0.43309008519262798 0.26040704735638032 
0.23013567743459909 0.35759332685109324 -1.9128447053246767 -0.018451787487020734 
-0.084762855089172376 -0.19361135451989653 0.040758669487816118 0.0080816274825933378 
-1.2594582517662769 -0.62666189255758109 1.3753543058831323 -0.4466662718804239 
-0.26220668518069823 -0.020077225056812531 0.15786600975292076 0.0099937518371707029 
-0.11435320465041018 0.31434758204719182 -0.071683014381469373 -0.23294601905754964 
-0.0330414738430709 0.017910077473621069 -0.13971572603359164 -0.23380960786682239 
0.0035183759508818913 0.2807616948978629 0.07717843723578996 -0.30872336070084389 
0.088578523050766841 -0.32722911392625842 0.12895388859571355 0.0032267175491736688 
-0.29947712955071598 0.096942885385861238 0.12245919640889172 -0.094590133977714111 
-0.075324738861034107 -0.28039060909238778 0.17928170494762943 0.15018137286282507 
0.10847871472381421 -0.28080173568327277 -0.0071494921492517849 0.14646770076068075 
-0.12297629962073151 -0.13137057452827203 -0.084728740909094338 -0.42537886632804145 
-0.075324738861034107 -0.28039060909238778 0.17928170494762943 0.15018137286282507 
0.07209203124210771 0.038365733175979924 0.0056876630664609087 -0.81726961523067843 
0.11859038673663864 -0.0021716730852324555 -0.69446101921616554 0.26098753566789734 
0.11859038673663864 -0.0021716730852324555 -0.69446101921616554 0.26098753566789734 
0.053350855135045158 -0.17273247731217495 -0.021499880753930223 0.086154464063285086 
0.10639635113201681 -0.0038158130110767744 -0.057949376582044965 -0.014349000154250661 
1.0758997522955451 -0.89563481015943736 -0.078856371961477462 -0.080658130103345063 
-0.027371795928335871 -0.39930698015680327 0.072165192990450044 -0.040935504405496176 
0.12221135512843673 0.026759460817519332 -0.061514161663280803 -0.064680742832659344 
0.50447446584779565 0.24359095121670257 -0.095258443569155887 0.33134408302653345 
0.25556631198982976 -1.2331441526470064 -0.5220908364379474 -0.52545480144823986 
0.4908837884643581 -1.4818051931534852 -0.55738156224407842 0.54685091672473463 
-0.20363405193789347 -0.28650783397652807 0.058046261624045609 -0.12400451090859485 
-0.60804809955880135 -0.0024543977939741621 1.0200177646057564 0.0040607393816346118 
0.090441658071085992 -0.002779059380141044 -0.19845155214486321 0.095332958287539404 
-0.60804809955880135 -0.0024543977939741621 1.0200177646057564 0.0040607393816346118 
0.6255787268179438 -0.11148669896804546 -0.34932962713117649 -0.68957074464166945 
0.067694194520351164 -0.66606345165924996 0.00101341897829876 -0.0076244621048734678 
0.067694194520351164 -0.66606345165924996 0.00101341897829876 -0.0076244621048734678 
0.1031215753730616 -0.061799617763754998 -0.14739426024747171 -0.18907407338422477 
-0.42330193676946765 0.030582960430880102 1.0298760038281338 -0.35302231682825569 
-1.9211570260258373 -0.52573424837002924 1.7161022623765181 0.75765430849708093 
-0.22484874479601163 1.452132351297283 -0.89074749531286934 0.71801194389741796 
-1.8220564234750616 0.00043540330207534196 1.6357487467853038 0.2216570965549092 
0.03454554627109447 0.21927855500189503 -0.15088387085610094 -0.092110666972058192 
-0.2187249849377019 0.57467739694980335 -0.32532083079097607 -0.099235835066854711 
0.5966260566779118 -1.2955738214363188 -0.66686297496013935 0.52216924990707247 
-0.16198699528910182 -1.6863724951576111 0.085752617636702541 0.13542246418563963 
-0.28152606689310145 -0.0052553766121093987 0.22434655347322213 -0.021326427575639465 
-0.50968450806817456 -0.52972774122750632 0.44441417572246933 0.026845245894656845 
-0.19447636787634623 -0.22333328099535965 0.20604395613309917 -0.012643471750004687 
0.46404950333943207 -0.040463456255302455 -0.06700216777364576 0.077882541864936095 
0.26096027413155176 -0.34728689109151623 -0.20926667569165086 0.077830136333895655 
-0.29069132125294239 0.39703484974714437 0.16763025841087414 -0.85205200703759532 
-0.16127301113133463 -0.27750180130410546 0.091259349853668806 0.41645779703712454 
0.035000964191348391 -0.069995890193154248 -0.24575674302687914 -0.012373895086838373 
-1.1482621211183197 -0.33656933980010861 1.457729516355813 -0.16619866411065681 
0.38093882844930815 -0.40826117906686188 -0.17136101482854121 -0.66030742084956329 
0.16708646585780618 -0.058201961994214908 -0.76344508948531276 -0.031273683661303231 
0.088072975469563108 -0.0027445087423604679 0.047439857280200226 -0.0030562698687567526 
0.40564040409997432 -0.29042021383813504 -0.017786166204107737 -0.068423133938055519 
0.40564040409997432 -0.29042021383813504 -0.017786166204107737 -0.068423133938055519 
-0.78327185869586136 0.25075020554253424 -0.3388299270442286 0.066224243105392933 
0.34173747574596147 -0.45764562019468735 0.20429775983938181 0.42371946908755131 
0.14227996160193648 -0.31844470842973926 0.01916112997993967 0.15875985551712413 
0.030202175219861453 -0.10927467919267883 -0.035302890159830153 0.16220491598556086 
-0.16669914762762128 0.52106530315232336 0.03868329662872054 -1.172401471581674 
-0.64895920497707216 -0.45108557445066344 0.46567206197666883 0.59967703423098329 
1.703024843293365 -0.011116636414951912 -1.1643471577291971 0.33817454171815259 
0.37267108618158495 -1.2145344008494765 -0.70099234314275294 -0.018956047360377343 
0.068166419022506447 -0.17512277096064427 -0.17641216997019937 0.13876678909931933 
0.2519178139042455 -0.009283228030246754 0.68777398152355917 -0.026288648855651138 
0.23172376186693766 -0.16089397628490748 -0.096143461377829864 -0.48385621577148508 
-0.013572403237475855 0.090425865011083559 0.0019874227257287991 -0.17135080031006339 
0.45017485198947699 -0.21672489826990859 -0.92427915983291653 0.25914137134967036 
0.010670912927891988 0.7059100864551946 -1.7781182672954459 -0.034783327178193067 
-0.6979369320422385 -0.27740396352508356 1.2172604596957632 -0.89780492364757192 
0.27209855258171367 0.81949344670500635 -0.56740457452831738 -0.22118560400992493 
-2.214637865645352 0.0071614045906411433 1.9888494289386014 0.29604555777901087 
-0.0055582892905609166 -0.089990624593700427 -0.033251755299673766 0.2029588239726495 
0.095039998154914485 -0.034513332680409084 -0.18363325550633974 0.055491356767234469 
-0.068869396046350687 -0.016811850860701603 0.0082032798921499242 0.037843388357240874 
0.0054212267295206118 0.14094517252014052 -0.28202090535124275 -0.19906128896392566 
-0.22303368787402444 0.051542515674201678 1.133508953494651 -0.0025884868557411135 
-0.50207546269618353 0.55382190521774177 -0.25119156331522685 -0.070386702894232295 
-0.19960940043195696 0.054609665733357932 -0.22074169813003297 0.17628505387834698 
0.082130429790767942 -0.15676722674176158 -0.042056271736300999 0.026970964454536381 
-0.2776895230832086 0.091372281259898103 0.099369218276911725 0.19828530029736666 
-0.22303368787402444 0.051542515674201678 1.133508953494651 -0.0025884868557411135 
0.047979803128455289 -0.040652893051558864 -0.59617112638554048 -0.30359188507518348 
0.98856705736936312 -0.58951004171816113 0.021464811612737278 0.21103469752413423 
0.36554587005839778 0.7702492060887246 -0.29289578248759535 -0.26553812869937926 
-0.54072894835954077 0.41917644770799178 0.59964834962111691 0.19115665182450664 
-0.12160300472711333 0.47451096538252785 0.021847454660562222 0.22443364536559007 
-0.57851468249931493 0.53756186920314597 -0.19967630722170088 -0.2892645952370122 
0.095735031222025146 -0.034065833794689915 -0.54071573388064897 -0.31622385759240301 
-0.041816343203942181 0.29853153157576195 0.27240102216844692 -0.26573734762657852 
0.0019295150863818944 -0.025521004027230315 -0.65872081284620576 -0.29188208665340176 
0.31828592822420643 -0.39720731743637994 -1.0579077706772524 -0.12092935543245767 
0.17227925873635752 0.20457340509328012 0.16815198410623938 0.19837351941611656 
-0.074015240702808627 0.017335567623627882 0.0669963401671754 -0.0391868936494537 
-0.16702413620113349 -0.39134239076766136 0.63620596925798212 0.0092528784053738794 
-0.57225007110400139 -0.7695331966083605 0.18907099305343916 0.2158201873240207 
0.45972119594293204 1.243455758549447 -0.3069113867601222 -0.80450543028587651 
-0.91148806871318966 0.17690559367372446 0.10980178641175488 0.22799520375540788 
-0.68971654737884591 0.2298739991850047 0.091202118242374397 -0.043242599045072903 
0.13969172087337645 -0.29060775578533138 -0.15343782549594864 -0.12573805302200869 
-0.12008597862850563 -0.40551169065235904 0.12746352479445994 0.11467319418467056 
-0.026416774034154836 -0.0037928020189186302 0.030118953087863984 -0.0052506781472332967 
0.030579153751840338 0.34750335591110743 -0.092094594280339712 -0.21629437960989489 
-0.62621672375893622 -1.0842407036335659 -0.11729608912920519 0.42724738625150094 
-0.026416774034154836 -0.0037928020189186302 0.030118953087863984 -0.0052506781472332967 
-0.026416774034154836 -0.0037928020189186302 0.030118953087863984 -0.0052506781472332967 
0.46546201916579089 -0.044189429797742971 0.13771223448502667 -0.5237695169892258 
-0.91740620471243683 -0.0047475720223699724 -0.95766026244149283 -0.0086419655109361542 
-0.51536254727008024 -0.15741480317175938 0.15954710159468555 0.52397070944655044 
0.30281970142175352 -0.21734397755807683 0.12944938631292935 -0.16352411163622599 
0.8447168730143636 -0.17592570704731986 -0.93291804149733515 -0.0023644315830619201 
0.26099459255257917 -0.17600846605697484 0.55592011002383224 0.83156719952630176 
0.8353169248152954 -0.56378892029891092 -0.56837730905010697 -0.14454384747427523 
0.93264774452920218 -0.0029515362101281105 -1.3003786949016081 -0.0060279550234133839 
-0.37173244591250665 0.22310901325078109 0.10766487023049082 0.22305624336912463 
0.25155947676675361 -0.67982897880757798 -0.11143140779146188 0.0018642636105692667 
-1.8789837983203299 0.77832946966998573 0.1702664059486243 -1.9267124248247463 
-0.1452567692769855 0.10893998471792427 -0.056049051320938043 0.14357821719455166 
0.36035286104246217 0.27744071866816356 -0.029825404091702423 -1.6952097184803288 
0.010983316411041825 0.24113743317548361 0.097128123020563839 -1.9286354113142519 
0.02668491217366762 0.6668023380546193 0.11024206455768004 -1.9248965040167874 
-0.4101245985825035 -1.376651860799937 0.57207525385836733 0.49297815336515405 
-0.064335218871570524 0.0029834355004478667 -0.026024585811552016 -0.014724060897695519 
-0.68411495914284248 0.005894496491794049 -2.8383383522794956 2.4522440726587629 
0.20299844364372041 0.40667811105750251 0.082152340736362683 -1.0106565606384099 
-0.82149626755442551 -1.0443320412195403 -2.4056969396951873 2.4045981408519053 
0.12089507621639985 0.12473334004355555 -0.064734148077956563 -0.42246866286764112 
0.074907854833585391 -0.0043078998066644197 2.2802778173439013 -1.0925424074163947 
-1.4096387266515249 -0.56415431095288437 2.0053538278894218 -1.7926192279116404 
-0.074531489495307246 0.05062652881858061 -0.10347477462709961 0.090553536651117345 
0.10281003923351742 -0.028224227903226876 -0.24550514433209217 0.090175640477860058 
0.16029743644236946 -1.0490094043497662 -0.032523910594033256 -0.19246456957094271 
-0.56353771549341491 -0.020303466511664248 0.24672179349579532 0.19460407838121413 
-0.39448981895107549 -0.44939966554812566 0.10088897636979978 0.11523322421334978 
-0.23312276088846864 -0.30362666951579603 0.34206565125486499 -0.07466856050342871 
0.32756713684414296 -0.04863446264167802 -0.26882260376581862 0.045824957527259333 
0.13612415382113668 -0.00023747751300703729 -0.00014867481332228838 0.0039694085151484931 
0.19670355863815525 0.16306480565391063 -0.061920015233579873 -0.066321394688956301 
-0.035218672125804582 0.20854563769553017 -0.24237294546337421 -0.11797610987498738 
-0.45086594454720008 -0.022821249614192074 0.69766315620733588 -0.90135416376802446 
0.13612415382113668 -0.00023747751300703729 -0.00014867481332228838 0.0039694085151484931 
-1.1201753296469346 -0.56389284600969791 1.7252027432049246 -0.59046386069022549 
0.13612415382113668 -0.00023747751300703729 -0.00014867481332228838 0.0039694085151484931 
-0.15139274900000216 -0.19743492482466277 0.17523176218666675 -0.02431258654049449 
-0.36798000712620743 0.74522336448326321 -0.57118749201858432 0.11207552620404458 
-0.31088011647275704 -0.24676690770858878 0.16215007928638409 -0.13576499539972159 
0.087636960926922761 -0.20523152956602478 -0.043125339446517003 -0.0078327328316432649 
0.087636960926922761 -0.20523152956602478 -0.043125339446517003 -0.0078327328316432649 
0.1776394467704189 -1.1223339585535352 0.25157028064847775 0.12538780652944279 
0.0037201785404684072 -0.11327336275562339 0.053286620287739922 -0.052000625990319363 
-0.070654138263307076 -0.0012220492285768131 0.072530983609710289 -0.23783776791222885 
0.10258935057402975 0.1706462210134792 0.10232780007655226 -0.15378412211068818 
-0.93332747329029608 -0.15333641093278441 -3.1843547130912921 2.6209949779713533 
-0.08222752624840074 0.19291224945226898 0.029281302054161039 -0.17765609965377052 
-0.072223988181774737 0.81938291475027647 -1.2365183937170308 0.7569154303964023 
0.67724887928248467 -1.1857730876524335 1.6079402650474597 -1.477605643838996 
-0.21475298230675532 0.27661758146245535 0.069575435532519395 -0.21153844841540922 
-0.39802167601634419 -0.15605877843339352 0.3601580493763149 0.052748059748590953 
-0.39802167601634419 -0.15605877843339352 0.3601580493763149 0.052748059748590953 
-0.39802167601634419 -0.15605877843339352 0.3601580493763149 0.052748059748590953 
-0.22827194050125782 0.17018726196931674 -0.015224413444869175 -0.099183644022918044 
0.28916814959923409 -0.052277005770960214 -0.1103910344784669 -0.15702261113799579 
-0.34742838826983069 -0.17117366805637779 0.35198615768472408 0.075098435851062087 
0.19179118302242582 -0.85193255974544568 -0.094830047214973762 0.05443326398977108 
-0.30522799587095828 0.30944652603460876 0.25914384103699206 -0.64626943236700507 
0.081786773062411777 -0.19134546194022059 -0.065121876764010822 -0.26927721655801196 
0.27731176251702649 -0.1975107390307832 -0.059482316965412035 -0.072547790655670352 
0.10653939963375858 -0.25882111294996069 -0.066300736799040569 -0.039111245275004869 
0.04796516071450161 -0.25846060774570323 -0.48429652646807952 0.22678933314773736 
-0.15628756012747827 -1.5570786420661031 0.4102229654276825 -0.10000243861704453 
0.40714811170852716 0.95657759346817195 1.0906469943343808 -1.6685341399701636 
0.10801788199587062 -0.027258775140798608 -0.035734865527330982 0.022225752316197226 
0.64759304480595914 -0.7796583253184064 0.03489261871900412 0.62005426309191725 
-1.2674947798600105 -0.10429257553811058 -2.9355986825274236 2.6491418078918167 
-0.85128016654341421 -0.41934801020038448 0.92782776469131489 -0.23262347726699215 
-0.84125990998806366 2.0879544862674604 -1.3290229550515171 0.77819894285413349 
-0.48156609715801824 -0.90077191763158937 0.037037867997779625 0.80908095522575252 
-1.3355497428455347 0.95376352358631822 0.082415410357540519 -0.076916120859327419 
-0.32810179050704597 -0.84284270287377006 0.28713979272460932 0.11366338347322083 
-0.031669436468287876 -0.14451112224072085 -0.00051809024022933525 -0.21128319731953388 
0.17166260768231276 -0.17509846844863902 -0.089932312676367421 -0.058475188814359091 
0.084080292701221054 -0.006522980997649086 -1.1507828549228938 0.90014782978575203 
0.10879514703042475 -0.0080246723236407948 -1.1421251239956347 0.8197634257886397 
0.071800067503092119 -0.53752855918015952 -1.0617290488818016 0.90559521069055871 
-0.42358998012088162 -0.16866016700163294 0.85357012952820199 -0.081241869192155064 
0.6423331566955166 -0.089659919511118708 -0.17263429576036876 0.016339809898922152 
0.36495966084603992 -0.16428843596568921 -0.16937403025296088 -0.15868468853040038 
-0.97984959528701809 0.37541790486471394 0.85371859642635273 -0.11354779949319055 
0.079333753394691342 -0.12887127697380071 0.95420410296566738 -0.2277712787491426 
0.23055684389552034 -0.15695053986854243 -0.28107956479848667 -0.1004792797995567 
-0.075930071615739378 -0.15647670347418216 -0.029294647882271721 -0.10070760893881671 
-1.7347539634780378 0.66652744761792704 -0.44676172080499826 1.4624082040153195 
0.80400059565963788 -0.52715778480662112 -0.6453320546663841 -0.16772946948106679 
-0.32314271370274528 -0.90351941572967143 1.2177364693585597 -0.79734590790168858 
-0.79546917224124691 -1.2072758649006741 1.302149426159529 -0.425180188682454 
-0.0583602749921832 -0.1129932468255874 0.40002737756118417 -0.18762092728705182 
0.41116508529070672 -0.28109687789396509 -0.10508179974735685 0.065757642877443859 
-0.44583031946797275 -0.03935706821749313 -0.16399426294408373 0.11716933558744941 
0.067401066915703189 -0.16842647193305749 -0.18998615925699397 -0.20246589417420252 
0.067401066915703189 -0.16842647193305749 -0.18998615925699397 -0.20246589417420252 
0.067401066915703189 -0.16842647193305749 -0.18998615925699397 -0.20246589417420252 
0.067401066915703189 -0.16842647193305749 -0.18998615925699397 -0.20246589417420252 
0.57743117779640429 -0.10060304483171413 -0.24194033636738746 -0.19294730046663366 
-0.4014802775334691 -0.087109516608900608 0.48166595139891794 0.17007782183797454 
0.11177317376079934 0.44398339382242852 -0.34123546442378205 -0.57094564923842395 
-0.4014802775334691 -0.087109516608900608 0.48166595139891794 0.17007782183797454 
-0.4014802775334691 -0.087109516608900608 0.48166595139891794 0.17007782183797454 
-0.4014802775334691 -0.087109516608900608 0.48166595139891794 0.17007782183797454 
0.1045246655122187 -1.3480176003943209 -0.094475482532533336 0.42281030270972453 
-1.2409902163686968 1.4959777463506425 -0.047141655664118348 -0.10091879434476678 
-0.27202025214555353 -0.12342865972832751 -0.13658270416843488 -0.08575972779711083 
0.31642965146935609 -1.0204186447541772 0.0081405966078682349 -0.015870196007358499 
0.31642965146935609 -1.0204186447541772 0.0081405966078682349 -0.015870196007358499 
0.48576528534926489 0.123080613814399 -0.0043728366345437142 -0.1387236741994701 
0.31642965146935609 -1.0204186447541772 0.0081405966078682349 -0.015870196007358499 
0.47974075703734503 0.011097809221697813 0.012934124982404753 -0.034974311347487359 
0.47974075703734503 0.011097809221697813 0.012934124982404753 -0.034974311347487359 
-0.032589868228486474 0.80350630670810097 -0.0058082238713182896 -0.37937069001486928 
-1.1662760545515536 -1.0588544913704256 -2.3308806671367237 2.5093030712922468 
0.32265102981181992 -0.74806430070436503 0.079170625846763931 -0.22250944027208605 
0.4545873711116612 0.0060091945366918358 0.10307958469575174 -0.091361441774688468 
0.47974075703734503 0.011097809221697813 0.012934124982404753 -0.034974311347487359 
-0.0014698214931609527 -0.073262086008009375 0.087205768804934081 -0.27285194942730728 
-0.93233681193136697 -1.9415441066243939 1.3219250028961347 0.40941812336371652 
0.19780560621814261 -0.50261626487872335 -0.047398838824794329 -0.37999691333753099 
0.4373525167021417 -0.48570244439010773 -0.31360391237034313 -0.12259346955773162 
0.20838738898329315 -0.19691399607020588 -0.098237588591979064 -0.027282284107795478 
-0.2041411348361736 0.34572236078778118 0.11474470806237347 -0.15944462032458601 
-0.1556384881707632 -0.1771412938243298 0.019876315466177741 0.0035886538160596892 
0.14588150721204762 0.12567857245264075 -0.38093933653745643 0.26590211573406586 
0.28604406107374541 -0.51323660629541967 -0.035833043810423792 -0.32033957406293279 
0.52579409041299918 0.27555259253283476 -0.31461240183228079 -0.051823510379009438 
-0.033663945331073759 0.016974520785117818 -0.0090781025271035147 -0.22106526884084854 
0.097336537384706517 0.16141972456194528 -0.16822281858824714 0.1516637152080777 
0.0063621142989285506 -0.19867303778270329 -0.208998248638224 0.074700508105688845 
-0.033663945331073759 0.016974520785117818 -0.0090781025271035147 -0.22106526884084854 
