solver_type L2R_L2LOSS_SVC
nr_class 4
label 0 2 1 3
nr_feature 37522
bias -1
w
-0.019817102702909123 0.49968461283050009 -0.067384598605566434 -0.20431329951828894 
-0.004701435774310995 0.01089701994114332 -0.036971051401896222 0.005616507766896088 
-0.064119012503180528 0.14855554447800162 -0.16456122780492027 0.33108031555727579 
1.6751690294946235 -0.0075791530325961757 -0.92533726852710507 -0.88888339852220133 
0.12734676149749763 -0.32556136245728179 -0.054174419908357016 -0.14177832225545192 
-1.9005291762533227 -1.0824845883841843 2.0902180855377521 0.80418185284934485 
0.030498804444070833 -0.016836409091735643 -0.076636821691300955 -0.1056664989603231 
-0.43519455206093333 0.52583955437620611 -0.56628483814574526 0.34614418916685435 
0.028225380771773674 -0.068534966027089028 -0.059634110415868864 0.014112364608141794 
-0.022781103446724488 -0.018215330913353873 -0.12880718746962375 0.191471743243393 
0.071240456543827491 -0.25815357862351224 0.024276486775003818 -0.54508722343019067 
0.4652589487769766 -0.7985116169289489 -0.22926522420697648 -0.13561564456697495 
0.0053199592633670842 -0.1603453078759271 -0.017675115890275955 0.16187981949951918 
0.78662188393481114 -0.50022653068353073 -0.6615160150589805 -0.29106246981976136 
0.030768625333133764 -0.081719346160799566 -0.2168661035145418 -0.46502848142669517 
0.018542393220929439 0.0032374582656554962 -0.092038817808848719 -0.038661446054087806 
-0.085428503168498732 0.24534443102331596 -0.30312485205563378 -0.24920662473458957 
0.072226076285327054 -0.10480865191242544 -0.055591420802764524 -0.064284788355517417 
0.58707970683824484 0.10940444639787553 0.036174497431485236 0.027856797981125586 
0.049486119320801047 -0.10290035077728711 -0.012908345462885315 -0.3540992605610348 
0.037377203713566259 0.021347782666710016 -0.055410003456222615 -0.2665619400900987 
-1.9209322497354338 2.3712436269255321 -1.790156650968894 1.133241233140071 
-0.013827157171509535 0.02282822304050405 0.027972432923587007 0.0089531805198570825 
0.056903333344797552 -0.016454821415114132 -0.10716591459170974 -0.12673599748441539 
0.01410395787156097 -0.0023249097954210155 0.020576585432337188 -0.27437169869460554 
0.087915079624322864 -0.21665342312077424 -0.099569644456620476 -0.21171406961706846 
0.068956550167551547 -0.057761036865906841 -0.11861499078603974 0.20761415455005244 
0.14475118413829424 -0.28264425638317914 -0.17257740464205262 -0.14900286011927108 
0.07650976710639322 0.032957076163987048 -0.031083797441367522 0.10010993465340971 
-0.02575892830256445 0.041216790758384511 0.0029158097085989574 0.029942619268745467 
0.24922652729763731 -0.32292686353191319 -0.2856874257702357 -0.56003725927866688 
-0.01338452315679925 0.085719573716625808 -0.35025552023077711 0.30466914545359558 
-0.16233127728454827 -0.27319005166537075 0.40739552239073445 -0.39264731201672981 
0.011000531207035692 -0.026253097191545931 0.0058852821054606371 -0.050114061396283036 
-0.00087263617704492341 0.005064672569706343 -0.0014852631307491274 -0.057706452968225123 
0.047186587967093505 -0.083026579319537525 -0.21463927837230146 -0.16773878319848509 
0.13500907739798412 0.0054909943762703178 -0.0070200732347657224 -0.056504075681457058 
0.0097670077177008721 0.053841243804998273 -0.05119613809840752 0.38454848492227611 
0.015742668996853327 -0.032707670769637959 -0.019289240669144031 -0.13144606980514706 
-0.022029844948138227 -0.023819213377213704 -0.099387805533164245 -0.053079483175107557 
0.3765449109198401 -1.0644351839656647 -0.014882645643217784 0.46421175543540244 
0.13500907739798412 0.0054909943762703178 -0.0070200732347657224 -0.056504075681457058 
0.1650566932323454 -0.12462048369867243 -0.23509114557143335 -0.44893342497066313 
0.35805670140318091 -0.17068078561910136 -0.58118290373730841 -0.13429932389665353 
-0.23641933915111318 -0.035961934517155542 0.17166566146102688 -0.23016316979199705 
0.41105377829316048 -0.4528390233173667 -0.5744899088203631 -0.084177624448693436 
0.041083507520779973 -0.069727487797926105 -0.024825758958009637 -0.09528353996170788 
0.42661087646658508 -0.62637076505143052 -0.0010052881814968783 0.046406204626338564 
0.01167772079751162 0.019882904049738269 -0.012860652372903403 -0.37798545403861949 
-0.029145485580618028 -0.052282715703382755 -0.18513369960806456 0.2404424878596248 
0.051049653425373542 0.062439000338298987 -0.11387384600206613 -0.21937197343439158 
0.0040583575712271822 0.02369013447917382 -0.003724818917537339 -0.11802597485965513 
0.10042553703521921 -0.071821601816601743 0.0013986037008386076 0.23973215387994531 
-0.047404127979081445 0.22433931546010966 -0.25402005230175523 -0.88166562479358734 
-1.7934939045513065 -1.4570082780732205 1.8842341846025228 0.88925582861472208 
0.038200043435787638 -0.11383933751026673 -0.088006873613823131 -0.2306528746420925 
-0.042134432877706268 0.0411126306160806 -0.0084476989607038984 0.38081483695994067 
0.27815043326899758 0.50949047250867552 -0.018766047422039314 -0.67421873890644324 
0.4180985718976824 -1.6307710693034621 0.44054029500060321 -0.68062936402756646 
-0.4453471832918704 0.73433176961886026 -0.13516766403932129 -0.92804222684770643 
0.47719086672959821 -0.15543577149627091 -0.22627634520157458 -0.84856350076430576 
0.10933806433245534 -0.040473452837252968 -0.12844842452895616 -0.013802265097058068 
0.0089564508264579398 -0.023866787526787395 -0.046476574646779518 -0.13483593395169052 
-1.5161805806576794 2.1477865437726562 -1.4047989328096731 0.87083787157546044 
0.030997628622055948 -0.22468591832606272 -0.033925981571072072 0.081020674721408448 
-1.9677497412776115 -2.5086801662767364 2.2015627499238595 0.88160656784112212 
-1.8753432868032152 -0.51721985904781831 2.2303495550116299 0.10340990010461261 
0.24418732052615699 -0.060864901114680514 -0.078144755245252051 -0.13293082336370093 
0.13040477866339945 -0.21608695167651273 -0.076282798825376419 -0.42766065502590866 
-0.032347470738329685 -0.0022257613685138997 0.23672981120991485 -0.26131542184232898 
0.11607549876125359 -0.055968563470782842 0.010225381319780957 -0.065813619509473217 
0.3902999554278363 -0.11195737070783682 -0.0035129325917367797 -0.070649945847821222 
-0.31577838529894531 0.68234810883978914 -0.54836006691509331 -0.54960102847805503 
0.31264228492762824 -0.44557707151711684 -0.11015850726470156 -0.069277699133928214 
-0.031752183505591336 0.27392362953844246 -0.10701749709592162 0.099236674908121908 
0.5357521308490959 -1.6195731028572045 -0.065862495644159441 -0.49919003407326384 
0.053955620339069865 0.25868700157390945 -0.19073390899982123 0.031745473921897138 
-0.033196531976500909 -0.502763440438035 0.085867429597839245 0.30086149273142754 
0.3902999554278363 -0.11195737070783682 -0.0035129325917367797 -0.070649945847821222 
0.14533584604693167 -0.10745630364396695 -0.18141287689414429 -0.29063253915225262 
0.049558636844055287 -0.10959596775023292 -0.15976151065491453 -0.36474957622407961 
0.022206702544833951 -0.74538212635837053 -0.16202858969194536 0.42394178640467606 
0.016223016923954572 -0.84705206760388196 0.32704612807287725 -0.63533507813285472 
0.086879835171389058 -0.21381624106314004 -0.090921535211627519 -0.50525758279117372 
-0.073482340040268879 0.10294237570668005 0.088571567507308949 0.027512144941191519 
-1.8919128783080834 2.5643658151844426 -0.99347475604555391 0.088981327633233381 
0.18015562409890648 0.10642888403514231 -0.14572073704352234 -0.046349165128946018 
0.27560503254188584 -0.19259112706644932 -0.39805109970282981 -0.22826630358788133 
0.16765455512081262 0.47954670613567318 -0.07796761215087912 0.053655605713747494 
0.031470327201571335 -0.062672892558275448 -0.0018680409672745743 -0.01328384196063289 
0.21382828943149912 0.22657861891574604 -0.68279376620967336 -0.3711410016917166 
0.018357374836341575 0.01403060153992064 -0.03663744263103702 -0.1349483534759339 
0.044944830857517347 -0.10029719795193549 0.17631387884839672 -0.089223275543251213 
0.28343047669749732 -0.23503445520262758 0.003032886012308323 -0.034649372115893619 
0.20206440490794839 -0.37080649354256601 -0.23170384928411164 -0.49894845768417379 
0.28343047669749732 -0.23503445520262758 0.003032886012308323 -0.034649372115893619 
0.28343047669749732 -0.23503445520262758 0.003032886012308323 -0.034649372115893619 
0.082706763993693366 -0.48134140148725224 -0.068709698311624628 0.080762959534567191 
-0.41230033395343152 0.61155720213968023 -0.01888354950953619 -0.38378494605812608 
-0.41230033395343152 0.61155720213968023 -0.01888354950953619 -0.38378494605812608 
0.15907626058695137 -0.35019042832989855 0.27773669287230052 -0.86285447574698915 
0.20530029685549733 -0.1026711538999717 -0.062641329933406625 -0.32073003899772856 
0.13505555985464895 -0.12562809257770891 -0.19608500405006846 0.066224910078290608 
0.013823792586182947 -0.24591745329487677 -0.26795154819687272 -0.0051585190586837908 
0.014944201023011847 -0.19763147695906846 0.013151041544975393 0.52628974985021304 
-0.013613872248263329 0.10829202451577519 -0.08038010099800437 -0.42442332087978119 
0.16289027794866581 -0.26661675757454478 -0.32038192694055179 -0.40539667754493747 
0.095797799287347427 -0.40499125467880781 -0.13882771272862826 0.015795681520742288 
0.059409973678253146 -0.063853461405272413 -0.013847899094692764 -0.15893403775463685 
-0.26649495618177027 0.10464766452446894 0.88245156921366674 -0.64658472285024071 
0.40518251222105361 -0.28130270869750296 -0.33770333153205817 -0.36307508247556292 
0.38519212535882696 -0.6065637287107305 0.33299136290018877 -0.34873856380215457 
-0.9657299596562382 0.43516877441379098 0.49157015458647924 -4.0307204565248545e-06 
0.34824051848241311 -0.07856033532980454 -0.080577584315785378 0.0016163938918801444 
0.1426901643984762 -0.089320052977203246 -0.063482343913762534 0.0046053168865377841 
0.34824051848241311 -0.07856033532980454 -0.080577584315785378 0.0016163938918801444 
0.22249694731167427 -0.1714946540151234 0.18349377361555064 -0.0019961704470916235 
-0.11470711452070566 0.016133288403388794 0.16012679565843729 -0.62210574218430525 
-0.34429017073905666 0.48325117635197412 -0.25314377049572129 -0.20341302439931994 
0.57413672401416282 -0.16238719338442281 -0.28331888487813001 -0.60584229370012299 
-0.10507021792102025 0.71864801811355894 -0.26044071472328745 -0.13082060479488206 
0.17421380879002496 -0.14793117829342403 -0.22341547549753543 0.0049350942568295603 
0.054024712265432234 -0.15127427187701586 -0.057576437124073621 -0.31292836142152475 
0.11362813697653242 0.089847469386237902 -0.82646187635180512 -0.48862606281084286 
0.95357653350254012 -0.31771713682809466 -0.83846760397568965 -0.10732798413685736 
0.88044802799942823 -1.0068428284380806 -0.55258724296157335 -0.25573020198053464 
-0.003568692029309135 0.20005629820390319 0.085612530044616858 -0.28802195853047485 
0.39912373159838804 -0.59417940616452469 0.094349572598792286 -1.1837744628742897 
-0.10680678222840398 -0.18774958226504668 0.054645370606706795 -0.012843770627894956 
-0.043844176798432118 0.36106082703093062 -0.54177735222911994 -0.0068881998209103425 
-0.011695913173946533 0.23875131200694161 -0.27829786142493529 -0.47567404354399745 
0.020006554974756813 -0.11328074889163585 -0.032975544100710519 -0.1002976230062899 
0.082894675144669319 -0.1642916532069455 -0.17483840283703761 0.6782524110529865 
0.12897820463854393 -0.024603591036236848 0.27409272089375297 -0.2709774305639574 
0.73886325250177665 -1.0659874727963192 -0.096282261666414348 -1.2316914267695183 
0.32623210120919688 -0.55808318382846422 -0.10966313535831679 0.19731176108378337 
0.33043161541784516 -0.50462459468254617 -0.36410728789677066 -0.2620162846889928 
0.33194756409587106 -0.57768966319581305 -0.10086355241999446 -0.80800964453241075 
0.065737795486083161 -0.50113213981139859 0.053592957403492375 -0.36869119963423547 
0.31744049249040129 -1.0624592254302008 -0.025082503688770755 -0.51808016522048328 
-0.044206696093764229 -0.036140370553683999 0.028018594168244176 -0.26470602473949983 
0.056358166694214659 -0.056179662214691367 -0.018004187370687257 -0.2985245277449034 
0.054737127733034567 -0.047979659585266995 -0.038443957500109663 -0.21091312616932273 
0.14299249098916916 0.02148530436137832 -0.24515338651094698 -0.079529473869970779 
0.037161245824256228 -0.064699681074084289 -0.074495299257655162 -0.080363014246319822 
-0.3069312271420907 0.34224986972277277 -0.45641498462323404 0.19897384209593977 
-0.61457107818666712 0.97813391794677818 0.34972852800006321 -0.22749440695247022 
0.020050126104323673 -0.29629672218097125 0.1332192308548473 0.16547027929588001 
-0.63465039358357367 0.72789700609511354 -0.0081148800764028056 0.00081517448141499511 
0.064522666477406648 -0.065587271383293053 -0.053425727021596564 0.15409033737999978 
0.013239843585195778 0.082378122677404839 -0.035791301285998778 -0.12760770777320282 
-0.63465039358357367 0.72789700609511354 -0.0081148800764028056 0.00081517448141499511 
0.23509524867682599 -0.38526356623365021 -0.27716988492022404 -0.63683089870725951 
-0.011832402377827504 0.0060403642748282031 0.055175619278831432 -0.21003378989743349 
-0.03434788777211107 -0.0025234039510686548 -0.079009873522441085 -0.81135391492511644 
0.14104004791653296 -0.12821166626596625 -0.18399560332370093 -0.29000341169421889 
-0.028992869608425169 -0.038573484492859134 0.042081103095199884 0.035648098551984433 
0.11470366972693494 -0.14419862816990903 -0.17998923736275663 -0.043078704543919794 
-0.29157949509677972 1.0663280536944895 -0.37847432431134231 0.51271356419800329 
0.056376286549290326 0.39660331231031443 -0.38018821746485315 -0.58376392596425652 
-0.064660597468624084 0.10539915574114259 0.067244088461178575 0.22391000327934296 
0.56745903310110024 -1.6889100501816237 0.48881043012139497 -0.3917873753812835 
0.27432046299082197 -0.31396766654238173 0.32715739115058906 -0.29695136243180514 
0.27432046299082197 -0.31396766654238173 0.32715739115058906 -0.29695136243180514 
0.31147683008335697 -0.011088207883922513 0.14251001691919135 -0.059497774006150882 
-0.044025470388301277 0.012267595231076379 0.047194554756788659 0.42114337960499315 
0.29583232772353585 -0.033493042619720186 0.11747637788316737 -0.050206341834932999 
0.25443449918120398 -0.054538108740602644 -0.2828166080611586 -0.36918505656192468 
-0.5064998303605337 1.330393645368485 -0.012207765274644632 -0.25501857431696812 
-1.8726680043289206 -2.1386868855669277 1.9272638876691666 0.77211296764424997 
0.02729687510440662 -0.14591515047707612 -0.32064423782236551 0.22432917246875486 
-1.991919353000378 -1.4697371406729967 2.1079659505554638 0.74939464347868701 
0.1148343954373002 -0.43140564177234997 0.27938679962910706 -0.35431150527403421 
0.21166528872426998 0.0021907221837561136 -0.62517771955547763 -0.19729658478957743 
-0.05561740291301126 -0.1788723330234811 -0.11945258285149252 0.025716542869803825 
0.42600256549340199 -0.030102810722158049 -0.10620466843821783 -0.041013431398114766 
0.082872644079259566 -0.1127048932460854 -0.10374643857362942 -0.2430513336932395 
0.063717036722299156 -0.080329367587359271 -0.076506507206402008 -0.0078984572758228396 
0.038232107723216044 -0.10473427393137112 -0.051950815192576986 0.017934140940461432 
0.21858515283787278 -0.27836120411091936 -0.35216334120398246 0.023644402899823974 
0.24453625733089754 -1.1413643673973541 -0.91722822996688591 0.76185450913251629 
1.3171738773147346 -2.1796545998495027 -0.74806280553132032 -0.61087980321570623 
-0.017621826899193317 -0.16957547911133708 0.10523148192891678 -0.64729541606228824 
0.093039876621046944 -0.21120551518790009 -0.16339439460576305 -0.097559649256396472 
0.054219887455160681 -0.060691615899536401 0.005012857445456544 -0.1579893912108252 
0.063487811214909901 -0.040705852393283712 -0.10761714368667154 -0.085738515669712412 
0.20779217712261291 -0.45167571736051182 -0.11154727011665769 0.29567893901474174 
0.03462471775720799 -0.1635973043836022 -0.12120842192988059 -0.35346317332302934 
0.37229973397805738 0.001357429186512959 -0.9191040243515467 -0.088417500974446214 
0.1863607571110206 0.14864402280021355 -0.062699191878900662 0.021478017602679533 
-0.025224729721848662 0.11126181173028547 -0.16532350657107525 -0.3291583731763878 
0.2217572368142498 -0.46597947550382474 -0.029360675416079257 0.37051705059775675 
-1.7352625726760817 -1.3895261576552025 1.8504879381431265 0.73852598443502293 
0.082064367120454923 -0.039539688075293705 -0.14962851067810787 0.33285511178441041 
0.7762657150608947 -0.58199307162199643 -0.22927145981678931 -0.18299128085538086 
-0.65702668225553218 0.22520713069785231 -0.26008153809331835 0.53354290453069408 
0.11387280283738231 0.031258120270883545 -0.13765986621211518 0.15010213385087379 
-0.012850618568212752 -0.016626748491990643 0.011787962087446006 0.0076352000899551353 
-0.025952879472064219 -0.03759049789774016 -0.20178191656212002 0.52082106913537629 
0.03830127825699077 -0.35751337769638358 0.076354712240484374 0.17897539411223598 
0.28498981025897774 0.0028741263164548947 -0.27166130635792129 -0.28353513586521606 
0.054747087362913754 -0.91196271943338381 -0.36032613283541715 0.58548898480473488 
-1.7540565781108055 2.3589327310301047 -0.3012183368843 0.33583290906098456 
0.02695355533892934 -0.14076248048610562 0.0090871270051687131 -0.028963726067633557 
-0.20897947910326758 0.15928424681920705 -0.10757933719293944 -0.58662470834187896 
0.025098786050589298 -0.016563379056610809 -0.046657780204462394 -0.11146814904466383 
0.98610425225682397 -0.027828381430780591 -0.19415287972555759 -0.76821474551986269 
-0.27402306463225196 -0.2280930859846404 0.49567145568414195 0.072716049869480812 
0.017384865205385954 -0.071476027937718178 0.058844585757422935 -0.33424240724757537 
0.010859087729147716 -0.098901546806863291 -0.0012956386365478214 0.018692328421497085 
0.020301788579483403 -0.014901066642543065 -0.040256896662624525 -0.18114574832923991 
0.30400388711792731 0.2273890922949825 -0.1715967892710118 -0.25158485071111492 
0.062083262548322624 -0.072411314336950305 -0.065001138291120197 -0.22785762801268719 
0.060933363044668565 -0.062027897512218169 -0.080990926463547303 -0.24663815985724036 
-1.6355995085858486 0.79461116774936191 -0.0058826028627039229 1.7121673704770113 
-0.064370058275192321 0.17277122622455826 0.10917903791707241 0.004696649054334881 
0.079481415533647265 0.046599370665982257 -0.14897083185113882 -0.47497336104400828 
-0.45642983907127577 0.27980899774350859 -0.35059511769103285 -0.11890170477836015 
0.069425670635399006 -0.045244619564847058 -0.073739703344517002 -0.13252514154947995 
0.19892143297087683 -0.32151023154414071 -0.11902622641298123 -0.21331058618234663 
-0.32946113632172391 0.11557301479326312 0.042962148672041553 -0.098119538964904926 
0.1501037524484834 -0.33155525727430624 -0.12698125923314749 -0.89480090151459302 
0.21281106009205492 -0.050333561595179252 -0.13830949813616267 -0.24013536102210753 
-0.10622036912700912 -0.0621563289803235 -0.10637214153212794 0.13426145335084916 
0.11844594830037038 -0.12038144315220065 -0.17973277065721743 -0.12020282517965863 
0.21322579627890409 0.52054167898722292 -0.27203133973786031 -0.55788253680780553 
0.016488365483139672 -0.21084958808231297 0.062761574963408479 0.48375440185557295 
0.08657613177371333 -0.19744440618965464 -0.00036813223093080244 -0.44337547547113615 
0.011181307499312901 0.080468791668470721 -0.066572271862453111 -0.054676220232996654 
0.055292836659829134 -0.090194100583881109 -0.11249486571796719 0.0053345065613378817 
0.0066922228388861362 0.038911757017767182 -0.053733697749060137 -0.045619481087360941 
0.036847304409301118 -0.16581817332110768 0.19941127076825604 -0.012942371312969263 
0.099200192503176965 0.17696335669294247 -0.23640783594764517 -0.48882158270699966 
0.012057423243236845 0.0078586004759029771 -0.081166264611901448 -0.85799663031328133 
0.0021821011750192271 -0.0097283463044158941 -0.037976643781035796 -0.21386956457064699 
0.005193774475624355 -0.070940909774523789 -0.03677985846439287 0.019471869973487724 
0.041717479019526209 0.033431814777719643 -0.11337298167346863 -0.61673601925104804 
-0.47363531909332657 1.1710159128124167 -0.17138109509899158 0.097662258946517699 
-0.059315092683953408 0.29595641987601606 -0.034937294828764898 -0.05544722232676054 
-0.36647633120739109 0.53883719367313687 0.5414149845511349 -0.52229411541349424 
0.021620814234267871 -0.016684558033227895 -0.47725414196052107 -0.039361638057350726 
0.030279704315383755 -0.028154033184193038 -0.11890729201020389 0.14723233295410509 
0.38682104966050934 -0.47664373872929877 -0.086850818245824329 -0.45407760390846469 
0.17285793370229405 -0.060132269289575421 0.02834289978743677 -0.062889368271073234 
0.22648145347429818 -0.14084007406429561 -0.043738022023172965 0.38543656929227688 
0.12642964487588754 -0.22824369658836535 0.060072616991738319 0.068617788562974166 
0.041483965542978479 0.048462534824696257 -0.09576979648956227 -0.4493656971988782 
0.065793386864799144 -0.017041596782086145 -0.048378446160662912 -0.096652640652450786 
0.080597088609605252 -0.10079286001432977 -0.068606474251496838 -0.30051169089720914 
-0.011000799409018705 -0.13079336710431735 0.15762541316075804 -0.26159573361885274 
-0.49029110001701159 -0.15140068042455229 -0.00029850405797247675 0.34899171726268213 
-0.12973459759171893 -0.30261692326916773 -0.32145775044627606 0.33465684032095355 
-0.44169437198117428 -0.69178224051328241 -0.13479495011978443 1.7542605186318592 
0.12810431380066789 -0.082156528246337665 -0.10369477898299298 0.21164375897540094 
0.054302066796276492 0.036414468338798203 -0.21838405054694843 0.39028437576870673 
-0.19145189759399825 -0.037121968172679327 0.16746456958125788 0.0091201519596469244 
0.082398714856684679 -0.1387383068793987 -0.14477118442585787 -0.026531979703094524 
-0.14580315933355992 -0.012586651050136791 -0.09534846827622169 -0.028490970353705038 
-0.049091768634950628 -0.0083444679628021101 0.012902784585115561 -0.0070752751958498474 
0.038182175704899166 0.32564684049375536 0.042561926733297034 0.59938293179910485 
0.28615477769525066 -0.18542226132896411 -0.024467230789832595 -0.37416123365063636 
0.094996580800559643 -0.30342204703799269 -0.038347481125968641 0.31799449892846282 
0.30522689725375951 -0.64586770658826986 -0.097489335276660455 -0.22405563528035632 
0.081654375163741258 0.0047197082150026576 -0.1346862895155525 -0.35592039254350361 
0.48309290443366321 -0.15923866250899585 -0.19806266995057428 -0.48269048816811072 
0.1779492539768345 0.73840652584443256 -0.8300296988042889 -0.20340560240265884 
0.024130479060621272 -0.091449440246491293 -0.33668349115908547 -0.02103445842236773 
0.0044914879082558791 0.010548871102189369 -0.012922316253404911 -0.62337183804319052 
0.36279512379324241 -0.48568487228507534 -0.021003069853310852 -0.10345284257483468 
0.021152149884442195 -0.049412535793193067 -0.024142079580812631 -0.23528349114828453 
-0.020300445649915649 -0.026160332055881672 0.026020661699847764 -0.03265975302450011 
-0.0051951362175254173 0.10870704427340022 -0.01340075964593667 -0.25746760065137708 
-0.22824925892073619 0.27047145257420524 0.30447891497378277 -0.36741658577442604 
-0.011690747125917722 0.0098307466023241086 0.16863473059374856 0.36832186595489552 
-0.14732221879256346 -0.082914755863744166 0.00049701088899870016 -0.2610410865321186 
-0.077028691758014856 0.12235829412309632 0.031124558540218478 0.10501358697572455 
-0.093229370216468072 0.22561784091545239 -0.3691487736142085 -0.21629580299943915 
0.009837708618069152 -0.040323240093828323 0.073907521910274082 0.0011297968408087644 
0.15836235782882971 -0.35807116142739576 -0.28869512764203981 -0.21805232520347492 
-0.10016845572176428 0.20349551513209668 0.16130943519148364 -0.26289733476125215 
-0.05533247017156552 -0.013185679193533417 -0.28478026797408335 -0.23761907435570723 
-0.054242997412399921 0.71539788469814325 -0.34040616075318891 0.039387738695331992 
-0.17654485777305401 0.13504397569983487 0.21697411599603653 -0.20149887747974585 
0.0095205677438394698 0.26825370048628855 0.2558986010612736 -0.46666666505972337 
-0.10661058746455036 0.45880242886001144 -0.54414653554088044 -1.023332546706438 
-0.0042251987745986156 0.027222216363504935 -0.057795324234279341 0.13347620032855509 
0.31570880930508288 -1.5096587399545676 0.027308498950548883 0.079703870507616126 
-0.019933423185302342 -0.030579166992367922 0.041463739985595799 -0.82910956383533629 
0.2401112587509136 0.038336612585203211 -0.15355103720149255 0.8047290178838552 
-0.032399454373037574 0.19490903523005088 0.071673301836486666 0.13395758650117207 
-0.012220587265785982 0.041380844242773371 -0.23264011050862826 0.32598920503838696 
-0.0177404617039272 0.053728412633973349 0.063591425048046976 -0.089741569136436064 
-0.088313173384114457 -0.91106737109337255 0.11762044958974645 0.45373769516953943 
0.0089071768685609273 0.079746719768846536 -0.025583078259336433 0.2493653857239608 
-0.17115523153770437 0.22048996383834726 0.23762375235039607 -1.2786420465766128 
-0.062320935753503878 -0.54060350853695005 -0.20575065748565977 0.88321821448848969 
-0.063919798065075528 0.052676084049462057 0.068985496815664654 0.8510228459696072 
-0.190637779472001 0.087116183292516164 0.38819476947401166 -0.74350654524551085 
-0.084721721301327851 0.028517355394496784 -0.22815063228859331 -0.065326807967327372 
-0.057021604900602624 0.093460924529840214 0.080534529524427662 -0.053033584341447636 
-0.069232082157774558 0.054949802145758481 0.26232246659079012 -0.25587444499105133 
0.10642988777060111 0.33424472151798224 -0.18498775888825142 0.64722916271222275 
-0.10238201046041895 -0.075735402944251837 0.16260161871670581 -0.18663419837083725 
-0.12036016728034303 -0.11111854338549834 0.0095400355015826822 -0.00099592381755070456 
-0.062398549525243978 0.50583585184513402 0.16783795983907521 -0.99652190752542191 
0.24845869154130001 -0.15038708606308746 -0.18866789203912671 -0.23088406293468788 
0.0071524409872795736 0.14868642511285482 -0.75636086610093534 -0.27035692384430526 
0.11766484659976439 -0.084240689533543661 -0.17120103248399016 0.028768427435181709 
-0.036647277032475112 0.1344861800875386 0.53641345255883177 0.0033443370787309534 
0.065757727834587498 -0.071229286564625086 -0.10820477316254193 0.12452165256038017 
-0.069446559278014797 0.33601753592463834 -0.036148473762451463 0.0035246898472063234 
0.029421428869085497 0.09235991128479186 -0.065864332033754941 -0.1740677445817948 
-0.039779249331237033 -0.0744179744343621 0.083832832823466916 0.14074297716841738 
0.022003723594297211 0.34685676625634609 0.091425643868959516 -0.65344247698717628 
-0.12932421782090595 -0.12968319105221923 -0.019514516231778432 -0.0027870112482101719 
0.67775000259115858 -0.59475025325809272 0.12148714216867582 -1.0774380456753274 
0.05341271408093777 -0.10158716754801787 -0.10548496566634319 -0.33065655192664728 
0.17861061661158445 -0.65355061984346818 -0.57123351783649523 1.2490780830807489 
-0.035678176374099528 0.12176428406343986 -0.019962543066072921 -0.58586052091264407 
-0.43283562338123627 0.0066927770659362795 0.0087475442543008229 0.053272630453724601 
-0.10478172020422535 -0.022835879019860044 -0.74552797054814568 0.77758443050040071 
0.065566625746400167 -0.13695699592871816 -0.091343618007658556 -0.17775781564197612 
-0.034460181213993295 -0.40235764708338506 0.033402532724186265 0.090828357223166983 
0.084604607746780441 -0.1322848939821519 -0.1268654956985707 0.011653174983845993 
-0.013199853129918736 -0.031919061988120931 -0.00052394711391795003 -0.0013818660804988253 
-0.43283562338123627 0.0066927770659362795 0.0087475442543008229 0.053272630453724601 
-0.034966354295141909 -0.056022235575459232 0.03262000575501961 -0.065577253267329466 
0.02576811166783418 0.53316435130579243 -0.1247026847132077 1.3895255149518835 
-0.0398845056646083 0.24967970103472234 -0.21935296004613591 -1.3363714588394435 
0.29371607811080058 -0.44197997493482799 -0.28002724009372715 -0.46911930576296129 
-0.075336654681094115 -0.57612694577737633 0.073736620952594867 0.44766593747333283 
-0.049035411276935531 -1.0850160219059231 -0.062055079550483561 0.12031495663215605 
-0.0093706932250178874 -1.9680221444060084 0.017972139708997296 0.60550990847731012 
-0.029706585489563016 0.069372826281457162 -0.10532803707301452 -0.15007392063204295 
-0.42878438784009265 0.88897402677076531 0.41156660358932501 0.13376198136998502 
-0.055337993553256276 0.12891894588630615 -0.24887190945496154 -0.067377180930944497 
0.12746954676520916 0.17841276125129227 -0.10529123825584019 -0.44766832296343306 
-0.47874638379057227 0.42681815192959427 0.078613897086360296 0.054708081290353774 
0.02491569648318788 -0.048703915417763421 0.020482429469078127 -0.43993196442925675 
-0.12858402806071079 0.066829593551384237 -0.23186292170591205 0.015385819298346044 
0.13952451615453987 -0.18166364615434996 -0.12861264894032307 -0.33992967237347593 
0.21908218644311528 -0.15159997733496239 -0.28971825106168192 -0.46735736375881465 
-1.4021200935128091 1.3763511337495922 -0.38096024778697596 1.9538539149136647 
0.27619655425390349 -0.80254435445806149 0.077478732494799585 -0.96554603836054498 
0.071940743334905327 -0.17522484156893567 -0.10542040004574371 0.30407398402008257 
0.36089992630781753 -0.34835668857659535 -0.43483962958250622 0.39655756221910471 
0.024209366421705472 -0.27658004259841473 0.20954343787952032 -0.25638680885800857 
-0.19644924125491595 0.62719841815037791 -1.0414294709209844 0.12937938132144902 
0.19806328692382055 -0.51123924027150569 -0.45578996549231765 0.54245210069958383 
-1.0917347963064707 0.60031398612954345 0.16581255758920729 0.88765348213974615 
0.13517940062546244 -0.95072040869170826 -0.38022347291042724 0.94723827784014603 
0.097548393701175365 -0.052650353728872057 -0.066492313159510208 -0.3146815403713622 
-0.07745808283392186 0.23581261032929393 -0.052883854768773664 -0.2554408965800089 
0.016855077406326847 -0.54378033645968493 0.29644414925813145 0.042332315725294188 
-0.53420857171621927 -0.25101038124856356 1.2243644107482674 -0.37945706771773863 
-0.056309648061477986 0.49642412571488403 -0.15116374323438159 -0.04785626674893232 
0.3621566553167076 -1.3965906128427519 -0.12329437214407793 -0.53607090388191947 
-1.5522054060858212 2.6059747156072253 -0.17359605854559776 -0.26003419415616108 
0.090838761875749865 -0.23211984345280906 -0.1400621282307937 -0.15632796862675022 
0.038298380719149393 -0.10509919457317626 -0.11058586569617257 -0.58612900849414429 
0.18521548477644895 -0.23918133233148145 -0.12450022655499915 -0.34637232634041049 
0.096777998222709105 0.50234302086453209 -0.49723557782968358 -0.67414103815375781 
0.1489266195565338 -0.20123418117994474 -0.16513269493291821 -0.46447399399973788 
-0.2114773314852581 -1.2620699583697312 -0.035192388367214153 1.5469021913519052 
-0.45259552331018926 0.65257192526426344 0.18442656338058619 -0.069659042283432171 
-0.56698042765460677 0.013098750451064387 -0.12422985021148752 0.40799049891833122 
-0.099655360305635335 0.082029800382409521 -0.37607894931359553 -0.11533605081810723 
0.027305712119367984 -0.049575382988342472 -0.067172636876848102 0.18352049802775847 
0.078982824384162764 -0.10522533830997566 0.039308428681956969 -1.34448535207185 
0.063713485985814097 -0.27445643166431727 -0.18833351422228956 0.043742845293197045 
-0.14742495956218427 0.30320733247690435 0.096629457135896726 -0.25902262040357676 
0.0015938751367755265 -0.01282428763410921 -0.071549258401231913 -0.021646646519039376 
-0.79724821054970652 0.870484976668503 -0.046152948933377042 0.012788190513962948 
-0.18072434220362038 -0.014565072836453419 -0.17160533223962537 -0.26311030590727241 
-0.4382462939067015 -0.4706585835197773 0.015254406509505825 -0.21764567546221897 
0.2278826931009571 -0.21207591623227462 0.01995974477530018 0.43203406309716741 
0.48167139006560933 -0.24850621531676592 0.29686101155784428 0.0010701488932926336 
0.13883482350015081 -0.31138252969158392 -0.10918988961767073 -0.32141942372643811 
0.21897702611739739 -0.21164752765130887 -0.19636712669294518 -0.026377813378003896 
-0.034811220967555637 -0.020385480854128911 -0.057539443825232676 -0.1685368832143278 
0.86045839066997665 -0.48401144096350279 -0.48683680913827149 -0.79583044726029795 
0.39822914732698056 -0.59482977716922836 -0.73782161591584416 0.072574380901636759 
0.041273303767636056 0.05319192955470764 -0.098191049379963827 -0.41071369456285717 
-0.67214938183773132 0.35966744039191989 0.11116619356835045 0.00276608405411449 
-0.14587412305066913 0.3244993283121419 0.032910883047397421 0.74308347336712766 
-0.96174920801734609 1.3380667969439313 0.38123976294880102 -0.71589483238672613 
0.093078485722415186 0.45290686864193996 -0.36115073999945069 -0.7442253980652892 
-0.036396621244650804 0.080461272778107745 -0.06212272222900847 -0.42370583317163413 
-0.077007058135580952 0.064875525478032658 0.028991177074883495 -0.35869994660608279 
0.014612678905049548 0.064679072813027705 -0.027358827671701485 -0.10138427588981777 
0.2315974812842157 0.73564368292372406 -1.7090026417303117 -0.072065466868905415 
0.063816463706361778 -0.00092887846509862558 -0.066109578711663591 -0.23080550460371907 
0.084410689694718238 0.06486134531329632 -0.22888731944617785 0.35460592125176377 
0.063420396493977904 -0.25602274310720641 0.045665292192745274 0.21565875430509338 
-0.071934139263783795 -0.19020983375255215 -0.060500197794607767 -0.70418803250332973 
0.04996754516752111 -0.37378252038786169 0.057051315189320162 -0.26558735595477301 
0.46122963756679686 -0.13914650523338834 0.0036543006699327196 -0.6698590949477049 
-0.22710366599716866 0.46716526261648772 0.052851322761683424 0.52577881627776024 
0.019508760924392826 -0.4418428721312041 0.47457578275513113 -0.96391258091720045 
0.39997312703652449 -0.61171759178093932 -0.58365535496328314 -0.024415765466147817 
0.022280050121274625 -0.40776595554107387 0.31302599616253507 -0.24279164377859588 
0.50357605123743632 -0.39926610128142964 -0.10584760747216598 0.086625999619944383 
0.43647824082703601 -0.05607053697918804 -0.33551404528333334 0.2735859483170362 
0.14091982351516116 -0.17383634482734156 -0.2125016730053737 -0.52857235345760711 
0.47038601592649543 -0.22982768869044343 0.001235237507716551 0.0020759340908487892 
0.079083533008277487 -0.099013283965414395 -0.10445177136856487 -0.088928313687261951 
0.26033233761181118 -0.39535332894810904 -0.011905777161167037 -0.00437399830576233 
0.018959442816628314 -0.098045571445572355 0.15425805731803738 -0.19601273412454151 
-0.054859359400364349 0.063120515707005442 -0.37612620889126869 -0.20394723796300535 
0.15572099472751233 0.0036518487955103304 -0.18261604011017779 -0.26285386638818775 
-1.965326772475374 -3.3751322119800076 2.1542537134479089 0.84010731680239159 
-0.26662195867157373 0.40862289624340903 -0.1926378581981765 -0.27374943464765017 
1.3437792255220031 -1.1882077162984659 0.03960766963297821 -1.1908682992138049 
-0.68843164680612678 1.1927841054907615 -0.77197690662775598 0.41163996368126005 
0.37653101796371802 0.015453931520688524 -0.23388326419593733 -0.28373839730543199 
0.027201714199674445 -0.038160242271902886 -0.12502366605132692 0.3864948326058516 
-0.14510059375133461 0.82857091536392313 -0.20761980058997814 -0.26076996917857403 
0.05037426592036201 -0.056470520148029217 -0.027685819568256283 -0.22083933572614331 
0.06612785539200608 0.014420668830515012 -0.13318573435442291 0.12312227707623645 
-1.2528288905732614 1.6626797239612825 -0.196142694581809 0.49693877806754194 
-0.037301656496187399 0.032631993698728538 0.046703713784434581 -0.016906306735235768 
0.034938701043872186 -0.26512039987303493 -0.22169322352469459 -0.4183360195387163 
0.81125867567526888 -1.4530076219866732 0.083096390988945223 0.15937681047586047 
0.60301282538549983 -0.57138026484469739 -0.33476063808801421 -0.0048460913761120038 
-0.29045455094716671 0.38615605145692938 -0.057686393647963963 -0.060278697241964052 
-0.62976504913363218 0.48717548907540176 0.058903847620731725 0.020766328583486662 
0.022363081533598575 -0.1300563432590412 -0.059379425653265615 -0.054143503750398905 
-0.34056433922918949 0.6586280054674617 0.16487841772648329 -0.22854051016213384 
-0.20664844334918847 0.42166766235371839 -0.25917788897071353 -0.23879275007066358 
0.079954819194490309 -0.19867850612500343 -0.22024669285785886 0.31446947713333406 
0.095317183608443545 -0.18772274143517492 -0.17462192047812841 -0.0326445773231539 
-0.035796641214273769 -0.0037106852453795136 0.038647930543945476 -0.36674746384965379 
-0.017380825254703955 -0.027087672036442207 -0.018117796225437549 -0.46862806034148252 
2.3738353906440381 -0.17647758636327776 0.23969762476471787 -0.39403142268605973 
0.33403170820927175 -0.14964592949531799 0.05203960329680736 -0.21529033087197652 
-0.039858452540026693 0.024209798629697927 0.079096495541643524 -0.58339336771030137 
-0.59230723962299647 -0.19208347482888222 -0.1429686771713361 0.78379590058653137 
0.21521689740075434 -0.20649597904325395 -0.55164187509656137 0.05026298088951911 
0.083862570905583106 0.022057841527416334 -0.69213774987001775 0.6630581216818745 
-0.36942722861910415 -0.31239251064459267 -0.12767505699165999 1.2201329612712632 
0.051429274914346554 -0.06153570108727284 0.023488217719739045 -0.51053936256171539 
0.24418947954911066 0.60632077862745504 -0.31686965218014407 -0.33771536558169801 
0.26027535280848113 -0.1615263838267576 -0.30720002244504702 0.17688067833402762 
0.031329412428401815 -0.078922441529082898 -0.034080992043959535 -0.11727800912899246 
-0.0045173624854627607 -0.02281628929303384 0.031594429076629599 0.34209304352825481 
-1.8672253956670675 2.3466073449923113 -2.0711024012547639 1.0964091967650769 
0.016074234409288235 -0.38524275173345068 0.15098114203271362 -0.90594591444758921 
0.24634201524681318 0.010867874997157332 -0.88608037002846207 0.59493640398856029 
0.13161726466831811 -0.20227012031384656 -0.19109659949292401 -0.37357737859443146 
-0.68010372119261853 0.75482756190849809 -0.019447877550628129 -0.059666086065538991 
0.056517290957552806 -0.10339700883887151 -0.13693307950295192 -0.84501172312799622 
-0.57891122460378364 0.5424043931593252 -0.64373480857305021 0.49285687918485827 
0.098113579169856149 -0.25345155305688971 -0.042000697139331702 -0.078502585098632088 
0.088341229086766032 -0.084278787224599611 -0.14298307846481578 0.080322685222989298 
0.044411118852819606 -0.1433919925642945 -0.25609193172114847 -0.41982101566843461 
0.93304969812147109 -0.82111254313351933 -0.038684401579398869 -0.3003316499712429 
-0.015195303808070951 -0.10186856780341297 -0.012604249162138995 0.14434967411919841 
0.11536320474182242 -0.53293903952492694 0.10987024753987187 -0.62145437014741312 
-0.23218838244993084 -0.17230559065711792 -0.056039477258633175 0.34626119312948916 
0.030217387204064278 -0.051429367934795696 0.0045904089346297389 -0.35784346370380166 
0.21280137086141282 -1.0530444995503727 -0.0097635739002258914 0.11734393668881037 
-0.39868043651556617 0.10175865568737327 -0.05850254234012929 0.40284166881836159 
-0.23218838244993084 -0.17230559065711792 -0.056039477258633175 0.34626119312948916 
0.060817569511461909 0.3052907081517296 -0.15512248336894641 -0.0040754359870365346 
0.31372920578259078 -0.65690762537638647 -0.19473602808042459 0.32552555904109221 
-0.21590140030241189 0.13252123828816406 0.011735523680095996 -0.19220816266816693 
-0.42219094658387302 0.5619551715056692 0.1303432070265137 0.59985985551182697 
-0.21590140030241189 0.13252123828816406 0.011735523680095996 -0.19220816266816693 
0.038658467179595889 -0.076646012497606691 -0.053035520575047963 -0.10533578663803285 
-0.026571806962975651 -0.0047045198993643164 0.071793046603886634 -0.21459328383059698 
-0.21590140030241189 0.13252123828816406 0.011735523680095996 -0.19220816266816693 
0.72667010796525622 -0.023614203207351182 -1.2006813674568864 -0.13168872368836165 
0.060857235085755731 -0.24268670421549146 0.007158208570814768 0.3616875388627227 
0.012992471498627527 -0.27016092311952761 0.04505401986070539 -0.02247853875325263 
1.0023767823302443 -0.73490377369522064 -0.019460828629363783 -0.88868711045709792 
0.12354895911117152 -0.094201514296445604 -0.22333545181097297 0.11247207668355115 
0.09301593379963885 -0.1728818414975547 0.16248859560597237 -0.050143978735584169 
0.034905620409651512 -0.36484882780486072 -0.13256347427597812 -0.22516354441730679 
0.16158589259085765 -0.23050268798281515 0.33625459722344475 0.48918828361352201 
0.11128229460434551 -0.10081708285815351 0.023302252165704501 -0.35635495557693436 
-0.047073234468253421 0.42617372065004894 0.095790551481351502 -0.22387864193790927 
0.088976354951943892 0.28650628937209011 -0.09389336278167934 -0.47616854109126372 
-0.15289650417250844 0.15561733564675886 -0.090098349013223167 -0.37810403052920594 
-0.075483094012498919 -0.031363846656539927 -0.077323198592208181 -0.024049054450421405 
-0.075483094012498919 -0.031363846656539927 -0.077323198592208181 -0.024049054450421405 
-0.075483094012498919 -0.031363846656539927 -0.077323198592208181 -0.024049054450421405 
-0.11825500205094328 0.75521029745800705 -0.45452075214908905 -0.21857867518485344 
0.021780858731659258 -0.12159144918747795 -0.13735901734241571 -0.12025882775452115 
0.079647135797563218 0.22039730197518154 0.043886401658259133 -0.48256354057869066 
0.19835760103348665 -0.14441806488656317 -0.054122390091938054 -0.41363478362073625 
0.080647163912989331 -0.49100869733351948 0.24075425882112597 0.094706645343012597 
0.010420160105462185 -0.14712387955850409 -0.14835475524316188 0.059719348174299712 
0.001364234743965187 0.15948413619887869 -0.053351479267894353 -0.040788617403354654 
-0.048573861342379149 -0.18022070501178764 0.10840326346454612 -0.89077253288349501 
0.54119103603970276 -0.42904841498243218 0.060957036415106483 0.099202763843203215 
0.019925933303531512 0.040024048515206537 -0.0533434707740887 -1.0645683181124415 
0.13643332226694285 -0.39194450362744748 -0.052427739857294618 -0.60122645361027183 
0.39750801665097413 0.64052305484251926 -1.1844977252712945 0.1070161614777739 
0.11456068104387608 0.099670391418123713 -0.3773449646887711 -0.21651251410335701 
0.0086881386178770392 0.95590358035229239 -0.24940022359313177 -0.49527926133472044 
-0.013716500920386787 0.075302454259555784 -0.9300533485970095 0.89438186899186678 
-0.16849749962794822 0.36785876992098238 -0.48271256120834793 -0.039099516018256772 
0.035364969077993247 -0.13875321427028314 -0.11029565031488339 -0.14152479475707125 
0.084712619212593543 0.072876676851119565 -0.18034971265680361 -0.45696282714988345 
0.10234603947386921 -0.10254576737316727 0.01142544969181946 -0.85327148213960879 
-1.8511920387152139 2.3308113281036578 -0.99721548511940661 0.23775421815381795 
0.061085454267591009 -0.12468940520751021 -0.060788949691967374 0.17668868681137337 
0.19187458571206872 -0.49345272411318186 0.071853898064158289 0.088605027393974106 
-0.086741071394277683 -0.043273912719625773 -0.0025862346085206538 0.12022038448507419 
-0.086741071394277683 -0.043273912719625773 -0.0025862346085206538 0.12022038448507419 
0.04875936433707271 -0.25059409994192927 -0.24532983976720868 -0.044422771290301734 
0.1215674353964106 -0.2473127556334645 -0.11773412923030564 -0.52728051282241295 
0.14676202902839519 -0.1795963810081298 -0.033602809362141633 -0.61910992301465784 
0.34803695699416365 -0.41171426695912849 -0.96535934817402058 -0.0038204992123242664 
0.029647910253714233 0.072191796544428283 0.22522429894339141 -0.13399516629037342 
-1.4720400038682391 -0.01985918917040011 1.5137578518753667 0.98026822796887958 
0.0044753337975916713 -0.068999848112783271 -0.11246654760972451 -0.34656144092583452 
-0.0046160693427825675 0.019504236023056513 -7.396141819152643e-05 -0.0078623839505137568 
-0.56932642177585469 0.82295431254481977 -0.27019891815584896 -0.27678511999734473 
0.18442134861099418 1.6434376844597547 -0.65564876369290825 -0.50908850266590411 
0.13862274674504826 -0.16122158585048263 -0.18161254777819263 0.11186261336596598 
-1.8784819844372516 -1.4666488442690448 1.9355658940313631 0.78918995192207497 
0.22161954348347213 -0.027986874587665862 -0.18129694544752831 -0.27259422974679998 
0.11719724056599229 0.46725964862176994 -0.54226167808708703 -0.58309008861134437 
0.13211795553538874 -0.085184489878424918 -0.31109998213579326 -0.16427266317667982 
0.13671502338945701 0.19381035106601641 -1.5120287923950397 0.84747877387986847 
0.085475704394421342 0.89946076108963602 -0.3095027285134605 -0.39991336564772056 
0.14929324756528309 0.11471820241299838 -0.15520322703703071 -0.71413893229280612 
0.085475704394421342 0.89946076108963602 -0.3095027285134605 -0.39991336564772056 
0.061139063514890207 -0.0067073274618361101 0.052830857033806487 -0.34888754662705634 
0.085475704394421342 0.89946076108963602 -0.3095027285134605 -0.39991336564772056 
0.18261603634117987 0.76385734919501203 0.03477706902878791 -0.40032265091131647 
-0.33718034624488824 0.60215362399007377 0.056101074393215225 -0.510494010300382 
0.040365303019197732 -0.08145410112755784 0.066192476896682159 0.060642744143359475 
-0.22870517100125962 0.82123955097530388 0.24135989593071153 -0.17844099794203017 
-0.14918099803656537 0.12265240135811781 0.12649082141673137 -0.10502590571734556 
0.14752182563097588 -0.075491364025056795 -0.1511690356988783 0.28441375388904222 
-0.0061485995994620662 0.053621601899035795 -0.02957077644806394 -0.11215192427010029 
-0.030224384934220166 -0.089780891366464971 0.16095185268208426 0.22038184091652954 
-0.18628254171305131 -0.31166001415647804 0.10984625856549644 0.016537581127353883 
-0.057407953661563496 0.072018744055310488 -0.20858197741045609 -0.050587892581795441 
0.8917659736419784 -0.73588769312275493 -0.29736527974890059 -0.018582750093431643 
0.11039010918197227 0.022941239576535558 -0.13103900867594714 -0.041816066443763553 
0.12236266415791594 -0.35406041853301956 -0.21153452785904125 0.096941171144404661 
-0.32518965674712563 0.66417825130588692 0.11259917180731327 -0.29786610213816656 
-0.22359105881752536 -0.058317131099796332 0.49608289213104773 -0.43182620712130304 
-1.8233548719024051 -1.8231858643368062 1.8143370415764739 0.43866365512044236 
0.42079472911051824 0.30449560056507191 -0.34301853139434624 -0.43911067722743063 
0.3386264505603952 -0.051323936554382131 -0.46213096074741522 -0.52330239760493746 
-0.011860412398846581 1.0732188323706544 -0.15562655455281074 0.0017990783069522346 
0.18063584889669915 -0.26452906453151176 -0.05917136366158738 -0.81077381556002714 
-0.011860412398846581 1.0732188323706544 -0.15562655455281074 0.0017990783069522346 
-0.014038037793086051 0.032214045026734618 0.10201939837741988 -0.030321143852446275 
-0.10398785054445187 1.0011315386529804 -1.0987916209230137 -0.4371684816157545 
-0.14574771792700134 1.0521829996027112 -0.086008490551049116 -0.54992354846948266 
-1.9654450887677613 -2.419111920932199 2.5318001799189234 0.58230900764626836 
0.26857697291679183 -0.46102263542091693 -0.29118546179085397 -0.076793827686882574 
-0.019152789313214208 0.41008481654693063 -0.26520992300554108 -0.38114089390358874 
0.038406193158749144 0.036284061695185749 -0.087822089490031119 -0.00078152775188808799 
0.1805669037008526 0.74583263633938834 -0.79663178719325045 0.081242058621319058 
0.67811475909243191 -1.0028166555634983 -0.6515052568871933 -1.3762289922101543 
-0.031126136369997226 -0.52269709049248392 -0.45299458111012719 0.54342871049522945 
0.091704396413110026 -0.18796372958484203 -0.097403484046072492 -0.11994800968777958 
-1.1958378242371437 -0.56039784462256315 0.64895692953394402 1.362724652698057 
0.07260634221632184 -0.001325191389477863 -0.23700907436314259 -0.7871341248432101 
0.52811605494682756 -0.85907353550672316 -0.46931737989585609 0.63377051135050244 
0.1391991570207024 -0.094331002824107085 -0.068588590554886017 -0.13879453860259283 
-1.804816954521113 -0.20250694104487202 2.0625021857533388 0.27064966226624121 
0.08440146228634092 0.0082143618762744765 -0.16318309229057271 -0.27545331164032388 
-2.0054052815819388 0.56889700843234725 -0.090970024624434168 1.2889826238429116 
0.68280155658294373 -1.4930944664004766 0.071225973086759958 0.75001771704454001 
-0.0098727922198869056 0.20389014321138735 -0.75031595693812958 -1.2295983700698676 
0.1635333146246773 -0.010555701297609327 -0.29891304282571229 -0.65688024749233265 
0.15041464729714724 -0.2976157612178143 -0.16303614621755316 -0.12877055523125064 
0.13021518647080371 -0.18000212064046853 -0.31332871812874985 0.5366150367332938 
-0.057144944471615611 0.14257652009339214 -0.074096375622940538 -0.094460481978961147 
-0.003135461616070024 -0.23034366922188129 -0.020464265991079287 0.14987991269013157 
-0.24017648275296852 0.014902031123667059 0.62319645169620919 -0.59776090720316266 
-0.57485927464053388 0.80538056193127883 -0.025847153950501495 -0.50976545748290825 
-0.3115121859656495 0.58200527987433059 -0.17651602289905755 -0.66745645436532297 
-0.35272338782081147 -0.21692475093139504 -0.14111097116721 0.57236344454491661 
0.093649215047362899 -0.13984284480479792 -0.14924930027676112 -0.24537627293254879 
-0.34513123067407114 -0.14583559039336103 0.4439178087648028 1.1750689784099266 
0.20580990323233661 -0.21565797747478752 -0.17648021173794479 -0.4162053813781037 
-0.01341079120658056 0.040083237755027944 -0.024541484154980722 0.087351065626946722 
-0.045253509846720157 -0.16569636377138858 -0.10155701426724581 0.012518893397008636 
0.16855658499131609 -0.054381878954687407 -0.019148235587470176 -0.0035369478215258468 
0.0056626459748261929 -0.10288054370564539 -0.051340934972968336 -0.59600497983011358 
0.33557684654811115 0.096882867851452226 0.18317534277249659 0.57707548141541931 
0.46875307234235208 -0.69335002803806978 -0.86775462817123983 -0.1728940270123025 
0.17750651092372172 -0.63911087087825735 -0.26315137641319064 0.67017700674123581 
0.4709898518886329 -0.61066461068988354 -0.025446624446848254 -0.621840667627375 
0.07208400820496616 -0.0099437705689636793 -0.070060593133169508 -0.024938353167189811 
0.088459300776948233 -0.20442107008609994 0.053420987303687245 -0.12919121249116394 
0.26721974458729386 -0.21452838139569194 -0.20527498539236091 -0.26946256237518934 
-0.67379060825494719 0.65133750028481285 0.082000437292667955 6.4395993290310011e-05 
0.067048873118651209 -0.40596768767747099 -0.11917766653084735 -0.96727625095795289 
-0.11093853341124219 0.6402481343319687 0.10111148895513448 -0.10198974812515595 
-0.026647472295582706 0.015507991655680887 0.05223746274382194 -0.31081764769290426 
-0.30589637025087357 0.57489459526639453 0.21747222798524568 -0.53153391859725496 
-0.23849620308510489 -0.046155114496334568 -0.017032654420692572 -0.33859372049594311 
-0.077160974662325396 0.19855130002830459 0.032486247453907949 -0.60913233748210815 
-0.054098852053995949 -0.26571605942461368 0.21778315445111485 -0.038502522851630416 
-0.19121609488592933 0.5180393697554021 -0.19150071847140945 0.0071651996951796262 
-0.18390295759439138 0.32266232061397199 0.10900619784344796 -0.1651659695299901 
-0.65938777891561795 0.27766225405872041 0.55535318663090583 -0.011472616667647784 
-0.19121609488592933 0.5180393697554021 -0.19150071847140945 0.0071651996951796262 
-0.030681872188967618 -0.47174948465219047 -0.26597703121533134 0.7149334086444854 
-0.14180143412277862 0.82480887306605799 -0.40315607156785466 -0.5189169745657265 
-1.9452392323243179 1.6835125677486811 0.20082445307172153 -0.42361811923459614 
0.24898376702978059 0.00042946048485939688 -0.53595596481009877 -0.4213815188749544 
-1.8027373674948917 2.1397836443816471 -1.4002632065447802 1.3066683395494159 
0.028305366730100086 -0.081604526296257918 0.036183642951119907 0.077729680597830406 
0.18426714425538554 0.016814516646580013 -0.012988961585401453 -0.42093192397619122 
0.13893549196481392 -0.094272911139012122 -0.19559023136947662 0.092778728813838751 
0.18426714425538554 0.016814516646580013 -0.012988961585401453 -0.42093192397619122 
0.18426714425538554 0.016814516646580013 -0.012988961585401453 -0.42093192397619122 
-0.081458241890391497 -0.79042004842410762 0.5102169629549379 0.43764684742055876 
0.58245024796288769 -0.059462049465069972 -0.15547445533257853 0.010043046172936946 
-0.026663687843389579 -0.11785966898728722 0.069538175959053941 -0.4977348828600171 
0.024874810815434745 0.00064089040817229791 -0.013850510902362615 0.035842101577773969 
0.49600831985035626 -0.73246582063387944 -0.14875284888898871 -0.47209539103620363 
-1.6833083081303144 -1.4742510442917296 1.8856165941436454 0.46275479331288388 
-0.21405844810700683 0.48232844954350396 -0.30950934615122916 -0.95867287610870477 
0.13034667140011022 -0.23733885144149292 -0.14682738734680592 -0.19733314354992501 
0.25836544706925191 0.017914852039699752 0.21544520259953248 -0.76306268472252614 
-0.0053239682433544912 -0.65657163390383899 0.067623863485426317 -0.16420630370437408 
-0.24939848612239832 -0.15710607294177958 0.40931838809823362 -0.37859875481262967 
0.012315791171708654 -0.28548178972007165 -0.0069236710282026062 -0.18095713837364974 
-0.090309698860887702 0.069381967251566548 0.16517035563489241 -0.44980632366884088 
0.65425104121823019 -0.58521243748252394 -0.53978970463142828 -0.37389119075997501 
0.043878059966379709 -0.093596160324073363 -0.54405099780962418 -0.33922928180377437 
0.013547382093693022 0.15124564431121823 0.081201649287838296 0.21608089063032759 
0.12903494215200045 0.025214146446719113 -0.18488349817037913 -0.12891685235771572 
0.1183421118854259 0.040494382447326678 -0.51331595313005862 -0.17664736129617964 
0.026697993920199087 -0.047919215635923509 -0.16776279331460422 0.033860265756680497 
-0.019369754363372883 0.070888750132764966 0.0073114614027208757 0.31262586527256836 
-0.17849705166811761 0.067232753222961045 -0.00086249533395964251 0.39646954017483749 
-0.25555828094223443 0.35347211684701113 -0.00035051268724683841 -0.3727998137146093 
0.035876444377294009 -0.11938503074758383 0.010132441193382746 0.056404448286890951 
0.013824685318935923 -0.093535062720039669 -0.29257475952247902 0.066765682943629445 
0.075627170993693149 -0.089139847899882801 0.020363893364922864 -0.67589023585754759 
-0.24907294894980858 0.21944250076469862 0.00068674140303213961 0.0044473443276056525 
-0.24907294894980858 0.21944250076469862 0.00068674140303213961 0.0044473443276056525 
-0.24907294894980858 0.21944250076469862 0.00068674140303213961 0.0044473443276056525 
0.11621469979193687 0.17877620113190337 -0.27733436720749721 -0.34615658136981386 
-0.24907294894980858 0.21944250076469862 0.00068674140303213961 0.0044473443276056525 
0.22857849716764833 -0.16109455239190845 -0.35907307350534284 -0.47330248294208527 
0.043407686616969532 0.11014736116454324 -0.11607494394841977 -0.68424368038060024 
0.28392107055789095 -2.0488483777062467 0.0066034107333978074 0.057796393911018845 
0.088573391548643798 -0.74944932080892657 0.053096744925751366 -0.129013910521981 
0.53394606203045847 -1.6771301192791477 -0.36722539574248625 -0.96266204450367077 
-1.9121164697423354 2.0007726851373486 -1.902380904040059 1.0205758049712368 
-0.20398048316516959 0.24915807205745238 0.23266320478372365 -0.43581704839573437 
-0.29491076485932149 0.18498901353581249 0.30717730241290736 -0.25827474998007743 
-0.17443300527782271 0.24668306906233858 -0.047928506577268111 -0.0034868673282709445 
0.19427221761716573 0.17671828824885086 -0.065263261439052034 -0.27580312805163765 
-0.17443300527782271 0.24668306906233858 -0.047928506577268111 -0.0034868673282709445 
0.064010197113530939 -0.11159811297046428 -0.066635244964062063 -0.82005125049080074 
0.064515243870014463 -0.14488035377937022 0.073352811718079378 0.064770909370290938 
0.20549408071159656 0.59044147815421977 -0.54711621991966164 -0.63489429573116996 
0.050958080260317624 -0.12819026066387354 -0.037282254767705594 -0.15028870327144814 
-0.078971290296512786 0.3652359997466571 0.050525257026472495 0.51336754600852197 
0.067328075625503733 -0.034190599919001266 -0.18255867897454467 -0.088708764448860777 
0.063808052959679784 -0.28051421029747303 0.035411354527207214 -0.67772814581533647 
-0.79542520967102359 0.96026895246754629 0.59193411676510288 -0.58045865874902791 
-0.33561348689734138 0.8197946887601798 -1.3060690012763798 1.1457308710075476 
0.12644578868110934 0.23527984363649812 -0.11259704756143071 0.16883404878520372 
-0.51344494568303778 0.58957937229705348 0.040606642281369565 -0.43277296658019265 
-0.03551915344704562 0.00097689048689890597 0.08020925780668918 -0.72953688255465599 
0.014831251194481131 -0.14259241730887534 -0.060449922392422271 0.1144586400536986 
-0.14963604997810331 -0.15189770317202911 0.2894401461730377 -0.024127808573055846 
0.056843641938092715 -0.76956596328325855 0.14819148510408794 -0.3356192978110466 
0.18972656983961123 -0.1953497711777531 0.41806513830632236 -0.033038787039350662 
-0.036254412364630922 -0.026515722474291535 -0.13837092754273822 -0.23806033343490751 
0.06873840150161209 0.01536462774349609 -0.083946219827778445 0.089106350385606437 
-0.044664435583239334 0.17229948097773273 -0.10647268291356185 -0.28264442088890962 
-1.301089621868954 0.094899867237863644 -1.1746601651301971 0.77758047875943048 
-0.19921045389583528 -0.1375170509668345 0.011644905616975343 0.11238765355743634 
0.12601167849023762 -0.29982866857932922 -0.33586594382942375 -0.63907429526072601 
-0.0085343916265861325 -0.016832146700255041 -0.021194958215391677 1.4201781655669361 
-0.039184617046924476 0.13267070058682026 -0.16712705555823831 0.18032427057948258 
0.13390968116325186 -0.20035672206607172 -0.018037109353811892 -0.7243298238950977 
0.040817235448461775 -0.062992714773640573 -0.036612533414229771 -0.12074115214790426 
0.11315610812557667 -0.068311416243759554 -0.1649638877447781 -0.26578732360732588 
-0.096724458159247587 0.10655563529021335 -0.0087013509217465368 -0.062028332314166601 
-0.69288349098090862 0.62295319065428978 -0.15353704660098211 -0.38996635839093091 
0.010640574829595763 0.066114368432831222 -0.1504939419992172 -0.5029037037554438 
-0.0082400679887565942 -0.14874269153653702 -0.039520165661220463 0.16098722817611033 
-0.12656244615952952 0.14399326374531568 -0.16086151751639913 -0.53387935480654602 
0.13712061953454127 -0.19786601759684935 0.2019291733518567 -0.0005122526074490541 
0.13712061953454127 -0.19786601759684935 0.2019291733518567 -0.0005122526074490541 
0.15587557761647711 -0.018119540474174654 -0.12428957334443821 -0.4800656600476178 
0.13712061953454127 -0.19786601759684935 0.2019291733518567 -0.0005122526074490541 
0.17387467690823105 -0.17599608641067163 -0.17661447368091698 0.060607129137301832 
0.032337940594132225 -0.11120050718541952 -0.042305485347423649 -0.069348668268403663 
0.10010621764782622 -0.16151409749930645 -0.023075029809871049 0.082032369218828741 
0.027054757417941111 -0.54806287014785715 0.25473790505664562 0.66100483420717926 
0.083455652842712558 -0.011654474512906174 -0.072610712450619674 0.051777397896308135 
0.5727353253456795 -0.31326412015278071 -0.065021077891006279 -0.5526863569498689 
0.36178673624047519 0.63977383469848459 -0.78510543852144532 -0.92940783644061054 
0.40895016672943046 -0.13454471771892382 0.24397358249564019 -0.85910487470344288 
0.13356216641326554 -0.30755609361999503 -0.16005592066325108 -0.18964131397143091 
0.099612718003678422 0.060638583864448502 0.10887678441098692 -0.74273024984549518 
0.087595711774209842 -0.2279843746777403 -0.057115212716309337 0.71237751433306995 
0.15738305966083083 -0.75978482254169333 0.021118887700781297 0.398212959964931 
0.18216269756222708 -0.068346408958841309 0.030398084906184807 -0.10821567920695206 
-1.768609542882158 2.2446170041832723 -2.2900945827549073 1.1749157661184955 
0.65906958808598026 -0.14923635905180166 -0.19521580260013327 -0.61395518401193216 
0.56767387875304298 -0.89499434804116784 0.15546542832678309 -0.22260026989858597 
0.92379873467580509 -1.0883171939648995 -0.32591434966538657 -0.28144125316144414 
0.022100588126510945 -0.22209696884647326 -0.014807292593195964 0.24720829080038234 
0.49711127917388731 -0.10444342603794765 -0.18241926848152867 -1.1148690318021053 
0.037380407581467101 -0.050561734405308562 0.0004764550248263932 0.004331695527098711 
0.0054630651582532608 0.025562914319218366 0.2845514727510236 -0.04562308885945076 
0.037380407581467101 -0.050561734405308562 0.0004764550248263932 0.004331695527098711 
0.043420701235659234 -0.36964853056372937 0.033926050733656538 0.10605013919439582 
0.037380407581467101 -0.050561734405308562 0.0004764550248263932 0.004331695527098711 
0.27426560810855538 -0.38829802713323414 -0.47924399787970373 -0.59274108767028366 
0.096762977666682431 -0.083952836413356935 -0.20818206465141439 -0.8609188591869914 
-0.31810666088684209 0.68850035860098557 0.19459386931448142 -0.11472808181641243 
0.11685737410909591 -0.15791421849970905 -0.19549675753980622 0.015923329155315261 
0.13092989528407378 -0.21094714157222458 -0.15732728726926376 -0.21498020750572769 
-0.058175558551324683 0.068656016735082759 -0.15090250713986114 -0.38292669401699087 
-0.29787623803835495 0.43754928406890553 -0.024399299758917262 0.063374648985828744 
-0.61871493800139099 1.0410141998142401 0.068227308316781865 0.053171842986079944 
-0.23746293060364607 0.056171498331131331 0.089528055579353061 -0.0046685660045203796 
0.029991493969032418 -0.00087407741821421414 -0.072903707015402941 0.27465526239446059 
-0.23746293060364607 0.056171498331131331 0.089528055579353061 -0.0046685660045203796 
0.10771044804366287 -0.28868717138907174 -0.21842924412629433 -0.69857828852892756 
0.0019723707151750314 -0.28120152725634162 -0.012493789555579185 -0.9294680853094619 
-0.11146028828070968 0.2407415612765621 -0.051418710272135265 -0.58876340093071666 
0.44579504933442382 -0.40443251448612189 -0.20612295307243922 -0.38308829682746137 
0.11595076653531097 -0.25588189915104065 0.12490119467360739 -0.12323976660247374 
0.033704028108937564 0.090294200670549565 0.030064062615152792 0.59413131515813677 
0.13958878737271263 -0.18971473717688558 -0.18494686331234772 -0.66662832334691746 
-0.19647027344670157 0.32221089510518491 0.34053072674068202 -0.24076238148597412 
0.1659591871985403 0.051695937550773619 0.3872568634911126 -0.0018587223006808551 
0.17131596551739514 0.29911908552173166 0.10155513994763433 -0.8177996515726792 
0.19233219146912334 -0.12391030069756979 -0.19431411986945901 -0.61640161361093004 
0.18738904517570643 -0.24667114459489869 -0.22563180408665828 -0.14418022002017034 
0.1111010622876083 -0.011978996417644588 -1.1319564394191663 2.0877894270425021 
0.14526610081912961 -0.43447751774954441 0.21417071248353856 -0.53073307234625089 
0.0093941421509142267 -0.21091882424454628 0.11375638128840976 0.38158509854820272 
0.045679650877990252 -0.42334062244414034 -0.067900993318591174 -0.234014055635172 
0.81014346718170138 -0.27107614553797776 -0.24179133958857044 -1.0413411445404577 
0.14316343135190199 -0.14217277024578157 -0.11246754499021597 -0.5042854993036382 
0.029659447644829733 -0.15521576386621336 0.0488571002847418 0.027751330109701274 
0.034011748995000222 -0.095026705836134956 0.21637167480915712 -0.3485670315224812 
-0.037333645873830285 0.060622970418571287 -0.65992269792618419 -0.72494843226560546 
-1.1233438108146312 1.1566450164875615 -0.011112798659041951 -0.0064762488728322323 
-0.448185533192617 -0.35362762866735276 -0.065711081481353836 0.39461808515371083 
0.060774811929732275 -0.35864379495688553 0.1244790240886169 -0.21458511673927672 
-0.30000236129301955 -0.35377798685970513 0.29642089266472893 0.41559419608429271 
-0.47244984297256581 0.67625495185567586 -0.11753964620320556 -0.042273848374856211 
0.10471312350499118 -0.11956604986536581 -0.12166437794831331 0.47233658627231534 
0.035363396202368523 -0.20271371461232912 -0.01173817271230328 0.17315724610862526 
-0.053951617992486565 0.12044514837133344 -0.0188087220559802 -0.21459727980711266 
0.35582721034631631 -0.094236391209289394 0.09424155491178729 -0.8512271537281233 
-0.17553583124022826 0.43974096276002494 -0.40965081696773642 -0.3064352242203528 
0.083684631651014557 -0.23538935870111904 -0.13434787347938262 -0.081119186973965349 
0.108887223250192 -0.55687487785016676 -0.084201907313451479 0.77039664212793568 
-1.8440957791664232 1.8270073345279076 -0.70728868131510791 1.1421859600257371 
0.04426512231709534 0.41276352170668695 -0.43921205277674824 -0.22777553521951791 
-1.7808767089708453 -1.1833996819354589 2.1755637105279098 1.0482147171917029 
0.04426512231709534 0.41276352170668695 -0.43921205277674824 -0.22777553521951791 
0.04426512231709534 0.41276352170668695 -0.43921205277674824 -0.22777553521951791 
0.027688858160168285 -0.07133490921331001 -0.047639964993979683 0.048684095679102576 
-0.1770666456416248 0.16319873491613771 0.040497011523353395 -0.085865752506072243 
-0.1770666456416248 0.16319873491613771 0.040497011523353395 -0.085865752506072243 
-0.1770666456416248 0.16319873491613771 0.040497011523353395 -0.085865752506072243 
-0.1770666456416248 0.16319873491613771 0.040497011523353395 -0.085865752506072243 
-0.1770666456416248 0.16319873491613771 0.040497011523353395 -0.085865752506072243 
1.1789279086244879 -1.1943172635781634 -0.0043277187471482403 -0.34868573046080376 
0.23478206785939104 -0.46594492346426142 0.17228739084268141 -0.49980853945699288 
-0.11759054454102962 0.077232903906274408 0.096461349430779594 -0.082087874907930236 
0.14541406111749378 -0.17111519538465667 -0.20462099019969149 -0.30538037782996541 
0.12975256176972161 -0.1305052103319882 -0.14086381127382333 -0.036885702507322329 
0.19444907007091067 -0.034899047958257379 -0.22210963278322682 -0.10780668416461495 
-0.018181752824876989 -0.13695560035285223 0.021139302485569209 0.16211221458216407 
-0.7316938626820737 0.87797992658648782 0.014254123897618367 0.018493152882991176 
-1.6177491844238796 0.77837317019576258 -0.0059054786997603716 1.2419080310483521 
0.0193949182182062 0.10490608731963436 -0.41334047392638651 0.71949697996839967 
-1.1441966564424795 -1.2162323421200427 0.36651626532043891 2.0660472956263285 
-0.64654880085704147 -0.23220014874188405 0.014694445791030547 2.0117994854759806 
0.070296735127353321 -0.60850886684667538 0.62896265012970187 -0.97531922685069405 
0.26412990240697803 -0.39132097636093283 -0.26748117226965618 -0.14883678210985116 
-0.57780907277443605 0.58401846886824593 -0.124352924101337 -0.21160173693516185 
0.068046332081525149 0.0465569934232394 -0.031990611048049213 -1.3690863425075235 
-0.68207735308072237 -0.035377964418009465 0.36952507356641612 0.0086464852797667052 
0.2429109403405027 0.070436116230266951 0.07779768756906591 -0.86286828620311185 
0.13490153251286877 0.030377238513395369 0.32817103266384062 -0.32019850850657355 
-0.093272529197965581 -0.0342607507296218 0.011023903103553639 -0.40306165321834964 
-0.68207735308072237 -0.035377964418009465 0.36952507356641612 0.0086464852797667052 
-0.24986239319550102 0.29994530414352727 -0.017423697119967572 -0.011377695893677937 
-0.24986239319550102 0.29994530414352727 -0.017423697119967572 -0.011377695893677937 
0.095508864821242961 -0.33554129659605231 -0.040803564126771066 -0.2946723633768818 
0.25630889900270448 -0.42185642922351196 -0.066644579127318831 -0.48389080300443188 
-0.12762260317797283 0.24722518621072276 -0.025453051728602405 -0.0046675718139452269 
-0.24986239319550102 0.29994530414352727 -0.017423697119967572 -0.011377695893677937 
0.16277052439826453 0.21280618392248529 -0.27640736384541859 -0.11924014009588672 
0.29269381158827068 0.053332044099319645 -0.48397840259333702 0.24249461706147038 
-0.24812585658891514 2.7456666336342606 -0.2505193242424999 -2.1190181192467201 
-1.7238651844043311 -1.4100572614300706 1.2793678689605334 1.6540552487841285 
-0.34913731143710525 -0.031903177877585828 -0.003535886510474609 0.92473676326205723 
-0.6559153111725573 0.060872197001239525 0.12310659723220328 0.93295777927487655 
-0.7484365647944462 -0.016233103118625289 0.16505394874536183 1.0149570918134523 
-0.021453236818023198 0.039682642942048332 -0.04288187582168819 -0.8458664276684883 
-0.007273372440265732 -0.012436393415597411 -0.013368258011829726 -0.30377730390660151 
0.056168057601031871 -0.42896742415255179 -0.051051270660587657 0.18625210671576181 
0.40639567693629536 -0.03353518719639452 -0.088219943201957182 -0.28402608609066743 
-0.066131433310877369 -0.010742602591874876 -0.015718925793334778 -0.22460242003450626 
-0.066131433310877369 -0.010742602591874876 -0.015718925793334778 -0.22460242003450626 
-0.066131433310877369 -0.010742602591874876 -0.015718925793334778 -0.22460242003450626 
0.14245103032839856 -0.10866621927847517 -0.42207345151361053 -0.10011527642906895 
-0.066131433310877369 -0.010742602591874876 -0.015718925793334778 -0.22460242003450626 
-0.58734886384349849 1.2672138899750405 -0.20370567981530396 -0.33833710642882397 
0.12542663348094968 -0.13023459630797399 -0.15631845200095715 -0.30129626977939244 
-0.050200837432014055 0.35150566677614725 -0.17689641946158757 0.19036545338166741 
-0.1639493294450998 -0.52143820892999548 0.0096760187520451985 0.30422354455981487 
-0.1639493294450998 -0.52143820892999548 0.0096760187520451985 0.30422354455981487 
-0.1639493294450998 -0.52143820892999548 0.0096760187520451985 0.30422354455981487 
-0.11364685358172774 -1.150072810695753 0.28584135432097058 0.29851756674891478 
-0.14972707333440835 -0.70781989352460972 0.64855544768560724 -0.33228862555726568 
2.5104872298183176 -0.051291523960462881 -1.6298629693167275 -0.58084136920612905 
-1.8004392948363623 -2.7557447628277081 2.0017803061336839 0.70666003228689644 
0.053511516001699497 -0.17449049654754198 -0.020163931281998143 0.38964547791647963 
0.076280401862393071 -0.090267979083168914 -0.031828944999463052 0.24026778017563719 
0.10497454081961716 0.043648210537402407 -0.0255550121171122 -0.2733596029927855 
0.021285820455863858 -0.014999145904360132 0.0023562163842235154 -0.11709162381385904 
-0.1935507560604352 0.30352569653280304 0.079777904040339798 -0.033203830626014307 
-0.20617090865217144 -0.54990292235787097 -0.11893472302285746 0.40036443866667065 
-0.17561499590890928 -0.60567286946742271 0.019174197004456398 -0.040200108554848679 
-0.20617090865217144 -0.54990292235787097 -0.11893472302285746 0.40036443866667065 
-0.53367564484174035 0.12977217141111319 0.072192400463636133 0.014379662114825839 
-0.015998725864897197 0.24879756280960763 -0.015713306015830469 0.29185221530714323 
-0.25887676859293102 0.060830643028664783 0.81120009655348024 -0.20704322961331428 
-0.026949188936744337 0.014781121775008711 0.078071634213123742 0.12329355505695999 
-0.53367564484174035 0.12977217141111319 0.072192400463636133 0.014379662114825839 
-0.53367564484174035 0.12977217141111319 0.072192400463636133 0.014379662114825839 
0.22615231660599516 -0.62604180161115197 -0.13742672470994216 0.37458322085970147 
-0.19177407068433236 -0.68045248117271195 -0.0086856675888052487 0.51783609198084501 
-0.0053905401402713493 0.065336449167733679 0.068102732715427911 0.61108001933468781 
0.0043407065504025219 -0.10961829118742643 0.009611389185278145 -0.13565850778522134 
-0.243492260928517 -0.68027240211361617 -0.016637141947426961 0.44077362646122298 
-0.58762698102820021 0.64222359575032739 0.099406480648882176 -0.62872600735383855 
0.065489767254421113 -0.19552736746713717 0.080375556696870826 -0.14771801200088602 
-0.31993016303740146 -0.31889697328956657 0.76005062473468343 0.39809402327876192 
0.049848600704905766 -0.087517975206597445 -0.088655404377899386 0.49939467404721793 
-0.22531996629052503 -0.087665569879944408 0.19648769520921489 -0.2945299573636096 
0.023010844836963765 0.1629974774079973 -0.22364187940442101 -0.65710142184636733 
0.46439990631559647 -0.08706261732754085 0.0015336834527752232 -0.0088664492938757243 
-0.35998382333996309 -0.20891063192408635 0.20974394257750348 0.15403291732384677 
0.060626301729834305 -0.2329637806770859 -0.08822738481492326 -0.32095567925673751 
0.3692120557723354 -0.53705287800780965 0.22355740441014912 -0.2126541511954789 
0.23696249869370586 -0.27554318035269076 -0.38994485238317222 -0.54084883586323484 
-0.14192632469703428 -0.20681987834212576 0.19565079343406239 -0.47285832533847588 
-0.097924697562777385 -0.2046767330152891 0.20435528487556298 -0.49378349016424722 
0.74485964833975926 -0.041714957395107999 0.062299433675734706 0.98588917729554659 
-1.0613426086793736 0.1648499239424745 -0.005992108635738326 -0.0092912676472888846 
-0.047768164666446511 -0.16105338903235411 -0.4483081856255311 -0.41164113110135248 
0.34420857022910262 -0.38019812281719717 -0.10512779221162849 0.1738361040652889 
0.50173049654791679 -0.25881532697322612 0.0065156956984656622 -0.86224054238252668 
0.12003256907086204 -0.46889691635687669 0.011408759451303801 -0.0064711827221508398 
0.069875682203878089 0.18565775024196984 -0.10456624145708908 0.11180801378059604 
-0.052949395708792979 0.10745671144602673 -0.25652581292680054 -0.077181368110089632 
-0.58958992340171545 1.665001583980221 -0.71636157323424621 0.0014106393948154967 
0.05093584091801296 -0.074993190513456098 -0.049169200738246294 0.2985144527070025 
0.035306617395004417 0.39654007568861988 -0.26868531184083994 -0.10323224637264836 
-1.9776702324557056 1.3728964670577719 0.1357735870252898 -0.71592887680429917 
-0.61408766354070832 0.056761126661042688 0.38741611613404986 -0.7180569152186359 
0.026464361584318481 -0.77177113941350872 -0.076054030843168252 0.31003401697540656 
-0.18924020587985962 0.24570431775370294 -0.41239546228041379 0.71207808391124239 
-0.15670928869761386 0.37029212059235028 -0.1015589041080012 0.1282184078598895 
-0.32672385892459171 1.3858055405189997 0.30803699975463356 -0.23162927929141755 
-0.51275803725686309 0.31144590964188595 0.00022454770375274108 -0.18065326331615483 
0.18635268623624851 -0.17272336246851083 0.077611384030438879 0.14039362157720775 
-1.0987591352392834 0.5858328688167892 0.33867335605126625 -0.0045503144805025507 
0.26605342762335965 -0.10384534898603585 0.081971623336174665 -0.65327438714405983 
-0.016630691673921505 0.2706024862939288 0.23333326964429449 -0.2237489766220799 
-0.94994275163299835 0.59022047302798442 0.28312745321639332 0.00064687470078400968 
-0.0073106249581223678 0.16558464116844412 -0.12578323557589466 -0.060352317453099075 
-0.12433952702932165 0.16587135015562737 -0.033707359076511054 -0.082184136633725841 
-0.09435894944946846 1.5367158584957914 -0.51401477833462694 -0.30879958322297457 
-0.051833979549211616 0.37640280291543993 -0.45841168389531844 -0.33134504576230683 
-0.20018493473276755 0.69283274709926312 -0.55060705499606699 -0.32059407412032837 
0.21001670857366261 -0.17727224042713174 -0.18586303249930036 -0.69510486159565787 
0.089605276909491119 -0.1467982291564171 -0.11733865537812314 -0.083877432886789893 
0.57787775167218269 -0.24583145747628818 -0.01932623076556534 -0.12207720398206573 
-0.027780475740092021 0.030103910713394091 -0.00669289500293491 0.13146657255916916 
0.11976330532114648 -0.24320528786568837 -0.13686492236933356 0.10098846486775648 
0.13760533797458147 -0.16979893259588938 -0.18572125967719813 -0.093463177643503578 
-1.772112819853493 -1.6717398305675748 2.0693016931135966 0.40966987763067442 
2.0666264624875721 0.24811516591468674 -1.1919172651639229 -0.29128494497289481 
0.23610755746964285 -0.177043340994782 -0.13678044444268531 -0.35502660809355197 
-0.072022777547751132 -0.18807451718553653 0.21494628267057814 0.021896703165928656 
0.054347241119169977 -0.37174829211867677 -0.31214512569666325 0.096126470259290456 
-0.015619093066962117 -0.21000039272797322 0.59928003145855635 0.43514417652561566 
-0.36111772786545632 0.14101255287789533 -0.24201152687995053 0.16634363970246244 
-0.0024597537801058361 -0.21768813457055136 -0.08440311009542778 -0.53234838212677316 
-0.097265629299854148 0.49279953899920353 0.1620506827467752 0.096630476434188178 
0.20358981658645386 0.085072521865804426 -0.23209426216574308 1.4621215006618067 
-0.65722167530066922 -0.02370356383345959 0.84643286919588001 -0.26245625489384194 
0.29624738364724812 -0.13761755155624525 -0.16834646999338748 -0.93252467540139061 
0.069620309516970375 -0.10707371184255057 0.46786825656979369 -0.037930763957058439 
-0.22397335369912658 -0.02667440943608354 0.68723804547502454 -0.26336861622516489 
0.012916600938466076 0.30238708409757198 -0.3400075638564467 -0.051864494376932413 
0.31067773464763959 -0.040158258575064103 -0.73612191363163215 -0.48262702374406286 
0.19453745751143156 0.6735503135319818 0.049099453382582516 -0.25019240072106091 
-0.14379849490476249 0.061932025749514993 0.05493688228050303 -0.46306430339302046 
-0.035369038837646249 0.69151978457783814 0.065536597276621839 -0.0014470692238718848 
0.016962255165230231 0.34278052419879912 -0.24963273907169226 -0.091528735911558676 
0.093328165477736938 0.088440280462597748 -0.064299891234846807 -0.42592846843876547 
-0.053623074769848969 -0.24534671062310387 -0.2103155102279067 0.54668777295086146 
0.24201713338577641 -0.4306428984527173 0.1119541360218658 -0.53343282811051573 
0.075236051001139656 -0.16038936455160629 -0.080670598605540836 -0.27682302059302194 
-0.093823997332488807 -0.063072499280691113 -0.27388534345144633 -0.030463217874752167 
-0.10529091514090648 -0.14117391850227376 0.020954078910627741 0.34881296434947584 
-0.53912633758854189 -0.095575877617015276 -0.13940733995837562 0.018739834993494853 
0.039240509490715725 -0.078436625881043567 -0.15016596738417173 -0.015778831137114743 
0.086043190687047341 0.13101733719717906 -0.17036683490156654 0.468577642525907 
1.2251615398754436 0.19543427238148836 -0.56027889086511595 -0.51643220259040723 
-0.17477869832916096 -0.40560605197885446 -0.0085374066929984199 0.30971034909699813 
0.067092245473589329 -0.052115161117762973 -0.22549988594622716 -0.034675249698612277 
0.11470648404685965 -0.24608960924248746 -0.13633502634057609 -0.97376231031687643 
1.2481426019428472 0.08228673745172016 -0.62761653603899537 -0.78329651826611124 
0.045758984608355015 -0.12314485773528282 -0.065078133217152556 -0.22429542895212862 
0.13938841546920139 0.42659999801589366 -0.02573930429793389 -0.45738824578576981 
0.24975432574462617 -0.66248236742875277 -0.14957609097776928 -0.36187970680957876 
-0.038247246184575256 2.1845461813649507 -0.88865308771871332 -0.34793197848112167 
0.49907793478352014 -0.68409223879839987 -0.00031927478733403264 -0.11771088182596562 
-0.095474674950100799 0.22444044047232264 0.017976692187694304 -0.42720347291330846 
0.086216041311344679 -0.33544529746851531 -0.13445260630366113 0.055024037259871802 
0.36260112104396663 -0.62270125697546508 0.015959184650819191 -0.089823602509207137 
0.029928067909060756 0.069860284979676238 -0.12518075365163667 -0.23236532616949376 
0.49455767787230198 -0.035361304463961844 -0.40733597435996688 -0.21837978306802699 
0.053993493620773214 0.10522462503318923 -0.1462449591329206 -0.52850707245754358 
0.33645145747274924 -0.043051391247770784 0.30240098410173188 -0.06552861534164614 
0.33645145747274924 -0.043051391247770784 0.30240098410173188 -0.06552861534164614 
-0.11976416756273603 -0.12264066106521071 0.050831168122687058 -0.0041223185953702529 
0.31013093602478908 -1.239127255071188 0.17978088568396755 -1.1368563087829624 
0.081574058890855908 -0.80352994547656287 -0.039725856398448833 -0.70850049290784967 
0.086589022508012037 -0.24556778390264317 -0.15369564638534888 1.5035318088273402 
0.13437616136992833 0.057150675830114087 -0.039792243232113715 -0.37944531745281063 
-0.14594799704433958 -0.56042020991341523 -0.0094979359562908025 0.12288377235628563 
-0.04879321557355993 -0.085554875263120583 -0.13036127755079402 -0.68966767339294255 
0.34357969621981993 -0.68712764756704636 -0.30019188895570564 0.054885950643185466 
0.048457104255226431 -0.17303906989024309 -0.15299523935389078 0.19688955443539857 
-0.72449726229788736 -1.0840687900822332 -0.0689174539851833 2.0677042383232029 
-0.10443532449847179 -0.093185622879522839 -0.10176806155148949 -0.015930506491746418 
-0.57202014222732644 -0.048970106584448808 -0.10857024718751751 0.32096191068453916 
0.4462678440620742 -0.6160454013762755 -0.26674115425028977 -0.66935515004277701 
-0.020260470351681742 -0.015053530631052997 0.11220661039563365 -0.41462450757863462 
-0.35431634116965804 -0.31438374197631574 0.046325878220219496 1.1245667723010615 
-0.086730606957951706 -0.15683582447395408 0.12855627383135484 0.052630984392782104 
0.044797832417768066 -0.036538207404372781 0.020557478716115088 0.12352689859042115 
-0.023498646796317066 0.37356639579236972 -0.38559099105480638 0.18515856140202849 
0.05150040212275063 0.010426412288013998 -0.30700068545229597 -0.48980179745331154 
0.011838992902830876 -0.061273412963972443 0.054950996693560787 -0.48137065791118888 
-0.050310871010456781 0.31966015164147299 0.095789347342425113 -0.36729870774286211 
-0.0051730454535789394 -0.060768523094928605 -0.15668002082451032 0.14203458975316455 
0.054475662506880143 0.63376358811382372 -0.21401821459819687 -0.49684056069532501 
0.16357869316954213 0.89577620967545735 -0.21196950514393753 -0.46627478400716693 
0.79281707951532021 -0.64911262097545419 -0.82662319919404081 -0.23670884498129524 
-0.10626265842331296 0.49664671127954307 -0.030335405079528584 -0.0018120827730202919 
-0.0036095868717690403 0.31500361326342091 -0.066879786801591332 -0.014920952869050397 
-0.10626265842331296 0.49664671127954307 -0.030335405079528584 -0.0018120827730202919 
0.098345771822544614 -0.19843931742081033 -0.062290088162340579 0.0031560581290675759 
-0.10626265842331296 0.49664671127954307 -0.030335405079528584 -0.0018120827730202919 
-0.10626265842331296 0.49664671127954307 -0.030335405079528584 -0.0018120827730202919 
0.076829387910495844 -0.013879386640939399 -0.46733352108519743 -0.018993061730238622 
0.33473048092551727 -0.48903041684069565 0.083586120015711127 0.42715994828576676 
-0.18755597660038792 -0.42295779835108849 0.017811799192796421 0.44617648918949643 
0.0082550916693689587 -0.33329912310771109 -0.17713110393107653 0.11215920823559905 
-0.47817529835023831 -0.1598838707903974 -0.05863221957553183 1.2432290302382034 
-1.1625990144885421 -0.12735291625553632 0.0043377331461523436 0.90784103563818097 
0.3877632901341464 -0.18652632740332592 -0.11991295414785573 -1.3673236472742554 
0.16806321455597675 0.11860433345772858 0.04384423975993583 -0.23795874074047874 
0.17987528482772902 -0.077562761665150429 -0.069665664829425017 0.15248568053168218 
0.067466699155012216 -0.24617910325123848 -0.046608193058154626 -0.37965204868302982 
-0.09992311156819278 0.17239665071278842 -0.29639299685929932 0.37111841427246439 
-0.053453988965109819 0.099178957316959332 0.13154655070957783 -0.65513576796899786 
-0.17558817820475811 0.10935405623264599 0.081510739186569842 -0.16708755258207658 
0.36449436070559754 0.003082754570909188 -0.32529206105622499 -0.60387780225750398 
0.050523385779879332 -0.067250896723178549 -0.0034814236153642136 -0.53384127218088018 
0.0022361687455352275 0.25738107151962197 0.2158331146087972 0.15481341586754258 
-0.17966489713433231 0.93347907075027803 -0.061321896473635354 -0.20832937176228836 
-0.32998986440681977 0.85373345871336792 -0.76893961109540343 -0.1006586551630928 
-0.042132673236529569 0.2334658444076089 -0.045467295021406243 0.30752187924798874 
0.16016552110171675 -0.49717884237327042 -0.32997024380790785 -0.2391259481977 
0.061704416052711146 -0.26271006147671994 -0.45752635185143004 0.09492202706082771 
0.2048213264333037 0.02426398256764678 -0.22206223438682224 -0.29909682612522315 
-0.68361970860163468 -0.044849921755849759 0.80810672497628078 -0.47816152480088059 
0.21957678185103466 -0.226371172956192 -0.26534048821255857 -0.074973811694963782 
0.41600334578466713 -0.25536960005877424 0.0096713057699291498 -0.18348022632109789 
0.52182961367063441 -0.26287846450948993 0.25822125573378113 -0.18568289660329365 
0.2526465885825393 -0.27120342931759817 0.054493754631267891 -0.08228357141604431 
0.19553927299947887 -0.28545270786202331 -0.2193014557765815 -0.24168983329297322 
0.17094373643005331 0.12766975875738004 0.01513188568516706 0.0024964946554872666 
0.071731117095556546 0.035434290310206021 -0.43085059014601679 -0.25548952358618027 
0.17094373643005331 0.12766975875738004 0.01513188568516706 0.0024964946554872666 
-0.43358992971375088 0.66298671657688646 -0.021162500133423464 -0.60351141227366534 
0.17094373643005331 0.12766975875738004 0.01513188568516706 0.0024964946554872666 
0.17094373643005331 0.12766975875738004 0.01513188568516706 0.0024964946554872666 
0.17257391662309945 0.030169293264907436 -0.22714044808920808 -0.27198032511397902 
-0.1163899528717115 0.26964504960649993 -0.55380001412960944 -0.32513594219645159 
0.0062407831472030273 0.15514419184502212 -0.034680994309840354 -0.047705457040160451 
0.0034151699939109145 -0.45064133265737688 0.12876703900836395 0.2551927299959631 
-0.028741021924706206 0.26454378945089163 -0.50754276910655505 -0.0031992951189260335 
-0.08988880533232893 0.28560805964152719 -0.17570197178848523 -0.19402995908560702 
0.4886449120746541 -0.30079839450440721 -0.15576762089109131 0.0047364010940258543 
0.12184347479343879 -0.0070446228438350682 0.00087209847783177173 -0.0097874878242778917 
0.12298861319155435 -0.61148764960841739 0.23366415580367281 0.023458372233227373 
0.18910941675855641 -0.12874536339589587 -0.14236500281950151 -0.17947719157453318 
-0.23247855489657007 1.0749788444930408 -0.22697639814054718 -0.80395157720661459 
0.17831709592088726 -0.13813898190509385 -0.057043570778221031 0.853906503741235 
-1.2326674247998919 -0.40966960254499074 0.11571321709118539 0.51282205615172494 
-0.17509238739077027 0.049933771138128642 0.26930669943476448 0.94939176024465055 
0.010116899079618567 -0.77540494483811373 0.019370240075250261 0.21108251313410434 
0.056851821532573829 -0.12158484407063389 -0.081975822278668425 -0.11030668328853262 
0.074397522914937092 -0.10037294276535598 -0.095228925091980374 -0.068994385211680012 
-0.094517712959377387 0.023674307852405638 -0.009064882464895934 0.014547351202844089 
-0.26405975020065064 0.30993174950820462 -0.08125251756504466 -0.26954713911830486 
-0.26405975020065064 0.30993174950820462 -0.08125251756504466 -0.26954713911830486 
0.41873400354152135 -0.043641849675267325 -0.48354592654732692 -0.62858835387476875 
0.041989697284553068 -0.097888709045995378 -0.14772206359686188 0.17947331060031085 
-0.21622265428444326 0.40762767631010416 1.5119428461520759 0.32968497199776126 
0.41326682318513192 -0.080986025392473626 -0.44755700383754515 0.10544748428997774 
-0.27171382784794879 -0.198943709348298 -0.017484492111997096 0.50272062875047341 
-0.069274272317242647 -0.61108940345427842 0.011017869909956152 0.18544088919944002 
-0.14235925079951622 0.6699636475681352 -0.56200172662619496 -0.69286616561203884 
0.16046504612609333 0.46849370972634563 -0.63445757523155599 -0.30961462049386562 
0.0091477735498243298 0.18754326815808386 -0.42847844609317737 0.27788291742828147 
0.06218548702907345 -0.22126253280402342 -0.42989825207808302 1.0029065037064397 
-0.27987198645905287 0.10375006977766082 0.00066728375802321209 -0.067219470167049059 
-0.27987198645905287 0.10375006977766082 0.00066728375802321209 -0.067219470167049059 
0.11216843270490566 -0.13988336206137361 -0.010529913890345313 -1.1241294287884522 
0.090618931381706569 -0.19553832282087835 -0.13329561375789448 0.11908755456049601 
-0.010926449623851038 -0.45840999409966265 -0.11994104377525498 0.50282002331410025 
0.31561535289376347 -0.44107619264146758 0.16846767997341777 0.5518759714110385 
-1.4154898815872012 1.9617946326018301 -0.49928486403111105 0.0078636571317229412 
-0.17326726882087726 -0.37360631280814915 0.19022901109028265 0.015515389458170874 
0.45484340900120646 -0.29074165897846527 -0.46328585212159984 -0.054870315273739027 
0.25319599383907876 -0.30459501500376945 -0.32019142817217383 -0.47483760971778649 
0.094522136940339729 -0.12806516921548886 -0.040390946536567149 -0.10465580137043895 
-0.15718870370737159 0.28584303984099407 0.035199241847610009 0.056500883919337865 
-0.97321208056236808 -0.80260900756443687 2.0501938792216685 -0.43369736727993585 
0.075623929089140507 -0.63184575561493794 -0.071539272973402263 -0.5829954516860465 
-0.027478736559319844 0.052240640789865719 -0.20284280352071038 0.24741952002518411 
-0.09205314955280855 -0.018341260677468635 0.39527094869522439 -0.40215913324909791 
0.22294489248031485 0.16155701150788496 0.10762472073172119 -0.69436939304354883 
-0.26187640428212289 -0.4838538066821968 0.72485020619591944 0.048044699046987022 
1.4764202674672124 -0.40956733713222548 -0.16092926095203952 -0.016483241489420042 
-0.448483021296055 -0.45831368432834696 0.0073285851324328289 1.2152421948402443 
-0.17537756851915731 -0.34358422917972042 -0.13245464046675043 1.2594801888124578 
0.10973284899829761 0.025493195230827728 -0.17407674821225921 -0.30408733278493066 
-0.0093751777691827853 -0.20756108372132775 -0.22034385339787244 -0.24699675126176054 
0.14009697989508746 0.0054879162494282929 -0.085981441374011758 0.02980959384467553 
0.028064572470967303 -0.089218190211701118 0.046780306312341279 -0.67297721961859835 
0.6441200551631866 -0.85693422798304464 0.015091728748937543 0.16815672423792924 
0.096106723145977901 -0.0093965544869375611 -0.17309712224732787 -0.22771291844967093 
0.6441200551631866 -0.85693422798304464 0.015091728748937543 0.16815672423792924 
0.048998981056329605 -0.41358225808791188 0.22324932746204712 -0.11783018991807746 
0.0028823349396303486 0.0043325500753959925 -0.0015650571626804354 0.0054417756848562406 
0.21721432228577855 -0.30556355307713157 -0.024660316915748503 -0.36499885426193318 
-0.071894529320311512 0.25024094215158066 0.41419885916655852 -0.55060928035324896 
0.078633477584536982 -0.19925971279782531 -0.013485830810604282 -0.11912027558101743 
-0.70605370692940728 0.50782627843878192 -0.06936593914823061 -0.008662614940746086 
-0.1348600259695158 0.30094452995504228 -0.037973503148739117 -1.0370216602908506 
0.068292163584876719 -0.22289042735819262 0.046436536858094679 -0.5294849289686453 
0.10524486514548377 -0.20064541003789124 -0.12750943763770006 -0.23326370672051877 
-1.3892450845785338 1.9191687694364925 -0.9837608263298272 0.3321194435524667 
1.1640767861360497 -1.3414665293202164 -0.055764220395910558 -0.78927819986477388 
0.31574597349805478 -1.0285817910826176 -0.31810597390957884 -0.73646676131689404 
0.14802271120845939 -0.15721689414796342 -0.18120126482119361 0.064701893336604532 
0.28490636645351014 -0.28977133316836545 0.097436816776491547 -0.53729570956294814 
0.586530628947738 -0.1880818269804187 -0.17198480790831197 -0.070458293421734777 
0.13382000136819747 -0.087333054686423911 -0.61904977342212741 0.44346369723690982 
-0.14678966907490767 -0.63886231256208825 0.38898245891197342 0.058718209441533276 
0.21140280673524653 0.031440820324657892 -0.27472968274411763 -0.46234016128544236 
0.04861695361060149 0.34802436009612109 -0.021592981681449706 -0.21378447391678806 
-0.64464915209765916 1.5653869947402022 -0.15944115410740589 -0.59664890411478877 
0.091126082910200523 -0.33687798096839755 -0.28396619106616 0.88695536330663183 
0.014018998176048098 -0.054163296282626727 -0.22366500309212417 0.11356273079461313 
-0.16885884647612315 -0.042856101043057621 -0.20528052667483021 -0.7137064910347769 
-0.013378980386352796 -0.25543967686510055 0.039238635686954786 0.84896708332774351 
-0.16248691311546304 0.32980117251772911 0.18623282209049291 -0.66289945259900229 
-0.0311018420753808 0.041648295547225267 0.059508304029755606 -0.19217362924499487 
-0.12816850163230289 0.24954747430192725 0.13817097369132325 -0.18574098452199911 
0.053864240281549458 -0.025380417515157606 -0.10054205200672803 -0.87125455378164018 
0.22367594885963182 -0.62032503915089809 -0.16187230301988884 -1.28210500504085 
0.14093451203052562 -0.36569563259608345 -0.029352938850981627 -0.067667684821489604 
-0.099514343819257112 2.035759301555534 -1.3773009581512277 -1.6683335048805816 
0.043104998922569415 -0.024423456643167057 -0.043925397467365207 -0.35553756670943182 
-0.32903657991858221 0.075337864555264561 1.0193007977088639 -0.24559633872198189 
-0.1892624851952795 0.0077082100366449319 0.0074156646364759412 0.039623334899278849 
-0.24695632000936393 0.050351518638243026 0.02229776057772959 0.033382429315000385 
-0.28045475557257321 0.092223683465403217 0.068308757154153799 -0.05396692691024986 
0.13301309338412359 -0.0040608300957456211 0.013767981858557633 -0.40505604025225334 
0.048368583399438045 -0.07884687198383683 -0.042734420833136506 0.22547425382920613 
-0.042552514906872688 0.20093597764051196 0.013024984836365654 -0.25963817909052056 
0.043864174221322799 0.086213992126117037 -0.12529450566570838 -0.19798683189329028 
0.011560602322743876 -0.13509076790408131 -0.0087915038646077959 -0.11607429445407887 
-0.085711366528053418 0.57611028686669996 -0.74990161041274894 -0.3135219367282901 
-0.29974240711711919 0.25679156601406183 -0.063365002056528286 0.56209535539409172 
-0.38085024499021725 0.039417832427344743 -0.37801989010060622 -0.1312433368242279 
0.13684693634088077 -0.055571875060203078 -0.011901902544107701 -0.16682495789451926 
0.35363091925202816 -0.56752678051155614 -0.037963468184181628 -0.32823884021467054 
0.13684693634088077 -0.055571875060203078 -0.011901902544107701 -0.16682495789451926 
0.021081566935025747 0.023380831627220905 -0.16315989336722794 -0.37298660949044882 
0.1008197244016148 -0.097489929748321755 0.14132936203335525 0.37097134539725707 
0.078232767007532789 -0.03877512574520682 -0.15267670562745064 -0.078389112963472382 
0.16804480605030386 -0.14119122210879179 0.24888841354208233 -0.0480188279528206 
0.45212301963163837 -0.14417429880388419 -0.28935760605925476 -3.4602189676599742e-05 
0.041112189010950116 -0.15852954027665556 -0.098729080488076978 0.0065536249361842873 
0.14293323925944035 -0.15410638023059745 -0.021339820326232009 -0.79254466870167684 
0.031805047660065991 -0.090647800683690161 -0.10645311811309478 0.018133851589665968 
-0.12364687522449427 0.075840684733884972 -0.021556085883450732 0.46212295612161175 
0.25984141720895709 -0.093683494536064282 -0.20977468671875069 0.0032996573649040259 
-0.14281526865147298 -0.037448664092362562 0.21916363184551388 -0.14112246802666276 
0.10314586183614166 -0.2587599229267985 -0.11531799710889995 -0.51142399354583756 
0.87226787093026514 -0.96684945478432405 0.0083325849360045764 -0.080915474104828258 
0.55828204277840576 -0.37464114794677461 0.015287361301774523 -0.070850665740451818 
0.10804547771085585 -0.11402085904090864 -0.10322041820727368 -0.3740210958152495 
0.55828204277840576 -0.37464114794677461 0.015287361301774523 -0.070850665740451818 
-0.17055364182731891 -0.55745366278977371 0.044847910259494611 0.30704200572485163 
0.029209558251717165 0.021605813324237694 -0.046350313933364508 -0.22743338981300545 
0.010440756736715783 -0.10907530972606246 -0.009693469137851584 -0.2260565143277006 
0.14468817038975579 -0.21309573566534012 -0.10859541733293518 -0.63261130878777017 
-0.29606300543595926 0.12243124007692419 0.021427744768511919 0.20167028740034026 
0.28731932917868003 0.024862545686530485 -0.085429664407612793 -0.22760660768466762 
0.021454845214710725 -0.074395361470148746 -0.038858654180203081 0.1803667204707991 
-0.074372357263874672 0.095844800644152031 -0.2385168885156228 0.064277116686814365 
0.13005405084998883 -0.1751219708174222 -0.44640486904468046 0.44074347393464913 
-0.15117315840746404 -0.002473761442517812 0.23218406893323351 -0.4925643637662892 
0.045584236204422049 -0.44920263576400321 0.11366377636524591 -1.4117253978278992 
0.93378569557443236 -0.3807770362020253 -0.31711933687861071 -0.0023671015145713854 
0.22292396678044749 0.11717153330333407 -0.82103283667634919 -0.22597353104293011 
0.077269269428458465 0.099504016309527751 -0.36904664503253121 0.30268928521161353 
0.3276322804759515 -0.67993341587318945 0.018304699721219293 -0.084814038739445347 
-0.31593831492619723 0.095269748692360573 0.45613345738696315 0.001327340320834196 
0.12736875777174805 -0.01187305873269876 -0.03238945945111063 0.068370224675530153 
0.12736875777174805 -0.01187305873269876 -0.03238945945111063 0.068370224675530153 
0.12736875777174805 -0.01187305873269876 -0.03238945945111063 0.068370224675530153 
0.13286450050134316 0.19675630630873647 -0.13084422426138015 -1.181017928110041 
-0.037190576398852482 -0.056078378559761728 -0.11889176755993004 -0.30041453236429494 
0.09438013040771645 -0.22645108979522854 -0.014684347426768475 -0.1729368340677071 
0.47913742070046539 -0.51664405301098582 -0.20556935414767319 -1.2624738199293992 
0.049753565264898367 -0.43472151535867093 -0.14090295554126658 -0.27698557990069445 
0.1228476026825598 0.10274160315707115 -0.21195945988956255 -0.3081537745282828 
0.031193714642013551 -0.063608862184238779 0.073813763425236531 0.13485258796590005 
-0.35507941104794288 -0.3876889711510263 0.50523988423833088 -0.40785008820856195 
0.049031616451904438 -0.090955814492480178 -0.053502619349452822 0.1391348133511367 
-0.12640322445533247 1.3645550684605028 -1.3505878135538985 0.070792699683791954 
-1.6425118900193012 0.3552555611061663 1.9191788746271445 -1.3730443250790132 
-0.16221128077205058 -0.037097396708795347 -0.28906969223498086 -0.55975600173032813 
-0.49381494798651132 0.24792678302713322 -0.34560830714998797 -0.70711976364703621 
0.2149799750134338 -0.70970093680727064 0.47931392770005371 -0.21396691406623666 
0.38872663323390927 0.15135962353327409 -0.99003693852710239 -1.1163432046219333 
0.021380348604291693 0.14732623346121082 -0.010401359795496463 -0.1403564514044954 
0.11013769656557137 -0.76935533801255995 -0.093616674415084394 -0.72374639784893147 
0.052361524570318715 -0.051991875999252112 -0.025697155361353072 0.25755546567190524 
0.16767499043236586 -0.024454561035855638 -0.17288758151458083 -0.39180513723567323 
0.00033642527502056319 0.063202928341650061 0.029609920830960444 -0.0032764942999045235 
-0.35645232222612139 -0.23820805736085857 0.25709070628908248 0.64925720985890045 
-0.6042170608243278 0.21163212634176856 -0.10190985889315668 0.40600374309105985 
0.12665610777528694 -0.13219161289222253 -0.24147985488045193 -0.30352565609241983 
-0.24380859181934583 0.33133777196447989 0.020492627611344419 -0.16480941680956049 
-0.18332449326479178 0.29579150673328664 -0.012347415875264112 -0.34630494569242953 
-0.075399357570758468 0.39883233159692927 0.030259167402770293 -0.30195374461350938 
-0.067672343292252052 0.20228183668041105 0.077072839454103426 -0.016726644404682293 
-0.079987647400910494 -0.14883887028295384 0.068904248143128705 -0.4909595648603885 
0.12346241659974377 -0.16701768661439095 -0.18178171224037243 -0.16452800339389645 
0.66066012570617072 -0.40673407296900843 0.1503908837587371 -0.14136275026027606 
0.17619631950614706 -0.43258880384308318 0.12212862484100638 0.37136327254553442 
0.020421671113022014 -0.0073349896990550917 -0.024551014315780176 -0.26538771775473058 
0.17705715764970573 -0.59185724791324623 -0.034984440970250996 0.22940031130090416 
-1.5773503580328967 1.6543177626963419 0.35335926409015905 -0.59821149493595505 
0.5032253236607771 -0.63427511931184388 -0.64022987983972934 0.078795420093409091 
-0.22608366773636795 0.47859533065046167 0.39529813211414144 -0.46081493198044338 
0.32165593151498717 -0.19981821080040094 -0.36205794067268721 -0.75866158530999817 
-0.28936359792595967 1.2799331857124783 -0.52662284885038158 0.21481477049933903 
0.22322115571508988 1.0523017430033663 -0.74524385659174253 -0.77251089256257743 
0.060377122603374966 1.4087584802114956 -0.71167541202546902 -0.76261506001092905 
-1.0123443264177663 0.065710156036786732 0.20081271099148723 0.49371773251891105 
